2711 20
think -0.59482425 -1.7656152 0.27919298 -1.4673376 0.06304908 0.6064851 0.8069364 -1.3976116 0.9326842 -0.85329556 0.6242193 -2.102917 0.18001144 0.5914852 -0.6756544 1.086348 -1.2560425 -0.9904257 -0.6537609 -2.5533612
us -0.5711762 -1.7545168 0.30827466 -1.4758499 0.086509 0.5753202 0.8297267 -1.3878139 0.9445359 -0.85551673 0.63401186 -2.0927854 0.18624485 0.58762014 -0.66111827 1.1107836 -1.2248242 -0.95061785 -0.695138 -2.6077347
good -0.4124288 -1.3188471 0.20260724 -1.2925999 0.035058647 0.40593708 0.730319 -1.2120148 0.93260694 -0.7206294 0.52860945 -1.7761719 0.08569396 0.56814945 -0.57304555 0.78673905 -1.1533365 -0.77149165 -0.5846528 -2.095812
going -0.54724276 -1.6035072 0.23895295 -1.3556162 0.047831766 0.56897557 0.7306996 -1.2875199 0.9148501 -0.7911732 0.54543567 -1.9481088 0.18338835 0.5712445 -0.6129695 1.0223334 -1.1185368 -0.90346485 -0.6115411 -2.3523989
weve -0.6324284 -1.8073839 0.29899794 -1.5700861 0.055353913 0.57502854 0.82948136 -1.4852952 1.006005 -0.91259915 0.68235254 -2.1699002 0.17398752 0.6089566 -0.75167334 1.1392543 -1.3225982 -1.0249662 -0.6692001 -2.6778996
growth -0.5377928 -1.4889821 0.21399742 -1.2508273 0.06450574 0.48546344 0.68217266 -1.1189245 0.8199038 -0.6875553 0.47065523 -1.7650994 0.16736242 0.46326613 -0.5736305 0.910596 -1.0212505 -0.80365676 -0.59009427 -2.1401606
well -0.57317436 -1.6272727 0.28756538 -1.4078526 0.058656167 0.5414209 0.7607233 -1.3002976 0.86310244 -0.81686527 0.6010874 -1.9907314 0.20336339 0.52173084 -0.65163153 1.0066442 -1.1298056 -0.8981403 -0.6596245 -2.417331
year -0.5282217 -1.5315676 0.23849772 -1.3039377 0.084689416 0.5453845 0.6917031 -1.1969811 0.8226628 -0.7587482 0.53504187 -1.869699 0.16712786 0.49299857 -0.59365064 0.9721237 -1.0622593 -0.84784824 -0.6068489 -2.2109687
thats -0.6071481 -1.7432479 0.2603594 -1.4197699 0.065577544 0.5357101 0.79157704 -1.3583618 0.95470905 -0.84925324 0.60238194 -2.0386617 0.17664939 0.5426837 -0.70776796 1.077772 -1.2160419 -0.94550455 -0.6589604 -2.548412
would -0.5590404 -1.7576762 0.25720793 -1.4858724 0.057026938 0.5356668 0.77902865 -1.3905421 0.9681041 -0.86503655 0.60650015 -2.095236 0.22602534 0.60189587 -0.66391236 1.0312393 -1.2310896 -0.98171705 -0.63794124 -2.5174239
really -0.5893352 -1.7692715 0.2997743 -1.5025445 0.05192059 0.5703687 0.7967528 -1.3802993 0.99815464 -0.8712824 0.65756935 -2.1490738 0.2021262 0.5932866 -0.7261225 1.0980294 -1.2671263 -0.98281616 -0.69461924 -2.5985534
see -0.5378868 -1.591204 0.26022047 -1.3532532 0.062359698 0.5522218 0.7381482 -1.2898762 0.9031856 -0.80227435 0.5520343 -1.9749883 0.20174886 0.5307113 -0.65654945 1.0008467 -1.1463436 -0.89361006 -0.6470899 -2.397414
get -0.5560551 -1.6402978 0.22793919 -1.3562894 0.03402754 0.5491145 0.71341413 -1.2736766 0.8887091 -0.8220481 0.5816309 -1.9438286 0.20812337 0.5536377 -0.6287673 1.0150365 -1.1673853 -0.9238491 -0.60977256 -2.3625445
business -0.59535974 -1.7170702 0.30647495 -1.4596041 0.030884258 0.5292751 0.758547 -1.3344032 0.89434034 -0.84091043 0.60526174 -2.0221732 0.2152159 0.5539022 -0.67001694 1.0122097 -1.2027128 -0.9361408 -0.682723 -2.5206702
yeah -0.41640443 -1.1852555 0.17739944 -0.9929233 0.0213341 0.3553232 0.5418491 -0.9343515 0.67162144 -0.59070855 0.4225521 -1.3798926 0.09451507 0.36179945 -0.4300788 0.70701945 -0.82032496 -0.65450484 -0.45278913 -1.689963
time -0.57718927 -1.6896005 0.24435663 -1.3797133 0.020890309 0.5631061 0.73977596 -1.3446829 0.92814815 -0.7949983 0.5783859 -2.0134146 0.17267667 0.53686506 -0.67239213 1.0210551 -1.1870174 -0.9159073 -0.6469784 -2.4495468
capital -0.53306544 -1.5838958 0.28084525 -1.3661252 0.05176247 0.5251435 0.75609666 -1.2613511 0.84775466 -0.76212883 0.5840707 -1.9118924 0.16352926 0.51710653 -0.64286834 1.0005741 -1.1451796 -0.8588845 -0.6244615 -2.372041
quarter -0.5916631 -1.5718124 0.22718936 -1.3154913 0.038313683 0.5015451 0.67904913 -1.275326 0.8157629 -0.76329964 0.5534211 -1.9449801 0.15371805 0.54392004 -0.6363648 1.0021813 -1.0804054 -0.8644016 -0.5914216 -2.3011274
continue -0.4664836 -1.4684609 0.26088864 -1.2597729 0.017526537 0.48008072 0.6886689 -1.1329283 0.7919181 -0.697087 0.52917063 -1.7670237 0.16091445 0.4867185 -0.5853226 0.87758493 -1.0568821 -0.80766404 -0.5585383 -2.163982
little -0.5556412 -1.4615101 0.27866003 -1.2136359 0.09349344 0.51054454 0.70336723 -1.2581689 0.8444192 -0.731301 0.47091383 -1.7989777 0.2169773 0.5120621 -0.6252267 0.9521397 -1.0688938 -0.8595086 -0.5986968 -2.1921906
one -0.55382913 -1.6212506 0.23497851 -1.3759704 0.08126603 0.5368311 0.7197766 -1.2975787 0.87145656 -0.8090923 0.57723606 -1.9469889 0.15509193 0.5524523 -0.6639523 1.0242971 -1.1509377 -0.8728973 -0.60855806 -2.3531833
grow -0.49832806 -1.4212637 0.24765675 -1.2399815 0.013858093 0.46183568 0.64964455 -1.1405221 0.7434504 -0.7227838 0.45192328 -1.6774968 0.1898279 0.46105054 -0.5512236 0.8423625 -1.01208 -0.82160205 -0.5874784 -2.1114006
loan -0.541914 -1.5016643 0.20733862 -1.2678151 0.08693598 0.48304802 0.6927188 -1.1856751 0.8032821 -0.6733007 0.47254702 -1.8015207 0.15543571 0.50312847 -0.5487204 0.90799457 -1.0198199 -0.77596307 -0.550012 -2.1736145
right -0.49636117 -1.4116689 0.23413846 -1.2161813 0.07417059 0.44919363 0.63497025 -1.1379105 0.7607691 -0.72728634 0.5414839 -1.7408732 0.16375805 0.45472527 -0.5949458 0.8968224 -0.99798393 -0.82051075 -0.55938077 -2.0927124
bit -0.5177342 -1.4064002 0.18548046 -1.2366906 0.01725224 0.45058006 0.6099699 -1.1097466 0.7978928 -0.7157499 0.542468 -1.7376688 0.16413882 0.46832946 -0.5401743 0.82945794 -1.0511177 -0.7802791 -0.5904242 -2.0491736
dont -0.4971197 -1.55231 0.24807094 -1.299489 0.025666753 0.5107009 0.72397166 -1.2261224 0.8255994 -0.7354461 0.5210735 -1.8522359 0.1460875 0.5206877 -0.58073974 0.9269937 -1.104346 -0.8441329 -0.6060624 -2.2795672
look -0.4907311 -1.4646841 0.20631953 -1.226213 0.02736127 0.48132348 0.6815346 -1.1723235 0.79903364 -0.7087521 0.54764485 -1.7579905 0.16051434 0.49826473 -0.5739972 0.91905147 -1.0467836 -0.8191276 -0.57193327 -2.1582708
youre -0.58404 -1.663381 0.25110152 -1.3517674 0.035913058 0.54876626 0.7549107 -1.2838464 0.9202755 -0.7851847 0.58110887 -1.9982072 0.18843861 0.5537189 -0.6238802 1.0250357 -1.150591 -0.9313956 -0.6159821 -2.4167607
lot -0.56821686 -1.6202596 0.23595347 -1.3966355 0.028744081 0.55799925 0.728784 -1.2849435 0.9074972 -0.77716565 0.59907407 -1.9584676 0.17512766 0.5423936 -0.6467929 1.0221666 -1.1439166 -0.90223414 -0.6233192 -2.428231
deposit -0.5598253 -1.6240573 0.2553292 -1.4052429 0.082563646 0.5151102 0.770489 -1.2993212 0.91713506 -0.8195841 0.5855416 -2.011022 0.21261792 0.5116026 -0.6230792 0.9872473 -1.1280966 -0.8949423 -0.6400802 -2.4072502
like -0.4948991 -1.5826036 0.23026672 -1.3114377 0.06998681 0.53436637 0.73249686 -1.2384006 0.8387986 -0.7754577 0.56359214 -1.8865201 0.18473753 0.5295935 -0.6338575 0.97500724 -1.0960909 -0.89091325 -0.61843866 -2.2925758
morning -0.27468053 -0.7098636 0.056745373 -0.6834834 0.08064624 0.2610423 0.4347577 -0.70327324 0.56666994 -0.267241 0.35995063 -0.9317394 -0.04270438 0.22026566 -0.3149524 0.40815666 -0.6768544 -0.44606224 -0.22488107 -1.1406883
rate -0.51508427 -1.5986792 0.29719776 -1.3122474 0.047034275 0.5287801 0.6871509 -1.2980299 0.87539065 -0.76727855 0.55945414 -1.8909224 0.18360658 0.5467458 -0.6621418 0.9658838 -1.1186895 -0.8955939 -0.63631076 -2.364747
consumer -0.473457 -1.4863075 0.25682694 -1.264364 0.087978646 0.4656716 0.65310025 -1.0963674 0.7934344 -0.69447994 0.48879626 -1.7873638 0.197026 0.44430223 -0.5563541 0.88753545 -1.025271 -0.77816814 -0.605406 -2.195104
want -0.4928929 -1.4772362 0.2507912 -1.2591431 0.040671952 0.46822244 0.68740475 -1.1594734 0.7960042 -0.73742956 0.488443 -1.7417241 0.17564574 0.51727283 -0.55466247 0.9223347 -1.0680097 -0.81667686 -0.5598776 -2.1414125
markets -0.5136945 -1.4604777 0.2069201 -1.2600026 0.04339281 0.48374605 0.6896276 -1.124648 0.78810763 -0.7124254 0.51552975 -1.7508419 0.16323547 0.48409772 -0.58068246 0.87406725 -1.0245004 -0.78244287 -0.5560705 -2.174853
question -0.47834072 -1.3689532 0.17513262 -1.2018521 0.026566066 0.46388188 0.64355534 -1.0987297 0.80190665 -0.6677587 0.54699934 -1.694087 0.099590376 0.47736746 -0.56048197 0.8433355 -1.010163 -0.7609405 -0.555536 -2.075038
things -0.4775497 -1.4811332 0.20952341 -1.2510866 0.06717501 0.46182102 0.656942 -1.1926755 0.8044358 -0.7341978 0.5316961 -1.7983093 0.16838428 0.50048757 -0.6134538 0.89230084 -1.0280124 -0.84092903 -0.56713086 -2.175862
kind -0.48590037 -1.4544692 0.21526483 -1.2271993 0.051701404 0.49336556 0.650225 -1.1444507 0.81651735 -0.6737347 0.4814152 -1.7421287 0.15929182 0.49101955 -0.56485957 0.9072434 -0.98930067 -0.8096799 -0.563832 -2.127933
make -0.47467697 -1.518282 0.2611126 -1.2859627 7.8878766e-05 0.4531305 0.64736867 -1.1350056 0.80033606 -0.70217985 0.5110989 -1.8133491 0.17948401 0.5079774 -0.5792414 0.92653793 -1.0685012 -0.82147104 -0.59191954 -2.195943
still -0.49601385 -1.5542227 0.2428074 -1.306806 0.041926328 0.5024394 0.70607036 -1.2088913 0.81595707 -0.73929584 0.5301301 -1.8679627 0.1834808 0.5373189 -0.6042533 0.945509 -1.1185524 -0.8655956 -0.5713476 -2.2671366
customers -0.5900258 -1.6800305 0.24141705 -1.3780042 0.033881973 0.54116297 0.7381237 -1.2995837 0.89080787 -0.8264373 0.5536084 -1.9798192 0.17591701 0.53839964 -0.6890135 1.0227197 -1.166274 -0.898946 -0.65290076 -2.4986424
could -0.53270924 -1.5142618 0.25478205 -1.2575233 0.067758486 0.5060264 0.68062234 -1.2013997 0.82167417 -0.75923264 0.53957057 -1.8263832 0.16253081 0.50975263 -0.5657216 0.9372995 -1.0622088 -0.85284954 -0.6122046 -2.178293
basis -0.5234199 -1.5021603 0.14398436 -1.4006443 0.11832239 0.53534496 0.789194 -1.3983078 0.8796325 -0.83625525 0.638047 -2.0246572 0.27362677 0.4761886 -0.6622386 0.9801952 -1.1761938 -1.0004938 -0.5901203 -2.371198
got -0.43480968 -1.3394012 0.20812918 -1.1294744 0.030669095 0.4562969 0.61248404 -1.0862741 0.77360326 -0.69392 0.51178336 -1.6127878 0.15425639 0.44478363 -0.5621614 0.8752218 -0.9534328 -0.7671285 -0.5246248 -2.0297127
back -0.5229545 -1.5821463 0.27020678 -1.3262354 0.057556015 0.4979569 0.738902 -1.2140926 0.83322024 -0.7688855 0.5541518 -1.8645725 0.19903743 0.5326462 -0.6087484 0.95549214 -1.0923759 -0.88539153 -0.62755495 -2.298604
much -0.5053892 -1.411289 0.23934759 -1.229248 0.06094234 0.4453971 0.6578141 -1.1285853 0.8180589 -0.70057416 0.5118714 -1.7045664 0.1571441 0.49456254 -0.5508683 0.8728297 -0.990889 -0.822905 -0.53890747 -2.1197565
go -0.46498793 -1.4165821 0.2069996 -1.1453117 0.03680712 0.48959842 0.6427006 -1.0903441 0.76502925 -0.6851665 0.5220498 -1.6794182 0.1618599 0.44212943 -0.5447264 0.8890763 -0.9563871 -0.77125084 -0.54225945 -2.0619907
side -0.3949805 -1.2256473 0.20865764 -1.0289857 0.057834525 0.3717459 0.5522412 -0.9462008 0.6944164 -0.5636053 0.4187899 -1.5033394 0.12765257 0.416575 -0.495309 0.7537003 -0.8362204 -0.665714 -0.51856124 -1.8109767
years -0.5166483 -1.3890058 0.2196148 -1.1908517 0.045500234 0.4892507 0.6572909 -1.1511519 0.80415857 -0.70715547 0.50005025 -1.7577736 0.14142935 0.45299646 -0.5772535 0.8906288 -0.98575056 -0.7713245 -0.5593012 -2.039448
okay -0.34963268 -1.1174655 0.18341933 -0.9647988 0.019706009 0.35079312 0.5320698 -0.86292696 0.64552766 -0.555759 0.45754883 -1.329307 0.09976861 0.36120778 -0.42148274 0.706786 -0.76947314 -0.6129645 -0.45191708 -1.6564682
maybe -0.5081377 -1.4333093 0.21565013 -1.2156286 0.05802333 0.4853014 0.63978356 -1.1188332 0.7904567 -0.6935895 0.5234152 -1.7313567 0.16165644 0.48438454 -0.5458771 0.88898087 -1.0133228 -0.77913505 -0.5678491 -2.0792553
point -0.45311758 -1.4035914 0.18101798 -1.1832966 0.05672392 0.48141712 0.6414852 -1.0999519 0.7573898 -0.7046103 0.4706358 -1.6572127 0.15054949 0.43739298 -0.527174 0.88239276 -0.9669637 -0.79293996 -0.53846353 -2.062162
last -0.48478666 -1.4377251 0.23390996 -1.19575 0.0673522 0.46861574 0.64757276 -1.1667069 0.7667786 -0.69741875 0.5521974 -1.7515898 0.17830224 0.45166665 -0.6001985 0.8515057 -1.008015 -0.7944214 -0.5394741 -2.1132436
thank -0.26738688 -0.8196822 0.11061339 -0.6754727 0.032662787 0.22825576 0.3848013 -0.69669473 0.44737774 -0.42881268 0.35022998 -0.9236181 0.029717296 0.25406057 -0.32528645 0.5320387 -0.57089305 -0.4666971 -0.3086961 -1.2427138
first -0.45898813 -1.2725356 0.20490217 -1.0754644 0.03490652 0.444836 0.58836573 -1.0251719 0.7372613 -0.6455451 0.48969194 -1.5866919 0.14346203 0.418912 -0.478018 0.76765233 -0.9142674 -0.76038927 -0.5123066 -1.9181526
two -0.5126215 -1.4359701 0.19194074 -1.2327155 0.074674614 0.45430675 0.6793484 -1.1711359 0.77032864 -0.6945354 0.5522023 -1.7549073 0.17932491 0.4571954 -0.5484578 0.8947608 -1.0491357 -0.7862156 -0.56539977 -2.1064808
john -0.4711061 -1.3498278 0.19579725 -1.1774251 0.054763462 0.42200568 0.6223333 -1.0709782 0.7931142 -0.65012574 0.5134067 -1.6199583 0.13266324 0.4702974 -0.53428787 0.81883126 -0.9940458 -0.7754642 -0.48067978 -1.9589139
portfolio -0.5320116 -1.5995288 0.26292968 -1.3409206 0.07291124 0.48174512 0.7367006 -1.2159299 0.87344515 -0.7595331 0.5841246 -1.9177952 0.1852311 0.5096679 -0.61847574 0.9365708 -1.0960058 -0.87575114 -0.6411924 -2.3141875
next -0.4631823 -1.4610665 0.24196339 -1.2202296 0.07570153 0.4790725 0.6362382 -1.1760424 0.76501954 -0.71060663 0.5485104 -1.7750416 0.18294856 0.507377 -0.6056009 0.90546364 -1.0235859 -0.84295326 -0.53777677 -2.0988445
also -0.6060941 -1.8509933 0.2833952 -1.5810575 0.067120805 0.5846301 0.83215344 -1.4798204 0.9985973 -0.9002324 0.6597235 -2.2642848 0.20039085 0.6528612 -0.75261116 1.1287024 -1.3410964 -1.0073875 -0.70294374 -2.7326782
credit -0.5166474 -1.6059339 0.27515826 -1.3665386 0.05374953 0.51821876 0.75718683 -1.2890451 0.9281187 -0.7539008 0.58173627 -1.962542 0.2005688 0.5290636 -0.65930593 1.0112692 -1.1769964 -0.8536394 -0.6322343 -2.3911757
loans -0.49088985 -1.4528933 0.22960898 -1.2188351 0.08049529 0.48112103 0.68484956 -1.1527305 0.80354005 -0.73401034 0.50637233 -1.7554076 0.15674838 0.49206126 -0.5952697 0.8897638 -1.0374851 -0.78236943 -0.5570411 -2.1699464
need -0.433225 -1.3699672 0.22054958 -1.1308615 0.050131645 0.45758975 0.6411357 -1.0568492 0.7354578 -0.64644736 0.46599516 -1.6237084 0.13623968 0.45078734 -0.538007 0.81393576 -0.96359134 -0.76057 -0.5365449 -1.9729007
terms -0.5185074 -1.5674676 0.2271483 -1.3132533 0.07100284 0.4997007 0.70380336 -1.2342038 0.8524938 -0.7866274 0.57501256 -1.9103703 0.19450668 0.54660296 -0.6328058 0.9463431 -1.1236584 -0.8895749 -0.62281966 -2.3276138
know -0.46623477 -1.4360002 0.24589747 -1.2256283 0.024391806 0.4755414 0.67103845 -1.1289102 0.77795315 -0.7101966 0.51897526 -1.7547086 0.14367853 0.47147685 -0.55892164 0.9083304 -1.0356259 -0.8003569 -0.5378721 -2.1081257
rates -0.5040104 -1.4666686 0.2182095 -1.2376028 0.084433176 0.5070352 0.6423478 -1.1828643 0.8284443 -0.7166324 0.5239171 -1.7702991 0.18542823 0.5074627 -0.57213837 0.92006105 -1.0212069 -0.8065871 -0.58837146 -2.1421835
revenue -0.4642125 -1.3300961 0.21538445 -1.1669556 0.06270149 0.42151695 0.58701473 -1.0774921 0.71645296 -0.64782065 0.48956245 -1.6511854 0.1732933 0.48729545 -0.500923 0.8281685 -0.95524484 -0.7302613 -0.5502218 -1.9983269
said -0.46274894 -1.3441552 0.18230633 -1.1248771 0.021793643 0.44943374 0.6053025 -1.0195187 0.7407325 -0.6194915 0.45605746 -1.59309 0.14905189 0.44933218 -0.54263115 0.7989109 -0.91607434 -0.7649617 -0.48515412 -1.9374533
theres -0.49690378 -1.4731592 0.22929749 -1.2627726 0.048046626 0.472836 0.64501464 -1.188044 0.80167514 -0.69776464 0.5075929 -1.8068103 0.16933027 0.50649774 -0.59175354 0.8950848 -1.0439857 -0.8162999 -0.5555039 -2.1987271
balance -0.4596036 -1.5055172 0.20884986 -1.2246665 0.110749505 0.5025606 0.64232296 -1.1825503 0.7822016 -0.6429058 0.51733667 -1.7710793 0.15247114 0.561524 -0.60652715 0.92555255 -0.97868043 -0.77376056 -0.63099533 -2.2025118
risk -0.49519095 -1.5094028 0.2543672 -1.2736549 0.08168567 0.48795444 0.6864966 -1.2089585 0.81898266 -0.7713833 0.53559506 -1.8634003 0.16960146 0.5182351 -0.58587176 0.94619036 -1.0996927 -0.84360886 -0.613465 -2.2341816
technology -0.5146011 -1.5273477 0.21978165 -1.2636809 0.014459211 0.45047674 0.67213774 -1.1877931 0.78695303 -0.7199454 0.52182233 -1.7918268 0.15804848 0.51622903 -0.58610374 0.89411694 -1.033095 -0.81474894 -0.58191305 -2.2071462
given -0.51980805 -1.48838 0.23650357 -1.2660904 0.0841824 0.47874197 0.6370225 -1.1556759 0.8223596 -0.70071816 0.5126771 -1.7881091 0.17941584 0.4883216 -0.55882627 0.90093815 -1.0228282 -0.8305514 -0.55288684 -2.1805909
customer -0.5627972 -1.5854516 0.22334583 -1.3349696 0.04908498 0.4909109 0.7313053 -1.2220674 0.8622805 -0.7800366 0.5632179 -1.908314 0.18053599 0.51985556 -0.6455945 0.9624823 -1.1247302 -0.8932587 -0.58688223 -2.35784
talk -0.5062413 -1.373844 0.19497578 -1.1987895 0.07278098 0.4255737 0.6481766 -1.10604 0.78579867 -0.68743205 0.4784364 -1.6951971 0.18502043 0.4626519 -0.533508 0.85163987 -1.0243678 -0.76644677 -0.564401 -2.0143847
deposits -0.5272705 -1.4644324 0.24276872 -1.271019 0.08805092 0.46874666 0.64873177 -1.144469 0.80879617 -0.7298247 0.5319181 -1.792937 0.21323158 0.45687056 -0.60952127 0.9195523 -1.0434594 -0.83228934 -0.5519832 -2.1988602
give -0.41061094 -1.205613 0.19554994 -1.0275824 0.046821643 0.3710919 0.5557923 -0.96796334 0.6937364 -0.5871606 0.4420712 -1.4790035 0.11211313 0.4114069 -0.4840984 0.73683673 -0.8772396 -0.6934598 -0.50107265 -1.8076764
way -0.46892858 -1.4309144 0.2160157 -1.1800665 0.044869497 0.4854418 0.6418628 -1.1013621 0.7748692 -0.675133 0.47832516 -1.6945637 0.15424652 0.4934315 -0.5803174 0.85012484 -0.98334223 -0.78289515 -0.53733677 -2.1063006
today -0.48836237 -1.3618314 0.2094693 -1.1329072 0.040799804 0.46831515 0.59690857 -1.1000985 0.7671933 -0.64028895 0.5116539 -1.6195201 0.16235417 0.45087612 -0.55202717 0.8401953 -0.9689007 -0.7347954 -0.5167168 -1.9788743
better -0.46836805 -1.327976 0.19552553 -1.1616309 0.053329676 0.4240854 0.636632 -1.0871589 0.72238964 -0.64326143 0.4804454 -1.6471598 0.16510834 0.45466083 -0.5157176 0.84646606 -0.9358237 -0.7464546 -0.5285545 -1.9862603
points -0.42245182 -0.9299065 0.046173178 -0.98247904 0.05665984 0.43959716 0.537735 -0.9441259 0.5018346 -0.59896463 0.463699 -1.305404 0.18871969 0.28386167 -0.41748452 0.69889295 -0.71163213 -0.6269225 -0.30347776 -1.5899358
environment -0.3933468 -1.2448875 0.21567796 -1.0208241 0.023711884 0.39489284 0.51988095 -0.95177394 0.6510333 -0.6207313 0.42003137 -1.4133458 0.19568527 0.4317936 -0.4871875 0.7758012 -0.838216 -0.6449521 -0.4346719 -1.7283591
change -0.5009651 -1.5039738 0.24629089 -1.2443404 0.055299897 0.5222254 0.66898626 -1.2174475 0.791714 -0.74604356 0.55663794 -1.8385422 0.17767598 0.51469475 -0.5882668 0.9049647 -1.0788202 -0.81944376 -0.58116627 -2.2304423
mentioned -0.4427368 -1.2184687 0.2084939 -1.0728428 0.07077966 0.42219105 0.5920072 -0.96254367 0.6783995 -0.59439754 0.47379053 -1.5249234 0.13264282 0.37868282 -0.51414746 0.7434386 -0.88762796 -0.70351136 -0.4476838 -1.8482118
growing -0.4325397 -1.3045204 0.17975895 -1.0790957 0.03155002 0.3855861 0.54816103 -0.9576236 0.69801754 -0.6464277 0.41037858 -1.5637085 0.17733665 0.3856622 -0.5210587 0.79604125 -0.92571837 -0.71094245 -0.4779445 -1.8897616
david -0.39972967 -1.1955537 0.15027598 -1.0526772 0.055241708 0.3967696 0.54202837 -0.976641 0.67375785 -0.589951 0.49367023 -1.4477619 0.1404539 0.40569958 -0.4784628 0.7706543 -0.86925715 -0.69422656 -0.45501083 -1.8262638
number -0.4571828 -1.3326111 0.18524638 -1.1227467 0.05117504 0.4364108 0.62506884 -1.0623938 0.7292796 -0.65251875 0.5109183 -1.6419848 0.13932285 0.43896747 -0.523762 0.8608275 -0.9439284 -0.75412136 -0.5423416 -2.0171266
market -0.46281496 -1.4385653 0.21528125 -1.1910132 0.031732116 0.4914052 0.6562666 -1.1465044 0.7947484 -0.6939938 0.512799 -1.7306184 0.16532543 0.45806816 -0.58366287 0.89660317 -0.980368 -0.7616231 -0.53949744 -2.110972
thanks -0.33703437 -0.9364342 0.14522992 -0.786238 0.04240503 0.3045296 0.42481753 -0.79209346 0.5675144 -0.47871903 0.3807281 -1.1319189 0.06168211 0.30835313 -0.37189823 0.582022 -0.6933725 -0.51079196 -0.3454458 -1.429337
day -0.4828177 -1.3657737 0.23685579 -1.096559 0.03820593 0.48224798 0.5816994 -1.0441172 0.7269386 -0.6807739 0.46173695 -1.6601316 0.13704637 0.45314616 -0.51344556 0.8665093 -0.96550375 -0.7737814 -0.52239937 -1.9479978
bank -0.53642637 -1.5570011 0.21797124 -1.3120966 0.05825438 0.5161389 0.6866554 -1.1865715 0.8459196 -0.7424391 0.5539169 -1.8645134 0.19264764 0.5162306 -0.61488885 0.9626309 -1.083757 -0.8551747 -0.6126594 -2.2811682
say -0.40248907 -1.2752122 0.20510322 -1.0420036 0.020816168 0.40212545 0.571746 -0.990264 0.67784286 -0.5915628 0.43104646 -1.4761864 0.15360013 0.41965964 -0.47665757 0.7791901 -0.8830821 -0.68929374 -0.46215555 -1.859785
pretty -0.3970115 -1.2385811 0.2085958 -1.0533425 0.040280923 0.43193728 0.5654643 -1.0251154 0.72100264 -0.575774 0.42752647 -1.4989398 0.1400339 0.40243107 -0.48128146 0.74544865 -0.92248863 -0.6955195 -0.44227174 -1.8552785
real -0.44620275 -1.3867426 0.24606909 -1.1263349 0.07009675 0.42166063 0.6027634 -1.0007886 0.7125092 -0.5940397 0.50501305 -1.679321 0.10414728 0.43456152 -0.50219667 0.8003946 -0.98085266 -0.7870674 -0.5346785 -2.0150497
million -0.3909687 -1.1619846 0.14747067 -0.9240842 0.04923089 0.3646254 0.48880887 -0.87745726 0.5851928 -0.5262233 0.41210097 -1.3781067 0.10412787 0.34270176 -0.44304675 0.69503224 -0.8136859 -0.6596572 -0.46569252 -1.6783326
part -0.47190237 -1.3604498 0.20671952 -1.1290734 0.040041648 0.43171966 0.6088516 -1.049156 0.72188735 -0.64252543 0.5005469 -1.6406 0.15553448 0.43571004 -0.52764225 0.80311733 -0.9528386 -0.7223199 -0.52574944 -1.965373
expect -0.36443016 -1.1397121 0.19024472 -0.99381965 0.02974948 0.37186915 0.5372701 -0.9259554 0.6182993 -0.58241224 0.412039 -1.360055 0.11874946 0.40832713 -0.43930233 0.6901403 -0.8080142 -0.6471034 -0.45282167 -1.699454
help -0.44433644 -1.252515 0.21466172 -1.0928576 0.06930309 0.4307413 0.5803566 -0.9954376 0.69402087 -0.61893266 0.47044808 -1.5449693 0.16387841 0.4192335 -0.48095417 0.7770747 -0.9169621 -0.70239884 -0.4824782 -1.8749641
guys -0.34849396 -1.0711329 0.13469884 -0.95186025 0.033522848 0.34029588 0.5053352 -0.880531 0.6722687 -0.51301503 0.41156957 -1.3385593 0.070607774 0.388296 -0.44136354 0.6456309 -0.81557834 -0.60005134 -0.44330668 -1.6386849
believe -0.42274752 -1.2930367 0.21784867 -1.1189106 0.023102576 0.39963618 0.5786121 -1.0051875 0.7349925 -0.63891006 0.45492005 -1.5811151 0.17228198 0.41895428 -0.504714 0.7755128 -0.9496906 -0.6990898 -0.4844139 -1.9270778
opportunities -0.43734062 -1.2721232 0.20035785 -1.0797873 0.04567752 0.422469 0.589891 -0.9681196 0.66651917 -0.591681 0.41630897 -1.5210745 0.11651239 0.398106 -0.5183895 0.76619947 -0.91825306 -0.7029495 -0.46457583 -1.8320553
take -0.47212094 -1.3268162 0.1939452 -1.1409639 0.06369023 0.4695291 0.6325754 -1.0700406 0.7453172 -0.6451215 0.47103685 -1.6465191 0.16050608 0.44594067 -0.53611964 0.8026471 -0.98875386 -0.7280924 -0.50735307 -1.995429
put -0.42677006 -1.3188162 0.17707962 -1.0903505 0.059905548 0.42817006 0.59360397 -1.0010546 0.68266 -0.65972525 0.47579154 -1.5482004 0.1667078 0.44535652 -0.50170016 0.8060993 -0.9237841 -0.72711575 -0.5000421 -1.8766464
im -0.47038275 -1.3675578 0.21115895 -1.139097 0.022315808 0.4627938 0.6076903 -1.0827425 0.7592075 -0.6417373 0.51018596 -1.6412332 0.1343319 0.44335386 -0.5264149 0.83997124 -0.970572 -0.7803068 -0.5279835 -2.0156298
sure -0.3833153 -1.1301876 0.15663236 -0.948714 0.053446464 0.37226114 0.51892227 -0.88966376 0.6181124 -0.53519744 0.41613308 -1.3289222 0.1267696 0.3924109 -0.4456647 0.72387177 -0.8020358 -0.63528335 -0.4091702 -1.6477313
end -0.37657946 -1.1683193 0.19422731 -0.9653177 0.050764777 0.3634662 0.5055746 -0.9141769 0.64968544 -0.57406324 0.42249584 -1.4208071 0.14710708 0.41467205 -0.44190627 0.7065322 -0.81173927 -0.6716756 -0.42710522 -1.7103057
margin -0.41063133 -1.1607364 0.17788398 -1.0117656 0.048382897 0.40141392 0.5482558 -0.9794569 0.65516573 -0.6157126 0.42004326 -1.4612162 0.1721892 0.428671 -0.46027273 0.746335 -0.8694666 -0.66085875 -0.4495771 -1.7611631
looking -0.39713845 -1.1700555 0.19947581 -1.0082581 0.049210116 0.4147509 0.56688374 -0.93955004 0.6487736 -0.60114825 0.39535987 -1.4065667 0.16231096 0.38192046 -0.47281072 0.7316197 -0.8512135 -0.67695934 -0.48548865 -1.7559303
sheet -0.34612775 -1.104797 0.12281977 -0.89360446 0.065572 0.38422474 0.47693053 -0.9119154 0.65474236 -0.52811307 0.34937587 -1.3714845 0.14435749 0.43032807 -0.44887662 0.70837057 -0.7270933 -0.6128832 -0.48022085 -1.6088924
guess -0.4234655 -1.238401 0.19090328 -1.0612836 0.056732763 0.39268678 0.5675437 -0.97985965 0.70488364 -0.6095644 0.44938007 -1.4636569 0.10696124 0.3974285 -0.46606258 0.7479468 -0.860811 -0.69222265 -0.4538477 -1.8159645
great -0.36174077 -1.0399244 0.16176231 -0.9008236 0.044813003 0.36211315 0.4999271 -0.8705901 0.5876765 -0.5170733 0.42111382 -1.3003196 0.09796475 0.34693664 -0.42900366 0.6484733 -0.73338616 -0.61863685 -0.4352171 -1.5949235
couple -0.368024 -1.1056554 0.12841098 -0.95441777 0.041815855 0.3887214 0.51273775 -0.9090187 0.6284356 -0.519894 0.44257143 -1.3393204 0.092859395 0.36556634 -0.46488288 0.66858965 -0.76437175 -0.6392738 -0.42371905 -1.6339178
investments -0.35281783 -1.0627999 0.19763465 -0.9158529 0.0179695 0.35189638 0.4808229 -0.83103573 0.5698558 -0.5098273 0.34399572 -1.2782017 0.10639306 0.35690275 -0.4192258 0.65015554 -0.7938028 -0.60021394 -0.39018115 -1.5951762
ph -0.42927158 -1.2869357 0.17184545 -1.069261 0.05818211 0.41484603 0.56723565 -1.0404242 0.7018272 -0.6365004 0.46960628 -1.5295757 0.126761 0.41065565 -0.5032101 0.7699178 -0.89830446 -0.73359346 -0.5223459 -1.8912399
book -0.38244092 -1.1868032 0.19090201 -1.0123339 0.07940276 0.35767493 0.53154844 -0.9448552 0.6943327 -0.56982374 0.43040764 -1.4597356 0.15570696 0.3757408 -0.47820526 0.723815 -0.8543647 -0.6836683 -0.44469574 -1.7473338
obviously -0.37187648 -1.1554713 0.15545355 -0.974112 0.06752753 0.40561286 0.5339735 -0.90394974 0.6365442 -0.5764123 0.43913916 -1.3947312 0.1256039 0.37667716 -0.47513855 0.7124022 -0.8407491 -0.62733114 -0.4281071 -1.69851
commercial -0.40907577 -1.1502882 0.20663479 -0.96659327 0.05103195 0.33797443 0.50967205 -0.8674881 0.62904316 -0.5179931 0.38891968 -1.373834 0.1389815 0.385585 -0.46636397 0.7036749 -0.7766895 -0.60428286 -0.4338593 -1.681469
range -0.36205143 -1.0866914 0.17241184 -0.88613695 0.018462429 0.37979576 0.47305498 -0.8710157 0.5998093 -0.5473459 0.35894725 -1.2870296 0.14347401 0.37880132 -0.41432935 0.668687 -0.76461834 -0.58793473 -0.41535848 -1.5760741
talked -0.3836505 -1.0452191 0.14494886 -0.89745915 0.032035023 0.32866672 0.46754846 -0.83405143 0.56425506 -0.5397563 0.37320665 -1.2806612 0.10022667 0.34843987 -0.43396586 0.6375808 -0.77143484 -0.59606886 -0.41180262 -1.5724789
come -0.39362964 -1.1418394 0.1997554 -0.9684981 0.05883539 0.38702837 0.50159484 -0.88610387 0.63804734 -0.5405887 0.4284395 -1.4038535 0.1154699 0.4005064 -0.4450126 0.711843 -0.79634684 -0.6315766 -0.4302406 -1.6913577
youve -0.40841034 -1.2510669 0.2156611 -1.0613441 0.023011317 0.43505028 0.5660524 -1.0126486 0.69011444 -0.6420926 0.47268692 -1.5232974 0.12132435 0.40636086 -0.52335846 0.7745399 -0.9251432 -0.7180773 -0.46259177 -1.8733757
opportunity -0.39508903 -1.1905342 0.1802682 -0.99143726 0.03936618 0.37130535 0.5545448 -0.9240901 0.6463692 -0.5617803 0.43257174 -1.42464 0.109811455 0.3924114 -0.45753402 0.6984025 -0.8283195 -0.65784854 -0.47631407 -1.7186728
whats -0.40695947 -1.1448085 0.16582674 -0.9958023 0.018691223 0.3809097 0.5060458 -0.9044092 0.62377274 -0.5677064 0.4278799 -1.4011216 0.14869146 0.40249035 -0.46215072 0.74148476 -0.81253177 -0.6433614 -0.47491524 -1.7187701
three -0.34380552 -1.111881 0.15498659 -0.9457072 0.027425518 0.3711369 0.51595354 -0.870045 0.6045695 -0.533244 0.42095652 -1.3403727 0.14329872 0.33445692 -0.42901784 0.6705081 -0.78998333 -0.62363404 -0.42242736 -1.6266153
banks -0.43835253 -1.2581086 0.20888884 -1.0241125 0.0402747 0.37760454 0.5638575 -1.0034306 0.6989561 -0.6019284 0.45963606 -1.4739537 0.12181808 0.42996264 -0.47430897 0.7511348 -0.86153364 -0.6954423 -0.48690593 -1.8367763
add -0.3077217 -0.9073434 0.15031418 -0.75052553 0.0037886405 0.29049614 0.4265803 -0.7227665 0.49011734 -0.45004752 0.3302029 -1.0868679 0.12700552 0.28532493 -0.37139162 0.55580574 -0.66181207 -0.47860944 -0.33945012 -1.3351575
impact -0.46432227 -1.2953775 0.23078889 -1.1146169 0.05553013 0.4162649 0.58522606 -1.067487 0.6889155 -0.6479746 0.4643283 -1.6152228 0.15823428 0.4292526 -0.49971223 0.8073698 -0.91451514 -0.75796443 -0.49799353 -1.950898
forward -0.34247437 -0.9795144 0.12547067 -0.8005862 0.04203566 0.30009326 0.4476583 -0.7611209 0.4990738 -0.47820738 0.3266088 -1.1541764 0.13726442 0.33105347 -0.405426 0.60061944 -0.692401 -0.525853 -0.38316563 -1.3971019
billion -0.37037468 -1.1249901 0.15247102 -0.9441853 0.043107096 0.32556275 0.4933616 -0.8730106 0.59825355 -0.5180238 0.3685588 -1.341063 0.14749911 0.3760899 -0.46117628 0.6827398 -0.77201426 -0.58289284 -0.4215533 -1.60618
economy -0.4264698 -1.2660161 0.21542075 -1.0363849 0.03901885 0.42490476 0.5778062 -0.9598073 0.7010338 -0.6146897 0.42887014 -1.5113872 0.15008742 0.3985663 -0.5099311 0.78539306 -0.88133526 -0.6965133 -0.4758577 -1.8577282
feel -0.33501777 -0.91641253 0.108814724 -0.79803634 0.065503426 0.291714 0.42942417 -0.75345427 0.5585465 -0.42977276 0.32730544 -1.1098167 0.09684466 0.2894694 -0.36192897 0.5668734 -0.6981017 -0.49759185 -0.31389755 -1.3455275
banking -0.419951 -1.1875571 0.19584559 -0.9732915 0.02515851 0.36372757 0.5196532 -0.87911224 0.65152 -0.58544946 0.39493564 -1.4203334 0.12730366 0.37048906 -0.44454366 0.70951 -0.8129823 -0.6041425 -0.43143743 -1.7210921
mortgage -0.37526053 -1.0757623 0.18635124 -0.9107588 0.03485818 0.33613965 0.4704303 -0.8573326 0.5856878 -0.5205723 0.38286215 -1.3088509 0.106915854 0.3755818 -0.45152777 0.6454381 -0.7420375 -0.58752215 -0.4104571 -1.5759919
might -0.40472576 -1.2264943 0.19426614 -1.0162023 0.035508856 0.38674563 0.5685074 -0.9705022 0.691594 -0.622109 0.43818748 -1.5002106 0.14589888 0.43066862 -0.48196962 0.74556684 -0.88271415 -0.6930296 -0.44926348 -1.813429
second -0.38063756 -1.0478693 0.17965539 -0.8942295 0.050464522 0.34158972 0.47674984 -0.8126817 0.563719 -0.4751299 0.3825325 -1.2654234 0.09977011 0.32899606 -0.42408767 0.63073087 -0.7351184 -0.5800164 -0.39522257 -1.5393277
return -0.32783982 -1.00358 0.17407008 -0.8497892 0.02707148 0.3119023 0.45164514 -0.79605544 0.5577537 -0.510855 0.3439878 -1.2129364 0.13539794 0.36604202 -0.40715858 0.60618603 -0.7533844 -0.55730563 -0.36468437 -1.4701985
important -0.31918648 -0.947624 0.16497569 -0.79024625 0.040151082 0.27748683 0.42308378 -0.703226 0.48940146 -0.451543 0.32878554 -1.0882094 0.1298616 0.3014809 -0.3735692 0.57190037 -0.64563787 -0.5217463 -0.36853236 -1.3824761
use -0.3618928 -1.1421124 0.17636728 -0.9448141 0.05783049 0.33908603 0.5159195 -0.9082891 0.62943095 -0.5289953 0.37896493 -1.3692231 0.14716816 0.39218968 -0.44323152 0.68720573 -0.7862468 -0.5965119 -0.41304058 -1.671635
coming -0.34170738 -1.0795525 0.17334796 -0.9189082 0.036784165 0.34026515 0.4695803 -0.8657538 0.557658 -0.49998894 0.36038205 -1.2974894 0.11814014 0.3416032 -0.39293116 0.6526899 -0.76308286 -0.59233814 -0.4146389 -1.5791624
efficiency -0.3798282 -1.0393625 0.18915957 -0.90238595 0.055726483 0.34713402 0.46987236 -0.8520618 0.60794455 -0.5418106 0.3763858 -1.30668 0.16039376 0.38246083 -0.43535432 0.67061764 -0.79118663 -0.6314306 -0.38113102 -1.5333264
actually -0.39388153 -1.160241 0.15612654 -0.969696 0.02643846 0.36727974 0.51462716 -0.92832917 0.62740165 -0.5766832 0.41172808 -1.4003438 0.13108678 0.38875994 -0.4671659 0.73885965 -0.8229174 -0.66762334 -0.47180745 -1.6972853
even -0.41476485 -1.218241 0.20465408 -1.0465828 0.06396635 0.3886776 0.57192934 -0.97081554 0.6647302 -0.6135618 0.43517533 -1.466075 0.14942586 0.42235667 -0.49170095 0.7498284 -0.8332157 -0.6897274 -0.46563742 -1.7682587
interest -0.3338442 -1.0111574 0.20106018 -0.8224598 0.023111949 0.34784713 0.43718266 -0.7610755 0.53555757 -0.49225295 0.3397619 -1.1682931 0.17420086 0.3574351 -0.38373372 0.6142156 -0.6602999 -0.56182843 -0.38669336 -1.4342502
regions -0.4205751 -1.1629223 0.20108606 -0.9698562 0.030716171 0.4078388 0.5538454 -0.90185887 0.61701393 -0.55213773 0.43071654 -1.4251575 0.10134423 0.41730222 -0.43656993 0.7525136 -0.81962734 -0.62242234 -0.4259701 -1.7371758
different -0.38289303 -1.1864331 0.16981778 -0.96769 0.028675685 0.38071823 0.52834153 -0.91586524 0.64476854 -0.57912105 0.4115199 -1.4110593 0.15663695 0.39640716 -0.4708647 0.7321418 -0.80870914 -0.6331636 -0.43575063 -1.7342488
businesses -0.40294015 -1.2207288 0.17970228 -1.0252507 0.065820776 0.40886745 0.5311509 -0.9289708 0.6632212 -0.58250237 0.4338384 -1.4340492 0.16080287 0.4189951 -0.49890608 0.7414849 -0.84810853 -0.68195695 -0.47086784 -1.811896
start -0.34673738 -1.0160443 0.16542067 -0.8265934 0.020702265 0.3262656 0.462206 -0.8226544 0.5416406 -0.47397903 0.3877015 -1.2249341 0.10748537 0.30055243 -0.38068968 0.63425213 -0.6827299 -0.5866819 -0.37362587 -1.4516248
low -0.33619705 -1.012402 0.17222032 -0.87326866 0.039314102 0.35437733 0.46486053 -0.80294317 0.57369703 -0.5047256 0.3532612 -1.2447698 0.15078399 0.32858104 -0.3909354 0.64294934 -0.7341822 -0.55563956 -0.42287904 -1.491738
seeing -0.35317397 -1.0177239 0.15564121 -0.8480311 0.048324194 0.33458042 0.4411086 -0.7921514 0.579875 -0.49622133 0.34742108 -1.2294034 0.12534189 0.31070897 -0.37299418 0.6196408 -0.71865815 -0.5336574 -0.37853253 -1.475146
theyre -0.40295613 -1.1909524 0.15756048 -1.0147852 0.05808932 0.40733948 0.5319367 -0.95129395 0.6686052 -0.56578416 0.42576182 -1.3915416 0.11033823 0.3870782 -0.4604726 0.69978803 -0.8410746 -0.6650209 -0.4508234 -1.7314875
level -0.35646123 -1.0550625 0.1514695 -0.94145703 0.062488083 0.33637223 0.51763237 -0.86558104 0.5701232 -0.53234273 0.37959942 -1.3204435 0.11358092 0.3474303 -0.4168327 0.6771715 -0.77979803 -0.5845582 -0.4116546 -1.618032
higher -0.38946572 -1.1627405 0.20559932 -0.9889354 0.03780498 0.39911258 0.52981585 -0.9131102 0.61999315 -0.5518359 0.42223194 -1.3869376 0.16335131 0.389024 -0.4663451 0.7377028 -0.831063 -0.6581439 -0.4768145 -1.7049303
leverage -0.44152865 -1.2249279 0.19400045 -1.0210936 0.048772212 0.40280318 0.583415 -0.9608887 0.6717468 -0.5846696 0.45899042 -1.4685605 0.1616671 0.4153558 -0.49522907 0.762497 -0.8894586 -0.6629908 -0.46999148 -1.8331113
lending -0.39658567 -1.2352821 0.18113725 -1.057827 0.02837736 0.38076326 0.5665071 -0.94404143 0.6492092 -0.5834017 0.41907647 -1.4934183 0.15333046 0.39655465 -0.5022914 0.7293641 -0.8401329 -0.69625026 -0.49154058 -1.7822502
done -0.30229905 -0.87546426 0.15346602 -0.7287443 0.0053106034 0.27422306 0.39223635 -0.6937873 0.52140546 -0.41932663 0.3426225 -1.0315876 0.08448737 0.3090073 -0.35431033 0.54389834 -0.6222938 -0.45334217 -0.3511426 -1.2969618
peers -0.3405367 -1.0206244 0.14195324 -0.8642571 0.030120453 0.31451783 0.4795509 -0.8267223 0.54354364 -0.504075 0.3443131 -1.2528706 0.10737688 0.32635677 -0.38626164 0.6173791 -0.7449055 -0.57799625 -0.40110707 -1.5078144
process -0.39204028 -1.09368 0.19015455 -0.95273095 0.04366093 0.33520803 0.50924015 -0.8705998 0.63370216 -0.56755775 0.42216262 -1.3626356 0.12988399 0.38220626 -0.41850454 0.7088573 -0.77840465 -0.6190542 -0.43589073 -1.6237024
within -0.35139817 -1.0966201 0.16817594 -0.9168879 0.05736528 0.36374766 0.51521933 -0.8759263 0.5934884 -0.5186326 0.4065077 -1.3580892 0.15288916 0.36127773 -0.42022157 0.6580185 -0.7825423 -0.6148875 -0.41824323 -1.6236186
simplify -0.34394023 -0.9059039 0.17689925 -0.80799437 0.042780265 0.2898226 0.45046982 -0.75602514 0.5149891 -0.4408662 0.35374266 -1.1129087 0.09856672 0.32575658 -0.36215198 0.5731453 -0.65515894 -0.5481793 -0.3722761 -1.4042617
ratio -0.2753297 -0.85731107 0.14488193 -0.7208511 0.015803372 0.26717788 0.37538257 -0.6979795 0.4536704 -0.39906624 0.32794297 -1.0373678 0.095648065 0.30539098 -0.35589153 0.52843523 -0.5937465 -0.50899345 -0.296224 -1.2587129
ill -0.29708794 -0.81689686 0.10811032 -0.67575115 0.027174817 0.27195758 0.3883438 -0.67674804 0.44740573 -0.38587186 0.32415557 -0.99501956 0.10921624 0.28491056 -0.2900096 0.5070079 -0.5740685 -0.48462462 -0.3160002 -1.2123934
something -0.38203576 -1.066124 0.17951515 -0.89324325 0.04923236 0.34514034 0.4984832 -0.86222017 0.60982424 -0.5449305 0.35837972 -1.321255 0.115624554 0.33977243 -0.44051576 0.6478192 -0.78346497 -0.60462564 -0.42447737 -1.5758771
around -0.40064988 -1.1098769 0.15173918 -0.93957686 0.04068044 0.34410116 0.47753918 -0.8696543 0.6316165 -0.5307238 0.38296753 -1.3196881 0.125975 0.34192675 -0.45057222 0.7032538 -0.7719884 -0.62483466 -0.44899318 -1.6066655
cost -0.31219015 -0.98898196 0.13715619 -0.829329 0.033914633 0.30625418 0.46131513 -0.7873879 0.5384292 -0.5014829 0.34433472 -1.2176529 0.1223324 0.334001 -0.39139318 0.59630907 -0.7185705 -0.5634386 -0.40578464 -1.4634211
increase -0.36915994 -1.155949 0.20279394 -0.9537702 0.04208197 0.37886184 0.5319859 -0.8850927 0.6041196 -0.5403713 0.41942862 -1.3867291 0.1501755 0.40312734 -0.4445214 0.7251378 -0.8042607 -0.6259109 -0.43830043 -1.6648383
trying -0.3660564 -1.0682753 0.18726383 -0.91506016 0.038090464 0.36938697 0.4718565 -0.828558 0.5689813 -0.4954075 0.39766487 -1.264386 0.121639155 0.36309233 -0.39826337 0.6410936 -0.7219506 -0.5756163 -0.42933303 -1.5668778
people -0.34025747 -1.0715336 0.17745675 -0.9118 0.011474881 0.36236942 0.5147359 -0.8612725 0.60884017 -0.5148182 0.3688159 -1.2728446 0.12219502 0.3829738 -0.42706162 0.63683987 -0.74503106 -0.58401716 -0.38880217 -1.6093034
based -0.37983024 -1.1884358 0.17506894 -1.0356506 0.07055069 0.37678185 0.555168 -0.94714284 0.65623724 -0.5876596 0.40497154 -1.4347165 0.13620123 0.3964635 -0.46313196 0.7086206 -0.84487426 -0.64286906 -0.47527692 -1.7836046
quality -0.2947208 -0.8925645 0.13082641 -0.76532406 0.06451997 0.30883065 0.40118223 -0.7267403 0.5272353 -0.412723 0.324092 -1.0668235 0.10797254 0.27418855 -0.37295002 0.53761256 -0.65447515 -0.48985806 -0.3227107 -1.2885077
versus -0.40484408 -1.1541196 0.16086234 -0.9656649 0.03801157 0.35157436 0.5089388 -0.8736819 0.5968402 -0.5497727 0.37232953 -1.3559039 0.108873636 0.37475488 -0.44321954 0.7213341 -0.80508983 -0.60645646 -0.45385128 -1.6711724
expense -0.33162284 -1.0507948 0.18683867 -0.8708835 0.06148664 0.32531384 0.49623555 -0.8252713 0.5969981 -0.5082895 0.3488759 -1.2707902 0.12790804 0.33252835 -0.4059213 0.643478 -0.71896845 -0.5569812 -0.39686704 -1.5393004
thing -0.3707199 -1.0554442 0.16193523 -0.8741796 0.042228088 0.3541751 0.47818738 -0.8160788 0.5531949 -0.51025635 0.3815017 -1.2444398 0.109564036 0.35930717 -0.42821002 0.64807624 -0.73353493 -0.573073 -0.39323932 -1.5721711
estate -0.3758227 -0.9525691 0.20809501 -0.8073787 -0.005694706 0.31925225 0.4316306 -0.72398686 0.54647994 -0.434626 0.31199846 -1.1900575 0.08189343 0.3081877 -0.34181967 0.6233502 -0.6547155 -0.51645356 -0.32664376 -1.3998348
focus -0.32972097 -0.9814637 0.17294557 -0.816306 0.021001287 0.31797993 0.43391818 -0.78666776 0.52124196 -0.4580656 0.35385495 -1.1764951 0.12777165 0.3205614 -0.39818636 0.6061971 -0.6866152 -0.5485191 -0.35685506 -1.4257805
probably -0.36596823 -1.0135866 0.15549277 -0.82607096 0.058263972 0.3373763 0.44657147 -0.7808445 0.5469317 -0.51352334 0.33480665 -1.2315084 0.102847636 0.337152 -0.40490073 0.6279856 -0.7175053 -0.5747067 -0.37721097 -1.466239
share -0.30634046 -0.9451665 0.13438088 -0.83060724 0.0521145 0.31262589 0.45551935 -0.75047404 0.52161264 -0.4431911 0.3550198 -1.1687738 0.10392906 0.31319597 -0.3620145 0.6026544 -0.6645834 -0.5424915 -0.36314815 -1.4362816
big -0.3223336 -0.98713887 0.13346116 -0.8573505 0.016886383 0.34893867 0.4425881 -0.7966155 0.5596559 -0.52155966 0.37499976 -1.2208171 0.12735328 0.3354076 -0.40249807 0.6416381 -0.7006954 -0.5464974 -0.41485557 -1.487021
work -0.3471249 -1.069971 0.15795094 -0.89707017 0.05924532 0.34028038 0.5071459 -0.86718386 0.59160787 -0.4983316 0.3619406 -1.2689364 0.1078034 0.37722835 -0.44466147 0.6341221 -0.7816134 -0.5793201 -0.42178795 -1.568486
guidance -0.30582675 -0.8450364 0.1324338 -0.71203816 0.018538235 0.30334568 0.39169374 -0.6815055 0.4748403 -0.41467312 0.2986118 -1.0213873 0.10563979 0.2617938 -0.3561844 0.5559161 -0.59332657 -0.49896348 -0.31793308 -1.2254201
seen -0.29793972 -0.9247118 0.12620416 -0.7940348 0.00505199 0.30258974 0.40983558 -0.6988243 0.52447456 -0.44457242 0.310519 -1.114819 0.1278367 0.31345865 -0.34490246 0.5463142 -0.65462494 -0.47615024 -0.37370494 -1.3216428
able -0.36192295 -1.0499113 0.18518342 -0.8636839 0.057597283 0.3484775 0.4885075 -0.814303 0.558393 -0.5001244 0.37357688 -1.2482256 0.109140195 0.332529 -0.39769492 0.63090867 -0.73360527 -0.55158925 -0.4009324 -1.5303296
net -0.30085585 -0.7814472 0.12865868 -0.6779918 0.038850088 0.259578 0.37046874 -0.6773229 0.43662012 -0.3932015 0.28668192 -0.9845584 0.12640584 0.27106565 -0.291549 0.5289771 -0.57378817 -0.44003516 -0.31422403 -1.1846057
getting -0.31432527 -1.0041498 0.14016229 -0.8455623 0.025574606 0.31422496 0.4478279 -0.79291046 0.52927417 -0.4829207 0.3744959 -1.1898034 0.11540458 0.31098917 -0.4160234 0.59904075 -0.69681585 -0.54080045 -0.3859107 -1.4759194
new -0.35748363 -0.9991513 0.1334932 -0.8640978 0.02215665 0.3090522 0.47072634 -0.78489393 0.5454979 -0.47601694 0.348233 -1.1877114 0.10001036 0.34145564 -0.41376373 0.6209964 -0.72305846 -0.55065554 -0.38314316 -1.5091528
core -0.2719714 -0.82920074 0.15919164 -0.73520863 0.031512957 0.287343 0.40133217 -0.6437445 0.47976255 -0.40886292 0.29697955 -1.0338049 0.121210866 0.26881117 -0.34606043 0.54325557 -0.605309 -0.45434636 -0.31533548 -1.2611803
investor -0.3231293 -0.9121454 0.15965466 -0.8031813 0.011652005 0.32633865 0.41315055 -0.69761163 0.47176886 -0.47107574 0.35268328 -1.1162975 0.08068281 0.33267993 -0.32957834 0.60429347 -0.6187224 -0.54154116 -0.3213379 -1.3556378
beta -0.32980785 -0.9669265 0.1692345 -0.81309015 0.022767494 0.3183459 0.41311544 -0.78084475 0.5385546 -0.46999618 0.3331752 -1.1861671 0.10049415 0.30316332 -0.3705806 0.5880933 -0.66319525 -0.5567617 -0.3615364 -1.4303916
third -0.32891107 -0.9037673 0.13082674 -0.75160426 0.049994115 0.29004246 0.38414377 -0.73477674 0.48901382 -0.40930188 0.33366778 -1.1178236 0.102235794 0.2882738 -0.36322272 0.5298649 -0.6644243 -0.51914835 -0.33813128 -1.3512118
income -0.28074226 -0.8922532 0.17894362 -0.7743338 0.031644013 0.3138607 0.41230938 -0.75042665 0.49613485 -0.4291101 0.31701365 -1.0806491 0.13080132 0.2995303 -0.37996608 0.54246074 -0.63280994 -0.48371622 -0.3452574 -1.3120828
making -0.31291068 -0.98451906 0.16818853 -0.8095177 0.011806517 0.31299213 0.4437762 -0.7542944 0.50946605 -0.47060695 0.3267 -1.1721561 0.12623972 0.34562844 -0.37371284 0.5687148 -0.69461286 -0.5496984 -0.39411697 -1.4253284
benefit -0.3315482 -0.97271454 0.14259085 -0.8123167 0.027192313 0.321671 0.42490757 -0.7765268 0.5155744 -0.48368576 0.36187086 -1.1939499 0.13471769 0.3320779 -0.40075308 0.617219 -0.6763564 -0.53479075 -0.3984785 -1.4695872
may -0.35952222 -1.0919068 0.14546683 -0.9529141 0.034699637 0.3801251 0.5263493 -0.8822411 0.6154613 -0.5322614 0.39962652 -1.3494244 0.10319259 0.38787028 -0.4521279 0.6771748 -0.80524874 -0.617317 -0.41610157 -1.6194721
mean -0.2834964 -0.87719357 0.15753531 -0.7074736 0.020869115 0.30215165 0.4017282 -0.7022471 0.4710272 -0.44184124 0.33787134 -1.0539243 0.10006005 0.31310055 -0.33702302 0.5140446 -0.62350565 -0.46663406 -0.34629005 -1.2571944
indiscernible -0.23593579 -0.67957115 0.1262253 -0.5836881 0.01652239 0.22711511 0.32407764 -0.5285365 0.38238552 -0.32209504 0.23369633 -0.8158743 0.077870525 0.21525465 -0.2610117 0.41577893 -0.4873085 -0.40437323 -0.2397656 -1.0130149
standpoint -0.24754559 -0.7807586 0.1444019 -0.6428808 0.041292522 0.27907225 0.362758 -0.6350311 0.44672048 -0.3910544 0.251405 -0.94693315 0.109457836 0.24441603 -0.3145487 0.49058142 -0.55054635 -0.43998995 -0.3251565 -1.155362
management -0.36158156 -1.1426889 0.17897432 -0.9567671 0.05370645 0.36801332 0.5338509 -0.93402284 0.6372113 -0.5753724 0.41383576 -1.38872 0.10820494 0.40876868 -0.43131667 0.6815649 -0.80351734 -0.6343735 -0.42957985 -1.7143728
every -0.31821102 -0.97781205 0.13548598 -0.8343822 0.027246129 0.33861223 0.4481505 -0.7629529 0.5400415 -0.49598554 0.32582203 -1.1901205 0.086786024 0.33921564 -0.36502415 0.59475464 -0.65504575 -0.5183519 -0.3805776 -1.4157104
whether -0.36843786 -1.0959637 0.1883293 -0.9316842 0.059661917 0.37308267 0.48628932 -0.8561668 0.5848188 -0.52476346 0.3799669 -1.3552803 0.122938015 0.34814423 -0.42018306 0.6948633 -0.81457275 -0.60322696 -0.42008215 -1.6603075
call -0.33329043 -1.0408467 0.13664459 -0.86966765 0.013925219 0.33278608 0.45004284 -0.82857466 0.5695027 -0.51582414 0.38892135 -1.2758678 0.09848702 0.3713614 -0.3997756 0.634246 -0.737772 -0.5776927 -0.3974444 -1.5089134
across -0.3943188 -1.1201156 0.19263178 -0.9746333 0.021414148 0.36277086 0.5330241 -0.88207245 0.6216917 -0.53491753 0.40838692 -1.3702894 0.14451303 0.3663927 -0.45566738 0.69288886 -0.8126233 -0.63874936 -0.4561987 -1.6620209
indirect -0.38438526 -1.0315331 0.16232556 -0.9178543 0.07273001 0.3213803 0.46559426 -0.81342727 0.58602977 -0.53932923 0.40729642 -1.2738304 0.11387972 0.3493587 -0.4259442 0.6292092 -0.7215414 -0.5713262 -0.39513907 -1.5375172
wanted -0.30654404 -0.94916844 0.12713623 -0.7774802 0.061287194 0.30524674 0.44964233 -0.7283326 0.5152717 -0.46075502 0.3603705 -1.1289548 0.09795433 0.3302368 -0.3476352 0.57453895 -0.68025345 -0.5367938 -0.35872304 -1.3753576
assets -0.2964939 -0.8781063 0.15621753 -0.74767256 0.04569752 0.28576165 0.41764015 -0.70148385 0.4783784 -0.46431884 0.29368487 -1.0681481 0.119301595 0.3199242 -0.37204364 0.5763274 -0.6309899 -0.488473 -0.35540923 -1.3053075
plan -0.315781 -0.8827614 0.12376833 -0.77267355 0.035798557 0.28966781 0.4217479 -0.7293964 0.49676496 -0.43083346 0.33782384 -1.1000565 0.09035701 0.314551 -0.37323773 0.56062865 -0.64965665 -0.507273 -0.3387342 -1.3124994
equity -0.32689875 -0.9299524 0.16241959 -0.8134506 0.014214949 0.29176527 0.42175817 -0.76931363 0.5257198 -0.42627215 0.31831077 -1.1166873 0.118660554 0.3253175 -0.33833522 0.5565195 -0.65548897 -0.53643775 -0.3586036 -1.3220891
securities -0.31355214 -0.9540118 0.16611962 -0.7999465 0.06582674 0.3209254 0.4419545 -0.756307 0.5074664 -0.46166378 0.33341667 -1.1117381 0.09195396 0.33317056 -0.39455512 0.5586369 -0.6566935 -0.5127759 -0.395092 -1.3684974
base -0.21680793 -0.6557977 0.12636665 -0.526672 0.044432443 0.21547008 0.3091445 -0.49990612 0.35844123 -0.2816088 0.21410334 -0.764368 0.09724131 0.17840149 -0.27072763 0.39054808 -0.4328837 -0.3298138 -0.2719306 -0.94502103
target -0.30118677 -0.83806604 0.11741563 -0.73852646 0.0094353445 0.29616094 0.3730493 -0.654858 0.46514872 -0.39411914 0.2852777 -1.043432 0.09645913 0.2731746 -0.35289866 0.5440756 -0.6042274 -0.48148006 -0.30194524 -1.2502525
clearly -0.3239793 -1.0111988 0.1757777 -0.8697998 0.055154607 0.32940337 0.43683222 -0.78401905 0.56711066 -0.4686544 0.37696737 -1.228688 0.13258624 0.3563933 -0.41663194 0.6375591 -0.7105033 -0.57827556 -0.39516872 -1.4620014
branches -0.346862 -1.0328193 0.1734366 -0.87595665 0.036813688 0.3368915 0.44955826 -0.8253896 0.5629301 -0.4943203 0.35145694 -1.2670455 0.10886786 0.3731393 -0.40721288 0.63887167 -0.72966975 -0.5552206 -0.37606335 -1.4974015
digital -0.33255517 -1.0126855 0.16321607 -0.87080836 0.06167235 0.2985647 0.4575672 -0.7918171 0.56580675 -0.48995253 0.37064964 -1.2354075 0.1327216 0.3124414 -0.39061534 0.6165298 -0.69200784 -0.53424406 -0.38986647 -1.5030029
spend -0.28030297 -0.7735155 0.1052042 -0.6104322 0.0027491427 0.2637322 0.3121463 -0.62218463 0.42577124 -0.33825922 0.26481494 -0.9304379 0.09230594 0.25514668 -0.29032218 0.49109933 -0.55990344 -0.44336048 -0.3067739 -1.1233114
earlier -0.25870132 -0.8157385 0.14045994 -0.69539195 0.050722774 0.2402918 0.35728145 -0.61320585 0.46197 -0.41417697 0.31224236 -0.9670922 0.10143288 0.2765778 -0.34128356 0.50093925 -0.5638248 -0.4720879 -0.31634283 -1.1603644
made -0.3209572 -0.9092413 0.1666218 -0.80741173 0.016103819 0.3180312 0.41792104 -0.75368243 0.5192104 -0.45321122 0.32265133 -1.1070585 0.08237435 0.30962318 -0.3743391 0.5846353 -0.65062016 -0.5040071 -0.372998 -1.3635155
another -0.27247742 -0.7257703 0.118573226 -0.6421457 0.03957082 0.25743687 0.3272219 -0.6156589 0.40241742 -0.37184376 0.27125382 -0.8824626 0.09579573 0.25190693 -0.31226113 0.45839608 -0.55057836 -0.4322156 -0.27242586 -1.1094967
result -0.35596836 -1.0612537 0.16762161 -0.895431 0.060344983 0.33668882 0.49263307 -0.8383098 0.5794626 -0.51948583 0.3671588 -1.2836397 0.116482206 0.3465523 -0.42229828 0.6214527 -0.7559926 -0.5588262 -0.42758563 -1.5291857
accounts -0.3217155 -0.897173 0.1211914 -0.7632176 0.049046308 0.2689346 0.377783 -0.6439249 0.48481 -0.4367456 0.31038344 -1.0285131 0.14562094 0.27346218 -0.3484368 0.5163108 -0.6422736 -0.49205217 -0.3094643 -1.2789925
cycle -0.26691896 -0.8579263 0.13932762 -0.6944161 0.02658066 0.26142895 0.4045492 -0.68348444 0.47849864 -0.39888635 0.293955 -1.0013481 0.076268554 0.274128 -0.34267431 0.49774238 -0.6198298 -0.44125447 -0.3363878 -1.258939
saw -0.29605272 -0.79143554 0.13041864 -0.6775226 0.020187926 0.28846523 0.35131586 -0.66401434 0.44152284 -0.38049823 0.27880302 -0.97429276 0.08059562 0.25423437 -0.32925606 0.4959722 -0.57676446 -0.4603438 -0.32239747 -1.209412
expenses -0.28957638 -0.8642831 0.117207944 -0.7621158 0.00411175 0.2735601 0.38477504 -0.6868606 0.46699196 -0.45137352 0.33958292 -1.090464 0.112735316 0.29228213 -0.32132506 0.52876335 -0.60693485 -0.48869053 -0.335005 -1.3073174
focused -0.2782497 -0.78236634 0.13845639 -0.6786791 0.024198122 0.27212968 0.3571437 -0.62011355 0.45640597 -0.36737797 0.28831798 -0.96046567 0.08870861 0.2888152 -0.3173307 0.46438038 -0.5515879 -0.4601348 -0.28181228 -1.1840925
returns -0.30634382 -0.8366415 0.11893314 -0.7256546 0.04911199 0.25312832 0.39751625 -0.6682944 0.49050775 -0.44005454 0.3190992 -1.0423833 0.10491543 0.30988285 -0.34645048 0.5487939 -0.6111964 -0.45502597 -0.34794816 -1.2433085
financial -0.38957825 -1.0980614 0.1749859 -0.93889225 0.03455553 0.36319348 0.48562956 -0.82208866 0.5769566 -0.5091168 0.35261035 -1.2880913 0.119795084 0.3729656 -0.41486898 0.6794598 -0.785534 -0.6048518 -0.4313582 -1.5827798
improve -0.25668734 -0.80815756 0.12545247 -0.7026896 0.00036484178 0.2624192 0.35336882 -0.6395171 0.43052036 -0.3970734 0.26289743 -0.9897214 0.11048029 0.26386088 -0.33594093 0.502206 -0.59374 -0.4495449 -0.31540975 -1.2029538
capabilities -0.29638487 -0.8825655 0.1356049 -0.73273444 0.05455997 0.2892458 0.38097003 -0.67817056 0.46660686 -0.44102624 0.30700713 -1.0326622 0.11802768 0.3017691 -0.33788726 0.53746825 -0.6426788 -0.49872485 -0.34930196 -1.2949423
improvement -0.31254882 -0.83422464 0.1452309 -0.70660216 0.011688368 0.2816761 0.3933404 -0.65326357 0.47019267 -0.40403894 0.3045858 -1.0292145 0.08588968 0.31579855 -0.3221144 0.5350296 -0.60023046 -0.46536916 -0.320044 -1.2511905
investment -0.2609379 -0.83049065 0.113097936 -0.7245628 0.011098114 0.2940783 0.36978874 -0.6477267 0.44697356 -0.40725014 0.3105822 -1.0170548 0.08743162 0.26142588 -0.30995932 0.49070498 -0.60161614 -0.46933854 -0.34399378 -1.2641865
questions -0.23354068 -0.72152185 0.12429386 -0.6319365 0.04583942 0.24513724 0.3394312 -0.617452 0.41102597 -0.37188146 0.25101015 -0.87478197 0.09365091 0.24795026 -0.29429224 0.45904535 -0.51745045 -0.4119927 -0.29285014 -1.0926825
let -0.2622278 -0.7438583 0.09867264 -0.6098232 0.022367537 0.24883078 0.30922168 -0.55549407 0.40211105 -0.34317726 0.25466532 -0.8807976 0.10651012 0.21786495 -0.28418225 0.4690797 -0.49413183 -0.39401165 -0.25770548 -1.0457838
outlook -0.27745825 -0.76361954 0.13450158 -0.64825416 0.02426794 0.23973362 0.32415086 -0.5959082 0.3980527 -0.3804831 0.26246297 -0.8946226 0.07834445 0.23953772 -0.31143254 0.494663 -0.54574347 -0.4433633 -0.2824265 -1.0884193
common -0.25581834 -0.82266784 0.14891404 -0.76091856 0.021250565 0.29314336 0.36794913 -0.71351105 0.42870322 -0.43250343 0.28261772 -1.0192308 0.10064841 0.3043356 -0.35186023 0.5268262 -0.63768154 -0.4597604 -0.3297851 -1.227912
fourth -0.22374864 -0.69331396 0.11487924 -0.559157 0.016518418 0.20392945 0.33004814 -0.52327645 0.34692225 -0.30778486 0.26939 -0.8585867 0.093811214 0.19147937 -0.24409604 0.41935307 -0.47106865 -0.38184112 -0.26039964 -0.99615073
center -0.28418997 -0.869109 0.12833178 -0.7521458 0.041756492 0.2842751 0.38858697 -0.72062254 0.5070854 -0.44300494 0.33783516 -1.0812938 0.07288019 0.30436304 -0.347649 0.55617094 -0.6354133 -0.46527788 -0.34270334 -1.3225648
didnt -0.3123493 -0.94492 0.13407317 -0.7911072 0.006926568 0.31947508 0.42194358 -0.7446534 0.48749372 -0.44215542 0.34352478 -1.1444465 0.10601416 0.32284907 -0.36748528 0.5454937 -0.6678932 -0.51907057 -0.34352624 -1.3520803
hi -0.1327487 -0.41670612 0.08220645 -0.38962644 -0.0023066953 0.14960271 0.2578837 -0.3789551 0.31042525 -0.21766257 0.16948429 -0.5681205 -0.00070942607 0.17991047 -0.17305458 0.27777874 -0.36965346 -0.23530088 -0.18618976 -0.6550719
long -0.2998432 -0.8322584 0.14368138 -0.7422301 0.054104924 0.30272678 0.3635481 -0.6667716 0.44268698 -0.44232562 0.31261405 -1.006818 0.120682664 0.27508563 -0.35654324 0.5203037 -0.6255243 -0.46888068 -0.34404358 -1.2273563
term -0.30047038 -0.93297243 0.134804 -0.81118125 0.050054245 0.3097889 0.43549627 -0.7410683 0.51740617 -0.47126043 0.3600417 -1.1531082 0.09761487 0.3200037 -0.38585252 0.5924595 -0.6768406 -0.55239993 -0.3853679 -1.420784
exposure -0.30295765 -0.89493835 0.119632065 -0.76167977 0.04698388 0.2733424 0.40859914 -0.68427384 0.50810754 -0.44889444 0.30728218 -1.0784887 0.089465104 0.3196134 -0.36051437 0.54062957 -0.63113344 -0.48191002 -0.33088157 -1.2838442
curve -0.23040967 -0.7379295 0.11979802 -0.6301065 0.050375096 0.2805809 0.36256418 -0.6245401 0.42043784 -0.3570022 0.24839611 -0.90596896 0.11278792 0.2811536 -0.3239774 0.46709117 -0.5311026 -0.42611414 -0.28943762 -1.1085663
operating -0.27990943 -0.88157517 0.15142854 -0.7494856 0.016362328 0.24638645 0.4011097 -0.6893023 0.48226365 -0.44233623 0.28420967 -1.0421 0.07530696 0.3169643 -0.34252024 0.50484794 -0.5827402 -0.4542602 -0.35545677 -1.2702241
asset -0.26427874 -0.8704901 0.10992524 -0.73166656 0.04146406 0.25902474 0.4042678 -0.7035587 0.4450417 -0.43519077 0.31367722 -1.0312704 0.10203591 0.27286267 -0.34194997 0.51885134 -0.5954361 -0.45544037 -0.3161785 -1.2510899
particular -0.30431288 -0.8609728 0.14661258 -0.7451994 0.029874079 0.28897318 0.38530192 -0.6808576 0.458327 -0.43639725 0.30097345 -1.0359554 0.112701714 0.31295818 -0.35380414 0.5406991 -0.6123274 -0.4764448 -0.3592714 -1.2777294
thought -0.27010065 -0.8338146 0.12862898 -0.6725377 0.0401254 0.29619417 0.38281822 -0.6693986 0.45041636 -0.41128385 0.30699685 -1.0220287 0.11720742 0.2703349 -0.32676703 0.5291601 -0.5580363 -0.48218724 -0.3018344 -1.2251174
appropriate -0.24084206 -0.73825693 0.11011625 -0.6219255 0.013075353 0.23112495 0.34840047 -0.6087843 0.42896453 -0.3674179 0.27363318 -0.90723425 0.0946437 0.2521012 -0.2959141 0.49350592 -0.5554246 -0.41577333 -0.2870938 -1.0937725
youll -0.24617557 -0.658865 0.120201424 -0.5582021 0.035888102 0.23076446 0.32194832 -0.5471619 0.35263184 -0.3117375 0.23145704 -0.8109932 0.07160858 0.24421974 -0.24952488 0.42174563 -0.49820715 -0.4083109 -0.288541 -1.0090294
manage -0.22721203 -0.7627148 0.12960954 -0.62517816 0.009381046 0.26326606 0.35724023 -0.5625231 0.4165915 -0.3494623 0.24901271 -0.9097497 0.103689715 0.2285201 -0.27709866 0.44089785 -0.52139664 -0.39145142 -0.28115624 -1.0717558
nii -0.21120402 -0.60638523 0.1163149 -0.485347 0.0472022 0.1890343 0.26601622 -0.47331345 0.33110443 -0.3023588 0.18506062 -0.7008696 0.09421892 0.2010537 -0.2129763 0.38362294 -0.409869 -0.30945492 -0.2454603 -0.8462784
advantage -0.25514022 -0.75427943 0.12843716 -0.60601896 0.007932509 0.22156972 0.33766162 -0.5629701 0.3705771 -0.37857935 0.23831421 -0.88088256 0.101822115 0.23896524 -0.28935573 0.44913843 -0.5400356 -0.4043386 -0.3043553 -1.0844098
lower -0.2529817 -0.78065777 0.13769348 -0.6330362 0.048551068 0.26540157 0.31622842 -0.6221647 0.4358313 -0.3992064 0.27515224 -0.9325033 0.08184224 0.26213634 -0.30043197 0.4706916 -0.5381848 -0.43574423 -0.30861247 -1.120815
industry -0.2655736 -0.7448435 0.11275492 -0.6189058 0.028136333 0.2460015 0.32424635 -0.5856593 0.39902633 -0.32866547 0.2504128 -0.8933744 0.06618633 0.24741891 -0.27696636 0.45546305 -0.5306973 -0.3916349 -0.2928932 -1.0577953
cecl -0.2838381 -0.79628205 0.14348732 -0.70119345 0.024990564 0.25741047 0.3598068 -0.6639779 0.4409352 -0.41645625 0.30300754 -1.0019199 0.105258435 0.251539 -0.33585197 0.48544452 -0.5707953 -0.4547906 -0.286325 -1.176705
fed -0.30713728 -0.9139567 0.1584419 -0.7731065 0.018187163 0.27963346 0.39193228 -0.6974432 0.48484847 -0.43465483 0.33983392 -1.0610191 0.12702778 0.32286876 -0.34789658 0.57060647 -0.62423646 -0.4910296 -0.35254815 -1.3154544
expectations -0.20551524 -0.6358418 0.12131609 -0.52686685 0.03265444 0.1957367 0.27630693 -0.5269546 0.35500845 -0.30185696 0.21500103 -0.7815925 0.077786446 0.24392793 -0.26854828 0.39023203 -0.4342602 -0.36373582 -0.2321981 -0.9466495
past -0.26285446 -0.7435528 0.096643716 -0.6035509 0.0473324 0.24434112 0.32290417 -0.5872735 0.3896277 -0.35389754 0.27361205 -0.89434886 0.094105065 0.25789872 -0.26255086 0.4297851 -0.5350571 -0.38146347 -0.27609947 -1.0694821
changes -0.30134755 -0.854748 0.1307003 -0.7256947 0.030114215 0.2688105 0.41392013 -0.7056833 0.47717604 -0.4247137 0.296118 -1.0674981 0.11666967 0.32024783 -0.3329994 0.5328971 -0.6412615 -0.47848603 -0.32713553 -1.2717873
yes -0.13663933 -0.48479965 0.056577187 -0.37692773 0.0028534718 0.14475721 0.22515394 -0.3641973 0.25406083 -0.20821391 0.15867957 -0.5421219 0.063144445 0.14491758 -0.19197042 0.27944776 -0.34049472 -0.24372454 -0.17104918 -0.6630157
period -0.25034046 -0.7156093 0.09196226 -0.59592116 0.0059244144 0.22866856 0.31347808 -0.57023805 0.37926903 -0.34459937 0.26580927 -0.8564415 0.060035393 0.24905801 -0.27102035 0.4161369 -0.5071134 -0.37234917 -0.28322938 -0.9969465
run -0.24218391 -0.693956 0.09222851 -0.55335903 0.037291594 0.21790309 0.3316143 -0.5544743 0.3700766 -0.3444977 0.25568143 -0.814043 0.075586945 0.24437562 -0.27272952 0.3999229 -0.4931469 -0.3555267 -0.27163976 -0.9907244
stable -0.23642763 -0.65617955 0.10588762 -0.55324244 0.03655272 0.21501485 0.29281414 -0.5378539 0.3620516 -0.34237927 0.254077 -0.78062564 0.0928953 0.2000199 -0.24564146 0.4049939 -0.45488366 -0.3559277 -0.24218695 -0.9604159
stay -0.23102842 -0.7092074 0.10204008 -0.6115009 0.0044232276 0.23752575 0.31172273 -0.55936503 0.38964826 -0.32988822 0.2537344 -0.8463339 0.06479869 0.2263124 -0.26630116 0.4574739 -0.53265226 -0.40659246 -0.25693193 -1.0558776
area -0.21168016 -0.6785175 0.10383535 -0.54425794 0.0027267926 0.22787797 0.30270305 -0.52375025 0.3843912 -0.30448404 0.206847 -0.79582596 0.053450882 0.2452906 -0.25448355 0.42209262 -0.45887935 -0.37099048 -0.24093607 -0.9802793
keep -0.29065642 -0.8134284 0.11991365 -0.655868 0.04352859 0.25657204 0.3854594 -0.65408856 0.4092637 -0.40382457 0.29949585 -0.96831495 0.093852594 0.2936638 -0.33876485 0.5116706 -0.5780292 -0.45198205 -0.2974486 -1.2064902
fairly -0.3328101 -0.91757303 0.14160915 -0.73531157 0.04415341 0.31880483 0.39295247 -0.7104441 0.4643559 -0.46112126 0.33992967 -1.0976279 0.10919973 0.27753085 -0.35181051 0.5772876 -0.6107064 -0.4989391 -0.35446256 -1.3364725
continuing -0.2700577 -0.7279487 0.12688465 -0.5957067 0.02372534 0.22355147 0.33724543 -0.54481107 0.3771861 -0.32736796 0.2535067 -0.84538674 0.08067672 0.22206722 -0.30690017 0.43123204 -0.536884 -0.37144464 -0.29738837 -1.0776794
ago -0.24921437 -0.72206867 0.120862536 -0.6201161 0.027020173 0.21555203 0.35037002 -0.5880094 0.4039206 -0.37870464 0.25352696 -0.8713951 0.10012545 0.22775543 -0.2892838 0.42062765 -0.5386302 -0.4128597 -0.27530086 -1.0481961
data -0.31833643 -0.9225228 0.15492913 -0.7975322 0.05171484 0.29779646 0.40258396 -0.7406392 0.50160754 -0.4718575 0.3340908 -1.1441327 0.084534444 0.30278507 -0.36727723 0.55977225 -0.6776137 -0.5424763 -0.3840013 -1.4009881
less -0.26584202 -0.79297155 0.117630176 -0.663411 0.040399805 0.2772845 0.36589542 -0.61379254 0.41641304 -0.40712798 0.28769073 -0.99753916 0.08767572 0.25330207 -0.32259035 0.49378598 -0.5931053 -0.42064103 -0.2897526 -1.1898375
program -0.27259514 -0.8133778 0.12933326 -0.66944045 0.047091573 0.23976074 0.37008318 -0.6344988 0.40878817 -0.38677898 0.27476412 -0.9452789 0.10503587 0.25679633 -0.3253485 0.49822652 -0.56943834 -0.41807726 -0.3090466 -1.1785014
ask -0.2605439 -0.7906129 0.10149744 -0.6869869 0.031442724 0.25434288 0.37961465 -0.6444532 0.4736169 -0.4198148 0.27475977 -0.9739142 0.05899169 0.2751261 -0.31729895 0.4942749 -0.5691905 -0.4553349 -0.307965 -1.1787688
wealth -0.24344811 -0.8081577 0.15586555 -0.710484 0.053558026 0.26685768 0.35963705 -0.63742304 0.45320165 -0.37208924 0.28971702 -0.9662926 0.118002996 0.26958534 -0.2990831 0.47825953 -0.56800497 -0.42803505 -0.33755103 -1.2165475
initiatives -0.22536859 -0.751057 0.10753058 -0.60932565 0.029943127 0.2123434 0.3426616 -0.5553496 0.38625982 -0.37414172 0.2546867 -0.90045106 0.061251007 0.25514346 -0.2986864 0.44423226 -0.5186397 -0.42744523 -0.26093853 -1.0747343
space -0.3313354 -0.996352 0.13074712 -0.82026815 0.047405098 0.29329062 0.46922958 -0.7494277 0.51382095 -0.47938702 0.35231733 -1.1916475 0.10779244 0.32141244 -0.39827955 0.63114876 -0.70582676 -0.5176212 -0.3615905 -1.4470159
ability -0.27458933 -0.7744445 0.147889 -0.66948855 0.033451825 0.23831 0.34979948 -0.6096722 0.451385 -0.38464418 0.2852968 -0.9698365 0.08248147 0.26552817 -0.33427033 0.46155265 -0.57817745 -0.44308537 -0.30189055 -1.1540085
gerard -0.15934029 -0.46741676 0.09326742 -0.42184773 0.0067779482 0.15994886 0.25852764 -0.4166825 0.27050957 -0.2449038 0.1738136 -0.59596926 0.03221206 0.19781595 -0.21791534 0.27556968 -0.38635913 -0.24799201 -0.17634848 -0.7013294
months -0.27361992 -0.7685719 0.10102846 -0.6313833 0.04173038 0.2623982 0.35190812 -0.6096616 0.41935712 -0.37466234 0.2812475 -0.9031751 0.0655103 0.26461762 -0.27206457 0.44921035 -0.5411518 -0.41722304 -0.28035057 -1.1050643
portfolios -0.22900188 -0.715576 0.09258649 -0.62021124 0.04548923 0.23577912 0.31179604 -0.5943073 0.42307687 -0.3668422 0.2605245 -0.8659324 0.08147284 0.25284344 -0.28583553 0.45880476 -0.5013627 -0.40048516 -0.30277723 -1.0479888
sort -0.2903936 -0.8010542 0.13608032 -0.6600783 0.040630646 0.27584982 0.3368476 -0.64191526 0.4241238 -0.3952849 0.29439747 -0.9695416 0.1117075 0.28901976 -0.2968371 0.48897824 -0.58776665 -0.42747194 -0.32870787 -1.1515995
expectation -0.18320158 -0.60998154 0.11186437 -0.5123661 0.032212533 0.20568539 0.2736142 -0.4607388 0.3369994 -0.2866692 0.21210279 -0.70291734 0.060445096 0.22491953 -0.25612184 0.378656 -0.39954454 -0.34568325 -0.24367066 -0.8814208
checking -0.22860047 -0.5900422 0.0795535 -0.53521615 0.0038596946 0.18796681 0.24219255 -0.4259848 0.3257915 -0.30359203 0.1999658 -0.7108845 0.09180378 0.1560126 -0.2552027 0.34924638 -0.4304529 -0.34638593 -0.21024345 -0.8914453
positive -0.23782645 -0.7147741 0.11332102 -0.5764997 0.007140799 0.25437424 0.33859503 -0.5567838 0.40849844 -0.3327759 0.2709913 -0.8626257 0.07018651 0.25062856 -0.28949487 0.4584134 -0.51501906 -0.39419606 -0.29482627 -1.062397
costs -0.25497857 -0.72291356 0.118210085 -0.61988217 0.0485598 0.2161855 0.31910893 -0.5777851 0.39899623 -0.35479447 0.2610198 -0.8655166 0.10448952 0.2314383 -0.2848513 0.43879476 -0.5242566 -0.39470217 -0.3037186 -1.0679014
money -0.21074179 -0.5902455 0.07237276 -0.5009984 -0.0004144722 0.18044409 0.26197726 -0.46185794 0.29818115 -0.26881644 0.23199524 -0.71185476 0.06494086 0.20684873 -0.19950531 0.3817556 -0.43313107 -0.33374283 -0.20386934 -0.83811194
amount -0.24525426 -0.7674283 0.12540825 -0.63132507 0.0034581292 0.22120455 0.3562711 -0.61178285 0.43716094 -0.36529094 0.2518427 -0.89380956 0.07301508 0.2301168 -0.29955113 0.45597103 -0.5583051 -0.44456056 -0.2864321 -1.1189066
half -0.21030925 -0.63927066 0.11136532 -0.53826326 0.015673047 0.22379094 0.26544482 -0.50574744 0.34911782 -0.29215577 0.2054467 -0.76895565 0.079994574 0.21559022 -0.25080806 0.37387592 -0.42487928 -0.37244043 -0.251749 -0.9051516
shareholders -0.22898461 -0.73896086 0.11428363 -0.65219545 -0.0026227417 0.24845083 0.32931092 -0.6020919 0.38196287 -0.35160512 0.26151118 -0.90528405 0.09660269 0.26685175 -0.29279304 0.4510524 -0.53836936 -0.4179101 -0.25936508 -1.0921688
branch -0.2835966 -0.85932404 0.13856983 -0.731649 0.026657874 0.2518053 0.4033116 -0.66538644 0.46887928 -0.4069998 0.29766476 -1.0203308 0.10688738 0.2824374 -0.35035324 0.52698666 -0.61975014 -0.4560271 -0.31475747 -1.2725056
tell -0.23147152 -0.6414572 0.118737616 -0.5136891 -0.0026823692 0.20538957 0.29273114 -0.5163509 0.3410567 -0.27826056 0.24321903 -0.7222805 0.05053528 0.20729807 -0.22501813 0.38806036 -0.45628268 -0.36213654 -0.22220246 -0.93129116
relative -0.23295799 -0.700091 0.12344685 -0.6095751 0.030791096 0.24335103 0.3283587 -0.5642673 0.40843168 -0.3770154 0.2565788 -0.87871397 0.07997264 0.261616 -0.30035 0.4534628 -0.52213526 -0.4077128 -0.2908957 -1.0461222
q -0.2835818 -0.77211386 0.11567666 -0.6411951 0.025829775 0.24875058 0.356187 -0.60483134 0.41838887 -0.3923016 0.297342 -0.9193539 0.064236045 0.24981166 -0.30448323 0.5024469 -0.5375303 -0.40859297 -0.30408883 -1.1355296
place -0.22670667 -0.6872414 0.10326173 -0.5884329 0.036868032 0.1963359 0.29344147 -0.5578992 0.3498645 -0.3516891 0.22073269 -0.83674127 0.070728205 0.2348359 -0.27896604 0.4352747 -0.50776875 -0.3583146 -0.2483307 -0.99703085
early -0.30934846 -0.8291971 0.1067571 -0.68802494 0.010121412 0.27102843 0.38256162 -0.63509786 0.47571146 -0.39072272 0.3232531 -1.0138558 0.07587078 0.30012497 -0.3359321 0.48806947 -0.58317846 -0.45389923 -0.31854844 -1.2455964
always -0.2446442 -0.740778 0.11858807 -0.6046207 0.006301496 0.26016268 0.3593915 -0.6058565 0.38892627 -0.38357627 0.2723289 -0.8713345 0.07493174 0.24020307 -0.31249192 0.48084903 -0.5363764 -0.42014045 -0.28555375 -1.0994661
move -0.22894245 -0.7104976 0.11703605 -0.61975604 0.019304289 0.23430133 0.32116684 -0.5518527 0.37504843 -0.3461301 0.24879034 -0.8620131 0.07868885 0.25613177 -0.26206368 0.42700946 -0.52628946 -0.41622838 -0.25584984 -1.0573436
energy -0.3169909 -0.88351333 0.14565708 -0.74049133 0.050037693 0.27366593 0.42440152 -0.6800813 0.47167882 -0.44622734 0.30590516 -1.0803367 0.1068191 0.32049528 -0.35432887 0.5520656 -0.6491916 -0.480922 -0.35995126 -1.3217049
barb -0.22938104 -0.6041533 0.07922039 -0.5164967 0.01593423 0.21570618 0.27486265 -0.49541843 0.3236166 -0.30561775 0.22164059 -0.74391115 0.06300343 0.18654358 -0.2337926 0.34734163 -0.40771478 -0.3486499 -0.21113057 -0.91396993
best -0.22267279 -0.6472034 0.08780689 -0.5284887 0.012551799 0.18832563 0.29757366 -0.4744388 0.35939848 -0.30006245 0.24076252 -0.74529535 0.07209129 0.20889007 -0.26274148 0.39461428 -0.44071642 -0.3719708 -0.24183749 -0.9451411
helpful -0.18013823 -0.4662127 0.061458044 -0.39124683 0.038103323 0.13898946 0.19590785 -0.40238938 0.25695515 -0.25149328 0.2006509 -0.563486 0.034561463 0.17111161 -0.1941566 0.3268039 -0.3138844 -0.27912897 -0.1945992 -0.73233175
thinking -0.23750915 -0.6381994 0.09381055 -0.55597776 0.03149038 0.23870961 0.3189127 -0.53826666 0.385858 -0.32912967 0.22946937 -0.8051756 0.093203805 0.21127428 -0.26655135 0.37965825 -0.44297734 -0.386835 -0.27868077 -0.9821651
times -0.2703119 -0.76677626 0.13266894 -0.65464294 0.023150437 0.23177569 0.3217822 -0.58822936 0.43608984 -0.38118544 0.26923144 -0.90617 0.095853895 0.24012242 -0.28380662 0.48632854 -0.53527355 -0.44048852 -0.31707332 -1.1206417
using -0.2637531 -0.7508107 0.12842068 -0.6645547 0.01746808 0.2574121 0.3531854 -0.5886318 0.43628594 -0.37226045 0.2603621 -0.9072083 0.06435315 0.2664124 -0.32264608 0.4572173 -0.54619676 -0.40194616 -0.29402238 -1.1389289
top -0.2918093 -0.8047349 0.12011985 -0.700506 0.03494376 0.23836872 0.34575757 -0.615747 0.43109432 -0.39519212 0.27212492 -0.9720783 0.09254021 0.24932455 -0.29961672 0.51554763 -0.5720979 -0.45308477 -0.3062248 -1.1913048
plus -0.18369704 -0.62362105 0.08063707 -0.5202362 0.02105603 0.1682972 0.28276426 -0.49642515 0.34538653 -0.3112532 0.21637861 -0.69934326 0.061039742 0.2204804 -0.22882469 0.35226724 -0.45080775 -0.31776124 -0.24906614 -0.8541743
competitive -0.23572566 -0.73380524 0.122912936 -0.58992386 0.028453574 0.2449888 0.3446215 -0.57165116 0.3777618 -0.3396673 0.22636883 -0.86307776 0.08287469 0.21308972 -0.27588463 0.45345238 -0.49822575 -0.39250824 -0.27201048 -1.060175
example -0.23329389 -0.77767354 0.10781242 -0.67002726 0.019126186 0.23220561 0.33189178 -0.6203623 0.40905297 -0.3754639 0.27574584 -0.91542363 0.062143996 0.23512237 -0.30859172 0.48229408 -0.5415448 -0.4371613 -0.27277327 -1.1322024
numbers -0.24435076 -0.66610545 0.12321794 -0.5902155 0.015796933 0.2127786 0.31604552 -0.56216425 0.34780803 -0.3589214 0.22463346 -0.8279661 0.10085113 0.25116113 -0.28421196 0.42368296 -0.47488248 -0.37775958 -0.28126997 -1.0274918
already -0.24385275 -0.7037934 0.09300812 -0.59407943 0.043955434 0.24536891 0.33255592 -0.5837376 0.3955101 -0.35438251 0.23771837 -0.85044795 0.09654801 0.247556 -0.30034894 0.4532122 -0.5114127 -0.3795553 -0.27954763 -1.0604453
challenging -0.21165864 -0.62927186 0.09845184 -0.5169839 0.010924866 0.21574946 0.29754758 -0.5101599 0.34044993 -0.28884336 0.22474346 -0.7297997 0.056897752 0.22427227 -0.23050517 0.39654166 -0.45805612 -0.3253107 -0.2543418 -0.9005356
potentially -0.24473713 -0.74828506 0.10719137 -0.636283 0.046080142 0.2716741 0.34995487 -0.5852448 0.4000327 -0.38859648 0.29043344 -0.93987125 0.09935833 0.24973679 -0.27839983 0.4965108 -0.548902 -0.44750416 -0.2866666 -1.117989
high -0.21312812 -0.66255057 0.12653242 -0.5442034 0.022341589 0.21299714 0.29444906 -0.5270092 0.3592353 -0.32724726 0.22475892 -0.8202852 0.072304584 0.23998608 -0.2749265 0.394844 -0.48230228 -0.34988737 -0.23442753 -0.9886598
fact -0.2836984 -0.81647736 0.103996426 -0.6595916 0.04165532 0.28032526 0.37406397 -0.6202524 0.4367103 -0.38322464 0.26513302 -0.9805779 0.109310985 0.2810681 -0.30093074 0.50700223 -0.54700226 -0.45731223 -0.287454 -1.1462239
taking -0.18625252 -0.61636263 0.104665555 -0.5451921 0.019447591 0.20499903 0.2824253 -0.52053696 0.35353518 -0.2918113 0.22990625 -0.7726405 0.041295897 0.22565036 -0.24607664 0.41119003 -0.4601758 -0.35953748 -0.23081477 -0.9511802
wondering -0.25052455 -0.6649493 0.112065405 -0.5405146 0.029308744 0.19576381 0.28404698 -0.5083857 0.35698104 -0.31134388 0.2198134 -0.7944681 0.052185584 0.24873304 -0.28186777 0.41241425 -0.4543055 -0.35091922 -0.24392611 -0.9713351
cant -0.21229595 -0.6618582 0.105933264 -0.5575841 0.007248873 0.21894966 0.26890412 -0.5063191 0.34399113 -0.32522556 0.2355028 -0.74308306 0.057670385 0.22039856 -0.23863761 0.39249378 -0.44952893 -0.34391338 -0.23646611 -0.917932
quite -0.255754 -0.7490343 0.1436422 -0.6312793 0.008220632 0.26247424 0.33901346 -0.5804059 0.43313295 -0.35843903 0.26028866 -0.90974754 0.06324147 0.24071752 -0.29827797 0.4445104 -0.5495182 -0.43699425 -0.28213868 -1.093748
mobile -0.25269532 -0.82961553 0.1121106 -0.66523504 0.04640615 0.26165283 0.38374785 -0.6615667 0.46394318 -0.39747068 0.2828726 -1.0170902 0.08494849 0.27542558 -0.33053255 0.52876365 -0.5799685 -0.47529855 -0.31841686 -1.2238393
answer -0.19873564 -0.5289269 0.10079705 -0.47504774 0.04552313 0.16238274 0.26124242 -0.43752378 0.28592423 -0.2692884 0.20226143 -0.6512223 0.060593456 0.1567315 -0.20154107 0.35527897 -0.37858883 -0.32744485 -0.18981525 -0.78996664
account -0.22021362 -0.7276326 0.12796769 -0.6154995 0.03557055 0.24773583 0.3284663 -0.548777 0.38184282 -0.36201134 0.2332492 -0.844101 0.06724577 0.23056723 -0.29276007 0.43041635 -0.5284361 -0.40489772 -0.25300628 -1.0484456
working -0.22757204 -0.64458317 0.09021398 -0.5551852 0.034789246 0.20655377 0.31548855 -0.49793097 0.36162245 -0.31273854 0.2144993 -0.77882385 0.088796765 0.23887369 -0.26842448 0.37006432 -0.4745981 -0.35948965 -0.27099353 -0.96866506
total -0.22914822 -0.62230545 0.11809912 -0.52287906 0.026458438 0.1957901 0.28776237 -0.4680931 0.34042367 -0.2878848 0.21736842 -0.76956457 0.07572823 0.22056302 -0.23261379 0.3800729 -0.41561022 -0.32474452 -0.253744 -0.9015831
platform -0.18136917 -0.5889132 0.07437825 -0.47422078 0.0293735 0.18977539 0.24461724 -0.4874967 0.30542013 -0.29050058 0.20471253 -0.69762117 0.05344877 0.19158654 -0.2427021 0.33997923 -0.41959706 -0.30641627 -0.24238424 -0.8763034
roughly -0.21359053 -0.611916 0.08833729 -0.50079626 0.031207215 0.20398912 0.29503202 -0.49239376 0.33163062 -0.29376686 0.21686116 -0.73258936 0.05887997 0.22412999 -0.24334924 0.3710239 -0.40170613 -0.3503464 -0.25746176 -0.8754515
significant -0.20866066 -0.66517514 0.13047138 -0.5802485 0.011916017 0.2177559 0.32891068 -0.5335915 0.3572599 -0.3543598 0.23547961 -0.803375 0.054295123 0.2409283 -0.2765586 0.42045075 -0.5068313 -0.37754723 -0.27887607 -0.99476063
ccar -0.21614689 -0.6787193 0.09608731 -0.60597605 0.042269208 0.22761555 0.32720324 -0.5715403 0.385674 -0.3480841 0.24855667 -0.8220581 0.054886498 0.22074348 -0.26983613 0.42476872 -0.51932555 -0.3851777 -0.25945175 -1.0048386
franchise -0.16771773 -0.5730375 0.08486056 -0.45657712 0.017305525 0.1926019 0.22862282 -0.41819403 0.28001517 -0.27104887 0.18649018 -0.64877844 0.0478619 0.18624212 -0.19877246 0.31983697 -0.39221594 -0.31677428 -0.18883656 -0.8000205
happen -0.20361662 -0.58688784 0.08239386 -0.5326587 0.032368988 0.18127434 0.28559393 -0.48264217 0.3140366 -0.28487867 0.23393388 -0.741004 0.08529426 0.19105901 -0.23429605 0.39796963 -0.42103386 -0.35062712 -0.22676094 -0.9059708
flat -0.19891836 -0.54669374 0.108356595 -0.46781453 0.026677048 0.20771508 0.2230345 -0.41073382 0.3031719 -0.28285262 0.22149715 -0.63820374 0.08304404 0.1913912 -0.20693839 0.33054543 -0.36012748 -0.30422667 -0.2161783 -0.8088738
strategy -0.22069193 -0.72067666 0.087836035 -0.6132394 0.005684483 0.22298479 0.3198609 -0.5506979 0.39030722 -0.361365 0.26680002 -0.84630823 0.059369422 0.25623715 -0.27636766 0.43748614 -0.52251685 -0.4187687 -0.26068166 -1.0713874
hard -0.18965484 -0.65219504 0.11273612 -0.5389164 0.025079299 0.20988767 0.27823168 -0.49940652 0.32820964 -0.30868897 0.2085194 -0.7679972 0.09816711 0.22665764 -0.24687512 0.38275808 -0.47059086 -0.32864645 -0.23594278 -0.9621833
job -0.20625028 -0.52328223 0.09079226 -0.4871919 0.019051058 0.18622041 0.25951633 -0.4483158 0.310732 -0.23785995 0.18530448 -0.6677493 0.05278677 0.18810475 -0.20377858 0.3279672 -0.41676605 -0.2879647 -0.17599185 -0.832511
targets -0.24144468 -0.71032286 0.14062849 -0.5813197 0.012623216 0.2080569 0.3138308 -0.56806177 0.40449792 -0.3409618 0.26550284 -0.8845852 0.09340679 0.22810958 -0.27202758 0.4502932 -0.49059162 -0.39559358 -0.26058108 -1.0414653
tier -0.19558744 -0.61529946 0.105162054 -0.5410726 0.029037574 0.19250852 0.28778827 -0.47841284 0.31261525 -0.2867995 0.21074986 -0.73991096 0.097947836 0.19305843 -0.2490425 0.39784756 -0.4664148 -0.32604066 -0.207475 -0.91965365
runoff -0.21558647 -0.54743266 0.06716097 -0.4630871 0.02101891 0.19486882 0.25316423 -0.43292388 0.29186738 -0.29230914 0.21911289 -0.6998613 0.07783456 0.2051166 -0.22646739 0.34590372 -0.39133343 -0.3053258 -0.2421076 -0.84957814
far -0.25715703 -0.7282297 0.11765986 -0.595262 0.01691395 0.24720062 0.30576622 -0.59623307 0.37826028 -0.33752328 0.24356207 -0.8904841 0.08788996 0.24073522 -0.3107623 0.4638319 -0.53194773 -0.41357273 -0.27754727 -1.0542377
mix -0.14072981 -0.49756488 0.05657478 -0.41220844 0.0020544906 0.13278866 0.23498403 -0.3763316 0.25989243 -0.21461716 0.1533221 -0.5802973 0.044656087 0.1453588 -0.16146569 0.27938202 -0.3492335 -0.28470227 -0.17602019 -0.7033289
areas -0.21658197 -0.6365424 0.0763433 -0.5318623 0.003775906 0.22726536 0.30452475 -0.49791843 0.33077177 -0.28989133 0.22739753 -0.75334835 0.06859825 0.19257806 -0.25518584 0.36857924 -0.4540391 -0.33419302 -0.2624623 -0.92528135
pressure -0.20186102 -0.5395187 0.09652158 -0.45941556 0.04333681 0.20203261 0.245796 -0.44951478 0.32575253 -0.265781 0.17338002 -0.69186777 0.049002383 0.17780288 -0.2142923 0.35416827 -0.39781532 -0.30418748 -0.20573705 -0.84508765
build -0.16186155 -0.5071956 0.057746883 -0.45108673 -0.0016920479 0.16475315 0.24668851 -0.423309 0.27630252 -0.27206737 0.1818446 -0.64456487 0.057081908 0.19504282 -0.19124997 0.3113306 -0.34671152 -0.30174452 -0.1753318 -0.76890695
nice -0.14383045 -0.4428042 0.0785751 -0.41637862 0.020620627 0.1492495 0.2101961 -0.3923425 0.27280822 -0.23595142 0.15796404 -0.5901353 0.042116754 0.1615379 -0.19069664 0.28761414 -0.3200876 -0.26634207 -0.17551659 -0.6728635
auto -0.23964849 -0.71873945 0.1090261 -0.62462467 0.009257114 0.20616597 0.3230546 -0.5487954 0.36547217 -0.35730633 0.23945417 -0.8814599 0.08507497 0.23911679 -0.30025628 0.45603743 -0.5010218 -0.39816195 -0.28369972 -1.0462489
bankers -0.23480803 -0.65020955 0.082272865 -0.55141205 0.0047476804 0.22026674 0.3155418 -0.52196854 0.3512136 -0.31575578 0.23334786 -0.8015709 0.08194034 0.21161878 -0.24698475 0.4299946 -0.45595786 -0.36818767 -0.2713881 -0.9942904
relationship -0.22488163 -0.6235048 0.08332563 -0.55486786 0.008837485 0.18298563 0.3150964 -0.5034102 0.360182 -0.33304614 0.24991886 -0.7891478 0.090375274 0.19579911 -0.2445734 0.39018807 -0.43521053 -0.35547438 -0.23916028 -0.9255664
changed -0.22578044 -0.689214 0.08694692 -0.53974724 0.022276124 0.23806614 0.30993617 -0.5387801 0.35915506 -0.3259413 0.24490431 -0.8179663 0.08278284 0.20144536 -0.28897133 0.3863254 -0.49210122 -0.3521185 -0.24448514 -0.9997981
team -0.25943434 -0.72764 0.12601224 -0.5975735 0.013744479 0.23135173 0.34262168 -0.5500453 0.3970742 -0.37234026 0.25815883 -0.8586633 0.099150434 0.26179463 -0.28644514 0.4510394 -0.5261406 -0.37644002 -0.28056487 -1.0487255
gives -0.15332404 -0.5165726 0.0673227 -0.44383472 -0.003823075 0.1739875 0.24966595 -0.40691778 0.28076392 -0.24400455 0.18081065 -0.59798914 0.0428204 0.17638975 -0.18226226 0.30835515 -0.3580749 -0.26327357 -0.18256842 -0.7429011
experience -0.16832367 -0.47827283 0.061987065 -0.38626355 0.03378613 0.16397992 0.2490144 -0.3653969 0.252992 -0.21986502 0.16440481 -0.59475476 0.06537497 0.16496906 -0.213278 0.2782438 -0.3393147 -0.25571796 -0.2087822 -0.7417215
id -0.14548057 -0.48015222 0.05040538 -0.42563373 -0.0070148166 0.16574223 0.23131113 -0.42161798 0.26665056 -0.26618287 0.17348439 -0.59778935 0.047461487 0.16041459 -0.2073089 0.3253643 -0.34546733 -0.28471184 -0.19726066 -0.7526999
dividend -0.23836386 -0.65310866 0.099464275 -0.54581934 -0.005987245 0.1817075 0.2790047 -0.52252173 0.37186685 -0.33369434 0.22024341 -0.78520787 0.08495545 0.21129364 -0.24034876 0.36831966 -0.43298617 -0.33524862 -0.24206601 -0.91383624
demand -0.1701675 -0.48604992 0.06207181 -0.4179282 0.0170061 0.15483509 0.20292339 -0.36120683 0.2851408 -0.24179071 0.17748445 -0.58439475 0.07900206 0.13772517 -0.19812207 0.28691962 -0.32429725 -0.29670683 -0.17178664 -0.7460235
group -0.2980114 -0.78758454 0.12295587 -0.6685174 0.026499316 0.27974382 0.3495134 -0.64105725 0.43278742 -0.39066517 0.2785624 -0.9876423 0.08554227 0.28630146 -0.32450458 0.48170444 -0.56681544 -0.47018525 -0.29881698 -1.174942
hey -0.08116858 -0.251285 0.03005447 -0.26907197 -0.0069110123 0.06669426 0.14092882 -0.24974532 0.18471663 -0.12107307 0.10183295 -0.38049942 0.032251455 0.08760752 -0.103775926 0.15541159 -0.2500915 -0.17055275 -0.08460185 -0.45565075
full -0.18600315 -0.4753134 0.07265466 -0.4037404 -0.001843916 0.1843338 0.22284696 -0.37254208 0.27519026 -0.24130881 0.1665978 -0.5802411 0.0669116 0.18372822 -0.19516432 0.30269185 -0.34379295 -0.27052832 -0.16834669 -0.72699517
color -0.16214801 -0.42776445 0.04968061 -0.38879567 -0.0038178626 0.14177337 0.20273772 -0.36613032 0.2325874 -0.20337802 0.18172778 -0.52493453 0.036962155 0.1490026 -0.1750386 0.28325385 -0.31127295 -0.23101905 -0.15287703 -0.64934176
count -0.15511784 -0.52058756 0.09318297 -0.45046958 0.014119082 0.15364623 0.24326405 -0.40691608 0.28000975 -0.26753277 0.19173303 -0.62430596 0.05842651 0.1903069 -0.18525784 0.32799613 -0.38540658 -0.2716238 -0.17667268 -0.761241
talking -0.16835837 -0.5205655 0.09028302 -0.41277513 0.031289674 0.17112555 0.20142111 -0.4167575 0.27836367 -0.23007518 0.16490793 -0.6174562 0.07281576 0.18937649 -0.21787572 0.32966998 -0.36090553 -0.29441473 -0.21260983 -0.70968676
many -0.20943598 -0.6812056 0.11574861 -0.5631753 0.03385258 0.22208734 0.317391 -0.52180254 0.35106263 -0.32276174 0.25686812 -0.78399557 0.09533216 0.21945941 -0.27850023 0.42839974 -0.48191088 -0.36818406 -0.26613578 -0.95783645
particularly -0.15812005 -0.5419287 0.08541291 -0.45415246 0.015410548 0.1678493 0.21944043 -0.41261962 0.2729097 -0.27086958 0.20871781 -0.66361725 0.05510729 0.19347344 -0.19794713 0.30403617 -0.37353474 -0.28660727 -0.2209912 -0.8052888
pay -0.21531661 -0.6743005 0.12891327 -0.542727 0.004707706 0.19377305 0.29953644 -0.5048857 0.3740526 -0.32271066 0.24655995 -0.80525464 0.06214354 0.20448233 -0.27265164 0.39690056 -0.4711991 -0.3844073 -0.261001 -0.96174
service -0.2359765 -0.6909271 0.10846618 -0.59384906 0.051351752 0.23974453 0.3293131 -0.53596383 0.3690748 -0.33025122 0.26614743 -0.8634934 0.06494042 0.2529988 -0.267837 0.4244984 -0.4990311 -0.36902624 -0.2901311 -1.0266294
relatively -0.19802801 -0.5256618 0.10533136 -0.45305452 -0.006222462 0.16834849 0.23663576 -0.43281004 0.30485958 -0.27409837 0.20805544 -0.65625656 0.07254913 0.17027608 -0.18280922 0.32047388 -0.34124982 -0.2799797 -0.19343407 -0.7817437
insurance -0.22170068 -0.6332614 0.12400336 -0.54845494 0.0006816345 0.18993054 0.27295333 -0.47599337 0.3569635 -0.32099485 0.22690034 -0.77362746 0.095973134 0.20705326 -0.2760931 0.3837946 -0.4740539 -0.34743753 -0.25201893 -0.941245
understand -0.17142119 -0.567349 0.08744343 -0.46809444 0.033240218 0.19018823 0.2779018 -0.47469962 0.30537426 -0.3007264 0.22047408 -0.70134395 0.08817179 0.20863433 -0.21055633 0.3388269 -0.4133906 -0.31326878 -0.21174733 -0.841797
teams -0.18829378 -0.5689252 0.08646312 -0.4955774 0.017989388 0.20899566 0.25603795 -0.470796 0.34037682 -0.30362746 0.18772206 -0.7218368 0.051043298 0.18822472 -0.20867917 0.33147183 -0.39226505 -0.29935387 -0.22274314 -0.8605825
followup -0.14339 -0.41043207 0.064816974 -0.36418504 0.03666581 0.1422777 0.18341267 -0.380724 0.27675164 -0.22653535 0.17147648 -0.5047458 0.059176613 0.14345026 -0.17249854 0.28479663 -0.29725608 -0.25343323 -0.18380144 -0.6716896
online -0.20757242 -0.6401381 0.09522012 -0.531741 0.037832648 0.16960569 0.2976183 -0.46358 0.35386834 -0.30997765 0.2196016 -0.76819664 0.056858853 0.2161214 -0.27009326 0.38492936 -0.4357631 -0.34172863 -0.23540695 -0.90646017
close -0.17166711 -0.52963233 0.05668543 -0.43845806 0.019804599 0.16962056 0.23263696 -0.42727506 0.29412913 -0.28369924 0.17511481 -0.6554833 0.07777234 0.18074405 -0.20136596 0.32857928 -0.35192344 -0.2806743 -0.21197863 -0.7835777
liquidity -0.22525185 -0.59264445 0.103314795 -0.5210409 0.008409426 0.17468971 0.2748081 -0.49659237 0.30550826 -0.31990778 0.1935192 -0.75806445 0.072405 0.19394003 -0.23242228 0.36553735 -0.42180246 -0.35447744 -0.23863861 -0.9116457
overall -0.1884216 -0.55251634 0.059524823 -0.46519583 0.046413817 0.19501291 0.2412188 -0.3992196 0.27437133 -0.24238162 0.20676577 -0.62929654 0.07296633 0.15834138 -0.21441253 0.3489973 -0.36582008 -0.30088863 -0.19782622 -0.7885284
certainly -0.21807864 -0.5724249 0.093115725 -0.5143475 0.041564 0.20750296 0.24785812 -0.46239612 0.32694033 -0.2753598 0.2232189 -0.69369954 0.06829149 0.21206279 -0.24035439 0.38249382 -0.43811724 -0.34366566 -0.22047448 -0.8665822
anything -0.19818954 -0.51647043 0.08698332 -0.4309114 0.0012924782 0.14326017 0.2459704 -0.42596465 0.29264903 -0.24271198 0.21015649 -0.61550164 0.062944785 0.19338098 -0.22156803 0.33964485 -0.37139264 -0.3011806 -0.19358222 -0.76786476
company -0.20506853 -0.57483274 0.07616976 -0.5190127 0.030219408 0.1899992 0.27775225 -0.476477 0.34661528 -0.29779118 0.19939093 -0.70971394 0.048180703 0.17747273 -0.21727985 0.34626594 -0.41153598 -0.31139755 -0.25450414 -0.8684109
piece -0.17282896 -0.49224105 0.086755686 -0.41907185 0.0015454604 0.14260726 0.19447556 -0.3501567 0.23477508 -0.248673 0.14876401 -0.56817645 0.07493018 0.16296947 -0.20675585 0.29652297 -0.30908886 -0.27120054 -0.17984925 -0.7156802
generate -0.1307383 -0.4602097 0.09207738 -0.37022513 0.03240621 0.13079225 0.1882538 -0.37150666 0.26674777 -0.23102182 0.13825047 -0.5345813 0.04475237 0.16411877 -0.16676782 0.26079988 -0.3313354 -0.23698989 -0.17244178 -0.6771228
hedging -0.20050058 -0.61337495 0.10392589 -0.47848624 0.036660466 0.19908166 0.26495534 -0.47619072 0.34009606 -0.2677306 0.2086846 -0.7286969 0.05004542 0.18247893 -0.24459001 0.34752986 -0.40415004 -0.33192912 -0.24960873 -0.88063127
relationships -0.2539697 -0.71061534 0.10136631 -0.58650017 0.04771482 0.20709924 0.3371183 -0.5626554 0.40169656 -0.34666434 0.25586912 -0.86903757 0.092327386 0.26212427 -0.2749051 0.4569846 -0.5086973 -0.39860225 -0.28315604 -1.0340382
sensitivity -0.22183758 -0.65093976 0.10106687 -0.5071216 0.0060267597 0.19393528 0.3065063 -0.5051096 0.32544252 -0.2875545 0.20108518 -0.747458 0.05288627 0.19232023 -0.23766975 0.36831823 -0.46351987 -0.32263097 -0.25077444 -0.93631977
initiative -0.16566332 -0.51222247 0.09795444 -0.45787147 -0.009425623 0.14626104 0.2526711 -0.41262323 0.27526972 -0.26829094 0.15660277 -0.59221226 0.047802795 0.17535718 -0.17707223 0.29331332 -0.385223 -0.3061982 -0.18575878 -0.7630857
came -0.19684936 -0.6135491 0.078427956 -0.51814216 0.041936193 0.18456589 0.25586265 -0.5120071 0.32033682 -0.29914322 0.23416437 -0.73486316 0.07341016 0.20312859 -0.23228249 0.38378242 -0.42125782 -0.36539936 -0.23003446 -0.8932057
set -0.16851881 -0.579025 0.07062924 -0.501581 -0.001881838 0.16712047 0.27874827 -0.45165634 0.30282608 -0.2975005 0.17896888 -0.6703374 0.09343064 0.21796805 -0.2062355 0.35669187 -0.41338485 -0.3083417 -0.20259742 -0.85366195
extent -0.26377448 -0.73497957 0.12104131 -0.61066014 0.037035722 0.25476897 0.358127 -0.6081169 0.40367487 -0.38021353 0.27782354 -0.9143142 0.07400779 0.2671698 -0.284326 0.44819424 -0.5512225 -0.4359677 -0.29931927 -1.0823809
line -0.19773914 -0.58261216 0.08506439 -0.4727074 0.04754553 0.17199658 0.2802155 -0.47206086 0.30379862 -0.28894174 0.2058919 -0.7011165 0.08668192 0.16548698 -0.23031439 0.32968855 -0.41522545 -0.32399395 -0.24292292 -0.85780966
needs -0.2125864 -0.6302606 0.080480546 -0.5200149 0.022324217 0.20064372 0.29945517 -0.5069741 0.3233282 -0.3232614 0.22629783 -0.73942065 0.094004475 0.18457001 -0.25080648 0.36987355 -0.46459073 -0.33444768 -0.21654704 -0.91607445
levels -0.219729 -0.5983006 0.08786461 -0.5223244 0.023560643 0.18744348 0.27730346 -0.45424506 0.30742833 -0.27574608 0.23430496 -0.7254542 0.07242929 0.22793107 -0.22706494 0.38611123 -0.39995748 -0.31382516 -0.26149726 -0.88831055
corporate -0.1775741 -0.5956244 0.12049543 -0.4752849 0.030829735 0.18808287 0.29300734 -0.48595104 0.32034078 -0.2680798 0.19794652 -0.7170497 0.07678149 0.2068857 -0.22641875 0.34146398 -0.3941039 -0.30221686 -0.24252246 -0.89463174
committed -0.19638748 -0.5774702 0.08012407 -0.4666551 0.011545414 0.15964712 0.26097572 -0.47265178 0.28867018 -0.2638927 0.17905863 -0.702321 0.06862956 0.17902061 -0.22533375 0.3461356 -0.41903675 -0.3008716 -0.24053462 -0.841347
reduce -0.2060328 -0.59723353 0.10737674 -0.5350825 0.009242467 0.19432445 0.2659233 -0.49466547 0.3631047 -0.30618277 0.22463788 -0.7584947 0.048583265 0.23090106 -0.24291313 0.35743737 -0.44233048 -0.33300564 -0.2543736 -0.9060758
others -0.20593007 -0.57607824 0.099877715 -0.49649826 0.007724426 0.18616596 0.2326219 -0.45394304 0.31864893 -0.26840997 0.21861298 -0.6613472 0.043078326 0.20910725 -0.21353386 0.3460589 -0.4170189 -0.31888807 -0.20753445 -0.8206042
deliver -0.20303318 -0.5807729 0.08164095 -0.47452623 0.010258656 0.16667962 0.24186252 -0.45903188 0.33158195 -0.28180915 0.17134528 -0.6924711 0.037873793 0.17993745 -0.22183579 0.34868455 -0.37763453 -0.31691918 -0.23558429 -0.81919914
services -0.18932176 -0.57039917 0.076526724 -0.48145023 0.021509537 0.16505623 0.2807353 -0.43948543 0.2882108 -0.29801702 0.18915054 -0.70909953 0.07827078 0.19468576 -0.2026985 0.33715796 -0.4116617 -0.32791203 -0.23848498 -0.85099983
factset -0.2795305 -0.81994766 0.10344992 -0.7101171 0.0037546048 0.25945085 0.3673869 -0.6307209 0.4414717 -0.3983355 0.2670848 -1.020897 0.06473284 0.2775067 -0.3179497 0.5162533 -0.57508063 -0.44214398 -0.3281533 -1.2347832
primarily -0.20778722 -0.6544534 0.09799068 -0.5381303 0.02992953 0.18339767 0.28253186 -0.51019734 0.33255646 -0.31127313 0.23482014 -0.7791268 0.051717307 0.21060875 -0.24058168 0.40613887 -0.44412175 -0.32792658 -0.24443766 -0.9313344
nonbank -0.18593408 -0.5259582 0.07254332 -0.4859328 0.040610954 0.15557052 0.25033402 -0.4085061 0.29938632 -0.24423341 0.1950142 -0.65488917 0.06685958 0.16628328 -0.21720718 0.3229357 -0.38990164 -0.28471622 -0.23004927 -0.790487
become -0.22698505 -0.63045573 0.10156291 -0.5477083 0.017914161 0.20299517 0.296219 -0.47537002 0.3208466 -0.27919608 0.2059787 -0.7270137 0.088880025 0.21881984 -0.2586116 0.35787758 -0.45782223 -0.35838103 -0.25147137 -0.93245405
betas -0.17583962 -0.4866897 0.08903747 -0.39070824 0.006966544 0.13225508 0.20801173 -0.3558208 0.23773596 -0.23603511 0.14770555 -0.537865 0.07901592 0.16437234 -0.18204021 0.30651087 -0.31886864 -0.24107245 -0.1579554 -0.65641284
head -0.19747989 -0.5171346 0.096304104 -0.46885934 0.016133681 0.18769251 0.25691003 -0.43891805 0.26788828 -0.27661005 0.1683559 -0.6721895 0.050620925 0.19789611 -0.21295847 0.3205745 -0.3934661 -0.32088384 -0.19323935 -0.7738163
quarters -0.18580858 -0.54196936 0.091853715 -0.47339198 0.042047843 0.16936137 0.23802572 -0.45682025 0.30059662 -0.27540758 0.21654165 -0.6467515 0.043318357 0.16550806 -0.23062542 0.33226874 -0.4000977 -0.32435817 -0.18766527 -0.8209125
fee -0.12978427 -0.41069463 0.07992042 -0.36497122 0.035652045 0.12091857 0.20651895 -0.35853252 0.21447018 -0.21299532 0.1612899 -0.5207408 0.03958462 0.15097569 -0.1549351 0.28338543 -0.31068918 -0.23029394 -0.14527972 -0.6346947
type -0.1794112 -0.49768886 0.09750035 -0.4317638 -0.0049720285 0.15351017 0.2357987 -0.42366916 0.26038188 -0.23807 0.19155027 -0.63863015 0.04500717 0.1824056 -0.21900375 0.30123895 -0.34269664 -0.27102628 -0.21820569 -0.76564914
credits -0.21704502 -0.70497024 0.10044872 -0.59601617 0.020625226 0.24563059 0.34427965 -0.57828104 0.39522174 -0.3618676 0.27155867 -0.8419241 0.0666545 0.25870144 -0.28776285 0.43908796 -0.52416056 -0.39400294 -0.29410163 -1.0366546
matt -0.13952005 -0.35907015 0.059631817 -0.32203576 -0.012019436 0.099571235 0.16231206 -0.28974125 0.2188891 -0.17719653 0.14481091 -0.406179 0.040113766 0.11518657 -0.15516506 0.20600171 -0.24945359 -0.18432245 -0.112057656 -0.5245761
certain -0.20675246 -0.5976557 0.10261716 -0.51887804 0.012345581 0.19106662 0.3012752 -0.47355294 0.33769718 -0.30343783 0.22967848 -0.7708127 0.092294484 0.19049166 -0.22908205 0.3704044 -0.4248718 -0.35044506 -0.23571059 -0.8894072
course -0.14782341 -0.4524801 0.06157114 -0.36876732 0.005451731 0.1714259 0.18794397 -0.3662559 0.23783915 -0.2028785 0.16005413 -0.56094074 0.031664807 0.13023214 -0.15693535 0.29489353 -0.34952417 -0.27736273 -0.16517627 -0.7011857
largely -0.22567812 -0.6331613 0.11253177 -0.5659115 0.007858059 0.19025072 0.31907532 -0.4962733 0.35033074 -0.33468446 0.2525338 -0.76724064 0.080724224 0.22198169 -0.24511127 0.3974058 -0.46536702 -0.3374554 -0.26283514 -0.9802749
short -0.15534016 -0.5444576 0.08873969 -0.4341747 0.03540871 0.18785559 0.25063872 -0.41520527 0.2650361 -0.2760767 0.2078204 -0.6398334 0.06135115 0.16327234 -0.18716194 0.31798676 -0.34850362 -0.2754067 -0.20774917 -0.7643753
started -0.20812598 -0.5739935 0.06667774 -0.45998716 0.025799593 0.15779531 0.25617796 -0.4280611 0.3237824 -0.29321072 0.18925956 -0.69941115 0.071296446 0.1864713 -0.19865775 0.3339061 -0.4047762 -0.31981626 -0.2051836 -0.81353766
board -0.22210495 -0.6732435 0.11973066 -0.55358845 0.036173116 0.2274164 0.30185723 -0.51252794 0.34829193 -0.3269919 0.2250197 -0.8043234 0.06629006 0.20416065 -0.25622314 0.39770904 -0.49421015 -0.39634734 -0.26101068 -0.9699156
comes -0.16299501 -0.5394505 0.090114504 -0.45422837 0.013556431 0.1873805 0.25542742 -0.41291386 0.29284644 -0.24916464 0.18956465 -0.6630103 0.04497371 0.18907376 -0.23644263 0.36640075 -0.3974343 -0.3313055 -0.23141193 -0.8021948
since -0.17112301 -0.5894526 0.06464799 -0.49562842 -0.0039720414 0.21200076 0.24694745 -0.4452627 0.29711607 -0.28270468 0.20781875 -0.72741836 0.057243243 0.20383206 -0.22608924 0.36449414 -0.3922561 -0.31973556 -0.22281967 -0.8493301
prepared -0.18930861 -0.54772633 0.110606514 -0.46941936 0.03739772 0.17989384 0.27394307 -0.42682034 0.32879844 -0.26301104 0.22345354 -0.71568435 0.07498915 0.17034116 -0.23186216 0.3639305 -0.4241642 -0.3358089 -0.2391597 -0.816754
wed -0.14402005 -0.4562002 0.05704559 -0.39285958 0.0072031287 0.16267067 0.19078816 -0.3476256 0.25310007 -0.20382877 0.17177388 -0.519374 0.028295547 0.12879376 -0.16287947 0.26011017 -0.33065447 -0.24579245 -0.15052368 -0.67481697
key -0.17990525 -0.46528718 0.075030625 -0.37446234 0.0013280985 0.15444316 0.21259229 -0.35537055 0.2800803 -0.21723016 0.14656354 -0.53782195 0.075278476 0.147409 -0.19174391 0.30161726 -0.3200934 -0.24978672 -0.16848043 -0.70372343
footprint -0.23694983 -0.64022815 0.08734131 -0.5530992 0.043105405 0.20642982 0.307542 -0.51278746 0.36451557 -0.299621 0.20628372 -0.7837519 0.081986375 0.24000102 -0.26682726 0.39609733 -0.44508967 -0.33876905 -0.26570272 -0.967049
future -0.12706797 -0.45727336 0.058178797 -0.3468982 0.024883393 0.1209657 0.20779005 -0.33905932 0.21766022 -0.23199406 0.13752782 -0.537723 0.03725579 0.14987887 -0.16707766 0.2579059 -0.29391494 -0.23368186 -0.1896929 -0.6491618
faster -0.15769887 -0.40865242 0.07552168 -0.3856481 -0.007221333 0.12133643 0.22334187 -0.35890642 0.2610973 -0.23237514 0.13190916 -0.5346565 0.059782606 0.12236534 -0.16820739 0.24970318 -0.32809943 -0.24340537 -0.1472911 -0.6516095
moving -0.19153465 -0.58187926 0.07164119 -0.4991308 0.014506575 0.20944028 0.25626174 -0.42977288 0.28918755 -0.26872295 0.18124941 -0.67296517 0.07887856 0.19453692 -0.24804589 0.35317034 -0.38541448 -0.29109964 -0.19730347 -0.8523703
lets -0.15443477 -0.5042345 0.07634621 -0.4032978 0.02697836 0.14661092 0.24505404 -0.39386386 0.2984275 -0.23453373 0.19248578 -0.58210605 0.059423003 0.1558506 -0.19387507 0.3134943 -0.36082402 -0.2673949 -0.17267455 -0.7464984
fixed -0.16392514 -0.47414765 0.084377244 -0.4005909 0.005377549 0.14433251 0.20950544 -0.3433118 0.2536105 -0.23807645 0.14544037 -0.5754202 0.067298725 0.17668183 -0.19994736 0.28776738 -0.3505294 -0.2705965 -0.19815378 -0.6861752
losses -0.21203767 -0.68705267 0.10053951 -0.5754339 0.035105005 0.23918587 0.31834322 -0.50255615 0.34316343 -0.3032044 0.25246304 -0.7900203 0.070438504 0.24860115 -0.23882867 0.4286639 -0.4520052 -0.3818834 -0.25632986 -0.97325444
try -0.16481373 -0.5328375 0.07288469 -0.47480002 0.007287768 0.1775352 0.26674163 -0.45012465 0.31754258 -0.29285696 0.18576035 -0.664629 0.08066747 0.20082809 -0.21021089 0.31790772 -0.3904772 -0.3152628 -0.23142421 -0.831809
either -0.19468608 -0.57151526 0.06207406 -0.4579019 0.036706515 0.19442253 0.240461 -0.45695505 0.28566468 -0.29108065 0.18954712 -0.67095464 0.045182165 0.20758887 -0.20642374 0.33072147 -0.3865999 -0.3060816 -0.22106741 -0.8382856
sense -0.13249707 -0.41577443 0.041052505 -0.34066457 0.009525141 0.11065296 0.17451629 -0.34928858 0.24668576 -0.22104941 0.15021671 -0.5107848 0.040897626 0.14035401 -0.16014223 0.24058834 -0.30541086 -0.20662813 -0.1391261 -0.57755363
solid -0.10880068 -0.35089737 0.07932813 -0.29065832 0.019278662 0.115187295 0.18509623 -0.30261096 0.18305695 -0.14470088 0.13597454 -0.44326854 0.02848349 0.1145212 -0.12659287 0.1933152 -0.23718213 -0.17761053 -0.11830422 -0.52595574
though -0.2105559 -0.5354886 0.062742695 -0.4703241 0.008836259 0.19820295 0.27029157 -0.45619205 0.28585276 -0.2474073 0.18565696 -0.64086604 0.0630921 0.16004378 -0.23868166 0.34024397 -0.38971955 -0.322024 -0.19718406 -0.8251084
invest -0.16150735 -0.44498613 0.04722915 -0.35041502 -0.00723455 0.13729072 0.19061187 -0.36269912 0.23835368 -0.18449973 0.16137636 -0.5263971 0.031189525 0.14426075 -0.1561626 0.25086996 -0.30495027 -0.24561702 -0.1804737 -0.6406008
meet -0.20277102 -0.5270739 0.10833924 -0.42547232 -0.0014451055 0.17872135 0.22957957 -0.40595442 0.30120638 -0.27643248 0.19152635 -0.6505296 0.07044802 0.17468639 -0.20448546 0.31609902 -0.3845171 -0.27527508 -0.18018202 -0.76694655
looks -0.15966971 -0.41886085 0.04637561 -0.35850817 0.021498645 0.12170463 0.1794483 -0.31590313 0.25633118 -0.21798828 0.16703618 -0.5012313 0.03909086 0.15513876 -0.16642638 0.2638567 -0.29538384 -0.22376317 -0.15091236 -0.6028059
additional -0.15765524 -0.4658101 0.06283344 -0.37365058 0.027059285 0.14916746 0.22547282 -0.37482125 0.22574864 -0.23233613 0.16824023 -0.55152225 0.056246914 0.16992687 -0.16366094 0.301804 -0.33245945 -0.2702714 -0.17920364 -0.6835385
comments -0.17056796 -0.4526147 0.051320206 -0.410814 0.015746837 0.14666171 0.22340003 -0.386859 0.24366423 -0.23582703 0.17667265 -0.5605812 0.06995589 0.16839837 -0.19784401 0.25968653 -0.34326607 -0.24406733 -0.19667518 -0.68964726
ai -0.21804205 -0.5836626 0.089316435 -0.4944057 0.010208358 0.17362785 0.26911527 -0.46649584 0.32535088 -0.28673494 0.22956795 -0.69441235 0.07847175 0.17622222 -0.21268605 0.33139446 -0.3960302 -0.31728467 -0.20231737 -0.86771244
continues -0.15049337 -0.47322714 0.09475704 -0.4238638 -0.003418068 0.13390973 0.2323445 -0.40006888 0.25707972 -0.26277238 0.19769676 -0.5991185 0.055336222 0.17355295 -0.18786395 0.3141681 -0.32209578 -0.2928808 -0.19523807 -0.6939086
loss -0.19839157 -0.5697092 0.07100397 -0.48353273 0.039278638 0.18017125 0.2759078 -0.4695761 0.3075238 -0.2653485 0.19643284 -0.7063475 0.058509633 0.17722431 -0.2184621 0.3342022 -0.40962443 -0.30825064 -0.21817294 -0.81179595
earnings -0.15761057 -0.5137188 0.09536242 -0.42486545 0.015102627 0.14073724 0.20813477 -0.3961155 0.24808542 -0.2628238 0.19778213 -0.5880801 0.05781735 0.16159166 -0.1797461 0.29932335 -0.36014238 -0.28486794 -0.18577985 -0.70762706
provide -0.22622968 -0.6149093 0.08730978 -0.48409346 0.041066155 0.20643961 0.25996742 -0.4654011 0.33237472 -0.271504 0.19870004 -0.70242345 0.06992838 0.17629915 -0.21655771 0.35089925 -0.44333187 -0.33137873 -0.2127682 -0.86430687
current -0.15275998 -0.4378915 0.055646982 -0.38668805 -0.00028501617 0.120552815 0.18006627 -0.37083954 0.2605983 -0.20037358 0.13566604 -0.53073806 0.06531027 0.1723271 -0.1863867 0.26058832 -0.32159153 -0.23961669 -0.168429 -0.65735275
smaller -0.18604146 -0.5326964 0.06775742 -0.4592802 0.032249868 0.20068763 0.2427202 -0.43364266 0.31259042 -0.2618496 0.20096333 -0.6881822 0.051949088 0.20445861 -0.2307117 0.36890042 -0.40604562 -0.3164507 -0.20516683 -0.81397164
