2711 15
think -3.2402935 0.24844256 0.92945 -0.17645635 -0.62468916 -1.2672877 -0.5450377 1.4930978 0.5266322 0.33806235 -1.6283163 -0.63214666 1.5962627 0.6780832 1.6666441
us -3.333675 0.23842257 0.95363873 -0.18630528 -0.6483001 -1.303501 -0.51846594 1.5390428 0.54670626 0.42056242 -1.6053228 -0.6119975 1.6000943 0.6453122 1.6318004
good -2.7706614 0.022083716 0.70815504 -0.11660865 -0.37611845 -1.0262783 -0.46706808 1.2823603 0.34314197 0.20229939 -1.3100674 -0.44711336 1.4878021 0.48412743 1.2632936
going -3.049709 0.1771085 0.844373 -0.1773516 -0.59728503 -1.2343426 -0.48695973 1.463753 0.52717984 0.33318895 -1.5549603 -0.62328035 1.5007969 0.59110487 1.5583625
weve -3.5467427 0.21651405 1.0495974 -0.21259968 -0.7152562 -1.4232243 -0.5705656 1.6421525 0.5965145 0.36075088 -1.7807299 -0.66591364 1.6842545 0.7383575 1.7932601
growth -2.8137321 0.19205193 0.7405469 -0.16165636 -0.5171498 -1.0812875 -0.48919874 1.2444806 0.4204265 0.35619488 -1.3495916 -0.5112403 1.3558517 0.59678054 1.4298494
well -3.09593 0.21160929 0.84927046 -0.1533397 -0.61880714 -1.2125167 -0.46145427 1.4309896 0.5467934 0.3693753 -1.5392606 -0.5766401 1.5188562 0.6397521 1.5816154
year -2.9379306 0.1719277 0.8425154 -0.17320299 -0.56557125 -1.1752976 -0.444278 1.3341237 0.46180153 0.3229467 -1.4442788 -0.5513004 1.3823324 0.629374 1.5010973
thats -3.1987484 0.2604903 0.9099336 -0.17321275 -0.66531014 -1.2875053 -0.4979887 1.5108747 0.51655823 0.3708225 -1.6077629 -0.62170476 1.5428692 0.66734016 1.5961535
would -3.2824259 0.19644451 0.9255226 -0.15264887 -0.6642021 -1.2720757 -0.56787264 1.5618886 0.55988544 0.3161479 -1.5953186 -0.620631 1.57943 0.6535157 1.6674172
really -3.2815778 0.25357127 0.96911854 -0.18187955 -0.65041906 -1.2955459 -0.5518888 1.5488937 0.56793875 0.3322965 -1.62069 -0.6274295 1.6290215 0.6863148 1.6627196
see -3.0945003 0.20544247 0.87355924 -0.15160964 -0.5873363 -1.1965423 -0.48815444 1.4392265 0.5430639 0.34009287 -1.5449388 -0.53125226 1.4895611 0.64451325 1.5865391
get -3.1632261 0.24951668 0.8814263 -0.18546078 -0.6027976 -1.2474327 -0.52897966 1.5194509 0.5493204 0.38681477 -1.6006618 -0.56839645 1.5622399 0.63012373 1.592022
business -3.1605814 0.23065539 0.9083034 -0.20250154 -0.62980455 -1.235954 -0.53185743 1.5149724 0.5148013 0.36811304 -1.587013 -0.6272262 1.5331166 0.62940574 1.6528825
yeah -2.2221704 0.14306606 0.62822694 -0.14065702 -0.4376589 -0.88011974 -0.35303834 0.97873724 0.37290388 0.19768776 -1.106787 -0.4517318 1.1203891 0.41336066 1.1299732
time -3.0387306 0.23547451 0.88281125 -0.15610671 -0.6050418 -1.1874949 -0.47679427 1.4627573 0.51956093 0.33238727 -1.4942389 -0.56732154 1.4780046 0.62490934 1.5062852
capital -2.9255702 0.21258879 0.840741 -0.16566525 -0.556866 -1.1532414 -0.4945223 1.3957919 0.43742466 0.34304306 -1.479202 -0.59178376 1.4594197 0.58191997 1.4827801
quarter -2.9095845 0.20758702 0.78543746 -0.2058263 -0.5793356 -1.1391668 -0.4518781 1.3462033 0.44412145 0.3386474 -1.4715171 -0.49720043 1.325369 0.63762 1.4592581
continue -2.7691982 0.17010465 0.789855 -0.1392795 -0.5481899 -1.0634944 -0.46378294 1.2837176 0.4447263 0.35385928 -1.3937279 -0.5219601 1.3360115 0.53778225 1.4178847
little -2.8816795 0.18455864 0.72450244 -0.1842035 -0.508415 -1.1778622 -0.46188456 1.3265419 0.41096067 0.36552843 -1.4341288 -0.5558035 1.3708273 0.596396 1.4989979
one -2.9285147 0.1756609 0.8302707 -0.15296173 -0.54810405 -1.1895915 -0.48259178 1.340139 0.525111 0.33400682 -1.4691675 -0.5957286 1.4222832 0.5630267 1.447287
grow -2.790085 0.21897763 0.77237153 -0.16202694 -0.49748784 -1.0601336 -0.45102262 1.362776 0.44275224 0.3615211 -1.332803 -0.47414592 1.3270668 0.59954655 1.4402919
loan -2.882763 0.14950128 0.82651395 -0.12764052 -0.5183485 -1.1427416 -0.47922513 1.2940726 0.4695273 0.36531633 -1.3721246 -0.4554918 1.4024814 0.6182435 1.453922
right -2.7102606 0.21194255 0.8024614 -0.1301986 -0.50609463 -1.0464764 -0.4376916 1.297931 0.43064147 0.30361396 -1.3803337 -0.5418978 1.2869971 0.5705368 1.376647
bit -2.7271533 0.1766412 0.7754852 -0.10850383 -0.49084547 -1.1388727 -0.47809866 1.2856357 0.39727083 0.41861346 -1.353864 -0.46769068 1.3504661 0.56544566 1.3636515
dont -2.9812014 0.24302703 0.8267759 -0.14805841 -0.5891539 -1.2082934 -0.47577804 1.4150304 0.47027996 0.30389625 -1.4651829 -0.56102914 1.483428 0.6424253 1.545995
look -2.7865686 0.1814131 0.79047054 -0.18579444 -0.54182446 -1.1209862 -0.48739302 1.3293102 0.47865433 0.3054547 -1.3975544 -0.5363568 1.380909 0.59013 1.4154944
youre -3.175104 0.22810444 0.9159004 -0.17583925 -0.5817196 -1.2388942 -0.5373765 1.5214188 0.54711825 0.33380327 -1.5492216 -0.5927974 1.5389171 0.6455499 1.601659
lot -3.1660056 0.24345016 0.90191174 -0.1507021 -0.60824656 -1.2745568 -0.5054424 1.4561552 0.52733445 0.3229492 -1.5408939 -0.6159694 1.5550761 0.60242075 1.6301731
deposit -3.0793364 0.2319569 0.89859027 -0.17449415 -0.5895541 -1.222616 -0.55441564 1.3939549 0.51110995 0.31429204 -1.4613837 -0.556908 1.4884164 0.65540546 1.5439094
like -2.993191 0.1957433 0.8751999 -0.13896948 -0.5918012 -1.125469 -0.48026967 1.4231608 0.53494763 0.2980171 -1.5142845 -0.5701226 1.4623657 0.55659837 1.4701976
morning -1.5328752 -0.02272957 0.33505917 -0.06605197 -0.2976373 -0.67098016 -0.20694546 0.60732764 0.10942901 0.03598469 -0.82012767 -0.29373947 0.9271974 0.2621658 0.7289856
rate -3.0414994 0.26438636 0.92062277 -0.13706979 -0.55788666 -1.2282577 -0.44202852 1.3815908 0.52462673 0.28095496 -1.4942961 -0.54180324 1.4237336 0.61417174 1.5283185
consumer -2.8201494 0.15135601 0.84583306 -0.176063 -0.52327144 -1.1284664 -0.456612 1.320565 0.5134798 0.283509 -1.3650515 -0.46912834 1.3549749 0.5275874 1.3626683
want -2.7468617 0.20877531 0.78102803 -0.12345781 -0.49343425 -1.0565845 -0.44321918 1.2956233 0.4365727 0.33476093 -1.362847 -0.47376207 1.3282646 0.58278817 1.3928611
markets -2.7944713 0.18264902 0.78772646 -0.17793247 -0.54236007 -1.1065031 -0.44760948 1.3172562 0.5032411 0.30634362 -1.4038397 -0.5539647 1.341314 0.5673995 1.4651049
question -2.6442714 0.17716093 0.7707116 -0.1777633 -0.5107855 -1.0615983 -0.43937063 1.222953 0.39050004 0.28463775 -1.341377 -0.4900699 1.2960025 0.49473366 1.3335376
things -2.8554451 0.20607615 0.7984427 -0.1792576 -0.579335 -1.0887778 -0.4781343 1.3264652 0.5002397 0.30028915 -1.4314622 -0.5834917 1.3714868 0.5478248 1.4225718
kind -2.8667204 0.21301943 0.79997563 -0.17259777 -0.52380085 -1.1234848 -0.465649 1.3897064 0.492917 0.31127766 -1.4699037 -0.54796386 1.4223149 0.59175843 1.4981344
make -2.8601694 0.24739814 0.8556957 -0.1124357 -0.5473144 -1.1166328 -0.40521902 1.3368571 0.48487422 0.28971437 -1.4476689 -0.55190367 1.3782254 0.54384226 1.4684931
still -2.8759472 0.2081559 0.84460825 -0.16070975 -0.55519426 -1.1362991 -0.45564553 1.3638902 0.51166475 0.33045825 -1.383017 -0.5698581 1.3774937 0.56919736 1.4676903
customers -3.0951958 0.20564322 0.90752655 -0.16383839 -0.61881834 -1.2113314 -0.47451252 1.4573171 0.5545441 0.3449835 -1.5405709 -0.6210035 1.5531918 0.64791536 1.5713389
could -2.7964418 0.1839229 0.76462317 -0.15229833 -0.5470117 -1.0989391 -0.47511604 1.3395542 0.4798998 0.35941103 -1.4145902 -0.54311365 1.3791084 0.59741056 1.4524673
basis -3.1207087 0.23053576 0.9195969 -0.13130435 -0.7435998 -1.1564732 -0.5186469 1.3660755 0.45479476 0.39367548 -1.6066375 -0.4872772 1.330463 0.58502525 1.4560122
got -2.595173 0.19945218 0.75748754 -0.18089391 -0.54172677 -1.0617032 -0.40587977 1.1849686 0.46296215 0.2635104 -1.2788775 -0.49059594 1.3110542 0.5242035 1.3316039
back -2.9714503 0.16334777 0.87124 -0.16528153 -0.57619375 -1.1245124 -0.48257232 1.3744389 0.52795845 0.31309405 -1.4884744 -0.54013604 1.4524294 0.5579567 1.4698329
much -2.6106584 0.21811172 0.75264394 -0.13091573 -0.5447093 -1.0415647 -0.43971965 1.2667775 0.43352005 0.27617374 -1.2794782 -0.5354896 1.30385 0.5669727 1.3646888
go -2.7968893 0.20489056 0.81966525 -0.15255864 -0.5321201 -1.1058217 -0.4452785 1.3052561 0.48964974 0.26219416 -1.3654954 -0.52479666 1.3499869 0.5866393 1.4174019
side -2.3354552 0.14037062 0.67970407 -0.08982573 -0.41438225 -0.9439969 -0.3939968 1.0991693 0.34039766 0.22884321 -1.1607805 -0.41789907 1.151218 0.4849503 1.1720947
years -2.7108796 0.23681162 0.75389117 -0.1878506 -0.5459945 -1.0345849 -0.46072578 1.2659823 0.4538102 0.27288425 -1.3828807 -0.5179792 1.2782447 0.52369267 1.3882564
okay -2.0798683 0.16979553 0.61403114 -0.1489839 -0.41851914 -0.90132207 -0.34717685 0.9712222 0.34219497 0.20088656 -1.0531843 -0.44555715 1.0308665 0.41264054 1.0732124
maybe -2.7512517 0.17508416 0.7493494 -0.1196448 -0.495803 -1.0968642 -0.42140985 1.2739258 0.41316307 0.3373509 -1.3667586 -0.49872273 1.3627584 0.53015184 1.369112
point -2.656402 0.16418229 0.7683747 -0.13091302 -0.56788665 -1.0835344 -0.4190738 1.2388153 0.4732462 0.32862714 -1.3379232 -0.4906483 1.3003198 0.5592168 1.34042
last -2.6745133 0.16589724 0.8123436 -0.15481648 -0.55501115 -1.0140707 -0.4288941 1.2505825 0.43878308 0.3127133 -1.354421 -0.5527712 1.3176777 0.55500305 1.3558888
thank -1.5650847 0.082971156 0.43731466 -0.12072028 -0.27431095 -0.683976 -0.2289387 0.67339766 0.19898275 0.08652846 -0.77233034 -0.31541353 0.8059501 0.29065365 0.7157809
first -2.4314823 0.1447163 0.6786936 -0.08907273 -0.4864678 -0.9289225 -0.4311172 1.1100184 0.39671028 0.25025457 -1.2094563 -0.4882627 1.1715853 0.54148614 1.20123
two -2.7290678 0.18353581 0.7590228 -0.1641816 -0.4934647 -1.0204433 -0.41633043 1.2580305 0.48659486 0.28994882 -1.3552322 -0.49152142 1.3448212 0.57195663 1.3564277
john -2.529256 0.119755715 0.727225 -0.12598068 -0.48736617 -1.0219101 -0.40463883 1.2025009 0.38849115 0.21776018 -1.236204 -0.4638828 1.3019258 0.4598229 1.281382
portfolio -2.955598 0.18605122 0.89549136 -0.14420936 -0.5635805 -1.21131 -0.48608926 1.4247137 0.46292776 0.35201555 -1.4558797 -0.5292769 1.4232585 0.57550085 1.5148282
next -2.7543416 0.22879447 0.76962763 -0.14306206 -0.5514295 -1.0176481 -0.42616713 1.2485836 0.5039281 0.2867174 -1.3362935 -0.5039097 1.30243 0.537128 1.3855253
also -3.4991052 0.24675041 1.0085784 -0.20757197 -0.6594382 -1.4079318 -0.5668885 1.6421422 0.6015238 0.37180448 -1.6824011 -0.65149724 1.6748978 0.73268497 1.746739
credit -3.081476 0.1688713 0.92588925 -0.19162557 -0.6233686 -1.2000903 -0.47168374 1.5068543 0.50142586 0.35134637 -1.5398202 -0.59435356 1.5426362 0.58793294 1.5357445
loans -2.8341432 0.19846888 0.8359139 -0.17152202 -0.5250247 -1.1337804 -0.4854289 1.3396896 0.4263469 0.29744756 -1.3575327 -0.48498592 1.3238121 0.5826928 1.3929948
need -2.6421218 0.20527196 0.7772136 -0.17114379 -0.49304283 -1.0394026 -0.3908849 1.2591895 0.44281638 0.28744707 -1.3230906 -0.51198214 1.2766477 0.5580514 1.3534656
terms -2.971316 0.18379694 0.8822016 -0.12721497 -0.5492156 -1.2056826 -0.50144476 1.4157451 0.49503735 0.35343876 -1.4473892 -0.53650594 1.4304833 0.5805664 1.454674
know -2.7170975 0.17418595 0.8104341 -0.10994672 -0.5234255 -1.0710484 -0.40171775 1.2892286 0.43216053 0.25960687 -1.3776629 -0.53943986 1.3072996 0.532038 1.3988777
rates -2.7849457 0.16684158 0.7890989 -0.1383628 -0.55114466 -1.1142032 -0.42447394 1.2548699 0.49182242 0.29480198 -1.3427896 -0.5051181 1.3107682 0.5272134 1.3607794
revenue -2.5142283 0.19157095 0.73744154 -0.15433256 -0.42559594 -0.95929193 -0.4014626 1.1389118 0.37763536 0.29301935 -1.2288811 -0.43247566 1.2297846 0.50191873 1.2763866
said -2.4089925 0.18184076 0.7111543 -0.12526253 -0.4937815 -0.9569014 -0.4022128 1.09751 0.40833822 0.24624334 -1.1748475 -0.47262463 1.1701212 0.5084404 1.2438458
theres -2.7343533 0.17951913 0.79169756 -0.12472996 -0.5259139 -1.0732498 -0.4439532 1.3214394 0.45381382 0.297445 -1.3692571 -0.5376668 1.3158447 0.5312713 1.4079034
balance -2.842137 0.26514003 0.8602277 -0.15263765 -0.50550485 -1.071357 -0.38871422 1.2984622 0.343109 0.284274 -1.3231611 -0.42311677 1.378859 0.55919397 1.2981033
risk -2.8475325 0.19779891 0.8844409 -0.12834905 -0.59505755 -1.1160667 -0.48101243 1.4003761 0.46715534 0.33449525 -1.4113636 -0.5488999 1.3881282 0.5764446 1.4078141
technology -2.9339488 0.19744149 0.8640077 -0.13415252 -0.5803762 -1.1323658 -0.43255907 1.3531656 0.48039907 0.2818669 -1.4510568 -0.5666639 1.4162134 0.5654974 1.5082093
given -2.7910218 0.17756085 0.80528706 -0.13922313 -0.51758623 -1.1121217 -0.4904766 1.280525 0.43065777 0.3151 -1.3460202 -0.5329763 1.3494284 0.56849205 1.4263663
customer -3.039924 0.20874016 0.92515993 -0.21051183 -0.6274266 -1.1874305 -0.4820347 1.414673 0.53283495 0.3114534 -1.4829817 -0.5534198 1.5144938 0.6410168 1.5668064
talk -2.6270773 0.20492095 0.71990824 -0.13677593 -0.49499458 -1.0535946 -0.41908348 1.2657104 0.43919173 0.3296263 -1.3040222 -0.4629094 1.2923402 0.53079015 1.3352128
deposits -2.8331416 0.1487802 0.8315068 -0.18063453 -0.55626076 -1.1292105 -0.49259478 1.3365531 0.4834881 0.24525304 -1.4049189 -0.49222025 1.341206 0.5946095 1.446355
give -2.2721722 0.17977858 0.64798933 -0.084353775 -0.4015224 -0.8766403 -0.39793348 1.0448447 0.34158024 0.29600695 -1.1436397 -0.4196541 1.0924318 0.45735997 1.1375709
way -2.6653621 0.21540314 0.75506735 -0.14066806 -0.5175473 -1.0367671 -0.42771867 1.2750541 0.47476143 0.28540128 -1.3462425 -0.5060593 1.2872452 0.54533076 1.3861059
today -2.6290696 0.2145673 0.73708344 -0.11403146 -0.5162198 -1.0239944 -0.44934145 1.268403 0.41711593 0.27222216 -1.3460685 -0.481302 1.275349 0.5071867 1.3603066
better -2.653579 0.18188252 0.7442178 -0.1424781 -0.49708137 -1.0957458 -0.46465778 1.2853109 0.4205786 0.2770149 -1.3169951 -0.50084555 1.2976464 0.54816777 1.3672909
points -2.0739162 0.19567579 0.57000035 -0.007748326 -0.50133604 -0.86863935 -0.41826192 0.9949341 0.28308406 0.25824648 -0.9546261 -0.25243953 0.82783145 0.4505476 0.9552115
environment -2.2273011 0.18609385 0.6621721 -0.096358046 -0.3779477 -0.9018719 -0.39602497 1.0331241 0.3771807 0.21607858 -1.0890738 -0.3689049 1.0220361 0.4692587 1.1304312
change -2.8617783 0.18235819 0.8178773 -0.15054147 -0.5461338 -1.0915854 -0.4234378 1.3300654 0.48746395 0.31270722 -1.4246602 -0.50832665 1.3805159 0.5469301 1.4228088
mentioned -2.5350037 0.12246731 0.70102674 -0.10419978 -0.45325106 -0.96503496 -0.4401385 1.1420941 0.4257737 0.2341838 -1.2441118 -0.44340643 1.201966 0.4883404 1.2219002
growing -2.5871477 0.16526467 0.7148341 -0.11282943 -0.46087804 -1.0034522 -0.41127124 1.1930429 0.48328438 0.30359575 -1.2652826 -0.46259913 1.2061445 0.51720303 1.3025353
david -2.3824537 0.16056842 0.68409115 -0.09920568 -0.43405846 -0.9662747 -0.38889036 1.0640508 0.38390404 0.19318923 -1.1364763 -0.4729785 1.1733689 0.48212007 1.1931392
number -2.5322645 0.13985313 0.7136426 -0.13165185 -0.45737222 -0.9766101 -0.38504195 1.1844796 0.40140805 0.26692754 -1.2939736 -0.51204455 1.2524235 0.53006935 1.2515619
market -2.7408907 0.18699835 0.77459955 -0.14452995 -0.5349824 -1.0854185 -0.42013118 1.3044076 0.5016107 0.2706785 -1.3735598 -0.50522757 1.3443604 0.55139077 1.3962204
thanks -1.7223257 0.070889495 0.4735807 -0.076000385 -0.2668864 -0.7003487 -0.27727315 0.7767376 0.29022226 0.15317014 -0.85750353 -0.33437794 0.8727441 0.3354662 0.802077
day -2.6253345 0.16117516 0.80330265 -0.17270052 -0.47156286 -1.0010921 -0.38808993 1.260434 0.4695027 0.25607866 -1.3353696 -0.5154886 1.3128908 0.49961755 1.274836
bank -2.9488075 0.20464201 0.8592821 -0.16629745 -0.6060249 -1.1586865 -0.4935643 1.3674185 0.51013917 0.3269673 -1.4585528 -0.5900186 1.4300815 0.56789607 1.5405322
say -2.3450022 0.1250303 0.6701536 -0.13333483 -0.43181 -0.8940257 -0.3460914 1.0429319 0.3933644 0.26124293 -1.1884278 -0.4342853 1.1502848 0.4801745 1.1577152
pretty -2.4875767 0.1265857 0.7023799 -0.12333284 -0.49070504 -1.0223365 -0.3869974 1.1265656 0.37431327 0.21358003 -1.2589827 -0.4614512 1.2071995 0.4698241 1.2565782
real -2.6245883 0.1327409 0.790701 -0.16424376 -0.5682783 -0.9820617 -0.42638466 1.2295109 0.39649045 0.22634915 -1.3088039 -0.4179548 1.212996 0.49678615 1.3221656
million -2.2559783 0.13041182 0.6227785 -0.15300128 -0.44400004 -0.9073843 -0.3251543 1.0719917 0.3271144 0.2672792 -1.1015687 -0.43901694 1.0558276 0.48352087 1.1184965
part -2.5083268 0.1842617 0.694985 -0.1432745 -0.51732093 -1.0065631 -0.43296552 1.1660166 0.4062528 0.2676251 -1.2526993 -0.5050177 1.209526 0.5121229 1.2412845
expect -2.3002827 0.14164108 0.6662352 -0.14561999 -0.41185206 -0.91039675 -0.3913325 1.0771657 0.37073913 0.29187045 -1.1573416 -0.43442842 1.0838265 0.4395745 1.1445535
help -2.4309855 0.14010507 0.66232294 -0.10590021 -0.42381445 -0.9912364 -0.3985883 1.1755784 0.40142357 0.26739633 -1.2498225 -0.4298459 1.205407 0.48929092 1.2725956
guys -2.1166706 0.062062096 0.58579785 -0.112860724 -0.34369424 -0.8336657 -0.2947472 0.9853168 0.3300641 0.1602086 -1.0561253 -0.37972465 1.045361 0.37604794 1.0503298
believe -2.6398642 0.18280761 0.74569374 -0.112020366 -0.48526832 -1.0461287 -0.42174447 1.238529 0.42408288 0.2722239 -1.2879906 -0.49084476 1.2507554 0.5135954 1.3293465
opportunities -2.326533 0.12555757 0.6833152 -0.11733817 -0.4835079 -0.92355067 -0.36813006 1.0964484 0.38383427 0.30526224 -1.1231334 -0.43344033 1.0990806 0.4381593 1.2025561
take -2.6109579 0.15453058 0.77665186 -0.16042805 -0.53340024 -1.0170139 -0.40427932 1.1820732 0.46407545 0.29088372 -1.2657026 -0.4938338 1.2717698 0.48084664 1.2997063
put -2.4466019 0.1444882 0.6686931 -0.14838436 -0.49184632 -0.9831842 -0.40989164 1.1815383 0.40607885 0.25299084 -1.1921558 -0.48608097 1.1823587 0.48781133 1.2505705
im -2.4274342 0.1391304 0.70764536 -0.09907988 -0.4606781 -0.9782206 -0.362656 1.187396 0.44139475 0.26469925 -1.2009116 -0.4900805 1.1976737 0.51281995 1.2598171
sure -2.0874166 0.11758229 0.62165445 -0.09313851 -0.38833654 -0.79370195 -0.31878993 0.9776079 0.3497281 0.20069033 -1.003142 -0.40883076 1.022749 0.43403077 1.0760418
end -2.1731894 0.177205 0.618089 -0.09032391 -0.39848164 -0.82211536 -0.37439105 1.0059879 0.3765987 0.21878764 -1.0691856 -0.4228563 1.0741041 0.4226802 1.0680877
margin -2.3524148 0.16388704 0.6488772 -0.12449091 -0.40247267 -0.9504206 -0.36170813 1.0814129 0.3279949 0.24931929 -1.1597517 -0.43123305 1.0574992 0.48197407 1.1205728
looking -2.332394 0.13465825 0.68896025 -0.09250765 -0.44602868 -0.8943112 -0.34600973 1.1056318 0.40256104 0.25825784 -1.149145 -0.44746295 1.1129829 0.42930448 1.1687851
sheet -2.086279 0.12289214 0.71016926 -0.04048292 -0.4673051 -0.81592274 -0.3276029 0.9886671 0.27400514 0.2969393 -1.0128 -0.28016612 1.0964285 0.3720651 1.0293037
guess -2.3966157 0.14784078 0.66774374 -0.1073733 -0.44245377 -0.92138034 -0.38600662 1.1037393 0.41977173 0.25605235 -1.1668115 -0.43988928 1.1556889 0.43962702 1.2085913
great -1.964617 0.110297 0.5937785 -0.14615412 -0.4091509 -0.7911944 -0.28115758 0.9011893 0.2935055 0.1869077 -1.0051236 -0.43461496 0.97014207 0.42240816 1.0088465
couple -2.1520193 0.17502812 0.61235064 -0.1492763 -0.4413827 -0.83868957 -0.31282088 1.0119567 0.3692663 0.23220792 -1.0703866 -0.37544465 1.0601126 0.43914834 1.0252738
investments -1.9958603 0.12477515 0.58119196 -0.13026203 -0.3517034 -0.8094038 -0.3455159 0.9458128 0.34846032 0.2583535 -0.9554024 -0.35143667 1.023422 0.40470716 1.0727079
ph -2.4885652 0.19225475 0.74381024 -0.15743499 -0.48540828 -1.0077009 -0.3862331 1.1452427 0.40913397 0.27732655 -1.2050258 -0.49995723 1.1995708 0.5299241 1.2756654
book -2.3894408 0.18396254 0.67261827 -0.12025678 -0.44020903 -0.92979366 -0.44040725 1.129065 0.37551692 0.24251603 -1.1990235 -0.43077213 1.1802278 0.46676034 1.2108583
obviously -2.1969602 0.16409595 0.637009 -0.13450934 -0.39282626 -0.85144097 -0.38222888 1.0695881 0.35298675 0.23774813 -1.1172794 -0.40012097 1.0432291 0.447153 1.1457335
commercial -2.1208563 0.13617633 0.62821794 -0.10441487 -0.44132343 -0.8490316 -0.38592094 0.9657864 0.32185122 0.20480008 -1.0182498 -0.3600204 1.0461112 0.42173237 1.0531505
range -2.098359 0.12257376 0.5843897 -0.11137472 -0.3824383 -0.8538568 -0.30918372 1.0037079 0.32534313 0.21734895 -1.0603839 -0.38928142 0.9593663 0.43093014 1.0151441
talked -2.0468516 0.1125954 0.58787775 -0.10236426 -0.41569632 -0.7836119 -0.33303124 0.97198004 0.3632714 0.19368011 -1.0225304 -0.36801875 0.99789256 0.3972549 1.0390561
come -2.1861472 0.16370517 0.6511591 -0.10434063 -0.4015259 -0.8380074 -0.32735834 1.049396 0.37451604 0.25062507 -1.0464382 -0.43290877 1.0168134 0.46589997 1.0606396
youve -2.3723783 0.1812832 0.6870851 -0.11027025 -0.45486265 -0.93928754 -0.391297 1.1112816 0.36478987 0.24872454 -1.1850673 -0.46895367 1.1656812 0.45422226 1.185104
opportunity -2.1560147 0.118705496 0.65451694 -0.110665716 -0.42767236 -0.87052566 -0.37449327 0.9925535 0.35349524 0.2418289 -1.0427247 -0.38268906 1.0841432 0.40704352 1.134052
whats -2.308605 0.16835894 0.6618199 -0.08467156 -0.42931452 -0.9146891 -0.3807732 1.0383252 0.35927907 0.28049207 -1.1274215 -0.45801723 1.1238759 0.44546932 1.1351368
three -2.0614033 0.18862236 0.6284736 -0.1524239 -0.41300592 -0.8201418 -0.30355138 0.95167375 0.38318142 0.21891576 -1.0283688 -0.4161911 1.0161891 0.42582062 0.9813675
banks -2.3854024 0.1299874 0.71267164 -0.11392764 -0.43222004 -0.9318857 -0.37675968 1.1184664 0.3992998 0.24082018 -1.1628362 -0.43876112 1.1714516 0.47022173 1.1623484
add -1.674205 0.1130531 0.44663703 -0.10177402 -0.3485243 -0.6378507 -0.27086604 0.79020035 0.24725859 0.16219704 -0.8407532 -0.33269492 0.79957855 0.30304968 0.8533124
impact -2.4542646 0.17324378 0.7232483 -0.11979736 -0.46266043 -0.94838727 -0.37966478 1.1363908 0.43171993 0.2847041 -1.2529908 -0.43305987 1.2150844 0.47812507 1.2681404
forward -1.7367404 0.15608007 0.48977083 -0.12020492 -0.30691436 -0.7122108 -0.28104666 0.783168 0.3180402 0.20776811 -0.88126105 -0.3199797 0.8360587 0.34978917 0.8466182
billion -2.1016068 0.13237676 0.60302204 -0.10613493 -0.36143476 -0.79018533 -0.38011768 0.94918704 0.33033544 0.2318659 -1.0406373 -0.35785723 0.9915858 0.43689838 1.041476
economy -2.2624173 0.1616083 0.65880936 -0.14885043 -0.40879962 -0.9226664 -0.37891552 1.0334337 0.36446252 0.2621111 -1.1320558 -0.39882258 1.0650952 0.43386352 1.1377039
feel -1.8161167 0.05571271 0.4927186 -0.067997836 -0.37541333 -0.7431527 -0.25159982 0.8308916 0.24328059 0.13636911 -0.89225805 -0.3450394 0.9522661 0.34535435 0.9115298
banking -2.235556 0.13016267 0.67950916 -0.09991631 -0.477627 -0.853284 -0.32814136 1.0846156 0.34322327 0.23673767 -1.0866808 -0.43596336 1.0880431 0.39975715 1.1438847
mortgage -2.0191486 0.121683314 0.5749534 -0.097219355 -0.41721755 -0.8013425 -0.34200916 0.9084124 0.32457837 0.21128336 -1.0048817 -0.4032608 1.0158926 0.40689173 1.0400455
might -2.3368113 0.15998302 0.70401615 -0.112621225 -0.4311918 -0.9194155 -0.38516423 1.1210253 0.36670092 0.2598408 -1.1885568 -0.4664244 1.1158476 0.44283867 1.1710187
second -1.9142499 0.11986963 0.58176243 -0.0805177 -0.36749697 -0.7293194 -0.3243629 0.92425126 0.34157366 0.19215539 -0.98518884 -0.37855768 0.9148566 0.41721937 0.99131227
return -2.0228438 0.12530676 0.5817808 -0.08864546 -0.39917228 -0.75966525 -0.33855757 0.9688252 0.3171583 0.2544922 -0.97210336 -0.34644166 0.995392 0.37136203 1.0158201
important -1.8837308 0.13697596 0.5544295 -0.082177766 -0.33496624 -0.76360303 -0.28867117 0.8758222 0.30416134 0.20249143 -0.92184037 -0.3330457 0.94440585 0.36496693 0.98789704
use -2.20046 0.16355002 0.6449782 -0.08972244 -0.4198111 -0.8853869 -0.33304593 0.985995 0.3784489 0.2649392 -1.0447563 -0.39048865 1.0668283 0.43396163 1.0946558
coming -2.0856915 0.11892271 0.57073736 -0.13457456 -0.42432368 -0.8433637 -0.3661077 0.9613926 0.36394048 0.20749435 -1.0520827 -0.353076 0.9642953 0.39120817 1.0154818
efficiency -1.9948632 0.16486245 0.54128087 -0.14292033 -0.35724363 -0.761168 -0.3516072 0.95753765 0.30059475 0.19863518 -0.9869123 -0.42006302 0.9547439 0.4440224 1.034108
actually -2.3088896 0.1792887 0.6671924 -0.15340254 -0.41113457 -0.90433997 -0.34877622 1.0712876 0.4156756 0.2778802 -1.1662462 -0.4025977 1.1106325 0.46139747 1.150547
even -2.270065 0.13302858 0.69863486 -0.1021873 -0.41843054 -0.9445725 -0.33547473 1.0801342 0.39094663 0.21481203 -1.1528635 -0.41928443 1.0795547 0.44282848 1.1870991
interest -1.8932415 0.18688248 0.50420153 -0.098291 -0.31013802 -0.7235609 -0.3044619 0.83762336 0.3002646 0.23592086 -0.90504354 -0.31345528 0.8431523 0.37233153 0.8790557
regions -2.2450674 0.14152715 0.6353905 -0.11643703 -0.41943896 -0.8801187 -0.3358716 1.0443823 0.40660995 0.251201 -1.1350013 -0.46690848 1.088099 0.42155275 1.1724758
different -2.1758978 0.12894225 0.6474246 -0.13444877 -0.41362643 -0.8652971 -0.38695356 1.0743834 0.3497371 0.24213997 -1.0968896 -0.4010052 1.046043 0.41231444 1.1505016
businesses -2.2899656 0.1369654 0.6592593 -0.13404611 -0.41735315 -0.8728113 -0.34835255 1.0861043 0.41169253 0.21447326 -1.1235901 -0.45255953 1.1134354 0.455724 1.138626
start -1.7873273 0.13635527 0.5158001 -0.13420443 -0.33749938 -0.69180965 -0.28092623 0.7807499 0.30746198 0.17643377 -0.88569486 -0.3166985 0.8887844 0.3700279 0.90986574
low -1.8960764 0.13995194 0.5463318 -0.12109745 -0.37364057 -0.7626087 -0.3279924 0.9056953 0.3477064 0.16897185 -0.9464767 -0.33773303 0.9131998 0.41216603 0.9631978
seeing -1.9897041 0.1481825 0.5971031 -0.096148975 -0.35018754 -0.8267483 -0.35632482 0.92480916 0.31419072 0.19761442 -0.9820134 -0.35110572 0.9831396 0.37663054 1.0134007
theyre -2.2187994 0.13990964 0.6509912 -0.109198645 -0.46378422 -0.92118925 -0.3447378 1.0570278 0.34564778 0.20535307 -1.1101094 -0.433905 1.0707036 0.44438547 1.1392969
level -2.0254292 0.1076463 0.60984737 -0.11273089 -0.41504213 -0.80035174 -0.3514058 0.93440044 0.33449113 0.24445175 -0.97113824 -0.38844353 0.95754206 0.3726474 1.0200729
higher -2.0917249 0.15764278 0.5801111 -0.13650617 -0.3664096 -0.824196 -0.37451932 1.0135602 0.38567394 0.22690104 -1.0405213 -0.4011236 0.98481977 0.39918542 1.0623393
leverage -2.3094518 0.13668825 0.66134924 -0.10890149 -0.44702232 -0.8956629 -0.35404688 1.0678645 0.39116773 0.22666611 -1.1038414 -0.45718923 1.1375717 0.4682547 1.1864392
lending -2.2132528 0.12245259 0.6853492 -0.11173243 -0.47079235 -0.9072068 -0.3664358 1.0847051 0.3707713 0.20276983 -1.1290652 -0.43349105 1.0867785 0.41637614 1.1097602
done -1.6674627 0.13330449 0.51165026 -0.081076086 -0.31761557 -0.6978137 -0.25919774 0.7960611 0.24905933 0.17574689 -0.84647506 -0.34872398 0.85499394 0.34615144 0.8809629
peers -1.9143982 0.11974298 0.53440076 -0.11230118 -0.34847212 -0.7524986 -0.30390167 0.85760945 0.3263184 0.24222684 -0.9539947 -0.3244888 0.87713045 0.38418752 0.9424394
process -2.0715551 0.16428354 0.61248994 -0.10377943 -0.37456352 -0.8370688 -0.31345627 0.9513308 0.3688972 0.18638104 -0.9960188 -0.4296728 1.0252273 0.42552987 1.0855451
within -2.1580286 0.17113417 0.64479464 -0.12025395 -0.40514237 -0.8819438 -0.32434252 1.0569053 0.32762444 0.26091138 -1.1112952 -0.39499238 1.0238245 0.40131417 1.1091712
simplify -1.9167995 0.10058659 0.5268189 -0.08492374 -0.3652031 -0.75520927 -0.2978981 0.8987052 0.311933 0.21320178 -0.9573567 -0.37863386 0.9301523 0.41085 0.9281839
ratio -1.6279773 0.079312526 0.45713764 -0.05200737 -0.32291937 -0.6851491 -0.26229775 0.7506025 0.25159475 0.20252885 -0.8351085 -0.3176861 0.8314341 0.31831715 0.8481158
ill -1.5386318 0.07593994 0.4134096 -0.10912043 -0.28685227 -0.64336944 -0.287554 0.698649 0.2439294 0.1363956 -0.73776406 -0.29334712 0.81098235 0.28493002 0.7991661
something -1.9399655 0.105001174 0.5307392 -0.102955654 -0.4059847 -0.80489874 -0.35420552 0.909378 0.32496685 0.22758055 -0.9704779 -0.38110366 0.93372834 0.4122962 0.9983465
around -2.024296 0.12678748 0.56801414 -0.08399687 -0.41428265 -0.8316925 -0.34109697 0.96884936 0.36522907 0.20720527 -0.98560494 -0.3696202 0.9920599 0.3795136 1.0172164
cost -1.9598174 0.14162605 0.537913 -0.09951389 -0.4041415 -0.80585766 -0.34612846 0.9147699 0.33436477 0.23357607 -0.9350148 -0.31899968 0.9041913 0.36191672 0.9601277
increase -2.1732655 0.14743012 0.62178487 -0.083065614 -0.41967258 -0.85659176 -0.3139347 1.0398841 0.39130372 0.23346663 -1.0307217 -0.4060112 1.0447125 0.42581418 1.1058007
trying -2.0039454 0.17137696 0.6064223 -0.10530549 -0.41278228 -0.8390599 -0.34980923 0.956803 0.32466793 0.18671584 -1.0025322 -0.40745658 0.9765008 0.3938881 1.0582732
people -1.9783516 0.1452613 0.535933 -0.085256465 -0.36517766 -0.7926776 -0.29776815 0.9401756 0.31615645 0.23694444 -0.9743437 -0.346516 0.9634145 0.40346286 1.0148504
based -2.2298903 0.15303966 0.6531231 -0.13600463 -0.4178514 -0.8756584 -0.38073197 1.0740721 0.37221783 0.26935315 -1.1248744 -0.43776214 1.0783503 0.44601178 1.0799975
quality -1.7081169 0.08961494 0.5312313 -0.085615166 -0.3739357 -0.70032245 -0.25966075 0.80631715 0.2889859 0.20087676 -0.8357649 -0.32899272 0.8350105 0.30377823 0.8600808
versus -2.1665068 0.121602 0.60468334 -0.1399386 -0.4053434 -0.892549 -0.3548943 1.0279996 0.36083725 0.25883773 -1.0652738 -0.383362 1.0314319 0.4104895 1.106642
expense -1.9657428 0.15672746 0.5664817 -0.10103829 -0.32874614 -0.8054201 -0.31464696 0.9403164 0.3267224 0.18385768 -0.9504045 -0.36257854 0.98002636 0.39911884 1.0221523
thing -2.0143242 0.12794301 0.53618586 -0.11809116 -0.37201443 -0.7937582 -0.29581657 0.93093824 0.3226656 0.2326399 -0.9499214 -0.40097067 0.9816216 0.41654965 0.9994426
estate -1.7949234 0.10281238 0.57883024 -0.109785855 -0.42530805 -0.6612766 -0.3528089 0.8385934 0.22945099 0.24952747 -0.9211542 -0.26660135 0.8800385 0.37147442 0.98098356
focus -1.8486632 0.12880097 0.5348868 -0.11875405 -0.39546248 -0.7557934 -0.27957252 0.86990345 0.3276112 0.17093056 -0.9402738 -0.32242942 0.88575065 0.36169955 0.97578835
probably -1.916443 0.12482273 0.5261841 -0.12934089 -0.36544606 -0.7421892 -0.293996 0.8978288 0.29156664 0.1916956 -0.92244875 -0.31721643 0.9021349 0.38738889 0.95585805
share -1.8238072 0.14345473 0.5497136 -0.084586434 -0.32044366 -0.7548195 -0.32877326 0.8888068 0.31640738 0.16951591 -0.933207 -0.34301153 0.9168644 0.39537403 0.938924
big -1.9077965 0.1241591 0.52337176 -0.06509454 -0.34720993 -0.74450374 -0.32161346 0.86871177 0.3112625 0.16965386 -0.9680074 -0.36979458 0.9467492 0.40966284 0.9409388
work -1.9779401 0.15113115 0.55365634 -0.11309589 -0.4073941 -0.77754515 -0.31770912 0.92940664 0.29749283 0.20704658 -1.0107397 -0.39532247 1.0045757 0.373801 1.0296085
guidance -1.5768303 0.10828644 0.43581343 -0.114580415 -0.27992448 -0.6014862 -0.27554217 0.72928065 0.24881242 0.17917989 -0.79238945 -0.26432204 0.7773916 0.34786958 0.8215586
seen -1.7343353 0.08555181 0.4938147 -0.11873526 -0.3491467 -0.6808891 -0.26923028 0.8502894 0.32859558 0.1802912 -0.87247413 -0.32888028 0.86027765 0.35336226 0.9286169
able -1.971938 0.1324867 0.59943384 -0.105017565 -0.3865181 -0.78436923 -0.29447 0.92845356 0.3420499 0.24544 -0.98120946 -0.38661566 0.94110644 0.42664617 0.9815325
net -1.4911418 0.14722334 0.43771967 -0.059137836 -0.29213697 -0.58379805 -0.24011306 0.6867795 0.19431704 0.1484777 -0.73174417 -0.22886021 0.6870473 0.2632775 0.67917943
getting -1.8906579 0.14789157 0.57159585 -0.09358025 -0.39367422 -0.750188 -0.2917734 0.8807712 0.314629 0.17254683 -0.96598506 -0.3382303 0.9422883 0.40343016 1.0089673
new -1.9654723 0.14599788 0.54654706 -0.08013425 -0.3953075 -0.7851111 -0.2846284 0.8865109 0.35925603 0.24099416 -0.9378345 -0.3811208 0.91182286 0.3653289 0.9886623
core -1.5716196 0.07536027 0.4579324 -0.08678502 -0.3280462 -0.6220214 -0.24549098 0.7607815 0.29070953 0.19304495 -0.7519735 -0.25374982 0.7618934 0.34748036 0.8161022
investor -1.8081622 0.10964946 0.5527782 -0.077139005 -0.3545279 -0.67398596 -0.3384241 0.888761 0.26804766 0.17107476 -0.94420344 -0.29851705 0.93349385 0.31984723 0.9258843
beta -1.8087823 0.13803709 0.55538034 -0.09641322 -0.31872806 -0.7378499 -0.2920514 0.830962 0.33155772 0.19433214 -0.8872437 -0.3303865 0.90194166 0.35579583 0.87917393
third -1.7631805 0.13351274 0.50219154 -0.06156926 -0.30693427 -0.704478 -0.28956828 0.78328437 0.27441168 0.16747896 -0.88814884 -0.35028344 0.8052369 0.33692577 0.87342286
income -1.7958524 0.12882985 0.5255136 -0.06529524 -0.3038735 -0.69835585 -0.27799338 0.8628462 0.24853931 0.22547407 -0.8912567 -0.27595988 0.8161473 0.37712198 0.8935059
making -1.8693113 0.15086403 0.542719 -0.09135272 -0.33789217 -0.7122204 -0.2621212 0.90074855 0.30016923 0.21434489 -0.92703784 -0.38672453 0.9216983 0.35527083 0.96950567
benefit -1.8249183 0.11662932 0.5387177 -0.13014194 -0.3543052 -0.70071244 -0.32657486 0.87397194 0.3394793 0.16496643 -0.92831165 -0.35766515 0.8770987 0.39596176 0.9461741
may -2.121678 0.16521123 0.6214118 -0.14428473 -0.37634608 -0.80795795 -0.30431208 0.9974204 0.3805189 0.23421185 -1.040428 -0.41730732 1.0163738 0.43350655 1.0361152
mean -1.6336951 0.112989224 0.4806228 -0.062087234 -0.30575794 -0.63853335 -0.28161263 0.7731705 0.29549047 0.19778435 -0.8048358 -0.33442658 0.78723556 0.31853935 0.81581056
indiscernible -1.2421193 0.10710162 0.3658329 -0.0490139 -0.25157055 -0.501421 -0.22375406 0.6181417 0.20758814 0.12229395 -0.655905 -0.21977077 0.65406746 0.23216501 0.6183625
standpoint -1.5899887 0.091179125 0.44939378 -0.06594918 -0.29376048 -0.6397805 -0.24879253 0.72473615 0.24497132 0.17021926 -0.79177296 -0.289403 0.79745203 0.3529848 0.7897162
management -2.0772958 0.10856007 0.61132216 -0.104752295 -0.40771958 -0.8615085 -0.32690987 1.0003428 0.36973274 0.2015613 -1.043171 -0.38854206 1.0037534 0.44740412 1.0890518
every -1.8581775 0.15402524 0.57336026 -0.0672373 -0.3481276 -0.6912036 -0.30233946 0.88381886 0.29778853 0.17806087 -0.9163219 -0.34071648 0.92586476 0.37447026 0.9433285
whether -2.0811033 0.11342284 0.58941233 -0.13978997 -0.4274745 -0.8179782 -0.33794385 0.9738933 0.37287322 0.22200678 -1.0321245 -0.39221984 1.0065018 0.42474377 1.0848211
call -2.0444672 0.11337734 0.5915728 -0.093618274 -0.384271 -0.7860579 -0.29949594 0.96550167 0.32800663 0.17847452 -0.9893898 -0.34886065 0.9620413 0.4251579 1.0039719
across -2.1263065 0.11707724 0.6557253 -0.10002494 -0.43600464 -0.87433577 -0.3710574 1.0164179 0.36674234 0.24325626 -1.073164 -0.43915358 1.0657424 0.39795488 1.0741673
indirect -2.0092835 0.11891903 0.6090516 -0.093040586 -0.40428418 -0.841354 -0.31402722 0.9858958 0.35971504 0.18633926 -0.9926018 -0.39449987 0.9596273 0.41293207 1.0151739
wanted -1.7841924 0.08463874 0.524613 -0.06166337 -0.36092633 -0.7415766 -0.2525646 0.84529984 0.305423 0.1670591 -0.894054 -0.36558813 0.9232602 0.3807298 0.88712084
assets -1.6657374 0.12832436 0.47497153 -0.050753504 -0.32792452 -0.6445246 -0.30190992 0.7821091 0.24002865 0.18010266 -0.7769211 -0.27742946 0.7715028 0.32993135 0.84885097
plan -1.7058065 0.10785076 0.47340328 -0.073162064 -0.3519801 -0.6705262 -0.25453097 0.79347444 0.26833335 0.2151986 -0.85381746 -0.34931275 0.8097041 0.3701974 0.85553694
equity -1.8555652 0.12091703 0.5477887 -0.058581635 -0.35633713 -0.7312617 -0.2829234 0.8855094 0.24977185 0.23071314 -0.8737583 -0.28612927 0.8716773 0.394954 0.8895068
securities -1.6718956 0.09494606 0.45414028 -0.088250436 -0.3341477 -0.6756996 -0.31882933 0.8277317 0.24465398 0.22235763 -0.83630115 -0.27249432 0.77711755 0.36696106 0.8407273
base -1.2449877 0.08352998 0.34850734 -0.0997933 -0.22239393 -0.45152527 -0.23889127 0.5848876 0.1844153 0.1045782 -0.5991912 -0.18709065 0.5521469 0.23087111 0.60620904
target -1.5837712 0.104242906 0.42931038 -0.0869079 -0.30133298 -0.64802635 -0.2209439 0.7886679 0.25514278 0.17659761 -0.8203441 -0.30154654 0.75910896 0.29359218 0.82224894
clearly -1.8696101 0.15560302 0.57388985 -0.11348391 -0.38471788 -0.7411025 -0.31256762 0.8655081 0.33432502 0.2050468 -0.9113902 -0.35527053 0.92758554 0.37399238 0.967202
branches -1.8938453 0.14713828 0.53125924 -0.09702783 -0.34778813 -0.7800906 -0.32698673 0.898961 0.30681145 0.21595997 -0.92008317 -0.34700763 0.9579423 0.4138098 0.99019605
digital -1.973578 0.16462003 0.5569414 -0.10604566 -0.4044809 -0.77670634 -0.29859427 0.9413903 0.30283225 0.22200288 -0.928277 -0.38332894 0.9314952 0.42126024 0.97893536
spend -1.4104922 0.12260656 0.4030417 -0.110619195 -0.28746283 -0.5404862 -0.26068044 0.6498308 0.23869467 0.16451237 -0.7208831 -0.29846 0.6704556 0.2569107 0.7391943
earlier -1.4987137 0.11080339 0.42931387 -0.056854274 -0.2796456 -0.5728961 -0.22486512 0.70019215 0.21495041 0.17084351 -0.7258308 -0.3047211 0.7351852 0.33028194 0.72721237
made -1.7816569 0.11764704 0.49785843 -0.11316333 -0.31902426 -0.71364135 -0.26510063 0.8684741 0.32473654 0.22318034 -0.8615393 -0.3234771 0.9002234 0.39193404 0.92985594
another -1.4234372 0.08736506 0.4356076 -0.09111539 -0.2862026 -0.5900046 -0.22957638 0.688751 0.24661697 0.17420097 -0.73555386 -0.25288785 0.70381343 0.2654999 0.69759434
result -1.9815946 0.13516887 0.60787696 -0.10083776 -0.38811874 -0.79326516 -0.3460807 0.9652981 0.35101724 0.2253767 -1.0176647 -0.37987652 1.0009663 0.38581064 1.0089827
accounts -1.579039 0.077137865 0.46496415 -0.066594474 -0.29209247 -0.65546066 -0.22332 0.7638159 0.30522466 0.12980048 -0.7637661 -0.24253157 0.7824453 0.31319618 0.7638826
cycle -1.6104031 0.13451084 0.4696128 -0.064110816 -0.29328597 -0.6551782 -0.2510021 0.7586377 0.2593217 0.2056192 -0.7851838 -0.32890463 0.77846295 0.29923323 0.840827
saw -1.6672275 0.10531444 0.47894222 -0.08153826 -0.34532923 -0.6654687 -0.24812056 0.7970208 0.25279558 0.21133009 -0.84681165 -0.32063872 0.8055709 0.3268608 0.86027765
expenses -1.7316483 0.09052467 0.4741505 -0.07056612 -0.30741218 -0.6651124 -0.27292067 0.8049428 0.31649622 0.18216795 -0.8417518 -0.32079986 0.81954086 0.37722188 0.9050582
focused -1.4093531 0.119669095 0.42856485 -0.041443143 -0.26047993 -0.5698485 -0.2252152 0.6310959 0.22965236 0.119635895 -0.68167627 -0.29742828 0.71080714 0.27755943 0.67960685
returns -1.562566 0.07842696 0.43293065 -0.078558944 -0.26993743 -0.62752205 -0.22755635 0.7274538 0.24372181 0.20935774 -0.8225184 -0.33117113 0.77123785 0.32800478 0.7961474
financial -2.0504322 0.12650031 0.6099063 -0.13289797 -0.42246875 -0.7857878 -0.33867738 0.9598114 0.3294864 0.24105328 -1.032104 -0.38712004 1.0233046 0.4265522 1.0506538
improve -1.4704398 0.075609036 0.41161585 -0.09702773 -0.28313634 -0.5607429 -0.20547631 0.7252608 0.26595494 0.1741766 -0.6981298 -0.31060064 0.74192804 0.2895109 0.76661056
capabilities -1.5606073 0.11475991 0.4338492 -0.09976428 -0.3257137 -0.5957159 -0.24198553 0.72168857 0.23007247 0.16792321 -0.75100696 -0.30983415 0.7524593 0.31331956 0.77921283
improvement -1.6169755 0.13142706 0.47680256 -0.074211925 -0.31570828 -0.62152344 -0.25496566 0.75349677 0.2783061 0.2033326 -0.7963887 -0.31014687 0.81276804 0.32501876 0.8408404
investment -1.6524487 0.12421821 0.46471223 -0.11698501 -0.32087928 -0.625287 -0.29863736 0.78724986 0.24446648 0.1898018 -0.79274666 -0.2947825 0.8073277 0.35229704 0.85987324
questions -1.4889697 0.08643144 0.39555487 -0.10296366 -0.29716983 -0.6062135 -0.22543299 0.7025906 0.2201792 0.114398815 -0.7607317 -0.31204084 0.7126081 0.3065186 0.740293
let -1.4728795 0.07346103 0.37715352 -0.112378106 -0.2731029 -0.53989583 -0.24351758 0.6459933 0.2083083 0.121524535 -0.70316005 -0.26633796 0.70475006 0.2659058 0.7395085
outlook -1.414957 0.119256236 0.38278013 -0.10638835 -0.24940743 -0.55247676 -0.24761231 0.69760406 0.24281222 0.16914777 -0.702285 -0.25313333 0.68630695 0.28692815 0.7354085
common -1.5671306 0.11770647 0.46213016 -0.091214225 -0.32994586 -0.5932579 -0.22014816 0.7920043 0.26220432 0.2187448 -0.811256 -0.2476332 0.7622284 0.31116667 0.7697088
fourth -1.3989184 0.05480338 0.36022332 -0.09851009 -0.23914756 -0.54085064 -0.2039205 0.6366014 0.25520182 0.12682617 -0.67196697 -0.29721367 0.652213 0.26398033 0.68024284
center -1.6426352 0.11481248 0.4712718 -0.07525233 -0.3335869 -0.65157586 -0.2711968 0.7890811 0.28338534 0.16403966 -0.796487 -0.3397553 0.7941436 0.37875125 0.8772306
didnt -1.7796324 0.09279551 0.530528 -0.07242575 -0.31941327 -0.7240834 -0.29689613 0.83108276 0.30007315 0.211951 -0.87965953 -0.33278972 0.8485979 0.3698305 0.93483794
hi -0.8996894 -0.014114302 0.2603851 -0.051704183 -0.11059755 -0.3802273 -0.12606114 0.4246852 0.085235044 0.05740414 -0.4318981 -0.1953112 0.5046759 0.17142819 0.41487634
long -1.688862 0.12979208 0.4711917 -0.11689203 -0.28911045 -0.6258922 -0.23526151 0.7746583 0.30248186 0.15369834 -0.797213 -0.30289787 0.79324204 0.35666534 0.85817313
term -1.6577193 0.14312975 0.4750937 -0.09636694 -0.35899287 -0.6490416 -0.2813832 0.7995026 0.31293687 0.15875879 -0.80876046 -0.32757756 0.8335796 0.30118063 0.83584553
exposure -1.6878531 0.11313331 0.5365058 -0.07611687 -0.32641676 -0.70471305 -0.2692122 0.8237403 0.27378768 0.15299614 -0.81807244 -0.33919007 0.81304294 0.35653213 0.83120155
curve -1.465334 0.104943715 0.41328716 -0.074158095 -0.26030797 -0.58253485 -0.22280063 0.6927816 0.23983844 0.14004385 -0.7744236 -0.30996034 0.7268655 0.30107915 0.7289074
operating -1.6545372 0.13444299 0.4990639 -0.08022428 -0.34843656 -0.6399583 -0.27362514 0.7627819 0.25859725 0.18133904 -0.825888 -0.3346093 0.843891 0.3667261 0.8247016
asset -1.5651938 0.109797865 0.44946298 -0.10096054 -0.28657392 -0.66007733 -0.28092843 0.7184377 0.26504117 0.14902617 -0.80552566 -0.27023795 0.7750822 0.31175902 0.76948303
particular -1.6479304 0.14028053 0.46057945 -0.11180256 -0.307841 -0.6205039 -0.27628836 0.78390455 0.3069868 0.16333386 -0.808209 -0.33028352 0.8151285 0.29785797 0.86411864
thought -1.5798489 0.109459214 0.45510104 -0.055367358 -0.29524216 -0.60572743 -0.26405165 0.7543475 0.2909772 0.1947624 -0.7795032 -0.2682106 0.73995197 0.313113 0.8115642
appropriate -1.4888462 0.07078539 0.4138088 -0.11069131 -0.3040812 -0.5915946 -0.23236075 0.72449404 0.22355266 0.14892606 -0.74450713 -0.30217996 0.7249826 0.30185607 0.7376324
youll -1.3419149 0.06512283 0.36575735 -0.07439546 -0.22649801 -0.5087437 -0.23136769 0.63393927 0.23919745 0.11649223 -0.6486881 -0.22235663 0.6707968 0.2910564 0.671348
manage -1.4178276 0.1059454 0.4131611 -0.04792602 -0.27555197 -0.5654162 -0.2435425 0.6621087 0.22816487 0.17797224 -0.68627477 -0.22973156 0.64656675 0.26805112 0.690186
nii -1.1232102 0.112645574 0.31018773 -0.04829129 -0.23492773 -0.4563547 -0.21057159 0.55046016 0.17560482 0.16821101 -0.5164167 -0.21490967 0.50653833 0.25766766 0.5890659
advantage -1.393713 0.10202337 0.41297567 -0.104816 -0.23872942 -0.5366761 -0.25123453 0.6848112 0.21195662 0.18077953 -0.66871816 -0.2351447 0.65984774 0.25440654 0.6986192
lower -1.3183258 0.10020721 0.40840855 -0.059280965 -0.24965216 -0.53404456 -0.17940386 0.6378394 0.19209018 0.13488162 -0.6865494 -0.22992146 0.60846657 0.25746822 0.63667965
industry -1.356205 0.065563336 0.40116474 -0.06810847 -0.28454775 -0.49894455 -0.20231012 0.6270854 0.2383335 0.15071772 -0.66868776 -0.2522206 0.6214823 0.26918057 0.7019628
cecl -1.596507 0.10018092 0.42124158 -0.083156206 -0.33084077 -0.6540666 -0.22579843 0.77179426 0.22873409 0.13781074 -0.79022515 -0.29178974 0.76079386 0.32213542 0.7810873
fed -1.7841372 0.14567785 0.5337434 -0.08428008 -0.30612138 -0.7419255 -0.28706157 0.85098755 0.32384214 0.1631125 -0.89174277 -0.35160148 0.86063904 0.34979764 0.93306
expectations -1.247146 0.076633684 0.35582897 -0.086888336 -0.23342046 -0.5059174 -0.1843567 0.59456766 0.21674196 0.16377246 -0.61734766 -0.22651213 0.6490799 0.24517268 0.64183414
past -1.331424 0.064433895 0.37093425 -0.040809248 -0.25681284 -0.5078083 -0.24115685 0.639696 0.23905669 0.13552216 -0.68281746 -0.27823132 0.6500804 0.25597933 0.662837
changes -1.6795726 0.14549972 0.48769683 -0.102804214 -0.3350375 -0.66624576 -0.25880125 0.78616 0.27515447 0.16315739 -0.8088103 -0.33597985 0.79655325 0.33575103 0.8179242
yes -0.97866607 0.0881605 0.2611159 -0.07547921 -0.19041896 -0.40344086 -0.16899401 0.43457314 0.14663477 0.10181667 -0.45865336 -0.2063123 0.45074478 0.21542662 0.48200163
period -1.3941973 0.08563833 0.40698934 -0.09078203 -0.25306693 -0.51172173 -0.19509378 0.6464867 0.21841463 0.11984079 -0.67763853 -0.2312018 0.68481165 0.26184365 0.6812697
run -1.2713087 0.07247171 0.3826809 -0.09292293 -0.2409422 -0.47251284 -0.21575058 0.63155466 0.23334873 0.17212318 -0.6439566 -0.22247545 0.61632967 0.26229122 0.67907596
stable -1.1913923 0.08118323 0.37545434 -0.07905582 -0.22984703 -0.44516006 -0.21801922 0.58738863 0.20950796 0.12547944 -0.5983966 -0.23002248 0.59508944 0.24037604 0.63443017
stay -1.440292 0.1157739 0.41361222 -0.058233287 -0.29710925 -0.5844905 -0.2369803 0.6496972 0.25023156 0.12550864 -0.6938525 -0.29045367 0.69990677 0.29563838 0.72861314
area -1.2349856 0.050518733 0.361451 -0.07522357 -0.2523417 -0.45354733 -0.20513186 0.6024347 0.1748896 0.112296574 -0.5974498 -0.21318479 0.57450557 0.25220275 0.6003094
keep -1.552449 0.13943234 0.46975794 -0.11323308 -0.31628966 -0.5994772 -0.24365638 0.74246275 0.22878493 0.1704214 -0.74435824 -0.31515688 0.76471955 0.30242935 0.7997117
fairly -1.6138334 0.1305648 0.48149446 -0.06575953 -0.31926996 -0.6364151 -0.27152783 0.7884656 0.27028796 0.14386839 -0.8209619 -0.27260643 0.7577092 0.35623014 0.81282455
continuing -1.4301893 0.09146356 0.3799049 -0.05516963 -0.2965174 -0.58631957 -0.24604653 0.6499121 0.26317248 0.14822716 -0.6812149 -0.2828553 0.65468746 0.25344265 0.73547566
ago -1.4411201 0.12224587 0.43863648 -0.085527934 -0.3031252 -0.5564618 -0.21663433 0.66837686 0.26209816 0.14968015 -0.7313246 -0.27157924 0.70040166 0.32752004 0.6913121
data -1.7971829 0.08787187 0.52312905 -0.13061446 -0.36022505 -0.71641266 -0.2858235 0.8199653 0.3221759 0.19323932 -0.9129255 -0.31986883 0.8619108 0.36967146 0.888507
less -1.4686484 0.10165515 0.44738477 -0.10741982 -0.30012238 -0.5816033 -0.20676881 0.70969784 0.21927892 0.17596318 -0.6989694 -0.27228975 0.7232346 0.31044263 0.7375577
program -1.5261413 0.090221286 0.4274126 -0.081924975 -0.30753437 -0.5851924 -0.2524166 0.68627286 0.2204629 0.15163413 -0.74272966 -0.31923175 0.7385722 0.3252872 0.79807603
ask -1.4871346 0.055716652 0.39140067 -0.046248894 -0.27268186 -0.571869 -0.21913949 0.70800513 0.23567817 0.16599137 -0.7560306 -0.30702028 0.7680053 0.31599805 0.7532778
wealth -1.5436864 0.086182185 0.47515544 -0.1032333 -0.28158593 -0.6039881 -0.27504584 0.723441 0.26405212 0.14264628 -0.76543283 -0.30013835 0.7785432 0.32163465 0.7805492
initiatives -1.4118013 0.10950703 0.40409085 -0.10285568 -0.2843042 -0.5634413 -0.22417863 0.63815945 0.2005446 0.1195406 -0.66752255 -0.27381015 0.6716611 0.30627543 0.73284274
space -1.7949295 0.14394453 0.5637278 -0.0926023 -0.36264983 -0.72902304 -0.31097537 0.8401346 0.2714936 0.22459547 -0.9080587 -0.30937156 0.86835295 0.3315892 0.92042214
ability -1.4614174 0.07510607 0.4219215 -0.09572023 -0.25715664 -0.5977721 -0.21715213 0.67265546 0.26677647 0.18605882 -0.71396005 -0.29406747 0.70018214 0.28078642 0.77291715
gerard -0.9529743 0.032706533 0.23962536 -0.07123315 -0.18247394 -0.36856595 -0.15297638 0.43557206 0.152525 0.066681355 -0.45638883 -0.20937179 0.51193213 0.16072498 0.45503303
months -1.467519 0.07575663 0.43621168 -0.06253405 -0.25804782 -0.5875831 -0.21622713 0.6748469 0.2749696 0.18289286 -0.703624 -0.2434592 0.7368106 0.27994388 0.7512572
portfolios -1.338373 0.060344394 0.35708156 -0.06987034 -0.2509133 -0.5135239 -0.2427812 0.63144135 0.19919768 0.12042552 -0.64246947 -0.25331327 0.6096846 0.24067931 0.66847265
sort -1.5867912 0.12277935 0.4520365 -0.056132793 -0.3045548 -0.6511705 -0.25468856 0.7424048 0.2766103 0.16197358 -0.7678507 -0.29828727 0.7515512 0.34404752 0.79196346
expectation -1.0611647 0.085989565 0.27407023 -0.06134235 -0.20714733 -0.39818192 -0.15339671 0.4414676 0.13890402 0.14565435 -0.48330167 -0.2036803 0.5260423 0.19764239 0.5367158
checking -1.2642535 0.044690967 0.3564882 -0.069630094 -0.19604357 -0.5009773 -0.19197756 0.60858005 0.24788344 0.12404661 -0.60023624 -0.20364413 0.6045338 0.22567597 0.6297785
positive -1.3055781 0.058173414 0.386984 -0.071018554 -0.22778259 -0.5051034 -0.1933956 0.6471018 0.24757774 0.10693137 -0.6778163 -0.2645197 0.6630529 0.23820198 0.6797666
costs -1.3242369 0.06259209 0.36007398 -0.07856493 -0.22480412 -0.4984213 -0.20498759 0.6473552 0.19339253 0.15774363 -0.6210811 -0.22731571 0.6022288 0.26365593 0.62835795
money -1.0289396 0.058639772 0.30965534 -0.04426937 -0.18037267 -0.40627772 -0.16674612 0.49185383 0.1794013 0.094886854 -0.5504949 -0.19998391 0.5343688 0.2173157 0.54781246
amount -1.4135566 0.096045054 0.38773397 -0.09763259 -0.27978197 -0.5693714 -0.22624771 0.6670377 0.25203553 0.11734247 -0.6994638 -0.2575588 0.6996697 0.2867484 0.7253503
half -1.1954148 0.06871419 0.35284972 -0.044002254 -0.2457725 -0.49422425 -0.21932381 0.53039414 0.18441603 0.12531134 -0.6263456 -0.21679291 0.6104095 0.24354132 0.5856897
shareholders -1.4155954 0.11195636 0.41925243 -0.07817433 -0.27361727 -0.5957254 -0.21108186 0.716556 0.23353925 0.1832743 -0.7173152 -0.28177676 0.69662136 0.323285 0.7514751
branch -1.5871183 0.10134849 0.4461805 -0.08621936 -0.32240736 -0.60702497 -0.21993019 0.7274689 0.24558032 0.19523647 -0.74900687 -0.26655567 0.7724388 0.33405483 0.82020026
tell -1.2632549 0.06940577 0.39235327 -0.04365867 -0.25303674 -0.46110767 -0.19302766 0.6158758 0.24518214 0.121461146 -0.6251464 -0.2498287 0.60866076 0.22444633 0.65175307
relative -1.3654743 0.10853368 0.36764693 -0.089805484 -0.29532093 -0.5232513 -0.20311882 0.6597839 0.2158477 0.14157987 -0.66439074 -0.25279874 0.66518694 0.24282087 0.70784533
q -1.4441161 0.06717123 0.42119867 -0.048356313 -0.28344443 -0.62085897 -0.25771615 0.6875845 0.25113708 0.13034743 -0.73175234 -0.28044724 0.69008464 0.2869045 0.7084696
place -1.1811932 0.10992514 0.29723874 -0.08440074 -0.24990106 -0.45702887 -0.16273841 0.5419868 0.21112438 0.15297993 -0.58409756 -0.22688463 0.5664309 0.20078386 0.5958189
early -1.6441073 0.10894689 0.4550398 -0.09803732 -0.31307918 -0.64094645 -0.27847695 0.77602315 0.29436925 0.20475918 -0.78849566 -0.33637893 0.78012997 0.35582802 0.79744905
always -1.3868825 0.06726576 0.3976431 -0.05672548 -0.29638362 -0.56879073 -0.19289319 0.67839754 0.23133661 0.13804838 -0.704385 -0.24749947 0.6447892 0.29549903 0.70176667
move -1.2844588 0.08202381 0.36755 -0.088034675 -0.25707862 -0.5135219 -0.1909979 0.61890316 0.21082097 0.10695883 -0.6454314 -0.24039198 0.65353316 0.2657964 0.6510896
energy -1.6044174 0.110973895 0.49234885 -0.072659165 -0.30691788 -0.65475976 -0.23673737 0.73349154 0.25467944 0.13001387 -0.79156345 -0.27466804 0.81225544 0.32030708 0.81490177
barb -1.0665087 0.060806703 0.32692334 -0.05346867 -0.19351102 -0.43132827 -0.14599125 0.48754197 0.15093002 0.13279526 -0.5144935 -0.18897565 0.53889185 0.2209556 0.55021703
best -1.2002087 0.09490156 0.3508766 -0.09621037 -0.25069404 -0.48407635 -0.21423584 0.5460499 0.1833508 0.12946893 -0.5547278 -0.23186378 0.55831724 0.21363327 0.5918855
helpful -0.89887637 0.10112851 0.2296256 -0.088780746 -0.15139665 -0.37559885 -0.12545091 0.3771716 0.16443288 0.0699352 -0.422716 -0.17708777 0.41050902 0.20481929 0.41808817
thinking -1.3187914 0.073991925 0.39078456 -0.041833375 -0.25503048 -0.5354717 -0.22151618 0.6564945 0.23551169 0.16325547 -0.6792111 -0.22448288 0.61285806 0.26135123 0.67517686
times -1.4634176 0.10894389 0.4047634 -0.0741035 -0.2989706 -0.59285957 -0.24412435 0.67927593 0.2737692 0.15501212 -0.7051185 -0.28030208 0.7002242 0.3175372 0.7376392
using -1.5418533 0.08566415 0.4247845 -0.11008616 -0.27141494 -0.64879 -0.26968238 0.76228744 0.2799857 0.1910466 -0.788051 -0.32790577 0.7503804 0.33376065 0.8340676
top -1.5756261 0.111384265 0.46749222 -0.10444185 -0.27127722 -0.6325947 -0.2672386 0.75151134 0.2916617 0.1491644 -0.7569765 -0.2970483 0.7714366 0.28261304 0.80927396
plus -1.0964309 0.08179049 0.33317748 -0.078426935 -0.21354942 -0.4570438 -0.19206275 0.5386614 0.14748794 0.11834691 -0.5518006 -0.22803594 0.56217045 0.2384061 0.59378964
competitive -1.3789294 0.101853766 0.4308974 -0.082922794 -0.24607745 -0.55622685 -0.2430947 0.69161475 0.20705198 0.14912786 -0.65725964 -0.26427945 0.67248213 0.29485804 0.73361945
example -1.4700596 0.080751814 0.41831878 -0.106927454 -0.2877673 -0.5837621 -0.27045488 0.72751683 0.2738533 0.15916644 -0.700547 -0.24821407 0.69560397 0.26264733 0.73423386
numbers -1.2874286 0.12037872 0.40747714 -0.059097774 -0.26148143 -0.48520347 -0.2248328 0.64075124 0.19055818 0.12244801 -0.62167454 -0.22203113 0.66076696 0.23209275 0.6462928
already -1.3286783 0.12410351 0.41247186 -0.0664308 -0.22304577 -0.5207473 -0.20086978 0.6511108 0.25740403 0.13281688 -0.6709862 -0.28382835 0.6346186 0.27057213 0.7084792
challenging -1.1383761 0.07886876 0.30755657 -0.085071556 -0.19120076 -0.47201258 -0.149838 0.5625371 0.20367803 0.08309773 -0.57479644 -0.25192606 0.57690316 0.24214469 0.56818897
potentially -1.3450655 0.12335564 0.4152395 -0.03966033 -0.28997493 -0.5319211 -0.19468038 0.67727584 0.22426105 0.13306229 -0.6883657 -0.28204998 0.6407262 0.2787903 0.6939341
high -1.3492528 0.06446384 0.3705883 -0.095843084 -0.25287306 -0.5217132 -0.1955611 0.6466059 0.24458687 0.1594245 -0.64918756 -0.23465484 0.6556068 0.28820735 0.67965627
fact -1.4270664 0.11882119 0.42199767 -0.10627846 -0.2812645 -0.5751141 -0.22323054 0.6620653 0.25992373 0.16009192 -0.7246407 -0.24472055 0.70559394 0.3177137 0.71100235
taking -1.2282087 0.040088095 0.32515678 -0.07780255 -0.20132966 -0.5090764 -0.16851841 0.5527324 0.19548525 0.10352877 -0.6090816 -0.2547964 0.608337 0.26037595 0.5885564
wondering -1.2961287 0.09104112 0.34223294 -0.06328195 -0.22373915 -0.5032022 -0.22215264 0.6169246 0.2391378 0.13828251 -0.6249999 -0.2528215 0.60695016 0.23544374 0.6843428
cant -1.1967808 0.04895483 0.33053496 -0.08632963 -0.24123779 -0.4708427 -0.20467092 0.54877865 0.21457778 0.14658709 -0.5604052 -0.18931839 0.5448603 0.22642864 0.6176638
quite -1.284259 0.08068422 0.34152216 -0.04786364 -0.221734 -0.5546605 -0.18067764 0.626443 0.23310031 0.11880599 -0.64551085 -0.23290414 0.62256885 0.27371436 0.66293484
mobile -1.4998162 0.12404239 0.41677096 -0.10711412 -0.2655191 -0.6117052 -0.22319308 0.6806873 0.23920764 0.15601699 -0.762996 -0.26754948 0.7047968 0.28910494 0.7522881
answer -1.0899432 0.082840174 0.31030697 -0.07712538 -0.17136778 -0.39930248 -0.16797775 0.48893058 0.14302886 0.08104307 -0.51789784 -0.1750515 0.5359624 0.2474656 0.52158034
account -1.2977268 0.043594934 0.37012833 -0.100507826 -0.2765955 -0.530579 -0.19627976 0.5863669 0.24850616 0.13570644 -0.66357255 -0.2062144 0.62283325 0.2607279 0.6694592
working -1.2622035 0.09169925 0.3368233 -0.034750186 -0.22361994 -0.47272378 -0.18683754 0.5903934 0.223376 0.14668107 -0.635346 -0.24547039 0.63291025 0.26063117 0.6446405
total -1.1569067 0.08256501 0.34360924 -0.04897912 -0.2581027 -0.4928762 -0.19351907 0.5350681 0.1672226 0.09684748 -0.57378775 -0.20094842 0.5935077 0.26808995 0.57754695
platform -1.2190741 0.061642792 0.35726032 -0.100792505 -0.25107962 -0.45958075 -0.17313413 0.5804039 0.21581529 0.10172089 -0.56554407 -0.20806004 0.569049 0.25145 0.6243221
roughly -1.037019 0.06644348 0.28015542 -0.07552271 -0.23777921 -0.433068 -0.16016842 0.51306003 0.1811841 0.12601405 -0.49048534 -0.21072502 0.5080136 0.2013883 0.5520298
significant -1.2253821 0.087752596 0.3768543 -0.08836409 -0.21819356 -0.5068812 -0.17775697 0.6078537 0.21810971 0.12292682 -0.63697845 -0.21424153 0.63088614 0.2663252 0.62119716
ccar -1.356228 0.089832254 0.39010948 -0.04973298 -0.24678335 -0.5678876 -0.21262132 0.6721309 0.23874332 0.12046307 -0.67954165 -0.2673177 0.67849815 0.27431104 0.6988018
franchise -1.0134466 0.09050034 0.2759985 -0.05192447 -0.18400808 -0.3928248 -0.16986701 0.4777659 0.16928013 0.11096511 -0.5140552 -0.14895518 0.4831383 0.19860774 0.48112288
happen -1.1036944 0.08695508 0.3527404 -0.07587645 -0.21730499 -0.47562534 -0.18654937 0.4967716 0.1846084 0.11907034 -0.55847263 -0.23475336 0.52929115 0.2444128 0.5388865
flat -1.0198984 0.058443025 0.32215175 -0.016731702 -0.19027047 -0.37457654 -0.13657925 0.49259475 0.15199718 0.09651394 -0.49828926 -0.17257017 0.47017562 0.23142469 0.5285703
strategy -1.3696201 0.12028668 0.42563325 -0.06413022 -0.23816928 -0.5690499 -0.20836696 0.6284681 0.1918624 0.18478228 -0.68241256 -0.23557596 0.6525407 0.28926128 0.7329703
hard -1.2196752 0.0664484 0.32698563 -0.044514075 -0.24075145 -0.4902756 -0.22487007 0.59593135 0.21079111 0.15871823 -0.5997942 -0.2026201 0.59899026 0.2520979 0.62670267
job -1.0480038 0.032035496 0.28104907 -0.07604346 -0.22819202 -0.46769348 -0.15758169 0.5073158 0.17135775 0.096806124 -0.52115417 -0.17191896 0.5477034 0.20262778 0.54653466
targets -1.3649777 0.0795316 0.3698526 -0.06212201 -0.2651961 -0.5575402 -0.19788536 0.61925703 0.21509795 0.17091332 -0.6861625 -0.28672844 0.6737753 0.3039913 0.66244006
tier -1.2344731 0.055015348 0.3528615 -0.039671395 -0.26009718 -0.47332087 -0.19682555 0.580068 0.19647448 0.1656076 -0.6177176 -0.17288001 0.5946845 0.2357043 0.6287729
runoff -1.252948 0.10201908 0.33033153 -0.030081993 -0.2504906 -0.46672714 -0.21085612 0.5436534 0.21258377 0.10742395 -0.59213066 -0.20449175 0.55819607 0.26518288 0.649775
far -1.2791302 0.072460435 0.38441104 -0.04149983 -0.25293204 -0.5267448 -0.21106224 0.63176435 0.21935377 0.11378262 -0.62581414 -0.27303654 0.6527465 0.27793097 0.6871287
mix -0.9873864 0.098698735 0.2607274 -0.064285174 -0.20918643 -0.38641518 -0.16447462 0.4746721 0.1478739 0.14136976 -0.44848186 -0.19729793 0.4569893 0.21099336 0.5121336
areas -1.1889604 0.083620064 0.37955457 -0.0320929 -0.22288868 -0.4699349 -0.21886376 0.550901 0.19581385 0.11821659 -0.5982301 -0.23729143 0.60261816 0.21738924 0.6164351
pressure -0.9840909 0.09154605 0.31366724 -0.06772247 -0.22145227 -0.37064782 -0.19474283 0.49518636 0.18539457 0.088471174 -0.46694148 -0.19378342 0.48004076 0.17284623 0.47917372
build -1.1046993 0.040853854 0.28893796 -0.06608319 -0.23704378 -0.39700913 -0.16371213 0.5287591 0.19532177 0.13055758 -0.5561478 -0.196779 0.5199118 0.2243106 0.5768839
nice -0.83672404 0.06369328 0.26642403 -0.0659219 -0.14143649 -0.32933214 -0.12486796 0.4069357 0.14136434 0.075494625 -0.38061002 -0.15458392 0.39400932 0.19135548 0.42509022
auto -1.3267199 0.061898626 0.36677167 -0.07421579 -0.23940593 -0.54587644 -0.20978536 0.6150968 0.19899209 0.12393514 -0.66075593 -0.2912473 0.628801 0.27894455 0.6686082
bankers -1.232017 0.11037686 0.3621789 -0.06563232 -0.2414229 -0.46795937 -0.19098389 0.58607656 0.21457615 0.117018014 -0.63822633 -0.25852466 0.6318687 0.25217605 0.5989514
relationship -1.1453245 0.0908228 0.32474622 -0.082202286 -0.19247335 -0.4214357 -0.17166072 0.5407195 0.20109305 0.13387957 -0.5950691 -0.21667437 0.591128 0.2600164 0.59601015
changed -1.316441 0.10241329 0.3897497 -0.0932909 -0.22711383 -0.51605433 -0.22448675 0.5717239 0.20791297 0.11473201 -0.65223116 -0.22021846 0.65034825 0.24750036 0.65922976
team -1.3197312 0.060830656 0.3875651 -0.04836998 -0.27026588 -0.5447958 -0.24436286 0.59036076 0.23152801 0.115737095 -0.6907294 -0.2757322 0.6321177 0.29491594 0.69708055
gives -0.90988225 0.065566406 0.22922699 -0.013967243 -0.18126015 -0.377993 -0.13789327 0.42649996 0.17904831 0.1140448 -0.4276388 -0.14813906 0.40769944 0.17358777 0.46867675
experience -1.0086597 0.097425975 0.29241434 -0.066891976 -0.19046138 -0.39637923 -0.16866088 0.51410055 0.19485211 0.13608286 -0.5010073 -0.22146448 0.48894647 0.19318475 0.5107887
id -0.8857192 0.074971735 0.24545825 -0.07743189 -0.20237722 -0.34419027 -0.17712232 0.3863435 0.16737667 0.07848805 -0.44539 -0.15049103 0.46821246 0.17907338 0.4842465
dividend -1.1147581 0.07103303 0.30690035 -0.041073028 -0.21121731 -0.47791445 -0.20837773 0.5545467 0.16831368 0.107640736 -0.5641797 -0.18485503 0.55404216 0.20498545 0.56651336
demand -0.8943873 0.06749604 0.2608605 -0.040930953 -0.16479145 -0.35909665 -0.12436192 0.43812737 0.18600507 0.061221648 -0.45772076 -0.1837732 0.43948632 0.20077515 0.4573782
group -1.4553517 0.07813937 0.4339652 -0.058764536 -0.31267142 -0.5490642 -0.26838315 0.6848137 0.2520608 0.11978689 -0.6964916 -0.2837395 0.68916947 0.27866396 0.7512106
hey -0.53137374 0.020690918 0.12414861 -0.03976975 -0.046142228 -0.18616936 -0.10873951 0.2435702 0.07330092 0.038914144 -0.27488753 -0.06905407 0.27843443 0.061851718 0.26660132
full -0.84815997 0.030487958 0.2805148 -0.034543723 -0.1720581 -0.33311808 -0.15700454 0.38719147 0.17717189 0.098671556 -0.41313353 -0.15244073 0.4481928 0.20536228 0.42782867
color -0.8500953 0.059048433 0.24084696 -0.015897552 -0.14987552 -0.3919617 -0.11770163 0.3902214 0.14336598 0.11979697 -0.44873518 -0.15809505 0.41077343 0.19415835 0.4658651
count -0.96737206 0.05463402 0.2570171 -0.06888521 -0.18987425 -0.41450787 -0.15808396 0.42750832 0.16066651 0.094051465 -0.5249978 -0.15609303 0.5171638 0.18157203 0.53420186
talking -0.92263377 0.07621924 0.26502693 -0.0323549 -0.1437876 -0.37912753 -0.1447674 0.4429217 0.12918486 0.067263365 -0.424317 -0.16528665 0.4672528 0.1712826 0.4453492
many -1.2845795 0.10569496 0.3846101 -0.07573692 -0.2529569 -0.4821244 -0.20378602 0.60611707 0.23160708 0.14112979 -0.6405553 -0.2400778 0.6421833 0.27651218 0.61381227
particularly -0.9375388 0.047964405 0.2503851 -0.077263154 -0.15570912 -0.39243972 -0.18711863 0.47327593 0.18877177 0.12587221 -0.46176493 -0.20194703 0.43556166 0.19192597 0.49816072
pay -1.2975198 0.07531649 0.39253062 -0.088381514 -0.24296856 -0.53823787 -0.23946439 0.6126319 0.23369443 0.14280932 -0.67794347 -0.2457268 0.6097864 0.29195008 0.6580203
service -1.3003116 0.09858901 0.34366605 -0.059045613 -0.22105408 -0.5271893 -0.17990103 0.59492916 0.1924568 0.1605727 -0.62913275 -0.2224496 0.6200145 0.25375116 0.6526507
relatively -0.9883979 0.1019238 0.31630245 -0.043775935 -0.16183066 -0.38760826 -0.14421958 0.49259734 0.17053041 0.12849002 -0.5027581 -0.19390325 0.5126912 0.21032915 0.5351921
insurance -1.2821933 0.12011571 0.40298125 -0.044095345 -0.26280773 -0.48689356 -0.20635176 0.63075507 0.22274955 0.10954416 -0.67639416 -0.21647573 0.60939014 0.24448429 0.683357
understand -1.0791451 0.104979366 0.33194906 -0.07108249 -0.18479142 -0.41440848 -0.17534065 0.5321476 0.20206273 0.09701551 -0.56787676 -0.2310691 0.54349303 0.25140703 0.5446797
teams -1.1242425 0.08093587 0.3003935 -0.07667189 -0.19389309 -0.43791285 -0.20218074 0.5307569 0.20555894 0.1368323 -0.5724987 -0.23924464 0.52579916 0.21796532 0.55172944
followup -0.8609782 0.04110075 0.26275465 -0.020336919 -0.11848433 -0.31561822 -0.112176344 0.36415341 0.14987597 0.06707337 -0.41446936 -0.15481411 0.45300338 0.18990602 0.38529652
online -1.2220945 0.108127974 0.33263448 -0.065513685 -0.26888406 -0.47037822 -0.17722102 0.5574081 0.20324114 0.096784696 -0.5909241 -0.21367735 0.5798076 0.20957753 0.6272719
close -0.99590206 0.080561265 0.28299674 -0.07939654 -0.1866756 -0.3888339 -0.14661409 0.48039272 0.19031392 0.098563604 -0.4844393 -0.15800127 0.45479178 0.22311608 0.46186265
liquidity -1.2029381 0.07633978 0.36922222 -0.030358706 -0.24220975 -0.45122474 -0.19885997 0.56479526 0.18534349 0.15099622 -0.5724347 -0.22480536 0.6047578 0.21333207 0.5962122
overall -1.1014302 0.10385654 0.28557825 -0.05814164 -0.21810001 -0.45591465 -0.2035384 0.47814363 0.1853513 0.08686707 -0.54869777 -0.21114506 0.54969573 0.21611264 0.55218416
certainly -1.1356986 0.08007654 0.3256926 -0.03749484 -0.19805376 -0.4596381 -0.18341352 0.5299539 0.16498752 0.14741124 -0.55989224 -0.18306804 0.51660216 0.19873196 0.59729326
anything -1.0542725 0.08604963 0.31915754 -0.07591818 -0.20881772 -0.39492393 -0.17144024 0.51459545 0.16344547 0.12042946 -0.5137353 -0.22489183 0.52358204 0.18186533 0.5680691
company -1.1640667 0.06350121 0.34430018 -0.05875878 -0.21632658 -0.44525832 -0.21580176 0.56689084 0.19165555 0.14466216 -0.5681337 -0.24351689 0.5831604 0.22910713 0.5642147
piece -0.9305634 0.09309232 0.25917217 -0.07242629 -0.1872122 -0.36419013 -0.15187253 0.45682076 0.15424445 0.098724425 -0.47129375 -0.15195361 0.48691443 0.1719998 0.4954572
generate -0.9689688 0.07155987 0.2912192 -0.07179913 -0.15674557 -0.34745714 -0.17124693 0.42545474 0.1625257 0.08798735 -0.47774518 -0.15993477 0.4591382 0.19186482 0.4714158
hedging -1.1465687 0.097007565 0.3596178 -0.048480984 -0.2505012 -0.47812402 -0.20640323 0.5380591 0.15817815 0.14815298 -0.55401117 -0.20287676 0.602605 0.20633125 0.6136484
relationships -1.2953442 0.10880751 0.3489464 -0.08669395 -0.22588469 -0.49442333 -0.17010044 0.6013392 0.21770984 0.16542512 -0.658281 -0.2671929 0.5983421 0.23278002 0.6636005
sensitivity -1.142934 0.062357467 0.29757425 -0.08458983 -0.22921975 -0.4565145 -0.20047638 0.5037323 0.2156965 0.089429356 -0.524073 -0.19836117 0.52519757 0.23253256 0.5725643
initiative -0.97955525 0.05357198 0.25273913 -0.06246269 -0.20172295 -0.39695963 -0.15306656 0.4696466 0.14434315 0.08821786 -0.50678617 -0.20149738 0.50428236 0.2154198 0.51415074
came -1.1147944 0.041661963 0.3427557 -0.061368324 -0.22088285 -0.472175 -0.19296429 0.5300685 0.20007674 0.09391586 -0.5465849 -0.20209134 0.52925664 0.22884575 0.5620871
set -1.0791212 0.0581879 0.3241933 -0.061460778 -0.1934657 -0.45892802 -0.16370466 0.51859075 0.20377359 0.14121611 -0.5690161 -0.22626553 0.542043 0.2400345 0.5789459
extent -1.3401967 0.10194928 0.40142927 -0.08774313 -0.23762347 -0.53166956 -0.20138986 0.65694034 0.19276558 0.15103473 -0.6451126 -0.23136076 0.66771144 0.24945675 0.69878906
line -1.1441854 0.109471425 0.31234002 -0.07248774 -0.23327954 -0.4631661 -0.15898123 0.5515076 0.15572742 0.13605048 -0.57138515 -0.21800841 0.56039757 0.19985592 0.5376076
needs -1.224335 0.10342073 0.38643697 -0.03790535 -0.21662043 -0.49646428 -0.17324325 0.60583144 0.22781071 0.14104807 -0.58515716 -0.2556885 0.5940818 0.26224533 0.6380707
levels -1.1058084 0.07998681 0.29430142 -0.058415234 -0.2393607 -0.47309735 -0.15932299 0.5319451 0.21441548 0.09122155 -0.5393367 -0.17765132 0.52758694 0.19135097 0.5815419
corporate -1.1180881 0.08547151 0.33750015 -0.026614524 -0.23647057 -0.40480733 -0.17681341 0.5018144 0.14606217 0.091058984 -0.5349341 -0.22718595 0.5194646 0.19866051 0.52892566
committed -0.96099705 0.084641226 0.29282075 -0.042510632 -0.17076454 -0.41007042 -0.118810974 0.43913153 0.14737755 0.12995142 -0.5141305 -0.1708585 0.48878628 0.18760939 0.47821388
reduce -1.1811684 0.09401955 0.37538925 -0.06995064 -0.23802412 -0.4796657 -0.22581382 0.588541 0.20966333 0.101281025 -0.55603606 -0.19602002 0.5711464 0.25026074 0.57295334
others -1.1216102 0.09153072 0.3505169 -0.07570256 -0.18865386 -0.45368773 -0.21365224 0.4945051 0.17815304 0.15394004 -0.53634167 -0.19183242 0.5660732 0.23353548 0.55135137
deliver -1.1721215 0.09491285 0.34277165 -0.04483007 -0.21457426 -0.44900894 -0.15718754 0.5628084 0.21540244 0.10578927 -0.55533326 -0.23319411 0.5574631 0.22283989 0.5992938
services -1.023107 0.034807432 0.26889014 -0.030150454 -0.19443499 -0.38189763 -0.15074378 0.48730394 0.14533377 0.09173777 -0.49612838 -0.19666627 0.4863262 0.23060375 0.51862633
factset -1.5061905 0.060706895 0.43037242 -0.043041635 -0.30133563 -0.63200605 -0.22545527 0.7303419 0.21989156 0.13408303 -0.7519134 -0.323198 0.7760668 0.31983832 0.7956625
primarily -1.1430004 0.09364423 0.30157185 -0.044487875 -0.23041284 -0.44222867 -0.18345024 0.53812367 0.21254529 0.109320946 -0.58870095 -0.20378336 0.5659958 0.24961035 0.6057137
nonbank -0.99950856 0.059736524 0.28261095 -0.04151127 -0.18277808 -0.406851 -0.13841544 0.46270555 0.15492392 0.11858898 -0.50305295 -0.21652491 0.507692 0.16455162 0.47099465
become -1.1575278 0.04998961 0.31819776 -0.08889818 -0.20968182 -0.490554 -0.2022828 0.5290228 0.18242857 0.1392327 -0.59515417 -0.19505379 0.57413495 0.2364924 0.58022183
betas -0.8790782 0.03148879 0.23014843 -0.015983025 -0.12933144 -0.35555047 -0.1549611 0.433014 0.15358181 0.113970526 -0.3865 -0.17144562 0.3978567 0.19482201 0.43534547
head -1.1327178 0.039543338 0.2882946 -0.06206338 -0.19789411 -0.42900407 -0.18867835 0.4857893 0.21660286 0.079996146 -0.5216769 -0.2086568 0.5337494 0.20873193 0.573102
quarters -1.0543907 0.09900599 0.3067406 -0.042363353 -0.17161691 -0.4078268 -0.18142101 0.4697091 0.17613913 0.11144857 -0.52976114 -0.1716916 0.46870023 0.21271329 0.55231214
fee -0.8181594 0.056620914 0.22615157 -0.047436763 -0.127531 -0.32568467 -0.13593206 0.33316362 0.14140289 0.10998472 -0.37673664 -0.12809904 0.37573463 0.13070469 0.38027418
type -1.0413897 0.075299986 0.27527085 -0.059138454 -0.16618304 -0.4233492 -0.1948023 0.45681223 0.13620313 0.07667292 -0.47062987 -0.21462393 0.4854458 0.23399165 0.48215252
credits -1.3875266 0.06720117 0.42365855 -0.10685338 -0.24185498 -0.55749583 -0.21357396 0.65571874 0.2468882 0.11830294 -0.7120004 -0.28982338 0.6923358 0.29218575 0.7274134
matt -0.68067914 0.067440294 0.17933327 -0.036736526 -0.14925902 -0.2378932 -0.10622152 0.3206119 0.08318375 0.08337642 -0.31310678 -0.098197654 0.31763467 0.118159376 0.36126846
certain -1.1725222 0.091827 0.32490057 -0.07894953 -0.20182325 -0.43538448 -0.18873206 0.5636213 0.18415096 0.10332455 -0.61028874 -0.19317994 0.55789804 0.21496038 0.62839496
course -0.91657513 0.041555338 0.2607042 -0.052086823 -0.14644706 -0.38328242 -0.14385264 0.44758666 0.15837267 0.09880549 -0.42814586 -0.18265745 0.45517135 0.16787058 0.44964412
largely -1.2856661 0.10634633 0.35743853 -0.058419317 -0.27823982 -0.5216776 -0.20959502 0.647959 0.22697349 0.11935145 -0.6313399 -0.21787159 0.6664589 0.24885553 0.65878636
short -0.9241627 0.09084996 0.29700956 -0.05434516 -0.21406628 -0.34451976 -0.12937239 0.47839472 0.13182701 0.10279574 -0.46143943 -0.16913833 0.45363936 0.16856077 0.45557433
started -1.127601 0.05607816 0.2925886 -0.090761 -0.22725059 -0.41185609 -0.18747379 0.4875915 0.19250081 0.14149964 -0.54263693 -0.18342187 0.5400066 0.23388897 0.5255532
board -1.2637225 0.06232045 0.36717278 -0.040964462 -0.24705018 -0.49465364 -0.23011342 0.5763943 0.23239432 0.13736686 -0.6312959 -0.24634586 0.6426385 0.2789756 0.67988956
comes -1.0661315 0.052029137 0.3343001 -0.054275855 -0.1928415 -0.43721938 -0.1710388 0.48275807 0.19407995 0.124134816 -0.52985036 -0.22442321 0.51668376 0.22992045 0.5607118
since -1.0357157 0.053693365 0.3302507 -0.027091399 -0.23550224 -0.43786228 -0.17781846 0.5034981 0.15136632 0.08711873 -0.51040524 -0.17142785 0.48104897 0.22386445 0.48976597
prepared -1.0603461 0.053185422 0.3215208 -0.08509527 -0.23893549 -0.4400751 -0.16089627 0.5125775 0.20524567 0.11780422 -0.5002182 -0.2015688 0.54894245 0.23026574 0.5626946
wed -0.86499715 0.071018435 0.21558656 -0.013848527 -0.13816644 -0.3178146 -0.13548161 0.39285713 0.17078064 0.112637356 -0.40631872 -0.14186564 0.40233517 0.16090119 0.41539913
key -0.8757871 0.08800098 0.2622691 -0.027837418 -0.14259775 -0.3397903 -0.14194044 0.4233694 0.16886465 0.06747147 -0.4415875 -0.19735429 0.46560803 0.20008856 0.47008228
footprint -1.1614304 0.09379304 0.36252326 -0.0924388 -0.2091868 -0.4895485 -0.21410948 0.5588178 0.1952932 0.15706614 -0.6026526 -0.2258823 0.6115776 0.21790734 0.57191384
future -0.91893554 0.07722058 0.26834574 -0.019461896 -0.15330003 -0.3708775 -0.17227605 0.4430105 0.13542496 0.07785187 -0.45972136 -0.15219504 0.46980858 0.20589672 0.45097762
faster -0.801801 0.05359194 0.24651891 -0.06743935 -0.13984193 -0.30524436 -0.1178266 0.37183678 0.10969492 0.09701832 -0.37718013 -0.13346943 0.38744846 0.19017398 0.43271425
moving -1.140572 0.07626827 0.31993374 -0.08454979 -0.17991236 -0.45140722 -0.17787208 0.5175423 0.21127322 0.11072743 -0.57575125 -0.22599658 0.5329914 0.24379201 0.56922567
lets -1.0402397 0.042220406 0.28637794 -0.0648923 -0.1863467 -0.38611808 -0.15477236 0.46637908 0.18039416 0.11839123 -0.53157765 -0.21951908 0.50595516 0.18158595 0.5043167
fixed -0.9339154 0.091471314 0.23845567 -0.06754693 -0.13306513 -0.3514719 -0.13891314 0.4444564 0.17604047 0.10786086 -0.4030174 -0.1637282 0.39661655 0.1797476 0.43564498
losses -1.2384133 0.054497834 0.33819237 -0.051421516 -0.22865725 -0.5106164 -0.20371147 0.6037907 0.22230506 0.15269575 -0.64192253 -0.20693178 0.61336094 0.26319596 0.6281596
try -1.0208405 0.06273679 0.26896724 -0.08592155 -0.21136868 -0.42473128 -0.13369423 0.4734217 0.1422932 0.08305165 -0.47830734 -0.18469383 0.4916999 0.23289934 0.4978045
either -1.0326635 0.07244574 0.31307808 -0.022588147 -0.2117235 -0.39044183 -0.19900666 0.5154726 0.17797098 0.123393945 -0.48900688 -0.21265839 0.47278908 0.19235724 0.53168976
sense -0.7642747 0.052589756 0.20929252 -0.008879217 -0.1289992 -0.3242849 -0.15580857 0.35482684 0.14448987 0.065866984 -0.42153093 -0.16288717 0.3462747 0.1404759 0.4343462
solid -0.71356666 0.025226971 0.17466035 -0.062307917 -0.13037239 -0.25893962 -0.10619931 0.30501324 0.10822533 0.066403136 -0.320037 -0.16570881 0.37705702 0.12230831 0.32472375
though -1.1030756 0.09506917 0.32408646 -0.069076546 -0.19894162 -0.43387857 -0.14642425 0.51021785 0.20897211 0.12334762 -0.5554466 -0.19450843 0.53340614 0.25186947 0.52984
invest -0.7635389 0.042429466 0.21959955 -0.033820067 -0.15828726 -0.28527787 -0.12117982 0.34852427 0.108450666 0.097322464 -0.34958538 -0.1354101 0.3947037 0.14202929 0.38264087
meet -1.0719556 0.08209804 0.28457683 -0.037105054 -0.1942864 -0.43036458 -0.19150063 0.505799 0.1982588 0.11734203 -0.5244181 -0.194299 0.537257 0.19850422 0.5432897
looks -0.808611 0.024363298 0.21231645 -0.033676382 -0.1726913 -0.32214618 -0.15838681 0.40702492 0.1564484 0.085075304 -0.39762518 -0.1561682 0.4112697 0.18243106 0.40886557
additional -0.9061386 0.03793051 0.2355409 -0.056767367 -0.19789183 -0.393472 -0.14741257 0.39303672 0.12509188 0.070627585 -0.42499322 -0.17842305 0.4373318 0.15924345 0.46041214
comments -0.9482643 0.03693816 0.2476269 -0.08267348 -0.18051548 -0.38253933 -0.1745901 0.4459216 0.15221593 0.08929305 -0.47476488 -0.18107466 0.46756202 0.16350181 0.46979895
ai -1.1857893 0.10493943 0.36111814 -0.073632725 -0.24844536 -0.4551119 -0.17524837 0.52138114 0.19797613 0.13627271 -0.5998624 -0.24756403 0.56254137 0.25060588 0.6045451
continues -0.8768263 0.023044562 0.21552779 -0.037925486 -0.16894968 -0.3680443 -0.1165983 0.38900822 0.16696131 0.12173853 -0.44834727 -0.16144788 0.43190843 0.18505432 0.4561586
loss -1.0206865 0.07959432 0.26735973 -0.05681016 -0.22106743 -0.42437872 -0.17970605 0.4581566 0.14760962 0.08812611 -0.501263 -0.21444334 0.50992054 0.1798301 0.5010277
earnings -0.89402443 0.07252822 0.24614693 -0.013185323 -0.1523458 -0.33707738 -0.13438195 0.4372893 0.18007922 0.11891469 -0.45732793 -0.16864318 0.43595532 0.16482861 0.43786412
provide -1.0926217 0.06550733 0.30881843 -0.042747736 -0.23865154 -0.4012641 -0.19514574 0.49573126 0.18785036 0.10223288 -0.56384337 -0.21411064 0.5588102 0.24906592 0.57507825
current -0.8775157 0.03708903 0.25900453 -0.034357887 -0.18500824 -0.38942814 -0.16614512 0.45017222 0.1504321 0.08229488 -0.4687603 -0.19316542 0.45256126 0.16017334 0.43067324
smaller -0.95806 0.04985865 0.27865914 -0.03261515 -0.15680407 -0.4194871 -0.14276783 0.4673218 0.19723278 0.1398782 -0.49233845 -0.19145685 0.47317505 0.21564135 0.53213215
llc -1.4117415 0.06189914 0.40155116 -0.06122214 -0.27634993 -0.53550404 -0.21029477 0.663859 0.20856763 0.17818175 -0.7116472 -0.29190558 0.704795 0.26093134 0.7119121
economic -0.9643222 0.043760337 0.3101322 -0.08133525 -0.1887809 -0.36021888 -0.1373017 0.43578377 0.16488236 0.13489494 -0.47772202 -0.15484998 0.45943564 0.18061766 0.5209111
commitment -0.9441989 0.060747895 0.29299986 -0.044012807 -0.20779362 -0.3423367 -0.14545369 0.4246263 0.13791168 0.12931584 -0.49691623 -0.17467993 0.49500167 0.1766932 0.49545112
acquisitions -0.819783 0.07344301 0.2071269 -0.052439757 -0.13767236 -0.30824497 -0.12071454 0.36420625 0.15373516 0.07942764 -0.40679473 -0.129795 0.38540682 0.1852877 0.43345276
exactly -0.79313105 0.035640817 0.25986505 -0.07205489 -0.1584322 -0.30077544 -0.09836715 0.3746595 0.108149625 0.056012597 -0.3709005 -0.1739724 0.39667 0.1841759 0.42518544
adjusted -0.75049794 0.07026983 0.25254717 -0.060470883 -0.13961168 -0.30988762 -0.1396911 0.33035076 0.14074482 0.06754096 -0.355669 -0.16192402 0.3289511 0.12897982 0.39290872
erika -0.5548731 -0.0006984143 0.17384133 -0.055486392 -0.09444285 -0.25041917 -0.07047173 0.25563392 0.10449789 0.019945407 -0.25686628 -0.09947562 0.30254215 0.10028111 0.30907673
perhaps -0.8409022 0.077014655 0.25301465 -0.015663415 -0.17262945 -0.34558243 -0.103977315 0.43544346 0.14247204 0.12837389 -0.41673645 -0.1416944 0.41812545 0.19856016 0.42822534
hear -0.7242135 0.02045529 0.20732786 -0.009209865 -0.17640871 -0.27775064 -0.13602683 0.374525 0.15563485 0.047969963 -0.36769333 -0.15747458 0.37300164 0.12928863 0.37954634
continued -0.7737971 0.028588794 0.22317664 -0.02228625 -0.13924128 -0.32946533 -0.10529812 0.38827527 0.15001164 0.08655974 -0.36000142 -0.16404898 0.35972 0.16492802 0.37145278
ken -0.6111857 0.040358916 0.15799849 -0.030888023 -0.09450973 -0.2293367 -0.06606705 0.25902325 0.062415328 0.028219787 -0.27847072 -0.10651782 0.32061017 0.10095598 0.298329
saying -0.864214 0.076986976 0.25586134 -0.056402594 -0.17556627 -0.33284172 -0.14439538 0.41238323 0.13882104 0.07470207 -0.4297809 -0.15950924 0.38387856 0.18659177 0.44089085
percentage -0.90912205 0.08890626 0.28812933 -0.045399603 -0.20080596 -0.3924292 -0.17840877 0.43516287 0.17476273 0.063389696 -0.44174477 -0.18323883 0.4590963 0.1522044 0.4499064
companies -1.0796496 0.09750649 0.3270442 -0.069836095 -0.22699647 -0.43422154 -0.17985584 0.5129198 0.20767497 0.14440316 -0.55717397 -0.2037727 0.5021951 0.22233169 0.5680437
results -0.94328964 0.0387496 0.28634104 -0.019495232 -0.164936 -0.41136402 -0.1778249 0.43481568 0.1640478 0.103301264 -0.4725644 -0.17845179 0.4892976 0.2153396 0.50970507
wont -0.84374535 0.03272719 0.2652232 -0.02952902 -0.17085756 -0.32007846 -0.10638377 0.4320221 0.13724767 0.06450571 -0.43568242 -0.16441362 0.4467803 0.17390977 0.43186924
value -1.002734 0.10315646 0.2823542 -0.03760872 -0.21059918 -0.40527743 -0.15633534 0.50872236 0.17950444 0.12311969 -0.49260426 -0.16707063 0.5205452 0.18251342 0.5483164
potential -0.9658582 0.055905566 0.28285837 -0.08342105 -0.16620651 -0.36867133 -0.16056962 0.43395072 0.12986551 0.08642536 -0.46376443 -0.15856458 0.47485045 0.18634509 0.47996062
system -0.766666 0.026317187 0.19451925 -0.019478502 -0.14387625 -0.29552767 -0.101378605 0.36314842 0.14237599 0.07828954 -0.36386725 -0.12042413 0.36134085 0.13360693 0.4123325
gdp -0.6206151 0.017850783 0.16225523 -0.036847286 -0.09913895 -0.25413454 -0.12208544 0.27626812 0.092825346 0.0704962 -0.2840918 -0.1387231 0.2782818 0.12250465 0.3422371
continuous -0.94919616 0.061022915 0.26098755 -0.042889968 -0.18162481 -0.36447212 -0.11356161 0.46687716 0.13766861 0.07714501 -0.44675508 -0.20985141 0.4826513 0.18136974 0.48214996
least -0.9067015 0.072576396 0.26536778 -0.07463757 -0.14666392 -0.31974038 -0.13556866 0.41375297 0.17559505 0.12728694 -0.46660823 -0.19416581 0.43747574 0.17956993 0.4512324
threeyear -0.8586772 0.050631218 0.25130716 -0.06639055 -0.18387648 -0.33469552 -0.110865995 0.3681243 0.13131765 0.06997127 -0.40883335 -0.16209792 0.42567706 0.17072137 0.43676108
efficient -0.71115863 0.053491026 0.22299194 -0.042749032 -0.12406669 -0.2975302 -0.10082043 0.35972437 0.11319582 0.056312136 -0.3467734 -0.14326602 0.33755592 0.13379161 0.36254588
front -0.80913395 0.019205635 0.23176834 -0.016531778 -0.1526537 -0.30853274 -0.10774916 0.37280065 0.14561035 0.07834315 -0.36460283 -0.17336218 0.3996245 0.16123468 0.38898343
reserve -1.0500848 0.05966555 0.29242954 -0.056633227 -0.16339833 -0.40971515 -0.17385419 0.4494494 0.13957977 0.098851226 -0.47683537 -0.16811201 0.50878024 0.2372938 0.5231023
earning -0.8383096 0.039080974 0.23799643 -0.057955157 -0.122286364 -0.2906361 -0.14513588 0.3945074 0.14649321 0.06828181 -0.41751966 -0.13605422 0.3700486 0.15211985 0.40068528
cash -1.138021 0.08840582 0.3240607 -0.054631997 -0.2232297 -0.4735444 -0.17435342 0.55709827 0.17001332 0.11403317 -0.53068733 -0.19661117 0.52468246 0.20077333 0.5504076
beginning -0.7524753 0.044062175 0.22904271 -0.031474337 -0.17516692 -0.30957568 -0.12497911 0.37270275 0.1163128 0.08914845 -0.38879064 -0.124866076 0.34094682 0.19132058 0.4142176
nim -0.8694445 0.025814153 0.27862656 -0.033272333 -0.14720592 -0.35653773 -0.12175531 0.3838418 0.16293147 0.062024303 -0.4262915 -0.15257736 0.3839734 0.15258181 0.43056583
deal -0.9461684 0.033109035 0.2882212 -0.083976224 -0.18355249 -0.35785103 -0.17187907 0.4853786 0.1846715 0.11421535 -0.4894874 -0.1646868 0.47692588 0.17157514 0.46600294
excess -0.79822624 0.073709555 0.25466722 -0.06437948 -0.14077857 -0.33625293 -0.13529839 0.41729346 0.12889758 0.11496927 -0.39235812 -0.1641075 0.39845785 0.17055835 0.40704665
average -0.90450525 0.022356862 0.2354321 -0.0613784 -0.13284415 -0.3596496 -0.16302676 0.43254432 0.15045038 0.069035135 -0.41094834 -0.1482143 0.44784755 0.16756086 0.46529406
chargeoffs -0.7310571 0.067136936 0.24131599 -0.02775103 -0.17636463 -0.27291 -0.1284187 0.36757755 0.14129212 0.049668018 -0.34763005 -0.15760483 0.3742705 0.11665164 0.39436877
fast -1.0473498 0.0927031 0.29136837 -0.060821053 -0.21939322 -0.41542885 -0.15762936 0.53361845 0.16528302 0.12645884 -0.50846255 -0.22777243 0.53074247 0.22457662 0.5652404
driver -0.6952688 0.016801909 0.19068936 -0.04633906 -0.14325237 -0.27319583 -0.0849442 0.35167146 0.10177252 0.044781223 -0.34148058 -0.11038681 0.32030398 0.1677486 0.35128263
update -0.7166644 0.019918118 0.2062048 -0.029450305 -0.12628998 -0.24590808 -0.10210887 0.30341426 0.13996103 0.10314881 -0.330967 -0.15864828 0.35904443 0.109898694 0.3149493
tax -1.0801576 0.1003253 0.33614558 -0.033496983 -0.23021525 -0.42877424 -0.16656199 0.5186185 0.1883395 0.102108926 -0.50567794 -0.17247833 0.5201337 0.21459556 0.5614976
transaction -0.79484284 0.07455417 0.2491311 -0.05627161 -0.13445735 -0.3538705 -0.112939656 0.4084099 0.14294279 0.05964432 -0.42542577 -0.18535699 0.41223186 0.15439627 0.43245828
mids -0.54017216 0.061785705 0.18201739 -0.053790543 -0.09341008 -0.21164681 -0.0655198 0.2838327 0.05667018 0.02998462 -0.24764894 -0.075234294 0.2576829 0.13453855 0.28972015
decision -0.8687907 0.06753558 0.24904566 -0.01369344 -0.14909592 -0.3183797 -0.14749616 0.40870827 0.16292907 0.103532396 -0.42016494 -0.17533782 0.39156303 0.17144088 0.45692128
scale -0.85492027 0.06695811 0.21775194 -0.059249252 -0.18533295 -0.34103197 -0.14524046 0.40170807 0.11069326 0.061465688 -0.43515176 -0.16018465 0.38641456 0.18582582 0.4286104
interested -0.89338255 0.027831351 0.2762371 -0.05768173 -0.15202098 -0.37604848 -0.16720459 0.42482287 0.1352785 0.10341222 -0.4321738 -0.15232734 0.43249586 0.15940113 0.42745742
baked -0.7272762 0.079456784 0.1995058 -0.025270564 -0.14356372 -0.3103508 -0.14552256 0.35213342 0.13853988 0.08110366 -0.35406348 -0.1171566 0.37688842 0.16843225 0.37808654
incremental -0.7655845 0.04043869 0.2311889 -0.067151204 -0.14996763 -0.26916286 -0.11433064 0.35823423 0.09046738 0.06024852 -0.3938358 -0.1618606 0.33454686 0.17091484 0.38823548
beyond -0.8241273 0.08391375 0.2703725 -0.041140925 -0.19036953 -0.34067047 -0.11444631 0.38061318 0.1113292 0.1164084 -0.42241067 -0.12562625 0.4288415 0.18094027 0.38980943
heard -0.83252895 0.04364002 0.23474185 -0.033503667 -0.13551535 -0.325713 -0.15893227 0.4090695 0.1591313 0.07365988 -0.39644897 -0.17504084 0.38826942 0.17668821 0.40783167
debt -0.95128405 0.0568007 0.2816309 -0.026734903 -0.19999662 -0.35892326 -0.13054413 0.4590178 0.17099786 0.096018225 -0.45216063 -0.20626482 0.50208294 0.16397113 0.47756627
contact -0.8743986 0.080617495 0.22276421 -0.072038576 -0.1553908 -0.36888286 -0.15670817 0.39560026 0.16271494 0.058960043 -0.4324967 -0.19028214 0.4355666 0.15297875 0.47189683
recently -1.0231844 0.08869202 0.31613407 -0.060520608 -0.20431258 -0.4065958 -0.17901652 0.4774822 0.1921268 0.10942137 -0.5052502 -0.16994892 0.49764445 0.17888531 0.54095846
ways -0.73415065 0.051908556 0.19599591 -0.066632114 -0.14187948 -0.2596956 -0.10381289 0.3383697 0.12507582 0.057123527 -0.36431953 -0.10581933 0.33723792 0.13756262 0.33547798
larger -0.7882983 0.032174617 0.21712674 -0.020740978 -0.17973177 -0.28156275 -0.11786096 0.3492056 0.101816416 0.06746166 -0.39001188 -0.1462857 0.36659357 0.18279131 0.41473797
card -1.0150496 0.06366502 0.29358003 -0.025610186 -0.20112011 -0.3937133 -0.16849983 0.5028194 0.19713187 0.07647209 -0.5203282 -0.20917583 0.46794653 0.19523256 0.47697943
consistent -0.71336895 0.05729421 0.19795139 -0.021575702 -0.11723976 -0.31276083 -0.1491936 0.34005234 0.13316257 0.07638224 -0.3330501 -0.16934605 0.36776394 0.12528916 0.34247425
profile -0.68053627 0.070339814 0.22958957 -0.024887161 -0.10710689 -0.24390006 -0.11230037 0.35906786 0.09054317 0.05540906 -0.32292053 -0.15952784 0.36693975 0.14520423 0.3543024
easier -0.51323026 0.060775027 0.18041128 -0.03399965 -0.09848343 -0.18194324 -0.10683858 0.24634783 0.11961255 0.046144366 -0.2350962 -0.09720993 0.25239334 0.072792 0.26490584
yield -0.89122736 0.046551257 0.26215383 -0.06334055 -0.15957765 -0.3607176 -0.113565974 0.41164455 0.15608647 0.10256774 -0.45142642 -0.18685804 0.46112868 0.19035079 0.47431993
strong -0.8247196 0.07461448 0.26382086 -0.046544526 -0.17670968 -0.34146252 -0.15224318 0.3678261 0.13167332 0.094577566 -0.38515538 -0.18102506 0.36782652 0.17867199 0.39035675
managing -0.8748185 0.035038248 0.24803591 -0.07363541 -0.14802861 -0.37580413 -0.13924251 0.38920003 0.12329882 0.094169416 -0.3986147 -0.1605193 0.4336734 0.18120907 0.42489514
information -1.439432 0.114743635 0.3895438 -0.062099688 -0.2500433 -0.5376725 -0.20241909 0.6875324 0.24823375 0.17488718 -0.6743857 -0.26824024 0.6927111 0.31314144 0.7250832
starting -0.9057679 0.045069635 0.26813272 -0.074260786 -0.17956765 -0.3770381 -0.17690586 0.4520931 0.18271706 0.08985969 -0.43394166 -0.13674614 0.4289495 0.1626927 0.46335462
buyback -0.7816333 0.046322722 0.25058237 -0.045808166 -0.1538541 -0.30740023 -0.13032414 0.3596921 0.16439125 0.07253243 -0.4015771 -0.13549155 0.40102336 0.14573067 0.42738444
swaps -0.9491596 0.04154896 0.28834534 -0.033758536 -0.16028005 -0.4082054 -0.12861279 0.45883682 0.15927124 0.09463596 -0.47258946 -0.19652937 0.4311841 0.16126719 0.4799926
gone -0.88052356 0.06432181 0.27405062 -0.035829056 -0.14971763 -0.35323694 -0.10854362 0.37237635 0.11654695 0.05954467 -0.39027405 -0.16991639 0.43866113 0.19093953 0.41785365
clients -0.8036422 0.07991519 0.20080572 -0.02348394 -0.17574766 -0.30909622 -0.14453647 0.36519128 0.14876445 0.076159365 -0.40445086 -0.11961094 0.3819013 0.18157765 0.41473684
generally -0.92258584 0.04977095 0.28145155 -0.050572682 -0.15758339 -0.38961154 -0.16716675 0.4006154 0.14873594 0.108421974 -0.42146143 -0.18004471 0.46362936 0.1578154 0.4870198
servicing -0.92285323 0.083199926 0.27594817 -0.03440149 -0.17804037 -0.37821046 -0.16721098 0.469674 0.15985051 0.08787467 -0.49397084 -0.19172092 0.46286008 0.16965957 0.46785006
later -0.7566318 0.05968263 0.24831101 -0.056355286 -0.17037499 -0.2836309 -0.1439689 0.35680073 0.1518604 0.06762486 -0.37815905 -0.16859266 0.410155 0.15079762 0.3942525
gets -0.9654647 0.08345365 0.26006657 -0.056189314 -0.17573982 -0.40983507 -0.1644694 0.45734426 0.15200743 0.13395566 -0.45910224 -0.20707934 0.49150816 0.16913232 0.5233974
production -0.94188625 0.05048616 0.27185127 -0.03949571 -0.16972682 -0.37700117 -0.14955994 0.39894897 0.13326506 0.12654553 -0.48524442 -0.1648146 0.45966133 0.16286513 0.48683566
comment -0.7363449 0.05165026 0.23610857 -0.050695512 -0.13147849 -0.31106195 -0.14951265 0.36111444 0.15628278 0.059288066 -0.37467113 -0.17389385 0.39511544 0.16832231 0.39367637
systems -1.0618067 0.08525114 0.29232526 -0.058773246 -0.23975492 -0.3992248 -0.13604888 0.4804984 0.20664139 0.13310207 -0.54270333 -0.2143227 0.5106654 0.21161067 0.54007775
havent -0.8857373 0.0428629 0.22270626 -0.053400166 -0.13162455 -0.34077588 -0.14243676 0.39211452 0.11625191 0.1056962 -0.40700746 -0.13063286 0.40307713 0.14246763 0.4174936
size -0.6686921 0.061125845 0.21147914 -0.0020913654 -0.12291152 -0.28184175 -0.09122672 0.31981793 0.14318368 0.10044963 -0.34439036 -0.15225144 0.32137063 0.12839186 0.37041414
places -0.56132656 0.064327836 0.19358519 -0.055807326 -0.10496405 -0.20201269 -0.09735713 0.26667157 0.11752398 0.07793161 -0.25139263 -0.123300195 0.2762722 0.11351989 0.25271747
together -0.6998766 0.04281783 0.23053019 -0.051756233 -0.14062394 -0.28033763 -0.10062492 0.32210737 0.12885849 0.10358512 -0.35135025 -0.170068 0.3375609 0.15955178 0.34453246
products -0.9430918 0.08060411 0.28908965 -0.047225878 -0.16776487 -0.36070648 -0.15611875 0.4231009 0.13736099 0.08319219 -0.48078963 -0.16776729 0.44482222 0.1998706 0.43883756
metrics -0.7615387 0.07005386 0.21725592 -0.0319671 -0.13651203 -0.31975114 -0.09627644 0.3163783 0.108367324 0.10518093 -0.3678516 -0.15335897 0.38749692 0.1627099 0.36503655
criticized -0.9069805 0.08017098 0.26888683 -0.058371946 -0.14077936 -0.35424808 -0.14236602 0.39093244 0.12385369 0.107471496 -0.45443386 -0.1353898 0.40274706 0.20267175 0.44881397
duration -0.81813556 0.025956344 0.22384721 -0.045549344 -0.13146766 -0.3056642 -0.123320356 0.40905362 0.14038119 0.119565435 -0.3724267 -0.12575504 0.38249865 0.19062825 0.41437468
pick -0.8056184 0.08174902 0.20302618 -0.036715508 -0.14298987 -0.28435987 -0.11070686 0.34481618 0.1578106 0.077114895 -0.38786322 -0.1267846 0.39681488 0.15507738 0.39303404
respect -0.80170745 0.054588832 0.2146102 -0.06635783 -0.1552948 -0.30917862 -0.10394763 0.3463714 0.1516627 0.113936126 -0.38057345 -0.14112888 0.34346423 0.1291674 0.41492566
activity -0.9233588 0.03859127 0.24597909 -0.06861636 -0.14404222 -0.3883069 -0.13821943 0.41450378 0.14045498 0.07734594 -0.4338568 -0.17709012 0.46594903 0.19412106 0.49208772
consistently -0.8398723 0.03576477 0.23814774 -0.025555698 -0.14049402 -0.31254083 -0.13662863 0.4243966 0.16796046 0.083663434 -0.3913786 -0.15414965 0.38285735 0.20083158 0.3988631
investing -0.826098 0.06891733 0.26263696 -0.07128427 -0.14101464 -0.31928787 -0.14042796 0.37496826 0.17026985 0.12359784 -0.43505943 -0.18435647 0.40579677 0.19666184 0.41131067
confidence -0.6257566 0.02736206 0.17508578 -0.025441397 -0.116136625 -0.2670841 -0.09644649 0.27525744 0.08550075 0.034819458 -0.32442498 -0.10899941 0.28712782 0.13354406 0.3088391
giving -0.7310433 0.03494879 0.2106929 -0.012347754 -0.11749218 -0.32042125 -0.1398284 0.36273995 0.11048375 0.057904918 -0.41018045 -0.11477321 0.38415733 0.16807352 0.3867066
grew -0.82963187 0.06098277 0.22864696 -0.067035966 -0.1472586 -0.32843405 -0.12512004 0.3746115 0.123896025 0.11804926 -0.39525613 -0.14935334 0.37809864 0.17076093 0.4130029
enough -0.77059174 0.06344771 0.25605467 -0.025674831 -0.13118142 -0.32694334 -0.15507346 0.35766265 0.15005463 0.08406073 -0.3564344 -0.15333496 0.4000511 0.17372115 0.38180077
five -0.66541183 0.02417814 0.15547545 -0.025140518 -0.11757006 -0.24749048 -0.07801127 0.28117546 0.13255256 0.0649883 -0.33328676 -0.14388235 0.32702407 0.14280787 0.32497758
digit -0.68669075 0.07070252 0.23536025 -0.011949797 -0.14184256 -0.28041083 -0.12769365 0.3481718 0.10078427 0.07576934 -0.37720245 -0.13922083 0.33136454 0.1633327 0.33483616
challenge -0.6394626 0.061199892 0.16530894 -0.06824883 -0.11409984 -0.23027645 -0.07791124 0.30772752 0.14196093 0.044982694 -0.35260412 -0.1260277 0.31622985 0.10109506 0.3558689
deron -0.66322476 0.071617655 0.17700133 -0.055595458 -0.13915281 -0.30997133 -0.088437706 0.31359327 0.09331064 0.05795135 -0.35519227 -0.13183787 0.33128288 0.14600159 0.31991
acquisition -0.9342108 0.04635473 0.25806025 -0.028669396 -0.1616592 -0.38490593 -0.117823705 0.45319837 0.18030453 0.11012548 -0.44974878 -0.17732114 0.4082411 0.1776094 0.48452398
corp -0.7542241 0.0731482 0.20815007 -0.059610832 -0.13298891 -0.28263244 -0.096441485 0.34461802 0.1294012 0.107665986 -0.37410542 -0.1463766 0.3819386 0.13033983 0.37314078
sustainable -0.69656 0.0194039 0.17878203 -0.06466102 -0.15495726 -0.2973586 -0.10996286 0.3310267 0.09056866 0.07304141 -0.3460368 -0.14908633 0.35001856 0.1538835 0.34226072
running -0.64955944 0.04496383 0.18112007 -0.047992587 -0.102686435 -0.22699152 -0.09590672 0.32263833 0.13465336 0.04700139 -0.3166025 -0.118285 0.3047655 0.12272834 0.32188374
case -0.8977269 0.034602124 0.2455257 -0.045304462 -0.15593724 -0.3499133 -0.11433604 0.4481516 0.1193459 0.12129346 -0.45547006 -0.17647983 0.42467028 0.17039126 0.440519
forecast -0.67543024 0.06496331 0.19891098 -0.0606114 -0.13518481 -0.28442192 -0.084809616 0.314331 0.0836214 0.05993521 -0.34898585 -0.10058901 0.33111173 0.1005263 0.34754172
putting -0.8929757 0.073139094 0.26710507 -0.08329028 -0.17325802 -0.3345363 -0.17894405 0.40285748 0.13390788 0.10853757 -0.48177716 -0.1980798 0.47178197 0.17323667 0.45599225
benefits -0.6513572 0.020701619 0.17338525 -0.062153686 -0.15217277 -0.2764614 -0.13953729 0.3408891 0.09200429 0.046889093 -0.34746072 -0.14482984 0.34916222 0.14934583 0.3203209
betsy -0.42692006 0.037551984 0.1461517 -0.0038311987 -0.054316875 -0.13821074 -0.04144636 0.20800443 0.052391056 0.04949278 -0.2000491 -0.10649021 0.21773148 0.0723101 0.18526715
pace -0.65361565 0.02213111 0.19188191 -0.017510282 -0.094142534 -0.23832281 -0.10990431 0.30770588 0.09902042 0.088392265 -0.32510704 -0.14853567 0.2962719 0.1404084 0.33356598
expected -0.683919 0.018117074 0.18003058 -0.008874612 -0.12580134 -0.27593935 -0.12724331 0.28043464 0.083573975 0.060555488 -0.35867247 -0.13394827 0.34702736 0.10718078 0.31242847
fair -0.8717029 0.07970237 0.26803762 -0.05613463 -0.18280628 -0.33481154 -0.10007465 0.37167677 0.14047973 0.08773078 -0.42563266 -0.14450623 0.43818483 0.14127567 0.45152557
model -0.8990658 0.08855264 0.24347097 -0.07625317 -0.16573349 -0.36811224 -0.1296917 0.41445407 0.15219367 0.08742869 -0.44909418 -0.14916924 0.41470674 0.17063467 0.44440964
seems -0.78195614 0.04581714 0.20809154 -0.044160884 -0.17402172 -0.28600734 -0.14763431 0.37763754 0.114608325 0.11342411 -0.3720287 -0.1794002 0.38887322 0.140353 0.37981692
makes -0.9057879 0.057807487 0.25785756 -0.034748923 -0.15157405 -0.35636827 -0.15199174 0.42151076 0.17821729 0.10060011 -0.42841387 -0.14004482 0.4026322 0.15756959 0.4491192
preferred -0.82096267 0.03153206 0.2229277 -0.021851117 -0.121134676 -0.30639064 -0.09469989 0.38484025 0.10824611 0.09220333 -0.38483185 -0.13815413 0.40334687 0.15606393 0.3823294
expensive -1.0577306 0.08551923 0.29610914 -0.03275897 -0.20051882 -0.42780867 -0.17126144 0.49358472 0.1782057 0.11461348 -0.50728774 -0.1640068 0.4986963 0.19457449 0.49752632
closer -0.67775077 0.050619077 0.2327088 -0.068221755 -0.12759279 -0.25666854 -0.0906582 0.30386844 0.14729702 0.09574808 -0.36394632 -0.13379507 0.32588235 0.123929 0.3559696
several -0.8623589 0.024040015 0.24597466 -0.054957267 -0.17779374 -0.347119 -0.12125603 0.41309774 0.13602011 0.06501889 -0.40664747 -0.15554152 0.43852827 0.15950376 0.41997546
bigger -0.77515 0.059107278 0.25548404 -0.056162126 -0.14369814 -0.31832054 -0.14051758 0.34728423 0.14170025 0.11344433 -0.3848592 -0.1488954 0.39148042 0.14624435 0.41686267
shared -0.9408902 0.06340956 0.3057961 -0.06345557 -0.15070684 -0.35077173 -0.15828454 0.44818813 0.13268362 0.07702079 -0.47241247 -0.14406256 0.43349084 0.15510534 0.48256925
laid -0.79567957 0.018224264 0.23564953 -0.01978365 -0.15603727 -0.26962665 -0.15562208 0.3934612 0.09925503 0.06529636 -0.40115103 -0.14812882 0.37832654 0.1776166 0.4141752
large -0.8277654 0.07430777 0.24562605 -0.023110563 -0.12047121 -0.32216373 -0.11781014 0.35869998 0.13383493 0.119704396 -0.36087948 -0.18162142 0.37987545 0.15563846 0.38958094
stock -0.69815606 0.034405567 0.19199215 -0.05100817 -0.1622023 -0.312445 -0.13464445 0.36487156 0.12637818 0.06650267 -0.34296027 -0.11684075 0.32196286 0.13493629 0.39277303
client -0.8223192 0.059400413 0.252095 -0.081190854 -0.14023982 -0.36013567 -0.17060226 0.42345637 0.13256198 0.0969634 -0.44957966 -0.18038721 0.42093858 0.14477581 0.42287284
allow -0.6244648 0.06436913 0.18315515 -0.057164863 -0.113885365 -0.24064298 -0.1258478 0.26775715 0.09119585 0.062572986 -0.3324759 -0.091994 0.31831035 0.15303282 0.33419177
form -0.76567227 0.050989274 0.22732808 -0.029428802 -0.1237269 -0.31979325 -0.14075172 0.383315 0.119612634 0.051467363 -0.3668519 -0.14240678 0.39248055 0.16279916 0.36541867
callstreet -1.0812504 0.047583133 0.33235303 -0.058037024 -0.2046371 -0.43947458 -0.17225154 0.5187571 0.19902265 0.14706059 -0.5583537 -0.21588898 0.5569052 0.22980188 0.5295414
product -0.8453575 0.060343344 0.2707862 -0.060992718 -0.19725147 -0.34548593 -0.106742136 0.42410704 0.1734645 0.119856805 -0.41833398 -0.1871903 0.41217119 0.19552799 0.47361538
trade -0.6873713 0.031146806 0.19067822 -0.014265797 -0.13117461 -0.2695064 -0.08430018 0.29557925 0.11487401 0.06863119 -0.3335636 -0.13235423 0.3385528 0.1038623 0.33826056
takes -0.64653087 0.0244637 0.20840405 -0.046822194 -0.13083701 -0.2946544 -0.1316379 0.31296432 0.09028026 0.10081094 -0.29838994 -0.152716 0.34156352 0.16169445 0.3151674
transactions -0.85895544 0.051765002 0.22767125 -0.0491718 -0.18860446 -0.354424 -0.16230105 0.39981568 0.17275369 0.06345321 -0.44771144 -0.1410568 0.4097666 0.18809545 0.4118252
open -0.75074077 0.021122707 0.2038272 -0.03619588 -0.1749203 -0.34009182 -0.1444808 0.35971832 0.15261328 0.06870981 -0.39086878 -0.15871358 0.36327684 0.1352483 0.37643275
channel -0.7713842 0.04951467 0.23947534 -0.0065170196 -0.17761503 -0.3166411 -0.12752575 0.36970696 0.13109903 0.08253243 -0.37351885 -0.16508053 0.3453582 0.1445386 0.3668575
small -0.7086529 0.01266915 0.18012537 -0.016746411 -0.15552719 -0.2675678 -0.111287594 0.30864906 0.10127055 0.09908047 -0.338135 -0.10409365 0.35188097 0.14840883 0.3405223
pipelines -0.6368607 0.04343401 0.1716554 -0.03585989 -0.11182526 -0.28439936 -0.07469198 0.29987735 0.08176249 0.09873179 -0.34386012 -0.1557556 0.34233606 0.15231842 0.2930471
happens -0.7532401 0.031874936 0.22975159 -0.04382719 -0.11547268 -0.26812422 -0.13743433 0.36410615 0.1354991 0.098800026 -0.3820621 -0.12677276 0.35444424 0.15978663 0.35741693
effectively -0.8558498 0.042513378 0.22723816 -0.045808263 -0.13630693 -0.35743895 -0.16724592 0.39786404 0.111342035 0.105392165 -0.42716736 -0.17814 0.3934803 0.15517433 0.45772323
sector -0.9650461 0.036888383 0.29396677 -0.07069416 -0.18969263 -0.3719056 -0.16530335 0.43510273 0.15372469 0.087473564 -0.4499041 -0.1948495 0.46814376 0.16646174 0.48759633
derisking -0.8013133 0.056651358 0.19583565 -0.026286654 -0.1573225 -0.28756198 -0.10290903 0.37672958 0.14183472 0.10146642 -0.41480547 -0.12771177 0.38458392 0.14484163 0.39962062
balances -0.8443588 0.052729532 0.2597251 -0.014385034 -0.16750841 -0.32563078 -0.13758467 0.39536846 0.12836449 0.09743694 -0.40512756 -0.12562555 0.41349974 0.18264642 0.4310898
fund -0.60951245 0.059163947 0.2126921 -0.059865747 -0.10382942 -0.2678574 -0.09586863 0.31959635 0.09034591 0.08932392 -0.3297129 -0.084668286 0.30410352 0.12007873 0.32324195
funding -0.7440601 0.06056762 0.21960236 -0.026436467 -0.11507446 -0.26669523 -0.11558395 0.3545508 0.14345339 0.07036335 -0.35963777 -0.13498607 0.32449734 0.17371957 0.34746906
optimize -0.4795497 0.02014111 0.113325946 -0.013351479 -0.061072577 -0.19915128 -0.104890265 0.20318659 0.06591684 0.057282664 -0.20506063 -0.05726398 0.2486052 0.124973364 0.23643655
national -0.8581431 0.07695878 0.27410612 -0.029873446 -0.16947474 -0.30567685 -0.1059192 0.3847382 0.142253 0.11662944 -0.40366668 -0.16179284 0.43560553 0.16661912 0.4034413
hit -0.7907914 0.08329048 0.23641627 -0.014258064 -0.1711878 -0.31581756 -0.11106292 0.38839173 0.10107735 0.10466252 -0.38485703 -0.16759506 0.41617683 0.17993638 0.36607832
parts -0.6822231 0.015383967 0.22066852 -0.036876295 -0.15988483 -0.26552454 -0.10050653 0.3016547 0.14502923 0.098373376 -0.32513222 -0.15399803 0.3078975 0.104802825 0.36303392
