1441 15
think 1.2168617 -0.54827464 -1.0717536 1.6682235 1.4654865 0.21198133 -1.2648287 0.3911612 0.3736546 -0.42351392 -0.08999014 1.3565944 0.88841957 0.98864055 -0.4105083
us 1.309936 -0.58234584 -1.1317241 1.8204976 1.536294 0.16148612 -1.406873 0.40593138 0.371021 -0.5151454 -0.10007422 1.4238809 0.93552995 1.1255683 -0.40235448
good 1.1394498 -0.47902936 -0.99246675 1.6823916 1.3291875 0.1893625 -1.0975325 0.34675983 0.26571485 -0.52308774 -0.16950586 1.319504 0.72421753 1.0172621 -0.43211442
going 1.241292 -0.5728584 -1.0779892 1.671751 1.4716434 0.15411739 -1.2391943 0.38828018 0.4008 -0.41959694 -0.088207304 1.2920038 0.8373759 1.0333291 -0.36291423
weve 1.4561855 -0.61729866 -1.257204 1.9649693 1.6500916 0.22752896 -1.5108094 0.42563698 0.39387125 -0.5880769 -0.12381554 1.5302582 1.0020937 1.2029512 -0.47870576
growth 1.2250617 -0.4654446 -0.97115237 1.6130257 1.3802142 0.17650688 -1.1851475 0.33740112 0.40820572 -0.43876716 -0.15165004 1.2663842 0.81001383 0.9439806 -0.37326768
well 1.2595401 -0.51683116 -1.0737584 1.7166004 1.4607587 0.19403122 -1.2729797 0.36626044 0.37190375 -0.43469205 -0.09957257 1.3563844 0.8730713 1.0113554 -0.40584815
year 1.2343761 -0.51857746 -1.0940323 1.6942831 1.4027499 0.16304304 -1.2468975 0.39720842 0.38978246 -0.4248561 -0.15061612 1.2693936 0.81512207 1.0032337 -0.35295326
thats 1.24291 -0.5635326 -1.076278 1.72431 1.4631536 0.19961101 -1.3170471 0.404402 0.38306922 -0.47559205 -0.0999766 1.3201617 0.8780949 1.0024321 -0.4137515
would 1.2990466 -0.60293084 -1.107753 1.762484 1.5334082 0.18500759 -1.3589195 0.440586 0.43730506 -0.4916079 -0.093216054 1.4106829 0.8586425 1.0450107 -0.3699922
really 1.3145114 -0.5372107 -1.1332315 1.7931103 1.5482445 0.16320756 -1.3557606 0.39656273 0.39742956 -0.46199983 -0.151636 1.4429876 0.9100647 1.1073592 -0.4089277
see 1.27354 -0.50804126 -1.0557077 1.6622311 1.4848142 0.20659117 -1.3115888 0.36625907 0.37565172 -0.4446938 -0.14785416 1.3291204 0.89195126 0.9949843 -0.40805832
get 1.2398138 -0.5325191 -1.0345097 1.6314945 1.4526062 0.1564596 -1.2781541 0.36344782 0.34840217 -0.41697168 -0.07431102 1.3161745 0.87314934 0.99136573 -0.3474057
business 1.2405311 -0.5338871 -1.1005629 1.7104064 1.4532715 0.14805691 -1.242702 0.37270918 0.39440164 -0.41970435 -0.100288436 1.3657926 0.8763522 1.0441921 -0.38992718
yeah 1.0365072 -0.3961752 -0.86844283 1.4223633 1.1750687 0.17670426 -1.0416688 0.35726595 0.28538027 -0.3892572 -0.13379198 1.1152257 0.7104464 0.8598737 -0.33093047
time 1.2599996 -0.533525 -1.0579048 1.6861004 1.4632646 0.20018777 -1.2753438 0.44159514 0.4210575 -0.49576694 -0.1384459 1.321712 0.89670634 1.0212525 -0.4055075
capital 1.1873009 -0.5505301 -1.0066894 1.6266958 1.425235 0.18246731 -1.214463 0.40405723 0.37501484 -0.44712678 -0.10665756 1.3467023 0.89528054 0.9548408 -0.37392342
quarter 1.260883 -0.5371786 -1.0646034 1.7842046 1.5319393 0.15298697 -1.2668387 0.38292745 0.4438463 -0.48964286 -0.1557422 1.3476068 0.81889516 0.9759092 -0.3644691
continue 1.2503684 -0.5535537 -1.002523 1.6191194 1.4231037 0.14764926 -1.2377433 0.40973482 0.38950276 -0.42568743 -0.06945576 1.3154334 0.85487247 1.0171705 -0.36915654
little 1.2032057 -0.57408285 -0.9703194 1.6864867 1.4680173 0.19721428 -1.2869825 0.43030742 0.38713688 -0.43413168 -0.1264485 1.2649673 0.79425985 0.95258796 -0.42393234
one 1.2498398 -0.5399473 -1.0317898 1.6443865 1.4026881 0.16273959 -1.2936466 0.41106167 0.36608207 -0.45434767 -0.13063462 1.3415377 0.8638588 1.037417 -0.33974975
grow 1.1659044 -0.47517473 -0.98408115 1.575282 1.3759516 0.12672627 -1.174082 0.35750556 0.34840056 -0.4056992 -0.08362758 1.1904061 0.8110398 0.9634326 -0.3465159
loan 1.2424182 -0.51620066 -1.06874 1.7273334 1.4728395 0.12629122 -1.2807292 0.40811414 0.42034656 -0.4237267 -0.16161683 1.3273734 0.8693923 1.0113143 -0.36274529
right 1.1511238 -0.4888701 -1.0325358 1.621519 1.4026568 0.21319461 -1.2659247 0.41709366 0.34803274 -0.44121465 -0.08178064 1.2699922 0.86232257 0.96973103 -0.38234058
bit 1.0711572 -0.47019655 -0.93920654 1.5155585 1.3125824 0.18399884 -1.2018636 0.37753683 0.3910847 -0.41504493 -0.14994082 1.2178642 0.70958 0.83522904 -0.34929222
dont 1.146534 -0.48604313 -0.973878 1.5641583 1.3607429 0.19250654 -1.1988117 0.37914124 0.356891 -0.4405206 -0.065670796 1.2086334 0.7722697 0.95284206 -0.34360558
look 1.2215416 -0.5345269 -1.0121017 1.6477643 1.4144307 0.17321602 -1.1991656 0.3593702 0.34469962 -0.45901105 -0.09947257 1.2861916 0.80122876 0.9708748 -0.3600674
youre 1.2501435 -0.5368762 -1.0891699 1.788645 1.4313022 0.23818687 -1.348266 0.44424433 0.3821767 -0.47097495 -0.14560828 1.374079 0.8954115 1.052403 -0.350126
lot 1.3383541 -0.55416805 -1.146168 1.773958 1.512203 0.18799077 -1.3231422 0.40700585 0.3590727 -0.43951407 -0.09622221 1.4417744 0.91744906 1.0453386 -0.42347905
deposit 1.2430689 -0.5174875 -1.1047965 1.7293279 1.468183 0.19534633 -1.3537164 0.411654 0.41771615 -0.45331633 -0.1721283 1.3632534 0.8994377 1.0702387 -0.39337832
like 1.2868332 -0.56810695 -1.064124 1.7459645 1.4597168 0.18703447 -1.2846352 0.40257525 0.36636433 -0.47323328 -0.12265377 1.3843632 0.8576754 1.0343571 -0.3868618
morning 0.78531307 -0.17352177 -0.58595705 1.1071786 0.79416883 0.060023222 -0.7880052 0.17277353 0.15922922 -0.348593 -0.13241567 0.86927384 0.3962964 0.61714005 -0.28125
rate 1.3346527 -0.59636086 -1.166557 1.8010589 1.5364733 0.18606178 -1.421149 0.44696662 0.45529038 -0.46624246 -0.1273055 1.3642633 0.9308299 1.1010605 -0.41014075
consumer 1.2113299 -0.5256718 -1.0376043 1.642696 1.4066186 0.17361459 -1.2433258 0.37935835 0.3333437 -0.43425694 -0.07910581 1.2406305 0.7857105 0.97182214 -0.4209368
want 1.1146913 -0.5034346 -0.97893816 1.5280594 1.3099512 0.1200475 -1.1387528 0.35888156 0.31373963 -0.37015975 -0.06669027 1.1732883 0.7382495 0.9122168 -0.35357583
markets 1.1035398 -0.48718706 -0.9177001 1.5310199 1.3009107 0.13277681 -1.1532297 0.31477332 0.33899832 -0.3898907 -0.09141006 1.2506934 0.8143078 0.9277948 -0.33519155
question 1.0861734 -0.47747287 -0.92173016 1.5076073 1.2347531 0.14956743 -1.0827991 0.32210082 0.29592055 -0.35557267 -0.12718475 1.215166 0.69585896 0.9054471 -0.38663068
things 1.16267 -0.4821697 -1.0402395 1.6101542 1.3780705 0.15772536 -1.1995963 0.34900787 0.39080536 -0.4337303 -0.100787826 1.2704437 0.80133253 0.97350156 -0.36752403
kind 1.09497 -0.4807317 -0.9191805 1.538574 1.2540772 0.1649509 -1.1138313 0.36584353 0.3497137 -0.40180165 -0.11266112 1.2081219 0.7599769 0.8819618 -0.35463983
make 1.2155101 -0.4804007 -1.0896358 1.612928 1.376793 0.13690555 -1.2020158 0.38148195 0.39608994 -0.40246958 -0.05603307 1.3354428 0.86356246 1.0367788 -0.3534534
still 1.2049005 -0.54452145 -1.0878735 1.6836394 1.4206692 0.1932692 -1.2899604 0.39733806 0.36933604 -0.48572513 -0.098681696 1.3074573 0.8783133 1.0289482 -0.4029417
customers 1.3308053 -0.57937783 -1.1779267 1.8108058 1.5372033 0.18690217 -1.3431816 0.43951893 0.3816993 -0.47233027 -0.1170652 1.4780114 0.9367283 1.0881385 -0.4343044
could 1.1326944 -0.5261052 -0.99513084 1.5819893 1.3511715 0.1762574 -1.2002692 0.36627337 0.3238982 -0.3989853 -0.11537319 1.215113 0.7464526 0.9228832 -0.3857425
basis 1.2159228 -0.6146163 -1.2025474 1.7625799 1.5016679 0.10155323 -1.3230485 0.46700472 0.45964283 -0.6408015 -0.05645523 1.2627716 1.069153 1.1442544 -0.35855857
got 1.0407718 -0.4526404 -0.8886916 1.3467534 1.182552 0.15294051 -1.0450159 0.33204594 0.23608583 -0.36352375 -0.12548028 1.1257178 0.67278266 0.85004735 -0.34983814
back 1.2211488 -0.47572652 -1.016755 1.67192 1.3672523 0.18648657 -1.2473916 0.3835941 0.34748548 -0.3983699 -0.14517826 1.2479153 0.7956712 0.98334855 -0.33449712
much 1.1327548 -0.49906066 -0.95645964 1.5355561 1.3189701 0.18657507 -1.1821363 0.344399 0.29563612 -0.3955661 -0.14064975 1.1917323 0.8035402 0.9512528 -0.3823456
go 1.1120261 -0.52475226 -0.96893096 1.5740166 1.2971427 0.15728022 -1.1864201 0.35788557 0.33017382 -0.41303056 -0.11933132 1.2490681 0.77483064 0.90649337 -0.31561995
side 1.0365711 -0.42118114 -0.8486096 1.3992919 1.1824563 0.15265036 -1.0891242 0.33708036 0.2881835 -0.3368085 -0.066097826 1.115948 0.7463607 0.86712503 -0.3573925
years 1.263155 -0.53882325 -1.0618278 1.6458566 1.401201 0.17871241 -1.2735351 0.3981347 0.41800344 -0.48352116 -0.1009623 1.3310467 0.8206242 0.98721373 -0.3550583
okay 0.9556081 -0.40933305 -0.7998162 1.3424232 1.0766064 0.12417776 -0.97687757 0.3548926 0.22297621 -0.35600987 -0.14758463 1.0816089 0.62249124 0.8113541 -0.30230945
maybe 1.2284942 -0.49087167 -1.0089676 1.6874274 1.3903747 0.17457859 -1.2790287 0.3644454 0.35525957 -0.45568362 -0.15175693 1.3258129 0.83626 0.9655483 -0.36276639
point 1.133156 -0.4653078 -0.9731457 1.5125567 1.3013664 0.17242207 -1.1597133 0.34130046 0.35087454 -0.4170383 -0.081386246 1.2112935 0.7663222 0.95129573 -0.34850308
last 1.1803273 -0.4712279 -1.00921 1.6108598 1.3379807 0.15102215 -1.2232313 0.40314758 0.35262504 -0.42773196 -0.12373382 1.2745119 0.77345014 1.003699 -0.39075842
thank 0.7109592 -0.31405428 -0.6699159 1.0176556 0.85992306 0.11747605 -0.83065504 0.24932967 0.17213534 -0.24227123 -0.10762574 0.856171 0.51767015 0.6336111 -0.2274823
first 1.049506 -0.4248791 -0.8670227 1.5039283 1.2556185 0.12732546 -1.0881106 0.37020287 0.31921977 -0.3729681 -0.07745626 1.2020047 0.7106214 0.8630813 -0.30128345
two 1.1456466 -0.5203022 -0.9414017 1.555198 1.326894 0.19548729 -1.1579847 0.34811255 0.32420638 -0.4075958 -0.1501539 1.2674328 0.7734771 0.9206814 -0.39071295
john 1.141641 -0.4297283 -0.94875133 1.5660306 1.2738374 0.16080053 -1.1006283 0.32958052 0.31961384 -0.40714186 -0.09040932 1.2207003 0.7524743 0.95536816 -0.39267117
portfolio 1.3143992 -0.6014553 -1.0930903 1.7872505 1.4859668 0.21127503 -1.3295051 0.42730072 0.38542137 -0.49176216 -0.14994292 1.408046 0.9119884 1.0695144 -0.37086928
next 1.14544 -0.542173 -0.9494558 1.5858815 1.3385308 0.14721373 -1.2022485 0.3488876 0.34782198 -0.38017824 -0.11527197 1.2148044 0.7885326 0.94831717 -0.35621324
also 1.3659759 -0.59687 -1.1559169 1.7971807 1.5599897 0.1586307 -1.3907907 0.43300763 0.37970743 -0.4751478 -0.11024611 1.4654704 0.96724004 1.1027662 -0.3812458
credit 1.2517047 -0.51153964 -1.0535407 1.7292185 1.4407471 0.12553535 -1.318643 0.3843227 0.39184976 -0.46307263 -0.13790101 1.3241473 0.85237193 1.0450914 -0.3532308
loans 1.2697576 -0.53865886 -1.0724647 1.6839098 1.4303436 0.18878427 -1.3086587 0.35349417 0.37636846 -0.4463617 -0.11210283 1.3322979 0.9087714 1.0583977 -0.32723552
need 1.1036309 -0.48217502 -0.99356323 1.5026343 1.3481082 0.20320156 -1.1929907 0.33803728 0.3611644 -0.38298777 -0.07527063 1.2124771 0.8125647 0.94582164 -0.37448147
terms 1.2704048 -0.505593 -1.0403764 1.6984093 1.4267892 0.19845866 -1.2882624 0.39265707 0.3890349 -0.4489889 -0.16088061 1.3396206 0.8326202 1.0147465 -0.3685163
know 1.1514145 -0.5286371 -0.97585124 1.6218102 1.3726685 0.17703915 -1.2146225 0.38822898 0.38629183 -0.4038866 -0.07771682 1.2597884 0.84533584 0.94685185 -0.38478702
rates 1.1432097 -0.54013795 -0.9655733 1.542963 1.2937891 0.17275266 -1.202329 0.38264695 0.33688277 -0.4305359 -0.113667786 1.1993253 0.7921724 0.9660478 -0.33848092
revenue 1.2219216 -0.521978 -1.0102007 1.610561 1.3418733 0.13613 -1.262674 0.39818174 0.37261263 -0.4416343 -0.085146934 1.2423825 0.8430797 1.0107214 -0.35369357
said 0.9985604 -0.4407741 -0.9108927 1.4478278 1.1641926 0.1484578 -1.0503839 0.35624167 0.32222977 -0.40573257 -0.077823706 1.0966705 0.6930056 0.8907698 -0.33737126
theres 1.1897104 -0.5213468 -1.0638843 1.6783247 1.3822279 0.17683458 -1.2387569 0.41906217 0.36313647 -0.46068865 -0.08056504 1.3385515 0.87508214 0.9838445 -0.38858476
balance 1.2554213 -0.50999355 -1.0673181 1.6474187 1.3489301 0.11422689 -1.2485892 0.35118613 0.2924843 -0.48242733 -0.13024418 1.3005054 0.7989634 1.1100924 -0.36902767
risk 1.1854578 -0.51819885 -1.0504057 1.6609193 1.3684918 0.15208445 -1.2060472 0.37357134 0.34198946 -0.46906537 -0.10410371 1.300353 0.81940895 0.9863924 -0.32761478
technology 1.2852545 -0.5073778 -1.095574 1.7433499 1.4261249 0.21508972 -1.2751794 0.43140355 0.34737712 -0.42652723 -0.106378384 1.4125017 0.8509098 1.0616454 -0.41869146
given 1.1906911 -0.53612626 -1.0010022 1.5964063 1.3508976 0.20452628 -1.2220831 0.3489607 0.37626266 -0.43365875 -0.1520538 1.2685333 0.81485075 0.9646086 -0.31727105
customer 1.2778692 -0.5295217 -1.1474569 1.7525331 1.4610099 0.22601144 -1.3175604 0.39934185 0.34538788 -0.50138277 -0.11389148 1.4305509 0.9300419 1.0965226 -0.44978735
talk 1.1661471 -0.5041744 -0.9952447 1.6331251 1.3779876 0.19199702 -1.2442741 0.34850147 0.37028387 -0.42562133 -0.16320647 1.2669805 0.760768 0.96678174 -0.36131105
deposits 1.2279745 -0.5181995 -0.9768068 1.6234033 1.4259219 0.19284666 -1.201217 0.41442904 0.31368583 -0.4354858 -0.12544249 1.2545857 0.7869532 0.9314049 -0.41148874
give 1.0893557 -0.44262573 -0.8688564 1.4942983 1.2475615 0.13690113 -1.0903645 0.3755625 0.34096548 -0.3871103 -0.15088126 1.1467471 0.70403665 0.86955166 -0.35543224
way 1.1654029 -0.4829999 -1.0220681 1.6078547 1.3438091 0.19915065 -1.1888328 0.34079114 0.33506677 -0.4651502 -0.07499244 1.2654029 0.8011491 0.9408286 -0.38793388
today 1.1786227 -0.49593192 -0.99877834 1.6154802 1.3328284 0.17121358 -1.2019366 0.3671769 0.34732673 -0.429608 -0.105920225 1.2842188 0.81576174 0.9808647 -0.33861774
better 1.0811982 -0.5074275 -0.92889464 1.4852109 1.2584534 0.13884279 -1.1435292 0.35819668 0.37375072 -0.41118863 -0.10763298 1.1462644 0.78803533 0.89092374 -0.3513886
points 0.9738861 -0.47921345 -0.71214324 1.3116485 1.180035 0.17306373 -1.0439098 0.22356516 0.38723588 -0.51538754 -0.1500588 0.88292396 0.6815785 0.9024509 -0.18344781
environment 1.0593559 -0.50503236 -0.88310176 1.3992034 1.2097125 0.17960738 -1.0692773 0.36609533 0.32319257 -0.3989966 -0.109606154 1.0250145 0.67279184 0.8846949 -0.24972248
change 1.212606 -0.527993 -1.0516956 1.6554036 1.3785697 0.2114674 -1.2594857 0.38331082 0.4029249 -0.41783383 -0.094352685 1.3076727 0.8498382 1.0053703 -0.32630926
mentioned 1.0612218 -0.44168964 -0.9524933 1.4757438 1.242511 0.1414179 -1.114082 0.3251626 0.30735934 -0.42407182 -0.13135047 1.1385909 0.7345761 0.9198966 -0.3223474
growing 1.1698372 -0.52731895 -1.0065931 1.5699744 1.3218447 0.15468791 -1.1867115 0.39564443 0.3439994 -0.41884333 -0.08235382 1.2201623 0.73346525 0.9359823 -0.40053344
david 1.0452464 -0.3911654 -0.85445046 1.42035 1.199994 0.13245903 -1.086241 0.36255753 0.26731855 -0.3538929 -0.11259482 1.1019374 0.68962693 0.83173954 -0.35048124
number 1.0889167 -0.49996224 -0.980233 1.5439185 1.2597238 0.18363415 -1.1168708 0.33410326 0.34634537 -0.43463784 -0.13553582 1.2049694 0.7373323 0.9168966 -0.33640167
market 1.2584381 -0.562307 -1.050746 1.6955109 1.4266838 0.17327738 -1.3060594 0.38148108 0.4048494 -0.46607232 -0.12714022 1.3548784 0.87456477 1.0139195 -0.35410422
thanks 0.8159299 -0.30929092 -0.7139034 1.1752627 1.004241 0.16573364 -0.8830645 0.30986834 0.24271812 -0.31190702 -0.087884694 0.9948944 0.6064268 0.7537778 -0.31910744
day 1.0860962 -0.51592803 -0.98943937 1.5716878 1.240923 0.22330184 -1.1196986 0.38993406 0.35292903 -0.43321896 -0.13012058 1.200363 0.7863195 0.95666265 -0.30097923
bank 1.3216462 -0.53795755 -1.1174433 1.7680396 1.4911087 0.2024653 -1.3226249 0.40214744 0.38905406 -0.47132403 -0.08886799 1.368245 0.8848912 1.0554585 -0.4211005
say 1.0839223 -0.4921943 -0.92575014 1.526868 1.2667097 0.15132105 -1.1553333 0.3132561 0.34794825 -0.39319885 -0.1522028 1.1611382 0.71834284 0.88468516 -0.304674
pretty 1.0413457 -0.43177146 -0.87689483 1.4411827 1.2295861 0.12172779 -1.1275469 0.35156354 0.33640367 -0.38494417 -0.12723546 1.1845244 0.6873074 0.9065279 -0.31982794
real 1.2184566 -0.47592416 -0.98020244 1.6159142 1.2978997 0.1778534 -1.228813 0.31812453 0.33593833 -0.48442146 -0.03926151 1.3060565 0.84456855 0.9621885 -0.40937257
million 0.9839195 -0.40646732 -0.81039166 1.3685639 1.0726656 0.12414157 -0.95124143 0.28572628 0.30385453 -0.42427874 -0.068237774 1.1071559 0.7355304 0.83160913 -0.30821142
part 1.1245635 -0.48752537 -0.9320169 1.5642623 1.3005722 0.18291464 -1.135066 0.3336687 0.3116541 -0.38070792 -0.11384056 1.2256737 0.7796917 0.8815086 -0.34107864
expect 1.0746655 -0.47465652 -0.8792452 1.4056312 1.2103908 0.14136851 -1.0387428 0.3064095 0.3484074 -0.40644923 -0.12866682 1.0855035 0.7133884 0.8689521 -0.29197714
help 1.1318369 -0.44343683 -0.89601994 1.505993 1.277322 0.14064443 -1.1314185 0.37097228 0.35666457 -0.36965293 -0.08524397 1.1282871 0.7958687 0.856897 -0.37185317
guys 0.92266184 -0.34156388 -0.7374051 1.2868965 1.0815377 0.1346161 -0.9664646 0.32748938 0.2132252 -0.34088036 -0.09897796 1.0426502 0.58414745 0.7657124 -0.32749668
believe 1.1479479 -0.48823842 -0.98751247 1.6330448 1.357831 0.20121205 -1.2185344 0.3525538 0.37650204 -0.46045578 -0.090219416 1.2894047 0.8559154 0.93393326 -0.3545978
opportunities 1.0899491 -0.48777613 -0.95222026 1.5337676 1.2827007 0.18153429 -1.1585512 0.36926648 0.36653417 -0.40058976 -0.09289216 1.1582783 0.7851529 0.93033504 -0.34149456
take 1.1384385 -0.5275121 -1.0025136 1.5804143 1.33368 0.1749238 -1.2169249 0.3474947 0.35035586 -0.40528798 -0.12548317 1.232702 0.82144356 0.925671 -0.3473539
put 1.1333497 -0.4901831 -0.97950506 1.5149065 1.2979983 0.19206406 -1.1667767 0.3732857 0.34022322 -0.41535726 -0.10117198 1.2371931 0.7867781 0.9383779 -0.3140048
im 1.1604358 -0.45746243 -0.9553103 1.5944207 1.3237543 0.20793317 -1.1878154 0.3999269 0.32340524 -0.4005032 -0.13101257 1.2761768 0.768112 0.9318325 -0.36478925
sure 0.9738762 -0.43385324 -0.84820837 1.3723096 1.0916998 0.13094026 -1.0492924 0.31237015 0.31884882 -0.3763827 -0.07106767 1.112538 0.6832368 0.8173979 -0.2760998
end 1.0238237 -0.48009455 -0.8847426 1.379517 1.1527412 0.16235194 -1.0521498 0.32347676 0.34485602 -0.36416188 -0.1273088 1.071898 0.69232595 0.83692795 -0.2935147
margin 1.0193117 -0.44329783 -0.8996766 1.4464355 1.1765639 0.13767807 -1.08383 0.32367715 0.33246595 -0.36282885 -0.113325275 1.0723143 0.71922916 0.82189614 -0.3136811
looking 1.0161813 -0.42357782 -0.88763416 1.4235471 1.2492661 0.13951136 -1.1012462 0.33084318 0.3116434 -0.3702421 -0.08211935 1.1162791 0.7342003 0.85577667 -0.29079828
sheet 1.0427728 -0.40063158 -0.7804119 1.3452648 1.0305907 0.20487541 -0.9844934 0.25440872 0.37149042 -0.2971732 -0.04847199 0.9657763 0.77039236 0.7394948 -0.26020154
guess 1.0805765 -0.44599757 -0.853987 1.4258549 1.1849198 0.14588583 -1.1188079 0.36370206 0.28281036 -0.4151827 -0.12579714 1.141018 0.6979155 0.8696411 -0.31997257
great 0.92113805 -0.3553795 -0.7763495 1.3118206 1.133643 0.17109698 -0.9912075 0.33928064 0.24253874 -0.30831838 -0.12958437 1.0700784 0.67276174 0.77285534 -0.27939975
couple 0.968536 -0.42011246 -0.82786673 1.3897092 1.1128898 0.151346 -1.0349531 0.2996142 0.2968468 -0.37932554 -0.085986145 1.0884643 0.651588 0.8438587 -0.3197042
investments 0.927811 -0.36665902 -0.8514779 1.285449 1.0678935 0.100872934 -0.9489517 0.2852241 0.25433645 -0.35274553 -0.037542984 1.0739992 0.69436294 0.80093855 -0.27759263
ph 1.076363 -0.46880215 -0.9189363 1.5164983 1.2484299 0.15860642 -1.142691 0.37330908 0.3031031 -0.43769214 -0.0948431 1.2179925 0.7244591 0.87187594 -0.35705504
book 1.0916926 -0.4318324 -0.94116634 1.469822 1.2448661 0.14371684 -1.0784316 0.29104212 0.31354347 -0.3529526 -0.07807124 1.1150674 0.7428259 0.8817176 -0.3011146
obviously 1.104073 -0.5001713 -0.97643197 1.5332897 1.2819968 0.16890916 -1.142909 0.36634162 0.30374137 -0.42929924 -0.10327425 1.2064023 0.79054457 0.91561395 -0.33172098
commercial 0.9824827 -0.44743627 -0.8578916 1.3831787 1.1451552 0.104809046 -0.9958966 0.28645223 0.3035725 -0.37441826 -0.047954265 1.1204304 0.694714 0.7869005 -0.30078876
range 0.9814464 -0.44969085 -0.8415299 1.3256556 1.0712006 0.14083104 -0.97418076 0.29783747 0.33160242 -0.39249346 -0.1203523 0.99738556 0.6650445 0.7526142 -0.2496023
talked 0.9786413 -0.4022935 -0.8381956 1.263114 1.0597945 0.11718134 -0.92726064 0.32476157 0.29884973 -0.33570746 -0.06221641 1.0147091 0.6508355 0.7815886 -0.2996326
come 1.0279157 -0.4765252 -0.92191833 1.4300642 1.2071149 0.16161947 -1.0825746 0.3255084 0.33194694 -0.3676266 -0.12030903 1.1018116 0.70494175 0.8772461 -0.28682554
youve 1.0517917 -0.44050568 -0.9278738 1.4766905 1.2013738 0.1394491 -1.0622413 0.32428953 0.28030264 -0.40497077 -0.12691721 1.1157565 0.7148697 0.8893681 -0.33494088
opportunity 0.9926482 -0.3988665 -0.87043184 1.3836261 1.1879685 0.12208341 -1.0166832 0.33989003 0.32689393 -0.33872166 -0.065698415 1.0539333 0.73656684 0.80258787 -0.33264288
whats 0.96018666 -0.45526856 -0.8027682 1.338628 1.1606616 0.16986538 -1.009141 0.32115695 0.30682546 -0.38127536 -0.12076292 1.072389 0.66603214 0.83039904 -0.27032626
three 1.0404958 -0.43216607 -0.9135888 1.4261312 1.1588715 0.18115266 -1.0828556 0.3111207 0.2781038 -0.37261042 -0.09652857 1.1204844 0.6792128 0.8393344 -0.27946597
banks 1.0682938 -0.4797651 -0.89420533 1.4867438 1.1921636 0.19741169 -1.0915114 0.33329543 0.29086474 -0.35909396 -0.14117253 1.1325837 0.72326255 0.88560504 -0.32886788
add 0.83125347 -0.35710362 -0.7228041 1.099911 0.9566215 0.11635292 -0.86625344 0.23915099 0.27994838 -0.33486602 -0.09914355 0.83028877 0.58738875 0.70348245 -0.26240408
impact 1.048873 -0.4309509 -0.9111418 1.4374837 1.2122048 0.16981813 -1.0883948 0.32165548 0.3313867 -0.38717383 -0.097702466 1.110599 0.76231796 0.8409646 -0.32636693
forward 0.8425898 -0.3929448 -0.7277336 1.1488674 0.9500878 0.11512804 -0.8421949 0.30428547 0.23899768 -0.2804138 -0.106748685 0.8604407 0.57674515 0.7091575 -0.21040341
billion 0.9863104 -0.4548053 -0.88518566 1.335642 1.1309257 0.12872653 -1.0154419 0.3397294 0.28162217 -0.36743674 -0.09725373 1.0667107 0.6604366 0.8059604 -0.2916884
economy 0.9120907 -0.42698961 -0.8035351 1.2663342 1.053278 0.14037585 -0.95778143 0.31920508 0.2611445 -0.36141124 -0.056252077 0.9976858 0.6310119 0.75734305 -0.28870887
feel 0.93344945 -0.3553355 -0.76322556 1.2538675 1.0371773 0.09202569 -0.92465544 0.28738043 0.2421426 -0.32555497 -0.069976754 1.000871 0.60458267 0.7399115 -0.28573793
banking 1.0038966 -0.41546434 -0.9069876 1.3762112 1.1224169 0.14227481 -1.0153016 0.34250128 0.25825456 -0.40370184 -0.11096874 1.1561133 0.68588775 0.81920826 -0.33233416
mortgage 0.98047394 -0.38100913 -0.82627034 1.3400542 1.101986 0.12218026 -0.9542165 0.2924938 0.27858317 -0.345604 -0.10262342 1.0152198 0.64330226 0.76435935 -0.3034059
might 1.0191151 -0.4180835 -0.8761174 1.449524 1.1975169 0.11916889 -1.0978109 0.3350451 0.3026063 -0.38979554 -0.11816623 1.0835766 0.7274889 0.8279154 -0.29823065
second 0.96498245 -0.38877726 -0.81719655 1.2860649 1.1139044 0.14738736 -0.97296727 0.2614396 0.25112718 -0.35589486 -0.093495816 1.0743771 0.61153007 0.78068155 -0.2580659
return 0.9201343 -0.40232226 -0.8479069 1.3011914 1.1323683 0.14569928 -0.9689365 0.32480738 0.31670398 -0.39444354 -0.09469435 1.0145901 0.67659473 0.779704 -0.2851783
important 0.8738901 -0.37881675 -0.74897826 1.1416007 1.0106765 0.1300746 -0.8609673 0.28524256 0.2721499 -0.31830618 -0.07467332 0.9301934 0.5799865 0.6767267 -0.275408
use 0.9736868 -0.40551504 -0.8178369 1.3513862 1.1270037 0.13510326 -1.0556645 0.3167528 0.3172844 -0.3896353 -0.068589464 1.1110797 0.67320395 0.78780556 -0.2824755
coming 0.9062257 -0.38354173 -0.7404984 1.1770756 1.0421485 0.15157238 -0.88813674 0.24050489 0.2435158 -0.29588568 -0.06900317 0.90460205 0.6088439 0.7414112 -0.27243236
efficiency 1.0164511 -0.37618503 -0.7982938 1.3587369 1.094249 0.12385674 -1.0441206 0.32839823 0.32175952 -0.396948 -0.12602171 0.98810285 0.6376626 0.8208581 -0.3148212
actually 1.0755637 -0.44758907 -0.9197409 1.4627707 1.2096164 0.1514927 -1.1037279 0.34357792 0.31734073 -0.4090302 -0.077030726 1.1674392 0.704754 0.89790326 -0.34521008
even 1.0293818 -0.43814856 -0.9227513 1.4749426 1.2468191 0.17298785 -1.0760245 0.3515143 0.30169716 -0.42040733 -0.082073204 1.1211298 0.74508303 0.85302025 -0.33481988
interest 0.91078305 -0.35737923 -0.7033425 1.2254431 0.9707895 0.09670038 -0.9035085 0.26619774 0.22497644 -0.3430936 -0.08603813 0.90301764 0.6301064 0.6980223 -0.26731846
regions 1.152644 -0.4573349 -0.9409217 1.5631479 1.236905 0.13841808 -1.1221979 0.3002561 0.32076108 -0.44021556 -0.12054255 1.1985949 0.8031026 0.9019225 -0.31334695
different 0.99478513 -0.43984133 -0.85188293 1.3533292 1.1531553 0.120272696 -0.9873878 0.29083747 0.3236204 -0.3520037 -0.11763745 1.0266347 0.68532425 0.80281943 -0.32441953
businesses 1.0517198 -0.5004631 -0.9207812 1.4557587 1.2636483 0.13152783 -1.0809345 0.3688584 0.30990025 -0.4187344 -0.10443324 1.1527902 0.7352219 0.8951876 -0.328042
start 0.79421985 -0.32217047 -0.66314924 1.1218454 0.9047635 0.1152581 -0.8398531 0.2354707 0.26716417 -0.27924424 -0.09653767 0.89369357 0.5091454 0.638764 -0.24729767
low 0.89629066 -0.4385978 -0.8186154 1.2805314 1.0815217 0.15978119 -0.9554373 0.2837654 0.30294546 -0.3689443 -0.11772293 0.9440932 0.6051275 0.7204377 -0.25529873
seeing 0.9670236 -0.37845388 -0.8029102 1.3029543 1.109953 0.15016139 -0.99238133 0.28308123 0.31248814 -0.33422157 -0.07406386 1.0569054 0.62372315 0.7695467 -0.2754912
theyre 0.99958414 -0.3919919 -0.8358045 1.3726208 1.1307375 0.1385848 -0.99979323 0.3343132 0.29386324 -0.36037135 -0.110208675 1.0732316 0.65398425 0.82929176 -0.28990886
level 0.925281 -0.4234071 -0.79288423 1.3254883 1.0993255 0.15039524 -0.991511 0.28452194 0.27021205 -0.37705868 -0.11526297 1.0540125 0.67353946 0.81872576 -0.30287352
higher 1.0243394 -0.45553234 -0.92744714 1.4740807 1.212486 0.12244998 -1.0708637 0.3435591 0.3356246 -0.34754732 -0.11626691 1.1499586 0.73297256 0.843649 -0.28692633
leverage 0.9706967 -0.48535457 -0.8749198 1.3948287 1.139577 0.17803964 -1.0346789 0.3083589 0.27873054 -0.36013505 -0.12211706 1.1061718 0.71061575 0.7886582 -0.2741641
lending 1.0422399 -0.42329982 -0.8315896 1.3891947 1.1895807 0.112824135 -1.0716184 0.2751505 0.30408657 -0.34715605 -0.100733295 1.0600411 0.7266301 0.853607 -0.29272094
done 0.83929074 -0.35557646 -0.68314254 1.1144311 0.96127295 0.10065656 -0.8556318 0.24559611 0.27160606 -0.30035847 -0.11019955 0.86428666 0.5308418 0.64678264 -0.24180175
peers 0.8974435 -0.3717488 -0.7917405 1.236852 1.0561272 0.1278746 -0.91191465 0.27602482 0.24843557 -0.33048418 -0.08675437 0.9534559 0.6325139 0.7102217 -0.3071636
process 0.9719968 -0.37727535 -0.7982744 1.2956648 1.0755297 0.14028148 -0.9879473 0.292518 0.26103064 -0.374493 -0.06574123 0.99245095 0.6812775 0.8190911 -0.31024542
within 1.0210079 -0.4592978 -0.87116796 1.3955568 1.148555 0.1487738 -1.0153279 0.32429114 0.2933515 -0.3830269 -0.07794213 1.0416102 0.7266059 0.7979871 -0.28777093
simplify 0.8788763 -0.39155734 -0.77660966 1.1678987 0.9859001 0.096621014 -0.84858847 0.24523675 0.29848638 -0.35783115 -0.046171572 0.9127767 0.6228679 0.72630984 -0.2402458
ratio 0.87446076 -0.34121987 -0.6948703 1.1328967 0.96640307 0.12659831 -0.84997463 0.26234186 0.22818118 -0.31931698 -0.093728684 0.91427934 0.63005877 0.69729644 -0.2217464
ill 0.8404447 -0.36496016 -0.74523556 1.1636293 0.92767304 0.13019668 -0.87669635 0.27737924 0.23858978 -0.33743796 -0.049044892 0.91807175 0.544107 0.7248712 -0.24679297
something 0.9674212 -0.39613646 -0.81251204 1.2999171 1.1428457 0.15527537 -0.994901 0.2985184 0.2736432 -0.32641193 -0.09393958 1.0276709 0.6301365 0.8290262 -0.32109687
around 0.9987055 -0.40341014 -0.8730007 1.3251958 1.1347992 0.1718135 -0.9963159 0.29157656 0.30784526 -0.35677287 -0.07331566 1.081373 0.68184656 0.79247653 -0.3288173
cost 0.8579397 -0.41357303 -0.74810874 1.2043979 1.0372106 0.108309045 -0.87757564 0.24615073 0.26400256 -0.34728062 -0.12610586 0.9100025 0.63713026 0.7128821 -0.28085938
increase 0.9747666 -0.45606637 -0.84153247 1.3849628 1.1452825 0.11589644 -1.0080276 0.33534497 0.29946136 -0.34744543 -0.10531206 1.0909839 0.70235753 0.8456497 -0.30008948
trying 0.9604993 -0.4173724 -0.8153733 1.2704896 1.1078526 0.13085069 -0.974582 0.27455705 0.29780874 -0.3460743 -0.05811873 0.9927701 0.6725338 0.8108493 -0.29486367
people 0.79400206 -0.37011248 -0.741437 1.1214671 0.97120154 0.14848809 -0.8441607 0.26643315 0.25152394 -0.29154292 -0.09508604 0.9160652 0.5533926 0.6602302 -0.2875962
based 0.96370673 -0.41454065 -0.87070286 1.3820232 1.1376046 0.119590394 -0.99511313 0.31196427 0.31541273 -0.3561582 -0.11944339 1.0513698 0.71614516 0.78533125 -0.31975543
quality 0.85459864 -0.4035692 -0.7600165 1.1559354 1.0372908 0.08693482 -0.8865277 0.30674362 0.2482033 -0.33745217 -0.12783524 0.9820173 0.58530515 0.7213329 -0.24750732
versus 0.97825503 -0.4125199 -0.81794345 1.3346986 1.0932876 0.1475628 -0.9965934 0.30145186 0.28968412 -0.35932314 -0.1022649 1.0192412 0.6274069 0.77709794 -0.28383043
expense 1.0092989 -0.40359578 -0.8164116 1.3208627 1.0901395 0.16657637 -0.9886815 0.33249542 0.25517505 -0.31591424 -0.06497074 1.0789448 0.6338937 0.82295746 -0.2875307
thing 0.9258242 -0.36151376 -0.7582617 1.2650089 1.0746884 0.1205989 -0.95480335 0.2878238 0.25489944 -0.3633818 -0.09626211 0.9765475 0.65430915 0.725987 -0.31821632
estate 0.78571206 -0.31527674 -0.7742227 1.1997378 0.9651866 0.117290474 -0.7784372 0.17965588 0.18815349 -0.27044687 0.009987395 0.8505607 0.63854754 0.639388 -0.20720087
focus 0.90085477 -0.39563513 -0.76662034 1.1807425 1.0359457 0.08999689 -0.9263821 0.27780044 0.2620458 -0.29749015 -0.094352946 0.9822301 0.6084238 0.7157157 -0.31062594
probably 0.85699815 -0.4202017 -0.75519943 1.2203871 0.9917356 0.09537046 -0.8860963 0.28062183 0.23829658 -0.29729334 -0.083452165 0.9114263 0.6239925 0.72195023 -0.28385827
share 0.89395374 -0.39896703 -0.7180253 1.2015874 0.99450964 0.12368215 -0.901603 0.2921937 0.25426114 -0.33923733 -0.101576686 0.94584763 0.6228434 0.6877417 -0.28761566
big 0.930469 -0.37731108 -0.75875634 1.2234699 0.99671817 0.14517833 -0.9235139 0.28445214 0.26920554 -0.29297227 -0.09517594 0.9572505 0.58892137 0.73052704 -0.24920492
work 0.93473655 -0.38382182 -0.80027324 1.2835367 1.1026992 0.12146792 -0.9543179 0.26621428 0.2777766 -0.33015892 -0.06184415 0.9917965 0.64335656 0.7864562 -0.2718267
guidance 0.77433634 -0.38381302 -0.6688322 1.0628761 0.8978645 0.07712797 -0.81769955 0.26318964 0.23840886 -0.30465487 -0.060196076 0.81971925 0.53414124 0.6534501 -0.2464565
seen 0.8628036 -0.3717254 -0.7113763 1.1272655 0.9278837 0.08033727 -0.82329875 0.28539115 0.2166988 -0.26045787 -0.09230255 0.8970519 0.5909252 0.7056943 -0.26165587
able 0.98744553 -0.42225847 -0.81726426 1.3411692 1.0877789 0.118176304 -1.0163603 0.282829 0.28877908 -0.3736695 -0.06798721 1.0518506 0.6667243 0.8089379 -0.31884053
net 0.7749561 -0.2868903 -0.6356776 1.0689155 0.8846319 0.117100045 -0.77671206 0.18245775 0.22459161 -0.27791092 -0.071218446 0.8109578 0.55034775 0.5875604 -0.20261689
getting 0.8950311 -0.38447705 -0.78328824 1.2616311 1.0715954 0.14884038 -0.96685445 0.25375485 0.28568587 -0.29824302 -0.05977806 0.9448587 0.62873393 0.75939655 -0.26673153
new 0.8761652 -0.41630974 -0.7840988 1.2600398 1.0222116 0.11437584 -0.95380485 0.30745366 0.2613437 -0.34612608 -0.10743413 0.9553046 0.6613911 0.7692119 -0.24167877
core 0.74888325 -0.33492237 -0.69412017 1.0516874 0.92300326 0.08627941 -0.7989821 0.23839162 0.22275102 -0.2933351 -0.06601018 0.82474154 0.56748384 0.6221387 -0.22954135
investor 0.8957845 -0.42428088 -0.79622597 1.1823105 0.97544354 0.15653174 -0.8831004 0.28656343 0.26910797 -0.27842516 -0.0663895 0.9145517 0.65379095 0.68672717 -0.23245488
beta 0.8219904 -0.36746034 -0.6689012 1.1184244 0.9546298 0.09675195 -0.8580901 0.26483423 0.26897144 -0.27770883 -0.084563725 0.8645342 0.5475606 0.6448477 -0.23866956
third 0.7815046 -0.2855444 -0.6211257 0.9994659 0.90946656 0.0995775 -0.7522226 0.20383313 0.19884193 -0.25004837 -0.096005194 0.7802403 0.50552714 0.6179015 -0.2192137
income 0.89600176 -0.3658956 -0.7717822 1.2654732 1.051759 0.092192784 -0.9143285 0.24405478 0.23551068 -0.31885734 -0.108919516 0.9440156 0.59595674 0.71222395 -0.28209507
making 0.9077359 -0.36275482 -0.78857017 1.2019277 1.020051 0.09894758 -0.88063705 0.31134248 0.2381765 -0.31655318 -0.065329075 0.9574398 0.61352867 0.73847425 -0.3076593
benefit 0.892556 -0.38911667 -0.7256625 1.1958432 1.0318238 0.11274128 -0.9529865 0.2621829 0.24016142 -0.32992777 -0.107858345 0.93739444 0.5972625 0.7419204 -0.2418685
may 0.94971853 -0.38870463 -0.8497074 1.329122 1.1385406 0.1322014 -0.9783028 0.28823197 0.28575164 -0.3647251 -0.092497334 1.0145555 0.69532615 0.8267283 -0.30002236
mean 0.86774707 -0.3664108 -0.73489773 1.1588484 1.0183922 0.13480067 -0.9098254 0.25257808 0.22461733 -0.2831339 -0.055267632 0.90772027 0.5860489 0.67214346 -0.23987994
indiscernible 0.54984796 -0.27083185 -0.50920725 0.81026775 0.68630624 0.11187359 -0.61305994 0.18662408 0.14213428 -0.20850706 -0.066506416 0.6352604 0.42128953 0.44829774 -0.20070234
standpoint 0.75016767 -0.31840137 -0.62846076 1.013351 0.88855433 0.14155751 -0.7405419 0.2171146 0.21919464 -0.27661744 -0.10247307 0.8238165 0.49516258 0.5889324 -0.20816661
management 1.0435508 -0.48279527 -0.8651926 1.3792334 1.1980993 0.10019088 -1.0781181 0.31210375 0.2974737 -0.39561164 -0.117329635 1.0866605 0.74689144 0.85489064 -0.30439392
every 0.8243317 -0.36957517 -0.7474529 1.1576706 0.9671289 0.10566975 -0.8890589 0.24219935 0.25321797 -0.28774738 -0.07536391 0.94314057 0.5562856 0.6908588 -0.2253724
whether 1.0173341 -0.44332722 -0.872919 1.3915943 1.1551967 0.15513471 -1.0376804 0.33459678 0.3220423 -0.40193892 -0.08031347 1.0810484 0.70591885 0.8215218 -0.33772367
call 0.89800525 -0.3703051 -0.81186944 1.2693427 1.0883919 0.13015303 -0.9900265 0.26231712 0.28318685 -0.355515 -0.077578746 1.0028514 0.6402102 0.7385198 -0.2590293
across 0.930238 -0.44005546 -0.7938753 1.3068526 1.1344273 0.13180445 -0.95194685 0.26279745 0.30775166 -0.37460583 -0.09714692 1.070419 0.6513572 0.7854725 -0.33089942
indirect 0.89836115 -0.42257312 -0.73946536 1.2208157 1.0614449 0.12282243 -0.96822 0.31499457 0.28992426 -0.31907588 -0.100803114 1.0152092 0.5917987 0.78703344 -0.264587
wanted 0.8444347 -0.38447294 -0.70879424 1.1690458 0.97089195 0.11450579 -0.90503734 0.28662643 0.26701525 -0.32414928 -0.08451609 0.944604 0.56058496 0.6967203 -0.24741004
assets 0.847548 -0.3914659 -0.734822 1.1019784 0.954884 0.1087523 -0.85407937 0.24479453 0.26474568 -0.2714406 -0.10731942 0.8794465 0.58722186 0.7093946 -0.20724851
plan 0.883459 -0.38834032 -0.74662477 1.1705261 1.0040954 0.104771554 -0.9299921 0.2634854 0.23338196 -0.28989863 -0.12001681 0.9303366 0.5775149 0.6924367 -0.23495045
equity 0.9147151 -0.36753535 -0.78364193 1.1654848 1.0598016 0.09730315 -0.91619843 0.26290974 0.23450938 -0.37585834 -0.12061863 0.9491908 0.6024097 0.7020501 -0.3109075
securities 0.88051265 -0.41278747 -0.7766719 1.1789689 0.9782262 0.15612921 -0.85834265 0.23373483 0.26142815 -0.30901325 -0.061420657 0.9025878 0.623702 0.7339491 -0.24574168
base 0.59056675 -0.2651122 -0.46519765 0.76553804 0.69506353 0.1031842 -0.5837167 0.15060432 0.15014014 -0.22256048 -0.086102724 0.6006864 0.41792354 0.43514487 -0.17849037
target 0.8113118 -0.31293246 -0.7000472 1.0562526 0.88672847 0.10305644 -0.8375952 0.2750176 0.22231947 -0.31945854 -0.09111815 0.826226 0.5797896 0.63437724 -0.23280141
clearly 0.86822164 -0.35016143 -0.72232264 1.211028 1.0205504 0.11993289 -0.9184987 0.29584956 0.24070486 -0.33868346 -0.06834229 0.885116 0.6188571 0.7046593 -0.2501305
branches 0.9448467 -0.42517337 -0.78232366 1.2261683 1.0213678 0.16218562 -0.9192975 0.26709726 0.26639274 -0.36435744 -0.06852 0.9825623 0.6341292 0.7848906 -0.27912527
digital 0.8758888 -0.34961802 -0.77395034 1.1658885 0.96152586 0.13313833 -0.8968902 0.2385714 0.24198565 -0.30415672 -0.05248681 0.9528731 0.61406857 0.73527706 -0.29209313
spend 0.69936645 -0.26076987 -0.5476344 0.95537746 0.7917602 0.11422634 -0.66404754 0.19076942 0.21160862 -0.25004652 -0.03731103 0.7556956 0.44541967 0.5889779 -0.23564945
earlier 0.77192914 -0.32898012 -0.614323 1.0640421 0.9046533 0.07725146 -0.81368595 0.2343587 0.18910731 -0.32182997 -0.05036938 0.78634536 0.54331124 0.6201137 -0.23841473
made 0.858617 -0.4109588 -0.7372832 1.2010492 1.0247636 0.094450474 -0.9261632 0.3010601 0.2531553 -0.34400702 -0.07027629 0.94230264 0.5778109 0.69094557 -0.29414862
another 0.6729963 -0.31888804 -0.53841555 0.92547387 0.79953563 0.11814397 -0.72481894 0.20448914 0.19694622 -0.25507614 -0.07167503 0.69517994 0.44882014 0.56848925 -0.21745789
result 1.0574324 -0.4787714 -0.87634647 1.4891701 1.2009991 0.13384743 -1.0952783 0.35029668 0.3405363 -0.36087647 -0.07537966 1.1329769 0.75205314 0.8419397 -0.29730853
accounts 0.7247874 -0.35571027 -0.6347349 0.9917568 0.8383217 0.11834618 -0.81196225 0.19917482 0.23816355 -0.29263386 -0.078503065 0.76855785 0.47650632 0.6041657 -0.2667056
cycle 0.7873391 -0.3398914 -0.6665459 1.0472764 0.8408694 0.14098 -0.7788618 0.24597898 0.21820958 -0.2463166 -0.04980939 0.8408016 0.49870723 0.6257785 -0.22977968
saw 0.7423248 -0.34445375 -0.6744388 1.0318226 0.88803256 0.078157075 -0.78372926 0.23286372 0.24279656 -0.28931606 -0.05546817 0.8212181 0.5159265 0.6220356 -0.26295188
expenses 0.8084283 -0.36252576 -0.69559467 1.1102368 0.9182835 0.111353844 -0.8506442 0.24479955 0.26877594 -0.3164184 -0.07115508 0.8631913 0.5714604 0.65969366 -0.2251488
focused 0.7173602 -0.28345367 -0.6602775 0.9871954 0.8780858 0.08279037 -0.75201946 0.21035756 0.22401029 -0.2704089 -0.08220435 0.8285748 0.5288553 0.58528584 -0.22025146
returns 0.81721795 -0.3417334 -0.70694935 1.1819565 0.9951964 0.11980723 -0.8647929 0.27330497 0.2675457 -0.2933283 -0.11849509 0.9380142 0.6169325 0.69850993 -0.23140576
financial 1.0082662 -0.45179674 -0.8433921 1.3524944 1.1472336 0.12036725 -0.98139834 0.30682325 0.28236252 -0.33518434 -0.069877066 1.0894101 0.6688059 0.78679544 -0.2987747
improve 0.73828995 -0.33314094 -0.63467103 1.0227152 0.820896 0.07758031 -0.7436987 0.21582809 0.19884987 -0.29060808 -0.050155744 0.7731242 0.5329843 0.6112313 -0.21717484
capabilities 0.74214906 -0.30262858 -0.6322233 1.0622663 0.9018655 0.119421646 -0.7921751 0.22328553 0.24800497 -0.2829813 -0.03783993 0.87051934 0.54833835 0.6679877 -0.211883
improvement 0.8387171 -0.3653296 -0.70324624 1.1500745 0.9721185 0.14502388 -0.81967354 0.23962067 0.23319443 -0.30789638 -0.08784045 0.8377223 0.5739303 0.68685186 -0.20742665
investment 0.73927104 -0.3522722 -0.62440556 1.0245352 0.8478367 0.12716953 -0.7839388 0.22288993 0.19675511 -0.27195817 -0.074373595 0.83126384 0.55809045 0.6038829 -0.24680343
questions 0.73789006 -0.2956971 -0.5736483 0.9886675 0.7899675 0.12369187 -0.745609 0.21542364 0.19336411 -0.23873128 -0.08780701 0.7768793 0.48947436 0.577996 -0.25395942
let 0.7406135 -0.33049226 -0.5980781 0.9246275 0.82185566 0.094428256 -0.71848977 0.18851823 0.23836951 -0.2757446 -0.052831028 0.72926015 0.46683016 0.54880804 -0.20057316
outlook 0.73409224 -0.35207748 -0.6273899 1.0054299 0.86822015 0.11500752 -0.7468398 0.2149341 0.2354549 -0.2666025 -0.061608646 0.8338881 0.5231173 0.6035294 -0.22306933
common 0.75351053 -0.35443118 -0.7134182 1.039177 0.9271159 0.116933376 -0.78369623 0.22648433 0.19176662 -0.28574073 -0.07958982 0.85710126 0.5659071 0.61161375 -0.23541936
fourth 0.6599602 -0.27586746 -0.49147016 0.8601071 0.7474551 0.046445407 -0.6300268 0.16035917 0.21844688 -0.25709924 -0.045082223 0.67810774 0.4126702 0.49120244 -0.20605744
center 0.8358564 -0.38537848 -0.7533675 1.1563853 0.930214 0.11168497 -0.91271555 0.23030984 0.21058863 -0.3345294 -0.060107615 0.92443633 0.6004148 0.7139638 -0.23190193
didnt 0.7752893 -0.35207513 -0.6890775 1.0990716 0.9192236 0.09647738 -0.8394756 0.22166936 0.25473502 -0.30013072 -0.04481745 0.86563444 0.5785733 0.6354271 -0.24886724
hi 0.43694022 -0.13568951 -0.3271557 0.6524823 0.45767412 0.053054325 -0.4339727 0.15283476 0.08883297 -0.19436434 -0.08915429 0.4893269 0.24418108 0.34836376 -0.12465522
long 0.8104169 -0.3959662 -0.7329879 1.1613134 0.9676591 0.11023066 -0.8330426 0.26020035 0.26148838 -0.29022098 -0.058161426 0.87907547 0.54968596 0.6965771 -0.23157436
term 0.85702735 -0.41876975 -0.73157936 1.2011358 1.0071039 0.15235811 -0.8969287 0.26480514 0.24737148 -0.28538042 -0.10935761 0.9355894 0.63039196 0.754177 -0.25625205
exposure 0.77208984 -0.34745464 -0.6864323 1.0514613 0.8828456 0.08960055 -0.82972294 0.2587131 0.24016523 -0.26737404 -0.06892742 0.80953455 0.5309294 0.6509621 -0.23383977
curve 0.7480429 -0.33803314 -0.69034654 1.0238968 0.92012525 0.08815304 -0.77542055 0.26022577 0.26476315 -0.27403128 -0.08054914 0.78999364 0.5061496 0.6300679 -0.21630302
operating 0.83083874 -0.41319844 -0.74935794 1.1511217 0.970432 0.14372207 -0.8702662 0.28521627 0.20882279 -0.28374293 -0.05960599 0.8994628 0.56480676 0.6879103 -0.22347932
asset 0.72686404 -0.32710582 -0.63753283 0.99047023 0.84448576 0.1357242 -0.7162945 0.20123985 0.22855067 -0.24318491 -0.052263845 0.78643686 0.5073317 0.6171551 -0.2105393
particular 0.75541395 -0.34587604 -0.6320428 1.0002956 0.81376934 0.08853876 -0.78017306 0.20804454 0.2373897 -0.25159267 -0.102837116 0.78963375 0.48608723 0.63022566 -0.22805543
thought 0.822588 -0.32592615 -0.73332775 1.1427817 0.9304727 0.15095198 -0.8750538 0.29177806 0.28258273 -0.2738012 -0.059709698 0.8854782 0.5639702 0.64073485 -0.21840186
appropriate 0.67404366 -0.3277541 -0.5537686 0.95362574 0.8120864 0.12076947 -0.70810366 0.244838 0.21709852 -0.25252894 -0.052424926 0.7068827 0.451178 0.5637868 -0.22502595
youll 0.6353197 -0.27102032 -0.5395309 0.841423 0.776716 0.08635693 -0.63109326 0.20981754 0.22738086 -0.258349 -0.046401232 0.70345724 0.43687558 0.541532 -0.2209004
manage 0.663381 -0.30732802 -0.5884363 0.85818374 0.7420604 0.07448257 -0.64427364 0.19911382 0.22195913 -0.25791955 -0.041544497 0.66763514 0.48598763 0.51795316 -0.1719114
nii 0.6153006 -0.22160794 -0.48692203 0.7942127 0.7270656 0.08882304 -0.5956302 0.19759215 0.18618305 -0.23674886 -0.077839345 0.5990932 0.44945386 0.50682527 -0.16021855
advantage 0.6747278 -0.27086207 -0.6111899 0.93356454 0.79738444 0.13767955 -0.7263892 0.21570833 0.18687904 -0.22733268 -0.074656464 0.7310233 0.48331773 0.58610475 -0.18370132
lower 0.65356046 -0.2535608 -0.52451456 0.9027513 0.74442315 0.09336711 -0.6364631 0.20144896 0.18015674 -0.24152729 -0.07362137 0.6769823 0.46996164 0.526738 -0.15512286
industry 0.6874774 -0.29398096 -0.57225263 0.91267663 0.7825688 0.063133575 -0.71750903 0.184284 0.1664593 -0.24901102 -0.064583026 0.7256621 0.49914968 0.57906324 -0.21398103
cecl 0.7441599 -0.3473494 -0.64015216 1.0648841 0.8599573 0.096622914 -0.7870835 0.27113593 0.23677754 -0.30706954 -0.049669325 0.8478714 0.50998384 0.63184696 -0.22388051
fed 0.88044614 -0.40473744 -0.71091795 1.2065916 0.9649006 0.11317784 -0.885458 0.29298916 0.2641303 -0.33844337 -0.063017 0.90268344 0.58908856 0.6745105 -0.2641798
expectations 0.6302564 -0.30361596 -0.53631026 0.88152975 0.736079 0.11738212 -0.68512267 0.20137465 0.1733469 -0.20394586 -0.048366174 0.6987403 0.47742626 0.53969586 -0.20394106
past 0.650162 -0.28467402 -0.51881397 0.8920984 0.70346624 0.07300634 -0.6811149 0.18163355 0.2225295 -0.23411423 -0.05766844 0.6967742 0.40139115 0.51957947 -0.21792349
changes 0.8342461 -0.38578638 -0.72407234 1.1413184 0.9544975 0.12991071 -0.86829966 0.2529222 0.25469568 -0.28969723 -0.101060405 0.90040517 0.5815546 0.72887653 -0.2764912
yes 0.40658367 -0.17970018 -0.35729602 0.6064435 0.48994565 0.08328825 -0.46265298 0.15148637 0.13690412 -0.1425723 -0.026059953 0.45717487 0.32532954 0.31868502 -0.11231386
period 0.60575145 -0.25473168 -0.53711 0.8880203 0.7714898 0.10834152 -0.615984 0.19241019 0.17049646 -0.2047883 -0.09176786 0.6674418 0.4468403 0.49736002 -0.19443932
run 0.71170455 -0.28170493 -0.5684469 0.9176958 0.7752093 0.1283389 -0.7137424 0.22196138 0.18712102 -0.28082472 -0.07981886 0.73331946 0.5022906 0.552265 -0.22460072
stable 0.6543823 -0.28550985 -0.59327734 0.93018055 0.7840083 0.087864704 -0.69297785 0.23418726 0.1639758 -0.26642713 -0.053429548 0.70276535 0.4402715 0.55566084 -0.21981438
stay 0.66182286 -0.32480928 -0.56985724 0.9754583 0.78738075 0.11960713 -0.7429864 0.24534905 0.19584276 -0.26886776 -0.08279691 0.7464641 0.46774516 0.5569791 -0.20966262
area 0.66948205 -0.31315097 -0.56836176 0.8992383 0.76483077 0.088257566 -0.67947716 0.19500184 0.18144275 -0.26263204 -0.094988 0.68235594 0.4544161 0.5366232 -0.2062816
keep 0.70730436 -0.31168178 -0.6470267 0.99114776 0.8479562 0.1138235 -0.7213034 0.2522991 0.23420715 -0.27016354 -0.06643314 0.7845306 0.49052602 0.6214494 -0.2372322
fairly 0.82512695 -0.37654862 -0.6708384 1.1242793 0.9125158 0.12301685 -0.794207 0.22942276 0.22458859 -0.28545606 -0.09390238 0.8829353 0.5441782 0.64395297 -0.22289462
continuing 0.6602425 -0.2685665 -0.5600006 0.9368186 0.7804071 0.059573706 -0.6757318 0.24105804 0.23245327 -0.24289174 -0.0351207 0.6911372 0.4857849 0.54114306 -0.21520424
ago 0.67842907 -0.33779868 -0.63371897 0.93991154 0.85015076 0.11731453 -0.7243759 0.20579295 0.20867993 -0.22828212 -0.09953662 0.7844791 0.470568 0.5791689 -0.23912704
data 0.8341075 -0.3844536 -0.7344656 1.1840713 0.96558595 0.09114922 -0.85341704 0.2756672 0.278006 -0.32541314 -0.11943873 0.897237 0.5912458 0.71525586 -0.27798426
less 0.72087073 -0.32060853 -0.64532757 0.99380803 0.8320782 0.13840362 -0.7787854 0.24366617 0.21565408 -0.2411206 -0.044614732 0.76902616 0.48267055 0.57649887 -0.20908222
program 0.8393884 -0.37320238 -0.6885956 1.1512411 0.9602794 0.09795292 -0.82198775 0.27189642 0.21518275 -0.29493022 -0.109212 0.8500386 0.55331427 0.68738323 -0.24031398
ask 0.7795343 -0.3103757 -0.6029943 1.027232 0.81616396 0.1114476 -0.76215804 0.23794669 0.21342155 -0.29168177 -0.09537577 0.84043807 0.46407008 0.6273907 -0.23789208
wealth 0.74627686 -0.3106552 -0.5790287 1.0123858 0.85632706 0.08956878 -0.73815316 0.21935014 0.21968254 -0.2627556 -0.0842716 0.7968217 0.5324557 0.595328 -0.18526962
initiatives 0.64970386 -0.26644287 -0.51162875 0.8997836 0.74572563 0.1221764 -0.65542793 0.18457906 0.20180233 -0.24469617 -0.07730577 0.68821096 0.44999924 0.5290001 -0.19541073
space 0.9014987 -0.3810119 -0.7376731 1.2250941 1.017645 0.11630035 -0.90813214 0.2811636 0.2687802 -0.29252493 -0.0865649 0.9729416 0.6278883 0.74460006 -0.27387375
ability 0.75657105 -0.3346799 -0.6028795 1.0055846 0.82857156 0.080870666 -0.73880625 0.22740704 0.20783703 -0.2688458 -0.0684999 0.8211282 0.4885053 0.62237936 -0.21804121
gerard 0.4317464 -0.19431053 -0.37712038 0.61385924 0.50554174 0.06319364 -0.4898473 0.16076447 0.10493667 -0.1678112 -0.06955616 0.49089247 0.28200328 0.39619026 -0.123685844
months 0.7520367 -0.33569914 -0.6425974 1.0448157 0.86728483 0.13926338 -0.8058489 0.22391762 0.21375518 -0.30455056 -0.111522555 0.81869465 0.48423475 0.6471786 -0.2478085
portfolios 0.72641927 -0.2757721 -0.61010826 0.93488127 0.7765189 0.09136467 -0.74300635 0.1934799 0.20872247 -0.25505733 -0.045909103 0.7544541 0.5122303 0.5734781 -0.22115862
sort 0.7925709 -0.35034585 -0.67339104 1.0754026 0.8758042 0.08742737 -0.81241196 0.220808 0.2546891 -0.2702498 -0.09018399 0.8333013 0.5306037 0.6104302 -0.23147449
expectation 0.6327131 -0.24282165 -0.54438746 0.8115654 0.71810293 0.104077674 -0.6406504 0.20905049 0.16551474 -0.25332808 -0.04895737 0.667225 0.4296116 0.5142378 -0.1754552
checking 0.57951045 -0.25052264 -0.49009314 0.7147291 0.5969075 0.032637652 -0.5886053 0.16784668 0.19252436 -0.16377969 -0.0804422 0.56930846 0.34983453 0.41286278 -0.20535241
positive 0.7323009 -0.34670708 -0.61775005 1.0167488 0.80339116 0.07891422 -0.7465239 0.24385223 0.19664095 -0.2722096 -0.039965633 0.79191566 0.51464367 0.5927958 -0.22211337
costs 0.6238988 -0.2875371 -0.5483993 0.90419483 0.7372254 0.08563376 -0.63426685 0.22096567 0.23066413 -0.23627539 -0.105302945 0.7151815 0.46644327 0.5124149 -0.21365815
money 0.5914909 -0.23343462 -0.4862781 0.76644295 0.6743974 0.086171664 -0.6133876 0.17620221 0.20277627 -0.17491876 -0.042828996 0.6349742 0.397973 0.4410225 -0.20426418
amount 0.67541486 -0.28467056 -0.5927933 0.88850313 0.760393 0.12549472 -0.6717686 0.2166849 0.17163444 -0.21576123 -0.03477408 0.72268623 0.49725184 0.5138448 -0.20132954
half 0.5742722 -0.22614895 -0.48831058 0.76315403 0.68140703 0.07618546 -0.6088984 0.198059 0.18167801 -0.23148067 -0.030999703 0.5705207 0.4005021 0.42338076 -0.20088647
shareholders 0.732401 -0.34635517 -0.6459852 1.0316349 0.89234 0.10277519 -0.75332797 0.2444245 0.25509903 -0.27441114 -0.083048075 0.80033165 0.5549996 0.6375522 -0.24645124
branch 0.85806847 -0.36476418 -0.7455413 1.1413876 0.9921132 0.13367449 -0.86660707 0.23983015 0.23657998 -0.2872188 -0.05328223 0.9153772 0.56065804 0.7309904 -0.24181454
tell 0.64222807 -0.30712822 -0.58035874 0.8940854 0.7743314 0.09607673 -0.6865511 0.22352487 0.21272469 -0.24491106 -0.047443964 0.67459565 0.4317232 0.5101991 -0.22786896
relative 0.7406292 -0.3132504 -0.5987247 0.9412853 0.826412 0.10897724 -0.7257406 0.2149346 0.23643102 -0.23453361 -0.056922603 0.731546 0.50578654 0.60490614 -0.19894795
q 0.71154255 -0.310418 -0.6151198 0.9796818 0.8146306 0.13159043 -0.7013663 0.23117355 0.18490088 -0.287359 -0.04860702 0.772335 0.49845275 0.5471324 -0.18793902
place 0.58101374 -0.24093159 -0.51379275 0.801712 0.6902817 0.10881202 -0.6546669 0.17011507 0.16267633 -0.18618341 -0.028058393 0.6524037 0.41813293 0.5154315 -0.16223583
early 0.73087066 -0.2751345 -0.59086734 0.94605994 0.8053165 0.08335826 -0.7314217 0.20850033 0.1986061 -0.22905941 -0.0954122 0.7612284 0.51507586 0.5715052 -0.22904368
always 0.6206215 -0.2956793 -0.5689158 0.8639615 0.7051618 0.09421211 -0.62674564 0.18415502 0.21821912 -0.20680484 -0.027116247 0.67006034 0.460688 0.52849054 -0.19691132
move 0.7407378 -0.3031298 -0.5753347 0.985636 0.81586456 0.07568235 -0.7670274 0.25098628 0.21495874 -0.2779915 -0.05318498 0.7959063 0.46563944 0.5539803 -0.2126002
energy 0.7948467 -0.32547694 -0.6925576 1.0731119 0.92684287 0.1094575 -0.8050642 0.21988453 0.19557986 -0.3022576 -0.10648731 0.8329273 0.5308719 0.6466893 -0.2341564
barb 0.5341095 -0.19963136 -0.45848086 0.7547338 0.6135475 0.09770883 -0.58830297 0.20307514 0.16051595 -0.23539247 -0.040540457 0.60295975 0.39262676 0.4256879 -0.17221998
best 0.58228886 -0.27020112 -0.5479735 0.8503495 0.7043183 0.07457165 -0.5851953 0.15681899 0.16073225 -0.22327411 -0.07863815 0.64926344 0.42730886 0.51806194 -0.21108396
helpful 0.48522055 -0.17449039 -0.42318866 0.6377923 0.5983193 0.05693169 -0.48518774 0.15474933 0.09073154 -0.19406025 -0.027828572 0.5048789 0.35000643 0.40286624 -0.14882442
thinking 0.63932997 -0.24929857 -0.5469843 0.8768508 0.70201695 0.121326335 -0.6804334 0.20410693 0.1648302 -0.26082823 -0.058958966 0.6584647 0.40524277 0.5287696 -0.19858131
times 0.6874888 -0.33194342 -0.5842067 0.9907926 0.8040188 0.07365311 -0.7334363 0.21721692 0.21856621 -0.27911332 -0.061313454 0.77019286 0.46763143 0.59549665 -0.21553496
using 0.7541258 -0.35883558 -0.6413742 1.0688756 0.8937205 0.14044967 -0.8234705 0.245493 0.21755885 -0.27895814 -0.091806084 0.8411418 0.5675996 0.6303772 -0.24585706
top 0.7305402 -0.3130665 -0.63341165 0.97901076 0.86766875 0.10835964 -0.7309574 0.24264936 0.23689693 -0.24030524 -0.07067412 0.79639184 0.4930024 0.61484975 -0.2004901
plus 0.48302308 -0.20573741 -0.43706384 0.68612117 0.55834997 0.09433295 -0.5185867 0.17893825 0.12312042 -0.22057344 -0.062686756 0.5463535 0.34303373 0.4017574 -0.13415167
competitive 0.62819916 -0.26429072 -0.54275507 0.8801955 0.7601424 0.10671185 -0.6566107 0.21107851 0.15778273 -0.2596316 -0.0921068 0.6839039 0.4784888 0.49250048 -0.19568239
example 0.71454567 -0.27438915 -0.5959626 0.9287375 0.8235158 0.093031585 -0.7277233 0.18455869 0.23850007 -0.23951693 -0.088016644 0.78285915 0.50311404 0.5405838 -0.2180182
numbers 0.6339195 -0.25313863 -0.5590685 0.8400489 0.7402144 0.117238134 -0.6240474 0.18678331 0.16602257 -0.22255568 -0.053309646 0.665593 0.41109934 0.54245895 -0.21922992
already 0.65416217 -0.28964478 -0.53915673 0.8596564 0.6898722 0.06567196 -0.65263575 0.21971838 0.1541748 -0.23805538 -0.090069555 0.68759775 0.43363968 0.48506808 -0.1672099
challenging 0.5293245 -0.2121985 -0.4923774 0.75244963 0.5899639 0.08355859 -0.55798393 0.1464171 0.14439973 -0.17354661 -0.077597424 0.5564464 0.35490084 0.45420602 -0.13586439
potentially 0.75623256 -0.36072636 -0.67855805 1.078368 0.9000676 0.084364235 -0.7694987 0.21892951 0.24389797 -0.26188168 -0.08470583 0.80160356 0.5466451 0.6192519 -0.20948464
high 0.6587482 -0.32627204 -0.5634559 0.9525445 0.75152284 0.097684585 -0.72344315 0.18461725 0.17290032 -0.243367 -0.096534394 0.74265456 0.477182 0.52820027 -0.22649235
fact 0.72315913 -0.28093073 -0.5575905 0.98274815 0.77737063 0.092408024 -0.73043734 0.18361127 0.17914534 -0.268364 -0.04947277 0.74841225 0.44103596 0.5418922 -0.19588281
taking 0.55567425 -0.21826634 -0.45476437 0.8054911 0.6527154 0.10296946 -0.6212231 0.18636948 0.17063954 -0.22977205 -0.05634237 0.61322784 0.35200188 0.44620198 -0.1835359
wondering 0.6541286 -0.31611124 -0.57367104 0.91357714 0.75558305 0.06636619 -0.70760834 0.1766246 0.18497068 -0.25407064 -0.09338728 0.7481669 0.43225405 0.55505353 -0.20793751
cant 0.59522665 -0.24944106 -0.48524138 0.7990844 0.69087243 0.080894984 -0.6348834 0.19805743 0.16248567 -0.21919404 -0.07659913 0.6213235 0.42158443 0.5164265 -0.16688432
quite 0.74027556 -0.30865148 -0.63803726 1.0174028 0.9012279 0.08249261 -0.76718867 0.23152982 0.24476351 -0.2605261 -0.078955434 0.82279456 0.49978167 0.58499384 -0.23463786
mobile 0.69981986 -0.31514382 -0.6563651 0.98735803 0.79147166 0.08308145 -0.7692934 0.22042036 0.19001867 -0.26953408 -0.088599615 0.82034343 0.52545094 0.5901933 -0.21932851
answer 0.49452886 -0.23613735 -0.4414823 0.6627646 0.5498387 0.081890725 -0.53549975 0.19781037 0.11640871 -0.19170895 -0.071173266 0.57046515 0.3529243 0.4115539 -0.13731787
account 0.61741567 -0.2738756 -0.5347919 0.85722554 0.7584836 0.05963408 -0.6859321 0.18812813 0.18465899 -0.23138288 -0.031498875 0.641274 0.40982103 0.5021655 -0.18585265
working 0.70484805 -0.31688648 -0.6111097 0.9022155 0.75854105 0.068345025 -0.7138151 0.24022913 0.22365205 -0.25914067 -0.09165191 0.7218117 0.47971538 0.56863284 -0.23280063
total 0.6224935 -0.2813155 -0.51194555 0.79634935 0.67000324 0.116532736 -0.60072154 0.15266408 0.15959685 -0.21935871 -0.047809914 0.6242583 0.43163496 0.51110166 -0.17160833
platform 0.6327166 -0.23775356 -0.5185352 0.8657229 0.70945334 0.11338948 -0.66383237 0.2206839 0.18885134 -0.19493333 -0.087957785 0.6905085 0.38695276 0.51761645 -0.16165777
roughly 0.59084547 -0.2661327 -0.4970698 0.7756293 0.6505505 0.118371904 -0.570656 0.1813104 0.14809245 -0.23709624 -0.041080408 0.60613525 0.41957778 0.45330694 -0.170175
significant 0.6161618 -0.26950166 -0.5235379 0.792533 0.69007725 0.09513867 -0.597103 0.15582085 0.14210375 -0.22852406 -0.07194842 0.65538925 0.44146973 0.47106737 -0.17844267
ccar 0.6389136 -0.28051153 -0.54790235 0.84305555 0.7208759 0.11722162 -0.63061434 0.1941056 0.20144519 -0.21402523 -0.040259697 0.6791862 0.4694675 0.49854454 -0.17189679
franchise 0.54170877 -0.23140159 -0.47958037 0.70130354 0.5778325 0.07664462 -0.52191824 0.17196886 0.16328897 -0.22221267 -0.077889584 0.56168973 0.341385 0.4376233 -0.15699044
happen 0.57493407 -0.22711052 -0.48453224 0.78506833 0.6365301 0.081104346 -0.56176263 0.21021892 0.15710905 -0.23319803 -0.06416135 0.6014668 0.38213378 0.45306128 -0.15502907
flat 0.5104612 -0.19413064 -0.44520468 0.728979 0.5985502 0.07826628 -0.51722157 0.15267476 0.16784638 -0.17285167 -0.08655137 0.5026364 0.33793125 0.43916726 -0.15997584
strategy 0.69352907 -0.3061517 -0.57715845 0.9289714 0.7689202 0.12377486 -0.6525341 0.17623684 0.18795596 -0.2696626 -0.07783068 0.6790587 0.47169825 0.57473516 -0.22783674
hard 0.64403456 -0.29830092 -0.5807429 0.9001095 0.7753565 0.09890926 -0.6844126 0.20418848 0.18845889 -0.24856576 -0.064517096 0.68290585 0.4506363 0.55936253 -0.17647174
job 0.50068367 -0.17682683 -0.44757035 0.70415044 0.59079814 0.055625517 -0.50637275 0.14765544 0.16582824 -0.1847086 -0.08089797 0.558126 0.31966123 0.445401 -0.13549778
targets 0.708326 -0.2924489 -0.5998809 0.9399743 0.8234466 0.0694176 -0.6894606 0.19369861 0.23045644 -0.22782327 -0.06452336 0.78162605 0.49272165 0.55178326 -0.19388826
tier 0.60101974 -0.22052859 -0.48992455 0.80271703 0.6791253 0.048934277 -0.6386703 0.21586703 0.15751453 -0.23065695 -0.07188317 0.6170342 0.4039413 0.452235 -0.20361616
runoff 0.5214922 -0.25193608 -0.4805806 0.72132117 0.6255493 0.048443336 -0.5456974 0.18503402 0.14283434 -0.22151022 -0.05255518 0.58180344 0.35224274 0.44697884 -0.16086031
far 0.701336 -0.3007876 -0.61534756 0.9509548 0.8066488 0.06605563 -0.7282435 0.22051686 0.17551064 -0.25393134 -0.07630676 0.7637855 0.48627904 0.5516112 -0.21599384
mix 0.49553663 -0.21429776 -0.4762971 0.7123318 0.5862623 0.10660185 -0.55933326 0.13972366 0.18045115 -0.21554925 -0.021012451 0.55776113 0.39360407 0.41425246 -0.13661994
areas 0.5456978 -0.2229145 -0.50353146 0.7534018 0.68159175 0.08590013 -0.5912507 0.18331186 0.13822867 -0.19605882 -0.07326012 0.5832474 0.39786425 0.4600064 -0.15623818
pressure 0.59878033 -0.24047355 -0.5305459 0.8403746 0.677947 0.06436907 -0.6146601 0.17779298 0.19377908 -0.2377988 -0.06581908 0.63526195 0.4080118 0.45768327 -0.20367552
build 0.5396028 -0.24312289 -0.49119142 0.7347066 0.6537632 0.08392477 -0.53667754 0.19179714 0.13978723 -0.21937631 -0.039018646 0.56809384 0.36625 0.42545497 -0.1611627
nice 0.4412322 -0.17722118 -0.3687468 0.5859044 0.5049543 0.025332676 -0.4202316 0.1122318 0.14248493 -0.17212345 -0.037360925 0.44117314 0.3241256 0.31752086 -0.1330096
auto 0.61690146 -0.2520508 -0.53758603 0.82698447 0.6799984 0.08797071 -0.6483245 0.15387096 0.1786848 -0.19507228 -0.096097216 0.6311897 0.4440104 0.4877683 -0.20384352
bankers 0.69424534 -0.27490568 -0.56844425 0.9075349 0.80127794 0.066996135 -0.70830166 0.23960601 0.22378384 -0.25592822 -0.08379511 0.74661046 0.48313916 0.5623592 -0.23826848
relationship 0.56932104 -0.2818297 -0.48006144 0.8097456 0.6797138 0.050779115 -0.61447257 0.18719329 0.18808879 -0.21878433 -0.047569256 0.6331325 0.38767415 0.47511268 -0.17421776
changed 0.60362315 -0.26320174 -0.53371125 0.90405935 0.75675327 0.107083865 -0.66517735 0.20435065 0.19043066 -0.22793533 -0.031890094 0.6666501 0.41476142 0.5508873 -0.20498851
team 0.60264146 -0.25452393 -0.50741875 0.84116435 0.71568894 0.07516063 -0.6055219 0.19130231 0.1728073 -0.22237553 -0.05819049 0.663424 0.418704 0.4617624 -0.1814815
gives 0.5297522 -0.22768137 -0.42727667 0.72690636 0.63042593 0.07695623 -0.57696724 0.17623593 0.1846984 -0.16682008 -0.019145614 0.5930843 0.34160706 0.4088387 -0.18747447
experience 0.37692708 -0.20189396 -0.3609828 0.5330373 0.46563333 0.07879511 -0.43992952 0.11974577 0.12544909 -0.13521574 -0.04609111 0.42112306 0.2987639 0.32082137 -0.1618894
id 0.49253172 -0.21295877 -0.44680592 0.63530684 0.53648883 0.0935826 -0.47861385 0.17569041 0.10957879 -0.17537524 -0.04614513 0.50723827 0.3358367 0.4177536 -0.16257483
dividend 0.60695344 -0.3017317 -0.5136577 0.89044887 0.76236993 0.08317599 -0.6564847 0.18732059 0.21707518 -0.2208057 -0.0444573 0.68496966 0.44414666 0.5238489 -0.19108215
demand 0.4555773 -0.16913086 -0.33531407 0.60231656 0.5259563 0.09023596 -0.47461095 0.16000289 0.090782486 -0.1276624 -0.023518804 0.4342436 0.3040174 0.3185136 -0.17007118
group 0.71674293 -0.31915236 -0.6054834 0.9523625 0.8305392 0.075967625 -0.7008005 0.23844285 0.17802976 -0.28136352 -0.09332789 0.7450794 0.51104873 0.59687376 -0.2321603
hey 0.3126255 -0.15425828 -0.2683143 0.5150129 0.3948351 0.03350394 -0.34769717 0.11678111 0.091407046 -0.1768475 -0.032034677 0.42461023 0.24467498 0.2984625 -0.14280029
full 0.53712124 -0.19664238 -0.45231262 0.7485883 0.61861175 0.048009545 -0.52628714 0.14214331 0.137497 -0.17563006 -0.055081293 0.5548849 0.36727482 0.45694262 -0.16652751
color 0.45520452 -0.20553938 -0.37555674 0.67728263 0.57292664 0.06624993 -0.5232564 0.15085836 0.122493096 -0.18590024 -0.08731313 0.54237896 0.2923794 0.3890639 -0.16986877
count 0.5285934 -0.26692528 -0.47025287 0.7263412 0.6148552 0.09073706 -0.53398114 0.13892244 0.13993365 -0.21278693 -0.0807167 0.5982796 0.33821782 0.43350548 -0.16957903
talking 0.4939292 -0.23205587 -0.47820336 0.7423618 0.6035335 0.10735213 -0.53884065 0.16401358 0.18125464 -0.17097336 -0.038934022 0.5459084 0.3876476 0.4104817 -0.14715946
many 0.61772305 -0.2809249 -0.5574436 0.8399742 0.73257303 0.10156205 -0.63083535 0.21082072 0.1610262 -0.22290783 -0.03212711 0.63588315 0.3961725 0.5263998 -0.18506914
particularly 0.5649612 -0.26010212 -0.4474802 0.7920606 0.61577916 0.06604794 -0.5945262 0.18738425 0.18686678 -0.19517861 -0.03246007 0.56873167 0.36318627 0.46761268 -0.16345912
pay 0.5781953 -0.2240602 -0.49434736 0.7970363 0.67255145 0.054128468 -0.5878329 0.20850909 0.16329919 -0.20805985 -0.07732133 0.6193938 0.43442416 0.4555456 -0.1987609
service 0.6446474 -0.32313463 -0.5803846 0.8889571 0.7761583 0.109580554 -0.7039611 0.19245392 0.21682927 -0.2409188 -0.0673484 0.7306316 0.44413322 0.5669475 -0.23706728
relatively 0.5989265 -0.27651381 -0.50567114 0.8000321 0.6463349 0.057814732 -0.57826775 0.18357064 0.18052089 -0.17387953 -0.08854799 0.6135128 0.40310365 0.46393272 -0.16618133
insurance 0.67306966 -0.29230857 -0.5658767 0.90062416 0.73742163 0.10231795 -0.6936002 0.18084738 0.16684051 -0.27346715 -0.06951105 0.7133048 0.44964615 0.5172338 -0.1953486
understand 0.5238599 -0.23415358 -0.4622195 0.7553878 0.61347383 0.0989763 -0.5245758 0.15622517 0.15647888 -0.15696687 -0.059240125 0.5854443 0.36671382 0.40675 -0.12964724
teams 0.52507085 -0.18715641 -0.41743386 0.68924385 0.627774 0.06180471 -0.51909256 0.1654963 0.1374131 -0.19545107 -0.05105705 0.5385217 0.33189192 0.4166324 -0.17054191
followup 0.43959108 -0.18076394 -0.39032373 0.58006454 0.4782962 0.07919139 -0.47358605 0.15547223 0.11279447 -0.1336033 -0.031770322 0.49796304 0.31439564 0.33747616 -0.15955688
online 0.58997226 -0.22276191 -0.5156359 0.7643797 0.6197319 0.08200235 -0.5622001 0.17121635 0.16679138 -0.19909431 -0.0700937 0.65405 0.36501294 0.49975312 -0.17841907
close 0.5284297 -0.23559165 -0.4021215 0.66872627 0.5858636 0.063432835 -0.5257688 0.1926324 0.15139402 -0.20935401 -0.03148823 0.5409214 0.35252273 0.40180486 -0.15544559
liquidity 0.57183826 -0.24302822 -0.46747416 0.75983214 0.6519118 0.09886007 -0.5948218 0.15152983 0.16312614 -0.17810565 -0.086157136 0.6140048 0.41265884 0.4879934 -0.1661035
overall 0.5232824 -0.22463532 -0.445281 0.7262775 0.6017011 0.047668416 -0.5151205 0.1555671 0.1448908 -0.18272698 -0.07374022 0.5569603 0.40191853 0.46553046 -0.17706543
certainly 0.53082776 -0.23111956 -0.4351867 0.670113 0.58412266 0.103514045 -0.5084402 0.16586082 0.16952012 -0.14988011 -0.038760837 0.5488752 0.3271326 0.4312542 -0.14750476
anything 0.5450912 -0.22006732 -0.43320376 0.71902853 0.62062156 0.050961863 -0.524586 0.18772174 0.18062043 -0.19489832 -0.05946435 0.58544725 0.33757448 0.45433775 -0.18744713
company 0.59718496 -0.24892765 -0.52052915 0.82879853 0.6521176 0.07432177 -0.58336467 0.14708196 0.19352062 -0.21845838 -0.086993575 0.65684474 0.36977986 0.47279862 -0.19355664
piece 0.49288034 -0.1952449 -0.4518845 0.6923458 0.6119217 0.04763011 -0.5442127 0.16198015 0.15508713 -0.18470728 -0.036090683 0.56656563 0.3275728 0.4226199 -0.18953562
generate 0.40727007 -0.2199475 -0.37342703 0.5781012 0.48364592 0.052600008 -0.45157427 0.10955765 0.113448046 -0.16417496 -0.020106178 0.43798462 0.30376077 0.37872547 -0.10450981
hedging 0.5508049 -0.22883426 -0.47342685 0.7800577 0.63206583 0.051250562 -0.5350932 0.15798037 0.16818446 -0.19697611 -0.05436559 0.6068707 0.35482544 0.4169501 -0.1365949
relationships 0.6037243 -0.27220443 -0.5183771 0.82422614 0.66834337 0.056371454 -0.64699644 0.18043901 0.17202307 -0.23236261 -0.037859213 0.6758012 0.44037637 0.47521955 -0.1764213
sensitivity 0.57063276 -0.2421398 -0.4678158 0.72296125 0.6036117 0.09613568 -0.59319556 0.20078029 0.16399162 -0.1848035 -0.08877678 0.5877936 0.38541698 0.45407978 -0.14737302
initiative 0.4756877 -0.18070196 -0.38160977 0.63270545 0.52497864 0.07977489 -0.46382594 0.13551679 0.17472328 -0.17285393 -0.016199918 0.5114203 0.35773888 0.37628606 -0.15640497
came 0.5600255 -0.24071041 -0.46274278 0.7754456 0.64692336 0.07656968 -0.6131476 0.1632819 0.16882098 -0.17899607 -0.023906415 0.62454575 0.38592055 0.43641466 -0.14766766
set 0.5112933 -0.24184808 -0.4136023 0.7192202 0.6259482 0.10349859 -0.50858045 0.14084677 0.18774882 -0.1778482 -0.034252975 0.5361568 0.37124407 0.40650657 -0.13092361
extent 0.60482883 -0.28944498 -0.49268076 0.7794811 0.64634395 0.07686298 -0.6139442 0.15610336 0.17203592 -0.23551129 -0.037179254 0.6350209 0.39084798 0.50544786 -0.21067642
line 0.6011007 -0.2246527 -0.4968435 0.8312249 0.6837522 0.0557835 -0.5695689 0.18017463 0.16860256 -0.24401551 -0.04844037 0.61967677 0.38002473 0.4849709 -0.20015165
needs 0.5632977 -0.28059712 -0.469321 0.79533505 0.677192 0.09945015 -0.5606865 0.16747765 0.15250605 -0.23436497 -0.07733046 0.6379554 0.43558055 0.44308618 -0.18326657
levels 0.5584477 -0.21071395 -0.48336047 0.7557758 0.63235855 0.09848496 -0.55316806 0.14140242 0.14444236 -0.19290881 -0.051999904 0.5677665 0.400868 0.44297007 -0.17801334
corporate 0.55424047 -0.23344792 -0.5082204 0.7528292 0.65988344 0.09600032 -0.56276345 0.1579019 0.17685488 -0.19866805 -0.023105437 0.6240078 0.40143 0.5031633 -0.19299313
committed 0.52195174 -0.24085711 -0.43703172 0.7205742 0.5457839 0.06351452 -0.5401604 0.17009938 0.12287961 -0.18142106 -0.07931132 0.5623697 0.3247643 0.39096507 -0.12398367
reduce 0.59159565 -0.2628623 -0.51207256 0.84259397 0.687167 0.10757131 -0.6271748 0.18359043 0.15101954 -0.2563877 -0.07374204 0.68642795 0.42555088 0.51928544 -0.20680577
others 0.56772226 -0.27920917 -0.51696116 0.8005546 0.6780535 0.11226564 -0.58310443 0.15847333 0.2013488 -0.24393536 -0.055080973 0.6616571 0.41782916 0.51389194 -0.15064715
deliver 0.5891159 -0.26725066 -0.5336404 0.82032025 0.7151895 0.11606508 -0.6242297 0.22102994 0.19075643 -0.20335212 -0.06395948 0.66987205 0.42404008 0.48782367 -0.18987113
services 0.5154368 -0.24840899 -0.43312854 0.69250834 0.55412215 0.082485415 -0.5463782 0.1503239 0.18075137 -0.18743347 -0.03516359 0.5627941 0.37514514 0.40775955 -0.1812353
factset 0.78192735 -0.3582038 -0.6709128 1.1519688 0.9067392 0.15061672 -0.82670945 0.2508551 0.21770531 -0.33463025 -0.046116482 0.8622858 0.5451955 0.7126068 -0.2706197
primarily 0.6672341 -0.26181182 -0.52055734 0.8533389 0.7034431 0.05911017 -0.6181506 0.18428017 0.20505884 -0.22487067 -0.07931524 0.66636807 0.4260318 0.55078566 -0.2232134
nonbank 0.49348798 -0.22511457 -0.3966083 0.6915069 0.5318893 0.039402567 -0.47503954 0.18094298 0.15566091 -0.17285301 -0.016837876 0.5389361 0.33171743 0.37740308 -0.1808599
become 0.5830373 -0.24922273 -0.48067877 0.80396533 0.6867194 0.11738052 -0.59620225 0.16762844 0.20206812 -0.19287506 -0.0533751 0.63764924 0.4400826 0.49318135 -0.15963331
betas 0.4769327 -0.2274702 -0.3640667 0.61943305 0.50984824 0.07694565 -0.45595625 0.13203904 0.13458616 -0.13523875 -0.05704263 0.4993912 0.28101256 0.37386626 -0.14211296
head 0.57944155 -0.25369576 -0.44686532 0.7453209 0.6376447 0.10540914 -0.5737289 0.17715509 0.14052075 -0.20781046 -0.043864273 0.5819043 0.39966232 0.456399 -0.12778398
quarters 0.48205182 -0.22008349 -0.4549633 0.6795041 0.5533 0.10310205 -0.51581156 0.14342864 0.18932416 -0.1852794 -0.086106785 0.56928706 0.34028792 0.387799 -0.1237102
fee 0.46900004 -0.19212219 -0.39744914 0.5952087 0.4822509 0.07704384 -0.45539445 0.13958004 0.124429725 -0.13378145 -0.03105669 0.46624008 0.26830512 0.36187592 -0.10810894
type 0.5448435 -0.26485047 -0.48418963 0.7891959 0.6504078 0.05215367 -0.553743 0.14410676 0.19505475 -0.21277201 -0.085757196 0.6292173 0.3643984 0.4443649 -0.17495133
credits 0.70131874 -0.3220419 -0.6444533 0.9799251 0.79037035 0.09395641 -0.73891723 0.25561333 0.22850108 -0.28509432 -0.0655664 0.7796204 0.48072922 0.61407506 -0.22478284
matt 0.38338915 -0.18078761 -0.29288596 0.5180472 0.41565594 0.07368931 -0.34997576 0.10064593 0.11184404 -0.14411461 -0.021094462 0.41168568 0.21677251 0.28873283 -0.092827044
certain 0.51470304 -0.19855544 -0.42805547 0.7522823 0.6289929 0.08102713 -0.56131405 0.18838012 0.13805237 -0.2093781 -0.075838536 0.5888664 0.3562154 0.4391341 -0.15242496
course 0.49448425 -0.217112 -0.4306195 0.6490388 0.54028213 0.053542178 -0.5125826 0.1372387 0.13044159 -0.19461279 -0.033404402 0.498487 0.32696828 0.38416824 -0.17255796
largely 0.7068223 -0.29763559 -0.564295 0.9437908 0.8073801 0.063785195 -0.70680654 0.2434129 0.19349162 -0.22507143 -0.054170433 0.7358517 0.4362976 0.5681031 -0.18605517
short 0.4737746 -0.19473474 -0.42263472 0.66535306 0.58574176 0.07020008 -0.5168857 0.13833338 0.14500442 -0.17409182 -0.0691568 0.5380431 0.33781555 0.39697185 -0.1704726
started 0.5077233 -0.22428137 -0.405325 0.6521516 0.59337586 0.037739504 -0.5174995 0.1622171 0.17283982 -0.2064148 -0.01985116 0.5368312 0.3570998 0.42959616 -0.118698314
board 0.5951958 -0.22273727 -0.5060694 0.8078242 0.6685023 0.071430735 -0.6187954 0.20967728 0.16487111 -0.1859669 -0.045967024 0.6296407 0.40212262 0.49595305 -0.20070186
comes 0.5785069 -0.25553262 -0.47248062 0.79558 0.63676184 0.11377064 -0.56493866 0.14918864 0.15990517 -0.19682148 -0.06197993 0.6012133 0.38657916 0.46385825 -0.14600609
since 0.5202569 -0.24967113 -0.47477168 0.76399016 0.61083406 0.084478155 -0.53802955 0.15873262 0.19121225 -0.16617294 -0.060125887 0.55149955 0.3511692 0.45112693 -0.15283099
prepared 0.47548565 -0.20200129 -0.42769474 0.69154716 0.57369936 0.06052313 -0.5270188 0.13736223 0.12509498 -0.20233575 -0.055394746 0.51569456 0.36007985 0.43361753 -0.1622566
wed 0.48874968 -0.22785193 -0.41238344 0.6639199 0.5314672 0.104674935 -0.46677685 0.11977766 0.12848872 -0.17945875 -0.02249365 0.4884057 0.35818037 0.4121061 -0.17563011
key 0.47062832 -0.22034182 -0.40358844 0.65912354 0.57652915 0.095302284 -0.52965736 0.1473176 0.16193224 -0.15122814 -0.03791051 0.56854916 0.33673358 0.418869 -0.12618963
footprint 0.6211792 -0.26134512 -0.48526913 0.8296782 0.6958411 0.080149494 -0.5787291 0.1773981 0.1503479 -0.2044022 -0.04614878 0.65869045 0.37592894 0.4894164 -0.15806006
future 0.45445877 -0.18821698 -0.3830713 0.5611774 0.4989257 0.046973422 -0.44130838 0.12780973 0.12262779 -0.15408185 -0.061049905 0.47980556 0.30998966 0.38016862 -0.11479927
faster 0.4054545 -0.1695572 -0.33829916 0.620981 0.5253677 0.08757657 -0.4426251 0.12602752 0.13891935 -0.18218707 -0.059012312 0.45865917 0.3246791 0.3205368 -0.10568289
moving 0.5138108 -0.24415612 -0.45369467 0.751281 0.6120349 0.0962549 -0.57377714 0.14025298 0.16447137 -0.19308116 -0.069012456 0.6067409 0.34608692 0.44742537 -0.17296903
lets 0.4497949 -0.174032 -0.40384337 0.6335675 0.5288979 0.040487982 -0.49662063 0.140326 0.15137039 -0.13474774 -0.04128815 0.5051666 0.29506618 0.40424836 -0.15402886
fixed 0.53987163 -0.24420665 -0.45406276 0.71933645 0.6218564 0.08244889 -0.5268053 0.17194572 0.17375982 -0.18520723 -0.037618127 0.57254463 0.32307696 0.4496398 -0.1578904
losses 0.5893375 -0.24383156 -0.490176 0.80409884 0.7021849 0.076172546 -0.6324709 0.15904057 0.1928232 -0.2137246 -0.056497198 0.6363984 0.423565 0.46828577 -0.17351481
try 0.5175114 -0.25156718 -0.4305357 0.7197582 0.62475187 0.0999385 -0.55170363 0.17986828 0.1341553 -0.20208067 -0.033577535 0.56171256 0.34587008 0.43850723 -0.12407881
either 0.4933412 -0.23342377 -0.4290706 0.63895607 0.5754673 0.085213445 -0.49096015 0.14238852 0.16773716 -0.14329232 -0.039536897 0.5254482 0.32173994 0.4124319 -0.12427372
sense 0.41655713 -0.19077852 -0.3393108 0.50896496 0.43008208 0.064885505 -0.4089346 0.097035274 0.09878782 -0.1755717 -0.038764015 0.43322396 0.28930688 0.34862167 -0.1134827
solid 0.32667145 -0.121217065 -0.26840326 0.4164157 0.40417814 0.015856747 -0.35748225 0.09725742 0.06396839 -0.119860835 -0.035618324 0.37964663 0.23496796 0.28297946 -0.11345798
though 0.5581227 -0.26295555 -0.4988711 0.729378 0.65928066 0.056782372 -0.5752795 0.18691401 0.1578342 -0.22914118 -0.04472681 0.59511566 0.36699554 0.48952836 -0.19645187
invest 0.38551366 -0.18768331 -0.36238763 0.5804715 0.47138545 0.08389453 -0.42710418 0.11844781 0.09501047 -0.1562191 -0.05725651 0.45481545 0.31156975 0.35443476 -0.10755329
meet 0.47862464 -0.2494662 -0.45509782 0.7173356 0.601751 0.10261668 -0.49659023 0.12911402 0.14556995 -0.16227238 -0.026136797 0.5110507 0.3859038 0.42930466 -0.11967289
looks 0.41885316 -0.18487298 -0.37107244 0.5633238 0.4546588 0.082019195 -0.42249414 0.16775039 0.118073374 -0.15440829 -0.049226236 0.46503574 0.28278372 0.3098067 -0.09659898
additional 0.45311612 -0.16852948 -0.41948104 0.63480914 0.49938616 0.07876479 -0.47555378 0.17007144 0.11675178 -0.16892812 -0.010919683 0.4998984 0.35551187 0.3761294 -0.17387137
comments 0.43850237 -0.1968921 -0.38723534 0.58909553 0.46567073 0.024987571 -0.40789363 0.12176151 0.099919975 -0.14702836 -0.018016411 0.4711833 0.31792656 0.36266765 -0.13193598
ai 0.5819918 -0.25381312 -0.5286323 0.8245172 0.7162929 0.08231331 -0.63148457 0.20360515 0.18632007 -0.20374988 -0.06339148 0.6589151 0.44653437 0.48885947 -0.1703273
continues 0.44232795 -0.18844917 -0.35504168 0.6423587 0.53438944 0.09818666 -0.4385906 0.12867053 0.15563987 -0.13960335 -0.053219076 0.47314048 0.28426573 0.35330537 -0.14671111
loss 0.4473751 -0.21493825 -0.40299714 0.6686667 0.51842 0.084514715 -0.50119656 0.12610234 0.1353309 -0.19292124 -0.07609212 0.47748646 0.31114167 0.38283056 -0.14616895
earnings 0.41387597 -0.21666682 -0.35159147 0.63702685 0.511852 0.06471851 -0.47649136 0.15964727 0.15491763 -0.15291625 -0.028808024 0.46195918 0.31453127 0.37332362 -0.16322036
provide 0.46996292 -0.1841266 -0.41283184 0.6622615 0.5354655 0.09314186 -0.5221294 0.14113154 0.17711438 -0.17661884 -0.0734497 0.51589835 0.3736944 0.3736883 -0.18242417
current 0.39622164 -0.20316014 -0.36528456 0.552755 0.50349283 0.05455479 -0.4103995 0.15569167 0.14752787 -0.11992373 -0.059039667 0.43050382 0.30246592 0.34169534 -0.12356745
smaller 0.5377434 -0.26067615 -0.44815493 0.7040316 0.6476821 0.068988234 -0.5392439 0.15032747 0.1632212 -0.19159046 -0.022046199 0.57475346 0.3883211 0.43415567 -0.13919628
llc 0.63161737 -0.30984288 -0.57138795 0.95911735 0.73256713 0.07462387 -0.6565706 0.23904167 0.2126 -0.22235967 -0.064549595 0.7630821 0.45330846 0.53577214 -0.18310656
economic 0.47794363 -0.20192854 -0.4145189 0.6140714 0.5316923 0.08562962 -0.46185616 0.17563917 0.1152535 -0.19103083 -0.045942042 0.5244704 0.30925065 0.40924013 -0.1576333
commitment 0.5016858 -0.21109459 -0.44819036 0.6754265 0.53522223 0.10035132 -0.479114 0.1860448 0.17019941 -0.18101119 -0.07193475 0.5384935 0.3564183 0.41468892 -0.16631608
acquisitions 0.429615 -0.18414257 -0.3611312 0.5906541 0.48511052 0.056902636 -0.4172174 0.16547969 0.1421905 -0.1596523 -0.016172407 0.4441145 0.30305684 0.35768905 -0.16288245
exactly 0.30200875 -0.15512492 -0.25734806 0.44450122 0.3898636 0.045215864 -0.35214487 0.120714135 0.0677725 -0.10616872 -0.0035401366 0.37947878 0.2652149 0.2630216 -0.118009
adjusted 0.36596757 -0.14101501 -0.29893893 0.5442118 0.4530734 0.055087812 -0.4130402 0.11988729 0.155474 -0.14494093 -0.07383353 0.41433093 0.28342396 0.32704985 -0.09698467
erika 0.283299 -0.09375904 -0.21496701 0.38587517 0.30452496 0.03782783 -0.30275506 0.08155372 0.09614464 -0.13522734 -0.0015283265 0.3207214 0.16060947 0.27120587 -0.091238484
perhaps 0.35706156 -0.15955526 -0.32816237 0.5202089 0.4847778 0.070688464 -0.40911204 0.10521424 0.0998982 -0.12816602 -0.040548988 0.44504356 0.28137133 0.3298305 -0.1158549
hear 0.3716841 -0.1685821 -0.346175 0.57110703 0.46802688 0.06517313 -0.38087288 0.15871453 0.13417506 -0.17561515 -0.013996557 0.4243378 0.23876897 0.3559472 -0.14231838
continued 0.4908808 -0.17245333 -0.3661214 0.63835424 0.532179 0.055783078 -0.47285444 0.16904555 0.15634952 -0.15530156 -0.06551801 0.47482598 0.32688478 0.3625139 -0.17021267
ken 0.30945534 -0.12680599 -0.22369674 0.4214403 0.31995973 0.055961784 -0.28722432 0.070200436 0.095748246 -0.12595169 -0.061268114 0.28884688 0.17864881 0.26602897 -0.09946043
saying 0.46059367 -0.1910556 -0.35763904 0.6066697 0.5130744 0.036559187 -0.43709883 0.16592042 0.098536305 -0.15972522 -0.012006951 0.43699944 0.31920707 0.35085815 -0.11552214
percentage 0.52104217 -0.24849325 -0.46149197 0.67830914 0.5649678 0.082365096 -0.506807 0.18580785 0.15420195 -0.19389439 -0.055068243 0.5713387 0.33263418 0.4456107 -0.14089869
companies 0.54826087 -0.24175702 -0.4968401 0.7415622 0.6840717 0.062681295 -0.59056383 0.16261755 0.15988399 -0.2064755 -0.088346176 0.5957339 0.3684452 0.47560257 -0.17585485
results 0.47786 -0.20039131 -0.4294395 0.6940394 0.5545769 0.0870114 -0.5313679 0.18417104 0.13617033 -0.16287701 -0.06789032 0.51885056 0.32122698 0.40893462 -0.14442772
wont 0.43978956 -0.14357762 -0.33205077 0.56422603 0.44668984 0.063376576 -0.40150124 0.15573943 0.10348592 -0.14422981 -0.010414386 0.4756017 0.30662715 0.3127365 -0.09884155
value 0.5627843 -0.22777884 -0.44178042 0.7584902 0.58804727 0.086429164 -0.5819721 0.18195222 0.12303532 -0.21654068 -0.021429254 0.59480673 0.4047106 0.4333734 -0.18049954
potential 0.5143276 -0.2506716 -0.4638997 0.70164865 0.58153445 0.07517775 -0.49804 0.18365909 0.1833629 -0.17726958 -0.027616771 0.55801946 0.3217593 0.42826387 -0.15665768
system 0.36137462 -0.15035982 -0.30348822 0.5001558 0.4208552 0.037343703 -0.36655188 0.115426704 0.08827285 -0.1619313 -0.048567045 0.4410147 0.2617375 0.28400826 -0.10788506
gdp 0.34346396 -0.16837355 -0.27819636 0.42954162 0.3882778 0.03396472 -0.36259887 0.13964699 0.07316626 -0.12933463 -0.042836558 0.32312086 0.22560377 0.30012318 -0.08884937
continuous 0.48422733 -0.19625789 -0.44424254 0.6666394 0.58132744 0.071155936 -0.5207404 0.12960343 0.115587756 -0.19102116 -0.051870737 0.5230688 0.33947787 0.3920338 -0.16588704
least 0.38848525 -0.14557053 -0.3433936 0.47825214 0.43949226 0.053969204 -0.34961745 0.09497818 0.12174388 -0.12469919 -0.03203777 0.41643745 0.27949724 0.33883247 -0.12834191
threeyear 0.4089236 -0.18592753 -0.3744668 0.5363337 0.4748398 0.08015016 -0.4008484 0.10729172 0.13742882 -0.17832229 -0.032039262 0.40853077 0.28921765 0.35936916 -0.1409614
efficient 0.39896983 -0.17722476 -0.36360168 0.5573392 0.45102048 0.060278147 -0.40848196 0.10453485 0.08366984 -0.12805825 -0.023574099 0.44200593 0.30893323 0.3464969 -0.09676333
front 0.44337624 -0.19423702 -0.41062543 0.6452939 0.49585253 0.06422712 -0.46168315 0.1637018 0.101504415 -0.15006086 -0.0724092 0.50088173 0.29629388 0.38406524 -0.15404458
reserve 0.52031326 -0.19785209 -0.45521003 0.66206026 0.5493744 0.09035465 -0.526722 0.15834835 0.18310666 -0.16086246 -0.038405947 0.55268955 0.32383353 0.440221 -0.14938045
earning 0.46776378 -0.22863644 -0.41938797 0.6263342 0.50943786 0.086779706 -0.4960991 0.11887425 0.10465572 -0.15456855 -0.06457758 0.45616528 0.32110614 0.3602322 -0.09871136
cash 0.56059855 -0.21947712 -0.45373926 0.7434662 0.6672657 0.09116355 -0.6011889 0.17223135 0.19116265 -0.21599078 -0.057281896 0.6379299 0.40610898 0.4466011 -0.18217874
beginning 0.39242008 -0.205486 -0.34017932 0.57096547 0.47953364 0.023573272 -0.41920066 0.12226538 0.09663604 -0.13574527 -0.04816172 0.41474977 0.25180358 0.3137793 -0.15579894
nim 0.37395474 -0.14949495 -0.3143253 0.5797931 0.45612654 0.04125892 -0.4429168 0.15334564 0.1432225 -0.15088615 -0.028584618 0.4377513 0.24756873 0.30940014 -0.086453885
deal 0.433588 -0.17971972 -0.42649412 0.6631649 0.5588363 0.043641444 -0.5131224 0.17551136 0.16934374 -0.1989085 -0.04684804 0.5015142 0.342939 0.36223668 -0.172497
excess 0.403388 -0.16758107 -0.3709209 0.6076135 0.4789229 0.04183624 -0.47682893 0.1409207 0.15146704 -0.15687272 -0.044000726 0.45269656 0.284919 0.38985884 -0.13356502
average 0.4534164 -0.19299914 -0.354853 0.6173747 0.5379963 0.046997104 -0.46362132 0.11154832 0.11908584 -0.15379903 -0.040291082 0.47707546 0.31946632 0.39838544 -0.115932286
chargeoffs 0.38123924 -0.1775852 -0.3332642 0.48776945 0.40933242 0.038678117 -0.39394954 0.10988512 0.11060884 -0.17335056 -0.039287664 0.37528902 0.26293948 0.29840472 -0.091535494
fast 0.5435942 -0.26543632 -0.43106565 0.71532786 0.59448385 0.088834755 -0.5772576 0.14536756 0.12728095 -0.18108849 -0.030156177 0.5807683 0.3919163 0.47129175 -0.15429702
driver 0.37426257 -0.14150275 -0.29108965 0.48871705 0.43880236 0.027675897 -0.36715034 0.11984068 0.0854232 -0.103629276 -0.05456052 0.40696594 0.24306661 0.29459268 -0.10962693
update 0.32596785 -0.13237324 -0.2581542 0.41622564 0.37125126 0.075907625 -0.32338545 0.10165948 0.11807203 -0.09413395 -0.011739843 0.34598103 0.22733605 0.2368947 -0.11828803
tax 0.45872477 -0.21865255 -0.41540393 0.60397714 0.54569715 0.04499587 -0.47384068 0.12972419 0.12618059 -0.17633869 -0.080444604 0.50986737 0.32492915 0.35719055 -0.17112958
transaction 0.41100803 -0.16509299 -0.34496933 0.59664077 0.5101515 0.075086646 -0.3981653 0.15439622 0.15611747 -0.12666413 -0.029403657 0.44555005 0.28837615 0.31903893 -0.15204744
mids 0.2417184 -0.10851126 -0.20209454 0.36830825 0.32409874 0.019173507 -0.28027764 0.1027579 0.06159966 -0.09074466 -0.016150443 0.28530154 0.15402846 0.21084523 -0.07214877
decision 0.43904465 -0.21046922 -0.3962079 0.63646525 0.5537473 0.033014845 -0.47288796 0.17501032 0.14950678 -0.21010107 -0.07115789 0.51392436 0.33052474 0.4236149 -0.16109982
scale 0.496912 -0.21802229 -0.43584326 0.6819271 0.57954913 0.09374696 -0.5596302 0.17034627 0.12623674 -0.1864209 -0.017949183 0.58929634 0.3851432 0.45325264 -0.12917912
interested 0.46447492 -0.16285542 -0.3785441 0.6260728 0.5052527 0.03380028 -0.47406968 0.1434537 0.13853692 -0.17217991 -0.058556113 0.46932045 0.3169774 0.3522891 -0.11400785
baked 0.33577272 -0.12797026 -0.33294758 0.45547003 0.40443307 0.03908419 -0.36668465 0.11922061 0.09545863 -0.15424727 -0.05447906 0.3784009 0.20609625 0.27899772 -0.13792485
incremental 0.4407452 -0.20404716 -0.3342884 0.607246 0.5100585 0.097143866 -0.4583762 0.14487965 0.14133662 -0.14918172 -0.060099564 0.43353954 0.29392692 0.33942184 -0.12090183
beyond 0.4115489 -0.19661409 -0.3707858 0.5928446 0.5000796 0.07236967 -0.46640158 0.14835149 0.14838314 -0.14341673 -0.031647645 0.47318175 0.31221756 0.33306268 -0.1201157
heard 0.3957063 -0.13847856 -0.34808367 0.5106694 0.41414323 0.08455255 -0.39949903 0.12587276 0.13406052 -0.13601574 -0.02751348 0.45252448 0.2822559 0.34607038 -0.09660789
debt 0.5233093 -0.18000415 -0.41794398 0.6698118 0.5613301 0.061980877 -0.4909748 0.14511721 0.15008031 -0.15424775 -0.028057605 0.50596154 0.34936774 0.41245177 -0.16008733
contact 0.39636236 -0.14833811 -0.34194627 0.52360094 0.44072688 0.06596398 -0.45832688 0.14062367 0.11426484 -0.1170592 -0.040097132 0.4620072 0.2760363 0.3592556 -0.15113594
recently 0.47308284 -0.20979814 -0.40799075 0.66706574 0.5501192 0.05036511 -0.5192687 0.13178675 0.1433766 -0.18724135 -0.052592974 0.5191067 0.34345657 0.4001117 -0.17821145
ways 0.38413712 -0.14573988 -0.3113112 0.53646386 0.4680895 0.045875344 -0.3937602 0.14860103 0.09151561 -0.16482776 -0.051119376 0.42493162 0.25625572 0.34375298 -0.086025216
larger 0.3834102 -0.16500765 -0.37615424 0.564876 0.4823879 0.0318136 -0.39895567 0.147839 0.12461956 -0.15025835 -0.021038633 0.4481338 0.26671794 0.37189603 -0.13102078
card 0.496205 -0.25628495 -0.4792537 0.7195073 0.64259344 0.07078305 -0.5618388 0.18039495 0.15662113 -0.19164096 -0.07656378 0.5832624 0.37926394 0.46688807 -0.1513788
consistent 0.38119426 -0.16511418 -0.3576156 0.5632391 0.4868885 0.047727108 -0.401379 0.14520088 0.08960026 -0.13504484 -0.041755207 0.42437038 0.30638084 0.32928264 -0.12156595
profile 0.412648 -0.21006604 -0.3935122 0.5898109 0.5137097 0.043203063 -0.44667992 0.11051927 0.15432991 -0.16113977 -0.027753877 0.45208105 0.28365925 0.35245502 -0.1181828
easier 0.2775616 -0.15056005 -0.27169272 0.3804248 0.35313737 0.0055872328 -0.31864193 0.11829317 0.085671134 -0.10655225 -0.023853928 0.35571113 0.20187129 0.21961167 -0.07654041
yield 0.49575168 -0.2453339 -0.39831233 0.6619643 0.56679744 0.09534519 -0.5145089 0.14002953 0.14533597 -0.17363784 -0.06463596 0.5294108 0.317919 0.43366876 -0.12623657
strong 0.3939101 -0.1387607 -0.29720557 0.53001046 0.44412354 0.06822707 -0.3777954 0.08616681 0.09453116 -0.1331014 -0.043317016 0.42049706 0.28072852 0.27943712 -0.111802846
managing 0.41748914 -0.17198615 -0.3788334 0.6102878 0.533331 0.03873664 -0.4412124 0.1247924 0.13386248 -0.14709404 -0.04302939 0.45638627 0.2823014 0.36925676 -0.104839824
information 0.61660486 -0.28067574 -0.53150445 0.86621976 0.7504863 0.10979424 -0.6579839 0.19223236 0.15609375 -0.22291529 -0.07941304 0.6502252 0.44985718 0.5412485 -0.20671917
starting 0.44554833 -0.1856934 -0.3753534 0.60984015 0.542098 0.0830947 -0.45877776 0.12590867 0.1309087 -0.1532811 -0.054560635 0.5011479 0.30743816 0.3773515 -0.15723853
buyback 0.4226826 -0.14475007 -0.33768684 0.5580963 0.45332974 0.037972253 -0.43281856 0.10829382 0.10323365 -0.16240034 -0.0253779 0.43371964 0.2995541 0.32980466 -0.10700412
swaps 0.4363405 -0.22827332 -0.38691655 0.6307557 0.5214709 0.059553083 -0.5157079 0.14705516 0.16043134 -0.14050852 -0.035538282 0.4673869 0.33269536 0.4171509 -0.1443178
gone 0.4365754 -0.20515476 -0.3904496 0.6065397 0.5288683 0.040562585 -0.41849208 0.12029964 0.12170597 -0.14566477 -0.073301025 0.5014157 0.30973554 0.3777819 -0.12761638
clients 0.39124444 -0.1409084 -0.36884212 0.54863185 0.4822529 0.040084366 -0.40895507 0.1077325 0.107908204 -0.18053927 -0.05175789 0.46976456 0.28855506 0.32593763 -0.13095723
generally 0.4742997 -0.24231996 -0.42574587 0.7155966 0.5519411 0.093765944 -0.48519072 0.16072223 0.16089205 -0.20758298 -0.054161638 0.5076799 0.3496748 0.41932535 -0.17054528
servicing 0.5055063 -0.2151677 -0.40593985 0.73025316 0.6065484 0.055113684 -0.49840796 0.15473184 0.16796339 -0.20116135 -0.030835634 0.5744478 0.37369242 0.44358024 -0.1754982
later 0.3296554 -0.12978205 -0.3246256 0.50421256 0.44586992 0.06290146 -0.3908253 0.0927185 0.09259986 -0.15230097 -0.027619615 0.40007436 0.23136821 0.26609612 -0.07734521
gets 0.53179073 -0.22768642 -0.45039153 0.6686599 0.5799068 0.090899184 -0.52117896 0.17247225 0.13493246 -0.17169012 -0.04670755 0.5645769 0.3492532 0.39603147 -0.13125269
production 0.4806558 -0.24618554 -0.41199818 0.7278576 0.55629486 0.0802758 -0.5279199 0.13679875 0.18841963 -0.17604288 -0.051483314 0.5695294 0.38212007 0.43620712 -0.14423203
comment 0.36167192 -0.1516681 -0.3153715 0.4862899 0.4381547 0.06781834 -0.3529647 0.10545428 0.09768141 -0.11297869 -0.034292173 0.38554153 0.22685918 0.310919 -0.108255394
systems 0.39748758 -0.14761208 -0.37668818 0.54257965 0.4803415 0.035358462 -0.42667484 0.12657538 0.13988636 -0.14046337 -0.031662755 0.46611446 0.2532349 0.37171155 -0.15364903
havent 0.39899185 -0.19038646 -0.30673164 0.5069078 0.42668402 0.07070963 -0.38381848 0.09719884 0.12145749 -0.1485855 -0.037312966 0.37857127 0.23441662 0.32779986 -0.107465655
size 0.36595863 -0.15954418 -0.32635316 0.5093569 0.3717311 0.050582167 -0.34042034 0.13844815 0.09943571 -0.10734714 -0.030113177 0.38127562 0.2610999 0.2625386 -0.10536898
places 0.31916943 -0.13786547 -0.32731357 0.44506425 0.42822763 0.051428985 -0.3837785 0.1022918 0.13437915 -0.09734507 -0.00963926 0.388064 0.20755833 0.3067608 -0.092887715
together 0.34888124 -0.14195938 -0.30207884 0.5150445 0.45098644 0.0726334 -0.36095834 0.099561535 0.09714549 -0.09952984 -0.06683528 0.4120557 0.2781563 0.27343866 -0.140095
products 0.44515628 -0.17471193 -0.36178234 0.6284074 0.50641465 0.03169491 -0.49214607 0.14284347 0.14193177 -0.15705654 -0.055724688 0.4890861 0.35006645 0.4002119 -0.1480982
metrics 0.39764217 -0.2029917 -0.3311054 0.53034353 0.46238834 0.0658113 -0.44283503 0.09464693 0.09585415 -0.14502925 -0.057826098 0.4327362 0.29208565 0.35277522 -0.13744745
criticized 0.48376355 -0.21465386 -0.44432563 0.6648916 0.5570724 0.052674517 -0.52450323 0.12665568 0.16975515 -0.16125965 -0.07813642 0.50480497 0.35783145 0.3736509 -0.16196029
duration 0.3786569 -0.15000212 -0.3084076 0.51092076 0.41772625 0.07949062 -0.41396302 0.08495817 0.111066915 -0.1394315 -0.025782105 0.38594073 0.2327942 0.2784844 -0.121001534
pick 0.4616593 -0.19764026 -0.39193895 0.64584154 0.54010767 0.058598462 -0.51252085 0.16711678 0.12984136 -0.16356863 -0.07949914 0.48452917 0.32864508 0.39444602 -0.10979222
respect 0.4288069 -0.21817513 -0.33911863 0.6134816 0.5136563 0.08135506 -0.46466717 0.13246791 0.15718636 -0.1882919 -0.053848643 0.43318453 0.30542225 0.37270933 -0.14063694
activity 0.42927036 -0.19335261 -0.36089045 0.5488391 0.5036626 0.08616366 -0.3984377 0.1258487 0.11013321 -0.17323025 -0.012659679 0.42929274 0.2774404 0.34869447 -0.13603425
consistently 0.372624 -0.19027102 -0.31000674 0.53614485 0.47686297 0.07518532 -0.44112846 0.13287565 0.112571925 -0.13750595 -0.06364947 0.43709242 0.2835592 0.35119313 -0.09360769
investing 0.43979296 -0.17513873 -0.4082235 0.5890781 0.48555195 0.058592495 -0.48127106 0.15252917 0.12012699 -0.1915585 -0.05816568 0.47278118 0.32429597 0.35391584 -0.10684924
confidence 0.37730876 -0.17319882 -0.3553656 0.5458054 0.4316619 0.037876073 -0.43141738 0.15590073 0.12786257 -0.16534863 -0.031103011 0.4337334 0.2847074 0.29108122 -0.100843996
giving 0.29802936 -0.1616259 -0.25005925 0.4666019 0.36335915 0.040449306 -0.35997948 0.12030934 0.093467355 -0.12924172 -0.015030476 0.34396493 0.20374015 0.25072175 -0.09277642
grew 0.4455322 -0.1685195 -0.36352357 0.6004757 0.52292943 0.059200745 -0.47407112 0.15571393 0.15417463 -0.12511615 -0.07282989 0.44948503 0.28731486 0.3666654 -0.14539008
enough 0.4308616 -0.20904395 -0.34918216 0.58872336 0.50819004 0.049138624 -0.43899015 0.10873482 0.09340021 -0.1585154 -0.049046725 0.4631111 0.25466332 0.3244345 -0.15922087
five 0.32125613 -0.14836338 -0.28190205 0.41133514 0.34505567 0.019079585 -0.29607502 0.10846507 0.11547013 -0.10864953 -0.036514476 0.37614524 0.20421419 0.24058498 -0.113183275
digit 0.41798785 -0.16638303 -0.3477798 0.54960847 0.49758735 0.084518954 -0.4559577 0.14657578 0.12009244 -0.13735342 -0.062392816 0.4621016 0.30637804 0.3631806 -0.0971099
challenge 0.36019784 -0.14176828 -0.29216245 0.4480936 0.3815634 0.072755225 -0.32164812 0.07631715 0.078376785 -0.09754866 -0.006269609 0.34525445 0.2518704 0.28375122 -0.118647814
deron 0.3780709 -0.1517634 -0.35005903 0.54221535 0.4371598 0.05559311 -0.41834414 0.102473415 0.11081187 -0.11417889 -0.045341294 0.3956986 0.22668979 0.32235366 -0.13221398
acquisition 0.46746165 -0.19336599 -0.44867203 0.6766023 0.5778832 0.072470196 -0.47750846 0.12779258 0.16941087 -0.1720535 -0.06098645 0.4983013 0.32445258 0.38709736 -0.18194842
corp 0.39314127 -0.1509413 -0.30029923 0.5139466 0.44317073 0.07380883 -0.36170918 0.08168066 0.12696643 -0.1528069 -0.028785301 0.39070296 0.25391147 0.3132568 -0.099406116
sustainable 0.37201628 -0.14666225 -0.32633156 0.5644329 0.47917756 0.07904754 -0.41926807 0.09504004 0.12983763 -0.17494702 -0.06126725 0.43507087 0.27617875 0.3408532 -0.14344005
running 0.38105446 -0.1316972 -0.28796262 0.5373997 0.44778225 0.069322385 -0.41287023 0.13027744 0.12542436 -0.14793848 -0.0667116 0.36825502 0.28498772 0.31611267 -0.0857206
case 0.4168641 -0.16374463 -0.37766373 0.6208544 0.49373603 0.040246032 -0.48819345 0.15249446 0.15189525 -0.18940245 -0.025703283 0.45982167 0.2951587 0.39219978 -0.13006401
forecast 0.3437516 -0.13539171 -0.28155893 0.44014573 0.3970737 0.034774132 -0.32408518 0.13297546 0.09747867 -0.10582733 -0.059323043 0.35850605 0.20689052 0.29833415 -0.11095943
putting 0.43397334 -0.14463814 -0.38523892 0.56535393 0.5116133 0.09086482 -0.43573734 0.14956525 0.11135159 -0.18702945 -0.014684567 0.47248492 0.3131277 0.3245447 -0.119329214
benefits 0.42898512 -0.19974443 -0.32684726 0.5836838 0.505715 0.02796673 -0.42895094 0.13473055 0.15279467 -0.14702377 -0.029650755 0.4353855 0.2626845 0.34060103 -0.09564453
betsy 0.21030238 -0.1138748 -0.15548599 0.33499184 0.25706345 0.06531578 -0.22512521 0.07898363 0.09485077 -0.059996054 -0.016733725 0.22831866 0.13503338 0.17525476 -0.078511365
pace 0.38839266 -0.18373626 -0.3035534 0.4959968 0.46339598 0.08107949 -0.41448155 0.12062129 0.14299148 -0.14767587 -0.041631307 0.4439686 0.25591382 0.29204908 -0.091589436
expected 0.36598328 -0.17702277 -0.32737866 0.48010114 0.42431432 0.080786675 -0.3982525 0.10177461 0.113621294 -0.15327431 -0.017825047 0.4141413 0.2341548 0.29332614 -0.13915919
fair 0.4289396 -0.16123152 -0.32460076 0.55988526 0.47109252 0.06504557 -0.41055834 0.120382436 0.139575 -0.127215 -0.058985908 0.45285785 0.31021762 0.33747894 -0.10601643
model 0.3915339 -0.1780892 -0.38085485 0.57013667 0.44548103 0.06414066 -0.433551 0.11301078 0.15595296 -0.13540058 -0.06715073 0.4440348 0.28550565 0.3695374 -0.1575157
seems 0.29958546 -0.12786308 -0.28933316 0.468773 0.34468433 0.05427929 -0.32146364 0.07719021 0.0650828 -0.097332366 -0.051064126 0.33123752 0.19674139 0.2502975 -0.10677406
makes 0.4844501 -0.22964059 -0.4204328 0.606551 0.50685334 0.07264373 -0.47483513 0.1464531 0.1171776 -0.16867504 -0.062837094 0.5000921 0.30423272 0.35949922 -0.13728829
preferred 0.4088659 -0.1927092 -0.3661531 0.6118744 0.46093792 0.036262922 -0.4163654 0.11770089 0.105426446 -0.17395629 -0.034925137 0.45547482 0.32366037 0.35096228 -0.13697876
expensive 0.4148774 -0.16463079 -0.3961981 0.6032012 0.5255459 0.0761873 -0.42378283 0.15280338 0.10589278 -0.17590575 -0.03482989 0.4289182 0.29694176 0.33136827 -0.10705588
closer 0.37305453 -0.17800158 -0.30103156 0.5187203 0.45801318 0.039636455 -0.40956914 0.108823 0.13672626 -0.13862291 -0.019989697 0.38496026 0.2911902 0.29508197 -0.11923128
several 0.37711498 -0.18789545 -0.37639257 0.58608896 0.49050772 0.030046431 -0.4289972 0.15773971 0.14798321 -0.14916757 -0.026498422 0.45593575 0.24265695 0.35087186 -0.15035617
bigger 0.33143526 -0.14010201 -0.24541503 0.44052124 0.39483124 0.070382036 -0.30323762 0.12719992 0.061593473 -0.108810015 -0.00430276 0.3504644 0.21079041 0.28440952 -0.10010896
shared 0.5228585 -0.21102375 -0.44659165 0.741937 0.65110797 0.09582169 -0.5568184 0.16806719 0.16580957 -0.22519177 -0.030267842 0.6217344 0.3831596 0.45122713 -0.15558189
laid 0.44181922 -0.19142541 -0.38010046 0.58196723 0.47473472 0.033800956 -0.42539847 0.1659317 0.101692535 -0.14192705 -0.029996548 0.45895898 0.27678096 0.33872455 -0.09319658
large 0.39492816 -0.17169507 -0.33837935 0.5167595 0.4502892 0.041686494 -0.37136737 0.118702896 0.10874162 -0.11316778 -0.011346495 0.39795473 0.2504159 0.33184066 -0.1326146
stock 0.3472173 -0.17826515 -0.2830086 0.44366014 0.42712155 0.039449975 -0.37933794 0.13060896 0.07327308 -0.14026742 -0.05307252 0.39688197 0.25499356 0.31119356 -0.07944052
client 0.4155963 -0.21998729 -0.38975018 0.6247942 0.5529672 0.044367637 -0.45357543 0.11091348 0.11528475 -0.14443186 -0.015200611 0.47694066 0.28628406 0.40170625 -0.11950758
allow 0.33441865 -0.13236943 -0.2694007 0.39878467 0.35728613 0.066537976 -0.309026 0.07182389 0.100149415 -0.08819837 -0.030746803 0.31710833 0.21374944 0.29299778 -0.08266982
form 0.41860366 -0.16803156 -0.3357286 0.5001712 0.46302646 0.058164697 -0.40136525 0.09652115 0.13213623 -0.14265297 -0.06764217 0.39898914 0.29290128 0.33361456 -0.10271851
callstreet 0.54119223 -0.2659258 -0.5001283 0.7862543 0.6343822 0.052962486 -0.54227793 0.15679799 0.18779898 -0.2359255 -0.021601593 0.5847856 0.40682006 0.4939935 -0.15404011
product 0.47327337 -0.24527547 -0.42827678 0.66370386 0.53626645 0.07340984 -0.48490644 0.15023887 0.14399531 -0.1784413 -0.035196226 0.52278304 0.33025903 0.41584182 -0.116797104
trade 0.37506 -0.17707422 -0.30695325 0.48942286 0.42221928 0.02152401 -0.39928865 0.0887889 0.082168385 -0.131762 -0.04666238 0.3597437 0.24731898 0.266834 -0.13076188
takes 0.4082529 -0.17205329 -0.3229867 0.56743276 0.42067325 0.055931024 -0.41856587 0.13395177 0.110114805 -0.15043667 -0.051855866 0.40070915 0.23914701 0.29074898 -0.1446851
transactions 0.4542927 -0.21173862 -0.35485113 0.61743414 0.473351 0.06854221 -0.45385087 0.120825306 0.13662241 -0.13281246 -0.01033907 0.43551037 0.32976738 0.33275715 -0.15696378
open 0.3942447 -0.15424724 -0.28961003 0.5404572 0.41305083 0.07139643 -0.37305537 0.087856494 0.098736845 -0.16806325 -0.058359213 0.44300637 0.29255417 0.29909128 -0.12191148
channel 0.38308728 -0.14350638 -0.30905786 0.50828433 0.43042696 0.074023575 -0.4267836 0.1266551 0.12537962 -0.15393102 -0.02692865 0.4482431 0.268508 0.36162466 -0.15014224
small 0.37674847 -0.16144367 -0.33496958 0.501069 0.4728062 0.052850563 -0.3924202 0.1058611 0.13498917 -0.16185136 -0.02670879 0.44471902 0.2898954 0.3172186 -0.11364656
pipelines 0.3783793 -0.12257466 -0.30887198 0.4956932 0.43340483 0.022062 -0.3764482 0.07080525 0.1326471 -0.1224312 -0.045371704 0.35970217 0.2543287 0.30357617 -0.08271179
happens 0.34334022 -0.17194895 -0.32600272 0.53048867 0.45203036 0.026951425 -0.3721507 0.12327172 0.09039865 -0.10146177 -0.03676235 0.39387777 0.25363764 0.3021369 -0.104233444
effectively 0.4515504 -0.17858912 -0.41154718 0.63036215 0.49562594 0.04288438 -0.4729648 0.15749475 0.15755588 -0.16891521 -0.051551737 0.50883245 0.33528647 0.3515939 -0.105889015
sector 0.50861585 -0.20040736 -0.42004207 0.62773126 0.52493626 0.05064381 -0.5055835 0.11790929 0.12447225 -0.16583386 -0.079888664 0.48957768 0.2996244 0.3933339 -0.17801282
derisking 0.3642908 -0.15623854 -0.31656796 0.4904318 0.46137348 0.03369169 -0.4084693 0.13183795 0.111654446 -0.16611621 -0.005618301 0.43536803 0.27832663 0.2979726 -0.13399531
balances 0.4357228 -0.20568337 -0.3727867 0.59762645 0.5122014 0.063831 -0.4072748 0.120521806 0.13762106 -0.16209576 -0.062278297 0.44005316 0.28728804 0.36937764 -0.15382196
fund 0.35979345 -0.13877374 -0.35377732 0.51769096 0.4824271 0.072955884 -0.41109988 0.11587956 0.11686225 -0.109028175 -0.043147925 0.4096577 0.23880954 0.33340752 -0.100761764
funding 0.41556016 -0.18846399 -0.30611598 0.5088642 0.46226203 0.078492425 -0.39844504 0.12489403 0.09679223 -0.15264836 -0.0064240135 0.38781074 0.30119005 0.3395976 -0.13141929
optimize 0.28600007 -0.089598514 -0.22867788 0.3569121 0.29713422 0.0639444 -0.2715735 0.092626676 0.10695129 -0.0634076 -0.050215352 0.26403427 0.21138379 0.23011373 -0.05055765
national 0.46073112 -0.20389695 -0.36889198 0.5916801 0.4797961 0.038806275 -0.44447267 0.13027926 0.13961023 -0.16825671 -0.06776769 0.49277043 0.31862402 0.3595851 -0.16650008
hit 0.4250869 -0.19391719 -0.34752965 0.59860617 0.47530192 0.027861085 -0.41141054 0.15631956 0.14748693 -0.15542552 -0.021439645 0.47279134 0.2914604 0.37100196 -0.15296566
parts 0.28887063 -0.09579201 -0.22162622 0.4041535 0.3533873 0.051722676 -0.28488377 0.115233086 0.056805953 -0.11056012 -0.024856267 0.3323781 0.20641859 0.26818395 -0.105505936
began 0.42025247 -0.1647 -0.38308942 0.59630555 0.49751574 0.052643135 -0.42716298 0.11877687 0.12711929 -0.14795509 -0.01836742 0.43935972 0.2710894 0.37170377 -0.14392333
cuts 0.38126963 -0.15947895 -0.3104502 0.5400706 0.42538902 0.026522288 -0.36733884 0.10750622 0.11539994 -0.16239159 -0.05383763 0.41158623 0.23402438 0.33555615 -0.11927749
helps 0.36028826 -0.15782279 -0.33551788 0.53064436 0.41047856 0.08071757 -0.3648636 0.11537691 0.10169851 -0.15837851 -0.016611772 0.40905032 0.24275367 0.2915128 -0.07909689
push 0.31977168 -0.15586405 -0.31078652 0.45437202 0.39733866 0.017451895 -0.34514472 0.12643512 0.13536993 -0.0979239 -0.06778209 0.3896801 0.24647059 0.3011522 -0.09003111
