2711 100
think 0.209247 -0.18692781 -0.49974108 -0.7345347 -0.12060047 0.69419366 0.82251793 0.745178 -0.13356748 -0.37952077 0.1944462 -0.7254124 -1.272181 0.8802288 -1.2033223 0.3946309 1.3295087 -0.2794766 0.38610697 -0.32879305 -0.11655087 0.21030638 0.6665151 -0.0651195 -0.70611614 0.6546117 0.3190129 -0.04419855 0.3601833 0.5716551 -0.5713013 -0.13673316 0.29075018 -0.8486748 -0.7563531 0.5841723 0.8447444 0.12221376 0.5812835 0.79490036 -0.753083 0.09720287 -0.2517269 -0.19998883 0.46038267 0.41995776 -0.40537158 0.7507843 0.21048239 0.42601454 -0.45999777 -0.28341705 -0.0009604416 -0.11236292 -0.62325615 0.31838337 0.12630151 0.23582071 0.28656968 -0.4076143 -0.8443656 -0.11136445 -0.45021686 -0.10323756 0.12198524 1.2141786 0.37467313 0.40361238 -0.07179042 0.41960195 0.5228065 0.3205755 0.22768255 -0.40125346 0.28086904 -0.6103065 -0.27738237 0.27713087 -0.76960826 -0.103122786 0.41721943 -0.4516386 -0.56915873 0.26699626 -0.73219055 0.50692636 0.18037385 -0.06441009 0.25055167 0.59346867 0.12842487 -0.07204525 -0.05784999 0.12253735 -0.10055746 -0.26427516 0.16561322 -0.20371093 0.18671429 0.9071035
us 0.22056404 -0.19011362 -0.5273882 -0.7584287 -0.121774755 0.7242183 0.8537876 0.7768373 -0.14240931 -0.39806825 0.20828469 -0.7436886 -1.3157761 0.9098947 -1.240203 0.41754004 1.3844444 -0.28659627 0.3935961 -0.3352711 -0.122428656 0.21439919 0.69209486 -0.07282708 -0.73378855 0.69060516 0.33411586 -0.04325559 0.371424 0.591389 -0.58595663 -0.14340357 0.30676073 -0.8803941 -0.7880459 0.61565024 0.88425213 0.12822437 0.5929379 0.82572347 -0.78340185 0.10349106 -0.2503483 -0.20036907 0.4766175 0.43368042 -0.4180398 0.78062314 0.2141433 0.43932188 -0.4707231 -0.2911213 -0.005726053 -0.112604074 -0.6555041 0.3306215 0.1339272 0.24619308 0.30587646 -0.43171751 -0.88385016 -0.11702731 -0.46949258 -0.09959747 0.13114794 1.2566458 0.38849244 0.43016374 -0.07406014 0.4334406 0.54661065 0.33400345 0.24019428 -0.42306095 0.29509324 -0.639296 -0.29570246 0.29371738 -0.80444556 -0.10255845 0.43170092 -0.45829386 -0.5954853 0.2695218 -0.7649479 0.5241561 0.19268817 -0.07282309 0.25354972 0.6041736 0.14248341 -0.07377143 -0.054713164 0.13232154 -0.10606219 -0.268846 0.1635465 -0.20747131 0.1948845 0.9339827
good 0.1682815 -0.17306857 -0.42045322 -0.6224373 -0.09485885 0.6114356 0.6688679 0.62257963 -0.11187481 -0.322625 0.17795287 -0.6096905 -1.0511967 0.75265956 -1.0110795 0.3440933 1.129041 -0.235455 0.3184911 -0.28336295 -0.11336558 0.16754387 0.5786294 -0.038778063 -0.6130473 0.5710779 0.28713518 -0.032366022 0.30286106 0.48496667 -0.46168154 -0.09549559 0.23632504 -0.68600076 -0.6387745 0.5043463 0.70549935 0.11581375 0.48323452 0.66716576 -0.6500802 0.09702943 -0.21483487 -0.1500512 0.3949227 0.332045 -0.32196316 0.62685513 0.18555726 0.38561124 -0.38889286 -0.2198894 0.0008942556 -0.11344513 -0.5169046 0.2587424 0.09642246 0.20017606 0.23626053 -0.3463697 -0.69665897 -0.10871944 -0.36425933 -0.09159959 0.118151724 1.0342247 0.32561022 0.3467532 -0.06358598 0.35849968 0.43413186 0.27596077 0.21081792 -0.36403462 0.22495167 -0.52046096 -0.24218698 0.27070245 -0.66427916 -0.08705224 0.33178636 -0.38689652 -0.4762177 0.22463124 -0.60745 0.42968443 0.14688466 -0.06650157 0.21719897 0.47852385 0.12784016 -0.058307692 -0.03922303 0.10431561 -0.067665614 -0.1935111 0.14083055 -0.19570272 0.17080027 0.7373017
going 0.19781363 -0.17837639 -0.46994227 -0.6862266 -0.11867631 0.6523789 0.7765152 0.70304936 -0.12993357 -0.3556946 0.18739077 -0.67666316 -1.1955279 0.818346 -1.1282266 0.37619862 1.2500464 -0.25897264 0.3568447 -0.30731457 -0.112923115 0.19607203 0.62260276 -0.06846394 -0.6589193 0.6183799 0.30545837 -0.03435984 0.3425127 0.5284794 -0.5273531 -0.1380535 0.26666546 -0.7880498 -0.7132304 0.5532408 0.7937757 0.11711758 0.5358112 0.7477115 -0.70160085 0.088901214 -0.23627509 -0.18435971 0.4366425 0.40326253 -0.38301834 0.70270705 0.19924906 0.4013893 -0.4282444 -0.26414979 -0.011024155 -0.101664685 -0.5906163 0.29906 0.122093804 0.22208686 0.27279353 -0.38561556 -0.7960785 -0.10945002 -0.4193358 -0.09173919 0.10883099 1.1284097 0.35328597 0.3773248 -0.06744781 0.39553553 0.4874654 0.29993564 0.22070865 -0.38547218 0.26594836 -0.5815626 -0.2601768 0.2629852 -0.7306065 -0.0945837 0.38770714 -0.41697004 -0.5387177 0.24853969 -0.68564427 0.4736181 0.17820154 -0.060534675 0.23030737 0.5501042 0.12366004 -0.06446791 -0.055555947 0.117234066 -0.09877416 -0.25495076 0.15066628 -0.18399583 0.17066677 0.85245353
weve 0.21833265 -0.19801967 -0.52413195 -0.7610215 -0.13181642 0.7219803 0.86674666 0.7825701 -0.15097477 -0.40711632 0.2090842 -0.7611651 -1.3291351 0.92641073 -1.2627757 0.42350286 1.4038402 -0.29191574 0.4059784 -0.3393106 -0.12670417 0.21422535 0.6957625 -0.07328603 -0.7422922 0.6927199 0.3437816 -0.051269904 0.38426915 0.59291816 -0.59765345 -0.14896703 0.30935648 -0.89082754 -0.7964127 0.6126132 0.88838375 0.1355456 0.59767854 0.8364366 -0.7887702 0.1021235 -0.25832534 -0.20869298 0.4766645 0.43725595 -0.41408142 0.7884756 0.2106476 0.44922546 -0.4853033 -0.3003788 -0.011244598 -0.113458686 -0.6666532 0.3346131 0.13241778 0.25113985 0.3004535 -0.4385281 -0.88814074 -0.11696286 -0.46717212 -0.10627757 0.12523831 1.2763467 0.3850155 0.43395102 -0.06941814 0.43881577 0.54613173 0.34309092 0.23450547 -0.43323198 0.30155993 -0.6387708 -0.30093 0.29160753 -0.81393987 -0.11173691 0.43076932 -0.47731602 -0.59371865 0.27624843 -0.7611527 0.53764796 0.19717836 -0.07213158 0.25521532 0.6241958 0.14198923 -0.07245918 -0.050515912 0.14003174 -0.104858115 -0.28228283 0.17438209 -0.21981443 0.19510882 0.94797987
growth 0.1875606 -0.15219977 -0.42735967 -0.6261032 -0.10652314 0.59469676 0.69734067 0.63869154 -0.11356393 -0.32674268 0.16858461 -0.61720926 -1.0728621 0.7393209 -1.0175637 0.33901325 1.1302451 -0.23911062 0.33019778 -0.2721645 -0.09748024 0.1713841 0.55484575 -0.0600687 -0.6057987 0.5656465 0.27010816 -0.025731169 0.31206608 0.48223254 -0.48018637 -0.12193508 0.24169096 -0.71383995 -0.64759547 0.4912338 0.7240567 0.101237856 0.48862454 0.66949195 -0.6405803 0.088660195 -0.20447244 -0.16613407 0.38608503 0.34949592 -0.3442052 0.6320516 0.17601535 0.34882283 -0.3803671 -0.23421693 -0.002081986 -0.09279737 -0.5316323 0.27037767 0.10467645 0.20499727 0.24834959 -0.3551453 -0.7149901 -0.10432974 -0.38420206 -0.08541323 0.099544115 1.0291996 0.31721035 0.3505762 -0.0648113 0.34856272 0.4494487 0.26443875 0.20004259 -0.3498846 0.24062413 -0.51947224 -0.2491406 0.24012473 -0.6521589 -0.09046146 0.34365672 -0.38394347 -0.47274193 0.2223343 -0.6257774 0.43444112 0.16168742 -0.060135055 0.21051355 0.48889425 0.10806213 -0.054824237 -0.049544983 0.10268024 -0.09415472 -0.21626396 0.1359523 -0.17019223 0.15450072 0.77327824
well 0.20627812 -0.17439906 -0.47710815 -0.68955964 -0.111694574 0.65446705 0.7874755 0.70759577 -0.12724443 -0.36173514 0.18630606 -0.679434 -1.208038 0.83450526 -1.1377184 0.37469816 1.2590501 -0.26176336 0.36720657 -0.31295317 -0.116663665 0.1923907 0.63271123 -0.07044566 -0.67893165 0.6271281 0.31060347 -0.038155183 0.34597155 0.53976685 -0.5359541 -0.13378714 0.2778946 -0.8071846 -0.7175771 0.5629293 0.8087661 0.12237976 0.5494419 0.7567371 -0.7123542 0.095820546 -0.23927721 -0.1890649 0.44168136 0.39698684 -0.38425255 0.7120298 0.19895566 0.4064682 -0.43334845 -0.26901034 -0.011554734 -0.098287486 -0.5988846 0.29979438 0.11720981 0.22827831 0.28175965 -0.39148104 -0.80869913 -0.1160454 -0.43049508 -0.09659238 0.11595304 1.1529804 0.3506805 0.38672057 -0.062091235 0.40253273 0.4959491 0.30558085 0.22162698 -0.389129 0.26498112 -0.5833107 -0.26078737 0.2584534 -0.7329464 -0.09532183 0.39380956 -0.42160997 -0.5438968 0.2521987 -0.6983917 0.48218015 0.17346787 -0.07104886 0.23809017 0.5638704 0.13224731 -0.06970359 -0.0486353 0.124372266 -0.10134736 -0.25103286 0.15502568 -0.1905936 0.17268218 0.86195123
year 0.19829118 -0.1683234 -0.4648752 -0.66521806 -0.11446347 0.62864774 0.7546704 0.67717797 -0.12797582 -0.34818298 0.1704385 -0.6597089 -1.1565135 0.80471724 -1.089395 0.3573632 1.2138814 -0.25247666 0.34426567 -0.29050583 -0.11213063 0.19084482 0.6025112 -0.064459205 -0.64428705 0.60673785 0.29137823 -0.029926857 0.33233768 0.5095362 -0.51465535 -0.1354817 0.26004693 -0.7731278 -0.6900336 0.53582597 0.7731877 0.11576441 0.52361375 0.7247939 -0.6781559 0.08555584 -0.22174507 -0.1847437 0.42341223 0.38759026 -0.37032855 0.6885199 0.18928525 0.38432872 -0.41899088 -0.2523682 -0.008251027 -0.09546113 -0.5724911 0.29683626 0.11435028 0.21770898 0.27174523 -0.3780388 -0.775005 -0.11291839 -0.40539128 -0.08169477 0.109892175 1.1081363 0.33492526 0.37412846 -0.06251997 0.38571423 0.47485188 0.28692403 0.21134685 -0.3610166 0.26075834 -0.5583479 -0.26055685 0.25339273 -0.6987367 -0.09006071 0.38117695 -0.41157386 -0.52126575 0.2415958 -0.6655302 0.46174356 0.16337757 -0.06595258 0.22608557 0.5403967 0.12259691 -0.06640937 -0.050411113 0.1111173 -0.097889066 -0.24859576 0.1493437 -0.18579444 0.161994 0.8267157
thats 0.211214 -0.18478572 -0.5053589 -0.73241943 -0.11932173 0.68859476 0.8303674 0.74099904 -0.14464135 -0.38789138 0.20224121 -0.7250001 -1.2727957 0.8856597 -1.2052555 0.397187 1.3385403 -0.27628648 0.3865364 -0.3255879 -0.123766415 0.20715342 0.67156583 -0.07196341 -0.7103353 0.6644564 0.31866288 -0.037515447 0.3647621 0.5664897 -0.57046014 -0.13878751 0.296274 -0.85302 -0.7650906 0.5906399 0.8502607 0.12666215 0.5843148 0.7914168 -0.7486837 0.09236682 -0.25269336 -0.19468169 0.45811385 0.42563817 -0.404411 0.7542619 0.20734172 0.42301357 -0.4560402 -0.28872794 -0.002808009 -0.106277294 -0.63279593 0.3139587 0.12157615 0.23951833 0.29589868 -0.4096088 -0.8526395 -0.12003011 -0.4443007 -0.096973106 0.12961462 1.2117245 0.36824033 0.40724903 -0.07164081 0.42659476 0.5238678 0.324463 0.23290814 -0.41010392 0.28103226 -0.6109349 -0.27663872 0.2806068 -0.7728594 -0.10314823 0.41843006 -0.44650456 -0.57261467 0.2618672 -0.7346053 0.509293 0.19130754 -0.071752064 0.24685246 0.5963506 0.13948628 -0.07117283 -0.05342287 0.13244759 -0.09848067 -0.25990486 0.1613244 -0.20443307 0.17473808 0.91259396
would 0.21305555 -0.18656553 -0.5033419 -0.7349419 -0.114976354 0.69170046 0.8262152 0.7499885 -0.14446484 -0.3804359 0.20150498 -0.7256736 -1.2764347 0.8846286 -1.2102692 0.40698802 1.3319963 -0.2800658 0.38519502 -0.32907525 -0.12614357 0.20510289 0.66666526 -0.066925175 -0.71500677 0.66479987 0.3196949 -0.036647554 0.3687134 0.57528806 -0.5752523 -0.1373868 0.2967079 -0.8492457 -0.7604865 0.5925158 0.84621847 0.12106609 0.57889473 0.7976289 -0.7479873 0.10256531 -0.24319981 -0.19841759 0.46275127 0.4275421 -0.4070076 0.75405437 0.21116525 0.4300211 -0.45227483 -0.2843449 -0.012770907 -0.10131459 -0.63143176 0.31830576 0.12697437 0.2407818 0.28652692 -0.40774888 -0.846761 -0.11224613 -0.45370248 -0.09269437 0.11699866 1.2188132 0.3773061 0.4126348 -0.072171144 0.42494226 0.5305954 0.31917626 0.23161858 -0.4098617 0.27873713 -0.6122557 -0.28064334 0.27859515 -0.7843684 -0.09766868 0.41848105 -0.45273665 -0.5667311 0.26349482 -0.7397323 0.5131608 0.18916796 -0.076801874 0.24799544 0.5935373 0.13709244 -0.07629686 -0.05686646 0.12890056 -0.09907874 -0.25867853 0.15803413 -0.20210224 0.18432298 0.908063
really 0.2221359 -0.19326703 -0.5213421 -0.75408375 -0.12910518 0.717787 0.8551045 0.7650701 -0.14604168 -0.39133972 0.20030732 -0.7463121 -1.316862 0.91396743 -1.2404482 0.41531983 1.3804328 -0.29070297 0.396944 -0.3420996 -0.12687476 0.2202137 0.6902365 -0.076186076 -0.732682 0.68058854 0.33672228 -0.045243863 0.37924716 0.5938878 -0.5832726 -0.13818309 0.30737472 -0.87547773 -0.78651124 0.60998327 0.8782316 0.13150996 0.60156715 0.8195742 -0.7746269 0.100307815 -0.2546811 -0.20170242 0.48339435 0.43395475 -0.4096276 0.77112204 0.21591347 0.4407864 -0.4682328 -0.29039857 -0.0043896046 -0.11047632 -0.64687467 0.3249569 0.12188272 0.24630916 0.2965798 -0.42648938 -0.8778104 -0.12214948 -0.46948603 -0.10482741 0.12641132 1.2572005 0.38233513 0.42136586 -0.074521765 0.4355966 0.5420026 0.3342882 0.24287626 -0.41968098 0.29004502 -0.63164806 -0.29097995 0.291515 -0.80575204 -0.10250467 0.42141226 -0.45887727 -0.5935173 0.26852298 -0.7555978 0.52958614 0.18711746 -0.07762332 0.25964788 0.6089072 0.14181504 -0.07247356 -0.058015812 0.13298205 -0.10325592 -0.26949704 0.16252889 -0.20925942 0.18648191 0.9386378
see 0.19138965 -0.17408265 -0.4601075 -0.6755079 -0.10820304 0.6378875 0.76951474 0.69295275 -0.122881316 -0.3595897 0.18822475 -0.67538863 -1.1789865 0.81684154 -1.1079929 0.37382516 1.2308077 -0.26068437 0.35418645 -0.30442846 -0.10938493 0.19514686 0.6219047 -0.06484317 -0.65710765 0.610315 0.29526532 -0.034955565 0.3389994 0.5228255 -0.52564645 -0.1323364 0.27234912 -0.7858806 -0.6983555 0.54810727 0.78636074 0.11164668 0.5322592 0.73099095 -0.6968163 0.08877758 -0.23250279 -0.1774138 0.4265111 0.38916746 -0.3737258 0.69838893 0.19732326 0.38564277 -0.41727698 -0.25987658 -0.010599935 -0.09760359 -0.5743703 0.29921556 0.112868145 0.21742348 0.2745279 -0.37686634 -0.78740275 -0.11276605 -0.4141589 -0.09465523 0.11316338 1.1184301 0.34705967 0.3742846 -0.062190752 0.3869381 0.48996747 0.29951105 0.215073 -0.37721875 0.26268524 -0.5740606 -0.2684203 0.261038 -0.7106503 -0.08583652 0.38726032 -0.41612235 -0.527601 0.24372688 -0.68135154 0.4739143 0.16800147 -0.058697887 0.22932835 0.5481058 0.11963719 -0.060323283 -0.04675921 0.12010235 -0.09777134 -0.24921675 0.14893596 -0.19125372 0.16374438 0.8366524
get 0.19497433 -0.17771229 -0.46341294 -0.6793308 -0.11182877 0.6458375 0.7669778 0.6877633 -0.13248087 -0.36015505 0.18505278 -0.6687629 -1.1860337 0.81618243 -1.112195 0.37062222 1.2444588 -0.25607464 0.36079124 -0.307494 -0.10766805 0.19748448 0.6170294 -0.06487563 -0.66190374 0.61383355 0.2984013 -0.040355448 0.3343344 0.52803874 -0.531811 -0.13681532 0.2750513 -0.79359657 -0.709155 0.5524514 0.79410166 0.119673446 0.54004127 0.74358076 -0.7026348 0.09578548 -0.22795694 -0.18499537 0.4338836 0.39769453 -0.37048575 0.70504546 0.19270803 0.39271662 -0.42680886 -0.2673948 -0.0067393775 -0.093857065 -0.5859578 0.30053008 0.11169797 0.22972041 0.27280945 -0.3758176 -0.79150003 -0.110005185 -0.4223587 -0.08964231 0.11324949 1.1275127 0.34763217 0.37930277 -0.06529797 0.38929197 0.49530816 0.2974029 0.2196693 -0.3755466 0.2578146 -0.5678178 -0.25691748 0.25540054 -0.72422254 -0.08769073 0.3840687 -0.41393524 -0.53137714 0.24021691 -0.68162346 0.47306022 0.17480999 -0.06250015 0.22430505 0.5470899 0.12044967 -0.060881145 -0.05156936 0.11542433 -0.09749221 -0.2502072 0.15234898 -0.1876786 0.16681212 0.83802754
business 0.20913118 -0.18324193 -0.49089405 -0.70735794 -0.11982917 0.66772175 0.79384154 0.7173587 -0.13009307 -0.3655619 0.19792846 -0.6904972 -1.2163802 0.84455705 -1.1535333 0.3884678 1.2888837 -0.26286814 0.37278876 -0.3160851 -0.11517247 0.19372799 0.6398787 -0.069619805 -0.6817722 0.63228774 0.31416786 -0.042766638 0.3468013 0.55194974 -0.5464682 -0.13768356 0.28495684 -0.816127 -0.73415464 0.5698107 0.82118547 0.11782829 0.5581072 0.7674396 -0.7224693 0.10046604 -0.23867561 -0.18263943 0.44185305 0.40996078 -0.38759592 0.723807 0.20270535 0.40255862 -0.43521842 -0.27644283 -0.0032014323 -0.10585127 -0.6099732 0.3087455 0.11539557 0.23669218 0.27725285 -0.39694384 -0.8181405 -0.11032673 -0.44212413 -0.09196865 0.11955046 1.1719445 0.35800222 0.38816184 -0.07323749 0.4067661 0.50694555 0.3070785 0.22321665 -0.39638776 0.2767681 -0.58829486 -0.27094886 0.2718862 -0.7460366 -0.09361691 0.39996287 -0.43153736 -0.55131096 0.25599933 -0.70363736 0.48728484 0.17385088 -0.06664413 0.23546953 0.5682237 0.12363245 -0.06675524 -0.047580842 0.11900445 -0.09447184 -0.25457266 0.15742534 -0.18913282 0.1780115 0.8750341
yeah 0.14203781 -0.12505066 -0.3339623 -0.4729721 -0.07561472 0.4619045 0.53778744 0.48844323 -0.09257801 -0.2528656 0.13232508 -0.4758009 -0.83984256 0.5778287 -0.7933337 0.26607293 0.8771496 -0.18360128 0.24804096 -0.2086864 -0.07996613 0.1341045 0.4402246 -0.043939367 -0.46577638 0.43609044 0.21429516 -0.023857033 0.24435651 0.37888548 -0.37054962 -0.08453246 0.19457315 -0.55261064 -0.49485004 0.39361623 0.55767274 0.08665557 0.37778077 0.51725173 -0.48951703 0.06455745 -0.16473469 -0.13079697 0.3024196 0.277288 -0.25996187 0.48826078 0.13151492 0.28496698 -0.30351397 -0.18492769 0.0005055988 -0.06619405 -0.40794423 0.20838518 0.07225621 0.15993464 0.18819135 -0.26854807 -0.555242 -0.06990321 -0.29470223 -0.06192523 0.07980868 0.7929194 0.25086677 0.26818034 -0.041243114 0.27849948 0.35182047 0.21510057 0.15547237 -0.26713377 0.17886546 -0.39796105 -0.18110096 0.18725654 -0.51793176 -0.064778395 0.26520056 -0.2980621 -0.37396345 0.17622934 -0.48038745 0.33393174 0.123612575 -0.053683087 0.15731177 0.38469657 0.094003394 -0.046486683 -0.03398695 0.07905935 -0.057556823 -0.16876295 0.10431738 -0.13399999 0.12344416 0.59136796
time 0.2064218 -0.17741299 -0.49558505 -0.714151 -0.11571328 0.66963184 0.8085489 0.7267857 -0.13730149 -0.37791353 0.18753146 -0.70369935 -1.2379553 0.84996736 -1.1742336 0.38872036 1.29497 -0.2658258 0.37767878 -0.3164826 -0.12005417 0.20153514 0.6447747 -0.06872988 -0.688574 0.6391268 0.31642893 -0.039761435 0.35460773 0.5579271 -0.5556524 -0.1322024 0.27940464 -0.8307877 -0.73798865 0.5684448 0.8285583 0.12338304 0.5595941 0.77053714 -0.7351639 0.089844644 -0.23933768 -0.18612482 0.4449969 0.418398 -0.3953722 0.7262152 0.20531239 0.41648164 -0.4438569 -0.27407405 -0.0015514202 -0.10433784 -0.6127389 0.31095538 0.12047344 0.23669668 0.28195223 -0.40241086 -0.820633 -0.10929738 -0.4430552 -0.0999205 0.11460344 1.17942 0.36294243 0.39327902 -0.07151163 0.40777093 0.51313496 0.31676117 0.22148612 -0.3984151 0.2760924 -0.59564626 -0.2764607 0.2685131 -0.7520408 -0.09344993 0.40509644 -0.44216195 -0.5551295 0.2621715 -0.719097 0.49728784 0.1844267 -0.062271096 0.24013898 0.5687742 0.12751786 -0.068752915 -0.05660113 0.11945986 -0.10166252 -0.26352626 0.15048252 -0.19537424 0.17447007 0.87860143
capital 0.19746864 -0.1748561 -0.4660923 -0.67754 -0.11554524 0.6478749 0.7722589 0.6896736 -0.12146641 -0.3585721 0.18812135 -0.6674714 -1.1758608 0.82001334 -1.1105726 0.37458655 1.2392861 -0.26360127 0.3571389 -0.2969843 -0.1115644 0.19876125 0.6216237 -0.06507056 -0.6663112 0.6136871 0.30042556 -0.040022776 0.34013993 0.53173834 -0.5265724 -0.13510093 0.27440834 -0.79154384 -0.7091459 0.54622704 0.7923028 0.11876676 0.5314273 0.7413225 -0.6908542 0.09796895 -0.22903085 -0.17375267 0.43175507 0.3926266 -0.3673996 0.7031872 0.18872489 0.39526093 -0.41811466 -0.2675898 -0.0064757173 -0.10736497 -0.5815103 0.29772663 0.120288625 0.22492968 0.26930398 -0.38605243 -0.7814764 -0.10511604 -0.4236574 -0.09279749 0.11639584 1.1320232 0.34659714 0.3819069 -0.0665397 0.39397767 0.48554444 0.29631126 0.21016854 -0.38324058 0.25955266 -0.57319343 -0.25721055 0.25294042 -0.7145647 -0.096156135 0.39183986 -0.4178117 -0.5292698 0.2453989 -0.6764975 0.4793644 0.16690141 -0.06504123 0.22287253 0.53971815 0.11783056 -0.05703245 -0.043082517 0.11929597 -0.09877698 -0.2465381 0.15425035 -0.19152422 0.17360087 0.83604264
quarter 0.18802778 -0.17517292 -0.4631778 -0.6603665 -0.10774151 0.62040395 0.75362086 0.6725808 -0.12401745 -0.35597283 0.17656063 -0.6581458 -1.1479475 0.7993318 -1.0943327 0.35838905 1.2063586 -0.24412343 0.34425777 -0.28778517 -0.12166028 0.18366882 0.6051685 -0.07017624 -0.64926255 0.58980286 0.29242507 -0.030371351 0.33217034 0.5086397 -0.5047135 -0.12644804 0.26819682 -0.7666985 -0.6863184 0.5286868 0.7678108 0.114348814 0.5170801 0.72724193 -0.68162745 0.09596323 -0.2299095 -0.18111752 0.41388816 0.38750258 -0.3639312 0.6846985 0.18519473 0.38259614 -0.4169388 -0.25468314 -0.016050786 -0.089192845 -0.5651181 0.29246837 0.11378082 0.21704951 0.26636505 -0.37996137 -0.7762203 -0.11176627 -0.4045879 -0.082680695 0.11086846 1.0974267 0.34543633 0.37085703 -0.06482501 0.37957296 0.47415555 0.29820397 0.20760685 -0.36862612 0.2541146 -0.56020886 -0.26275706 0.24924612 -0.7067044 -0.087424584 0.37729394 -0.40549156 -0.5143045 0.247093 -0.6682917 0.46854523 0.17704058 -0.05505514 0.21693102 0.5307136 0.1259272 -0.07099587 -0.04450122 0.11078273 -0.095675394 -0.24101949 0.14002152 -0.18685143 0.16926625 0.8185077
continue 0.18269928 -0.16083361 -0.42807195 -0.62489253 -0.1047171 0.58825356 0.70304775 0.6289104 -0.11888029 -0.3197311 0.17143387 -0.61028415 -1.0799122 0.7495164 -1.019248 0.33274058 1.1300268 -0.23834787 0.3329674 -0.27527034 -0.09842955 0.1793923 0.56172276 -0.055675834 -0.5990046 0.5535776 0.2751443 -0.031140061 0.30413917 0.48730528 -0.48270565 -0.12360103 0.24431483 -0.7247819 -0.6436727 0.5044709 0.72220415 0.103515275 0.4921468 0.67634493 -0.6289251 0.08115829 -0.2061663 -0.16248003 0.39394146 0.3535633 -0.33626494 0.63904446 0.16987588 0.35782275 -0.38993827 -0.2387096 -0.003346816 -0.08837069 -0.5274983 0.26683196 0.10315809 0.20129408 0.25167957 -0.34323055 -0.71650475 -0.104689516 -0.38580957 -0.086742274 0.097811356 1.0239751 0.31949368 0.34799707 -0.05991174 0.36203513 0.45193157 0.26459774 0.19665669 -0.34699664 0.2462138 -0.5224539 -0.24057741 0.23089583 -0.65298253 -0.07938035 0.3487663 -0.38527992 -0.47722235 0.22732322 -0.61661947 0.4306359 0.14992718 -0.053045664 0.21365567 0.5014938 0.10630422 -0.05497609 -0.043380298 0.11052928 -0.08811614 -0.22733583 0.13080178 -0.17285639 0.15514258 0.7727015
little 0.17317972 -0.16462216 -0.44981718 -0.6395155 -0.099203736 0.6117894 0.73436266 0.64259976 -0.12815611 -0.34897423 0.16779366 -0.6389175 -1.1218303 0.77240086 -1.0588778 0.34972838 1.1755226 -0.23982483 0.33803552 -0.28229153 -0.09562722 0.19029666 0.59149206 -0.060055044 -0.6147384 0.59082097 0.29190773 -0.036640007 0.32821038 0.4981737 -0.49605453 -0.12142578 0.24835065 -0.7395085 -0.6758727 0.5194972 0.73860514 0.10463838 0.50419396 0.6986843 -0.65566486 0.07418072 -0.22360396 -0.15974864 0.40379632 0.36923742 -0.3404334 0.65592164 0.19255951 0.37065277 -0.4036177 -0.23665555 -0.014135103 -0.09612757 -0.53974885 0.27658337 0.10727799 0.20530586 0.245949 -0.35842147 -0.73470956 -0.10912828 -0.4032382 -0.08724679 0.11351893 1.0694721 0.3300798 0.34975338 -0.07396994 0.36077642 0.45317146 0.28633842 0.19909486 -0.3524185 0.23373745 -0.5332227 -0.2614942 0.24561186 -0.6797728 -0.09173401 0.36844656 -0.3891426 -0.50547814 0.24079946 -0.6518508 0.45497125 0.17263669 -0.05003339 0.22515017 0.519573 0.109508775 -0.054703154 -0.051387303 0.09993478 -0.09923603 -0.22527042 0.14828116 -0.17402816 0.1616973 0.80106217
one 0.20145564 -0.16769548 -0.46595803 -0.6790106 -0.11798025 0.6471394 0.7654879 0.69045913 -0.1310106 -0.355795 0.18474646 -0.6663706 -1.1769733 0.8182111 -1.1115382 0.3752467 1.2380753 -0.25095004 0.3529086 -0.2971312 -0.10853961 0.18834342 0.6159457 -0.070582815 -0.65906906 0.610953 0.30053622 -0.043164063 0.3419962 0.52880913 -0.528317 -0.13585256 0.26553646 -0.7853328 -0.69841826 0.53762496 0.78273016 0.11076369 0.53338367 0.73745567 -0.6874721 0.091601744 -0.23341176 -0.1774973 0.4271907 0.3912304 -0.37243217 0.690396 0.19263907 0.3885237 -0.42788365 -0.26326022 -0.0072668027 -0.09750647 -0.577927 0.29604855 0.11215932 0.22327729 0.26401028 -0.3843881 -0.78823584 -0.103057355 -0.41152126 -0.08815578 0.11242567 1.1249983 0.35003883 0.37887207 -0.0643811 0.39235654 0.49141413 0.29199255 0.20893589 -0.3700253 0.25682092 -0.5616583 -0.25671557 0.25485292 -0.7208815 -0.08988093 0.3817301 -0.41908804 -0.5237258 0.23915695 -0.67333555 0.46935272 0.16980891 -0.06526146 0.2268373 0.54951715 0.120056234 -0.06038029 -0.046458535 0.11720883 -0.09493642 -0.24870516 0.14484191 -0.18538488 0.16243872 0.83735186
grow 0.17990161 -0.15107033 -0.4215441 -0.6205904 -0.10486069 0.5787214 0.68934125 0.6318537 -0.10956473 -0.3275617 0.17197533 -0.61506885 -1.0681403 0.7475064 -1.0102879 0.3271853 1.1173632 -0.23147199 0.3279014 -0.27483478 -0.102554254 0.17784978 0.5601762 -0.05499396 -0.59352833 0.5493248 0.27650738 -0.027529564 0.2987356 0.47756404 -0.48204863 -0.11558915 0.24472488 -0.7072522 -0.6391441 0.488484 0.7117819 0.1022968 0.4890317 0.67470354 -0.6349905 0.076400936 -0.20746383 -0.16248786 0.38170156 0.34904596 -0.33929977 0.630963 0.17783192 0.3499561 -0.3798432 -0.23104867 -0.0071706665 -0.08832536 -0.5302149 0.2580459 0.10976837 0.1989446 0.2373493 -0.3374578 -0.7074144 -0.10238479 -0.38800862 -0.085007265 0.0981662 1.0129148 0.31666824 0.3493647 -0.06913261 0.3512788 0.43927047 0.26526263 0.20102555 -0.3453648 0.2460484 -0.5216352 -0.23556842 0.22797276 -0.6507807 -0.079646096 0.35750228 -0.37853828 -0.48087808 0.22628047 -0.6248939 0.43219078 0.15270261 -0.053852916 0.2132158 0.49984965 0.11388386 -0.05791804 -0.03618647 0.10107512 -0.08778277 -0.22709261 0.13619816 -0.16144206 0.15252805 0.7620787
loan 0.18058634 -0.16389807 -0.4294288 -0.6271588 -0.10196558 0.59168756 0.6938517 0.6361443 -0.121511236 -0.3288285 0.17016979 -0.61041784 -1.0799725 0.748344 -1.012669 0.33914825 1.1318226 -0.23670356 0.32736257 -0.2677859 -0.10660497 0.17915285 0.56302863 -0.059077032 -0.60567737 0.55683327 0.27288723 -0.028103746 0.30329213 0.47373873 -0.4751077 -0.12619057 0.2505588 -0.71527195 -0.64152724 0.4926758 0.71696407 0.103000045 0.49338353 0.6768524 -0.6391419 0.087653026 -0.21535112 -0.16088735 0.39000294 0.3560105 -0.3386809 0.6300516 0.18135028 0.36021617 -0.38212404 -0.23602735 0.00077292277 -0.09055948 -0.5305376 0.2683995 0.10577196 0.20028889 0.25287914 -0.34624878 -0.72398365 -0.10312518 -0.3791081 -0.08862442 0.10995046 1.0280366 0.317396 0.34166297 -0.060558666 0.3545036 0.44019848 0.2712076 0.19311945 -0.34308183 0.24416636 -0.5167648 -0.246133 0.23655418 -0.65372753 -0.08460411 0.34125185 -0.37214747 -0.47626835 0.21622895 -0.62473845 0.43052137 0.15170567 -0.055782206 0.20879896 0.48779503 0.10419707 -0.05380845 -0.040525112 0.11347491 -0.08756935 -0.2216174 0.13464826 -0.16495118 0.14845248 0.7677767
right 0.1721293 -0.15575325 -0.40817612 -0.595845 -0.09867763 0.5712065 0.6795457 0.60699147 -0.11592921 -0.30985415 0.16273135 -0.58806556 -1.0367851 0.7184954 -0.97437054 0.32638666 1.0941335 -0.225407 0.3176503 -0.2698459 -0.10467709 0.17100917 0.54953885 -0.062203515 -0.5761003 0.54228836 0.2664651 -0.03637782 0.29232925 0.47217506 -0.46554196 -0.117687084 0.23734775 -0.695565 -0.6238219 0.47832242 0.69287455 0.10797171 0.46887273 0.64952385 -0.6078332 0.081360295 -0.20833081 -0.16114204 0.38166347 0.34334365 -0.3300039 0.60684156 0.16298087 0.35006422 -0.37639374 -0.2339659 -0.005800925 -0.08663685 -0.5147626 0.25346476 0.09797273 0.19348788 0.23853639 -0.3394971 -0.6865124 -0.09547513 -0.36733565 -0.078318596 0.105738 0.9885113 0.30632418 0.32967564 -0.05620195 0.3428644 0.42513427 0.2592073 0.19025767 -0.33688214 0.22688481 -0.50402874 -0.22891767 0.22585976 -0.63784295 -0.085913114 0.34141085 -0.3688694 -0.47071534 0.21243255 -0.6007958 0.41126427 0.15149862 -0.06020348 0.19551562 0.48386255 0.11561508 -0.059255295 -0.040206596 0.100092754 -0.07980505 -0.21312746 0.12700897 -0.165747 0.1494277 0.7373984
bit 0.16896759 -0.16409633 -0.41395894 -0.5905078 -0.09622469 0.5710613 0.6663813 0.6087862 -0.11590305 -0.32255 0.15464921 -0.5863183 -1.0394421 0.7112304 -0.9818753 0.31678993 1.0746604 -0.2309287 0.3106149 -0.25778303 -0.10466609 0.16920233 0.54508156 -0.050888363 -0.5647856 0.5408781 0.26255047 -0.032209497 0.28707537 0.44857323 -0.44879195 -0.118295975 0.2319898 -0.6761069 -0.61271703 0.48346096 0.69789827 0.09938846 0.47269246 0.63674134 -0.60889 0.07439805 -0.21364807 -0.16297756 0.36189085 0.3504373 -0.32813048 0.60641086 0.16612391 0.34891298 -0.35609075 -0.22646107 -0.012965183 -0.09324996 -0.4963543 0.2672204 0.11360553 0.18465483 0.2421969 -0.32536748 -0.68554723 -0.09944346 -0.37186593 -0.085608676 0.10137426 0.9857753 0.3042086 0.32986018 -0.066317715 0.34360036 0.42301896 0.25507304 0.18163963 -0.33430544 0.23144189 -0.50924015 -0.23279832 0.2370244 -0.6317863 -0.0827158 0.34225276 -0.35891333 -0.4558197 0.21860853 -0.6002416 0.41249758 0.16261645 -0.042340364 0.19196561 0.46773958 0.12039096 -0.06414844 -0.051521897 0.101332374 -0.07726303 -0.22137754 0.123017825 -0.15395609 0.14411318 0.74558836
dont 0.18781106 -0.16651757 -0.4458324 -0.6485158 -0.10356473 0.61996377 0.7413211 0.66492385 -0.12245204 -0.34096426 0.18095677 -0.6447603 -1.1390908 0.7868852 -1.074321 0.36153388 1.1932598 -0.24487105 0.34256124 -0.29138765 -0.10879943 0.1831924 0.5983949 -0.05795847 -0.64076585 0.58878434 0.29080904 -0.040272202 0.33165458 0.5022277 -0.50431955 -0.121269785 0.26515123 -0.75987667 -0.67439467 0.53025365 0.76232046 0.11098449 0.5169819 0.70517933 -0.66896266 0.086595856 -0.2148826 -0.16904788 0.4162564 0.38221863 -0.35564643 0.67234355 0.18758309 0.37391937 -0.408995 -0.25751135 0.0008909899 -0.09806411 -0.55541956 0.28651735 0.113754764 0.2186582 0.26466382 -0.3680184 -0.7588964 -0.108547375 -0.40707254 -0.09149041 0.11239809 1.0877429 0.33801982 0.36456463 -0.059148062 0.38069427 0.47086906 0.2849576 0.20526212 -0.36444256 0.2533271 -0.548243 -0.2465619 0.24905825 -0.6940095 -0.084544495 0.37556127 -0.39927763 -0.50544274 0.23999822 -0.6591118 0.45301536 0.15984397 -0.058115393 0.21901773 0.5296135 0.11775296 -0.06236828 -0.042487156 0.11392371 -0.096092 -0.23659767 0.13882597 -0.1774081 0.1653587 0.8093761
look 0.17648181 -0.15677792 -0.41667306 -0.6015666 -0.10310191 0.5728607 0.68795025 0.620274 -0.11624167 -0.3206159 0.15892948 -0.595608 -1.053566 0.7297284 -0.9885467 0.33168077 1.1081183 -0.23348188 0.317447 -0.2729976 -0.101606265 0.17156067 0.5528067 -0.061364107 -0.59385335 0.5427751 0.265739 -0.03646272 0.300088 0.47445258 -0.47359875 -0.11584867 0.24006785 -0.7022561 -0.63056046 0.48815942 0.7083867 0.10476279 0.47758836 0.65573466 -0.6166243 0.08060464 -0.20451246 -0.16066302 0.38601467 0.35526702 -0.3303531 0.6187994 0.16658898 0.35392886 -0.38381848 -0.2301143 -0.0077035925 -0.09021382 -0.5188328 0.25715697 0.09667523 0.1943915 0.24115188 -0.3446096 -0.7089994 -0.09315513 -0.37292758 -0.086202644 0.10161257 1.0021304 0.3144086 0.34089172 -0.058944985 0.3505914 0.44178173 0.2609288 0.18679722 -0.34049818 0.23424286 -0.5125222 -0.23505726 0.23645513 -0.63822216 -0.07669219 0.34389594 -0.37449875 -0.4737645 0.2129128 -0.6082883 0.41853714 0.15646753 -0.06365367 0.20909996 0.49182683 0.1159089 -0.055697452 -0.0403841 0.10384229 -0.08863875 -0.21938427 0.13190225 -0.16596043 0.1525546 0.7540731
youre 0.19529451 -0.17590797 -0.48004368 -0.7006316 -0.11960204 0.66606766 0.78117186 0.7094112 -0.13492806 -0.3669954 0.18421109 -0.69099355 -1.203786 0.8351519 -1.1391821 0.37944356 1.2639695 -0.26041025 0.37096134 -0.3108511 -0.121132895 0.20197016 0.63110965 -0.068579376 -0.67351437 0.6351682 0.30352956 -0.043835796 0.34770313 0.53526664 -0.5443108 -0.1347662 0.27274865 -0.803913 -0.71938795 0.5590814 0.8062783 0.12434604 0.54680955 0.75743175 -0.71473026 0.09201271 -0.23336875 -0.1843509 0.43563136 0.40190163 -0.38164705 0.71782434 0.19190423 0.4092239 -0.43232155 -0.2703114 -0.0043828287 -0.1010906 -0.60278034 0.30299583 0.12207716 0.22354521 0.27595776 -0.39608836 -0.8112488 -0.11546277 -0.4323461 -0.09732954 0.123776555 1.1541513 0.35493177 0.3914541 -0.067496344 0.40197903 0.49640206 0.30927387 0.22237767 -0.38179722 0.2616228 -0.5826782 -0.2698594 0.26895848 -0.74356544 -0.09889762 0.39738688 -0.43023002 -0.5348637 0.25054488 -0.694522 0.48502368 0.17247804 -0.06913811 0.23138903 0.56392056 0.12578864 -0.060747806 -0.047289256 0.12731634 -0.09055837 -0.24868432 0.1510292 -0.18746233 0.16932529 0.85924506
lot 0.19916165 -0.17689124 -0.47836247 -0.68529177 -0.10867872 0.64804244 0.77717537 0.701641 -0.12986514 -0.36057714 0.18728672 -0.6839693 -1.2022909 0.8296258 -1.1355213 0.379782 1.2521454 -0.26513073 0.36742133 -0.30958667 -0.11282612 0.19071676 0.6288981 -0.06697251 -0.6660184 0.6251953 0.30421484 -0.044792462 0.34909233 0.54301083 -0.5328592 -0.1279605 0.28036305 -0.80376214 -0.7195318 0.55886376 0.7944239 0.12068145 0.5437856 0.7504393 -0.70638204 0.091133066 -0.2289681 -0.18136102 0.4298764 0.40074426 -0.37120077 0.70225537 0.19552787 0.39766896 -0.43245336 -0.26436812 0.00061279716 -0.10107039 -0.59349555 0.30069083 0.11595468 0.23189837 0.27098763 -0.39036956 -0.8007993 -0.11068334 -0.42726037 -0.09050364 0.11799166 1.1391847 0.35298565 0.38850915 -0.064118445 0.39166474 0.49302912 0.3023177 0.21495332 -0.38472012 0.26786846 -0.5754409 -0.2616805 0.25943777 -0.7281909 -0.099325955 0.38567156 -0.42064238 -0.538588 0.2467615 -0.6886248 0.47894236 0.17154592 -0.062491838 0.23146202 0.55246466 0.12609948 -0.06623205 -0.04728071 0.11547122 -0.09040403 -0.25493872 0.14703783 -0.18937184 0.1763993 0.84798175
deposit 0.20759581 -0.17439401 -0.47985613 -0.703736 -0.11770568 0.66667044 0.782623 0.7055274 -0.13892503 -0.36911476 0.1918104 -0.6918345 -1.2035325 0.83250904 -1.1420897 0.38426304 1.2678502 -0.26299205 0.36499602 -0.3148395 -0.111405574 0.1918066 0.6290484 -0.060624585 -0.6793009 0.6329266 0.31044808 -0.03252176 0.35207054 0.54208803 -0.53942156 -0.1390241 0.28246194 -0.80944455 -0.72913074 0.5631039 0.8110516 0.12234057 0.54487115 0.7490443 -0.71805185 0.098643154 -0.24230878 -0.18599673 0.4349544 0.40493372 -0.37647706 0.70917624 0.20535883 0.3964985 -0.43311515 -0.26779884 -0.0138612315 -0.102663055 -0.59824854 0.30103824 0.12106138 0.22980641 0.2794782 -0.39621678 -0.80651873 -0.1122997 -0.43164808 -0.09985796 0.12217235 1.1508919 0.35442123 0.38375533 -0.059306968 0.40675476 0.50304204 0.30600017 0.22490206 -0.38177505 0.2731882 -0.581144 -0.27672935 0.27193794 -0.7372087 -0.09747549 0.39448285 -0.4279719 -0.53611624 0.2557892 -0.6981782 0.48475692 0.18159047 -0.06684039 0.2333618 0.55149084 0.11849081 -0.06213578 -0.04389987 0.1271676 -0.1014371 -0.2562455 0.14844157 -0.18994057 0.17842543 0.8663033
like 0.18845972 -0.16789457 -0.45678186 -0.6701764 -0.1166204 0.6283384 0.7558478 0.6826828 -0.12791975 -0.3529193 0.18370105 -0.65857697 -1.1572441 0.7971103 -1.0930398 0.36254263 1.2169313 -0.24731942 0.34707513 -0.2935205 -0.111216456 0.18783048 0.6075343 -0.06498745 -0.6425802 0.6057777 0.29849052 -0.043006185 0.33422652 0.51655215 -0.5170501 -0.12279942 0.26165807 -0.76789016 -0.6856339 0.53906065 0.7675674 0.111851975 0.5211511 0.72536695 -0.68316495 0.09348524 -0.22945699 -0.177288 0.42164907 0.3841838 -0.3642402 0.6873497 0.19208778 0.3920287 -0.4206291 -0.25130838 0.0007155685 -0.09890428 -0.56436545 0.29258934 0.11137673 0.22299644 0.2698296 -0.37712803 -0.7717075 -0.106527835 -0.413263 -0.09444799 0.10836713 1.1040295 0.3353803 0.37405092 -0.070764996 0.38374078 0.47973257 0.29296574 0.20632428 -0.36890605 0.2566016 -0.5538417 -0.25609642 0.25467166 -0.70033467 -0.0894678 0.37695277 -0.40621766 -0.52131253 0.24306309 -0.6661509 0.45814112 0.16176283 -0.06463402 0.22628312 0.52897507 0.12040149 -0.06455982 -0.045469817 0.11733176 -0.08828525 -0.2432851 0.14384058 -0.18259428 0.16689628 0.8269997
morning 0.07736507 -0.104608506 -0.20992133 -0.30229053 -0.04582746 0.32322574 0.34384283 0.31328353 -0.047223523 -0.18394534 0.086918324 -0.32347366 -0.559957 0.3736918 -0.5126088 0.18826047 0.57771975 -0.11690238 0.17106439 -0.12710027 -0.07665152 0.11016693 0.29294765 -0.02010802 -0.3274024 0.3053031 0.14856403 -0.015989793 0.15118283 0.26856366 -0.2474078 -0.03684083 0.13624974 -0.33989203 -0.32339153 0.2753129 0.36797243 0.050805237 0.26855162 0.3241276 -0.33387148 0.06726492 -0.11428878 -0.09113348 0.2088167 0.19177267 -0.14778392 0.31002802 0.094508454 0.20091638 -0.21124524 -0.09006835 -0.013925212 -0.0495981 -0.2689656 0.1251039 0.034284566 0.09032409 0.10542237 -0.20032774 -0.35289153 -0.04250351 -0.1902783 -0.059210453 0.047977895 0.51874894 0.15251097 0.19514063 -0.030698765 0.16970538 0.23358007 0.15674168 0.10288519 -0.18788159 0.12506056 -0.26502693 -0.12824467 0.15208589 -0.33544338 -0.04973769 0.15208171 -0.19469742 -0.24875896 0.10034004 -0.3160419 0.22079042 0.083982006 -0.045149792 0.100454636 0.24917094 0.06868112 -0.032959025 -0.040077664 0.058217876 -0.012285654 -0.081154026 0.0772497 -0.11833437 0.09890945 0.37290785
rate 0.19673468 -0.17173359 -0.47376636 -0.6840569 -0.105236 0.6378124 0.77162063 0.6854144 -0.1378089 -0.36101946 0.17327456 -0.67825043 -1.1800865 0.82143736 -1.1106907 0.36610916 1.2368125 -0.26197416 0.36081773 -0.30964488 -0.10301264 0.20209971 0.6172451 -0.066816516 -0.6604704 0.62019485 0.29514906 -0.03614127 0.34494758 0.5183537 -0.5308666 -0.124615654 0.26112396 -0.78592014 -0.70349944 0.54227006 0.79289824 0.12138108 0.52612007 0.7432395 -0.70013046 0.082115926 -0.23444012 -0.18612622 0.42894378 0.4023751 -0.37714967 0.70210457 0.19597119 0.39682958 -0.42005926 -0.258927 -0.006082483 -0.097049266 -0.58131397 0.3017217 0.121790744 0.21984513 0.27554908 -0.38126487 -0.79721683 -0.104720674 -0.41762185 -0.0864904 0.12117872 1.1246109 0.34279364 0.36953497 -0.061917588 0.38222104 0.48430002 0.3023227 0.20977348 -0.37068462 0.25804898 -0.56466436 -0.2649454 0.2581084 -0.72315556 -0.081552565 0.37884915 -0.41408664 -0.53096116 0.23726563 -0.67178524 0.46649355 0.17245589 -0.060809225 0.23710081 0.5490467 0.12227887 -0.06439696 -0.057919722 0.12731159 -0.09515052 -0.246261 0.15520704 -0.1876842 0.16586947 0.849795
consumer 0.18899323 -0.15389177 -0.42426008 -0.6200764 -0.10495253 0.5930563 0.7006159 0.63125765 -0.12427577 -0.3208452 0.1712035 -0.6170786 -1.0683649 0.7464062 -1.0021589 0.34206104 1.1265229 -0.24124286 0.32963884 -0.27447352 -0.10183561 0.1691152 0.5665889 -0.054382507 -0.60785 0.5612008 0.2700053 -0.033408917 0.3078922 0.47699594 -0.47301313 -0.116317235 0.24209848 -0.72065115 -0.645143 0.4886968 0.7103811 0.10346372 0.47990552 0.6680931 -0.6340444 0.07962396 -0.21090493 -0.16218601 0.39214066 0.3480446 -0.33438703 0.62954074 0.18330564 0.35311902 -0.3897047 -0.23873635 -0.0005020997 -0.10006226 -0.53719866 0.2718344 0.09917075 0.19857417 0.24052297 -0.35545623 -0.7220781 -0.098556936 -0.38261244 -0.08976558 0.09971839 1.0145916 0.31119028 0.34074944 -0.058577206 0.3526735 0.4395266 0.25982383 0.19136328 -0.3471348 0.23190986 -0.5244395 -0.24300846 0.22924423 -0.65517455 -0.079031125 0.34334332 -0.37791824 -0.4794112 0.21948305 -0.61579347 0.43164358 0.1522644 -0.063249454 0.21010359 0.4921185 0.1071705 -0.059809607 -0.03343197 0.1033598 -0.07687426 -0.21910247 0.13862124 -0.17318125 0.15508881 0.7642264
want 0.1790477 -0.1581751 -0.42970762 -0.6148579 -0.104783416 0.5828325 0.6927065 0.6309147 -0.11339286 -0.32620803 0.16659816 -0.6064008 -1.0735061 0.7447944 -1.0072186 0.3329852 1.1276653 -0.23317334 0.32202286 -0.27219772 -0.10705833 0.17893288 0.5550866 -0.05831844 -0.59703404 0.5599252 0.26683736 -0.03875783 0.31198588 0.48238412 -0.4809609 -0.12036272 0.24904573 -0.7100822 -0.64332795 0.4958312 0.71242326 0.11085283 0.4858342 0.6721459 -0.63629764 0.08842678 -0.20349579 -0.16132106 0.39236376 0.35453 -0.34106252 0.6345196 0.17428857 0.3617811 -0.38160756 -0.23180315 -0.0018836822 -0.09213065 -0.5299786 0.26378852 0.108993866 0.20314373 0.24466415 -0.34385836 -0.71641827 -0.09639721 -0.37921146 -0.08857542 0.101167865 1.0253626 0.31433678 0.3455891 -0.066543154 0.35522464 0.44109944 0.2706572 0.19301231 -0.34770113 0.23392159 -0.5203194 -0.23816624 0.23702563 -0.6508078 -0.08724367 0.34708604 -0.38294727 -0.4747619 0.2228219 -0.62217563 0.43235487 0.15786247 -0.057234153 0.20892647 0.4983084 0.113473095 -0.05166481 -0.047521997 0.10347912 -0.08793689 -0.22059242 0.13357508 -0.17589596 0.15313886 0.7619191
markets 0.18294862 -0.15698232 -0.428226 -0.6178256 -0.10340966 0.5801819 0.6941117 0.6203145 -0.112251386 -0.32360765 0.16279864 -0.61101705 -1.0737399 0.7345084 -1.0102333 0.341175 1.1237408 -0.2295087 0.32160527 -0.27818608 -0.09872673 0.1718541 0.56040454 -0.06287812 -0.6042354 0.55553913 0.26960823 -0.030696431 0.30186284 0.4796101 -0.4827578 -0.122087374 0.24714765 -0.7123629 -0.64102906 0.4961894 0.71519727 0.10635284 0.48628443 0.67229384 -0.6276854 0.090563506 -0.2041457 -0.16381127 0.3945913 0.3533559 -0.33200625 0.63398755 0.17383198 0.3597813 -0.38201594 -0.24403967 -0.0062427414 -0.09916216 -0.5274333 0.27040985 0.103420384 0.20275189 0.2435318 -0.34462234 -0.7068519 -0.091769494 -0.38380614 -0.079568475 0.09707659 1.0248306 0.31113413 0.34436142 -0.0609661 0.3487566 0.4386653 0.26698443 0.19077256 -0.3439196 0.23164304 -0.52053654 -0.23189738 0.23555785 -0.65632945 -0.09008142 0.35298115 -0.37851644 -0.4765826 0.2218438 -0.6200506 0.4307865 0.14914535 -0.058153935 0.2034391 0.49278763 0.110614814 -0.050392114 -0.037401017 0.10528794 -0.08023926 -0.22288288 0.13903481 -0.16656743 0.1534497 0.7565712
question 0.16655941 -0.14792158 -0.39888176 -0.57590777 -0.09647175 0.55538255 0.6510237 0.58718765 -0.1114183 -0.3053646 0.1551449 -0.57233256 -1.0110626 0.69215184 -0.94420236 0.32583946 1.059142 -0.21808425 0.30427924 -0.2544184 -0.103093445 0.17418309 0.53441334 -0.056345895 -0.56451714 0.52800477 0.25543046 -0.034691006 0.2824908 0.45990944 -0.45228812 -0.1079796 0.23570192 -0.6627831 -0.59278935 0.47123733 0.6754738 0.10581958 0.46161988 0.6261063 -0.5939569 0.0816366 -0.20015374 -0.15095933 0.35852873 0.32856113 -0.30454212 0.58382356 0.16488688 0.33923298 -0.3693422 -0.2129992 -0.008665971 -0.08984983 -0.4968173 0.2427846 0.09583594 0.18876979 0.22919367 -0.33165786 -0.66799694 -0.08900827 -0.35544613 -0.0763313 0.09566756 0.96330184 0.30203438 0.32790753 -0.051687043 0.3339102 0.41246283 0.2568293 0.17696406 -0.3206404 0.22392154 -0.48621744 -0.22389413 0.23491146 -0.61625874 -0.07698543 0.31783324 -0.35795173 -0.44824976 0.20443684 -0.5839542 0.4072762 0.14835587 -0.057911877 0.19866563 0.4674481 0.11477751 -0.058385685 -0.050899528 0.10667239 -0.07600039 -0.19619328 0.12980486 -0.17004843 0.1397757 0.71689177
things 0.17844912 -0.16526303 -0.43521848 -0.62752926 -0.10168385 0.5919705 0.70857835 0.63532436 -0.12223639 -0.33042732 0.16965133 -0.62163633 -1.0875856 0.7585549 -1.0349883 0.33953097 1.147714 -0.23265824 0.32802418 -0.2778778 -0.10983519 0.18206954 0.5680231 -0.05874864 -0.6081259 0.567713 0.2755365 -0.04113279 0.3175114 0.48374462 -0.48452538 -0.11687612 0.25312376 -0.7314492 -0.64441246 0.509615 0.73073983 0.10344542 0.48988146 0.6794673 -0.6405468 0.086257495 -0.20705181 -0.16920407 0.39515433 0.36850926 -0.34502205 0.6420273 0.17310849 0.3637008 -0.3929879 -0.24861895 -0.005049928 -0.08948478 -0.5400871 0.27412787 0.10841809 0.20462358 0.2501099 -0.34946132 -0.72704685 -0.1024898 -0.3839217 -0.0838597 0.106244445 1.0405002 0.31665346 0.3536219 -0.056479886 0.3598435 0.44872248 0.27840483 0.19702911 -0.346504 0.23890674 -0.52664137 -0.24347 0.2401084 -0.667494 -0.084392264 0.3531594 -0.38800204 -0.49303088 0.22546655 -0.63310605 0.44112775 0.15916719 -0.067131996 0.2146617 0.506017 0.11185078 -0.0548358 -0.04650055 0.11278867 -0.08092317 -0.2277299 0.13563742 -0.1768786 0.1513742 0.773954
kind 0.17063254 -0.15465483 -0.4146552 -0.6065886 -0.10160988 0.57166994 0.68232334 0.6109161 -0.119043484 -0.32069626 0.16544263 -0.59082425 -1.047528 0.7277078 -0.9867104 0.32596043 1.0943674 -0.23018731 0.3121332 -0.26721317 -0.10388677 0.17822981 0.5433688 -0.05455077 -0.5789393 0.5418513 0.26570463 -0.035842307 0.29943815 0.45967844 -0.46777534 -0.11180939 0.2390066 -0.69509065 -0.61871445 0.48786578 0.70174056 0.103595175 0.4742671 0.6485155 -0.61484605 0.07592843 -0.19917533 -0.15587802 0.37803057 0.34619394 -0.33229247 0.6200042 0.16851725 0.34696245 -0.37503833 -0.23581783 -0.004641525 -0.087951995 -0.5196183 0.26245528 0.104374364 0.20049438 0.24270934 -0.3408455 -0.69935155 -0.09129193 -0.3725126 -0.08160393 0.10455888 0.99827933 0.31018654 0.32952228 -0.061822094 0.34204102 0.43307108 0.26766416 0.19213824 -0.3368519 0.23384778 -0.5078752 -0.23074418 0.2314942 -0.6415866 -0.08609009 0.34098244 -0.3716692 -0.465375 0.22080895 -0.6015922 0.4195283 0.15772179 -0.06172784 0.20451422 0.47730502 0.10831096 -0.055397395 -0.042020418 0.099418096 -0.08230524 -0.21275458 0.12708403 -0.16504802 0.14784262 0.74635625
make 0.18204527 -0.15422995 -0.4339752 -0.62158614 -0.102948 0.59066325 0.71528125 0.6381333 -0.11815175 -0.32978904 0.17225142 -0.6275386 -1.0969687 0.7608506 -1.0381724 0.34654522 1.144736 -0.23335984 0.33847392 -0.28978723 -0.11207294 0.17693043 0.57627165 -0.06574665 -0.6172002 0.56521195 0.2856194 -0.03581255 0.31026143 0.49722797 -0.4931073 -0.11842205 0.25431776 -0.728847 -0.65323055 0.5076218 0.7278449 0.11310452 0.4952691 0.6909342 -0.64989907 0.08246015 -0.21464463 -0.16044149 0.40426418 0.36817047 -0.34825283 0.6491987 0.17657693 0.3621125 -0.39333206 -0.25176302 0.0020769972 -0.09838805 -0.5432111 0.26547173 0.10654943 0.20140624 0.25776532 -0.35936755 -0.73173493 -0.10316149 -0.38825637 -0.0825449 0.09996409 1.0490159 0.32685158 0.35669762 -0.06739037 0.3584419 0.44881797 0.26961845 0.20412812 -0.35470012 0.24441072 -0.533619 -0.2381799 0.23852481 -0.6656473 -0.08595459 0.3643453 -0.39148197 -0.49865508 0.22866999 -0.6313914 0.44433752 0.15960857 -0.061660457 0.2065537 0.51457506 0.109613046 -0.056911796 -0.045113064 0.10940361 -0.09125367 -0.23284563 0.13369492 -0.17995538 0.15279584 0.7848338
still 0.18082502 -0.16451815 -0.43211785 -0.62535715 -0.105654575 0.5944707 0.70516706 0.6300257 -0.11634426 -0.33098078 0.17241724 -0.6200374 -1.0817583 0.7554723 -1.0187963 0.33996588 1.1346225 -0.23391475 0.32629585 -0.28180394 -0.10543989 0.17640518 0.57040906 -0.061126217 -0.60049295 0.56388813 0.27903998 -0.038903948 0.31417176 0.48793402 -0.4878802 -0.123770975 0.25128123 -0.72428465 -0.64147115 0.49741486 0.72403955 0.10715847 0.49247223 0.68197984 -0.6409523 0.08254412 -0.21289432 -0.17131373 0.39856058 0.35990334 -0.34158298 0.643225 0.18122348 0.3618755 -0.3874614 -0.2446344 -0.006685148 -0.09018342 -0.53420645 0.26914683 0.100214235 0.2090847 0.24980392 -0.3510204 -0.71763104 -0.096835196 -0.38164592 -0.08683632 0.10798905 1.0293019 0.31842488 0.3504047 -0.06300795 0.35225 0.4516642 0.27085713 0.20030093 -0.34531888 0.24034071 -0.52225345 -0.24327178 0.23407596 -0.65632564 -0.08337234 0.35454336 -0.38314798 -0.4890121 0.2287238 -0.6239679 0.43658888 0.1589444 -0.06590036 0.20576668 0.50312144 0.108116195 -0.061039798 -0.04238476 0.11401752 -0.081849456 -0.21824214 0.13805582 -0.17534731 0.15767781 0.76994455
customers 0.20773284 -0.17766118 -0.49148372 -0.6993366 -0.1200744 0.6626369 0.794437 0.7157215 -0.13853604 -0.362109 0.18788299 -0.6910779 -1.216776 0.8423918 -1.1548375 0.37829593 1.276985 -0.26668447 0.3665781 -0.3118625 -0.12050714 0.20052363 0.63459224 -0.06362849 -0.6886948 0.63182074 0.30887017 -0.04579136 0.34716657 0.5510727 -0.54916286 -0.13677473 0.27613842 -0.8158144 -0.72851324 0.5628737 0.8127338 0.11932121 0.5538372 0.7669642 -0.71971375 0.09890752 -0.23193891 -0.18034217 0.4469841 0.4028333 -0.3834387 0.7174852 0.20228674 0.40600076 -0.4334099 -0.274331 -0.0063965274 -0.104199246 -0.60105664 0.30760583 0.115998395 0.22785775 0.27668792 -0.39435214 -0.81298614 -0.11899085 -0.4329327 -0.091704346 0.118162796 1.1600031 0.362716 0.38947403 -0.07201255 0.39605826 0.5099168 0.30481043 0.2273649 -0.39027956 0.26455718 -0.588028 -0.27403852 0.26946986 -0.7484463 -0.09789726 0.40167257 -0.431418 -0.54679024 0.25173867 -0.699353 0.4912044 0.17472635 -0.07357015 0.23500836 0.5616362 0.12986024 -0.05937801 -0.05505704 0.12050226 -0.094826944 -0.25146922 0.1514359 -0.20022377 0.1744622 0.8719885
could 0.18138307 -0.1606246 -0.43217856 -0.6211815 -0.09900955 0.593052 0.7016091 0.6275181 -0.112609476 -0.33178765 0.16242395 -0.61647594 -1.0801857 0.7504772 -1.0139608 0.33651584 1.1328632 -0.23396446 0.3218492 -0.2784382 -0.10205315 0.17724013 0.5633111 -0.06171027 -0.6038364 0.5673969 0.27834666 -0.030458108 0.30471787 0.47557786 -0.48307797 -0.11748451 0.24599743 -0.71886975 -0.6458136 0.5054808 0.7152071 0.103344455 0.48928973 0.6768362 -0.6406684 0.08137323 -0.21018863 -0.16646875 0.38918164 0.354535 -0.338599 0.63541025 0.18019 0.35846952 -0.38990462 -0.23338953 -0.0037502532 -0.09548456 -0.5362249 0.2655918 0.11113391 0.20212348 0.2445783 -0.34738207 -0.7176469 -0.10203149 -0.38161293 -0.08253803 0.11034341 1.0307555 0.31335834 0.3509278 -0.05600506 0.35959008 0.45112532 0.26848277 0.19269517 -0.3424034 0.24310438 -0.5201352 -0.23675843 0.24385719 -0.6565715 -0.079606034 0.3508397 -0.38181546 -0.4864552 0.22051503 -0.61704326 0.4336517 0.1588646 -0.06198609 0.21433796 0.49923512 0.11236476 -0.058896773 -0.053517945 0.102723174 -0.08138584 -0.22198153 0.14005382 -0.16856071 0.15760268 0.77330023
basis 0.19562112 -0.19505131 -0.48021337 -0.7059869 -0.13003647 0.6627643 0.7692329 0.7167169 -0.11856186 -0.37725127 0.19170995 -0.69500434 -1.2019333 0.86001956 -1.1451755 0.39639133 1.2698857 -0.2738279 0.363459 -0.30457813 -0.12908845 0.20423621 0.62561715 -0.06467749 -0.66177124 0.6286903 0.30149212 -0.027881647 0.3543404 0.5148904 -0.5565274 -0.1258594 0.2913273 -0.8232384 -0.7312054 0.5570681 0.8010716 0.13050513 0.5579755 0.75796616 -0.72136945 0.095864266 -0.23303477 -0.1932884 0.44276276 0.42335108 -0.39903083 0.7280959 0.18757582 0.3864344 -0.43325058 -0.27024958 -0.0071217264 -0.08063193 -0.602147 0.3044767 0.11285907 0.24022724 0.2822282 -0.3956408 -0.8039785 -0.122098684 -0.41646254 -0.098118216 0.13715853 1.146138 0.35841486 0.4047162 -0.056060847 0.4241186 0.5012761 0.29120535 0.21406393 -0.36561418 0.27951205 -0.589928 -0.27944806 0.2642716 -0.7326897 -0.10153334 0.37505424 -0.41683882 -0.54451305 0.2629295 -0.67832494 0.47427246 0.17849119 -0.07395323 0.23189564 0.5778627 0.1270848 -0.054263026 -0.06173335 0.13697422 -0.08598343 -0.26503766 0.15708491 -0.19251789 0.16289288 0.880499
got 0.16740254 -0.1504702 -0.3870041 -0.5584193 -0.090347625 0.5314459 0.632761 0.56306565 -0.10559922 -0.29562607 0.15587792 -0.54934424 -0.9750811 0.66820455 -0.91077447 0.31300333 1.0129926 -0.21234812 0.29794884 -0.24890861 -0.09463646 0.16536367 0.5148106 -0.048049517 -0.5453897 0.5006736 0.2523651 -0.032021854 0.2724738 0.4344837 -0.43044686 -0.1100743 0.22334419 -0.647669 -0.57159877 0.45063308 0.64976126 0.09321213 0.44470885 0.59765637 -0.5737254 0.077640444 -0.18899307 -0.14897567 0.35483417 0.31590948 -0.30151373 0.57167417 0.15873215 0.32581413 -0.35682875 -0.21158002 3.7181445e-07 -0.07680595 -0.47946078 0.23518674 0.08976163 0.17780785 0.21657588 -0.3214939 -0.6488527 -0.08146002 -0.34338692 -0.08052338 0.094626874 0.9302361 0.28833404 0.31281546 -0.048464093 0.32182693 0.40433228 0.24888155 0.17697236 -0.31356147 0.21982455 -0.46693096 -0.2128203 0.22284602 -0.5965934 -0.08571809 0.30926302 -0.3422955 -0.43275 0.19372843 -0.55690426 0.3853846 0.13794059 -0.05116762 0.17973113 0.4548189 0.103650756 -0.055087954 -0.04271562 0.09893617 -0.066190295 -0.19190606 0.12345279 -0.15952209 0.1330942 0.68755037
back 0.19458492 -0.16949387 -0.45191753 -0.65456885 -0.108596 0.6247837 0.74176973 0.66293395 -0.12737504 -0.34987238 0.18049085 -0.6534684 -1.1408252 0.78539026 -1.0761989 0.36438224 1.1971356 -0.24885055 0.3382836 -0.2893158 -0.11321102 0.1881962 0.6023447 -0.0582772 -0.63975984 0.59595835 0.28671446 -0.034446243 0.3305753 0.51375014 -0.5071756 -0.12525873 0.26485577 -0.76184976 -0.6807567 0.5227881 0.7673066 0.1062916 0.52087307 0.71377796 -0.6695623 0.085962474 -0.22676587 -0.17144066 0.41875452 0.38167927 -0.36473852 0.6679089 0.18242832 0.38187453 -0.41159502 -0.25350004 -0.009785905 -0.09515142 -0.56141585 0.28603223 0.11106888 0.21360049 0.25754964 -0.36520487 -0.7585547 -0.10788899 -0.40252852 -0.08314694 0.105201915 1.0823789 0.337335 0.36892256 -0.066604674 0.38125968 0.47769296 0.28477496 0.21126354 -0.3628963 0.24935538 -0.5530213 -0.24728951 0.25357088 -0.6917041 -0.08417899 0.37091014 -0.40139005 -0.50484836 0.23053032 -0.6598994 0.45657313 0.16103776 -0.06266055 0.2164196 0.5270758 0.11871055 -0.067936115 -0.050130643 0.11757588 -0.09161678 -0.23139733 0.14005253 -0.1831539 0.16046986 0.81640226
much 0.17477538 -0.15937024 -0.41668516 -0.59692204 -0.09416941 0.57082975 0.6798404 0.61101145 -0.116644554 -0.3178855 0.16437642 -0.5956671 -1.0414379 0.7154847 -0.98011804 0.32728216 1.092233 -0.22711574 0.31735697 -0.27127472 -0.09832174 0.16995968 0.54308003 -0.055528324 -0.5821307 0.5411999 0.26884866 -0.03758647 0.29694998 0.46150827 -0.46620643 -0.117412925 0.24362916 -0.6960118 -0.61263365 0.48545817 0.69505495 0.09818857 0.47013155 0.64682925 -0.6123448 0.07404301 -0.19758022 -0.15382859 0.37405694 0.34355828 -0.32041883 0.6123392 0.17584442 0.34368077 -0.36771557 -0.23378837 -0.009325627 -0.08821578 -0.51593566 0.25474468 0.101648696 0.1975441 0.2339737 -0.33309343 -0.69377846 -0.092623465 -0.3660876 -0.077889964 0.096809655 0.99070656 0.30312982 0.3376395 -0.06016981 0.33999982 0.4340995 0.25707996 0.187869 -0.3313206 0.23311123 -0.5077096 -0.23467383 0.23460574 -0.6305312 -0.0860368 0.33860517 -0.36851 -0.46111873 0.21688297 -0.59948045 0.41133636 0.15341304 -0.061231356 0.2036733 0.48541513 0.114898615 -0.05859964 -0.04680416 0.099158585 -0.07888556 -0.2074869 0.12774439 -0.17103666 0.15197118 0.73526096
go 0.17766106 -0.15157183 -0.40917954 -0.5942061 -0.09819014 0.56428885 0.67978364 0.60976183 -0.116556294 -0.31323448 0.16290116 -0.5929234 -1.0445758 0.72186923 -0.9844164 0.32969913 1.0939243 -0.22606319 0.31305468 -0.27088332 -0.09948313 0.17457741 0.5466796 -0.061691783 -0.58377886 0.540102 0.25987425 -0.03516721 0.2975806 0.46750414 -0.46286476 -0.11096721 0.2346812 -0.6979226 -0.62105095 0.47649413 0.69409126 0.10459105 0.4743646 0.65034103 -0.61060673 0.077908665 -0.20412554 -0.16000442 0.37914318 0.34572393 -0.3286115 0.60850203 0.16341956 0.34955695 -0.37237948 -0.23144984 -0.0006391637 -0.086988814 -0.51729083 0.25737926 0.10579868 0.1918957 0.23936853 -0.33186826 -0.69543904 -0.09763948 -0.36373824 -0.0813571 0.10031881 0.991397 0.3019502 0.33262223 -0.059059612 0.34298828 0.43290287 0.26348633 0.1907031 -0.32801384 0.22826195 -0.4978413 -0.22647667 0.22762361 -0.6362295 -0.079867624 0.34250686 -0.36960605 -0.4652192 0.21005385 -0.6034367 0.4149933 0.15241387 -0.059748232 0.20596263 0.48436642 0.108266555 -0.05747181 -0.044856053 0.09990649 -0.08176342 -0.21942179 0.12549676 -0.16518386 0.14924297 0.7457131
side 0.15663433 -0.14076686 -0.36924714 -0.5286235 -0.08380051 0.4996391 0.59287447 0.53225255 -0.08954897 -0.27479884 0.15178914 -0.52258444 -0.9100604 0.63546115 -0.8597723 0.2834743 0.9657137 -0.19441217 0.28610444 -0.22878675 -0.084920585 0.14627549 0.4814809 -0.04175889 -0.5097781 0.47707024 0.22780047 -0.030865882 0.26621413 0.4154121 -0.40558326 -0.10204932 0.21061961 -0.617081 -0.54389906 0.41513842 0.6155244 0.091198854 0.4095669 0.5778809 -0.5461961 0.07587568 -0.17385854 -0.14041132 0.32624805 0.30335373 -0.2861384 0.5373784 0.1458153 0.2955167 -0.32849553 -0.21083081 -0.005373399 -0.08593883 -0.45831704 0.22467257 0.09151885 0.17233637 0.2047897 -0.304544 -0.6061184 -0.08646698 -0.33484882 -0.06692745 0.093262516 0.871497 0.26007122 0.2971168 -0.048972663 0.29563642 0.38031027 0.22857474 0.16428885 -0.28897846 0.20432228 -0.44293234 -0.2121833 0.19226205 -0.54864615 -0.07463933 0.29636592 -0.31871444 -0.40612265 0.19074343 -0.5295657 0.36262468 0.13213943 -0.051046193 0.17394829 0.41862553 0.09001602 -0.044599682 -0.0330762 0.095512696 -0.07424913 -0.19159599 0.123883136 -0.14892429 0.13755272 0.647836
years 0.17750841 -0.15460162 -0.40257192 -0.592844 -0.09583351 0.5586924 0.6729234 0.6078448 -0.11481101 -0.30906814 0.15415837 -0.577334 -1.0244347 0.7124355 -0.9810967 0.3159789 1.0779706 -0.22238259 0.3083402 -0.2692884 -0.09966898 0.16088855 0.550275 -0.06318817 -0.5807294 0.5433018 0.26580518 -0.029643305 0.30432728 0.4524509 -0.45897353 -0.11767081 0.22635502 -0.69133395 -0.60888076 0.47485694 0.70010865 0.10522919 0.47128773 0.6469309 -0.6049961 0.075209066 -0.20883067 -0.16280966 0.3696256 0.339896 -0.32256377 0.6173486 0.17221983 0.3548143 -0.37809289 -0.22691819 -0.0072931075 -0.08397755 -0.50650066 0.25765148 0.09819147 0.20103693 0.23438463 -0.33627492 -0.6868347 -0.09892419 -0.36094776 -0.08070823 0.090491004 0.9761085 0.29821658 0.33743474 -0.05840817 0.3375016 0.43151224 0.2651884 0.17737097 -0.32443896 0.23003042 -0.49629992 -0.22337557 0.22786558 -0.627256 -0.06897233 0.335623 -0.36880103 -0.46484983 0.21084133 -0.5960154 0.41263336 0.1424266 -0.063695826 0.20687467 0.4787548 0.11804362 -0.052502964 -0.04579412 0.10882587 -0.08638618 -0.22512886 0.13491194 -0.164347 0.14140896 0.7443423
okay 0.13753504 -0.12971584 -0.32078114 -0.46328756 -0.07596879 0.43897384 0.52599484 0.4714462 -0.08937785 -0.2384069 0.12718996 -0.46676907 -0.81035465 0.56336224 -0.76865566 0.25656456 0.85201645 -0.17346877 0.24418405 -0.20500115 -0.07847753 0.14227717 0.43230343 -0.04641996 -0.45627275 0.42676303 0.20915176 -0.032676693 0.22222665 0.36684746 -0.3652277 -0.09243521 0.19517615 -0.537359 -0.4747767 0.38110065 0.54537207 0.079941675 0.36890236 0.5056545 -0.4747472 0.056556974 -0.1657893 -0.11720858 0.2905898 0.2598976 -0.245711 0.4708761 0.13498534 0.28066507 -0.29195887 -0.18339838 -0.0061848215 -0.064896174 -0.40941018 0.18911159 0.07290647 0.14878343 0.18615487 -0.26436752 -0.5338306 -0.06523302 -0.2838728 -0.0644842 0.07433071 0.7718877 0.23949312 0.2638158 -0.04424877 0.26344573 0.3369287 0.202286 0.14717774 -0.2551604 0.18196045 -0.39695463 -0.1841429 0.1933741 -0.497075 -0.06319372 0.25637513 -0.28538367 -0.36841327 0.16642673 -0.46868306 0.32798693 0.11594011 -0.054418728 0.1532987 0.38211933 0.09459127 -0.038637202 -0.040786427 0.07761068 -0.050218098 -0.15430751 0.10319998 -0.13664438 0.10822331 0.5769532
maybe 0.16853201 -0.1584858 -0.41309068 -0.5893429 -0.09220783 0.5658063 0.66513807 0.59991115 -0.111315906 -0.31240356 0.15897033 -0.59191877 -1.0335865 0.7176852 -0.97753733 0.3225331 1.0851862 -0.2240631 0.31084502 -0.25773743 -0.09930829 0.16756329 0.546345 -0.056503184 -0.57470226 0.53773457 0.26080003 -0.03763689 0.29625922 0.46002045 -0.45419028 -0.117172346 0.23274778 -0.688253 -0.6126265 0.48040184 0.6941376 0.10117464 0.46157604 0.64851123 -0.6135464 0.08359168 -0.20462427 -0.16138461 0.36658928 0.341138 -0.32623526 0.61221576 0.16879809 0.35208678 -0.36543214 -0.22757654 -0.0060759876 -0.084807545 -0.51191473 0.25831026 0.10600427 0.19628173 0.23822908 -0.33719766 -0.69120383 -0.09316358 -0.36528295 -0.08300679 0.099424474 0.98014134 0.30669942 0.335024 -0.05918018 0.3353642 0.4285284 0.2573686 0.18189435 -0.3303626 0.23177797 -0.49804553 -0.23248377 0.2311685 -0.6315761 -0.08068793 0.33595824 -0.36822048 -0.46183163 0.21385798 -0.5973777 0.40930384 0.1550103 -0.05158169 0.20220795 0.4805098 0.11105991 -0.05223164 -0.046748016 0.104822874 -0.07817946 -0.21761513 0.12594448 -0.1609632 0.14826179 0.737939
point 0.17219025 -0.1550963 -0.4107759 -0.5931408 -0.095336355 0.5652917 0.67100215 0.604331 -0.11015989 -0.3118384 0.15456603 -0.5905061 -1.0260189 0.7129466 -0.97606176 0.32041317 1.0743818 -0.2231151 0.3168985 -0.26117405 -0.10138741 0.17123835 0.53721553 -0.0580976 -0.58096194 0.5318923 0.25862077 -0.032414775 0.29709572 0.45195368 -0.46462828 -0.110115536 0.23429288 -0.6811182 -0.61362773 0.47810414 0.69403166 0.105183676 0.46130037 0.6466065 -0.6074527 0.08366947 -0.20134865 -0.1615481 0.36742356 0.3450384 -0.3298497 0.613597 0.16042048 0.3430218 -0.36517683 -0.23209153 -0.0060387594 -0.082988024 -0.5036899 0.25863805 0.09556999 0.19770159 0.23648952 -0.33546442 -0.6905723 -0.10000236 -0.35725036 -0.08325597 0.10369499 0.9767146 0.29971772 0.3345722 -0.059627242 0.34313998 0.42496175 0.26023465 0.18626688 -0.33072546 0.22659095 -0.49615166 -0.22592065 0.22092794 -0.62498796 -0.08149541 0.33691284 -0.36527026 -0.4541871 0.21235842 -0.59129274 0.4069321 0.14785068 -0.062739655 0.20205413 0.48056522 0.11157264 -0.052508794 -0.04828928 0.110957436 -0.08496229 -0.21945457 0.12720037 -0.16371705 0.14788385 0.7415894
last 0.17293143 -0.1578736 -0.4115785 -0.5939308 -0.10510997 0.5656468 0.67311233 0.60341203 -0.120803535 -0.30640006 0.15895389 -0.58448964 -1.0391276 0.72225314 -0.9810218 0.32156157 1.0895872 -0.22238271 0.30672744 -0.26532453 -0.09634398 0.17121977 0.5491223 -0.055687387 -0.5797641 0.5436705 0.2636703 -0.032861866 0.29236603 0.45691687 -0.45530018 -0.1195916 0.23967537 -0.6886262 -0.6117905 0.4818468 0.69468653 0.0993905 0.47248837 0.6532852 -0.60474586 0.08376302 -0.20367958 -0.16556421 0.3776341 0.34790844 -0.32613072 0.6147577 0.17006713 0.35007098 -0.36785352 -0.2283549 -0.00420579 -0.086416766 -0.5152345 0.25455847 0.0977918 0.19247289 0.23134229 -0.34186375 -0.69439 -0.091129325 -0.3647076 -0.079938516 0.095226385 0.98481035 0.29882023 0.3295611 -0.051792216 0.34646583 0.42950442 0.2621989 0.18685617 -0.33132297 0.22322138 -0.49820963 -0.23133229 0.23179935 -0.63694286 -0.08247983 0.3411136 -0.36726502 -0.46265453 0.20763223 -0.6015287 0.42089817 0.15307423 -0.06315239 0.20436034 0.48050815 0.115017205 -0.06277194 -0.050965752 0.10792066 -0.08123665 -0.21483232 0.13186614 -0.16371556 0.14591545 0.7415126
thank 0.09160773 -0.08597658 -0.23272069 -0.3273124 -0.06040556 0.315291 0.36803874 0.33642694 -0.05383392 -0.18333313 0.0886852 -0.3351641 -0.5829092 0.40156984 -0.5422293 0.19093314 0.61138284 -0.12299274 0.18073429 -0.1507433 -0.0670154 0.10437106 0.30786917 -0.032335047 -0.33339444 0.30449152 0.14968207 -0.014830314 0.15956926 0.26922905 -0.25857446 -0.06307826 0.14278884 -0.37532812 -0.33504334 0.26488936 0.37786847 0.062486764 0.2690979 0.35267052 -0.34526974 0.044699863 -0.11872007 -0.09242353 0.20092925 0.19228062 -0.17308801 0.32762587 0.093718596 0.19382268 -0.21162869 -0.11890133 -0.0032743523 -0.054994833 -0.29476303 0.13107388 0.04699745 0.110844344 0.12704733 -0.19896391 -0.3815575 -0.044638388 -0.1969679 -0.051308382 0.050293155 0.5531103 0.16344866 0.18016534 -0.030024283 0.19389634 0.24675888 0.15833306 0.10288969 -0.18497032 0.13117027 -0.27684376 -0.13131136 0.13461696 -0.35101223 -0.054211758 0.17651471 -0.2105155 -0.2629659 0.11529823 -0.32512403 0.22244437 0.09126742 -0.037585907 0.1058886 0.26550463 0.06759236 -0.033815272 -0.025670774 0.05832337 -0.03322682 -0.111374065 0.07529947 -0.09763192 0.085110635 0.40090325
first 0.15668747 -0.14245822 -0.3794525 -0.5538943 -0.08953589 0.5290019 0.6215895 0.55785453 -0.11200745 -0.29535246 0.14900036 -0.5455964 -0.97015035 0.6627932 -0.90733325 0.3091647 1.0093812 -0.20589674 0.28568015 -0.24366921 -0.09949044 0.1598399 0.51235026 -0.057445727 -0.5411064 0.4980503 0.24191016 -0.026564082 0.27136213 0.4215401 -0.42637575 -0.11090104 0.22560365 -0.6460503 -0.57409793 0.45017666 0.64382684 0.0894129 0.44434476 0.6051935 -0.5641787 0.07915887 -0.19332325 -0.14492384 0.34823203 0.32039973 -0.30410504 0.5729519 0.15241829 0.3240316 -0.34343696 -0.20920339 -0.0034773475 -0.07618928 -0.4742584 0.23781502 0.09154067 0.18285847 0.21700881 -0.31192657 -0.63979596 -0.0937094 -0.33461687 -0.069196925 0.089318074 0.9184392 0.2875016 0.3074267 -0.0501853 0.31634024 0.39591375 0.25179523 0.17377111 -0.30219838 0.2158784 -0.46267933 -0.22190273 0.2196847 -0.5923324 -0.07906456 0.30938938 -0.33646545 -0.43339872 0.19793063 -0.56176394 0.38895768 0.14468454 -0.06113518 0.18005508 0.45304254 0.102696925 -0.060151033 -0.04240334 0.089748554 -0.0816052 -0.2001318 0.1200413 -0.15944311 0.13523231 0.68553257
two 0.16803063 -0.1510282 -0.41393384 -0.5997346 -0.10598753 0.575595 0.6732679 0.60594004 -0.11487663 -0.3073594 0.15452257 -0.5855235 -1.0384932 0.72072977 -0.9828373 0.32863733 1.0917602 -0.21969256 0.31044158 -0.26951507 -0.10485041 0.1683613 0.54826826 -0.056760557 -0.5832636 0.5457929 0.26218078 -0.03242563 0.29553065 0.4680462 -0.46791866 -0.113024816 0.23770326 -0.69445014 -0.61770064 0.48242635 0.70073336 0.09572327 0.4765367 0.65290755 -0.6096347 0.08548619 -0.20579658 -0.16059232 0.37820026 0.34685564 -0.3323151 0.60964686 0.17297484 0.34996903 -0.3766867 -0.22875662 -0.01232542 -0.0817105 -0.5133464 0.262538 0.10535032 0.20001194 0.23565091 -0.34336025 -0.69812745 -0.0975094 -0.36969662 -0.08254463 0.09683555 0.99746966 0.30709612 0.33974794 -0.05705512 0.345116 0.42789918 0.26236504 0.18223318 -0.32799718 0.23403853 -0.5032394 -0.22622524 0.23757197 -0.63381076 -0.074108794 0.33308932 -0.36699632 -0.4683638 0.21899226 -0.5994041 0.4159625 0.15501915 -0.059246194 0.20112091 0.48358712 0.10804866 -0.05998677 -0.04741117 0.09954987 -0.0784388 -0.22145826 0.12506439 -0.17168339 0.14250118 0.73813444
john 0.15912847 -0.14570802 -0.39666843 -0.5673476 -0.09606222 0.5495855 0.6403562 0.57523435 -0.10459566 -0.30011278 0.15634488 -0.567662 -0.98835105 0.68251926 -0.9315814 0.32080287 1.0423083 -0.21053217 0.30533186 -0.25549996 -0.10665718 0.16801596 0.5187847 -0.0485827 -0.5519014 0.51363325 0.25745094 -0.02988385 0.27829573 0.44500905 -0.43831363 -0.10541455 0.2277787 -0.65051323 -0.58779925 0.46300897 0.6520651 0.102357745 0.4495696 0.62054545 -0.5874701 0.08610509 -0.19676235 -0.14906196 0.35549635 0.32208455 -0.30038399 0.58381593 0.15960847 0.33742654 -0.36285487 -0.2180852 -0.009169575 -0.08037195 -0.48868266 0.24773248 0.0894715 0.1899004 0.22483355 -0.32974738 -0.6630743 -0.08558634 -0.34314418 -0.07835935 0.091304116 0.9486625 0.29684573 0.3192899 -0.049593 0.33497965 0.40799627 0.25038168 0.17818446 -0.32182434 0.22007056 -0.48223382 -0.22365367 0.23175496 -0.60880196 -0.08531351 0.3139019 -0.35275665 -0.4476187 0.20729576 -0.5730806 0.39550915 0.14006771 -0.055119906 0.18836564 0.46020254 0.106744066 -0.05980444 -0.047336534 0.10112657 -0.06933834 -0.19966 0.12875563 -0.16464885 0.14357054 0.693317
portfolio 0.19480363 -0.17364441 -0.45325652 -0.65940624 -0.11088519 0.6307093 0.7413281 0.6750754 -0.12322368 -0.3447246 0.18443727 -0.65301913 -1.1429302 0.7962053 -1.0806447 0.3645357 1.2022725 -0.25734395 0.3550779 -0.28758436 -0.10816158 0.18476154 0.6014914 -0.06462293 -0.6371704 0.604227 0.28742087 -0.03964662 0.33206758 0.5164396 -0.5156255 -0.13142468 0.26392576 -0.7650856 -0.68713737 0.5315568 0.7632919 0.11611513 0.52023196 0.71698415 -0.6822334 0.09392122 -0.21670333 -0.17972887 0.41625214 0.37917912 -0.36693954 0.6698637 0.18549198 0.3854483 -0.4117245 -0.25699702 -0.0033070047 -0.09546141 -0.56473726 0.2812282 0.10878159 0.2212574 0.26716223 -0.36877757 -0.7628001 -0.101687126 -0.4060776 -0.09213648 0.1145624 1.0969214 0.32969382 0.3654733 -0.06735955 0.38267678 0.47312653 0.2834429 0.20357136 -0.36709952 0.24979784 -0.5464837 -0.25846183 0.25700614 -0.69809985 -0.08286473 0.37261313 -0.40207884 -0.5074897 0.24288116 -0.66506296 0.45530686 0.16839774 -0.06377236 0.22456093 0.52751005 0.1196757 -0.06326832 -0.05306841 0.114612065 -0.086743444 -0.2330899 0.14567809 -0.18300666 0.15959765 0.8134618
next 0.17742454 -0.15490738 -0.41616017 -0.6052013 -0.09853121 0.58612233 0.683798 0.62692297 -0.12120643 -0.31443006 0.15929914 -0.6001613 -1.0652546 0.7408216 -1.0082229 0.33693248 1.1108503 -0.2257654 0.31606522 -0.26987913 -0.09784146 0.17316863 0.5639421 -0.065019906 -0.59279025 0.55855095 0.2751226 -0.027868535 0.3076159 0.4655159 -0.4710538 -0.12243561 0.24670449 -0.7045502 -0.63066 0.48625728 0.7173252 0.10031172 0.47943583 0.6670064 -0.6249914 0.085434794 -0.20616487 -0.17235844 0.3911814 0.36076108 -0.34282848 0.6348081 0.17432058 0.3600362 -0.37986213 -0.23814735 -0.011956285 -0.087137684 -0.5197205 0.26583123 0.10291735 0.20350926 0.24823405 -0.34905162 -0.71617395 -0.0961264 -0.37210855 -0.08196028 0.09475792 1.0149806 0.30455843 0.33888388 -0.05724939 0.35472298 0.43934727 0.2678233 0.19068398 -0.34064654 0.23546158 -0.50916886 -0.23775521 0.2329482 -0.65010613 -0.07839594 0.34025016 -0.37835214 -0.47685707 0.21498634 -0.614577 0.4272356 0.15239713 -0.05773762 0.20840025 0.48889938 0.11923433 -0.06282954 -0.043821014 0.10243396 -0.08745773 -0.22522987 0.13347468 -0.1660278 0.14846411 0.76475155
also 0.22631733 -0.20570607 -0.54221624 -0.78751886 -0.12615772 0.7410346 0.8803716 0.79804903 -0.150487 -0.4079871 0.21840367 -0.76990116 -1.3582451 0.94267607 -1.2809165 0.43276435 1.433063 -0.30097684 0.4143789 -0.3532316 -0.12963234 0.22601506 0.7186286 -0.07089424 -0.7591343 0.7063602 0.34314254 -0.045349106 0.39219674 0.6131425 -0.6110885 -0.15288341 0.31249377 -0.9098882 -0.81186706 0.63177216 0.9044325 0.13541403 0.61357296 0.8526962 -0.8013127 0.10441367 -0.26072076 -0.20827413 0.49396262 0.4469273 -0.42949846 0.798151 0.2193078 0.45484614 -0.48871255 -0.30643713 -0.004730221 -0.12190486 -0.67249614 0.33678597 0.12811176 0.25288 0.31191677 -0.44199806 -0.91168886 -0.12497521 -0.48634 -0.109583095 0.12872736 1.2953705 0.39638215 0.44194657 -0.07920608 0.45181087 0.566321 0.34460157 0.24256605 -0.4334383 0.30276564 -0.65689975 -0.3057755 0.29976794 -0.8332337 -0.10267793 0.44459513 -0.47959724 -0.6063403 0.28258172 -0.7869946 0.5465604 0.19547746 -0.076135874 0.2575686 0.6295427 0.14300701 -0.07621917 -0.052942958 0.1384139 -0.11035776 -0.2802302 0.17643157 -0.22214416 0.19132179 0.9692439
credit 0.19688645 -0.17538424 -0.4706263 -0.6704055 -0.11664513 0.6468498 0.7596944 0.68622476 -0.12756537 -0.3541044 0.18990953 -0.66429466 -1.1700962 0.81605446 -1.1058414 0.36257535 1.2329727 -0.2611192 0.3545886 -0.30615592 -0.11457321 0.18801637 0.621417 -0.0662489 -0.66408664 0.6183466 0.2998787 -0.043352474 0.33131465 0.53127104 -0.51795834 -0.12681578 0.26621646 -0.78309155 -0.6956398 0.54150033 0.7826067 0.11242397 0.52947396 0.7326391 -0.6988576 0.09604393 -0.22532521 -0.18188453 0.4225679 0.38678464 -0.37284788 0.69001514 0.1882925 0.39080203 -0.42166027 -0.2582693 -0.0065330025 -0.10236289 -0.57916665 0.2871715 0.11299594 0.21543765 0.2728171 -0.37619522 -0.7802407 -0.10599641 -0.42108646 -0.097405925 0.11258743 1.1182724 0.3429827 0.37513882 -0.06119874 0.38508514 0.48651952 0.2912362 0.21411237 -0.37640506 0.25565147 -0.5620957 -0.25444138 0.25497162 -0.7106342 -0.08746378 0.3729638 -0.418204 -0.52195024 0.24419606 -0.67656165 0.4745346 0.16711192 -0.063813604 0.22516844 0.5432285 0.123442434 -0.056442987 -0.053187992 0.1146027 -0.08632735 -0.24492568 0.14913025 -0.18877465 0.1711318 0.82646275
loans 0.17672853 -0.16096957 -0.41558272 -0.61281765 -0.10438893 0.5709514 0.6802648 0.6217969 -0.11755975 -0.31835526 0.15988392 -0.597824 -1.051189 0.73360366 -0.9911878 0.33120027 1.1085982 -0.22714882 0.32824388 -0.27293298 -0.09745009 0.17589934 0.5490438 -0.056974303 -0.58676696 0.5526075 0.26332825 -0.036540415 0.29761007 0.47030497 -0.46943215 -0.11350753 0.2467709 -0.6995154 -0.6315726 0.484079 0.7006536 0.10096659 0.48217914 0.6647718 -0.61447936 0.07596425 -0.20046856 -0.16517918 0.3851008 0.3475103 -0.3348722 0.6247116 0.16915631 0.34606108 -0.38038898 -0.2294849 -0.002859485 -0.093366675 -0.5242137 0.25833085 0.104384124 0.19428235 0.23980954 -0.3379987 -0.70876175 -0.099074505 -0.3702213 -0.07973085 0.10638788 1.0014216 0.31278932 0.34210646 -0.061384678 0.35559797 0.43754715 0.2633973 0.19761926 -0.34020782 0.23893823 -0.50393844 -0.22841449 0.22450502 -0.6455052 -0.077800244 0.34076616 -0.37503517 -0.4614906 0.21269237 -0.60125613 0.41897961 0.14872712 -0.05776517 0.2037172 0.485892 0.11227176 -0.05358391 -0.047737345 0.1025759 -0.08675543 -0.21822798 0.13293833 -0.16188495 0.14842084 0.7568572
need 0.16264781 -0.14841291 -0.39171427 -0.55756474 -0.089694865 0.53765285 0.6434079 0.5733461 -0.10103326 -0.29687458 0.15484847 -0.5544156 -0.9852674 0.6758119 -0.929059 0.31067273 1.0284919 -0.21879005 0.29344442 -0.2549107 -0.08869004 0.15692784 0.51608014 -0.050526325 -0.5510184 0.5079027 0.24576299 -0.036432985 0.27996814 0.43769646 -0.444981 -0.11216936 0.22452004 -0.65203243 -0.5840624 0.45094657 0.6555603 0.09329649 0.448026 0.6166047 -0.58302486 0.07795986 -0.18808869 -0.1498859 0.36305052 0.3247084 -0.30640957 0.58488506 0.1641628 0.32855654 -0.3471538 -0.22086148 -0.00494412 -0.08954827 -0.4792826 0.24787094 0.09842636 0.18991259 0.2245469 -0.31771627 -0.64883727 -0.092512116 -0.3515324 -0.08021357 0.09627469 0.9340172 0.29322535 0.31771737 -0.058597095 0.3245205 0.4055071 0.24418496 0.18157274 -0.31836814 0.21868485 -0.47161067 -0.2165875 0.2152864 -0.5943538 -0.0769265 0.32889566 -0.3506595 -0.4362418 0.2017005 -0.5658728 0.38915843 0.14245954 -0.05853323 0.183128 0.45028165 0.102116875 -0.051759508 -0.04071191 0.1004297 -0.07753222 -0.20989664 0.12392164 -0.15947214 0.13773109 0.6975905
terms 0.18295477 -0.1719113 -0.45343524 -0.6575546 -0.104944795 0.62205195 0.7296714 0.6627958 -0.12056238 -0.3397235 0.1791585 -0.65075415 -1.1349651 0.7894346 -1.0689036 0.3560908 1.1925296 -0.24503335 0.3501286 -0.2879873 -0.11266417 0.1878437 0.5965183 -0.06138137 -0.631712 0.5880771 0.29141694 -0.03446334 0.31983063 0.5089227 -0.50594515 -0.12836494 0.25679058 -0.75759476 -0.6767459 0.528508 0.75119925 0.109934546 0.5192542 0.70926464 -0.6694627 0.08583405 -0.22079468 -0.17467017 0.40622035 0.37950915 -0.35439375 0.66939795 0.18891095 0.3743091 -0.40195128 -0.2551547 -0.0037918026 -0.095450215 -0.55443317 0.2822513 0.11234647 0.21654737 0.25607723 -0.36850443 -0.75904703 -0.101930216 -0.40395865 -0.09161204 0.114553034 1.0801783 0.33717054 0.36125183 -0.062881544 0.37172166 0.47134545 0.280305 0.21107964 -0.3621907 0.25539184 -0.551133 -0.25665528 0.25325403 -0.69219226 -0.08975727 0.37159243 -0.39538044 -0.5018122 0.23043022 -0.6546364 0.45638388 0.16556865 -0.06468766 0.21425521 0.5233515 0.12389834 -0.06327879 -0.04549934 0.11250164 -0.087248564 -0.228466 0.14280099 -0.17855294 0.1671469 0.8088827
know 0.17875943 -0.15940852 -0.41274196 -0.6001656 -0.10413133 0.5765408 0.6846697 0.61071044 -0.10920784 -0.31994987 0.15778182 -0.6010563 -1.0512494 0.72959405 -0.98846334 0.33329204 1.0997638 -0.23081107 0.3138711 -0.2682499 -0.10512688 0.16900916 0.5496703 -0.055112682 -0.58691305 0.55048335 0.2643248 -0.03261185 0.30478945 0.469306 -0.46743423 -0.12081968 0.24282694 -0.7035727 -0.6311826 0.48593026 0.69583327 0.1013909 0.48052537 0.6511914 -0.61630416 0.08154018 -0.20815125 -0.16306882 0.37577525 0.34919912 -0.3350617 0.61849976 0.17585449 0.34751996 -0.3755547 -0.23461136 -0.010320514 -0.09396791 -0.51934147 0.26070252 0.104751356 0.20391233 0.23765376 -0.3423422 -0.69723195 -0.09834545 -0.36540738 -0.08248092 0.106512554 0.9963204 0.30545208 0.3379937 -0.06283731 0.34608105 0.43375042 0.25958213 0.18596046 -0.33709344 0.23472753 -0.50203776 -0.22716688 0.23352706 -0.64495295 -0.08243087 0.34663224 -0.368537 -0.47493047 0.2188647 -0.601575 0.42299315 0.1557582 -0.058313813 0.19812655 0.48776948 0.11355715 -0.059727907 -0.04132758 0.10347467 -0.08540482 -0.21994519 0.1288119 -0.17098938 0.14823358 0.7484623
rates 0.17863366 -0.16268918 -0.43555966 -0.6329489 -0.10960319 0.5913405 0.70472604 0.6369775 -0.12183566 -0.33617008 0.16587804 -0.6236139 -1.0888107 0.755008 -1.027003 0.34678757 1.148689 -0.23585641 0.32971907 -0.27591875 -0.1013486 0.17775719 0.57428086 -0.0557499 -0.6116486 0.56959033 0.27211663 -0.03581265 0.31136313 0.48334262 -0.4854927 -0.12699834 0.24489391 -0.72546256 -0.65339863 0.5075494 0.73579824 0.11218176 0.4994328 0.68366736 -0.64227444 0.08287924 -0.21703926 -0.17141114 0.39518338 0.37019414 -0.35097718 0.64881176 0.17648117 0.36255437 -0.39014214 -0.23882686 -0.0030980029 -0.091893554 -0.54470676 0.27018303 0.104656324 0.20982064 0.25059742 -0.34820232 -0.73245966 -0.100840166 -0.3845226 -0.08284431 0.100968935 1.034416 0.31763816 0.35070133 -0.062330503 0.36497894 0.4550008 0.27832168 0.1936652 -0.3446917 0.24574773 -0.52828056 -0.23633744 0.24337704 -0.6604864 -0.08756853 0.3589209 -0.38737333 -0.4839811 0.22036266 -0.6250852 0.43843558 0.15697062 -0.061738603 0.21447653 0.50320005 0.1127272 -0.058697987 -0.05256573 0.114729516 -0.081583254 -0.22954775 0.1377181 -0.17848796 0.15377204 0.78626716
revenue 0.1730042 -0.13946697 -0.38353288 -0.5635258 -0.09407894 0.530944 0.6323306 0.5795118 -0.107768886 -0.30034086 0.15536368 -0.5625907 -0.97644484 0.6867462 -0.9228026 0.30046967 1.0295022 -0.21443969 0.30253223 -0.24690159 -0.086886235 0.16593698 0.51374465 -0.05815004 -0.5463814 0.5060501 0.25311744 -0.033141945 0.27504474 0.43326017 -0.43706354 -0.113089524 0.22368187 -0.65081906 -0.5821983 0.44796667 0.65597403 0.09991356 0.44182274 0.6211908 -0.58297276 0.078624725 -0.19132203 -0.15692078 0.35936776 0.32028595 -0.30614123 0.58321154 0.1606176 0.31937423 -0.35731468 -0.21287808 -0.006638898 -0.08132323 -0.4843605 0.2473755 0.08945952 0.18500973 0.2215468 -0.3111899 -0.66014093 -0.089458086 -0.34779012 -0.070204884 0.09336743 0.9367088 0.2863087 0.31531546 -0.06290138 0.3300708 0.40714884 0.24230798 0.17795639 -0.31409174 0.21711315 -0.47568643 -0.21774119 0.21635772 -0.59573483 -0.072383545 0.3164437 -0.34150043 -0.4367949 0.20014708 -0.57040495 0.3978738 0.13737084 -0.050592247 0.19053566 0.45702136 0.100146465 -0.05110352 -0.043887604 0.09496541 -0.08493657 -0.20711046 0.13225198 -0.14916377 0.13689165 0.6996553
said 0.16406195 -0.14415506 -0.3875694 -0.55663824 -0.08911029 0.52349967 0.6254134 0.56957364 -0.10413011 -0.29714876 0.14622533 -0.54813445 -0.9695966 0.6690797 -0.90799594 0.3094103 1.0077409 -0.21163665 0.286526 -0.24415827 -0.089290105 0.16394767 0.50708246 -0.049427245 -0.53884 0.5023894 0.24355596 -0.029513588 0.2726769 0.42741767 -0.43672648 -0.10077024 0.22794612 -0.6463398 -0.5741114 0.4433251 0.6426222 0.092163175 0.43849847 0.5972022 -0.5712774 0.08028447 -0.1923799 -0.14936583 0.34762374 0.31871346 -0.30669087 0.56289786 0.15439728 0.3252649 -0.3450716 -0.21504736 -0.0054982724 -0.07904084 -0.4742864 0.24408111 0.08679122 0.17939876 0.2218749 -0.31255603 -0.640887 -0.092318 -0.33848214 -0.07998292 0.08844627 0.9200758 0.28015602 0.3117664 -0.057920538 0.31610286 0.39590868 0.24081382 0.1742708 -0.30616376 0.21544047 -0.46125555 -0.21317467 0.21608748 -0.5919111 -0.07785367 0.31546867 -0.340949 -0.43605664 0.20079346 -0.55115503 0.3919149 0.1360287 -0.053539447 0.18793891 0.44318038 0.10364033 -0.05754573 -0.042838458 0.09868177 -0.07969923 -0.2029917 0.11839185 -0.1523814 0.13697863 0.6890794
theres 0.17868981 -0.16700315 -0.43845764 -0.6314992 -0.10022363 0.6009952 0.7111137 0.64166284 -0.122691184 -0.33865708 0.1711645 -0.6232092 -1.1018745 0.7647775 -1.0443798 0.3482059 1.1617055 -0.24541299 0.3316146 -0.2823738 -0.10699496 0.18297206 0.582975 -0.058955073 -0.6205036 0.5774052 0.2769083 -0.03737357 0.3140241 0.49054888 -0.49027303 -0.11932143 0.2573294 -0.7347865 -0.65393275 0.51293665 0.740017 0.1070286 0.5027282 0.6937632 -0.64704007 0.08303866 -0.21484005 -0.17358127 0.39621028 0.36884677 -0.35130432 0.65420485 0.18357387 0.3738884 -0.39204916 -0.24246304 -0.009275795 -0.08974238 -0.5404886 0.27154073 0.10571733 0.20866051 0.24773361 -0.35592598 -0.7416012 -0.09778253 -0.3877812 -0.08054228 0.111210644 1.053607 0.32661474 0.35200766 -0.06020852 0.35886592 0.4612138 0.27769086 0.20022321 -0.34852698 0.23901679 -0.5299521 -0.23969692 0.2484214 -0.6724695 -0.09124313 0.36361212 -0.3927386 -0.49115342 0.22327125 -0.63417536 0.44179413 0.16193536 -0.06508585 0.21478614 0.5071051 0.11175909 -0.05831497 -0.049498882 0.10850987 -0.08654214 -0.22754152 0.13501094 -0.17941657 0.15961678 0.7880253
balance 0.19492169 -0.17584307 -0.44104514 -0.63242906 -0.10738081 0.59038264 0.6857665 0.6286662 -0.09711578 -0.32846978 0.17899613 -0.6220816 -1.0656807 0.75759184 -1.0102668 0.322519 1.1368611 -0.22097455 0.34145385 -0.28082365 -0.09669969 0.17528051 0.55276245 -0.060158413 -0.590007 0.5661204 0.26233432 -0.02937252 0.30410492 0.47143108 -0.477902 -0.11576225 0.24917796 -0.7181481 -0.64888614 0.5072953 0.7287445 0.10538336 0.4851386 0.66804737 -0.64918566 0.090305544 -0.22066535 -0.17978455 0.39061502 0.34980363 -0.34456435 0.62393403 0.18549307 0.3443421 -0.39844367 -0.24960963 0.011605694 -0.102832966 -0.5242976 0.25092715 0.0984064 0.20482573 0.24870951 -0.34759402 -0.71267974 -0.111175686 -0.386748 -0.091807514 0.11798608 1.008516 0.30459815 0.3561504 -0.06762051 0.34208593 0.4417958 0.25465202 0.21313457 -0.33917075 0.255098 -0.52293104 -0.23680153 0.21863523 -0.6630575 -0.08490952 0.34541216 -0.3760562 -0.46040496 0.21199304 -0.61465937 0.4377491 0.16057916 -0.04405948 0.20423415 0.50281006 0.10484194 -0.05350316 -0.051730286 0.1091465 -0.0831001 -0.21757872 0.1383471 -0.15771033 0.14983456 0.7671993
risk 0.18027791 -0.16483669 -0.4444981 -0.6327602 -0.10388924 0.6076891 0.72403175 0.64468884 -0.12326215 -0.33799955 0.17391016 -0.62228507 -1.1088835 0.76980793 -1.037505 0.35062855 1.1579232 -0.24387357 0.3391409 -0.2796159 -0.104727075 0.18582049 0.5864647 -0.06214176 -0.6245094 0.5697226 0.27991024 -0.040374517 0.3188334 0.48878783 -0.5001584 -0.12338096 0.25391695 -0.74144584 -0.6591867 0.5092395 0.74197304 0.10451719 0.5031706 0.6912367 -0.6569674 0.08424525 -0.21356383 -0.1662409 0.39816177 0.36684424 -0.35421968 0.6570404 0.17949359 0.37067688 -0.39663368 -0.25311673 -0.0016175266 -0.097437456 -0.5452794 0.26839966 0.10688117 0.21398112 0.2588853 -0.36270446 -0.7344499 -0.10672466 -0.38702545 -0.087679915 0.114614226 1.0611528 0.32797304 0.353554 -0.065077946 0.36341888 0.46120986 0.27996 0.20548375 -0.35903013 0.25177965 -0.52918535 -0.24711393 0.24805678 -0.6738831 -0.08131469 0.35775593 -0.3859447 -0.50079066 0.22821942 -0.6350259 0.43871197 0.15534903 -0.06251922 0.21302553 0.5125138 0.11349713 -0.05320977 -0.051013872 0.11781684 -0.090832464 -0.22643168 0.1399871 -0.17374457 0.15996186 0.78696704
technology 0.18252684 -0.15628843 -0.4244634 -0.615746 -0.101120405 0.58277476 0.699189 0.63515294 -0.11654382 -0.32165915 0.174204 -0.6089123 -1.0727662 0.74950314 -1.0219554 0.34251735 1.1313462 -0.23314397 0.32047883 -0.27981094 -0.108750075 0.17049173 0.5605031 -0.058138 -0.60867584 0.55404735 0.280689 -0.03116652 0.31441972 0.48995265 -0.47679043 -0.12005071 0.24267657 -0.7238101 -0.6403254 0.5062326 0.7232758 0.105621874 0.48695716 0.67575777 -0.63681054 0.0814694 -0.20898494 -0.16085513 0.3937176 0.358773 -0.34347212 0.6395238 0.17300121 0.3559423 -0.38822886 -0.24600962 -0.0074316883 -0.093111776 -0.5352986 0.26691115 0.10553515 0.20873162 0.25160554 -0.3556752 -0.71903586 -0.10594756 -0.3850576 -0.08736917 0.1036755 1.0270569 0.31214482 0.34974453 -0.06026973 0.3594352 0.4526206 0.2684015 0.1991907 -0.34650826 0.24428119 -0.5225923 -0.24163619 0.24046834 -0.6568196 -0.09003537 0.3466212 -0.3814458 -0.48282796 0.21978654 -0.61995095 0.43794262 0.14971803 -0.05825078 0.21074796 0.5005283 0.11747003 -0.05830833 -0.044336025 0.102192014 -0.07824801 -0.22336748 0.13964406 -0.17315993 0.1567267 0.76377404
given 0.18358146 -0.1573892 -0.42552233 -0.61748594 -0.097188905 0.5774667 0.6888745 0.6304873 -0.11888553 -0.32017824 0.1646776 -0.6042185 -1.0647299 0.73647064 -1.0116739 0.33110404 1.1204777 -0.2385716 0.32629994 -0.27129772 -0.09981798 0.17016697 0.56132835 -0.052992586 -0.6007276 0.5573925 0.27262735 -0.029114164 0.30421603 0.47678232 -0.473124 -0.12249224 0.24129309 -0.71583134 -0.6401594 0.49412653 0.71128714 0.10532546 0.48353186 0.6641204 -0.6282685 0.083296075 -0.20282912 -0.16874988 0.38527694 0.3600847 -0.34400687 0.6338508 0.17051409 0.35632133 -0.38696733 -0.23859528 -0.0034221122 -0.08936621 -0.5226138 0.27056587 0.10775062 0.20313871 0.24626681 -0.34368718 -0.71764964 -0.09761754 -0.3779704 -0.076965325 0.10116207 1.0168456 0.31117627 0.34781682 -0.05301017 0.35543415 0.44608095 0.26338354 0.19174396 -0.3360411 0.2395354 -0.51781815 -0.24068056 0.23372246 -0.6515989 -0.08221555 0.34465358 -0.37718758 -0.4799162 0.21520418 -0.6115113 0.43300793 0.15303592 -0.056268655 0.20309082 0.49660406 0.10994972 -0.057270676 -0.047586836 0.10725407 -0.07977047 -0.21686843 0.13657853 -0.17363866 0.15699847 0.7619589
customer 0.1934544 -0.17213406 -0.4560745 -0.66558194 -0.11136763 0.63232535 0.74827844 0.67761844 -0.12698612 -0.35150468 0.18553805 -0.64912456 -1.1548538 0.7916807 -1.091213 0.36206385 1.2124488 -0.25062475 0.34974912 -0.29556286 -0.10631664 0.18302375 0.606095 -0.05909709 -0.65126187 0.5958599 0.2905304 -0.035938486 0.33137187 0.5187831 -0.508884 -0.12488926 0.26567772 -0.7729737 -0.6841286 0.5317318 0.76232946 0.11308878 0.52596915 0.715296 -0.6744535 0.089671075 -0.22753605 -0.16985892 0.4241436 0.38633472 -0.36390936 0.67813563 0.1946107 0.38131827 -0.4088254 -0.2559754 -0.008458107 -0.10362028 -0.5721924 0.2804929 0.11498191 0.21290663 0.26047105 -0.38083217 -0.77389145 -0.104433306 -0.4097262 -0.09311963 0.107916966 1.0997251 0.33259153 0.3664576 -0.06978766 0.38410798 0.4742517 0.28957793 0.20700277 -0.36849478 0.254692 -0.55639166 -0.25339738 0.25688738 -0.70492375 -0.084894605 0.37603688 -0.40404883 -0.5217358 0.24040867 -0.667828 0.4589483 0.16162568 -0.06119367 0.22396135 0.53611106 0.12063217 -0.05728966 -0.043845613 0.10976275 -0.08903906 -0.242515 0.14026257 -0.18203154 0.16439301 0.8222734
talk 0.16397157 -0.14973107 -0.40195435 -0.582117 -0.09262882 0.55685675 0.6644823 0.59249496 -0.10521064 -0.31367174 0.16312583 -0.57782364 -1.0200008 0.6977124 -0.95919275 0.31249776 1.0674149 -0.22473986 0.30657572 -0.2618081 -0.10233114 0.1628438 0.5300374 -0.054717798 -0.5656415 0.5348319 0.26173738 -0.036563765 0.29333827 0.45455757 -0.44841382 -0.10637951 0.23423195 -0.67005974 -0.6103427 0.47409135 0.67893326 0.105648406 0.46480465 0.6344637 -0.59517556 0.08313113 -0.19663851 -0.14986147 0.36307114 0.3371797 -0.31249955 0.6008615 0.17156982 0.34506902 -0.35968274 -0.21900696 -0.005507706 -0.08264995 -0.4942267 0.25258753 0.097333334 0.19158253 0.23404174 -0.32420993 -0.6724739 -0.09271479 -0.363691 -0.07925444 0.09588827 0.96661615 0.30102858 0.3253989 -0.059346493 0.33353448 0.4188178 0.25019842 0.18972148 -0.32288784 0.22153345 -0.49528724 -0.22816764 0.2219391 -0.6229251 -0.079267174 0.33248195 -0.36185926 -0.45833117 0.2113692 -0.5837122 0.41249368 0.15294877 -0.05183659 0.19522323 0.4730944 0.10725313 -0.049792495 -0.046749413 0.0981798 -0.077229105 -0.20758438 0.12395882 -0.16248415 0.1439076 0.7244295
deposits 0.18662138 -0.15849997 -0.41999945 -0.6131124 -0.10567707 0.5777944 0.69462293 0.6289517 -0.12167172 -0.32655853 0.16758122 -0.6041269 -1.0581272 0.7290775 -1.0020585 0.33575943 1.1095576 -0.23015244 0.32034984 -0.266866 -0.10426407 0.17595977 0.55327004 -0.052577633 -0.5939708 0.5574048 0.26710373 -0.030516028 0.29947323 0.4786498 -0.46680602 -0.11017539 0.24408129 -0.7046993 -0.637061 0.4864959 0.7108046 0.103248835 0.47748074 0.6596334 -0.62833065 0.077178635 -0.20645662 -0.15739612 0.3893384 0.34973535 -0.3308859 0.62537247 0.17923662 0.34359476 -0.38799384 -0.23036721 0.00081665453 -0.09895453 -0.5257696 0.26800022 0.10046556 0.19108893 0.24547265 -0.34339532 -0.71724087 -0.09784029 -0.38014358 -0.07927517 0.097494975 1.0074223 0.30512518 0.3369585 -0.060139272 0.35095206 0.43384826 0.26235318 0.1897689 -0.3377708 0.23939233 -0.51171345 -0.24009378 0.23881735 -0.63885754 -0.08436972 0.34901407 -0.37062952 -0.47280994 0.21792294 -0.6077633 0.42497867 0.15915385 -0.058250982 0.2057666 0.4892874 0.11368299 -0.057614546 -0.034830637 0.10353425 -0.07765329 -0.21139026 0.12817569 -0.17468184 0.15574212 0.7602384
give 0.14323051 -0.13627282 -0.35278556 -0.505647 -0.08823496 0.49028814 0.57988983 0.51249856 -0.09408555 -0.2632159 0.13974756 -0.5096116 -0.8867163 0.61070096 -0.83461404 0.27904877 0.9337682 -0.20065346 0.2691678 -0.23260982 -0.08489003 0.14908367 0.46097502 -0.04957476 -0.49031773 0.46263868 0.2258503 -0.026751796 0.24914394 0.39721346 -0.393475 -0.09333726 0.19945209 -0.5913992 -0.53234345 0.4173587 0.59512705 0.09164229 0.4051042 0.5503009 -0.52605796 0.06118817 -0.16989219 -0.13205066 0.31801444 0.2952027 -0.27812427 0.5163535 0.15185894 0.29966682 -0.3183388 -0.19202405 -0.011839977 -0.07349584 -0.428876 0.22607255 0.08608646 0.16298036 0.19848251 -0.29144672 -0.5833131 -0.07661883 -0.31375292 -0.07474568 0.0888442 0.84657043 0.2666245 0.28896037 -0.053047746 0.29793286 0.37031728 0.21994242 0.16608365 -0.28356838 0.19594997 -0.43182403 -0.19901349 0.19896886 -0.5454803 -0.07111433 0.2934499 -0.30872682 -0.39531913 0.18159714 -0.5110345 0.35742295 0.13549232 -0.04674075 0.16763212 0.4036931 0.09218911 -0.045292486 -0.038704816 0.08667023 -0.073584415 -0.18846077 0.11307839 -0.1352635 0.12720244 0.63448316
way 0.16433892 -0.1440843 -0.39788675 -0.58154184 -0.09980032 0.55307853 0.6588224 0.59136313 -0.11404535 -0.2997765 0.16064805 -0.5711819 -1.0073582 0.70411956 -0.9511973 0.31951454 1.0627737 -0.22228031 0.30660376 -0.25853512 -0.10031144 0.16981728 0.52703613 -0.060558308 -0.5655295 0.52833146 0.2573519 -0.032474585 0.29332915 0.45037615 -0.45606095 -0.11249854 0.22636014 -0.6783117 -0.6040037 0.469375 0.67425805 0.10304691 0.4547367 0.6278539 -0.59195817 0.07370917 -0.19350985 -0.15419665 0.37141246 0.33251405 -0.31761524 0.5920588 0.16422239 0.33666793 -0.366573 -0.22899805 -0.00038372047 -0.08260222 -0.5005209 0.24771391 0.0941187 0.19594288 0.22938609 -0.32755157 -0.67622656 -0.09754871 -0.35334638 -0.08160174 0.10251325 0.9612585 0.297813 0.32419467 -0.052297935 0.33955136 0.42084727 0.25560212 0.18549545 -0.32308388 0.22013037 -0.49028534 -0.22812213 0.22371976 -0.6143284 -0.07604907 0.3306732 -0.35276362 -0.455985 0.205115 -0.5847121 0.4051452 0.14556243 -0.058155026 0.1965795 0.47248346 0.10201616 -0.05453566 -0.04746907 0.09587011 -0.08378783 -0.2078201 0.12989625 -0.15754575 0.1413581 0.71868217
today 0.16967677 -0.15211914 -0.3988505 -0.57022 -0.09646071 0.54776186 0.6490317 0.57671964 -0.103710115 -0.3020822 0.15137199 -0.5621627 -0.9904359 0.68546134 -0.9418534 0.31640744 1.0416039 -0.21173818 0.29949933 -0.2534454 -0.09665706 0.16572247 0.5184844 -0.05581981 -0.5566873 0.521721 0.25220615 -0.034703355 0.28913164 0.4443671 -0.44149724 -0.11032696 0.23162545 -0.6577116 -0.5886156 0.46413806 0.66452783 0.10123515 0.45336252 0.6215793 -0.58597493 0.07664482 -0.19272445 -0.1560889 0.35975787 0.33297083 -0.31113985 0.5840466 0.16110563 0.3371028 -0.35928136 -0.22312132 -0.0014320585 -0.07938351 -0.48651364 0.25224465 0.09933761 0.18519177 0.2270038 -0.32579604 -0.6585404 -0.08856257 -0.34706157 -0.07843492 0.09387399 0.9512417 0.29580286 0.32190728 -0.055109948 0.32664004 0.41446614 0.25492853 0.1851883 -0.31819254 0.21800421 -0.47848773 -0.21513489 0.21654895 -0.60713255 -0.078572065 0.31995347 -0.35447344 -0.44411474 0.20871422 -0.5681136 0.4005441 0.14532417 -0.058526553 0.1958891 0.46409544 0.104908966 -0.056815367 -0.04541831 0.09933691 -0.07902496 -0.20694533 0.12106149 -0.16248837 0.14646809 0.7125406
better 0.16763519 -0.14239128 -0.39133567 -0.5640187 -0.09901517 0.5374987 0.6401276 0.5808431 -0.10204171 -0.2948926 0.15777467 -0.5553238 -0.98655695 0.6825157 -0.92955226 0.30670413 1.0321649 -0.21708918 0.30214155 -0.2553432 -0.08983444 0.16428773 0.5145862 -0.05436182 -0.54857713 0.511389 0.24842389 -0.035839982 0.27652034 0.4380459 -0.44094703 -0.105387375 0.22077471 -0.6501576 -0.5889306 0.45981994 0.65733933 0.096009456 0.4489345 0.61004984 -0.57624006 0.077151746 -0.193544 -0.14759484 0.35924217 0.32518405 -0.30848125 0.5767645 0.15671329 0.32617363 -0.3515757 -0.21975942 -0.008463274 -0.08206653 -0.48112485 0.24378678 0.09542295 0.18593997 0.22854567 -0.32161388 -0.65938544 -0.088344276 -0.3461144 -0.07583229 0.092959315 0.940081 0.28973076 0.31348494 -0.05465528 0.3294782 0.4115448 0.24797589 0.18223794 -0.31802174 0.21938746 -0.47200677 -0.21754028 0.21290775 -0.60179913 -0.08114622 0.31883067 -0.34997883 -0.444987 0.19982302 -0.56913316 0.39412034 0.1430479 -0.055968966 0.19317318 0.45537466 0.09840391 -0.057410613 -0.047201507 0.10025068 -0.07515971 -0.20858864 0.12235922 -0.1554388 0.13914247 0.696754
points 0.13160954 -0.13768408 -0.30302632 -0.45442966 -0.08042558 0.40999442 0.48954195 0.4377853 -0.087513775 -0.24490325 0.105925396 -0.44861585 -0.76471317 0.5504719 -0.71198833 0.24182297 0.8074721 -0.16862012 0.23405193 -0.20032905 -0.08027674 0.14771235 0.40958306 -0.0400319 -0.43137947 0.40516526 0.18475536 -0.013247138 0.22789341 0.3081881 -0.35651517 -0.070373274 0.18531919 -0.51090574 -0.4499747 0.3422349 0.5248828 0.076290764 0.35625714 0.47254705 -0.45524496 0.06483922 -0.1448759 -0.11013967 0.26575875 0.26869094 -0.24904037 0.46845034 0.10134648 0.2478377 -0.26908937 -0.17404394 -0.019405974 -0.03804148 -0.39363346 0.19762717 0.06353753 0.1531255 0.16816871 -0.23179263 -0.5269386 -0.08296664 -0.25648162 -0.06659502 0.087755844 0.73069096 0.22263175 0.25305766 -0.050855987 0.276539 0.33022916 0.20154299 0.13112901 -0.22346285 0.16283458 -0.36260512 -0.15990216 0.16174297 -0.46634027 -0.04825266 0.2296398 -0.26074806 -0.33725357 0.15258871 -0.42768434 0.2968854 0.11671859 -0.059762836 0.14793575 0.37302327 0.08171785 -0.028217334 -0.03847851 0.09528331 -0.066733114 -0.15904696 0.099866 -0.11738956 0.0979581 0.5644806
environment 0.15043084 -0.12909387 -0.34739465 -0.513003 -0.08246453 0.48211443 0.5684654 0.51837146 -0.09950494 -0.26208284 0.12878303 -0.499583 -0.8784654 0.6119129 -0.8241561 0.2763744 0.92198575 -0.19081415 0.25860053 -0.2275121 -0.082721405 0.1391983 0.45274746 -0.049084883 -0.49027336 0.45766857 0.22844489 -0.022706743 0.24790953 0.38673598 -0.39593714 -0.10332361 0.19316451 -0.57503796 -0.5151052 0.40609026 0.58675843 0.08215331 0.40388724 0.5554185 -0.5127656 0.06824959 -0.17198858 -0.13729045 0.31886283 0.29324555 -0.28394622 0.5140457 0.15120465 0.30135182 -0.3144783 -0.18557133 -0.010196681 -0.082042396 -0.43648386 0.21565603 0.09262471 0.1727786 0.19314103 -0.28575006 -0.5886071 -0.07124128 -0.3032064 -0.05897926 0.080017395 0.83856773 0.26098377 0.28050944 -0.042992733 0.2838842 0.36783087 0.21837245 0.15976529 -0.27923718 0.1897847 -0.427471 -0.1907451 0.1987835 -0.5309291 -0.060979687 0.28109825 -0.3023111 -0.39034653 0.17404884 -0.50165564 0.34654292 0.12087521 -0.055579018 0.17386529 0.3984219 0.092266746 -0.0495359 -0.04432062 0.08785709 -0.07493779 -0.18393143 0.11312497 -0.13369766 0.13176303 0.631787
change 0.17369112 -0.1576462 -0.41796413 -0.60745275 -0.09940666 0.5840715 0.69506675 0.6254188 -0.11255766 -0.31905144 0.1708189 -0.6032785 -1.0650451 0.74205166 -1.0017886 0.33656472 1.1131635 -0.22990702 0.31705794 -0.27596125 -0.10176468 0.18056789 0.5580501 -0.06319852 -0.5944822 0.5558083 0.2705255 -0.03889683 0.3078908 0.46963692 -0.4801762 -0.113535196 0.24271914 -0.71148294 -0.6362243 0.49565476 0.7137796 0.10589331 0.48366868 0.6672626 -0.6284796 0.0773293 -0.20974782 -0.16635063 0.3860986 0.35565948 -0.34096768 0.62802273 0.17345998 0.34972483 -0.38590962 -0.23452157 -0.0028133255 -0.095428385 -0.52588075 0.26817158 0.10157663 0.20377631 0.24644153 -0.33940572 -0.7120346 -0.09959142 -0.37278524 -0.08399133 0.09987596 1.0174774 0.3134047 0.3463257 -0.056476153 0.35540274 0.43613157 0.2731737 0.1936415 -0.33672994 0.23512004 -0.5170915 -0.23994425 0.2303827 -0.6447532 -0.08581685 0.34632212 -0.37492308 -0.47289926 0.2210591 -0.61412394 0.428292 0.15743017 -0.056106508 0.20939966 0.49619174 0.111758 -0.05730711 -0.04435187 0.106360346 -0.082116105 -0.22071752 0.13108869 -0.16599858 0.14551924 0.7639234
mentioned 0.1483092 -0.13993752 -0.35380867 -0.5151843 -0.081686884 0.4933371 0.5833755 0.5295058 -0.09257377 -0.2719355 0.1372452 -0.5144108 -0.89609325 0.6221458 -0.84412193 0.28357413 0.9489945 -0.19916311 0.26768354 -0.2333297 -0.09110805 0.14600618 0.47792208 -0.053293504 -0.50735563 0.47030324 0.22495326 -0.032599457 0.26381272 0.4030345 -0.40535223 -0.101678245 0.21210977 -0.5968916 -0.5410704 0.4186525 0.6017536 0.08327119 0.4134903 0.5659659 -0.5350541 0.077346206 -0.17732398 -0.13542601 0.3287167 0.2957678 -0.27768987 0.5304506 0.14747418 0.30730262 -0.32639548 -0.19256479 -0.00608531 -0.07621741 -0.44173077 0.22136874 0.07831512 0.16877307 0.2078689 -0.29585227 -0.60150206 -0.07913731 -0.3153664 -0.07050123 0.08155552 0.860924 0.26097423 0.2860997 -0.050783895 0.3031978 0.3779336 0.22436005 0.1679315 -0.29315528 0.1992708 -0.43577072 -0.20364045 0.20482416 -0.55536 -0.071871705 0.28373778 -0.31977773 -0.4065163 0.18205613 -0.51634437 0.36674088 0.13022538 -0.057652462 0.16901506 0.4227423 0.09977133 -0.05259495 -0.041402783 0.09260184 -0.072020575 -0.18644935 0.11613106 -0.15049079 0.1328128 0.6352671
growing 0.16085951 -0.1387853 -0.37210312 -0.54226464 -0.087576546 0.51613903 0.6023952 0.5422042 -0.1096184 -0.28250316 0.15306531 -0.53043616 -0.9285757 0.6491401 -0.86866975 0.2903805 0.9759471 -0.20788547 0.28943074 -0.24450241 -0.081212305 0.1494372 0.4905129 -0.054517858 -0.52610594 0.48562607 0.23624933 -0.031699337 0.26607704 0.41079146 -0.4167117 -0.10239369 0.21260919 -0.6165146 -0.5512187 0.42343476 0.6245897 0.08809627 0.41576177 0.5847523 -0.5496139 0.06427779 -0.18090379 -0.13800272 0.34058148 0.31102023 -0.29434422 0.5537681 0.1532218 0.30465248 -0.33226088 -0.20369218 -0.004750891 -0.088258214 -0.46482825 0.23371306 0.09069822 0.1659219 0.21435705 -0.299074 -0.6301202 -0.084207155 -0.32710734 -0.07176187 0.08303031 0.879572 0.27679163 0.2976573 -0.048406996 0.3010942 0.3871234 0.23555231 0.16403438 -0.29151958 0.21191384 -0.45042795 -0.20745704 0.19702154 -0.5600062 -0.06301133 0.30005115 -0.32791847 -0.4219206 0.19647528 -0.5368489 0.3673359 0.13234158 -0.053876404 0.17605273 0.43462136 0.095842324 -0.050082393 -0.0279124 0.09836383 -0.075752415 -0.1867139 0.12233449 -0.14309347 0.13343866 0.670018
david 0.14226195 -0.13326809 -0.3492414 -0.49944732 -0.08443149 0.48496488 0.56149524 0.50811625 -0.09543914 -0.261192 0.14162172 -0.4960759 -0.87711006 0.6019168 -0.8297097 0.2837895 0.91562057 -0.19472073 0.2689164 -0.21991432 -0.08973216 0.15110385 0.4572143 -0.0454571 -0.49670547 0.46136814 0.22003323 -0.024697207 0.2501623 0.40108326 -0.38881645 -0.09008403 0.2076851 -0.5818605 -0.52165395 0.41046572 0.5771193 0.0867218 0.39724112 0.54876006 -0.51886564 0.07041327 -0.17853439 -0.13563631 0.31631905 0.291883 -0.270337 0.5067487 0.13967319 0.2994965 -0.3223921 -0.18737184 -0.0053995294 -0.07081067 -0.43126044 0.207969 0.080280095 0.16295427 0.19291146 -0.2841129 -0.5855369 -0.07814809 -0.30357236 -0.074535705 0.08747875 0.8362367 0.2615187 0.28684068 -0.042306993 0.2851736 0.3601531 0.22175568 0.15645295 -0.2860285 0.18936682 -0.4236135 -0.1968403 0.19943549 -0.5432062 -0.074908376 0.27223235 -0.30813098 -0.39605644 0.17860904 -0.5017834 0.35114852 0.13456547 -0.05485 0.16801804 0.40230778 0.09977044 -0.05213246 -0.03760418 0.08934358 -0.059287928 -0.1690105 0.114350766 -0.14822187 0.12411741 0.62457263
number 0.15974554 -0.14817008 -0.3909247 -0.56352615 -0.0985443 0.5387576 0.6408252 0.57296264 -0.11019469 -0.29926428 0.14938962 -0.5624043 -0.98258656 0.67666715 -0.92438126 0.3078064 1.0338173 -0.20998926 0.29364833 -0.25157374 -0.0981636 0.15947616 0.51161724 -0.05189381 -0.5509496 0.51460636 0.25361577 -0.033458006 0.28131533 0.44214535 -0.4356507 -0.10785209 0.2224336 -0.6595246 -0.5895062 0.4598825 0.65566504 0.09850524 0.4424831 0.61024207 -0.5779241 0.07829461 -0.1882428 -0.15453914 0.35609707 0.33167356 -0.30571303 0.58103615 0.16380994 0.32707784 -0.35774666 -0.2162405 -0.0037102066 -0.08646344 -0.48536614 0.24365525 0.091068424 0.18054125 0.22901796 -0.32085016 -0.66154784 -0.09491767 -0.34486294 -0.07887686 0.09342133 0.9377768 0.28846234 0.31210986 -0.054787073 0.31980127 0.41108182 0.24453239 0.17203175 -0.3092043 0.22146124 -0.47689798 -0.21735415 0.2212033 -0.6003928 -0.0753372 0.32071647 -0.3426287 -0.43694448 0.20444451 -0.5631261 0.40060773 0.14059062 -0.053571977 0.18578555 0.45523003 0.10033248 -0.05053581 -0.040093515 0.1001589 -0.07588216 -0.2049307 0.12348378 -0.1520669 0.13554075 0.69568527
