2711 30
think -0.26766112 -1.1307659 0.44389054 -0.37146786 0.2655242 2.1576233 0.29399005 0.44924608 0.73758316 0.8437095 1.2878065 1.057845 1.2601584 -0.46869832 0.77355903 0.50713074 0.38190266 0.61051023 -0.9271279 1.6640974 -0.6824883 1.6386014 -0.8343672 0.21156102 1.0744284 -0.42437392 -0.89581347 0.8542244 -1.5536141 0.41340986
us -0.28710762 -1.1696764 0.45758805 -0.39292872 0.2693024 2.1747468 0.31434378 0.45792773 0.74328583 0.86807144 1.3154935 1.1007701 1.3079524 -0.48022854 0.7804455 0.54025084 0.39562124 0.6162619 -0.9792882 1.6783538 -0.7174844 1.6787331 -0.85883063 0.22902581 1.09193 -0.41435555 -0.88430256 0.8762462 -1.5887456 0.44406706
good -0.24282019 -0.9258531 0.27956834 -0.32099068 0.1892872 1.7242234 0.24321286 0.25821972 0.6615834 0.74005204 1.0099785 0.89822453 1.1256411 -0.46006733 0.6513444 0.4559577 0.28571126 0.44392315 -0.7156788 1.3991657 -0.633587 1.3557686 -0.69698626 0.17968468 0.7927804 -0.27532357 -0.7016354 0.76195556 -1.2295691 0.31137997
going -0.25731915 -0.99928474 0.39924365 -0.31941724 0.23634033 1.9122678 0.2805501 0.3765576 0.65258384 0.7406209 1.1436366 0.94911665 1.1458256 -0.416375 0.6703037 0.46328375 0.33870164 0.57310754 -0.84214276 1.4828707 -0.6222553 1.4567829 -0.7301534 0.17609382 0.9569944 -0.36133552 -0.8137096 0.75008124 -1.3826983 0.38213864
weve -0.27317688 -1.2083689 0.44831854 -0.3745397 0.25399035 2.2516887 0.31269717 0.4374136 0.7883485 0.91507155 1.3294421 1.1077915 1.3347452 -0.4712079 0.78484637 0.5448171 0.39728495 0.64810246 -0.9581903 1.746382 -0.72323424 1.7061822 -0.86998725 0.23919694 1.0913656 -0.41114146 -0.95019734 0.8992065 -1.619299 0.41833207
growth -0.25577793 -0.9451389 0.37365866 -0.3248339 0.23516326 1.844549 0.2511228 0.3666183 0.6101182 0.70834446 1.1118426 0.87837607 1.0632352 -0.3667868 0.6233905 0.43717697 0.32955655 0.5302407 -0.77708375 1.4140863 -0.58594054 1.4105206 -0.6997324 0.16956207 0.9032016 -0.3653668 -0.7364255 0.6774161 -1.3502983 0.3554731
well -0.2817428 -1.0755943 0.41723946 -0.36512426 0.25502965 2.0534208 0.28216296 0.41657823 0.7156441 0.830352 1.2190341 1.0132525 1.2335128 -0.42475215 0.72669643 0.50031745 0.35634148 0.60727036 -0.8970521 1.6013812 -0.65204525 1.5601424 -0.773007 0.20342734 1.031421 -0.38252145 -0.87064284 0.8210943 -1.4991131 0.41115484
year -0.2432613 -0.9772377 0.35136396 -0.31768826 0.22408888 1.8724409 0.2694799 0.37353224 0.6302397 0.7154354 1.1110158 0.890994 1.0898577 -0.37636748 0.6591874 0.4165687 0.31909594 0.5591607 -0.7968827 1.4413338 -0.55556834 1.433223 -0.6726732 0.19601 0.9225737 -0.3651749 -0.7729242 0.72864366 -1.342154 0.34013638
thats -0.27115223 -1.0897014 0.40080738 -0.3684397 0.23639269 2.0594912 0.2836905 0.39740553 0.70068884 0.8412819 1.2372667 1.0165191 1.217586 -0.44756347 0.7132586 0.5044593 0.3566828 0.600928 -0.8896218 1.6060051 -0.6326655 1.565467 -0.77925444 0.22337551 0.99236685 -0.38298982 -0.85434526 0.7929776 -1.5007937 0.3861862
would -0.26576874 -1.1651973 0.42217317 -0.38975868 0.27679864 2.1819475 0.3304979 0.45545873 0.74696153 0.8598121 1.2762492 1.0540583 1.2601802 -0.44094306 0.7859707 0.5411877 0.38237748 0.61037636 -0.95763314 1.6827364 -0.68715507 1.6658124 -0.84651554 0.208247 1.0566199 -0.4182377 -0.8847064 0.8379549 -1.5785913 0.42041567
really -0.2543137 -1.1352563 0.42380127 -0.39074048 0.2525099 2.1299968 0.3191622 0.42753217 0.71961457 0.8595896 1.2707418 1.0523576 1.2801368 -0.46055526 0.7595252 0.50800854 0.39020786 0.62866896 -0.94174165 1.6514924 -0.67901474 1.6243308 -0.8179099 0.23303978 1.0552955 -0.38704786 -0.90108 0.84102666 -1.5569341 0.40351725
see -0.27454734 -1.0585102 0.38807946 -0.36222565 0.21898523 1.9679492 0.29557523 0.4165175 0.68215495 0.7810415 1.1770557 0.9895229 1.1507012 -0.41569766 0.7117925 0.45537412 0.3488608 0.55949986 -0.8799835 1.5413592 -0.6363861 1.500151 -0.77120775 0.19631325 0.9932222 -0.3867296 -0.80389535 0.78681016 -1.4565643 0.38850597
get -0.2601958 -1.0202752 0.4116965 -0.34393948 0.2482698 1.9479125 0.2884915 0.40428448 0.6694259 0.77854055 1.1695025 0.9760011 1.133963 -0.40918958 0.67404956 0.46335724 0.34936634 0.5737214 -0.84124345 1.5178077 -0.601153 1.4914027 -0.72331893 0.20722364 0.9431532 -0.3685665 -0.8233949 0.77012485 -1.4366981 0.38943446
business -0.26386738 -1.0757158 0.42210308 -0.36654875 0.23678157 2.0649529 0.28620762 0.42635772 0.69281524 0.8251316 1.2236738 1.0030737 1.2053764 -0.44351223 0.7436885 0.48181152 0.346504 0.58980304 -0.9072696 1.5908265 -0.63879806 1.5541587 -0.78996825 0.22227046 1.0148071 -0.39153814 -0.8411203 0.80760384 -1.5050292 0.38113788
yeah -0.18030109 -0.76791143 0.27833432 -0.2669153 0.17859979 1.4090766 0.23169087 0.27823147 0.49614882 0.58398163 0.82963675 0.6947324 0.8420492 -0.2962337 0.4935148 0.32625616 0.26329634 0.41463408 -0.62427497 1.1093013 -0.43011662 1.0520905 -0.5321253 0.15959847 0.6791106 -0.24288255 -0.56819427 0.5562633 -1.0115324 0.26253182
time -0.26765648 -1.0878822 0.4179786 -0.3466677 0.22965127 2.0176394 0.29671443 0.3946342 0.6929378 0.81343174 1.2164775 0.98709875 1.1921601 -0.44508544 0.71710694 0.4856295 0.3584434 0.5991586 -0.89481217 1.5727882 -0.6248052 1.5404748 -0.7812663 0.21401772 1.0017755 -0.38635615 -0.851049 0.80674213 -1.4722772 0.37136385
capital -0.23566127 -1.0225871 0.4128288 -0.32312962 0.2198412 1.9241738 0.29724383 0.36860597 0.6462699 0.77562064 1.1363934 0.9521075 1.1289126 -0.40940264 0.68153197 0.47936136 0.33798254 0.55848825 -0.82299805 1.5130917 -0.6129161 1.4629772 -0.7191415 0.19756486 0.9554057 -0.39120138 -0.8009125 0.7555629 -1.4077171 0.38152233
quarter -0.25477126 -0.98973215 0.34685275 -0.35706344 0.22483838 1.9146476 0.24832293 0.41099846 0.62855774 0.7388946 1.1454353 0.9416458 1.0891433 -0.39595604 0.66804534 0.42213026 0.35343802 0.569774 -0.8469767 1.4444053 -0.5823552 1.4767064 -0.7174186 0.18865183 0.9437905 -0.34781185 -0.8003421 0.7205784 -1.407679 0.36509532
continue -0.23263721 -0.9548441 0.35747397 -0.33023956 0.19596767 1.82777 0.24133651 0.35813865 0.6220352 0.71951467 1.0827575 0.90786886 1.0588288 -0.4055372 0.6474136 0.44678015 0.33072856 0.5199027 -0.8176321 1.4026145 -0.5973923 1.401664 -0.68060905 0.19328758 0.9168427 -0.35825136 -0.7542575 0.7110609 -1.3267615 0.35773134
little -0.22460416 -0.9754208 0.38553905 -0.35123023 0.26675507 1.7727449 0.24991117 0.37395895 0.621926 0.69415 1.0591981 0.9075202 1.1007857 -0.36089337 0.62938094 0.44301715 0.3529605 0.5122467 -0.80747944 1.4102854 -0.57991004 1.4070561 -0.70119035 0.19322674 0.9311951 -0.36278751 -0.7738128 0.67923176 -1.3612142 0.35997328
one -0.23132291 -1.0246739 0.38750952 -0.33611158 0.22976977 1.9634637 0.29543915 0.38006535 0.66218555 0.77144027 1.1762158 0.9824788 1.1721973 -0.42695075 0.6813955 0.4727933 0.35023394 0.56357276 -0.8623708 1.5210538 -0.62302315 1.4989482 -0.7537117 0.18668227 0.9655608 -0.38652575 -0.7961013 0.7702307 -1.4172155 0.35512608
grow -0.2588649 -0.97301024 0.35170177 -0.29590315 0.2155768 1.8441437 0.24470042 0.35598055 0.6190949 0.720446 1.114029 0.9218236 1.0872039 -0.39819995 0.6394353 0.4225112 0.33495364 0.5408755 -0.80554914 1.3887306 -0.6024038 1.4145707 -0.72293305 0.2060463 0.87676924 -0.35166773 -0.7549459 0.69374734 -1.3444161 0.35498476
loan -0.23387587 -0.93829477 0.3801519 -0.297057 0.2018895 1.8161912 0.2374405 0.3571544 0.5838249 0.69417 1.0733697 0.89957947 1.0684422 -0.3535154 0.62752193 0.42004144 0.29983127 0.5174775 -0.75088334 1.3784531 -0.55352354 1.354558 -0.7071051 0.1760479 0.8904165 -0.32483637 -0.74828154 0.71155226 -1.3116015 0.33939207
right -0.2332752 -0.9236066 0.3487286 -0.32190308 0.20336778 1.7430276 0.2579508 0.36024028 0.6149594 0.71705335 1.0460478 0.8493409 1.03075 -0.39680296 0.63020897 0.42293948 0.3134577 0.50850064 -0.74428165 1.3557603 -0.53583956 1.3346313 -0.6708747 0.16763803 0.84663486 -0.3184077 -0.7167447 0.6891624 -1.2676997 0.31131664
bit -0.2440334 -0.89891154 0.33762228 -0.34587833 0.21959825 1.71219 0.23081544 0.3449121 0.59159905 0.7154726 1.061207 0.85673326 1.0148835 -0.39276272 0.5935039 0.39288914 0.28743902 0.5414607 -0.7616171 1.3698425 -0.54908514 1.3790332 -0.67065024 0.15601896 0.8943488 -0.30502734 -0.69902146 0.66587937 -1.3178239 0.3324366
dont -0.24008588 -0.99084723 0.39581543 -0.3232628 0.22991239 1.8586768 0.27391142 0.39350936 0.6265362 0.7591568 1.1235098 0.93173426 1.0965075 -0.39051253 0.66961634 0.45579797 0.31790444 0.54604465 -0.83478755 1.4350739 -0.60292655 1.4405068 -0.72714525 0.17320085 0.9161991 -0.37781382 -0.7882376 0.7249987 -1.3651273 0.35882577
look -0.22058256 -0.9442921 0.35251066 -0.32613778 0.21358201 1.7709451 0.2531452 0.36890018 0.6345181 0.7123471 1.0713575 0.87222 1.0484737 -0.36752996 0.64954066 0.44952998 0.32685977 0.51703674 -0.7686466 1.3731018 -0.5664268 1.34355 -0.67652893 0.17061482 0.89185625 -0.34009194 -0.7268738 0.7132514 -1.2966609 0.35588482
youre -0.26344705 -1.0427562 0.40811712 -0.33663252 0.245504 1.9830464 0.2987161 0.38651273 0.66825306 0.81757736 1.1871058 0.9878976 1.1811094 -0.43567997 0.7091656 0.4741096 0.36995745 0.5772386 -0.88329786 1.5355768 -0.64224577 1.518077 -0.7711464 0.20091611 0.9967462 -0.3771771 -0.8382571 0.766729 -1.4552943 0.3867406
lot -0.25009608 -1.0522457 0.40228942 -0.3350727 0.21390042 1.9824132 0.30153266 0.38343683 0.66034704 0.7907584 1.1693662 0.9850295 1.1764761 -0.42494723 0.7054835 0.47307956 0.34708637 0.5869328 -0.882509 1.542164 -0.6379363 1.5249424 -0.7464103 0.18565704 0.953538 -0.38925776 -0.8172543 0.77792025 -1.4544497 0.39144063
deposit -0.25536343 -1.0490515 0.41779855 -0.3183982 0.21240893 1.9661162 0.29081276 0.38721773 0.6989668 0.8067247 1.1792185 0.9727409 1.1765492 -0.45052347 0.72755617 0.48560742 0.37139514 0.5865096 -0.8452967 1.5344441 -0.6042947 1.514734 -0.77114224 0.21218789 0.9572743 -0.3744921 -0.8269478 0.74807495 -1.4268864 0.3974036
like -0.2603752 -1.0017025 0.38425714 -0.34181574 0.22993568 1.9283745 0.29289654 0.37622193 0.66217154 0.77896184 1.1639255 0.9391624 1.145149 -0.415689 0.67352307 0.4625817 0.33090943 0.5573676 -0.85635173 1.4844308 -0.59532833 1.4685693 -0.7456233 0.20188245 0.9253513 -0.37277022 -0.8053082 0.77014136 -1.4003683 0.35967785
morning -0.040353168 -0.56029177 0.15131307 -0.20707692 0.070339106 0.920139 0.16776747 0.1030014 0.3539317 0.40208566 0.5451988 0.55267423 0.56804293 -0.28065497 0.4091003 0.20595995 0.1846692 0.26220688 -0.40507266 0.7045993 -0.34499866 0.68228346 -0.4278551 0.14775628 0.4912815 -0.1500739 -0.4347795 0.4303001 -0.698601 0.21765484
rate -0.2343198 -1.077232 0.36394358 -0.34816006 0.21961027 1.9955015 0.3106584 0.3724944 0.6581347 0.77066827 1.1514477 0.993797 1.139368 -0.3953279 0.7090651 0.49782777 0.3615898 0.57787603 -0.85394776 1.5494696 -0.63555825 1.5284625 -0.72439796 0.23490712 0.9677709 -0.3652904 -0.8054875 0.8112953 -1.4385173 0.38137457
consumer -0.22384241 -0.9255677 0.37851498 -0.31073028 0.18512192 1.8006074 0.23519221 0.35695112 0.6311557 0.6958883 1.0831203 0.877794 1.0507343 -0.3769375 0.6585902 0.4150505 0.30414322 0.5415685 -0.7680787 1.3915181 -0.57856596 1.3750492 -0.7102287 0.18140483 0.8968173 -0.31896177 -0.72030663 0.6782805 -1.3176255 0.3474778
want -0.21152599 -0.9028379 0.35372588 -0.30968556 0.19095436 1.7294844 0.23354599 0.33100885 0.60168505 0.6975506 1.0220815 0.8635688 1.0196828 -0.37721446 0.5968136 0.41262367 0.313128 0.49620718 -0.7665264 1.3416508 -0.559266 1.3309808 -0.6540022 0.16228849 0.86269236 -0.3134 -0.7168543 0.6588676 -1.2399977 0.33431247
markets -0.21201164 -0.94980675 0.36996365 -0.33329615 0.20573261 1.8160654 0.27720162 0.36166885 0.617498 0.7202848 1.0818887 0.9068653 1.0528255 -0.41098824 0.6447261 0.42877162 0.32771885 0.54439247 -0.7849809 1.402026 -0.58446217 1.3671336 -0.6916548 0.1760964 0.88814944 -0.3492489 -0.735388 0.69972754 -1.3097979 0.34085807
question -0.21865214 -0.8998476 0.32107103 -0.30589956 0.16836298 1.7035995 0.26956865 0.34268224 0.60473466 0.6809213 1.0193061 0.86865616 1.0248759 -0.37994197 0.61372614 0.39161634 0.3169124 0.47917342 -0.7199643 1.3348435 -0.5392439 1.2840128 -0.6401767 0.1662754 0.8137822 -0.32701707 -0.70142245 0.6579501 -1.2217233 0.32799557
things -0.21995825 -0.93251455 0.37800482 -0.30670553 0.19223994 1.8069067 0.2707428 0.37309864 0.6118232 0.7165825 1.0745896 0.881515 1.0734087 -0.37502792 0.6238484 0.44413772 0.3241678 0.5308896 -0.8027516 1.3799099 -0.5562771 1.3799446 -0.69479793 0.17084292 0.8772315 -0.35722122 -0.72243834 0.7106831 -1.3073437 0.33133018
kind -0.22716372 -0.90453774 0.35346463 -0.29675895 0.20142074 1.7521919 0.26497638 0.36553866 0.59039736 0.6815023 1.0550314 0.86229026 1.0453526 -0.37664467 0.62518966 0.4281663 0.2940944 0.5024535 -0.7640097 1.3346984 -0.5379953 1.3472627 -0.6416557 0.17668803 0.86354977 -0.34135652 -0.71867 0.6670667 -1.2821213 0.34884948
make -0.2396487 -0.971765 0.38647857 -0.3203383 0.20229991 1.8165255 0.25637153 0.34955394 0.64155877 0.7437924 1.1186652 0.8988924 1.113695 -0.4190803 0.65836996 0.44988203 0.33403847 0.5241488 -0.7987077 1.4053782 -0.6084239 1.3956245 -0.683887 0.15792602 0.89783424 -0.37720093 -0.778441 0.69745344 -1.3111641 0.3693499
still -0.23275259 -0.9505985 0.3698208 -0.3180174 0.21817088 1.8449326 0.27193916 0.36265537 0.64242357 0.70986897 1.0700629 0.9059488 1.0754902 -0.39462492 0.63858753 0.4257445 0.33799908 0.52233213 -0.81191576 1.4119178 -0.57471013 1.3839719 -0.6866769 0.18135622 0.87912184 -0.34286076 -0.7402589 0.7058742 -1.3295441 0.3465248
customers -0.25639236 -1.0604938 0.3923983 -0.36635196 0.21085128 2.017839 0.30790854 0.42139837 0.69544625 0.8138355 1.2098494 1.0024188 1.2012906 -0.4472742 0.71180356 0.4888436 0.34787184 0.5975434 -0.880503 1.5639458 -0.6322601 1.5463786 -0.7730745 0.1872657 0.99052787 -0.36203083 -0.8190731 0.78604835 -1.4433475 0.3834564
could -0.22465411 -0.9656144 0.35889202 -0.30559045 0.22714642 1.7848624 0.2470276 0.35836762 0.6219888 0.7047415 1.0857763 0.90512735 1.0683291 -0.3850392 0.64682585 0.4195611 0.31274846 0.52444965 -0.7903266 1.4122338 -0.5760435 1.3756301 -0.67319167 0.1788196 0.88776547 -0.3443886 -0.73635036 0.6931205 -1.3259231 0.34702042
basis -0.25452787 -1.027086 0.4023219 -0.349068 0.2887602 1.914854 0.28208432 0.3899791 0.7333295 0.78800297 1.2132716 0.974817 1.182841 -0.45708126 0.6624868 0.45793456 0.3479669 0.5049321 -0.8918969 1.5894334 -0.5591591 1.5190066 -0.70144683 0.21716514 0.9386315 -0.3451618 -0.8682496 0.7185807 -1.4738177 0.31961423
got -0.18453425 -0.88809824 0.33168268 -0.27762333 0.16258763 1.6849815 0.25989112 0.33035532 0.5558238 0.67145705 0.98069084 0.8216152 1.0075313 -0.3571294 0.6039793 0.37651423 0.29076916 0.48037568 -0.72865564 1.2824445 -0.51123834 1.255447 -0.6382225 0.1711735 0.7922356 -0.31513295 -0.6759459 0.6517793 -1.2011412 0.31628105
back -0.24748443 -0.9760674 0.39387554 -0.33323163 0.20338021 1.8832551 0.28260463 0.37977242 0.6483188 0.7641066 1.1242216 0.91138375 1.1165653 -0.3960032 0.68660945 0.44449997 0.3279106 0.5543587 -0.83049786 1.4637053 -0.5891692 1.4382522 -0.72464013 0.19877566 0.92980003 -0.35908115 -0.7545832 0.7378581 -1.3757957 0.3762256
much -0.20679851 -0.93702126 0.35149068 -0.2876309 0.19225346 1.7506278 0.26951256 0.3456785 0.60488427 0.68999845 1.0504509 0.86089915 1.0317717 -0.38646924 0.625451 0.40835124 0.31098032 0.48963007 -0.76680624 1.3461357 -0.54094774 1.3164268 -0.6824033 0.19232062 0.86325324 -0.34172872 -0.70260406 0.69385874 -1.2790931 0.34741464
go -0.22407587 -0.90941954 0.34165335 -0.29564258 0.21774732 1.722253 0.2539535 0.34992814 0.59247386 0.672694 1.0533571 0.858051 1.0390266 -0.37478185 0.6240168 0.41299108 0.3023812 0.50009 -0.76814324 1.3470355 -0.53501564 1.3295181 -0.6406403 0.17746055 0.86098504 -0.34636986 -0.7277443 0.6950784 -1.2666117 0.31907505
side -0.1953824 -0.77296776 0.31053108 -0.27430937 0.16028279 1.4969008 0.20941594 0.2989583 0.4983369 0.59328485 0.91160053 0.7426986 0.8904125 -0.3292871 0.51560163 0.35377085 0.2578348 0.41428456 -0.61649173 1.1401566 -0.47371736 1.1642897 -0.6010651 0.17067222 0.72453064 -0.279677 -0.59573025 0.5609385 -1.1071165 0.2762529
years -0.2117323 -0.90606445 0.34211084 -0.2714348 0.18866074 1.703044 0.24443059 0.33523333 0.60275906 0.67587334 1.0194942 0.8659165 0.99208575 -0.3783651 0.6277583 0.37714726 0.31315365 0.5182022 -0.7525955 1.3470702 -0.54090065 1.2947246 -0.6163414 0.14513695 0.83842146 -0.35069928 -0.69879556 0.6588472 -1.2734175 0.33400884
okay -0.17028508 -0.7408419 0.2817613 -0.22230054 0.12573926 1.3429297 0.22014235 0.26828468 0.4929595 0.5591605 0.81936425 0.6563204 0.82330775 -0.28886157 0.48698932 0.29203397 0.24014123 0.36546248 -0.5533284 1.0332808 -0.4184585 1.0184501 -0.5321828 0.15663706 0.6386121 -0.25934163 -0.56875294 0.5104475 -0.9778501 0.23399533
maybe -0.2359156 -0.92517763 0.3350008 -0.3172125 0.18884227 1.723225 0.23893338 0.34588063 0.58998525 0.7107635 1.0238063 0.87028515 1.0258844 -0.36150822 0.6045256 0.40326917 0.31145847 0.50219345 -0.74393415 1.3367499 -0.5329309 1.3255409 -0.6486767 0.17387432 0.84320825 -0.3097629 -0.69194716 0.65484643 -1.263679 0.3349221
point -0.22725278 -0.9051828 0.36367762 -0.28805313 0.2157619 1.7470131 0.23331039 0.3354966 0.5968402 0.67719823 1.0497434 0.8578249 1.0072243 -0.38218257 0.61188096 0.4355436 0.3100959 0.498337 -0.74854666 1.3559077 -0.52401686 1.3496377 -0.6573384 0.16348693 0.8603213 -0.3437711 -0.7314886 0.68610066 -1.273831 0.3259726
last -0.20927294 -0.91572005 0.32152107 -0.29260904 0.18134911 1.7264367 0.2636548 0.35313746 0.57397944 0.6918653 1.0489315 0.8587232 1.0194128 -0.3640266 0.6090184 0.4057455 0.31280896 0.48651937 -0.75288516 1.352497 -0.5424641 1.3059443 -0.64540833 0.15195985 0.8401544 -0.34482977 -0.7227489 0.69276786 -1.2446915 0.30840316
thank -0.0948544 -0.56587654 0.18534759 -0.16873462 0.082162164 0.9887358 0.18969648 0.16032702 0.34081972 0.43097627 0.5846776 0.4988389 0.6043776 -0.25184536 0.36691213 0.21368624 0.17798215 0.26916954 -0.42340836 0.78821975 -0.3414321 0.7218724 -0.3810119 0.10591877 0.44482374 -0.17913963 -0.40475842 0.3781278 -0.68696666 0.19154201
first -0.1969669 -0.8260186 0.30342406 -0.29426003 0.20501977 1.589341 0.24274157 0.3209383 0.5280334 0.65200377 0.978329 0.77453834 0.9198405 -0.3352125 0.5699206 0.39035112 0.26670733 0.46671233 -0.699653 1.2471435 -0.49888042 1.2190225 -0.61611336 0.13503219 0.76562124 -0.26909992 -0.63593835 0.6243319 -1.1760211 0.2817772
two -0.22365716 -0.9131358 0.32978204 -0.31381506 0.20562065 1.74472 0.27797243 0.35030675 0.6131066 0.69363916 1.0674971 0.8821035 1.0537933 -0.39686292 0.6187609 0.41178736 0.29523832 0.4944862 -0.7578963 1.3495905 -0.5775522 1.3378732 -0.6529982 0.17797495 0.86686593 -0.35467368 -0.74217314 0.7000529 -1.2945405 0.31393477
john -0.21952784 -0.8673412 0.31826547 -0.30283287 0.18875569 1.6570151 0.26090378 0.32692742 0.580925 0.67821246 0.9982149 0.829961 1.0089695 -0.39476293 0.5809513 0.3929627 0.30589285 0.47505578 -0.73279995 1.2854877 -0.55008453 1.27229 -0.6260584 0.19310787 0.78866816 -0.28398964 -0.6860116 0.66689175 -1.1820256 0.32725725
portfolio -0.24820511 -1.0161805 0.37912905 -0.3437367 0.21670702 1.889775 0.2621504 0.39637727 0.6626257 0.7731583 1.1340984 0.95677304 1.106421 -0.3863405 0.6574165 0.44924644 0.31716603 0.55663615 -0.84041536 1.4525225 -0.61982423 1.4398139 -0.7476033 0.20734063 0.9137044 -0.34714162 -0.7830448 0.72020715 -1.4042209 0.37180802
next -0.23344366 -0.93175817 0.31645086 -0.30322325 0.21085775 1.759196 0.23815884 0.35308647 0.60686845 0.6857148 1.0752554 0.8596309 1.0326345 -0.39153692 0.60525405 0.42978144 0.3074807 0.5144276 -0.7834156 1.3552762 -0.5602668 1.350356 -0.6397473 0.16251925 0.88179886 -0.35266423 -0.7185649 0.67702353 -1.2716774 0.3376225
also -0.29305393 -1.1989092 0.45573026 -0.40489122 0.25482768 2.2645156 0.31315863 0.4399971 0.777209 0.8898345 1.3569242 1.1292408 1.3345276 -0.4866146 0.7980607 0.53480804 0.38847828 0.64339983 -0.99527323 1.7671609 -0.71388257 1.7126483 -0.8741167 0.21609466 1.1027819 -0.43001255 -0.92404276 0.8701519 -1.6591289 0.4133809
credit -0.22690305 -1.0567434 0.38306335 -0.36567625 0.20124096 1.9842762 0.31056795 0.3967151 0.704718 0.79121816 1.1560189 0.9788406 1.172624 -0.41358507 0.72130036 0.46283546 0.35124922 0.5574271 -0.86725396 1.5363889 -0.6473089 1.4819876 -0.75599444 0.22128303 0.94047666 -0.38122734 -0.80802673 0.7775055 -1.4546986 0.3770142
loans -0.24605216 -0.9229323 0.36012492 -0.30399844 0.21760637 1.741829 0.2555087 0.37286463 0.6001464 0.6805226 1.0369635 0.8831466 1.0321269 -0.3665248 0.61412174 0.4273091 0.32732898 0.51703954 -0.7588853 1.3399467 -0.5498315 1.3329568 -0.6594654 0.18897542 0.87838614 -0.33279517 -0.741071 0.6972769 -1.2998942 0.3540932
need -0.2244436 -0.884339 0.34072453 -0.30058697 0.18893115 1.6498072 0.23234862 0.33773127 0.5789791 0.65629554 0.998063 0.8032432 0.98711514 -0.37191114 0.5696718 0.4056632 0.29678038 0.47130823 -0.7252618 1.2724069 -0.52342063 1.2534999 -0.62610537 0.16471688 0.8088578 -0.3295633 -0.69930625 0.6603994 -1.2058891 0.33402646
terms -0.24670714 -1.0128947 0.38857841 -0.33956683 0.22911139 1.9165294 0.2930698 0.38675454 0.66141766 0.7454602 1.1328884 0.9408166 1.152693 -0.4141459 0.6906667 0.47397083 0.3261442 0.562162 -0.83428013 1.5000063 -0.6025399 1.4807392 -0.747024 0.20599572 0.927333 -0.36046398 -0.78674394 0.75036603 -1.3913879 0.3749501
know -0.21104416 -0.90702164 0.3464106 -0.2961999 0.19422603 1.7118855 0.2675949 0.35313317 0.59078556 0.68783915 1.0315502 0.86304194 1.0208371 -0.37506512 0.5908799 0.41938657 0.3042699 0.51332384 -0.75756323 1.3469212 -0.53853554 1.2926487 -0.66556406 0.16208573 0.84864146 -0.31511328 -0.70086515 0.6882089 -1.2569877 0.31491643
rates -0.23969415 -0.92858595 0.33863238 -0.27896747 0.2109097 1.760962 0.26041242 0.34235647 0.59909075 0.68935263 1.0396152 0.8713334 1.0107517 -0.35808784 0.6261979 0.42161155 0.3183554 0.49791017 -0.7545532 1.355329 -0.5550697 1.3414062 -0.6518267 0.17495951 0.84604037 -0.3492821 -0.70458895 0.6996322 -1.2894346 0.34101978
revenue -0.21146616 -0.8443959 0.31102097 -0.28819245 0.20665948 1.6631128 0.21532601 0.31584987 0.5732409 0.6336787 0.96195316 0.8209444 0.9634819 -0.35607517 0.5905279 0.3688603 0.3046615 0.45222387 -0.6967885 1.2365689 -0.5351342 1.2687094 -0.6346068 0.18509097 0.7860028 -0.30372903 -0.6542896 0.65522414 -1.2082151 0.3346012
said -0.20181607 -0.82572234 0.33042035 -0.28674704 0.19772923 1.5518731 0.2213724 0.30506313 0.54674685 0.6228603 0.9435327 0.7544837 0.9008603 -0.34387514 0.5535963 0.37543178 0.27799082 0.43304375 -0.6968393 1.2281053 -0.48389223 1.1785926 -0.5778981 0.14526528 0.74992037 -0.28387174 -0.6444584 0.59240437 -1.1353128 0.28597903
theres -0.21442123 -0.9409273 0.36584345 -0.32509533 0.20783725 1.7849859 0.2493358 0.34315696 0.6053816 0.6998383 1.0907965 0.8739278 1.0601633 -0.3842347 0.6553587 0.4440393 0.32845113 0.529981 -0.7882291 1.3996351 -0.58797705 1.383712 -0.6901007 0.17622459 0.8944874 -0.35707936 -0.745132 0.69988203 -1.3080903 0.34051868
balance -0.27993917 -0.91924924 0.32147354 -0.27913478 0.25521657 1.8221972 0.21002589 0.3517564 0.6136631 0.7208893 1.1101686 0.9380656 1.076919 -0.3919399 0.6085028 0.39450943 0.31193313 0.4689704 -0.71592337 1.3871897 -0.5900982 1.3765503 -0.727082 0.2185074 0.8594956 -0.3516365 -0.7786949 0.66676664 -1.2538064 0.3238541
risk -0.22501446 -0.96203923 0.37502384 -0.33814946 0.22246316 1.8711511 0.26697466 0.37331462 0.6556536 0.7375743 1.1180016 0.90385264 1.0881037 -0.40920037 0.6535347 0.4573296 0.32508057 0.5400942 -0.8019594 1.4512118 -0.60397553 1.4062079 -0.7327745 0.20892356 0.8856633 -0.34639737 -0.7715675 0.722767 -1.3605937 0.34386533
technology -0.22794898 -0.955427 0.3543109 -0.30573466 0.19674066 1.7824755 0.26700675 0.37705183 0.6097654 0.7251436 1.0549251 0.88006634 1.0643815 -0.40507454 0.6348208 0.44689867 0.31981674 0.5343914 -0.781334 1.381311 -0.5782688 1.3780941 -0.69055426 0.18452692 0.8910013 -0.34598115 -0.7578689 0.6923755 -1.2933778 0.3562388
given -0.22059047 -0.9513406 0.36182263 -0.30854148 0.22357051 1.8221376 0.26401073 0.34605926 0.6126413 0.71057445 1.1006447 0.9004385 1.0613581 -0.38667703 0.6354167 0.42069876 0.3246681 0.50397444 -0.7830461 1.3947059 -0.55949944 1.3837271 -0.67565817 0.19710751 0.898722 -0.32504877 -0.7430035 0.70129794 -1.3287315 0.32940227
customer -0.2262117 -1.0160406 0.37280044 -0.34547895 0.23178083 1.93669 0.2809212 0.3973833 0.6723404 0.77564615 1.1257403 0.9506865 1.1252803 -0.41546065 0.7061394 0.46549183 0.32825354 0.56320804 -0.83491194 1.4800819 -0.6324414 1.4447168 -0.75904363 0.19336252 0.9323508 -0.3685988 -0.8061291 0.7373577 -1.4110489 0.37867868
talk -0.19840418 -0.86660665 0.32105094 -0.28676972 0.20623063 1.6312203 0.22654337 0.34426248 0.56503767 0.6550779 0.9812777 0.8185088 0.99130046 -0.36342996 0.5695483 0.38093135 0.30050564 0.4942863 -0.7217933 1.2944553 -0.533453 1.2608068 -0.6199889 0.15277578 0.8056233 -0.31990647 -0.69083315 0.627783 -1.2069696 0.31575063
deposits -0.22622134 -0.9325949 0.33866233 -0.29336223 0.18693739 1.7259732 0.24463676 0.33000833 0.60354537 0.6885604 1.0385809 0.85998726 1.0415645 -0.3686195 0.6254855 0.43913737 0.31826302 0.52602607 -0.74644625 1.3436426 -0.550977 1.352587 -0.6803295 0.16368546 0.88132876 -0.33861268 -0.72003055 0.6714238 -1.2805662 0.33719903
give -0.1945933 -0.79204834 0.29436895 -0.27145863 0.19202839 1.4791567 0.22957698 0.31622586 0.5162112 0.6079917 0.8712444 0.736439 0.85946083 -0.32609773 0.5245657 0.35880265 0.27094418 0.42172265 -0.65994847 1.1481925 -0.47528213 1.1264554 -0.5721247 0.1492981 0.74745834 -0.30241007 -0.59413767 0.57045376 -1.0785096 0.29604235
way -0.24643514 -0.9107473 0.3507772 -0.30492857 0.19930965 1.752571 0.2500635 0.3724698 0.5945121 0.71189314 1.0407132 0.8813947 1.0228741 -0.3825738 0.61966175 0.441095 0.30453283 0.5059475 -0.7692967 1.3469758 -0.5623818 1.330182 -0.6697682 0.18062395 0.8659568 -0.32893863 -0.7209323 0.69612306 -1.2707334 0.33278784
today -0.19265181 -0.87957036 0.3414166 -0.29876772 0.17950238 1.6572495 0.25715613 0.32915375 0.57490236 0.66555226 0.9986819 0.80624884 0.95695984 -0.36746868 0.57685333 0.3804405 0.29265827 0.47523862 -0.73580366 1.2791096 -0.5128277 1.2364296 -0.62736505 0.17894939 0.8017513 -0.29465693 -0.69548154 0.6368716 -1.1831743 0.30162823
better -0.21324398 -0.8917941 0.34332916 -0.30661085 0.20100778 1.6709429 0.25279 0.34189647 0.5856741 0.667296 0.9770471 0.82828635 0.9707786 -0.35036802 0.59990895 0.3958207 0.27325636 0.4998724 -0.70877373 1.2971587 -0.52016455 1.2590679 -0.6360796 0.1708707 0.8198987 -0.30724144 -0.70130306 0.6318127 -1.205002 0.3090276
points -0.19453895 -0.6443595 0.2802705 -0.18422143 0.23323055 1.2763474 0.15211688 0.22096884 0.50829405 0.5630723 0.8219211 0.64134985 0.7724151 -0.3004438 0.47583002 0.3562717 0.20417872 0.32889184 -0.57208323 1.070369 -0.371589 1.0782841 -0.4328696 0.16530299 0.6327318 -0.20285872 -0.5774061 0.49030733 -1.0355513 0.2410781
environment -0.18732658 -0.8103281 0.31921235 -0.2667615 0.1694822 1.5091263 0.23688072 0.29787448 0.5264437 0.5884204 0.86624694 0.74638176 0.8687864 -0.2887939 0.5505136 0.34317058 0.2806641 0.43672225 -0.64605486 1.1907688 -0.48586723 1.1452206 -0.5501293 0.14930178 0.74773186 -0.27593493 -0.60906 0.59368646 -1.1253605 0.27534
change -0.2460477 -0.9478008 0.35865653 -0.31194526 0.21293789 1.7925274 0.24233131 0.37057906 0.60755086 0.7113622 1.0635712 0.86792415 1.0722079 -0.3853932 0.62413865 0.4470536 0.3142645 0.5190542 -0.7940261 1.4074943 -0.5635851 1.3853067 -0.68723744 0.16882293 0.8758684 -0.35672528 -0.7370954 0.7172756 -1.2943609 0.32655224
mentioned -0.1965091 -0.76738954 0.29399526 -0.25658312 0.16476898 1.4828382 0.2173843 0.27982524 0.52309406 0.61118287 0.8902971 0.7261809 0.86548877 -0.33259892 0.5262618 0.3381688 0.2790667 0.41706422 -0.6408037 1.1583539 -0.48347256 1.1363872 -0.57927364 0.16300432 0.7192717 -0.27195445 -0.6117019 0.57439125 -1.0629637 0.27585256
growing -0.19136126 -0.8069682 0.3041025 -0.26179117 0.16101739 1.5839633 0.21093552 0.29717863 0.5546195 0.59699535 0.93837744 0.7674122 0.9403864 -0.34259805 0.57905865 0.37264237 0.27996624 0.4536348 -0.6619771 1.2124211 -0.49118713 1.2156972 -0.6175053 0.15392192 0.7649559 -0.31629142 -0.6611395 0.61635876 -1.12435 0.2958855
david -0.17943956 -0.7895668 0.28022212 -0.25290433 0.16057841 1.4563767 0.24267714 0.28515428 0.50716734 0.6097984 0.8714186 0.7283926 0.8722418 -0.34141093 0.51720816 0.32173708 0.25647128 0.39724416 -0.60962415 1.1366588 -0.45853585 1.0865557 -0.5608769 0.1541896 0.69554335 -0.257388 -0.58468395 0.585066 -1.0305922 0.26880777
number -0.21461494 -0.8656829 0.3133786 -0.2857614 0.1820642 1.6277307 0.23523392 0.34167358 0.5575383 0.66757405 0.9655351 0.8067665 0.98047405 -0.35799783 0.5791303 0.38008308 0.28796524 0.47665474 -0.7303317 1.2717304 -0.5108942 1.2445678 -0.6036552 0.16280085 0.8205845 -0.30026624 -0.66023296 0.62080276 -1.1926506 0.30966964
market -0.20648876 -0.92484504 0.36314374 -0.28413832 0.18492466 1.7305423 0.23897183 0.34714764 0.60495704 0.6914486 1.0258654 0.8388588 1.0136906 -0.38634905 0.60338193 0.41176242 0.31667927 0.48276174 -0.7610864 1.3505429 -0.54642266 1.2966158 -0.6627803 0.18062642 0.82985073 -0.34623745 -0.6964552 0.6633934 -1.2478206 0.32874677
thanks -0.11390215 -0.60905176 0.19989966 -0.20506598 0.10944716 1.1046188 0.17325686 0.18614945 0.40832525 0.47261155 0.67183846 0.5695184 0.66514546 -0.26299554 0.394908 0.26459056 0.20508093 0.31036487 -0.4643054 0.8840087 -0.36332712 0.83934486 -0.42213252 0.12666719 0.5178393 -0.19757801 -0.47435644 0.44760686 -0.7916939 0.2139959
day -0.2093675 -0.84383035 0.31934115 -0.30645025 0.18293306 1.6544867 0.24564815 0.32682532 0.54704297 0.635833 1.0061959 0.8312022 0.9653038 -0.3389648 0.5943802 0.40185994 0.29687706 0.477539 -0.73337144 1.2718958 -0.5136689 1.2671685 -0.6266879 0.19334093 0.7845513 -0.32063356 -0.68343025 0.63873017 -1.1763757 0.3183235
bank -0.22668664 -0.97344255 0.38650206 -0.31953952 0.20795502 1.889977 0.2847764 0.3811977 0.65323466 0.75295275 1.1210395 0.9278089 1.120812 -0.40226763 0.6581883 0.46229157 0.33660823 0.5485537 -0.81017673 1.437045 -0.5855854 1.4413375 -0.71535987 0.2070483 0.91573095 -0.33604375 -0.76138896 0.74745154 -1.348315 0.36104453
say -0.18353568 -0.77449954 0.3042346 -0.2585016 0.18779926 1.5049539 0.21348083 0.28341642 0.5142907 0.6093672 0.9042801 0.7505577 0.8651775 -0.30407128 0.5475366 0.36037472 0.25762835 0.42542866 -0.67236984 1.1479486 -0.46450594 1.1198831 -0.56602407 0.16966866 0.7235882 -0.27148932 -0.61458117 0.5919834 -1.0642159 0.26896137
pretty -0.16239256 -0.80589145 0.2815917 -0.25701812 0.18267229 1.5202304 0.22765557 0.30449304 0.50644445 0.6161283 0.8747751 0.7474348 0.8708332 -0.32293886 0.5357827 0.35360932 0.27133578 0.44523722 -0.6619461 1.1810634 -0.4977451 1.1236433 -0.6017476 0.16691843 0.73479974 -0.28382766 -0.63958573 0.60868436 -1.0871059 0.30059922
real -0.18444656 -0.8178838 0.33834463 -0.29768875 0.1571281 1.5924212 0.22247054 0.30652693 0.542388 0.67001814 0.96346766 0.7976308 0.9424253 -0.36688823 0.58708084 0.37700975 0.29816714 0.49447492 -0.73709995 1.24125 -0.52470183 1.2304652 -0.5985575 0.20511654 0.77434313 -0.3348815 -0.6828176 0.6116875 -1.1666532 0.34550804
million -0.16643582 -0.70998853 0.27528512 -0.25943267 0.17987387 1.399501 0.19311997 0.26500568 0.48486108 0.5500093 0.8320266 0.6912087 0.81158453 -0.28630486 0.47067586 0.31234553 0.23845409 0.43239477 -0.61413294 1.0665869 -0.4607004 1.0880994 -0.4980143 0.11442037 0.67046976 -0.25104904 -0.5784018 0.51838964 -1.0272431 0.28384066
part -0.19603913 -0.85214674 0.31110713 -0.27450883 0.17391297 1.6136746 0.24507612 0.3378527 0.5366485 0.6281439 0.9461919 0.7973901 0.9367193 -0.3325053 0.5667863 0.39716053 0.28065926 0.45440164 -0.70864344 1.2330983 -0.50041926 1.2408522 -0.6112967 0.18286508 0.7853679 -0.28290448 -0.64711916 0.6128101 -1.1837555 0.306782
expect -0.18377626 -0.77007633 0.29222408 -0.24515939 0.17799063 1.4497268 0.19386138 0.28534365 0.4985929 0.574856 0.86091375 0.70602024 0.85265964 -0.30940604 0.5253717 0.34147677 0.24839394 0.42460674 -0.6466583 1.113399 -0.45088038 1.1007867 -0.5637092 0.1385141 0.6965464 -0.27540073 -0.5904288 0.55302614 -1.0445653 0.29579106
help -0.21345039 -0.8208128 0.33187985 -0.25412598 0.18899597 1.5113822 0.21568738 0.30596256 0.51705146 0.6119817 0.91842437 0.7723853 0.9066888 -0.331921 0.5415714 0.37152648 0.26595837 0.44399825 -0.68443483 1.1817677 -0.49205938 1.1764145 -0.5843599 0.14130177 0.76532465 -0.2971674 -0.6119639 0.6114286 -1.1275551 0.3113485
guys -0.14843534 -0.69489425 0.22977573 -0.23927039 0.13576172 1.301686 0.21620311 0.22909676 0.45789716 0.5340738 0.79879576 0.6726568 0.80210626 -0.3146195 0.48357275 0.3288332 0.23004933 0.37309948 -0.56138045 1.004248 -0.42724198 1.0060393 -0.4939314 0.15406257 0.6353572 -0.23516902 -0.55537856 0.5198396 -0.937675 0.26234213
believe -0.21107966 -0.82505494 0.33268765 -0.2766937 0.17375615 1.5785364 0.22494249 0.32386926 0.5265888 0.6270907 0.9452234 0.78575987 0.94870377 -0.32595843 0.54852724 0.394293 0.2880135 0.44866258 -0.69735664 1.2429684 -0.4937417 1.2034988 -0.6072658 0.14555126 0.7730061 -0.3019262 -0.67255276 0.6047569 -1.1569047 0.2999949
opportunities -0.18206735 -0.8265561 0.3011115 -0.24917124 0.1927202 1.5301172 0.22909138 0.29911894 0.51131785 0.6294281 0.9122443 0.7751919 0.89953905 -0.34927675 0.5291463 0.37664533 0.27111676 0.4234373 -0.66234314 1.1765004 -0.49484432 1.1598511 -0.60012513 0.14420295 0.7529708 -0.3075357 -0.6158705 0.58234495 -1.1035614 0.29075646
take -0.19399405 -0.86300826 0.34107408 -0.27513462 0.20596915 1.6234686 0.24579448 0.30621696 0.5497872 0.64584756 0.95399153 0.81141746 0.95658696 -0.36415303 0.5769271 0.40082636 0.2738276 0.47081634 -0.7145823 1.2279289 -0.5288156 1.2082855 -0.63067657 0.17134182 0.7818702 -0.2927958 -0.64857066 0.6107524 -1.1805203 0.30764407
put -0.21205978 -0.8452323 0.3005067 -0.27998123 0.20142244 1.5727412 0.21955658 0.32585123 0.5391545 0.6185968 0.9337677 0.7621285 0.9469779 -0.33287564 0.5513683 0.39355335 0.26638803 0.4739109 -0.70431566 1.2102783 -0.4849053 1.1968882 -0.5873993 0.14064808 0.7716014 -0.29479966 -0.63647133 0.6272318 -1.1362021 0.31356066
im -0.21044177 -0.8867254 0.33419952 -0.30712858 0.20304652 1.6564325 0.23145571 0.3353981 0.5650299 0.6563564 0.9959493 0.8286781 0.9728472 -0.3664782 0.5877402 0.39766097 0.29711682 0.48806936 -0.732362 1.2988511 -0.5469645 1.2745079 -0.63003725 0.16816697 0.82241595 -0.3271942 -0.68220395 0.6458461 -1.1939826 0.32352185
sure -0.18035005 -0.7037299 0.29220685 -0.23681921 0.15750517 1.3809685 0.19482264 0.26387388 0.46132138 0.5365189 0.8235671 0.67987406 0.8207236 -0.30904126 0.4966644 0.32881156 0.25408116 0.41488555 -0.5938375 1.0420718 -0.44457936 1.0436094 -0.543347 0.13110776 0.68054605 -0.26372105 -0.54961497 0.5410449 -0.9902611 0.24372031
end -0.17709805 -0.7474178 0.2812643 -0.27039513 0.18486848 1.4394746 0.21421665 0.30583072 0.4802001 0.56987 0.8398957 0.70148057 0.8532249 -0.2985576 0.51034576 0.33394337 0.24776739 0.42817828 -0.6417306 1.092837 -0.43646863 1.0812097 -0.5576491 0.1518921 0.71515214 -0.26508048 -0.58141565 0.55087465 -1.0509793 0.2708197
margin -0.20873727 -0.7594315 0.30017656 -0.25976208 0.177443 1.4742218 0.22639206 0.28697255 0.4916639 0.60010535 0.89538753 0.74499375 0.84563106 -0.29748896 0.5370686 0.372702 0.27812427 0.3979805 -0.6559022 1.1518674 -0.4521192 1.1467772 -0.5420097 0.15004644 0.7383222 -0.27156034 -0.5912297 0.57431555 -1.0910735 0.29966497
looking -0.17821312 -0.765102 0.27160627 -0.2305338 0.1565938 1.4321742 0.20328628 0.27872378 0.4901363 0.56589764 0.86367136 0.7169797 0.84372777 -0.29186058 0.5047572 0.36074308 0.24039195 0.4303298 -0.63486356 1.1015424 -0.44862893 1.0679317 -0.5345881 0.13419881 0.6846376 -0.27203092 -0.5827445 0.57159513 -1.0281103 0.25522202
sheet -0.16057059 -0.6925284 0.25284627 -0.17874283 0.19515233 1.3778764 0.15938015 0.31752506 0.45888916 0.5182589 0.814474 0.6480599 0.770843 -0.2867253 0.50827205 0.33103892 0.24591137 0.38202497 -0.53166986 1.0342472 -0.45593017 1.0595483 -0.5076152 0.13110203 0.639636 -0.28777102 -0.55277103 0.5345559 -0.9701342 0.28939003
guess -0.20542726 -0.7990944 0.2972998 -0.24453628 0.18176802 1.4834588 0.22708203 0.29650623 0.520806 0.61626846 0.8998638 0.730062 0.90948683 -0.34382075 0.5486731 0.36300826 0.25902727 0.4288144 -0.64833623 1.1768411 -0.48139727 1.1492007 -0.5742908 0.14564456 0.72554076 -0.28284985 -0.6145582 0.584469 -1.0920702 0.27912396
great -0.14864038 -0.714341 0.2540991 -0.24518168 0.11962914 1.316556 0.22885777 0.24938615 0.47206363 0.56034607 0.7884662 0.6604972 0.7935275 -0.30399472 0.48213786 0.28822604 0.23194653 0.38087863 -0.5597 1.0353345 -0.44304273 1.0034283 -0.5260297 0.14948913 0.6511526 -0.2378914 -0.53278506 0.5026707 -0.97341454 0.24768019
couple -0.16213611 -0.701041 0.25737923 -0.21789014 0.1496888 1.3627262 0.21238402 0.26779795 0.4513466 0.545708 0.82646096 0.6567591 0.7996674 -0.30672818 0.46507972 0.3191209 0.25421834 0.37194577 -0.59597874 1.0633918 -0.44237787 1.0326546 -0.50217247 0.124024324 0.6734141 -0.27357897 -0.57854396 0.5386159 -0.9932293 0.22990227
investments -0.15247265 -0.65884495 0.27407458 -0.2370809 0.13033271 1.2943133 0.1995838 0.2663714 0.42915708 0.5050211 0.7718573 0.63534904 0.7554181 -0.28594106 0.45416585 0.3245659 0.20908895 0.39651465 -0.5701024 0.97002685 -0.41919795 0.9835953 -0.4802546 0.13448292 0.6342074 -0.2541404 -0.5399389 0.51266026 -0.91670513 0.2697324
ph -0.1971745 -0.86102414 0.3249024 -0.28819388 0.17289461 1.5965127 0.25043258 0.32091564 0.5594334 0.66275346 0.956961 0.79256713 0.97263384 -0.3381166 0.58449095 0.3941046 0.29116663 0.44717312 -0.71933645 1.2543046 -0.508765 1.2146837 -0.6313001 0.17547439 0.8035854 -0.30498558 -0.65970004 0.6405669 -1.1600537 0.31259996
book -0.17695616 -0.74788886 0.28202438 -0.23910832 0.17173183 1.4053384 0.1944676 0.2838179 0.4866277 0.5789296 0.8205971 0.7155471 0.8393167 -0.3189366 0.50897616 0.34158844 0.25656986 0.41916862 -0.60336304 1.0896162 -0.45618436 1.0880216 -0.5576477 0.15165722 0.6847993 -0.25684637 -0.5670779 0.55920243 -1.0372376 0.25562882
obviously -0.18408571 -0.7274197 0.2804047 -0.227918 0.16009605 1.353527 0.1975264 0.27285376 0.45047054 0.5371689 0.8021542 0.64912486 0.79646987 -0.28236726 0.46782115 0.3048967 0.2352411 0.40106574 -0.57683676 1.0304652 -0.43483347 1.0308609 -0.5251015 0.14776124 0.67268896 -0.25250113 -0.55174404 0.5446247 -0.99106735 0.26844656
commercial -0.17084557 -0.71190023 0.26875898 -0.25173092 0.14213438 1.3924981 0.2044306 0.29359376 0.45194793 0.5448826 0.8485942 0.69816566 0.83168644 -0.29327202 0.48638034 0.31487882 0.24136588 0.4078998 -0.60630804 1.0594656 -0.44478524 1.0418904 -0.5285389 0.13441086 0.66366434 -0.26396275 -0.5527569 0.52275074 -1.0133258 0.26412013
range -0.1693675 -0.7045879 0.25146854 -0.23704605 0.17398639 1.3172873 0.18370695 0.27991885 0.4452028 0.5242167 0.8064095 0.6692187 0.777401 -0.3021687 0.45920527 0.32395893 0.252491 0.37089384 -0.56951576 1.0176034 -0.40932935 1.0164113 -0.49907237 0.13505867 0.6442579 -0.24625334 -0.538233 0.5114706 -0.97775286 0.2335186
talked -0.16162585 -0.6991058 0.26617622 -0.22056253 0.16847682 1.3041643 0.17757414 0.26490852 0.43088272 0.5162809 0.77290535 0.6347928 0.76866835 -0.27535775 0.44694886 0.30593607 0.25083533 0.36246794 -0.5675656 1.0123637 -0.42211208 0.98682034 -0.48443675 0.12927878 0.6337317 -0.25254673 -0.55593824 0.49532542 -0.94924355 0.24768145
come -0.16155656 -0.7284031 0.2782386 -0.23777843 0.15286267 1.3695937 0.18203042 0.2782028 0.47445086 0.5335146 0.8084833 0.6643362 0.81577444 -0.27446383 0.47259924 0.33518782 0.25520763 0.3796461 -0.58847696 1.0605986 -0.42218497 1.0464722 -0.5122387 0.15439752 0.66814643 -0.25411248 -0.566758 0.51484954 -0.9982763 0.25436848
youve -0.18522032 -0.8213693 0.2991263 -0.2662174 0.1619926 1.5035685 0.21965511 0.28611973 0.51613027 0.6255596 0.905518 0.7608111 0.91425866 -0.34035668 0.54045904 0.35519642 0.260541 0.45116836 -0.63833404 1.1866717 -0.4901186 1.1462399 -0.5810416 0.14093995 0.7380082 -0.28114435 -0.62218565 0.580843 -1.0971215 0.27741346
opportunity -0.17780551 -0.76677704 0.29544806 -0.24505271 0.16425043 1.4476047 0.22039506 0.29271483 0.4862883 0.59065527 0.85501134 0.6991597 0.86304176 -0.31993166 0.51491404 0.35756868 0.24989463 0.40663728 -0.6433195 1.1109339 -0.46240118 1.096565 -0.5348035 0.15361603 0.7067412 -0.28200114 -0.5883587 0.5748997 -1.0335957 0.29043037
whats -0.17068337 -0.74843425 0.27885047 -0.26106414 0.17914946 1.413958 0.21117012 0.26983434 0.46617925 0.57277995 0.8463287 0.7063318 0.8491436 -0.29090413 0.50127435 0.34733945 0.26308426 0.38952017 -0.61193407 1.0970889 -0.45699504 1.0638353 -0.5538713 0.12500459 0.70116603 -0.27868712 -0.5753841 0.53450394 -1.0277529 0.25609776
three -0.17777334 -0.71721023 0.23816994 -0.23991385 0.15035193 1.3500594 0.19325763 0.2847215 0.4594261 0.5394758 0.77955866 0.64094687 0.7747433 -0.27408445 0.4667621 0.30452093 0.22826 0.3882996 -0.599777 1.0384576 -0.44032636 1.0197862 -0.5125302 0.118719004 0.6694662 -0.25879124 -0.56521285 0.5439888 -0.9755635 0.23204714
banks -0.17293638 -0.7831527 0.29020616 -0.26230302 0.1645102 1.50643 0.21776226 0.29183537 0.49981135 0.60646635 0.90641266 0.75709385 0.9069876 -0.34168813 0.5507555 0.3767764 0.2637868 0.44818443 -0.6641463 1.1597897 -0.47437552 1.1601529 -0.57585484 0.15718125 0.7311549 -0.27760395 -0.6091228 0.5939897 -1.0987625 0.27408034
add -0.15270983 -0.5536443 0.20420264 -0.19283366 0.12593403 1.0786324 0.14168975 0.20505051 0.38630593 0.4505116 0.6262955 0.53956527 0.6377289 -0.2315596 0.39645386 0.24028385 0.19047095 0.31619674 -0.4796802 0.82198274 -0.33486536 0.80662555 -0.40036047 0.109245576 0.50915 -0.20655417 -0.42618838 0.4278041 -0.7700599 0.19930166
impact -0.21106073 -0.79421574 0.29574257 -0.25948685 0.17967382 1.5601342 0.21279837 0.30312577 0.5427168 0.6274738 0.9359133 0.7563517 0.898628 -0.33296132 0.551687 0.35567823 0.2637883 0.44724864 -0.6774839 1.1797421 -0.48126265 1.1687322 -0.5807017 0.17568222 0.7495455 -0.28293374 -0.63563454 0.60107714 -1.1267414 0.27882686
forward -0.13796745 -0.6164974 0.21736172 -0.18274179 0.15128812 1.1474376 0.16649409 0.22215675 0.38588566 0.47026283 0.68045706 0.5655581 0.6711887 -0.24754548 0.41518316 0.26591036 0.21960093 0.32011393 -0.48846135 0.8786561 -0.37702197 0.8761198 -0.41291836 0.11241876 0.5700923 -0.21349669 -0.4750355 0.46466404 -0.84271336 0.22498307
billion -0.18975636 -0.70775706 0.2843526 -0.25047413 0.17076066 1.3515123 0.2067768 0.2675897 0.44530234 0.54067975 0.79943883 0.64924353 0.80439323 -0.29526034 0.4880766 0.3134366 0.22999308 0.41874123 -0.56786066 1.0323858 -0.41443235 1.0383496 -0.5248858 0.12709376 0.67534214 -0.24040632 -0.5341812 0.5334859 -0.9780036 0.23584174
economy -0.20269534 -0.76878136 0.28590214 -0.24473155 0.17711864 1.448166 0.20423007 0.29828632 0.49679863 0.59894806 0.87742674 0.7066927 0.8663471 -0.32620353 0.5302939 0.36001223 0.25310415 0.41924062 -0.6375941 1.1191896 -0.45319793 1.114825 -0.5567477 0.14177689 0.7041297 -0.2839895 -0.5952469 0.5710946 -1.0622813 0.27515048
feel -0.1169885 -0.5897488 0.21257249 -0.21119998 0.114431575 1.1342734 0.17507668 0.19916606 0.37741947 0.4632627 0.6484622 0.56778926 0.67499375 -0.24337493 0.41833237 0.275738 0.21656495 0.33896917 -0.46902615 0.87162083 -0.35844752 0.8534726 -0.45623568 0.1371142 0.5487558 -0.22216345 -0.48255688 0.45895576 -0.8340164 0.24012457
banking -0.19751151 -0.7377333 0.30674124 -0.2695444 0.16138177 1.4411547 0.21059582 0.28719273 0.4927615 0.5820443 0.86307037 0.6895087 0.8462986 -0.33049095 0.49472862 0.33106562 0.26455328 0.41924948 -0.61384773 1.1093831 -0.46226612 1.079773 -0.5335644 0.12719144 0.69606745 -0.26016885 -0.58456624 0.56900275 -1.0489042 0.28005078
mortgage -0.16567305 -0.6951626 0.25294158 -0.2197933 0.15622436 1.3192091 0.19019707 0.26344675 0.42869386 0.5096649 0.7757381 0.6604254 0.7865142 -0.2703697 0.45416135 0.31746605 0.21898636 0.3742115 -0.5647998 1.015796 -0.41916075 0.97449607 -0.5026888 0.12126443 0.63238347 -0.24313861 -0.5274363 0.50224286 -0.9583838 0.24416119
might -0.1904587 -0.80462396 0.29158252 -0.26761666 0.16277355 1.5034972 0.20837416 0.28706583 0.51827073 0.5971506 0.8924454 0.727666 0.9066163 -0.34036094 0.52185977 0.36335197 0.2630428 0.4238826 -0.66301286 1.1627413 -0.48852217 1.1327397 -0.590885 0.14650701 0.7246415 -0.2718304 -0.60744387 0.60498595 -1.0850317 0.28888145
second -0.14718536 -0.6459277 0.24851014 -0.21205147 0.14912282 1.2451776 0.19560312 0.2533537 0.4106393 0.5062604 0.7654415 0.59889734 0.7286998 -0.2542781 0.44265047 0.28635713 0.23162133 0.35354257 -0.5558725 0.95915294 -0.388946 0.9380023 -0.4864196 0.10470911 0.61007386 -0.23464091 -0.51546603 0.4912062 -0.9035673 0.2218233
return -0.14972666 -0.6604322 0.27085197 -0.23740105 0.16555658 1.2835892 0.19087821 0.24373813 0.44025946 0.5168498 0.7445255 0.6186885 0.76133394 -0.29387274 0.45501745 0.29357892 0.21645606 0.35170814 -0.5355918 0.9978802 -0.40844786 0.981535 -0.5029083 0.119278744 0.6293654 -0.26170525 -0.53326076 0.5104161 -0.92246246 0.25388914
important -0.16609366 -0.6201502 0.25174475 -0.1998194 0.14053395 1.1696165 0.17228176 0.24150544 0.3895275 0.45398417 0.6790835 0.5520736 0.68500054 -0.25076544 0.41816226 0.28131494 0.20944558 0.33058 -0.50761324 0.88699013 -0.3685282 0.8742113 -0.43904388 0.124376625 0.55813247 -0.22054671 -0.46648666 0.44325727 -0.8423555 0.20596354
use -0.1915768 -0.7382322 0.29153705 -0.23475182 0.16039464 1.3729799 0.18973629 0.29189414 0.4738405 0.5557599 0.8351499 0.6943349 0.823819 -0.30144143 0.48779553 0.34112352 0.23886633 0.39717883 -0.6083671 1.0561484 -0.44140306 1.0301889 -0.5210272 0.13373747 0.6893221 -0.26126158 -0.56770927 0.5182545 -0.9932754 0.26375827
coming -0.14959088 -0.68148774 0.26218417 -0.22295693 0.1612879 1.2770468 0.19817507 0.24520312 0.4511548 0.50620914 0.7508249 0.6490778 0.7590698 -0.260898 0.45868406 0.31193092 0.2232425 0.35558677 -0.57040673 1.0014833 -0.39865938 0.98905224 -0.48740253 0.114585504 0.6222534 -0.24566191 -0.5408026 0.49122828 -0.93409497 0.24960546
efficiency -0.17053859 -0.65944296 0.2718842 -0.22223912 0.16720949 1.3032203 0.19205569 0.24000567 0.42453006 0.5207982 0.7658593 0.61471385 0.7620097 -0.29017556 0.45661545 0.3052275 0.24585779 0.36314574 -0.5693648 0.98782104 -0.40464023 0.95810515 -0.5113813 0.12394454 0.6127031 -0.25627792 -0.5533399 0.51683813 -0.9217135 0.2673577
actually -0.19098376 -0.74490917 0.26578757 -0.259647 0.17260739 1.4006556 0.18970539 0.27065423 0.48580074 0.5567262 0.85310376 0.6970529 0.8354235 -0.30911428 0.51170105 0.329043 0.23152795 0.40922272 -0.6207718 1.1052458 -0.45665717 1.0846827 -0.5519239 0.1309277 0.67205465 -0.27207163 -0.5896224 0.54874533 -1.036544 0.26560155
even -0.18715496 -0.77919865 0.2840747 -0.2427519 0.1582905 1.432442 0.19577585 0.28261772 0.508931 0.59206796 0.87463087 0.7231753 0.8746422 -0.30956644 0.51615906 0.3503405 0.25313056 0.41384846 -0.62919325 1.1347777 -0.45603243 1.1246053 -0.55687773 0.13231209 0.6962544 -0.27928644 -0.583381 0.5736768 -1.0523045 0.2723686
interest -0.14085634 -0.5974728 0.2337021 -0.19029312 0.12844273 1.1945846 0.15349774 0.20773426 0.3827567 0.47303313 0.6914637 0.57491136 0.6692487 -0.21548031 0.40775323 0.2917757 0.22877328 0.3453648 -0.52820367 0.91049224 -0.3661099 0.8891053 -0.4272485 0.10853074 0.5847438 -0.20751067 -0.4946811 0.45380145 -0.8848745 0.24407889
regions -0.19482704 -0.7773471 0.29315934 -0.2706263 0.15174665 1.4587194 0.21164396 0.29157633 0.50071764 0.5941421 0.8749967 0.7014359 0.84589845 -0.29296944 0.52973676 0.32859007 0.23663795 0.40401515 -0.6248579 1.113523 -0.46680915 1.104054 -0.54302454 0.14391571 0.68878543 -0.27436018 -0.61464167 0.5750855 -1.04864 0.29547185
different -0.18819852 -0.7477544 0.2881757 -0.2382855 0.14446123 1.4031264 0.2159088 0.27003554 0.4793016 0.57278675 0.84339553 0.7138921 0.85028636 -0.32148996 0.5038234 0.3255704 0.23696038 0.40262243 -0.64145887 1.1007054 -0.4374539 1.0730696 -0.525773 0.12871183 0.70004725 -0.2596154 -0.60338145 0.5600311 -1.0208055 0.2543904
businesses -0.19876345 -0.7560942 0.30232576 -0.26411438 0.15515426 1.4753635 0.21448725 0.28452185 0.50667644 0.5899595 0.8754001 0.7183463 0.8669518 -0.327094 0.53267336 0.33963203 0.27035475 0.414385 -0.6572937 1.1320688 -0.46960357 1.1251264 -0.54575396 0.15429398 0.714104 -0.28744796 -0.59957623 0.58050233 -1.0779332 0.26882526
start -0.1717018 -0.642082 0.23864985 -0.19310918 0.15605663 1.1909245 0.16780236 0.23697464 0.40782395 0.49665856 0.72722584 0.5763966 0.71732956 -0.2479075 0.40921298 0.28969157 0.22406852 0.3595494 -0.5257564 0.9423823 -0.39197767 0.92661214 -0.44775745 0.13257253 0.56532735 -0.23043227 -0.5054085 0.46534222 -0.87788534 0.2383946
low -0.14956298 -0.6592268 0.26453173 -0.23053537 0.14916167 1.2739946 0.18864702 0.2347581 0.43654394 0.4942914 0.7529265 0.6086214 0.7480661 -0.26387405 0.45525387 0.28548732 0.23082799 0.3520417 -0.54545605 0.963664 -0.38792124 0.9503673 -0.47697693 0.1265107 0.6050512 -0.24606915 -0.5055102 0.50682503 -0.901329 0.23499338
seeing -0.14792493 -0.6273814 0.23405059 -0.21122931 0.12664539 1.2055368 0.17950146 0.24732673 0.41687968 0.4991425 0.7406325 0.6014265 0.7367986 -0.2703369 0.43086472 0.30753973 0.1986807 0.35216928 -0.51561534 0.9426462 -0.39523256 0.93176484 -0.47048742 0.11955847 0.6092854 -0.23329845 -0.5005284 0.46638072 -0.882618 0.21576664
theyre -0.1777802 -0.75494283 0.29547894 -0.2510774 0.17552486 1.4297663 0.20739354 0.28989738 0.4823288 0.56109077 0.8537167 0.73211837 0.8694216 -0.30962023 0.4995543 0.33964795 0.23803955 0.42962897 -0.6308252 1.1257743 -0.46027336 1.0861518 -0.568467 0.15692446 0.6922701 -0.25970522 -0.60533535 0.561255 -1.0368526 0.26254168
level -0.15778834 -0.68771213 0.27287292 -0.2370171 0.14711563 1.2891244 0.193596 0.2541129 0.43492863 0.50317013 0.7976895 0.64457136 0.7681426 -0.29566622 0.46030173 0.3068003 0.24396193 0.38523996 -0.573859 0.99671984 -0.42687452 0.9896375 -0.48932797 0.13526328 0.6324582 -0.26439092 -0.5451015 0.5188148 -0.9441274 0.26590335
higher -0.19116458 -0.74423397 0.28228554 -0.2475864 0.16291213 1.4102719 0.2025404 0.29182258 0.47079423 0.5444354 0.84147066 0.70420426 0.8447705 -0.3145068 0.49866295 0.3500278 0.26091796 0.42087516 -0.6296032 1.098591 -0.44525102 1.0909479 -0.5252337 0.13522561 0.6785921 -0.27638254 -0.5970906 0.54723704 -1.0382352 0.278672
leverage -0.19050737 -0.7657432 0.27796248 -0.26437736 0.17245232 1.4502894 0.19127133 0.3017773 0.49765617 0.5861573 0.85915613 0.70735246 0.85154396 -0.28290567 0.51932293 0.3521502 0.24134752 0.42972532 -0.633804 1.1178281 -0.4427143 1.0946307 -0.54757893 0.1457772 0.7008371 -0.2822156 -0.5989188 0.5738188 -1.0265257 0.28443712
lending -0.19803488 -0.77589333 0.3043878 -0.24398442 0.16393892 1.4382902 0.22620134 0.27797142 0.49312356 0.5702044 0.88618326 0.7422265 0.86844075 -0.33200115 0.5316641 0.36067304 0.25834447 0.43286052 -0.6450699 1.1230459 -0.44832987 1.1083047 -0.56942654 0.15404123 0.72408235 -0.27358308 -0.59235436 0.5508611 -1.0461377 0.29123485
done -0.13767935 -0.5520425 0.20891917 -0.17517747 0.11731476 1.0527228 0.13942564 0.19952467 0.36573648 0.4091663 0.6402191 0.514869 0.6477589 -0.22320876 0.39908352 0.23280142 0.18658799 0.31120583 -0.45019832 0.8401061 -0.33431846 0.810622 -0.42350072 0.11874084 0.50909823 -0.18477522 -0.4501119 0.43790504 -0.77684015 0.1857329
peers -0.15939575 -0.6937097 0.2549439 -0.2071651 0.15414727 1.2672629 0.19497254 0.26119918 0.45183912 0.49535802 0.7555363 0.6299505 0.74947536 -0.28935522 0.45440736 0.29627723 0.2296121 0.37369823 -0.5479707 0.99251366 -0.41316923 0.9632476 -0.5034385 0.14572974 0.63661414 -0.24045706 -0.5413175 0.48184967 -0.9463518 0.23997802
process -0.17410387 -0.7327906 0.27051193 -0.25966603 0.16797082 1.3781947 0.20998566 0.2672611 0.48721907 0.5404751 0.8225436 0.6917928 0.8134797 -0.29313958 0.48695433 0.3304212 0.24509262 0.37929857 -0.6168086 1.0794141 -0.44581586 1.0265218 -0.54439986 0.15150012 0.67465144 -0.26321113 -0.55904824 0.52770656 -0.9971012 0.25382045
within -0.15769857 -0.7071447 0.26388073 -0.24833046 0.16443092 1.3260945 0.19177951 0.28331384 0.4647433 0.54468834 0.80986834 0.66474986 0.7928823 -0.27874738 0.46005023 0.32271147 0.24184375 0.3722804 -0.5807884 1.0267484 -0.4279044 1.0150542 -0.5070937 0.1300271 0.6678403 -0.26137292 -0.5338159 0.5184032 -0.988899 0.2563202
simplify -0.13620593 -0.5977665 0.2134635 -0.179621 0.13402426 1.1236203 0.15879022 0.24791789 0.39782187 0.44258398 0.66582644 0.5725225 0.67802954 -0.25770742 0.42430878 0.2852235 0.19116126 0.32035807 -0.4893778 0.86423755 -0.37085703 0.8736536 -0.4532939 0.1303426 0.56413794 -0.20243564 -0.4848106 0.43012613 -0.8343247 0.2355779
ratio -0.1313279 -0.5538583 0.20644303 -0.17692888 0.13949068 1.0251422 0.14675061 0.20456402 0.34497935 0.39894122 0.58397907 0.5155039 0.61094236 -0.2104843 0.3553837 0.24868396 0.16610757 0.2976308 -0.43033147 0.7707889 -0.30474195 0.7947043 -0.3679825 0.12527719 0.5020009 -0.20505466 -0.41650206 0.40172783 -0.74426675 0.20248088
ill -0.1390965 -0.5321069 0.17982423 -0.17899579 0.13379073 0.9760649 0.15847659 0.1837563 0.3594354 0.4040569 0.5784368 0.4943394 0.59188557 -0.23450541 0.34634358 0.218292 0.18107767 0.26464197 -0.43494967 0.777615 -0.30987215 0.76036143 -0.38849962 0.08316634 0.47299194 -0.16020525 -0.41997042 0.3796929 -0.70660186 0.17119832
something -0.1706932 -0.6819429 0.27228916 -0.21386325 0.1610939 1.2843139 0.18909836 0.2681579 0.428349 0.4961162 0.75474983 0.6467646 0.76474947 -0.25871232 0.43900487 0.2990535 0.23300889 0.3714328 -0.578966 1.002576 -0.40774655 0.96295315 -0.49146476 0.114133306 0.6413608 -0.22926925 -0.5178459 0.4976804 -0.91523767 0.25635436
around -0.17585512 -0.6837249 0.25633296 -0.2389377 0.15693438 1.2940266 0.19046706 0.24786563 0.4397729 0.53589594 0.78749037 0.645324 0.76919 -0.2729774 0.45421207 0.30693763 0.23157443 0.3630091 -0.5774483 0.9984811 -0.4092098 0.9748067 -0.5001923 0.13343675 0.63592076 -0.24324097 -0.52377427 0.5091938 -0.9452536 0.24829055
cost -0.14206919 -0.64482695 0.23240516 -0.2182331 0.13257305 1.1854472 0.17747994 0.2430649 0.40652883 0.46453497 0.70479923 0.57850844 0.6999205 -0.27679855 0.41261536 0.29397416 0.22551796 0.35121086 -0.5353219 0.9410442 -0.38297385 0.9180055 -0.44783962 0.10622014 0.60179305 -0.21126656 -0.49103838 0.47460034 -0.89434236 0.24425925
increase -0.17209089 -0.7156197 0.27087554 -0.25109965 0.16011313 1.3756233 0.20369664 0.2824466 0.45672852 0.5296197 0.828492 0.6688524 0.80899775 -0.28804225 0.5010824 0.34044784 0.24819621 0.38986224 -0.6087042 1.0780727 -0.44599304 1.0570965 -0.5065322 0.13554622 0.66024464 -0.2668408 -0.54946256 0.53962135 -1.0051044 0.2727417
trying -0.1809217 -0.6977832 0.26244366 -0.22426845 0.15711685 1.3130231 0.19791803 0.2541693 0.4353681 0.5302437 0.7844803 0.6292864 0.7749743 -0.29929635 0.44656867 0.32433853 0.24798307 0.3824073 -0.5566843 1.0263661 -0.41277993 1.0004855 -0.4969946 0.14104185 0.649141 -0.24164209 -0.53600585 0.49816594 -0.9473241 0.23224352
people -0.15691394 -0.691395 0.26356265 -0.22821255 0.1571892 1.2937145 0.17703569 0.24751133 0.45232087 0.5283496 0.79008645 0.6284338 0.7732721 -0.2960616 0.48041844 0.31796905 0.22666812 0.37859383 -0.5563445 0.9933687 -0.43002877 0.9876266 -0.48382717 0.12644626 0.6260177 -0.24104948 -0.5413875 0.49245733 -0.93804824 0.2389461
based -0.19342631 -0.71894664 0.27660215 -0.2501426 0.1576638 1.3808813 0.20106268 0.2945742 0.46287304 0.53728974 0.8136029 0.67477566 0.8076507 -0.30858943 0.4926848 0.34501994 0.2505738 0.3938918 -0.6147676 1.0713956 -0.44003624 1.0582483 -0.5167621 0.1252517 0.6619447 -0.27597752 -0.57504046 0.54328036 -1.0163126 0.24537167
quality -0.11842276 -0.55594814 0.22683859 -0.20877331 0.118638314 1.0925121 0.14589532 0.22921671 0.37765333 0.41989538 0.6307133 0.5438061 0.6456549 -0.24904671 0.38739398 0.2444183 0.20014426 0.2972296 -0.46239597 0.8509379 -0.35268867 0.8230684 -0.4343372 0.123055354 0.51585174 -0.19018424 -0.4477887 0.40717635 -0.78407025 0.21146668
versus -0.1626397 -0.711925 0.24705265 -0.22500618 0.15933919 1.319245 0.1741298 0.26372612 0.46528733 0.5236586 0.7999329 0.6542141 0.7887129 -0.29672554 0.45691806 0.30951056 0.23138344 0.4003309 -0.5672851 1.0181807 -0.42809707 1.0229745 -0.5004931 0.12800133 0.6639301 -0.23814811 -0.56109107 0.52972806 -0.96114683 0.24768361
expense -0.1640818 -0.68187 0.2719775 -0.23635834 0.16357791 1.3168012 0.18851487 0.26120767 0.46430084 0.5217674 0.77820253 0.6651505 0.7914769 -0.2940126 0.47886977 0.3045119 0.23577285 0.37400842 -0.5471873 1.0273404 -0.4382285 1.0113468 -0.49321333 0.14540209 0.6232776 -0.25323075 -0.5286259 0.52046007 -0.93693185 0.24220623
thing -0.14819817 -0.65653795 0.24792139 -0.2235901 0.15794636 1.2579541 0.19846134 0.2680987 0.41867128 0.50181735 0.75748205 0.6225236 0.7534338 -0.25729996 0.43926284 0.2886202 0.24056987 0.37636223 -0.5625523 0.97347945 -0.40686184 0.96573627 -0.47833744 0.12283781 0.6214169 -0.2534038 -0.51916 0.49431923 -0.9408452 0.24840465
estate -0.11935123 -0.5935825 0.23905529 -0.20710291 0.12850739 1.1136043 0.16328391 0.20499265 0.34827134 0.44531858 0.7037287 0.547577 0.6675067 -0.2297021 0.42275408 0.2676297 0.21497847 0.32217264 -0.47923204 0.87868124 -0.33923972 0.8778788 -0.45071855 0.14449315 0.5491825 -0.238488 -0.45846042 0.42054206 -0.7936328 0.22732446
focus -0.15939206 -0.63400185 0.24711403 -0.20672867 0.14583685 1.2024086 0.18271403 0.23395549 0.40581113 0.4705793 0.73402184 0.6082851 0.69874203 -0.24446385 0.44242743 0.27706674 0.2238762 0.3470038 -0.5363929 0.91496515 -0.36866316 0.91815937 -0.46208465 0.116230674 0.58347154 -0.23779112 -0.48190174 0.45718703 -0.88107973 0.21421674
probably -0.16121508 -0.64040303 0.25521225 -0.20919703 0.1328536 1.1991284 0.16874935 0.24690035 0.41272736 0.48123118 0.74289197 0.6005485 0.7280025 -0.27026764 0.4173452 0.29204643 0.20276783 0.33644074 -0.52034277 0.93420845 -0.3796177 0.92604953 -0.45172182 0.13211702 0.61055547 -0.22891214 -0.4916626 0.48620936 -0.88059187 0.22474115
share -0.14888602 -0.6030732 0.2354922 -0.2150224 0.12604506 1.1553466 0.17296325 0.22375345 0.37991345 0.4640586 0.67087054 0.5576621 0.6822932 -0.2461123 0.4252928 0.263583 0.19520177 0.32262024 -0.5060608 0.9005738 -0.3676716 0.8828215 -0.43506798 0.11203569 0.57077575 -0.2033564 -0.47991103 0.45031133 -0.8408384 0.2073874
big -0.16989994 -0.6553674 0.23818968 -0.21299177 0.14594874 1.2204933 0.15868975 0.24990262 0.43090758 0.4775162 0.7132862 0.6067557 0.7220448 -0.2657017 0.4354985 0.30981913 0.20148315 0.34682485 -0.5136999 0.92714363 -0.3697229 0.91889465 -0.47275686 0.10442904 0.58457357 -0.2146644 -0.5085731 0.469459 -0.88733786 0.24134438
work -0.17190824 -0.67971265 0.26386872 -0.22918887 0.1628868 1.3185006 0.17201656 0.25358388 0.45779517 0.52916753 0.7595677 0.6579538 0.7621756 -0.2840338 0.46434778 0.2957466 0.2133964 0.3719076 -0.5567309 1.0168763 -0.39626467 0.98508483 -0.5141732 0.118031636 0.6232765 -0.26110205 -0.5401171 0.5229778 -0.9303417 0.24641313
guidance -0.1525891 -0.552492 0.21104148 -0.18996416 0.11938697 1.0566366 0.16914724 0.22448793 0.36582106 0.43420509 0.651131 0.5413721 0.6198754 -0.22894073 0.3786224 0.24710146 0.19424939 0.2972831 -0.4683981 0.83497363 -0.33939996 0.8259746 -0.38169694 0.104732245 0.5218999 -0.2066285 -0.42636445 0.41042826 -0.76341724 0.21371071
seen -0.15017323 -0.5669648 0.21677786 -0.17036465 0.105911896 1.1022252 0.13889764 0.20359395 0.36438724 0.43753096 0.64925146 0.5480933 0.6608639 -0.23241666 0.38885486 0.23987438 0.17908451 0.29651973 -0.48470834 0.8491071 -0.33864972 0.81935585 -0.41800693 0.09660161 0.5308872 -0.22311157 -0.4406481 0.42804968 -0.79106903 0.20445871
able -0.15124238 -0.6522101 0.2536428 -0.20768176 0.13653047 1.2769012 0.18839905 0.25605744 0.43454093 0.4946999 0.76742 0.6382466 0.7412456 -0.26965776 0.43562403 0.31885618 0.21842243 0.3831848 -0.5537698 0.9689075 -0.40558693 0.97206914 -0.48774335 0.113802694 0.63021135 -0.25451654 -0.51888853 0.510332 -0.9399382 0.2526461
net -0.14710747 -0.50932133 0.19693395 -0.14362742 0.104513966 0.9768098 0.14003365 0.18602777 0.31591123 0.38773623 0.5872232 0.4937574 0.54079926 -0.183791 0.3594097 0.24157678 0.18271525 0.25906557 -0.41037506 0.7439851 -0.3040337 0.75233686 -0.34436446 0.09989695 0.47369784 -0.1977715 -0.38682634 0.40001258 -0.72921556 0.1717821
getting -0.15431032 -0.65828997 0.25017405 -0.21020298 0.14688681 1.2390732 0.16862811 0.25275612 0.42559758 0.4812819 0.73351794 0.59016234 0.7124942 -0.25016075 0.42267242 0.29305485 0.20337297 0.35953245 -0.53974843 0.9601332 -0.4050976 0.9386708 -0.4847999 0.12844616 0.5894902 -0.24294023 -0.5013974 0.48188728 -0.8839827 0.23901291
new -0.1644974 -0.62228346 0.22705045 -0.21941964 0.15327844 1.2148044 0.1644554 0.23349175 0.40556985 0.48141387 0.7358713 0.58153844 0.71010655 -0.24640186 0.43920004 0.30962017 0.194938 0.36094686 -0.53110594 0.9489076 -0.36976272 0.93760234 -0.44862992 0.10488255 0.6004581 -0.24035695 -0.49872968 0.46490708 -0.8663516 0.22919214
core -0.14277641 -0.5291284 0.21915959 -0.17136168 0.12014667 1.0168947 0.14140624 0.20757413 0.3550854 0.4177061 0.6142407 0.50120246 0.5879299 -0.20488621 0.3773483 0.23779823 0.19256668 0.2928185 -0.452325 0.7737244 -0.3314932 0.7737929 -0.4003555 0.11377051 0.49900407 -0.19801886 -0.42340806 0.41160744 -0.758527 0.17994194
investor -0.15064308 -0.56473625 0.23964442 -0.20486313 0.13425535 1.0804225 0.17718782 0.22435531 0.37933618 0.42202652 0.6778135 0.5532496 0.65431935 -0.23315464 0.41690695 0.26781818 0.20542303 0.32518452 -0.47886658 0.86012197 -0.35695878 0.8345975 -0.40288812 0.12824465 0.5228923 -0.2261433 -0.47284377 0.4413894 -0.80031806 0.2215663
beta -0.15786125 -0.6144417 0.23299046 -0.21094936 0.12570949 1.1767199 0.16404854 0.24862649 0.41568962 0.47921473 0.7108418 0.56425047 0.6868688 -0.25486997 0.42087436 0.27468207 0.1979038 0.34684193 -0.5273639 0.91504633 -0.36184078 0.90438193 -0.45113838 0.107896075 0.56202245 -0.20533392 -0.4807396 0.4350443 -0.8650006 0.20311286
third -0.12447046 -0.55872446 0.20864579 -0.18396063 0.14249438 1.1157051 0.16840586 0.21961361 0.37668994 0.4584643 0.68236756 0.53505164 0.6516669 -0.22809723 0.39606282 0.24929996 0.21220383 0.3169 -0.48263812 0.8555987 -0.3594282 0.8551323 -0.4318681 0.093045205 0.5515241 -0.19093882 -0.46998894 0.42462322 -0.7906395 0.20716713
income -0.16021992 -0.575014 0.20120256 -0.1698622 0.10997349 1.0898086 0.14885782 0.20751627 0.3619576 0.41830567 0.669458 0.5401684 0.64061725 -0.20589827 0.40322706 0.2720579 0.18558249 0.29471487 -0.46994168 0.8539533 -0.3452731 0.82881045 -0.408525 0.102861956 0.52785367 -0.20995061 -0.45759305 0.44408354 -0.81564206 0.21123828
making -0.13367705 -0.6181483 0.24122277 -0.18881002 0.1271024 1.1700661 0.15279539 0.22171135 0.4083527 0.4763379 0.69961256 0.6001461 0.70537776 -0.27174214 0.4117516 0.28801233 0.19197561 0.3363048 -0.52455527 0.89493483 -0.38217047 0.9058053 -0.4389739 0.12149251 0.5931173 -0.23639664 -0.4954342 0.44741353 -0.8478211 0.24388991
benefit -0.13542318 -0.6256924 0.2229225 -0.20542403 0.137621 1.164916 0.1759335 0.25162697 0.39509234 0.46380767 0.72323936 0.57466614 0.68280166 -0.24205385 0.4201594 0.2746271 0.2164989 0.3475432 -0.53134567 0.90528893 -0.37731674 0.9021417 -0.43978968 0.1189847 0.57445663 -0.22557937 -0.49197853 0.47439408 -0.8488157 0.23385009
may -0.18524529 -0.7142879 0.24797912 -0.21927337 0.145364 1.3324491 0.20958303 0.26952383 0.459095 0.5215944 0.7766901 0.665821 0.78487164 -0.27559808 0.471148 0.3346167 0.23580454 0.36612076 -0.5954479 1.0177283 -0.41429597 0.99422485 -0.5017675 0.14050876 0.6316133 -0.25396532 -0.5527937 0.53642535 -0.97597456 0.24890107
mean -0.14216535 -0.5595166 0.2154678 -0.16418521 0.10903783 1.0175838 0.15121858 0.20722878 0.35651338 0.4113933 0.6236013 0.49272147 0.5959492 -0.23548526 0.36294985 0.2461965 0.17251194 0.30333948 -0.46232712 0.80911255 -0.3321492 0.77238995 -0.3828151 0.12072513 0.48423442 -0.18220554 -0.42896786 0.39686397 -0.72920233 0.18868166
indiscernible -0.10637344 -0.43037054 0.16266513 -0.14003505 0.10575128 0.8317605 0.123475716 0.17146802 0.2774119 0.34210172 0.4980063 0.39651632 0.49025843 -0.17963657 0.29058713 0.18524894 0.14989093 0.2473256 -0.3774515 0.6407267 -0.27687654 0.6418329 -0.31156215 0.08671432 0.42498732 -0.15571283 -0.34645557 0.33830237 -0.61611676 0.16344735
standpoint -0.12598695 -0.51804405 0.21093781 -0.18173982 0.09700913 0.9716561 0.15130149 0.1857301 0.32463127 0.37660757 0.5871569 0.48305333 0.55647594 -0.20228384 0.33282498 0.21811704 0.17662185 0.277537 -0.41082048 0.7558342 -0.31830615 0.7248269 -0.38153997 0.11377076 0.48636416 -0.17413738 -0.39881927 0.38621992 -0.7189323 0.19736579
management -0.15595514 -0.7029918 0.2875992 -0.22900386 0.17500228 1.3696812 0.21212037 0.26005572 0.4557291 0.55916023 0.8157348 0.6704695 0.8059761 -0.3000496 0.4928873 0.34175313 0.25796935 0.3918068 -0.5808606 1.059189 -0.41936812 1.030631 -0.5127939 0.13682517 0.65972745 -0.253405 -0.57288164 0.5158913 -1.0044506 0.24573016
every -0.13426876 -0.57161105 0.212247 -0.2066819 0.12971437 1.1143532 0.1488678 0.21279915 0.39060983 0.45314378 0.67924887 0.542504 0.65223587 -0.25824943 0.41025287 0.2744497 0.18113863 0.31349495 -0.4859947 0.8848882 -0.36979 0.8541033 -0.43914112 0.1055789 0.5528103 -0.20181918 -0.479743 0.44698954 -0.8126328 0.22781318
whether -0.18381661 -0.7017496 0.2705249 -0.23146906 0.15606025 1.3548937 0.20669322 0.26915756 0.46998325 0.5305366 0.82888335 0.6901457 0.8146272 -0.30024377 0.48203075 0.32386526 0.22761905 0.40571716 -0.59468746 1.0637068 -0.42870006 1.0444641 -0.5041858 0.14954896 0.6828279 -0.25562406 -0.5721948 0.5398239 -0.98659796 0.26750183
call -0.17600644 -0.6743003 0.2518523 -0.21785736 0.14245638 1.2610527 0.17798622 0.26253337 0.45516434 0.49838683 0.76921844 0.6386579 0.7512271 -0.2786012 0.45379537 0.3135908 0.23313774 0.36122918 -0.557109 0.9907359 -0.38684118 0.956253 -0.47494575 0.14333458 0.60365605 -0.22740328 -0.53387225 0.4783937 -0.9398845 0.2421849
across -0.1621823 -0.7105321 0.267767 -0.2388984 0.14765821 1.3529499 0.18931876 0.26287484 0.47047913 0.54604536 0.8257086 0.6775959 0.81244963 -0.30724075 0.4958509 0.32671008 0.234406 0.40823427 -0.58408296 1.0356951 -0.42247432 1.0372919 -0.51479065 0.1535014 0.6784325 -0.25105065 -0.5532023 0.528195 -0.9732182 0.2755609
indirect -0.16156563 -0.66241443 0.24791901 -0.22242914 0.14651982 1.3010379 0.16656071 0.2679474 0.42752928 0.49549073 0.78509486 0.6240013 0.7597217 -0.27841952 0.45419675 0.30521366 0.21680222 0.3840932 -0.5393135 0.996545 -0.40677622 0.9897836 -0.48926556 0.12506025 0.6368621 -0.2453729 -0.5357585 0.49490815 -0.9360483 0.24637178
wanted -0.16380842 -0.620138 0.22139792 -0.1981678 0.14610572 1.1636953 0.18718812 0.21598072 0.41546512 0.45548317 0.6826185 0.57520926 0.70988613 -0.25131452 0.4115723 0.27023754 0.18936445 0.33581367 -0.4950845 0.8919994 -0.38618913 0.8929666 -0.44486845 0.11065477 0.55863816 -0.21168582 -0.4752046 0.46157357 -0.8530369 0.22335045
assets -0.15205108 -0.5552872 0.20035478 -0.16823171 0.11732715 1.0437694 0.1451859 0.19580022 0.36390284 0.41607976 0.6343385 0.53205293 0.63558644 -0.23640044 0.3833247 0.26433554 0.1806104 0.28922752 -0.440554 0.79521716 -0.3504751 0.80402976 -0.4050822 0.0942604 0.528955 -0.19887438 -0.41509733 0.4029653 -0.77545655 0.18389109
plan -0.12617236 -0.596012 0.2188716 -0.19170411 0.12457777 1.1220227 0.1489583 0.20781413 0.3927462 0.43651855 0.67661345 0.53844184 0.65895486 -0.2497586 0.41049257 0.275742 0.20004265 0.33541605 -0.48753163 0.8787349 -0.37094516 0.8603829 -0.43931362 0.09982117 0.55337363 -0.21410234 -0.45825273 0.42525718 -0.80217695 0.21921918
equity -0.14840387 -0.60092133 0.24276088 -0.17633012 0.11541942 1.1211957 0.15266514 0.21995823 0.38314295 0.4639387 0.6553296 0.54330164 0.6747452 -0.2232854 0.39560616 0.28683388 0.19647118 0.30829254 -0.48077908 0.88235694 -0.3416964 0.8646439 -0.44790587 0.12965526 0.5701277 -0.23317273 -0.4748516 0.42519882 -0.83555394 0.22799377
securities -0.15301174 -0.6003853 0.21493274 -0.19382022 0.1493586 1.137221 0.1711761 0.23632124 0.39270738 0.46990865 0.69089794 0.5755568 0.6693603 -0.2265692 0.4090883 0.28293988 0.19378479 0.34679878 -0.5108174 0.8692868 -0.36757088 0.86064976 -0.4336115 0.11214765 0.5495685 -0.21855436 -0.4632856 0.4342795 -0.83492756 0.2187643
base -0.08975798 -0.4124667 0.16909842 -0.116633505 0.077069126 0.7625031 0.11402667 0.15185013 0.24321392 0.28277668 0.46439558 0.37903896 0.42923197 -0.15433726 0.25633392 0.16823302 0.14625031 0.23146239 -0.31034836 0.5732929 -0.2358125 0.56503636 -0.27307492 0.06674732 0.37624443 -0.12515043 -0.3125997 0.30245456 -0.54567254 0.13075581
target -0.11935736 -0.54360276 0.2166378 -0.18000156 0.110225655 1.0286136 0.1640477 0.22345972 0.35755426 0.41312492 0.63354677 0.5149807 0.6157881 -0.23118553 0.35107547 0.2612315 0.1789683 0.31038877 -0.45219564 0.8144309 -0.32448402 0.7801709 -0.3972179 0.09176167 0.52544445 -0.21024095 -0.42779055 0.39783713 -0.768147 0.20300426
clearly -0.14335135 -0.6476732 0.2326473 -0.19867928 0.13607341 1.2472323 0.16825223 0.24244736 0.4080772 0.48728636 0.717626 0.61650556 0.7144025 -0.25832787 0.44595706 0.30543265 0.2149794 0.34869346 -0.52167475 0.95222956 -0.38517785 0.9358316 -0.48297843 0.1408375 0.593422 -0.23976064 -0.51632357 0.47720093 -0.8897968 0.24902698
branches -0.15729766 -0.65607303 0.24271624 -0.20634526 0.15927042 1.2465276 0.19750383 0.26636863 0.4453641 0.5093455 0.75243336 0.61567515 0.76022035 -0.2690385 0.44762543 0.3149869 0.21887633 0.374248 -0.5396761 0.96648693 -0.39142576 0.94970393 -0.47967145 0.1186519 0.6203276 -0.23221947 -0.5276758 0.49852565 -0.90141565 0.22188951
digital -0.1580491 -0.6247646 0.2554625 -0.1979942 0.12781043 1.2060475 0.15972967 0.22606172 0.4274484 0.47195807 0.7165194 0.60355926 0.6963189 -0.24394183 0.4392177 0.28052756 0.21724254 0.35933834 -0.518554 0.92370546 -0.39461777 0.9040877 -0.45210055 0.10848961 0.59923583 -0.23196033 -0.5061855 0.47466487 -0.8771106 0.24127814
spend -0.0981875 -0.45004824 0.17818274 -0.14690103 0.09170046 0.87234056 0.12526222 0.17315564 0.31441167 0.36540896 0.52091265 0.45465237 0.5190288 -0.17585896 0.31857497 0.22183332 0.16448793 0.26463634 -0.37727386 0.6875986 -0.29480767 0.6850999 -0.32744598 0.087047726 0.43493238 -0.15087956 -0.35202175 0.3334708 -0.65286 0.16913933
earlier -0.13150334 -0.54683864 0.18716468 -0.17234291 0.12751718 1.0275302 0.1645427 0.19354689 0.36403844 0.42411292 0.6335953 0.4934373 0.62992597 -0.2335892 0.35274294 0.24460378 0.16373667 0.28829816 -0.43976948 0.805351 -0.31114417 0.7797655 -0.41004652 0.11187363 0.495568 -0.18521252 -0.4280608 0.39275977 -0.7346905 0.20403063
made -0.13138951 -0.5763293 0.20914887 -0.17427003 0.12720081 1.0866324 0.15311816 0.22660886 0.3616133 0.43853518 0.6631304 0.53937477 0.6392089 -0.2402769 0.39520597 0.25073195 0.20210706 0.3006785 -0.46810624 0.8615784 -0.33534098 0.8519316 -0.42092523 0.1090537 0.52758116 -0.21461134 -0.44436246 0.42020345 -0.79444605 0.19618984
another -0.110795975 -0.49280426 0.19111286 -0.15093869 0.11386491 0.92623216 0.1212356 0.17205282 0.33913976 0.3576142 0.5517317 0.47675896 0.5555639 -0.18617944 0.33712253 0.22171351 0.17193727 0.25717625 -0.4057674 0.7163451 -0.2930034 0.7185816 -0.3501771 0.07968194 0.4590839 -0.17574184 -0.3724134 0.3725973 -0.66518 0.15906581
result -0.15117028 -0.65602946 0.2656212 -0.23729321 0.12938586 1.2405858 0.18237789 0.2672476 0.44323382 0.51717645 0.7503996 0.6085127 0.7561012 -0.2559461 0.4504478 0.31202146 0.21284574 0.3693341 -0.5647636 0.9895563 -0.40625784 0.95846134 -0.46890926 0.119539775 0.604006 -0.23043083 -0.51074773 0.49341068 -0.9143362 0.25156495
accounts -0.11156943 -0.52182233 0.20963597 -0.16166283 0.096515104 1.0172454 0.13589571 0.18644617 0.34856588 0.39767373 0.6194491 0.5071279 0.62579465 -0.21111745 0.38254 0.25249 0.17371958 0.31396678 -0.45358756 0.78574514 -0.3101672 0.7830041 -0.41024944 0.114333674 0.5188816 -0.18101615 -0.43067858 0.41447923 -0.7455749 0.21025681
cycle -0.14582673 -0.5578003 0.21959311 -0.18278193 0.104986444 1.0670105 0.15282156 0.20667069 0.35866222 0.42337692 0.6333171 0.5232101 0.63058186 -0.22365747 0.37511033 0.24647152 0.20490707 0.32149184 -0.46980077 0.8072188 -0.33104467 0.8077742 -0.3911659 0.10456665 0.52192 -0.20977129 -0.424456 0.39505506 -0.76449394 0.208983
saw -0.12165949 -0.50866646 0.1872148 -0.1900701 0.10668894 0.9895887 0.12935229 0.20913231 0.33091575 0.40136355 0.60786796 0.5007484 0.578293 -0.21014334 0.3473991 0.22429557 0.17743115 0.28861627 -0.43775773 0.7756954 -0.32456294 0.7608126 -0.3734974 0.110964075 0.4918932 -0.18337785 -0.40687048 0.3756665 -0.72836447 0.20075135
expenses -0.1268539 -0.5674726 0.22457981 -0.18934341 0.12930818 1.0661502 0.16432728 0.2051239 0.3683376 0.41388473 0.62877667 0.5380903 0.6172004 -0.23654082 0.3606657 0.24212575 0.18693617 0.2863129 -0.45406944 0.8158548 -0.32378054 0.79391825 -0.40898383 0.11359058 0.5115008 -0.19046782 -0.42066786 0.4121305 -0.76850826 0.2222119
focused -0.12854572 -0.51280326 0.19233412 -0.17358424 0.095449746 0.93710166 0.15049882 0.18284944 0.3342456 0.3821892 0.56142735 0.47517493 0.5566381 -0.22055647 0.3265234 0.23594551 0.1645771 0.2737878 -0.42746028 0.72210866 -0.28694648 0.70922977 -0.3565227 0.10564882 0.47379807 -0.1853144 -0.3893439 0.3868267 -0.6974193 0.1677788
returns -0.13626048 -0.5648384 0.21965276 -0.19189286 0.114270374 1.0441357 0.15015708 0.20725398 0.35038 0.42365366 0.633183 0.51787 0.61584723 -0.22438945 0.3677491 0.25294873 0.17169982 0.30187574 -0.46984613 0.8316238 -0.33576757 0.7862733 -0.4013269 0.10085716 0.5267395 -0.1984049 -0.4513983 0.40213293 -0.7752382 0.20524926
financial -0.17758696 -0.701928 0.25410828 -0.22335312 0.15931496 1.2864616 0.18961659 0.27730262 0.46540004 0.5237812 0.78356767 0.6369068 0.75596315 -0.2754853 0.45472217 0.32320812 0.24960811 0.35296395 -0.55157727 1.0171336 -0.4043271 0.97358876 -0.49415907 0.12107088 0.61481196 -0.25759363 -0.5425272 0.52304226 -0.9452219 0.24360943
improve -0.1296079 -0.5285614 0.20461437 -0.17703435 0.11282899 0.9823229 0.1548213 0.21089394 0.3454134 0.40309748 0.5820736 0.49732804 0.5971752 -0.19606528 0.35489914 0.22832799 0.16445921 0.27891093 -0.4181907 0.77164656 -0.31248719 0.75416124 -0.3852975 0.10212862 0.48745942 -0.18765785 -0.4185808 0.39020774 -0.7222427 0.18692301
capabilities -0.12082323 -0.52631927 0.2010776 -0.16667156 0.12550765 1.0039562 0.1569746 0.19176023 0.34039754 0.40094492 0.5896392 0.48619872 0.60647595 -0.21895944 0.35008168 0.2429742 0.16228363 0.29375404 -0.44524544 0.77799934 -0.31669837 0.77674884 -0.39402837 0.11258214 0.48336968 -0.18891293 -0.4140614 0.39191237 -0.7395761 0.19780907
improvement -0.14720288 -0.56530935 0.21193305 -0.20479244 0.114542395 1.069656 0.1497259 0.22423823 0.36566925 0.4398451 0.6504501 0.525554 0.6400954 -0.23425788 0.38769245 0.24288757 0.20162982 0.30229995 -0.47507337 0.84283423 -0.33044672 0.8066849 -0.4046493 0.12958449 0.51662683 -0.20250443 -0.46036562 0.4212168 -0.7950491 0.1947101
investment -0.13954909 -0.54720575 0.2264615 -0.17263608 0.13990644 1.0409273 0.1595725 0.21914414 0.34715757 0.4385404 0.62860864 0.5097607 0.6329713 -0.22339869 0.3664362 0.25940982 0.19961922 0.30778378 -0.46867737 0.8274145 -0.34939533 0.810698 -0.41894808 0.10770998 0.5213417 -0.20378092 -0.44246754 0.42417556 -0.75992256 0.2114929
questions -0.102878734 -0.4523461 0.15297087 -0.14573754 0.09045211 0.8753615 0.12558293 0.1643379 0.29817238 0.33626503 0.5146136 0.4308492 0.51987296 -0.20609426 0.29761916 0.1893681 0.13993648 0.239688 -0.39298812 0.675335 -0.2828815 0.6466481 -0.3454732 0.10134776 0.4348868 -0.15025823 -0.36596498 0.32881063 -0.63578075 0.16428678
let -0.130981 -0.48394418 0.16537012 -0.16766676 0.09019121 0.88926566 0.13982908 0.19155224 0.29541388 0.36774266 0.5141191 0.4335125 0.5157324 -0.17598009 0.30179515 0.19345878 0.15282021 0.2378719 -0.38978267 0.68880033 -0.27479726 0.6671337 -0.33442855 0.09403067 0.41712058 -0.1483727 -0.34601545 0.33301964 -0.61753654 0.18494412
outlook -0.12334614 -0.4792869 0.17033052 -0.16461095 0.11296666 0.911918 0.14008199 0.171871 0.3100393 0.35600293 0.5514248 0.42893267 0.52069324 -0.18257946 0.32911667 0.2003185 0.17415072 0.27521828 -0.39985076 0.69221056 -0.26706818 0.66821456 -0.3531287 0.089032136 0.45423692 -0.1571077 -0.3585203 0.35018837 -0.6393489 0.15879208
common -0.12636751 -0.53526473 0.19741909 -0.16271281 0.12711477 1.0324997 0.14281115 0.22070661 0.37341204 0.4407568 0.633168 0.52890587 0.60077745 -0.21366605 0.36414713 0.25681168 0.16515228 0.2853794 -0.44495112 0.8386443 -0.34654108 0.8150694 -0.3947462 0.08952736 0.52897197 -0.20827545 -0.4588681 0.39164576 -0.7644564 0.1875144
fourth -0.09663353 -0.4435676 0.16530855 -0.16320461 0.10504239 0.8341748 0.14110163 0.15330186 0.26229626 0.32899404 0.5238384 0.41007212 0.509929 -0.18771327 0.29093558 0.21327116 0.14696649 0.24615438 -0.39191127 0.6526578 -0.2572497 0.64011705 -0.3223488 0.07035318 0.42408144 -0.13458708 -0.33678946 0.31996888 -0.6138285 0.142028
center -0.1318763 -0.5787741 0.22108668 -0.19748765 0.12872696 1.0827819 0.15777972 0.22414088 0.38589123 0.4468212 0.6653683 0.52498966 0.6611471 -0.24342139 0.37614498 0.2673364 0.1744431 0.31054962 -0.49498945 0.82865024 -0.3507183 0.8455825 -0.4011553 0.11298137 0.5132573 -0.20565815 -0.46665025 0.4210577 -0.789219 0.19224368
didnt -0.13181257 -0.5684323 0.20683885 -0.20432276 0.1144064 1.1093948 0.1602783 0.21003442 0.36975673 0.45312828 0.6565563 0.53829086 0.63863087 -0.23449549 0.40436918 0.28045273 0.19690184 0.31764066 -0.4869671 0.862861 -0.36427385 0.8392936 -0.4103122 0.10556863 0.52789295 -0.20636283 -0.44965562 0.41971642 -0.813624 0.21252564
hi -0.077501215 -0.2816702 0.08057699 -0.099591956 0.065008625 0.5321078 0.08542318 0.06711064 0.18382555 0.2144901 0.3239114 0.2913799 0.3402016 -0.14673191 0.20049371 0.14882642 0.10902408 0.15160562 -0.21983129 0.4188902 -0.18827365 0.39427936 -0.23355517 0.066021815 0.24198946 -0.1004502 -0.21127948 0.23998377 -0.3782353 0.122587055
long -0.12189425 -0.55312645 0.19549325 -0.17224728 0.1283412 1.0322019 0.14345086 0.21886751 0.34598923 0.3966863 0.60414803 0.5249645 0.601136 -0.23552486 0.3785367 0.23232313 0.17332157 0.30068642 -0.46342823 0.80751973 -0.3409377 0.77040845 -0.39420098 0.09876736 0.5187739 -0.17629802 -0.41789442 0.4063757 -0.7438075 0.1872293
term -0.16115157 -0.5958519 0.23237762 -0.21510172 0.14391011 1.146862 0.17544135 0.24395725 0.3701435 0.4488966 0.6931708 0.5582404 0.68264323 -0.24006087 0.41245225 0.25570682 0.20220865 0.31733182 -0.48631954 0.88881594 -0.3517204 0.8680651 -0.4521242 0.11737583 0.56532437 -0.21410604 -0.46609467 0.4564521 -0.82671213 0.20416138
exposure -0.11738442 -0.5600273 0.21382985 -0.17649563 0.10758767 1.0499525 0.13804887 0.2068851 0.35974693 0.43293747 0.61127895 0.52772677 0.62587583 -0.21998422 0.37414026 0.25016966 0.18694817 0.315731 -0.46412888 0.818492 -0.3151765 0.80076265 -0.40189627 0.12498242 0.5162984 -0.19160049 -0.42887425 0.3979762 -0.74950963 0.21501754
curve -0.10953268 -0.49773908 0.1647955 -0.14746366 0.10800217 0.9035735 0.15099442 0.17984198 0.30633822 0.37247747 0.55325145 0.45004946 0.53723586 -0.20562087 0.3342344 0.21684965 0.15478444 0.25677207 -0.40949163 0.72499734 -0.30519575 0.6902454 -0.3585871 0.08991322 0.4566037 -0.15971169 -0.3852272 0.3711569 -0.68115526 0.18753166
operating -0.1232704 -0.5255593 0.19091678 -0.17779487 0.12390867 0.99650985 0.1276601 0.18121058 0.36615637 0.41319633 0.6201216 0.50688845 0.5977526 -0.21703316 0.35065073 0.2303183 0.1784564 0.28930596 -0.45605588 0.77043504 -0.30721194 0.7833043 -0.37475604 0.11583479 0.51009524 -0.21301037 -0.42039976 0.3942156 -0.72173846 0.20013338
asset -0.14496483 -0.5438536 0.21618383 -0.1757055 0.13291785 1.0450401 0.14489153 0.22322139 0.35315448 0.40562603 0.60940415 0.5221599 0.6202326 -0.2112768 0.37208366 0.23035975 0.19595754 0.29901382 -0.443246 0.79157764 -0.33972293 0.7743509 -0.39124146 0.09561117 0.5088102 -0.17753221 -0.43219882 0.39879072 -0.74628973 0.20547652
particular -0.14344019 -0.54239273 0.21511209 -0.19847761 0.13372327 1.04466 0.1450962 0.21684459 0.35537386 0.4113614 0.6104846 0.5064331 0.60726684 -0.22527729 0.36690128 0.2424991 0.1841194 0.3081271 -0.45115098 0.7908172 -0.32290778 0.8039756 -0.3856173 0.102937914 0.500505 -0.19059938 -0.4339906 0.40505666 -0.7616368 0.19139118
thought -0.1113504 -0.50811696 0.19836928 -0.17304076 0.13090235 0.98149073 0.13893932 0.20816395 0.33459738 0.4040019 0.60030895 0.48135835 0.5801346 -0.22340477 0.35669616 0.24242781 0.18485136 0.29546586 -0.44650504 0.76711255 -0.30078253 0.754428 -0.3912629 0.09270758 0.49885184 -0.18715508 -0.40954143 0.40004405 -0.71638805 0.18370736
appropriate -0.12987976 -0.4612955 0.17596693 -0.16541418 0.12453219 0.90539813 0.122172266 0.1890561 0.32657856 0.3547786 0.5227189 0.45982838 0.5316485 -0.20952827 0.32232344 0.20923536 0.15582241 0.24777061 -0.39687687 0.6948582 -0.29458335 0.6884224 -0.35453132 0.09122709 0.43845454 -0.17809074 -0.39058658 0.36788318 -0.65305805 0.15893988
youll -0.083609805 -0.4253841 0.15352406 -0.12697516 0.1047205 0.79265106 0.12879504 0.16745503 0.26161587 0.30945396 0.48799634 0.39850613 0.46684647 -0.16350651 0.27652562 0.18388973 0.14316934 0.21913223 -0.3467305 0.6250269 -0.2676038 0.59424424 -0.29177526 0.07186632 0.38902095 -0.15883873 -0.32693407 0.2935954 -0.5750906 0.16143522
manage -0.124186 -0.45487761 0.18576247 -0.1313737 0.112956874 0.8673927 0.11297755 0.18773682 0.3056928 0.32419926 0.50372326 0.4205147 0.5087925 -0.19793478 0.31732735 0.2131577 0.1361211 0.26069137 -0.3805832 0.6507497 -0.2788889 0.6568612 -0.3464929 0.079089396 0.4141274 -0.1696706 -0.3503581 0.3174728 -0.63198185 0.17321171
nii -0.10662617 -0.36836708 0.14243662 -0.13342805 0.10423462 0.71474576 0.118855104 0.142433 0.23172851 0.27296 0.43907854 0.3486469 0.41701603 -0.1404081 0.27816138 0.18574472 0.14536937 0.19138916 -0.31355107 0.55485 -0.21942088 0.565712 -0.28982642 0.059572887 0.35426006 -0.13456728 -0.3103459 0.2999424 -0.5523157 0.13595945
advantage -0.11626321 -0.46219856 0.17676005 -0.16637653 0.10110378 0.8567879 0.11164449 0.18158966 0.31583768 0.3415799 0.5096171 0.4238915 0.50567544 -0.18573342 0.32157734 0.19544058 0.15534228 0.23297973 -0.3795392 0.6848342 -0.26072863 0.6496301 -0.3193441 0.10339974 0.41851705 -0.16830449 -0.36667493 0.334195 -0.63670844 0.1799462
lower -0.11244858 -0.475409 0.18358026 -0.15126799 0.10472216 0.88382155 0.11738911 0.16747421 0.32162806 0.35322878 0.5184206 0.4255206 0.52016246 -0.18802732 0.3070549 0.19670863 0.15540858 0.2578268 -0.38810915 0.70431083 -0.2864419 0.6898169 -0.3225268 0.09414098 0.42395696 -0.18614219 -0.37079453 0.35233718 -0.6387923 0.1617458
industry -0.124263234 -0.44734967 0.17763628 -0.15448369 0.09637298 0.8590696 0.121659175 0.15870513 0.2953946 0.326889 0.5126567 0.43117294 0.4950697 -0.18214598 0.31430215 0.18981092 0.16711862 0.23974313 -0.37039912 0.66889983 -0.28677982 0.6383354 -0.33788964 0.09270055 0.41502762 -0.14486827 -0.3671262 0.32061562 -0.62873244 0.17520712
cecl -0.11771121 -0.5159444 0.18232393 -0.18705292 0.11971058 0.9774769 0.12957151 0.19196415 0.34198105 0.38247332 0.56917554 0.47453663 0.58687335 -0.20945616 0.34484696 0.23085119 0.1577076 0.26517287 -0.44091204 0.7735085 -0.29924423 0.75427854 -0.3844441 0.09136317 0.49248457 -0.17028552 -0.40946934 0.38354683 -0.7112183 0.19249463
fed -0.14408797 -0.5550886 0.22182016 -0.18189144 0.11583777 1.0754931 0.13756151 0.19357954 0.34768432 0.42557937 0.62405396 0.50858647 0.62859005 -0.23993921 0.36505738 0.26775366 0.1949753 0.29068887 -0.46833655 0.83325535 -0.33000982 0.79634494 -0.40745792 0.11082749 0.50783426 -0.20600922 -0.4263209 0.4247913 -0.78222746 0.1894888
expectations -0.10567001 -0.4413868 0.14607777 -0.12305531 0.10248475 0.8126588 0.12574907 0.16980213 0.25813246 0.32758293 0.46568012 0.40033332 0.48808366 -0.16813682 0.28128847 0.20041001 0.15188451 0.22855127 -0.33923674 0.62126875 -0.24370764 0.5959434 -0.29094177 0.06628432 0.4013088 -0.16210891 -0.34314054 0.31354925 -0.5932513 0.16797404
past -0.1168783 -0.46406212 0.18817405 -0.16506739 0.10053755 0.85345894 0.14125215 0.16665024 0.28666422 0.34127447 0.5163882 0.42525086 0.5306055 -0.1955335 0.28897908 0.20074637 0.1417289 0.24442169 -0.39202106 0.6633123 -0.2816123 0.67014354 -0.34772688 0.08323303 0.41075945 -0.16417821 -0.3499397 0.35203135 -0.61462724 0.17279395
changes -0.1371621 -0.5553536 0.20451804 -0.17928147 0.13705869 1.0384102 0.14814296 0.2227097 0.36633858 0.4117427 0.638785 0.51866096 0.62957954 -0.23234984 0.37152636 0.26374227 0.18124177 0.3121058 -0.445621 0.80530745 -0.32503122 0.79775554 -0.40537503 0.11257827 0.52496266 -0.19872814 -0.4420391 0.39123926 -0.76334906 0.19088408
yes -0.07599252 -0.2937471 0.11591056 -0.0853255 0.06793832 0.5715766 0.066592716 0.10674775 0.17962307 0.23287857 0.34181324 0.26731732 0.3400633 -0.124032274 0.20755924 0.11725932 0.11295988 0.16114539 -0.2389349 0.43634593 -0.1705475 0.41971114 -0.20804518 0.051907696 0.25555137 -0.11285596 -0.21950683 0.2157168 -0.4145531 0.10914571
period -0.09937842 -0.41499323 0.14538538 -0.14525516 0.10439296 0.81599706 0.13121916 0.16512124 0.26192358 0.32794717 0.4804254 0.3811972 0.48042193 -0.15619001 0.26817784 0.19135745 0.14316317 0.23275888 -0.33546826 0.6273386 -0.26671576 0.60920703 -0.30232295 0.09365166 0.39115942 -0.15410784 -0.32347903 0.31926095 -0.58801365 0.13759361
run -0.091346554 -0.42268515 0.1641101 -0.14589812 0.08876172 0.8167218 0.12315748 0.15923148 0.27347392 0.34004483 0.49930036 0.4074498 0.48639292 -0.19156246 0.27718404 0.20295598 0.1619494 0.22656882 -0.35326105 0.65745527 -0.26167366 0.63850814 -0.31487843 0.09775013 0.4108438 -0.17735942 -0.332365 0.30770564 -0.5985639 0.15319827
stable -0.10126743 -0.44136423 0.17453215 -0.127578 0.08460464 0.80983096 0.09992726 0.15740891 0.26433432 0.30778864 0.49665388 0.40249166 0.48155198 -0.17788924 0.27470922 0.1776965 0.1396125 0.2294523 -0.35678843 0.63315254 -0.2603828 0.6062888 -0.29566392 0.093161814 0.39168534 -0.14540924 -0.32522473 0.30501592 -0.60049033 0.16702881
stay -0.10896076 -0.44353306 0.18865722 -0.14001438 0.09856817 0.8699156 0.11154953 0.18052194 0.30306676 0.33693132 0.5252059 0.43652603 0.5036554 -0.18402341 0.30012062 0.21176174 0.15186685 0.26463798 -0.38695636 0.6901127 -0.26382437 0.6577983 -0.33481842 0.09259464 0.42426553 -0.17623247 -0.36162424 0.33087113 -0.63019675 0.15497677
area -0.09963016 -0.43479502 0.1783078 -0.1598608 0.09082209 0.825092 0.13026902 0.157846 0.2783284 0.33863592 0.47761512 0.41506854 0.5047641 -0.18736717 0.3013702 0.18670993 0.13150057 0.2425013 -0.36634842 0.63394964 -0.26031026 0.616311 -0.32976094 0.08617061 0.3937268 -0.16271614 -0.35644922 0.307628 -0.6135209 0.14118128
keep -0.111115046 -0.47821113 0.19551474 -0.16845648 0.10656436 0.8980079 0.14134558 0.18058597 0.31981117 0.36607704 0.55935585 0.46276212 0.5376741 -0.2072482 0.3184086 0.22442581 0.1571257 0.26202852 -0.4098256 0.7218736 -0.2802345 0.69685054 -0.35570785 0.08782702 0.43366283 -0.17972152 -0.3825893 0.34295672 -0.6594614 0.19099775
fairly -0.13808365 -0.5652624 0.20787632 -0.19529465 0.11853435 1.0400336 0.15204956 0.21760751 0.37513474 0.42573553 0.61874664 0.5334365 0.6209192 -0.21612102 0.38870317 0.2545112 0.1933695 0.3006412 -0.4580514 0.8050348 -0.33900496 0.8129351 -0.3881212 0.11726717 0.5258244 -0.17950551 -0.4199852 0.41363186 -0.77936107 0.20747806
continuing -0.092770584 -0.45023096 0.15830961 -0.14240392 0.11031233 0.8504701 0.12911667 0.18058199 0.28603137 0.3333295 0.51697636 0.42361748 0.5243336 -0.17934822 0.29697797 0.19710734 0.16431582 0.26500487 -0.3659724 0.668002 -0.27744874 0.66901916 -0.32372272 0.10535379 0.43560416 -0.16298188 -0.36401168 0.34982273 -0.63916755 0.15992624
ago -0.10610867 -0.4818165 0.15537456 -0.14428017 0.10511344 0.90078735 0.1274455 0.17185287 0.2943031 0.356455 0.52203465 0.44496047 0.54332525 -0.17859761 0.3337227 0.21791871 0.15713577 0.2638789 -0.38532877 0.67962337 -0.2805803 0.7005448 -0.35104725 0.08067832 0.43917444 -0.18275985 -0.38860035 0.3677478 -0.64806396 0.14994594
data -0.16468704 -0.6037035 0.23343745 -0.2104235 0.11729253 1.1532905 0.17088167 0.23799345 0.40331 0.45549712 0.7019334 0.566963 0.7076088 -0.24337767 0.39736807 0.29008168 0.21344371 0.33927655 -0.5055493 0.9172779 -0.38087285 0.88793325 -0.42956507 0.13298546 0.5730439 -0.21695825 -0.46740708 0.44539398 -0.8503133 0.22968172
less -0.1049423 -0.48406428 0.16918787 -0.15663503 0.11327748 0.9370991 0.119187914 0.17200883 0.308925 0.37780195 0.5414619 0.46142325 0.53758615 -0.21230043 0.3109905 0.21617971 0.16805704 0.27075732 -0.40857822 0.7020373 -0.2924655 0.6941064 -0.35860443 0.10832215 0.44706783 -0.18271288 -0.3882433 0.35128728 -0.65563506 0.16232067
program -0.1341964 -0.5221435 0.20818631 -0.1818118 0.09559677 0.95973593 0.1300903 0.18233757 0.31777817 0.3786146 0.55717844 0.4721906 0.5777746 -0.20841344 0.32943994 0.24559073 0.17677878 0.27561197 -0.40736544 0.76056045 -0.29299128 0.7325167 -0.37066448 0.09767776 0.46598035 -0.18568674 -0.41234544 0.37922716 -0.7081851 0.19152333
ask -0.110810965 -0.5279642 0.19889688 -0.16218182 0.12095127 0.9707024 0.15487023 0.17838503 0.33887845 0.41250232 0.5795527 0.46517533 0.58485484 -0.21324655 0.36104667 0.23456639 0.16606124 0.2833291 -0.42480338 0.7464441 -0.3031907 0.7414448 -0.38038206 0.10148599 0.4783452 -0.19156457 -0.38680497 0.37591344 -0.68475586 0.17442636
wealth -0.10343524 -0.5004414 0.17551872 -0.14775614 0.123104066 0.94576365 0.14983675 0.1698837 0.3340719 0.36143103 0.5532791 0.45494056 0.5474493 -0.2230079 0.33643374 0.23722412 0.16482364 0.25887257 -0.4162413 0.7199182 -0.31510305 0.71938485 -0.37417045 0.10604948 0.47136268 -0.18497519 -0.40128416 0.35483336 -0.6863147 0.18880168
initiatives -0.12436478 -0.4795843 0.15851556 -0.14109308 0.10999374 0.88759243 0.11882221 0.17711708 0.3118393 0.33719626 0.5326081 0.4391553 0.5179698 -0.18851304 0.32584703 0.2212452 0.16441812 0.26502174 -0.3845964 0.69304436 -0.27634627 0.6888767 -0.33149898 0.08230751 0.4406072 -0.17713544 -0.34881234 0.33417806 -0.63823694 0.16775806
space -0.13474607 -0.62688583 0.22108616 -0.20528999 0.118979245 1.1639552 0.16392127 0.22380076 0.4171002 0.4759941 0.7068141 0.59014004 0.6841672 -0.23744218 0.40007442 0.2659075 0.21542677 0.33139002 -0.49630004 0.89776087 -0.37231046 0.8795245 -0.4331437 0.13560638 0.5829134 -0.22333379 -0.47213504 0.47336555 -0.8410841 0.2369783
ability -0.1178309 -0.5002757 0.1925784 -0.16584326 0.11862637 0.9423747 0.15285753 0.1789007 0.32699007 0.3703183 0.57865846 0.45793015 0.5665279 -0.20244272 0.3262664 0.23890446 0.17215703 0.27458537 -0.4246504 0.73563945 -0.29535922 0.7343706 -0.37321827 0.09039398 0.45611098 -0.18910374 -0.4020141 0.35980272 -0.6900348 0.1762538
gerard -0.06813576 -0.314636 0.10102078 -0.09258058 0.072598636 0.6089683 0.100017644 0.10596773 0.2246381 0.24333376 0.36541152 0.3099775 0.37259328 -0.13259004 0.2375372 0.15330303 0.10386629 0.15128416 -0.24729611 0.48951843 -0.20854904 0.45691735 -0.23630744 0.0663634 0.27330518 -0.09549194 -0.23306476 0.25046664 -0.445096 0.12335821
months -0.12736677 -0.47642377 0.1785193 -0.15544175 0.1109291 0.8763814 0.12501054 0.16998646 0.30746907 0.3465224 0.52900547 0.44705868 0.5154784 -0.18633208 0.32787776 0.2125395 0.14957187 0.2539422 -0.38592678 0.68427557 -0.26526478 0.6985097 -0.3277258 0.09081534 0.45260495 -0.15817286 -0.37968266 0.35262036 -0.6491582 0.1581544
portfolios -0.10205685 -0.44691405 0.16810851 -0.16545339 0.08733513 0.86886585 0.11583034 0.179342 0.29580274 0.3281771 0.52292556 0.43459153 0.49596095 -0.19320947 0.29389745 0.21295917 0.13632947 0.25408477 -0.37632424 0.65961325 -0.25825176 0.64617634 -0.33485577 0.09387082 0.43194193 -0.1523396 -0.36699998 0.3442808 -0.6197304 0.16102755
sort -0.10951919 -0.5205253 0.1901912 -0.1575912 0.11540061 0.9717399 0.13469741 0.17780617 0.35002375 0.37090713 0.5835903 0.46576336 0.56315136 -0.20530826 0.32839197 0.23915325 0.18670331 0.28693476 -0.43982643 0.7437376 -0.29920837 0.74583715 -0.36954194 0.085925385 0.4595155 -0.17069769 -0.39126727 0.379304 -0.712517 0.18933445
expectation -0.08349076 -0.3556013 0.15169469 -0.109587796 0.07282808 0.706867 0.10919252 0.14290078 0.22303599 0.28785437 0.4261988 0.32653224 0.41149968 -0.15793724 0.25450006 0.16005841 0.12270033 0.19181108 -0.31591806 0.5369975 -0.19961204 0.54726595 -0.2617011 0.072895914 0.3230767 -0.11991042 -0.28046113 0.27706674 -0.52217066 0.12095618
checking -0.09586092 -0.38932797 0.15263136 -0.12177789 0.06126303 0.7311732 0.08473059 0.13382961 0.26805305 0.29181516 0.45095468 0.359531 0.43646896 -0.14890307 0.27744338 0.18963753 0.14583927 0.21306635 -0.31611764 0.56859106 -0.21732453 0.5666292 -0.2716926 0.07125867 0.3819016 -0.15375009 -0.3155397 0.29051176 -0.5380058 0.13450491
positive -0.093514174 -0.43435955 0.18183723 -0.14288479 0.102152556 0.8604284 0.117058165 0.16812351 0.3092478 0.3409498 0.48842373 0.4260509 0.5038463 -0.16375142 0.31362644 0.19166705 0.14866868 0.24184431 -0.38111827 0.6655508 -0.25918698 0.63544244 -0.30873773 0.07560521 0.42499113 -0.16696393 -0.35665172 0.3257641 -0.6077361 0.18313576
costs -0.10136629 -0.46814334 0.17182039 -0.13307534 0.08567809 0.8345909 0.121520296 0.17407236 0.303083 0.3236972 0.49929953 0.43934235 0.5031983 -0.18518282 0.2924939 0.20804292 0.14241874 0.22908126 -0.37666798 0.659332 -0.2602873 0.65582055 -0.30661955 0.10210124 0.4054888 -0.16581741 -0.34707195 0.33208343 -0.63916874 0.14944
money -0.09508686 -0.35177052 0.15532751 -0.11567585 0.07681206 0.7054348 0.10379684 0.12811106 0.23241673 0.2718095 0.42130166 0.33334625 0.42991528 -0.1616311 0.2308374 0.1795813 0.117623426 0.20066124 -0.29963136 0.5316569 -0.21605517 0.5430109 -0.2837127 0.07759134 0.35298318 -0.13040908 -0.29007474 0.27416834 -0.5125472 0.13658553
amount -0.112848155 -0.47763076 0.18016738 -0.1638848 0.10825097 0.87957025 0.1283169 0.18282983 0.3029247 0.34721774 0.50702184 0.4353031 0.5070511 -0.20000975 0.32091647 0.20176058 0.16800712 0.25879815 -0.37045068 0.68299407 -0.28762126 0.659528 -0.34041485 0.08649533 0.42961085 -0.18011317 -0.3415471 0.33714753 -0.6321867 0.17605552
half -0.10469821 -0.40518144 0.14343067 -0.13306633 0.08516427 0.740439 0.1143665 0.15991424 0.26210895 0.27534804 0.44151458 0.36196962 0.43548283 -0.16843167 0.26030257 0.15900329 0.11473702 0.21820323 -0.34156036 0.5825737 -0.22804311 0.56825644 -0.28134927 0.08941697 0.36516526 -0.124860875 -0.28840694 0.2949874 -0.5335417 0.12604935
shareholders -0.09997256 -0.4824897 0.1889338 -0.15226783 0.103982314 0.913525 0.14744587 0.17656028 0.32056385 0.35849923 0.54073477 0.4433222 0.52965117 -0.20004952 0.3046822 0.21893902 0.16010047 0.25298405 -0.38117203 0.68968606 -0.28677055 0.663935 -0.33287448 0.090804905 0.4329546 -0.15960208 -0.36842814 0.3634116 -0.64933723 0.16203111
branch -0.12215947 -0.5519315 0.2151439 -0.17140336 0.11218778 1.0181153 0.1552154 0.21057567 0.35976768 0.41978633 0.62665486 0.5221321 0.6246716 -0.23380595 0.3748668 0.25505197 0.18857078 0.29264838 -0.44462067 0.80147195 -0.3386483 0.7832382 -0.38432974 0.10793159 0.49679643 -0.20981897 -0.43982384 0.40867004 -0.7653583 0.18166968
tell -0.11272773 -0.40349126 0.16716586 -0.15320213 0.102830626 0.7660521 0.11639943 0.16707566 0.2639516 0.31243515 0.4586226 0.386033 0.4659541 -0.1655626 0.2644404 0.17323862 0.14262033 0.21692733 -0.35651758 0.60551924 -0.22992432 0.5956324 -0.28482962 0.0938841 0.38383445 -0.14423123 -0.31041706 0.31050965 -0.5849327 0.15685047
relative -0.10274565 -0.4561297 0.17812371 -0.15893134 0.094868004 0.8723427 0.13235 0.17042738 0.31298688 0.3435503 0.5300761 0.43117633 0.5065749 -0.19074893 0.30052584 0.20644327 0.14051242 0.2643284 -0.37211266 0.68087816 -0.2902501 0.6799707 -0.33754748 0.07439437 0.42763793 -0.17410202 -0.3568795 0.3424038 -0.63702095 0.16320227
q -0.12482247 -0.48111907 0.17314258 -0.1520099 0.11197324 0.9320711 0.15595274 0.18334214 0.30398828 0.3709294 0.5703115 0.44658616 0.55828494 -0.21677528 0.31621954 0.21026823 0.15103927 0.25281978 -0.41349912 0.7351551 -0.29561713 0.72069424 -0.35018793 0.109755814 0.44547975 -0.1741504 -0.3688039 0.35007295 -0.6552401 0.16404381
place -0.096348345 -0.42053968 0.16710591 -0.12764893 0.08494998 0.7814671 0.10826395 0.16443336 0.281841 0.3035835 0.47113067 0.38616142 0.45630088 -0.16869949 0.2619171 0.20137489 0.13626173 0.21089229 -0.32816118 0.59166753 -0.2311587 0.58637565 -0.29658663 0.09338733 0.3790934 -0.13141403 -0.30932224 0.30419683 -0.57063633 0.15260531
early -0.111609735 -0.5101901 0.21489951 -0.18914881 0.09782467 0.97351307 0.13370308 0.19150592 0.3461101 0.3865516 0.60123193 0.4750166 0.5761995 -0.21006542 0.353959 0.24587467 0.1908604 0.27841762 -0.44600335 0.77961993 -0.3042051 0.76489514 -0.39021552 0.083508946 0.48203656 -0.18852228 -0.41467175 0.38568768 -0.7115941 0.1752965
always -0.10076167 -0.46779782 0.17615867 -0.15096146 0.09275744 0.89664614 0.12787405 0.17199121 0.3105711 0.36820772 0.5236769 0.45161173 0.5413628 -0.19995597 0.3003522 0.21236582 0.17293543 0.24685594 -0.38595638 0.68171936 -0.287182 0.6622748 -0.3410991 0.07501189 0.44654235 -0.16158302 -0.35066304 0.35100645 -0.6295642 0.16833635
move -0.10060352 -0.45286822 0.16428728 -0.14528427 0.099024154 0.8740045 0.11876826 0.1678208 0.3025603 0.3570418 0.5073225 0.43326664 0.51279104 -0.20447312 0.30352378 0.20519914 0.16625126 0.2635406 -0.37886623 0.68427444 -0.2848982 0.6504629 -0.32408 0.07773948 0.42189553 -0.16266635 -0.36310127 0.33079666 -0.6270411 0.16489218
energy -0.122695275 -0.56181234 0.21570942 -0.20511273 0.12023692 1.1049426 0.14458223 0.22721574 0.37051544 0.45336604 0.6369793 0.5430395 0.6343863 -0.24975757 0.39623374 0.25411376 0.18345994 0.30965194 -0.47064802 0.85924053 -0.36310688 0.84622777 -0.43092254 0.10122437 0.5184842 -0.21792439 -0.45304033 0.43359584 -0.8041629 0.22372633
barb -0.0750574 -0.35976237 0.14510046 -0.11306092 0.07592594 0.683001 0.11496083 0.13227053 0.23892643 0.29215366 0.39560074 0.3353002 0.4111503 -0.15623534 0.23583348 0.1705876 0.10316108 0.17820121 -0.29776543 0.5246544 -0.22943063 0.49972445 -0.2515553 0.07843545 0.3301074 -0.12624405 -0.29029265 0.24824983 -0.4808942 0.13102633
best -0.10461479 -0.3993842 0.13758706 -0.12386555 0.09796866 0.75158936 0.10846972 0.14407414 0.25301677 0.28338215 0.4444904 0.35082686 0.43468976 -0.14333566 0.2472129 0.18665457 0.12644836 0.22098912 -0.31528577 0.5753051 -0.23595859 0.57865024 -0.27404374 0.06913043 0.37704828 -0.13731785 -0.3196441 0.28107604 -0.543718 0.15465012
helpful -0.07846067 -0.31106898 0.10958219 -0.10550109 0.057800617 0.5938561 0.11030188 0.11241548 0.20680451 0.2418282 0.34657496 0.29194444 0.34874952 -0.14541382 0.22295274 0.13771287 0.09321176 0.15694353 -0.26729983 0.440074 -0.19280568 0.45448312 -0.2325918 0.0776176 0.288101 -0.11656801 -0.24836163 0.220892 -0.42288464 0.09773395
thinking -0.114962064 -0.44285086 0.15172294 -0.13618344 0.07847508 0.8167336 0.12555955 0.14872286 0.29435205 0.332041 0.49532115 0.4139021 0.47207406 -0.18179923 0.29526985 0.18583035 0.14397421 0.2519709 -0.357005 0.64441 -0.25482938 0.60800016 -0.3171609 0.07776769 0.3865577 -0.16218765 -0.3452859 0.33514658 -0.5948685 0.16895303
times -0.12428614 -0.48510814 0.18948609 -0.17501268 0.117310375 0.915606 0.11701368 0.17578965 0.32866246 0.36753905 0.5553133 0.44793212 0.5462452 -0.19181283 0.32583794 0.20728694 0.15831959 0.25245377 -0.4144984 0.7052271 -0.27748242 0.6921073 -0.34952027 0.100028194 0.46064788 -0.19095919 -0.38155404 0.36332473 -0.65911055 0.16416745
