1441 10
think -0.06805892 2.0872974 0.38201746 0.7079287 -0.9913076 1.4869865 -0.014186893 -0.7125881 -0.13704993 2.3186197
us -0.020999001 2.1954925 0.45175517 0.8196569 -1.033291 1.6175063 -0.05478083 -0.7203023 -0.069210336 2.4360414
good 0.09436744 1.7715411 0.5661695 0.6235702 -0.9415288 1.4825002 -0.010351321 -0.59960806 -0.085810475 2.1707249
going 0.015979147 2.0576525 0.35104653 0.764046 -1.0115203 1.4150277 0.032016274 -0.7100362 -0.048627723 2.2030618
weve 0.03227821 2.2947392 0.4650991 0.78895843 -1.19181 1.6631541 -0.034508802 -0.7405654 -0.09173481 2.5347977
growth -0.036741905 1.9380431 0.40338847 0.690373 -1.064033 1.4863759 -0.06458238 -0.6857187 -0.049771793 2.0662467
well -0.024421373 2.066634 0.42513695 0.68802005 -1.001619 1.5403358 -0.08819179 -0.6872434 -0.089621566 2.2824101
year -0.053584266 2.136979 0.37373945 0.80080134 -1.1032307 1.4963449 0.04623993 -0.6705178 -0.1264834 2.2644968
thats 0.030988703 2.118182 0.4189653 0.7381544 -1.0489014 1.5469496 -0.05314184 -0.72557414 -0.06541417 2.2912917
would -0.044550985 2.1754797 0.47234726 0.7681461 -1.0502193 1.4936839 -0.0048304764 -0.66053146 -0.10826453 2.4081557
really 0.03043927 2.1682868 0.4872642 0.76099014 -1.0298772 1.587334 -0.05694267 -0.7276298 -0.1247122 2.4139433
see -0.067339584 1.9103864 0.3287751 0.6818105 -0.94876415 1.451632 -0.0814879 -0.61123353 -0.05832444 2.1775134
get -0.050592992 1.9364176 0.4286284 0.7031859 -0.99287474 1.3785083 -0.067381755 -0.6354758 -0.13134338 2.2164068
business 0.03599855 2.1813524 0.47042298 0.73907685 -1.0205672 1.5271186 -0.035074886 -0.72859997 -0.095013715 2.3290005
yeah 0.025616532 1.5754583 0.27804568 0.5979599 -0.76348335 1.1596171 -0.05504316 -0.4857686 -0.09644167 1.7324178
time 0.011445553 2.0906944 0.39557055 0.6994097 -1.0939276 1.5008883 -0.031693704 -0.6646971 -0.04747213 2.3272786
capital -0.020814316 2.093851 0.5030644 0.78429043 -1.0281324 1.504602 -0.103848666 -0.68979615 -0.056701533 2.2299018
quarter -0.135685 1.976447 0.42330098 0.78229475 -1.1529802 1.4682618 0.017013554 -0.62861747 -0.105165936 2.1841388
continue 0.0107437745 2.0596535 0.46148682 0.64123654 -1.0214527 1.4545985 -0.0058397828 -0.67100143 -0.07385864 2.1858628
little -0.049757887 1.9718944 0.33264652 0.66351753 -1.1019942 1.4675497 0.044136763 -0.6529111 -0.060778286 2.108762
one -0.021507872 2.1417127 0.46609864 0.78950226 -1.0666939 1.4816852 -0.00771213 -0.75229734 -0.15466706 2.3803084
grow 0.005889265 1.9756901 0.48864943 0.6386913 -0.9428985 1.4076563 -0.058086537 -0.6035568 0.0017759663 2.101989
loan -0.11263993 1.9342436 0.37492344 0.6870062 -1.0307182 1.5549692 -0.13025789 -0.7034131 -0.042496704 2.141104
right 0.061119877 1.9569304 0.3847721 0.74946177 -0.9679237 1.3903645 -0.087794095 -0.6520612 -0.084174395 2.2121387
bit -0.049635164 1.6919347 0.3647416 0.7026851 -0.9892645 1.3979112 -0.034352772 -0.62820005 -0.00401505 1.9750538
dont -0.022782942 2.015079 0.40049246 0.70871276 -0.9907702 1.383543 -0.058255337 -0.6979192 -0.042294182 2.1937277
look -0.048125334 1.9770291 0.45037714 0.70306706 -0.95585495 1.4451479 -0.05628241 -0.72300893 -0.092283614 2.1840127
youre -0.032720115 2.09824 0.38010794 0.78525734 -0.97133577 1.5544906 0.018720593 -0.7567466 -0.113590434 2.273884
lot 0.05312571 2.1802227 0.41659814 0.76210296 -1.0054322 1.5871084 -0.03638352 -0.77341443 -0.064671025 2.364
deposit -0.08632244 2.2097206 0.49273804 0.857942 -1.1013268 1.5901132 -0.033478495 -0.7752474 0.0012155647 2.327844
like 0.012298374 2.1241415 0.46826667 0.78423035 -0.98096037 1.4476677 -0.058240455 -0.67945635 -0.1040997 2.3466284
morning 0.20023431 1.2375792 0.41344908 0.4518671 -0.56854886 1.0101558 -0.27505118 -0.3353163 -0.25158453 1.1611159
rate 0.0020340616 2.154688 0.411132 0.8005434 -1.0305624 1.5059389 0.019340036 -0.6859637 -0.07371123 2.410246
consumer -0.09945146 2.0544128 0.4837569 0.67872125 -0.9226834 1.5312911 -0.07878146 -0.6498047 -0.07858561 2.0777652
want 0.03173464 1.8812481 0.4429938 0.6364415 -0.94197357 1.3729059 -0.07682493 -0.61222434 -0.028875984 2.038137
markets 0.013332452 1.875204 0.42643052 0.69173175 -0.84964687 1.2684599 -0.089425154 -0.64305127 -0.060282063 1.9289569
question 0.055100672 1.7048506 0.35571828 0.5796733 -0.9227625 1.2864221 -0.06988627 -0.57564086 -0.11457357 1.9863124
things 0.03223425 1.9624455 0.39190182 0.65195686 -0.95098746 1.4203413 -0.025053477 -0.7072982 -0.06836672 2.2649202
kind -0.040518884 1.7388437 0.3886335 0.605394 -0.8694691 1.3019587 -0.064339094 -0.6058574 -0.029740924 1.925393
make -0.027658055 2.0441356 0.4768993 0.674407 -0.95720804 1.4658855 -0.07342244 -0.72642773 -0.11805047 2.227553
still 0.007868768 1.9845673 0.43717057 0.695084 -1.0108622 1.4841881 -0.065415904 -0.66937995 -0.09310319 2.1766076
customers -0.04147675 2.17583 0.5381908 0.7980502 -1.0550859 1.5942268 -0.06529911 -0.77394766 -0.04417978 2.4055996
could -0.033074606 1.8434793 0.33484602 0.66389626 -0.9755465 1.3877772 -0.06170079 -0.65220535 -0.037565406 2.0117824
basis -0.09924234 2.3382227 0.4228201 0.8204924 -1.2255462 1.3777275 -0.02518379 -0.50356656 -0.04804461 2.2170427
got 0.083013654 1.6991993 0.35332778 0.6948088 -0.88659674 1.2686888 -0.10231629 -0.6158497 -0.07682628 1.9227724
back 0.021234058 2.051241 0.37484285 0.72578335 -1.068965 1.4788524 -0.027622016 -0.7043135 -0.08441613 2.3382275
much 0.0011204389 1.9622377 0.38692483 0.69086564 -0.98173815 1.4553101 -0.01764308 -0.6320488 -0.104207925 2.1249433
go -0.03617585 1.791642 0.3195787 0.56442076 -0.9182756 1.2799418 -0.04219219 -0.6015595 -0.050085418 1.960418
side -0.009880379 1.6900649 0.3577187 0.55084664 -0.8660425 1.2938013 -0.036960766 -0.52405787 -0.05365904 1.7954792
years -0.08816543 2.0206997 0.35605583 0.6301862 -0.9262901 1.3989111 0.05821149 -0.64304537 -0.12313011 2.2245824
okay 0.05783855 1.5188512 0.31261095 0.5824958 -0.7768061 1.2162575 -0.11950185 -0.5794556 -0.11713212 1.779324
maybe 0.005304841 1.9767977 0.44965038 0.697413 -1.0674801 1.5302935 -0.0223319 -0.67971426 -0.061059035 2.2437587
point -0.046546936 1.8114055 0.36027434 0.60401773 -0.8963486 1.3373754 0.011997355 -0.6372592 -0.061981604 2.0551395
last -0.03387002 1.9749783 0.32670444 0.6631776 -0.9214956 1.3350073 0.020951731 -0.5821321 -0.114068404 2.14102
thank 0.11724949 1.2945383 0.277868 0.4951658 -0.600079 0.8910842 -0.066687636 -0.41416875 -0.12526159 1.3277544
first -0.050185427 1.7728996 0.3494783 0.6271026 -0.90660197 1.2344927 0.007766008 -0.5666162 -0.01991184 1.8833023
two -0.00465113 1.9771392 0.32403785 0.695642 -1.0030049 1.40855 0.038509406 -0.59029365 -0.14359766 2.2158303
john 0.047504984 1.7936126 0.4279807 0.6119686 -0.92994064 1.2696136 -0.11417516 -0.64635557 -0.047801588 1.9856784
portfolio -0.041869503 2.0977836 0.40978265 0.76331997 -1.0332575 1.5140024 -0.06351971 -0.74955815 -0.109975435 2.3131797
next -0.054962456 1.8701277 0.39005375 0.6361282 -0.9518534 1.3085915 -0.029361628 -0.53328353 -0.08958193 2.0192537
also -0.007574549 2.3329031 0.46186054 0.78372073 -1.0918018 1.6904883 -0.11343755 -0.7727066 -0.052413166 2.5515492
credit -0.015132108 2.0359406 0.39337984 0.7330684 -0.9620687 1.5022477 -0.07593 -0.71086526 -0.11152199 2.242852
loans -0.035519283 2.0296392 0.39320663 0.76227987 -1.0326641 1.5320761 -0.091380745 -0.6543767 -0.04181261 2.2056098
need -0.065759495 1.8952006 0.431146 0.6340597 -0.9876129 1.3553494 -0.022169106 -0.6773119 -0.12709427 2.0788028
terms -0.0013777334 2.013183 0.46480927 0.73295766 -1.030422 1.4866552 -0.10842642 -0.7219683 -0.0629347 2.212309
know -0.016043093 1.9084046 0.3671546 0.6417808 -0.9703239 1.3905609 -0.09093342 -0.6989535 -0.041409113 2.1917806
rates -0.05187722 1.8530438 0.37166262 0.72215015 -0.8856007 1.3634946 -0.050584286 -0.61081976 -0.07788324 2.058973
revenue 0.0014136645 1.9060352 0.33581725 0.70052606 -0.96535325 1.4207146 -0.026382785 -0.5954091 -0.1311493 2.138989
said -0.037228998 1.8410068 0.31821382 0.67117053 -0.8815986 1.2463336 -0.028156633 -0.62062293 -0.060918823 1.9717078
theres -0.008953597 2.0290987 0.40927544 0.7629333 -1.0211123 1.4413096 0.019179098 -0.6563052 -0.117730424 2.2127242
balance 0.0238038 1.9832548 0.45949906 0.5637928 -1.0314133 1.6155938 -0.15770721 -0.6396562 -0.06107269 2.022466
risk -0.009995961 2.0530577 0.41768375 0.76001376 -0.99693125 1.477396 -0.084185764 -0.70735174 -0.10879803 2.200105
technology -0.043135148 2.0882504 0.42468154 0.6553035 -0.9589567 1.5303181 -0.067154825 -0.71458244 -0.057409793 2.3453588
given 0.021890726 1.9514902 0.42149445 0.7364755 -1.0635097 1.4542564 -0.0764451 -0.6621998 -0.080736175 2.168786
customer 0.02782709 2.1008081 0.46427524 0.7375867 -0.9142391 1.4604394 -0.027794033 -0.711789 -0.08071679 2.2789326
talk -0.06439794 1.8684667 0.3704846 0.67337096 -0.9260904 1.3816864 -0.01900126 -0.69244117 -0.120122574 2.0462224
deposits -0.08120352 2.0424414 0.49099815 0.78929675 -0.91071594 1.5287535 -0.0429549 -0.62154716 -0.0024202764 2.1337645
give -0.051867254 1.6825105 0.2926118 0.58953357 -0.82701725 1.2320764 0.004511462 -0.53821117 -0.093555085 1.8281754
way -0.03378678 1.9337251 0.41783786 0.7023983 -0.9709637 1.3801872 -0.034229092 -0.6882823 -0.12804936 2.208275
today 0.032200884 1.9101756 0.4069686 0.6702455 -0.9398922 1.3628031 -0.027728334 -0.6461368 -0.092620134 2.1030757
better 0.033411156 1.8919251 0.33698398 0.63402724 -0.96590245 1.3687829 -0.043451514 -0.64582527 -0.09901211 2.0241616
points -0.21838602 1.6209232 0.3678854 0.57074606 -1.0597305 1.2384673 -0.06105566 -0.36705682 -0.055290587 1.5655829
environment -0.08251361 1.7182108 0.34854478 0.6878125 -0.8894435 1.238226 -0.02420766 -0.6262516 -0.09124796 2.0169473
change 0.034080155 1.9592017 0.40954325 0.6899607 -0.9300521 1.412699 -0.03212787 -0.64153516 -0.045106478 2.0702105
mentioned 0.007033974 1.7556835 0.38034812 0.6327545 -0.83133185 1.2930104 0.01594795 -0.54458165 -0.029534156 1.8979068
growing -0.04868216 1.8746511 0.43461457 0.726904 -0.86860657 1.4390124 0.0054282867 -0.6210919 -0.021067481 2.0275698
david 0.062549554 1.5922835 0.38030088 0.59101874 -0.8114995 1.166021 -0.06393996 -0.5094949 -0.07256792 1.7578267
number -0.0015889818 1.8397952 0.38684034 0.6281013 -0.89982545 1.3509485 0.012223849 -0.5982132 -0.07974223 2.0419424
market -0.061079737 2.0285127 0.45534146 0.7797906 -1.0731393 1.4910969 -0.035946723 -0.6746747 -0.05309614 2.2089393
thanks 0.01804607 1.3955032 0.2537808 0.54151106 -0.69888556 1.0281836 -0.10012781 -0.48164228 -0.048451144 1.4253291
day -0.0029599038 1.914151 0.3314155 0.6578918 -0.99400216 1.3536317 0.021432769 -0.7047527 -0.10557458 2.106633
bank -0.00675314 2.1185074 0.4819989 0.774936 -1.0415139 1.4687558 -0.08207606 -0.70702374 -0.13929266 2.2649312
say -0.037986647 1.7463441 0.38410878 0.67750674 -0.9287625 1.326954 -0.02303805 -0.6653734 -0.045881227 2.0317519
pretty -0.015790816 1.7315291 0.337444 0.69036275 -0.89670277 1.3353124 -0.08671517 -0.54463047 -0.112981126 1.9050186
real 0.067327425 1.8905338 0.3820475 0.6696234 -0.89515185 1.3416201 -0.11520473 -0.6633787 -0.12241009 2.1790295
million -0.08158068 1.6839215 0.23598744 0.49931887 -0.8397604 1.1470615 -0.00026303148 -0.49539173 -0.10641226 1.8773396
part -0.0076478957 1.8483449 0.37937212 0.62270206 -0.9540575 1.3320603 -0.02030671 -0.59695786 -0.12951149 1.9991585
expect -0.029131312 1.6638012 0.39961052 0.5497722 -0.90240246 1.2769698 -0.09281093 -0.6071268 -0.059642438 1.8784072
help -0.03617348 1.666162 0.39588654 0.6502713 -0.9020464 1.2065387 -0.029089352 -0.59919405 -0.08271584 1.8740783
guys 0.071874544 1.5786754 0.32815823 0.55140865 -0.78770465 1.2102339 -0.037806477 -0.5429539 -0.13346907 1.7679172
believe -0.073101304 1.9663184 0.35708737 0.66835946 -0.9923503 1.3822275 -0.084075674 -0.60370463 -0.106659636 2.14033
opportunities -0.04867413 1.8556377 0.40604815 0.6122304 -0.94867426 1.3527089 -0.09290831 -0.68327165 -0.096439146 2.0509334
take -0.059727404 1.9182551 0.39580882 0.68908364 -0.8790138 1.3906108 -0.09076482 -0.6063586 -0.10487607 2.0328681
put -0.014954381 1.8802748 0.40056896 0.65497094 -0.94856477 1.3362228 -0.0034800668 -0.57706183 -0.1253754 2.0385835
im -0.053317837 2.0289154 0.37198713 0.6901784 -1.0055411 1.4695429 -0.034493677 -0.651335 -0.11016335 2.1765246
sure 0.016267251 1.6041493 0.41418675 0.59076166 -0.77867 1.2348506 -0.017815052 -0.49057657 -0.014895016 1.8539864
end -0.039209582 1.7798152 0.31148914 0.5829158 -0.87106323 1.2370012 0.02548751 -0.5339161 -0.081679456 1.9721365
margin -0.08993134 1.72482 0.3028224 0.6957228 -0.94230515 1.321318 -0.004130689 -0.5130872 -0.0055295844 1.9388171
looking -0.04247296 1.6790134 0.37381145 0.54594016 -0.841007 1.265448 0.006314643 -0.5987122 -0.08770374 1.8161663
sheet 0.075409725 1.6243625 0.2389389 0.5387672 -0.7350334 1.2194563 -0.079061195 -0.506897 -0.035595335 1.9149313
guess 0.030427761 1.73457 0.41530544 0.6710488 -0.8939446 1.3116326 -0.023097124 -0.649099 -0.10946598 1.9382819
great 0.08278152 1.5800008 0.357629 0.616433 -0.78250915 1.1977369 -0.12905176 -0.5459266 -0.109461434 1.6828151
couple -0.056759335 1.6736621 0.36536825 0.5420327 -0.84418786 1.1711963 -0.021846537 -0.5011145 -0.04743321 1.7732792
investments -0.055982884 1.6249086 0.41318923 0.5547035 -0.8437173 1.1665832 -0.027031293 -0.54116255 -0.09027598 1.7994937
ph -0.0419877 1.9117309 0.36027753 0.68770635 -0.98579526 1.4172411 -0.05242955 -0.6153898 -0.13714835 2.0996757
book -0.060642593 1.7595464 0.2968227 0.62797904 -0.9045717 1.2481341 -0.07119097 -0.65004516 -0.13362274 1.980776
obviously -0.037100133 1.7796723 0.38216585 0.68303144 -0.8724837 1.3518133 -0.021776097 -0.5525521 -0.11604283 2.0357463
commercial -0.04395733 1.7173535 0.36892 0.5894482 -0.8571549 1.1754609 -0.08586616 -0.5285745 -0.06235702 1.7680796
range -0.086471066 1.6268786 0.3108135 0.5875474 -0.84334934 1.153838 -0.02947003 -0.5039726 -0.04191206 1.7669604
talked 0.026951257 1.5642986 0.26033437 0.50041497 -0.7769051 1.0757004 -0.05866779 -0.5600825 -0.110945374 1.7010806
come -0.031673107 1.7631564 0.3511169 0.5681578 -0.8526289 1.2366104 -0.019119723 -0.54128146 -0.04753286 1.9352529
youve -0.023057004 1.7979989 0.39390954 0.64903444 -0.9207221 1.3033024 -0.05972074 -0.59986806 -0.112397715 1.9600387
opportunity -0.04453715 1.7348284 0.30324152 0.5917115 -0.7937943 1.2860339 -0.050832428 -0.6331532 -0.01663319 1.8698812
whats 0.02018008 1.757431 0.3043109 0.5785167 -0.87187487 1.2094296 0.006583004 -0.6003551 -0.040233165 1.9379689
three 0.006223417 1.6882603 0.29617915 0.6089081 -0.85346764 1.1513927 0.017372936 -0.51275593 -0.107384756 1.786124
banks 0.048039563 1.7925336 0.3256177 0.6696909 -0.90103984 1.3510314 -0.097738445 -0.5793137 -0.06478614 1.9626822
add -0.035667483 1.31873 0.2379687 0.47555414 -0.66411316 0.99887586 -0.012389424 -0.5027222 -0.06933651 1.4861957
impact 0.016026553 1.7662683 0.36397558 0.596197 -0.8951298 1.2377068 -0.04108855 -0.6303397 -0.098883964 1.9091029
forward -0.030604929 1.3700073 0.25128937 0.49536768 -0.71394885 1.0158106 -0.070737734 -0.4812275 -0.02310917 1.5901914
billion -0.055498146 1.5378133 0.30920804 0.48642907 -0.8188708 1.1596416 0.0016477954 -0.4972942 -0.035656307 1.7036835
economy 0.00959069 1.6107224 0.37998247 0.61092645 -0.7776855 1.2292411 -0.043866653 -0.5059451 -0.065064654 1.7852228
feel 0.07749697 1.46631 0.34026635 0.5539238 -0.73921216 1.1007491 -0.12742472 -0.48021683 -0.067837946 1.4990904
banking 0.0044426885 1.6327313 0.4009902 0.5409592 -0.7963309 1.2098163 -0.017385775 -0.59339124 -0.017049246 1.8082727
mortgage -0.0107377125 1.5728372 0.32479998 0.53852254 -0.81258804 1.1531261 0.001876853 -0.5815998 -0.01728323 1.6996303
might -0.068648286 1.7225008 0.37478444 0.67406154 -0.82787156 1.3338963 -0.06032892 -0.60088813 -0.03747405 1.9177707
second -0.03489287 1.6166571 0.30473348 0.5323365 -0.8674084 1.1723502 0.016346216 -0.4828182 -0.02969511 1.8241512
return -0.015549415 1.5995854 0.35349274 0.64017487 -0.79054075 1.1615682 -0.028217677 -0.573232 -0.12494754 1.7529112
important 0.023499228 1.5101378 0.2997496 0.48532394 -0.7181665 1.0276318 0.024219256 -0.5073311 -0.06973467 1.603488
use 0.017654516 1.7496209 0.34685573 0.5625448 -0.7982959 1.1717676 -0.09219856 -0.59126943 -0.07632212 1.8552333
coming 0.013689203 1.5504861 0.32440805 0.6134836 -0.8248586 1.1683869 -0.010692784 -0.5788293 -0.07248007 1.7593644
efficiency -0.061310563 1.5986326 0.2764477 0.51879174 -0.79151005 1.1466467 -0.04865652 -0.5973481 -0.0038317346 1.7470126
actually 0.05116313 1.7607212 0.3836831 0.6420905 -0.87398607 1.2900382 -0.06973425 -0.60899603 -0.10994967 1.9343528
even -0.057031605 1.8248204 0.34590855 0.6238577 -0.95390075 1.2715435 -0.046024602 -0.63538015 -0.06947117 1.9874574
interest -0.022246478 1.4728445 0.26738963 0.56550735 -0.7594323 1.07401 -0.08826165 -0.41895235 -0.11879424 1.6443547
regions -0.016631844 1.747758 0.37596714 0.6681899 -0.86459196 1.3238661 -0.028022416 -0.6073798 -0.030883787 1.9374692
different -0.031461485 1.7297744 0.3392791 0.59258425 -0.8100975 1.1990261 -0.060311135 -0.56360596 -0.12097259 1.848904
businesses -0.006043484 1.7641412 0.4229399 0.65823483 -0.8690941 1.3122609 -0.010077996 -0.64356285 -0.05500519 1.8977748
start 0.026965512 1.3766425 0.24690479 0.5066942 -0.7586806 1.0369638 0.0145428935 -0.4662493 -0.11371443 1.5827204
low -0.009361339 1.5484605 0.35802636 0.5508981 -0.8132098 1.0707368 -0.03141998 -0.5617039 -0.023699049 1.6875312
seeing -0.027296271 1.513109 0.3319148 0.5695613 -0.7390318 1.0810484 -0.069354594 -0.48672724 -0.09602153 1.6171749
theyre 0.009932242 1.7607756 0.35051307 0.5794189 -0.8545585 1.1954609 -0.09964242 -0.5332725 -0.06624908 1.8311644
level -0.038325287 1.629487 0.33836165 0.62662977 -0.8736864 1.1735835 -0.041745298 -0.5123053 -0.07971004 1.7951524
higher -0.0066665267 1.7158693 0.37625623 0.6544566 -0.8534256 1.2842973 -0.039088808 -0.58156806 -0.06352412 1.9597819
leverage -0.032859206 1.6963377 0.30507895 0.64146084 -0.80502564 1.1919997 -0.014430509 -0.61958176 -0.034797095 1.9123257
lending 0.0069597857 1.6788821 0.3228405 0.56355995 -0.7521042 1.1934925 -0.05128187 -0.5353215 -0.086966746 1.8002774
done 0.059892964 1.3368498 0.3448176 0.5016646 -0.6426008 0.98649454 -0.08212885 -0.4925714 -0.13126338 1.534152
peers -0.066454224 1.5086293 0.27408746 0.505592 -0.7137373 1.034793 -0.059831712 -0.45776874 -0.03858821 1.6116816
process 0.04231987 1.597228 0.31354043 0.6141506 -0.86542344 1.2278506 -0.09117325 -0.54195815 -0.018541396 1.7944239
within 0.0022198835 1.7599794 0.34328088 0.610124 -0.8406594 1.2067685 -0.08695686 -0.61918336 -0.07933328 1.8706307
simplify 0.038171098 1.4381695 0.2849956 0.4320182 -0.76080793 1.0701674 -0.0988648 -0.45666832 -0.089953005 1.6243012
ratio -0.0025562912 1.4491731 0.26510328 0.4921985 -0.76625335 0.9854087 -0.091838755 -0.47570857 -0.12070136 1.5915529
ill 0.04471118 1.3612075 0.23493393 0.45003825 -0.71716756 1.0728383 -0.01417737 -0.47361535 -0.10241706 1.5304734
something -0.001138782 1.5072031 0.2730365 0.52213866 -0.7125428 1.1277249 -0.051147155 -0.56843114 -0.051376913 1.7354348
around -0.041373827 1.6743332 0.38509446 0.6056464 -0.7833852 1.2395941 -0.04273286 -0.57462597 -0.11510165 1.8114448
cost -0.021705871 1.4661622 0.33472443 0.5691987 -0.7526413 1.053058 -0.032946914 -0.439603 -0.013149976 1.6197137
increase -0.0065258266 1.6810192 0.32959914 0.61603075 -0.8770078 1.2061648 -0.011414103 -0.4999251 -0.0662059 1.8171457
trying -0.010850851 1.6177021 0.3420516 0.60101587 -0.7688074 1.1436452 -0.07030116 -0.56884885 -0.023843182 1.7011951
people 0.008304391 1.3593793 0.2641254 0.45419368 -0.72477216 0.9760379 -0.01650075 -0.50655 -0.11373334 1.578201
based -0.0537846 1.6719836 0.33634773 0.63618636 -0.88919675 1.2518495 -0.053230185 -0.6065808 -0.024764553 1.7990364
quality 0.017472804 1.4379438 0.23572911 0.5076732 -0.68708676 1.0198239 -0.04026092 -0.5341495 -0.049531985 1.5910197
versus -0.07351252 1.5574391 0.27718097 0.56075126 -0.6985077 1.1071583 -0.042218007 -0.508781 -0.05974423 1.6165515
expense -0.03292094 1.5945244 0.37487832 0.5637971 -0.73890835 1.1039233 -0.013548643 -0.56754005 -0.060874436 1.722905
thing 0.0074280417 1.4655619 0.33245534 0.4644449 -0.6534485 1.0011384 -0.063180566 -0.46717817 -0.04908359 1.5829355
estate -0.06496892 1.2974201 0.15594983 0.41806886 -0.6758937 0.8790694 -0.11328385 -0.4484664 -0.10468104 1.5033392
focus -0.015768563 1.416586 0.25071695 0.49376732 -0.68750423 0.93969685 -0.02652395 -0.43386933 -0.043637622 1.54062
probably -0.0026970943 1.5359439 0.2723981 0.5480326 -0.77729434 1.061406 0.018771607 -0.45003557 -0.07100654 1.6220176
share 0.011043019 1.4943475 0.27735943 0.48326483 -0.70266175 1.1044496 -0.0065168105 -0.5116047 -0.094593495 1.552368
big -0.01760943 1.4233289 0.26647466 0.5317094 -0.6470122 0.9587949 -0.070266165 -0.47956273 -0.01885035 1.549641
work -0.02011394 1.41845 0.34198067 0.5178562 -0.66435814 1.0271388 -0.05891814 -0.5224828 -0.116896495 1.579592
guidance -0.07991018 1.316892 0.30334386 0.47381586 -0.7141607 0.99192023 -0.047392692 -0.47119474 -0.041335013 1.3706212
seen -0.006473558 1.3537059 0.25319195 0.4678307 -0.6482721 1.0055456 0.011675644 -0.45205095 -0.039130457 1.3938426
able 0.010621387 1.5557548 0.36165425 0.5129688 -0.8225167 1.1429876 0.014095895 -0.5178387 -0.045291536 1.6916519
net -0.054163132 1.3487315 0.30328396 0.5791107 -0.7002504 0.9810656 -0.05932685 -0.42250013 -0.024305932 1.4465983
getting 0.009251584 1.503657 0.28707057 0.54252213 -0.73181516 1.0607722 -0.020220881 -0.49452716 -0.10512671 1.6388178
new -0.03406534 1.6528109 0.35175034 0.6133054 -0.8248703 1.154316 -0.09116893 -0.55665267 -0.024213219 1.7876341
core -0.018658703 1.3487091 0.31915423 0.4592729 -0.59061605 0.97646135 -0.029367756 -0.43968156 -0.05409644 1.4068782
investor -0.008391548 1.4459443 0.19061089 0.4285376 -0.7069029 0.95883596 -0.01243815 -0.53881633 -0.07357081 1.5828297
beta -0.054365955 1.3872557 0.29728776 0.51376 -0.7168003 1.0092498 -0.01842364 -0.4014356 -0.080060415 1.500746
third -0.056993827 1.3018742 0.24030507 0.45893162 -0.6559326 0.9541335 0.01817745 -0.39050364 -0.014621321 1.3919337
income -0.0483738 1.3606386 0.2847322 0.58620226 -0.7201048 1.0017846 -0.054254107 -0.4701749 -0.04532142 1.5145268
making 0.01865269 1.4277766 0.297071 0.538092 -0.6910694 1.1112568 -0.10451453 -0.4815717 -0.119449615 1.5937848
benefit -0.009482292 1.3857124 0.27561447 0.50022364 -0.69696534 1.0386112 -0.0063293194 -0.46457857 -0.05487807 1.5728449
may -0.006434516 1.579939 0.28173524 0.61260986 -0.75182235 1.1600021 -0.029755188 -0.5716553 -0.06798901 1.7902746
mean -0.042309634 1.2345061 0.2574353 0.47755906 -0.6606085 0.98563534 -0.028180059 -0.4813862 -0.049511157 1.4727371
indiscernible -0.03039836 0.89212084 0.2264936 0.28715387 -0.48174018 0.6806081 -0.043489505 -0.2808479 0.0039378433 1.0470831
standpoint 0.03599224 1.2414328 0.26072055 0.443893 -0.66581243 0.89220375 -0.007238367 -0.43122733 -0.03134171 1.3061908
management 0.034560006 1.7835593 0.35375503 0.6543376 -0.9072442 1.28124 -0.078603856 -0.6285565 -0.1251092 1.9126313
every 0.042714596 1.3043737 0.28219035 0.51515234 -0.70983166 0.9236835 -0.068178855 -0.4224901 -0.0069352826 1.4771568
whether -0.027756434 1.6697077 0.39121518 0.6032547 -0.8069053 1.2273707 -0.09340935 -0.5494712 -0.12585177 1.8725805
call 0.017035939 1.6757689 0.36508086 0.5488186 -0.81040573 1.1795981 -0.018846644 -0.5530109 -0.070615284 1.8138865
across -0.0061153104 1.6117069 0.38664412 0.5547232 -0.80195713 1.1452776 -0.0050037876 -0.5688098 -0.027542258 1.7141762
indirect 0.042331092 1.4890656 0.32733142 0.5520152 -0.792326 1.0535277 -0.031712934 -0.52243227 -0.04929301 1.5957164
wanted 0.014589597 1.4083881 0.3132816 0.52680564 -0.68007815 1.0662395 -0.07575282 -0.4705182 -0.04503294 1.5167685
assets -0.042389512 1.3091822 0.21574691 0.5004663 -0.6722772 0.93474126 -0.0040667076 -0.4180319 -0.03948531 1.4117656
plan 0.038847305 1.4216597 0.2731183 0.5688691 -0.7456296 1.0182288 0.013651089 -0.52543086 -0.06023986 1.6147395
equity -0.0017660316 1.5529878 0.31477752 0.4747374 -0.83468413 1.0219291 0.014788205 -0.43858147 -0.070850514 1.6996951
securities 0.037142407 1.3698145 0.29212204 0.47496802 -0.6918647 1.0333602 -0.0806697 -0.51712096 -0.05522712 1.5537674
base -0.013990753 0.9581511 0.22282243 0.41865227 -0.48175147 0.68847066 0.01546574 -0.29572213 -0.064309806 1.1385074
target 0.037250865 1.2446867 0.22398223 0.48540413 -0.66496927 0.95019054 -0.05349707 -0.4511727 -0.054017756 1.3756458
clearly 0.027906995 1.3984814 0.27224058 0.54885346 -0.7112767 1.0647227 -0.016200123 -0.48513007 -0.06563554 1.5190779
branches 0.020376109 1.496869 0.28645477 0.5066593 -0.7510176 1.0460162 -0.07135159 -0.4788372 -0.08981024 1.6596804
digital 0.0158164 1.4460053 0.25857905 0.5380374 -0.62733555 1.0124931 -0.008215378 -0.49121633 -0.0034165576 1.5870498
spend -0.02657201 1.1430861 0.17347957 0.34340498 -0.51921636 0.8016504 -0.047441855 -0.3788616 -0.09213804 1.2843693
earlier 0.021383606 1.1254379 0.25945157 0.37305456 -0.63183165 0.8973599 0.013550934 -0.34394923 -0.09168454 1.3288196
made 0.013782284 1.3263968 0.23152824 0.49161848 -0.6269435 1.0215433 -0.063375264 -0.46969914 -0.054104254 1.4684817
another -0.027660105 1.1195216 0.24760881 0.3755214 -0.57196957 0.8349171 -0.028963136 -0.35550976 -0.024772974 1.2661628
result -0.053746272 1.586866 0.28893557 0.6033469 -0.813945 1.1628164 -0.00042012974 -0.52022403 -0.11426451 1.7221484
accounts -0.06281586 1.2177334 0.28416312 0.5260162 -0.5200949 0.98528147 0.045187276 -0.3671475 -0.03408675 1.3251799
cycle 0.018675093 1.3303246 0.23703599 0.43107283 -0.62002754 0.93788195 -0.05671509 -0.4591048 -0.10892857 1.4735515
saw -0.00061996194 1.2859882 0.23859295 0.52023613 -0.6425331 0.9521632 0.022337835 -0.4491049 -0.089561276 1.4668622
expenses -0.019450268 1.3408667 0.31213266 0.48741993 -0.68337584 0.9790795 -0.023093138 -0.448906 -0.092435814 1.5328134
focused -0.012929031 1.3298914 0.2664 0.42833298 -0.6242255 0.9338717 -0.024775682 -0.41881165 -0.0982411 1.4245676
returns 0.037404943 1.4126284 0.25889447 0.4867686 -0.64124346 1.0492996 -0.06588429 -0.4524794 -0.05360265 1.5233676
financial 0.02859664 1.6563227 0.28859887 0.60020053 -0.8199441 1.1991434 -0.026337977 -0.57284397 -0.10750227 1.8624955
improve 0.023859482 1.2139981 0.29493108 0.44212142 -0.6586402 0.8638674 -0.04092571 -0.38948914 0.00013062268 1.3962188
capabilities 0.008686459 1.4139689 0.25814104 0.43900213 -0.63924813 0.98439014 0.008914058 -0.45234585 -0.047808804 1.4589448
improvement -0.009398682 1.3966119 0.21514204 0.4993769 -0.6870113 1.0276074 0.0015180437 -0.5091932 -0.058158677 1.4671165
investment 0.017641302 1.29049 0.23813657 0.5066331 -0.65410554 0.96535635 0.0021826352 -0.45660156 -0.08448782 1.3998908
questions 0.043484528 1.1371981 0.2673179 0.4082215 -0.56983703 0.825251 -0.035186768 -0.34624976 -0.094098456 1.1985049
let 0.008038472 1.1271117 0.2706275 0.42347765 -0.5876527 0.8798995 -0.026423002 -0.4535199 -0.058984775 1.3535683
outlook -0.06305243 1.2591882 0.28898188 0.4654416 -0.6532193 0.9365894 -0.048035923 -0.4201327 -0.075340934 1.4105526
common 0.019907782 1.3797004 0.26696435 0.47472778 -0.7625246 0.89997405 -0.014516281 -0.39171094 -0.07994465 1.4943614
fourth -0.07435229 1.0765046 0.15847859 0.38861606 -0.6411037 0.84139824 0.029233353 -0.31944105 0.01566289 1.238832
center -0.0035986924 1.4514164 0.29554492 0.50036335 -0.71776766 0.99171215 -0.008128696 -0.44671857 -0.035036847 1.5814369
didnt 0.00512968 1.385252 0.24056189 0.46792498 -0.69987214 1.074301 0.012859938 -0.5059824 -0.037899 1.5706502
hi 0.06670517 0.6443463 0.19925529 0.25259417 -0.31227702 0.5784275 -0.09291581 -0.17845628 -0.028191006 0.79057246
long -0.023478566 1.3220869 0.20804672 0.47169974 -0.56706715 0.89879185 -0.06486856 -0.44140005 -0.08317726 1.4496279
term -0.00042607173 1.4506426 0.23323224 0.5577312 -0.6876776 1.0231537 -0.071090974 -0.5447371 -0.09478264 1.5962969
exposure -0.023285756 1.2772896 0.24947046 0.45462337 -0.637358 0.87261367 0.0012770705 -0.40918675 -0.014223362 1.3731029
curve -0.04883064 1.2088046 0.21796027 0.4192447 -0.64195776 0.9083972 -0.049059473 -0.37382597 -0.05146804 1.3885037
operating -0.06686851 1.3428493 0.2629862 0.46020162 -0.61173284 1.0340602 -0.05711797 -0.490086 -0.04697941 1.5711938
asset 0.019431183 1.257063 0.23516807 0.45785812 -0.6775223 0.9628172 -0.026192596 -0.38438684 -0.008414458 1.4197619
particular 0.026072498 1.2186668 0.19865192 0.4154831 -0.6037554 0.92125016 -0.035483055 -0.42032558 -0.06913703 1.3400798
thought -0.013403738 1.3388776 0.2667028 0.5039261 -0.6643627 0.96671504 -0.04841877 -0.44398308 -0.022653773 1.5061759
appropriate -0.036775727 1.1843092 0.2756292 0.4790196 -0.58178586 0.8398531 -0.04282963 -0.37781116 -0.05291994 1.2951367
youll -0.060722895 1.0486697 0.14847785 0.37255856 -0.5194865 0.78438425 0.030136542 -0.3402939 -0.0027657119 1.1500994
manage -0.0064207194 1.1121497 0.18602398 0.36007944 -0.5102838 0.8185157 0.011062306 -0.3884774 -0.028899927 1.2149025
nii -0.037461888 0.9465013 0.16655138 0.3693147 -0.4994193 0.7158487 0.023730278 -0.29990754 -0.050375845 1.0411249
advantage -0.024444094 1.1872098 0.20745902 0.44507453 -0.4932699 0.839898 0.0051947837 -0.36003685 0.017005092 1.1932654
lower -0.04496798 1.1784235 0.23382485 0.4517492 -0.60901564 0.7852842 -0.06196493 -0.35669792 -0.067303166 1.2127247
industry 0.0048367768 1.2273314 0.20129348 0.46764758 -0.6101514 0.91150045 -0.08341604 -0.43760338 -0.01807167 1.3674855
cecl 0.044168495 1.267086 0.22338718 0.4292968 -0.66003156 0.93741614 0.010788083 -0.4192562 -0.014640433 1.3864765
fed -0.03229919 1.4211856 0.2994485 0.57072294 -0.6855834 1.072157 0.007636651 -0.4637995 -0.047248926 1.6469054
expectations -0.05110871 1.0714594 0.21311073 0.43213055 -0.58492196 0.8200366 0.0050269505 -0.41514826 -0.09007209 1.2314539
past -0.028111624 1.0861483 0.19304334 0.38406393 -0.5202103 0.79470336 -0.026932266 -0.38647652 -0.08092491 1.115872
changes 0.040258612 1.3989586 0.30712622 0.49533468 -0.754405 1.0337864 -0.08037231 -0.45506874 -0.111310706 1.5686226
yes -0.02804211 0.69830734 0.1329087 0.20113179 -0.35079575 0.46412146 -0.029383685 -0.23655921 -0.078834906 0.6844873
period -0.00517868 1.0535171 0.1831358 0.4485443 -0.5126526 0.84578896 -0.01734413 -0.377663 -0.04863103 1.1809244
run 0.03539561 1.1798916 0.26079354 0.45009062 -0.5742614 0.78088105 -0.06873551 -0.3816298 -0.022694696 1.277938
stable 0.004576146 1.1261023 0.18916057 0.36702272 -0.56633794 0.78286076 0.0049607134 -0.3879901 -0.061246045 1.2278736
stay 0.020806909 1.0707957 0.24350671 0.39080477 -0.56049854 0.80944216 -0.050555076 -0.42422566 -0.0432077 1.1626397
area 0.014635784 1.127296 0.26843724 0.33582464 -0.50619036 0.82291806 -0.000805401 -0.31250042 -0.07422568 1.1984011
keep -0.007632908 1.1600618 0.1845491 0.4360059 -0.566141 0.84664893 0.008530032 -0.40886077 -0.013125705 1.1876063
fairly 0.004993833 1.3154804 0.22888273 0.52293116 -0.65516496 1.0089152 -0.055253137 -0.4368116 -0.025437735 1.4519929
continuing 0.0006160007 0.9925435 0.17629056 0.3184072 -0.46000102 0.7284335 -0.07598879 -0.32653862 -0.08175337 1.1869041
ago 0.015654612 1.1899616 0.2558494 0.4479307 -0.5910029 0.826586 -0.011047275 -0.3845542 -0.023858525 1.325086
data 0.034449372 1.4406275 0.2576123 0.5364732 -0.64353055 1.047049 0.0062658777 -0.47170144 -0.013605739 1.5818354
less 0.016601456 1.1664301 0.20114517 0.47106138 -0.5910834 0.9297153 0.010433822 -0.44677645 -0.10428069 1.3745252
program 0.048248723 1.3939667 0.24012098 0.44110745 -0.7274106 0.9350546 -0.070892856 -0.40773588 -0.0116504 1.4503462
ask -0.0017866616 1.1871316 0.31599373 0.4496891 -0.64765793 0.93663013 -0.054989997 -0.37323093 -0.020089637 1.3423445
wealth -0.035542384 1.2626631 0.3028206 0.4532646 -0.618921 0.87131315 -0.054353688 -0.40579385 -0.02750883 1.4085151
initiatives -0.002695679 1.0837263 0.2707843 0.33406714 -0.523455 0.7844493 -0.032825336 -0.3700178 -0.04811259 1.2497922
space 0.011309229 1.3944731 0.28477177 0.5217584 -0.6741223 1.0660753 -0.014417417 -0.42288196 -0.028761594 1.5488328
ability -0.023648776 1.1840986 0.23719387 0.47364315 -0.65124506 0.9258838 -0.056196593 -0.37439466 -0.06680053 1.3312892
gerard -0.02081562 0.73143566 0.14855476 0.27034035 -0.3611217 0.55256265 -0.08460524 -0.28269723 -0.06498552 0.8186655
months -0.025325008 1.245482 0.21463998 0.45010462 -0.6696191 0.9065613 0.021669323 -0.39898446 -0.06758729 1.4262589
portfolios -0.006873313 1.1747694 0.26182318 0.42762613 -0.5848486 0.8604538 -0.0403402 -0.3598132 -0.012323391 1.2300148
sort 0.0023749918 1.1924785 0.2132632 0.41895798 -0.59879154 0.8749982 -0.0010619335 -0.45365062 -0.08536804 1.4142139
expectation -0.061895113 1.0418005 0.25714308 0.3496249 -0.57215333 0.75258416 -0.05166542 -0.38200408 -0.04272323 1.211513
checking -0.06768016 0.9471861 0.19086497 0.31826347 -0.39341867 0.6485147 0.02081973 -0.25117427 -0.009208685 1.0193222
positive -0.014677399 1.2214953 0.21311243 0.44445613 -0.58651096 0.89979416 -0.05797596 -0.49301052 -0.08203379 1.3778713
costs -0.07073491 1.0745316 0.20305821 0.4534494 -0.60011494 0.77398056 0.017885005 -0.37360576 0.001665299 1.1862438
money 0.021719266 1.0560734 0.20590784 0.33759558 -0.49075705 0.77167946 -0.0065890043 -0.30620906 -0.061367046 1.1794317
amount 0.009363884 1.1579015 0.2600436 0.4561919 -0.58070344 0.87650853 -0.008020317 -0.39648157 -0.0017376945 1.2689945
half -0.0060160244 0.9279391 0.14683846 0.38348764 -0.49453795 0.72673166 -0.00021738195 -0.34860393 -0.065736026 1.0981469
shareholders -0.007628379 1.1385599 0.2658872 0.45822403 -0.60174733 0.89248604 -0.007191264 -0.37222418 -0.091042385 1.296733
branch 0.018731674 1.3393593 0.22909679 0.4460705 -0.69139886 0.99941665 -0.0081015 -0.40036935 -0.10175272 1.4915034
tell 0.030172657 1.0724832 0.208051 0.34759474 -0.56145406 0.77873266 -0.054407142 -0.32786068 -0.0064721177 1.1443702
relative 0.018308165 1.1419609 0.19422811 0.4566988 -0.55114335 0.8794197 -0.042888213 -0.38067642 -0.06440562 1.2577853
q 0.038630154 1.1571103 0.19450495 0.40838316 -0.5085466 0.8215639 -0.08616739 -0.35631955 -0.10371232 1.2138976
place 0.05533524 1.1048837 0.24767609 0.34813094 -0.47168165 0.7706986 -0.0013907868 -0.32178056 -0.09241471 1.1223748
early -0.040149525 1.2717781 0.29801768 0.49501094 -0.65556914 0.92092156 -0.07184888 -0.4454918 -0.07210741 1.4102129
always -0.028388651 1.055452 0.2645007 0.40738946 -0.55294114 0.84187484 0.004999525 -0.3847064 -0.08156098 1.253018
move 0.024114592 1.2010174 0.2818954 0.41632882 -0.6182398 0.79637045 -0.031882763 -0.42262483 -0.024683908 1.3152987
energy -0.010451572 1.3832943 0.29485884 0.5068393 -0.6922527 0.97178847 -0.05341618 -0.49426445 -0.052971132 1.4153042
barb 0.058657743 0.97471505 0.20113799 0.40034768 -0.47792643 0.70520556 -0.060608536 -0.31508496 -0.0654366 1.0503708
best 0.023921425 1.0260117 0.21961233 0.32850385 -0.47935882 0.7425584 -0.030818118 -0.30122387 0.0081568565 1.122842
helpful 0.044140853 0.86407965 0.1657309 0.34122473 -0.40086684 0.55636424 0.002834036 -0.2792145 0.0011769845 0.9131988
thinking 0.040925376 1.0451492 0.1838185 0.3506939 -0.52018404 0.81580937 -0.008089974 -0.30915233 0.002933159 1.1682711
times 0.05096216 1.1323807 0.285185 0.41824687 -0.6077909 0.8566902 -0.0768801 -0.41193864 -0.020196019 1.3078295
using 0.005197577 1.210554 0.28588745 0.47907153 -0.60943943 0.9272951 -0.03913201 -0.46401554 -0.0392516 1.3652523
top 0.04407095 1.1998689 0.22174226 0.456688 -0.56517786 0.88906634 -0.014919709 -0.3839516 -0.06792685 1.313409
plus -0.054418467 0.9481741 0.18648629 0.34972766 -0.4313413 0.6911043 -0.051491637 -0.35712957 -0.027238674 1.0027823
competitive -0.046397794 1.0539181 0.22072025 0.33465335 -0.48584083 0.762368 0.019509934 -0.3295939 -0.009028472 1.1243448
example 0.004413605 1.2312373 0.2199388 0.46401873 -0.57261586 0.8625385 -0.041153576 -0.45053452 -0.066854544 1.2814744
numbers -0.015366225 1.1781173 0.23145725 0.4279091 -0.5100032 0.835045 -0.029761316 -0.38202393 -0.03237692 1.2660176
already -0.041704018 1.0606091 0.18818045 0.34723684 -0.57074517 0.7533834 -0.06588238 -0.32938328 -0.01515171 1.1918842
challenging -0.0162261 0.98998195 0.23785184 0.3041781 -0.4318426 0.6745301 0.010005077 -0.3528187 -0.005358232 1.1193802
potentially -0.0032662137 1.2229077 0.22538607 0.3925868 -0.584234 0.870512 0.015808206 -0.42861828 -0.002661038 1.2971927
high -0.04352529 1.0921028 0.17236708 0.42232808 -0.48791382 0.78669894 -0.06400965 -0.38010985 -0.06103141 1.1941004
fact -0.0489211 1.1940597 0.22928168 0.46993652 -0.58987725 0.8790238 -0.021785768 -0.43645346 -0.03271867 1.2893349
taking 0.05169375 0.92160857 0.2290974 0.30809638 -0.45694134 0.72994804 -0.06757228 -0.292086 -0.075897805 1.0642698
wondering -0.024926659 1.0836209 0.20435289 0.3523486 -0.48059595 0.8056771 -0.016780654 -0.3351756 -0.033690993 1.147503
cant 0.04654855 1.0316875 0.22197187 0.3929249 -0.5145421 0.72094744 -0.073653236 -0.3199877 -0.026473368 1.0682751
quite 0.009166296 1.2859734 0.288292 0.45762724 -0.665377 0.9466565 0.020964772 -0.43826318 -0.014824171 1.3390652
mobile -0.022322927 1.1727872 0.2696864 0.4580417 -0.57440263 0.8393865 -0.031998567 -0.42691192 0.001676264 1.2485697
answer 0.024096759 0.9466824 0.19581637 0.33771533 -0.43725777 0.6895461 0.014585573 -0.3126363 -0.07338685 1.0073597
account -0.067818336 1.059831 0.18702097 0.436735 -0.5478537 0.85801476 0.016378367 -0.4036391 -0.045809623 1.2649564
working 0.031848162 1.0387067 0.19468272 0.35108486 -0.54336375 0.81964165 -0.06363583 -0.4016419 -0.07027274 1.1262085
total -0.046691783 1.0559833 0.23491032 0.36680418 -0.50433123 0.7655689 -0.0788815 -0.3011046 -0.03299306 1.0875909
platform 0.04978445 1.0419848 0.23694123 0.31434923 -0.5111739 0.72534084 0.0012462595 -0.31832296 0.0018308826 1.1205673
roughly -0.04944993 1.067226 0.22150947 0.4112094 -0.47589752 0.7290591 -0.034057945 -0.30911162 -0.044971257 1.1116168
significant 0.03349815 1.0428065 0.17199135 0.32596627 -0.5218384 0.7473463 -0.020278642 -0.28506294 -0.09068801 1.0679945
ccar -0.032602314 0.9969974 0.16934596 0.31462651 -0.4841319 0.7664828 -0.0153888175 -0.34854767 -0.010186282 1.1327103
franchise -0.039213777 0.8434917 0.15205605 0.33874625 -0.45017684 0.6150869 -0.036471285 -0.27152315 -0.067571394 0.9430944
happen -0.018468043 1.0106465 0.2264809 0.3526467 -0.5243651 0.71380246 -0.011115887 -0.27755976 -0.007122661 1.0911505
flat -0.038395092 0.8452438 0.16345017 0.34897456 -0.45874184 0.6463715 0.027087431 -0.28217277 -0.0024039461 0.9769999
strategy 0.0006871354 1.1470855 0.2517908 0.347906 -0.58502805 0.8575639 -0.03314189 -0.42901525 -0.08382023 1.26836
hard -0.0060165534 1.0318245 0.22252871 0.3482262 -0.4863584 0.8179451 -0.047181282 -0.39222986 -0.097308904 1.1725457
job 0.014991595 0.8446338 0.14767365 0.27078962 -0.3828834 0.572238 0.0038549397 -0.3095153 -0.054577168 0.9179042
targets -0.03332394 1.0630059 0.22483718 0.39533296 -0.5553484 0.7546935 -0.024641328 -0.41611162 -0.03161386 1.228681
tier -0.051558077 0.89616024 0.18178165 0.29273784 -0.5172379 0.6668911 -0.029254386 -0.32853884 -0.10562919 1.0015392
runoff -0.04720462 0.97457486 0.23001966 0.37831578 -0.41909477 0.69506735 0.021420341 -0.25876465 -0.084856845 0.9731835
far -0.022854162 1.0811503 0.2562536 0.36749575 -0.5728267 0.78465545 -0.07140276 -0.3390396 -0.029520346 1.2903624
mix -0.026396664 0.7924325 0.16787703 0.3315497 -0.3901033 0.6031214 -0.0072284956 -0.31144357 -0.054119598 0.94271624
areas 0.033062223 1.0170475 0.2140117 0.37896937 -0.45608932 0.73948425 -0.021374445 -0.3109901 -0.082997404 1.1634296
pressure 0.022162609 0.984961 0.1693498 0.3352447 -0.48775342 0.70508826 -0.016049763 -0.29208335 -0.0051856483 1.043374
build -0.030050749 0.8961711 0.20618054 0.30013102 -0.4657813 0.65278566 -0.057674814 -0.33519763 -0.035889227 0.9704227
nice -0.0007080729 0.7722602 0.10731242 0.24897242 -0.37413737 0.58578825 -0.047763553 -0.20896485 -0.07270578 0.809676
auto -0.023217738 1.0530753 0.21446064 0.4041163 -0.5086524 0.7496739 -0.07974556 -0.28133732 -0.053809058 1.0982171
bankers 0.020992694 1.0394447 0.16957234 0.35585946 -0.46657443 0.70920587 -0.04478551 -0.37672195 -0.024246957 1.0387623
relationship -0.016416293 1.0355524 0.24221137 0.34072873 -0.5028261 0.6998067 -0.040005818 -0.30113134 -0.04890577 1.0735309
changed 0.00848881 1.035822 0.222468 0.38180658 -0.4818688 0.73242986 0.02048761 -0.3729481 -0.075115375 1.1288415
team 0.04557837 0.85840315 0.19143592 0.35585642 -0.45715088 0.57706964 -0.0001286207 -0.25651422 -0.059844125 0.99485344
gives 0.016931573 0.8263583 0.12986836 0.26025853 -0.44673067 0.570687 0.024805259 -0.22463505 -0.021982238 0.8805854
experience -0.037975 0.7313111 0.12092001 0.21547474 -0.31578815 0.52358305 -0.058496248 -0.22026545 -0.044491146 0.80212736
id 0.04266739 0.7045949 0.13436441 0.23590803 -0.35534936 0.486755 -0.04060228 -0.28743717 0.016661579 0.7782615
dividend 0.031427074 1.0251535 0.20341204 0.33831945 -0.49405935 0.78571755 -0.035500355 -0.34259638 -0.072262265 1.1100276
demand -0.04161825 0.6681776 0.1101873 0.20952159 -0.31162015 0.5145636 0.004285287 -0.24230497 0.008320233 0.7195849
group 0.008141198 1.201086 0.2048895 0.45412463 -0.5784547 0.8369433 0.009074361 -0.3622864 -0.036216002 1.3036819
hey 0.0027480617 0.49738103 0.10582947 0.21163969 -0.31709915 0.39880678 0.0051831845 -0.21720292 -0.090994366 0.6109675
full -0.06433375 0.9526709 0.2019155 0.37125906 -0.5152533 0.646141 0.031786975 -0.26643506 -0.008506222 1.042742
color -0.011996041 0.7824133 0.16735557 0.29719675 -0.359231 0.63420117 -0.027160842 -0.28862032 -0.02040721 0.88724595
count 0.037098743 0.87709975 0.15586929 0.26299155 -0.40426192 0.6668013 -0.042868398 -0.30092153 -0.036503557 0.96940726
talking -0.032206967 0.9090959 0.17513148 0.27963805 -0.38517484 0.6082041 -0.0110336095 -0.32378605 -0.07192874 0.96356547
many -0.017108608 1.1046764 0.18675594 0.40127504 -0.5277218 0.7583686 -0.06695521 -0.32819742 -0.042121276 1.1930379
particularly -0.027580414 0.8315018 0.14434576 0.29611662 -0.4278553 0.67594486 -0.030791553 -0.23805942 -0.07302408 0.91635615
pay -0.04900321 0.9600566 0.18215679 0.40117827 -0.46607417 0.716513 -0.024506094 -0.3831139 -0.08628249 1.0886571
service -0.025269695 0.9840557 0.17095761 0.35977975 -0.47209308 0.7749503 -0.008753092 -0.327285 -0.08215092 1.1269426
relatively -0.019893749 0.920003 0.18666148 0.40239087 -0.46244645 0.7364144 0.0006967424 -0.2731097 0.0029351846 1.0679883
insurance 0.046632852 1.1019291 0.19709973 0.44630328 -0.5868259 0.80407673 0.016599625 -0.3478217 -0.06408704 1.2336252
understand -0.011246815 0.8979845 0.13552026 0.27781856 -0.42865378 0.6796658 -0.026262918 -0.35350618 -0.029347256 0.9529076
teams -0.0001324058 0.95913005 0.16740416 0.31251356 -0.44620028 0.62149113 -0.019894075 -0.26146013 -0.033270508 0.969669
followup 0.055595525 0.6861128 0.13007352 0.21003729 -0.3352746 0.46438155 -0.042472128 -0.19029976 -0.08642591 0.7570828
online -0.021825034 0.9329613 0.1946093 0.34265295 -0.44749555 0.61996263 0.017665854 -0.30147308 -0.07493554 1.0110333
close 0.031547796 0.9157068 0.14222491 0.3405469 -0.4583965 0.5889009 -0.002424982 -0.32627186 -0.03489698 0.9831821
liquidity 0.0023847874 0.9384005 0.24675581 0.3594149 -0.50154465 0.68829465 -0.018332252 -0.3509801 -0.02585629 1.0884244
overall 0.042754762 1.044618 0.2522369 0.36316505 -0.4897013 0.7576519 -0.030116644 -0.38818774 -0.034120724 1.1279863
certainly 0.026517468 0.82470363 0.18063991 0.2578605 -0.42299753 0.64663064 0.017714895 -0.3164395 -0.026106905 0.9149915
anything 0.006873834 0.88188547 0.20544696 0.31040245 -0.44836992 0.6506709 0.025025804 -0.2899146 -0.024371495 0.9470399
company 0.04336624 0.92359394 0.16957393 0.38224033 -0.4930301 0.6656927 0.0002488377 -0.3528421 -0.068781495 1.0359455
piece -0.024653366 0.8440301 0.1768082 0.3413786 -0.42497712 0.6017425 -0.065502346 -0.31647006 -0.017757861 0.9219821
generate 0.02129268 0.7825933 0.16917494 0.3016596 -0.35038704 0.61707115 -0.052777685 -0.26908827 0.005853274 0.92438895
hedging -0.008554908 1.004038 0.24732815 0.34486485 -0.45454514 0.73728794 -0.02440506 -0.28540546 -0.081892684 1.0430921
relationships 0.04341647 1.0935224 0.17988203 0.3459417 -0.49523178 0.7458278 -0.019143092 -0.36235297 0.007628374 1.1329654
sensitivity 0.028455747 0.8795499 0.15067767 0.34205925 -0.4554283 0.6626653 0.024744472 -0.25702775 -0.018159775 0.97244656
initiative 0.00038340213 0.79760736 0.1383173 0.21912865 -0.38774332 0.5082265 0.015945815 -0.28590462 0.0047996133 0.8010698
came 0.027689496 0.93390864 0.19259503 0.37275195 -0.4075239 0.69603384 -0.031043777 -0.26343215 -0.084857896 1.011951
set -0.008133298 0.8099791 0.1652329 0.27562743 -0.37247527 0.58688116 -0.004830752 -0.28241497 -0.026512513 0.8851669
extent 0.03297632 0.8710031 0.20179528 0.35609648 -0.48737058 0.6821731 -0.055325117 -0.30827427 -0.06608124 0.96839535
line -0.016151194 0.88184017 0.14321132 0.38520604 -0.45045045 0.636238 -0.02327732 -0.32017705 -0.04342219 0.9725483
needs 0.006655654 1.0423548 0.2063741 0.33125147 -0.5415719 0.72572726 -0.02607783 -0.31212404 -0.051163085 1.2037026
levels -0.006185149 1.0444669 0.1688308 0.34950018 -0.46205375 0.6909704 0.017934393 -0.30115706 -0.038856644 1.1427629
corporate -0.06164547 0.96489996 0.23483628 0.3384 -0.4279515 0.66800594 -0.07128552 -0.33284885 -0.06150125 1.033302
committed 0.00041150124 0.9322207 0.15907365 0.28099108 -0.42951795 0.5928001 0.008921207 -0.33037248 -0.0051043467 1.02615
reduce -0.013183685 1.0288341 0.24430725 0.34424135 -0.54279137 0.77430576 -0.038887873 -0.33403087 -0.039250705 1.0937144
others -0.02477199 0.99310297 0.21346009 0.38015693 -0.50371486 0.73488045 0.017816635 -0.29497 -0.060549643 1.1040046
deliver -0.020429282 0.99778056 0.1538362 0.32023123 -0.45142588 0.7446028 0.009612879 -0.37187618 -0.029478416 1.0619091
services -0.025604434 0.8589787 0.17840677 0.34710887 -0.35832164 0.5774774 -0.036926266 -0.3108678 -0.073107176 0.9600965
factset 0.0009527551 1.3389007 0.29317948 0.46657518 -0.6542471 1.0169544 -0.025200555 -0.49971208 -0.0011007725 1.4717146
primarily -0.03690224 1.08629 0.23677292 0.40021238 -0.533912 0.7728657 -0.036347304 -0.3055973 -0.09379211 1.1166711
nonbank 0.041771635 0.761161 0.17653903 0.2505469 -0.42843986 0.6095721 -0.0062297015 -0.2624281 -0.007924955 0.89873964
become -0.002460543 0.99041003 0.15291786 0.38191605 -0.44925675 0.6793083 -0.07239243 -0.33583227 -0.019351542 1.0890384
betas -0.044507556 0.66735095 0.14069757 0.21629186 -0.3760925 0.5448185 -0.045610487 -0.2696709 -0.024946548 0.71048665
head -0.0037360522 0.922856 0.17713872 0.3016776 -0.42674014 0.6217251 0.027085843 -0.30241737 -0.056403477 1.0121974
quarters -0.05272028 0.81391215 0.17156385 0.27272332 -0.43231064 0.59692734 0.031108283 -0.22648613 -0.054979477 0.8723375
fee -0.008140199 0.6796036 0.15907286 0.21680239 -0.34250337 0.5382257 -0.05128413 -0.25024435 -0.040176358 0.73872066
type 0.023465095 0.76618075 0.18536104 0.28443488 -0.40652132 0.6008942 -0.031143988 -0.3001196 -0.07344992 0.8991429
credits 0.00019931994 1.2290022 0.29307 0.45329767 -0.6477899 0.92039937 -0.049010657 -0.4208237 -0.07340971 1.3647455
matt -0.033736885 0.52941144 0.10182911 0.14958669 -0.23011635 0.41848087 0.006132072 -0.19732405 0.023296649 0.6382234
certain -0.045180332 0.98979247 0.16068186 0.37996706 -0.52489936 0.7570242 -0.04960244 -0.29550087 -0.024283262 1.081846
course 0.012636604 0.823932 0.18610623 0.32147238 -0.43423 0.5240803 -0.06546186 -0.25809675 -0.082611464 0.8190577
largely 0.02045744 1.1298109 0.20041281 0.3892579 -0.60619605 0.7871289 -0.046449307 -0.3676812 -0.08883472 1.2442225
short -0.006337153 0.8567682 0.13136324 0.3613683 -0.4490708 0.6519408 -0.061149612 -0.3291548 -0.018064667 0.958827
started -0.031290155 0.81497395 0.16695736 0.23652612 -0.3945505 0.5605617 0.03725053 -0.25807518 -0.016306574 0.88708353
board 0.018370822 0.9581228 0.16487965 0.3325343 -0.49748462 0.74675614 0.0038741662 -0.32101047 -0.018620646 1.0896037
comes 0.02342191 0.92367667 0.13348788 0.28659 -0.4283792 0.70872736 0.015683295 -0.32479867 -0.014195634 1.0466446
since -0.012490119 0.88610435 0.14331949 0.3544995 -0.40593147 0.6727793 -0.042978734 -0.33419773 -0.07422597 0.9451355
prepared -0.0073010577 0.9213967 0.23152742 0.3282583 -0.46420068 0.6755592 0.016923402 -0.3524292 -0.05061945 1.0353978
wed 0.04610113 0.7427718 0.19615838 0.27164656 -0.415757 0.5545832 -0.028410653 -0.2949888 -0.012579358 0.7755899
key -0.022140635 0.7912424 0.1476484 0.30783406 -0.4133113 0.6032818 0.00061453873 -0.2278401 -0.061056223 0.93429476
footprint -0.049405534 1.04058 0.25059193 0.36659095 -0.45556512 0.73935395 -0.05502149 -0.31045088 -0.0066012363 1.1082252
future -0.040557932 0.7271771 0.18119787 0.24624786 -0.41184634 0.5646452 0.017609539 -0.2945273 -0.05589738 0.84010535
faster -0.035192773 0.7246709 0.16985027 0.304111 -0.37247565 0.56022274 -0.041377615 -0.21449856 -0.04913111 0.77258486
moving 0.012733142 0.84461087 0.18910697 0.2971703 -0.46579397 0.5957011 0.001064448 -0.31883255 -0.02024562 0.93147415
lets 0.04207131 0.79144585 0.10438076 0.2981256 -0.38731772 0.53507715 -0.044258904 -0.28110415 -0.029850364 0.8214386
fixed 0.041980945 0.8843497 0.1551357 0.35229275 -0.4746533 0.68052256 -0.0663629 -0.317773 -0.0065847696 1.0010079
losses -0.030303886 0.935577 0.1661206 0.3009603 -0.4303159 0.62541145 -0.017212478 -0.36374077 -0.0037809731 1.0458932
try 0.026616866 0.89728373 0.17490238 0.35011137 -0.47235715 0.68724406 0.017010603 -0.33264956 -0.042110473 0.95836174
either -0.029465409 0.7908983 0.18967384 0.32665658 -0.34600204 0.6387831 -0.049035266 -0.26553294 -0.08471047 0.8617434
sense 0.04573582 0.60082924 0.16549934 0.20355287 -0.2773212 0.49721074 -0.051635917 -0.18774001 0.009239992 0.7196881
solid 0.021749688 0.6136045 0.16130136 0.25701737 -0.28102258 0.46759033 -0.028153792 -0.20436008 -0.0013912639 0.65939397
though -0.039058663 0.9550807 0.14640297 0.3193748 -0.4790386 0.67696536 0.02556901 -0.3474421 -0.0016387645 1.040889
invest -0.050739076 0.7666125 0.18888132 0.22928943 -0.31274667 0.5229655 -0.062150635 -0.27610138 0.0007900007 0.836046
meet 0.01421725 0.86798847 0.19316415 0.3387574 -0.4264315 0.5593614 -0.050997052 -0.23898898 -0.044539988 0.8962236
looks 0.009169812 0.6263563 0.14992267 0.2839703 -0.30299675 0.50489205 0.009771462 -0.29076007 -0.057265814 0.77433527
additional -0.016956503 0.79707885 0.13588998 0.30079585 -0.38885552 0.513956 0.022476047 -0.27341297 -0.028730359 0.8035495
comments 0.022854453 0.73045826 0.10584794 0.22174354 -0.30811137 0.50328076 -0.014701945 -0.27572718 -0.062501915 0.7657906
ai 0.04541383 0.9964106 0.19863018 0.37476593 -0.46565804 0.71072423 -0.038269866 -0.3166248 -0.025364745 1.0684379
continues 0.02817668 0.76610476 0.112387575 0.29777357 -0.3473567 0.5327124 -0.06125466 -0.29809636 -0.06834885 0.8733917
loss -0.054463375 0.84797835 0.20670336 0.29038653 -0.41987106 0.56679904 -0.051080268 -0.2538446 -0.051557384 0.9288842
earnings -0.009799135 0.72260803 0.13615666 0.26702994 -0.31651756 0.5630333 -0.050935112 -0.23926684 -0.07495806 0.7576014
provide -0.05111348 0.83200973 0.121784605 0.33557466 -0.41493303 0.61082995 0.028926756 -0.27528426 0.009317912 0.9328321
current -0.0056210402 0.6911012 0.13530381 0.2284379 -0.29272544 0.4618585 0.019167587 -0.2101301 0.008277714 0.74633867
smaller 0.014648892 0.8788851 0.17112109 0.31678754 -0.38176447 0.6222348 -0.027073255 -0.31116012 0.016160926 0.9655181
llc 0.026306797 1.1537064 0.23822245 0.4252904 -0.58080095 0.78916335 -0.013653959 -0.36212662 -0.01900525 1.2163255
economic 0.040213004 0.74411803 0.19891138 0.31300133 -0.35197508 0.5628213 -0.0016923834 -0.23599757 -0.05873818 0.85911584
commitment -0.01762575 0.785948 0.18558143 0.30111971 -0.37366235 0.54936063 -0.06522819 -0.28769597 -0.046804186 0.8377651
acquisitions 0.033930235 0.6809113 0.1859599 0.3038142 -0.34107766 0.48679543 0.015253251 -0.21556413 -0.053284597 0.7461038
exactly 0.0038562901 0.5448779 0.121760495 0.18168478 -0.24536742 0.3694295 0.036634553 -0.24076281 0.013401957 0.6436203
adjusted -0.049519904 0.6012294 0.16236 0.16814882 -0.32410765 0.43447098 -0.025490083 -0.20040183 0.014149731 0.6201995
erika 0.00024013373 0.49107403 0.13335717 0.12229679 -0.27670518 0.3330025 -0.011551898 -0.14555441 -0.014580907 0.5243107
perhaps -0.04724406 0.75515646 0.17525908 0.25000608 -0.3237452 0.5543532 -0.03432074 -0.3093138 -0.05109676 0.84456265
hear -0.041976336 0.6459685 0.14200574 0.21262851 -0.3143217 0.45126307 0.021916127 -0.17027552 -0.039522897 0.73847693
continued 0.03585972 0.71142006 0.14214596 0.2693543 -0.3865689 0.53448504 -0.065407164 -0.23625237 -0.018558083 0.78002495
ken 0.014348245 0.58114034 0.1178081 0.19340305 -0.2484087 0.44711176 -0.020351965 -0.1897366 -0.07583285 0.6155324
saying -0.04297666 0.7168631 0.12679125 0.28134802 -0.36926818 0.5282984 -0.032852296 -0.22749186 -0.05909173 0.80508786
percentage -0.034720935 0.82931083 0.17580149 0.25772247 -0.3637385 0.55138665 -0.015656594 -0.25656608 -0.0011924694 0.8944048
companies -0.009488004 0.9863428 0.21421511 0.3861157 -0.54157114 0.69461054 -0.024628282 -0.31302848 -0.056791548 1.116471
results -0.022062184 0.7294597 0.11968659 0.22687487 -0.38551247 0.51574606 -0.008470974 -0.24101521 -0.04865505 0.8548361
wont 0.028924016 0.5564433 0.16514707 0.17511937 -0.25716862 0.4552671 0.0041170698 -0.22843382 -0.04160338 0.7049237
value -0.0074290605 0.97119445 0.21553099 0.38781908 -0.42772964 0.714074 -0.021573607 -0.3528915 -0.046972025 1.0797288
potential -0.011466449 0.8420123 0.17010193 0.32110745 -0.44770452 0.58675236 -0.048992556 -0.2637257 -0.016018447 0.9310593
system 0.028255481 0.5916 0.11467633 0.16659625 -0.33829093 0.3999212 -0.027044531 -0.21043527 0.0146371685 0.71776015
gdp -0.0036141055 0.6226815 0.1286452 0.21228111 -0.33324426 0.46914294 -0.033814024 -0.18963297 0.008434011 0.6750507
continuous -0.0143728545 0.809806 0.16064097 0.26491132 -0.37443537 0.58625495 -0.019000238 -0.31869587 0.014062162 0.9089044
least -0.0040594535 0.6603943 0.12036298 0.2978966 -0.32109684 0.51479924 -0.06275717 -0.22598583 -0.06483089 0.75480914
threeyear -0.0010792481 0.7844861 0.10830138 0.30036587 -0.37900984 0.56205434 -0.02028455 -0.29022014 -0.009185003 0.8638578
efficient 0.0054228352 0.62526375 0.11934707 0.17313062 -0.33355674 0.49506596 -0.055098504 -0.2308089 -0.04703736 0.6534247
front -0.02525642 0.78755283 0.15127023 0.3132589 -0.3355454 0.5197103 -0.05410398 -0.22387153 -0.028834196 0.7797732
reserve -0.008924734 0.78096324 0.11477482 0.31800294 -0.39653173 0.6121309 -0.011622346 -0.2582049 -0.007415148 0.8371323
earning -0.037539285 0.6994754 0.17999128 0.25212863 -0.34623745 0.5715195 -0.054467533 -0.2924092 0.00129706 0.8445539
cash -0.0061450345 0.9511856 0.21997593 0.30512312 -0.5005263 0.64003193 -0.0398565 -0.31640598 -0.038595255 1.0139308
beginning -0.042369902 0.63677526 0.16863064 0.27093065 -0.3273957 0.44142193 0.023547186 -0.22735067 0.0145104965 0.72771543
nim -0.03709971 0.6043618 0.1625828 0.18238433 -0.2933958 0.4759832 -0.0058675096 -0.25290993 -0.025555164 0.7107071
deal -0.045728177 0.76018566 0.16130827 0.30181304 -0.37407923 0.5705546 -0.055854786 -0.31250542 -0.07905553 0.8259799
excess 0.047564406 0.6790944 0.19144243 0.2874031 -0.3877254 0.5015894 -0.030275188 -0.2598412 -0.068714514 0.7796196
average 0.021007039 0.80254835 0.12230037 0.33083326 -0.4153605 0.5720727 0.028904963 -0.2365813 -0.039596353 0.8723408
chargeoffs 0.017370436 0.70953804 0.12167877 0.28474048 -0.38525125 0.49451512 0.02520526 -0.25467056 -0.05133207 0.7024069
fast -0.025670802 0.9018832 0.12579373 0.33143082 -0.40093002 0.65759754 0.031386316 -0.24830928 -0.08559053 0.9743122
driver 0.013994974 0.65356266 0.15270837 0.26759693 -0.25395882 0.4344216 -0.044468656 -0.18490624 0.014182725 0.68788105
update -0.04739424 0.63381684 0.112628795 0.1956793 -0.3040422 0.454382 0.012125576 -0.15474117 -0.004543646 0.61936474
tax -0.02685201 0.76117384 0.18871394 0.31109005 -0.3895371 0.52642816 -0.017346507 -0.21825598 -0.07027411 0.901243
transaction -0.046616834 0.6357094 0.1521145 0.27388865 -0.34237573 0.41917554 -0.0228565 -0.24282564 -0.03373164 0.69195455
mids 0.0064710253 0.46879983 0.13559912 0.1538193 -0.21786304 0.3762414 -0.04785555 -0.17662703 -0.002594462 0.5518816
decision -0.029648317 0.79366016 0.20336954 0.25664234 -0.3779983 0.65718067 -0.012520832 -0.24497826 -0.0035765707 0.9189418
scale -0.019916654 0.78564453 0.14112985 0.2552018 -0.37793383 0.59480846 0.025313206 -0.29351753 0.01116781 0.960279
interested -0.012824338 0.7555593 0.17243573 0.25219998 -0.39394796 0.55940133 0.027364358 -0.22564468 -0.053405028 0.8780631
baked -0.022501776 0.52956253 0.08016248 0.1497962 -0.26425925 0.37959042 -0.0465509 -0.19087517 -0.0225389 0.5905421
incremental -0.054512396 0.6802252 0.09751217 0.2813932 -0.35403204 0.47728685 0.015649984 -0.25138023 -0.009410228 0.77814037
beyond -0.03946441 0.722089 0.19587874 0.24671835 -0.32196343 0.5759543 0.023228155 -0.27100766 -0.045541603 0.7683907
heard 0.021920653 0.75928587 0.16122805 0.20583756 -0.39513895 0.5008241 -0.06732178 -0.250868 -0.044121645 0.77308947
debt 0.033452217 0.7533719 0.12176167 0.28671035 -0.37979776 0.50744766 -0.020687848 -0.28185606 -0.061319023 0.8770249
contact -0.042204946 0.6835278 0.17588662 0.22696719 -0.36790523 0.5073568 0.039850812 -0.18950628 -0.07836366 0.82604074
recently -0.044593472 0.80585796 0.14676122 0.29398125 -0.3462766 0.5951576 0.010799359 -0.2834744 -0.004916775 0.86022407
ways 0.03232013 0.6173863 0.095185295 0.21249631 -0.3265837 0.42736384 0.01598989 -0.18851446 0.021709815 0.686066
larger 9.8029996e-05 0.7027796 0.14515251 0.2550131 -0.35869846 0.55908114 -0.033325817 -0.19748357 -0.061086647 0.8391996
card -0.0014082597 0.91535246 0.12911208 0.32117772 -0.40840855 0.65383327 0.012420489 -0.2477045 -0.0065740114 0.92246056
consistent -0.04632008 0.6940739 0.15316284 0.24789603 -0.3283733 0.5191052 0.0012939264 -0.21851592 -0.056780543 0.6844697
profile -0.0024883014 0.6077811 0.15704805 0.19277407 -0.3302542 0.43088868 0.0099000735 -0.22074117 -0.04484055 0.7064476
easier -0.048204243 0.4916879 0.14709699 0.16051786 -0.24139233 0.2896102 0.038097613 -0.11042561 0.037900727 0.4535492
yield -0.010510296 0.8009393 0.21428718 0.30169976 -0.42015246 0.63551116 0.029169783 -0.30892402 -0.06966054 0.9288575
strong 0.042402487 0.6405309 0.113980435 0.19891652 -0.3222306 0.46868265 -0.010156843 -0.2248021 -0.06914825 0.71074533
managing 0.04011514 0.75070924 0.10224506 0.30747 -0.36535195 0.52559793 -0.033764385 -0.23892406 -0.0019809022 0.7959671
information -0.0367785 1.0432622 0.2536424 0.3165993 -0.53399974 0.71558726 -0.06424727 -0.37529397 -0.0105900485 1.0850191
starting -0.021375293 0.7389163 0.18924725 0.3175701 -0.40163115 0.58624023 -0.03692459 -0.29271632 -0.015978986 0.80710506
buyback -0.019679207 0.6761282 0.09180566 0.21416575 -0.4045986 0.5312065 -0.03555864 -0.24784586 -0.047167026 0.80284804
swaps -0.014710599 0.75696594 0.16089794 0.33652204 -0.35182002 0.5453089 0.017221564 -0.2476153 0.003571484 0.9049317
gone 0.028968573 0.73033106 0.1152606 0.25669646 -0.37946898 0.6081792 0.020977806 -0.24345689 0.014417484 0.85737795
clients -0.028972067 0.72859275 0.11584503 0.28507796 -0.3658476 0.47490716 -0.049939543 -0.25957984 -0.03700016 0.75427055
generally -0.00912629 0.7681255 0.17499113 0.22052722 -0.3222857 0.52119684 0.0022234963 -0.2604474 -0.056079663 0.82851106
servicing -0.04187013 0.91447157 0.1671002 0.31509754 -0.43369022 0.6739297 0.018316036 -0.29807276 -0.029473854 1.0043185
later 0.013917791 0.67011166 0.10047347 0.25491643 -0.27528194 0.45255506 0.0011223865 -0.19458354 -0.061963975 0.731848
gets 0.016383639 0.8450026 0.20607252 0.27397296 -0.45474574 0.5849353 -0.013310595 -0.29762882 -0.0636952 0.9018358
production -0.04044422 0.7037461 0.14065365 0.22449306 -0.39632946 0.5402283 -0.029371751 -0.2009571 -0.07237867 0.7937959
comment 0.023043914 0.65904284 0.120094724 0.19538356 -0.2963383 0.4221889 -0.012031162 -0.22299756 -0.016381668 0.64338845
systems 0.0017990327 0.69696385 0.11602942 0.25253427 -0.32309848 0.58223623 -0.047415365 -0.20327611 -0.0042062914 0.8465681
havent -0.0027777462 0.61447865 0.122604325 0.25738627 -0.34282973 0.43633553 -0.043323293 -0.195503 0.017282004 0.69729584
size -0.00627114 0.60030633 0.16025501 0.22956306 -0.27202123 0.48178312 0.001799777 -0.24313325 -0.0690849 0.68617654
places 0.04283587 0.55407774 0.15006217 0.15708809 -0.273306 0.45751753 -0.06308769 -0.16665404 0.014201579 0.6800689
together -0.017258283 0.5986797 0.14043827 0.21723855 -0.33429024 0.42054388 -0.0155336475 -0.21515484 -0.069374755 0.61956465
products 0.040857743 0.78188396 0.18228276 0.25514552 -0.40486056 0.5299782 0.008717117 -0.23727278 -0.055548925 0.7753706
metrics -0.020179363 0.66559994 0.10825023 0.25060624 -0.3613923 0.4767143 0.017536933 -0.1950758 -0.042139888 0.728315
criticized 0.021035202 0.8352402 0.20797312 0.29226047 -0.4378468 0.5543187 -0.011675544 -0.2994209 -0.08360101 0.8911432
duration 0.04208962 0.6720839 0.089182496 0.24549004 -0.36307612 0.44732988 -0.0034530913 -0.24778037 0.009791417 0.7916478
pick -0.049145374 0.78977096 0.11187385 0.29311576 -0.43569633 0.5909051 0.0070502125 -0.22076853 -0.081226 0.9167267
respect -0.023101674 0.73424304 0.19639735 0.28879857 -0.3385353 0.5187485 0.012614853 -0.2690858 -0.04448484 0.8266017
activity -0.012113767 0.6323483 0.17660952 0.2249558 -0.3374664 0.52018523 -0.06330522 -0.22571306 -0.048182394 0.66590315
consistently 0.03542923 0.67255366 0.10337325 0.2082796 -0.3477443 0.48092586 0.020772707 -0.24229029 -0.044583064 0.76019543
investing 0.022584183 0.68096894 0.12514168 0.25933427 -0.36383656 0.5207447 0.021186592 -0.2694469 0.008961449 0.82100147
confidence 0.0037821494 0.6328326 0.1033276 0.19823517 -0.26312208 0.44208074 -0.07056487 -0.14768016 -0.014164697 0.6670536
giving 0.016286992 0.57474583 0.12364412 0.23497044 -0.29782555 0.40084377 -0.040240295 -0.23765966 0.021013848 0.58704966
grew -0.03129591 0.672716 0.15149678 0.27623457 -0.36491463 0.4721915 0.010930051 -0.20981424 -0.06572073 0.74760765
enough 0.00090674724 0.6754906 0.18404587 0.24587817 -0.36000088 0.52248913 -0.022682695 -0.22745402 0.014062275 0.8243311
five -0.020258605 0.6019743 0.12532113 0.25785297 -0.26629245 0.4559834 0.034356263 -0.21301238 -0.015481535 0.72937703
digit 0.015504399 0.6303472 0.1409849 0.2011592 -0.3094346 0.4580148 -0.047815 -0.22524045 -0.030713381 0.6835545
challenge -0.020587502 0.66574556 0.08996793 0.20417641 -0.29826868 0.4380635 -0.032271933 -0.21515304 -0.04668806 0.65029895
deron -0.04889904 0.74076766 0.17327301 0.22208571 -0.3872123 0.4765835 0.02459005 -0.21636221 -0.021683598 0.79725474
acquisition -0.04065328 0.8174096 0.20944175 0.28455883 -0.37027034 0.5221012 -0.0042899707 -0.26488835 -0.03473576 0.9029356
corp 0.0027340697 0.64472836 0.08286985 0.20592801 -0.30230406 0.44559777 0.01513052 -0.16363314 -0.0008718604 0.69304484
sustainable 0.0035691066 0.65384644 0.09170552 0.20897491 -0.28008243 0.4007303 0.023143984 -0.17737949 -0.02269246 0.7373479
running 0.043287612 0.6142332 0.14311902 0.1603672 -0.27289963 0.4653159 0.012016525 -0.23613977 0.017138297 0.64652455
case 0.0038130227 0.6764505 0.17757116 0.2896008 -0.3047771 0.46888596 -0.02408474 -0.21427175 0.0037889862 0.7188666
forecast -0.04489013 0.60394245 0.0918824 0.1624156 -0.31494042 0.46432918 -0.005483378 -0.21815322 0.005772993 0.67011654
putting 0.04617666 0.7744476 0.15083411 0.2605338 -0.39888093 0.53004456 -0.022842497 -0.25675824 -0.05003437 0.793967
benefits 0.023466192 0.5677551 0.13674413 0.18461002 -0.31138083 0.47690022 0.007022554 -0.17865607 0.00062384165 0.7059275
betsy 0.01760748 0.34275836 0.10135586 0.14189026 -0.22870928 0.27604055 -0.010831176 -0.14197491 -0.019490864 0.4254975
pace -0.034138706 0.66820896 0.16170645 0.23036298 -0.29878816 0.48994982 -0.056229673 -0.19834433 -0.03582981 0.673474
expected -0.022202868 0.57605547 0.11423104 0.16460648 -0.33718187 0.44452944 -0.04343467 -0.16892673 -0.06148806 0.6317103
fair 0.00790044 0.7125976 0.11967458 0.21649517 -0.30505452 0.53515095 0.019499015 -0.2076594 0.0037515599 0.79310757
model -0.04894037 0.791564 0.16817218 0.29480717 -0.4491366 0.6255515 -0.047175862 -0.31958312 -0.033971656 0.9222064
seems 0.043162916 0.49393535 0.13074198 0.23266469 -0.25271758 0.37350562 -0.05092954 -0.14069739 -0.06318232 0.5829324
makes -0.024416361 0.87345386 0.13204989 0.34350604 -0.37454447 0.5673941 -0.0448005 -0.27154627 -0.03658469 0.9495188
preferred 0.015491936 0.71118283 0.18077452 0.20330316 -0.3317596 0.434336 -0.047082115 -0.22454414 -0.042306513 0.70606893
expensive -0.026657915 0.8251322 0.18232945 0.3046334 -0.36033726 0.61756164 -0.0660706 -0.22133172 -0.011639966 0.8643079
closer -0.01567798 0.7085375 0.134774 0.2834464 -0.38823435 0.513783 -0.0015403492 -0.16352573 -0.045877315 0.7107585
several -0.024755003 0.69064385 0.1506995 0.29518095 -0.33947414 0.5536933 -0.015268777 -0.19246113 -0.053276345 0.7710025
bigger 0.007556218 0.58259493 0.09448358 0.2124951 -0.26695502 0.4420036 -0.046989057 -0.22771747 -0.06788564 0.6654742
shared 0.03402975 0.7979328 0.19668557 0.32260188 -0.3886433 0.538183 -0.041547388 -0.26604298 0.0063826987 0.898408
laid -0.04825219 0.73850626 0.14868157 0.2829853 -0.343545 0.52479887 -0.04663159 -0.2953011 -0.011367161 0.810436
large 0.035129696 0.67068 0.17450593 0.26361746 -0.3476258 0.5057439 -0.015524168 -0.20170939 -0.062043555 0.7956357
stock -0.026126478 0.4973843 0.120211124 0.17783065 -0.26131284 0.34887233 0.0066325823 -0.21511146 -0.03928208 0.56723624
client 0.02317364 0.80482143 0.14570045 0.3114821 -0.40413854 0.56149375 -0.017787537 -0.24700397 -0.02346414 0.8692111
allow 0.016873349 0.56111217 0.07304025 0.21136996 -0.2988254 0.4519863 -0.018963812 -0.14087601 -0.016862517 0.6295573
form -0.03214256 0.6504528 0.1506944 0.21352275 -0.30075678 0.435011 -0.0462845 -0.168819 -0.069861464 0.75594056
callstreet 0.010337686 0.95553 0.16483335 0.28099978 -0.4302711 0.72312367 -0.043407276 -0.36257422 -0.042844653 1.0793017
product 0.045616783 0.7403481 0.15561785 0.22985561 -0.3974734 0.5249291 -0.020638213 -0.22648978 -0.051459968 0.8915849
trade 0.0015942071 0.615246 0.17239693 0.21040164 -0.34859592 0.47422048 0.012319936 -0.25276414 -0.032293927 0.7217761
takes 0.04522732 0.6163724 0.17135662 0.20589517 -0.28372395 0.48862803 0.01945417 -0.18162838 0.0014037986 0.6850669
transactions 0.022137297 0.7107826 0.11859391 0.25849304 -0.3529004 0.5158157 -0.032406196 -0.2337671 -0.00881596 0.79685974
open -0.0014472484 0.57988924 0.17093836 0.20971751 -0.25676614 0.39654428 -0.0208171 -0.19234431 -0.061950088 0.7143682
channel -0.017074713 0.80471915 0.16392605 0.25339848 -0.3878088 0.5705303 -0.06873303 -0.2837861 -0.08337057 0.8127003
small -0.028457964 0.7182788 0.16024949 0.21379893 -0.34767824 0.5483265 0.01433907 -0.21169794 -0.03755295 0.78551877
pipelines -0.03322053 0.52737683 0.0870818 0.22204848 -0.24867131 0.44312933 0.030804798 -0.21660747 -0.043234296 0.6338539
happens 0.008460422 0.65207297 0.10101512 0.27012286 -0.38861203 0.49089494 -0.06787415 -0.27883348 -0.022859277 0.7540147
effectively 0.014418957 0.6884096 0.12927231 0.2641702 -0.3631477 0.49159402 -0.04618807 -0.27650696 -0.008456251 0.7706245
sector 0.0076492964 0.89686054 0.12797618 0.26759213 -0.38861144 0.6571045 0.0032916465 -0.26169577 -0.08940096 0.9487096
derisking -0.047683295 0.67409277 0.16096081 0.22384149 -0.33913183 0.4908205 -0.012921656 -0.23127759 0.0037722639 0.76374805
balances -0.011279236 0.64189154 0.11715835 0.26860026 -0.38046712 0.48973557 -0.037945114 -0.2520482 -0.007447613 0.7455097
fund 0.03076922 0.62943 0.11572798 0.24900286 -0.3428209 0.46794173 0.01714257 -0.24372938 -0.009573377 0.7508571
funding -0.046807397 0.59727824 0.14865242 0.2368782 -0.31580406 0.43897727 0.03528914 -0.20702717 0.005000803 0.6567654
optimize 0.028751094 0.479032 0.08766768 0.17829233 -0.23293732 0.3346084 -0.010923483 -0.10134849 0.02097457 0.49037188
national -0.047675945 0.7800788 0.119187765 0.3123839 -0.36913744 0.49097 -0.019040827 -0.27758265 0.013283691 0.84024924
hit 0.023895234 0.6420723 0.15447907 0.23304519 -0.33898154 0.5096567 -0.029798184 -0.27496007 -0.0365735 0.70283705
parts 0.007094006 0.5144768 0.120735414 0.21333441 -0.2718647 0.37065694 -0.013668793 -0.14357415 -0.009927427 0.5947134
began -0.055217836 0.68876314 0.102021195 0.23621444 -0.32234907 0.48908162 -0.03513478 -0.19854458 0.008871864 0.7691822
cuts 0.01303334 0.70043063 0.086121164 0.24027722 -0.29076084 0.50728303 -0.00069439324 -0.26105574 0.0068922574 0.6798162
helps 0.028342852 0.6737839 0.13018475 0.22641474 -0.36583692 0.44825318 -0.056616686 -0.17997071 -0.07189963 0.71690357
push 0.013916252 0.52439475 0.10805786 0.2376115 -0.25989094 0.37784752 0.03439769 -0.1823603 -0.021547478 0.5881655
asked -0.013724136 0.5609747 0.084002376 0.1645771 -0.23788768 0.46044672 0.023169028 -0.1495495 -0.07467853 0.59380287
downturn -0.032227103 0.6431799 0.1275958 0.23146282 -0.26911578 0.42463097 -0.04499939 -0.2292525 -0.010264967 0.6539159
whatever -0.016612178 0.79130125 0.17518531 0.2778172 -0.35005212 0.5360664 -0.054453682 -0.30160558 -0.063133046 0.7980844
reduced 0.0399108 0.76967776 0.12999627 0.24938981 -0.41914988 0.53652227 0.025087614 -0.25540382 -0.021520505 0.80500716
protection 0.018513361 0.76105446 0.15461116 0.30398464 -0.4208994 0.5702672 -0.060051363 -0.22155918 0.010480824 0.85716313
upon 0.038498927 0.76872057 0.13388819 0.27108547 -0.42717892 0.51512897 -0.0061795963 -0.30235255 -0.051264882 0.8622391
life 0.009328818 0.6332045 0.10595888 0.21977727 -0.27110124 0.407065 0.019168746 -0.23237729 -0.057231054 0.69398594
limit -0.045356527 0.6601172 0.14879303 0.2927485 -0.31470114 0.5363492 -0.029735917 -0.1913089 -0.07749505 0.7306451
protect -0.025044505 0.6326466 0.1413858 0.25182647 -0.35273248 0.4572755 0.009186938 -0.19824195 0.012628536 0.70180327
along 0.028084753 0.5371176 0.13680443 0.17003445 -0.23998423 0.3681709 0.032965157 -0.16372086 -0.025497213 0.5789836
exit -0.012688405 0.5753364 0.14302458 0.18006773 -0.26026604 0.45381355 0.02715655 -0.16933396 -0.03361806 0.6546633
else -0.035077237 0.6902828 0.18143177 0.23457111 -0.3581746 0.48075995 -0.019481229 -0.26655617 -0.013566975 0.821085
disciplined -0.036102466 0.4796155 0.0987151 0.18479398 -0.24036828 0.33167267 -0.04030862 -0.097927 -0.0005765391 0.49639028
currently -0.049334593 0.56728005 0.12101164 0.2140932 -0.30861956 0.39737448 -0.019363143 -0.15141588 0.021811325 0.59501266
retail -0.013124288 0.6563275 0.14149632 0.20808001 -0.3355587 0.47178748 -0.0021728356 -0.2314266 0.023002004 0.7010035
wholesale 0.013325867 0.64394814 0.11612673 0.2609496 -0.34998935 0.4793021 -0.068094864 -0.25034222 0.019662255 0.7474629
matter -0.02673787 0.5826491 0.1471418 0.22852261 -0.31959477 0.4203225 0.013051972 -0.14709856 0.0015897689 0.64309776
yet 0.017971529 0.497644 0.08535865 0.17868374 -0.2664049 0.36102346 -0.026924664 -0.15937288 -0.034948613 0.5244632
similar -0.04740576 0.5713166 0.115075834 0.20644504 -0.33319372 0.41973177 -0.045441836 -0.14945868 -0.045166615 0.6478474
gave 0.027718462 0.51110035 0.10638886 0.23556948 -0.243232 0.37922615 0.02589383 -0.17258556 -0.073018365 0.57565695
wouldnt -0.008801963 0.6097984 0.15482412 0.2175942 -0.27689734 0.44947773 -0.03094911 -0.15956092 -0.0035968206 0.62743896
everything -0.019279497 0.6625449 0.14833368 0.24978592 -0.2923089 0.45206633 -0.060400575 -0.18741947 -0.052357804 0.7127763
atlanta 0.012111851 0.6925814 0.124058455 0.27121425 -0.33751974 0.51409715 -0.062866315 -0.27918214 -0.024556044 0.75340724
building 0.043541998 0.5876493 0.07867974 0.24798086 -0.2599602 0.4484873 -0.007858731 -0.19136022 0.01541926 0.71620584
specific 0.046711124 0.6953071 0.16349745 0.19619831 -0.29740128 0.5039608 -0.053222775 -0.20070155 -0.04858412 0.786756
find 0.04056428 0.6886211 0.17994516 0.28124338 -0.30560237 0.48027703 -0.026161233 -0.28511885 -0.04828065 0.776818
perspective -0.029030764 0.54113483 0.108793974 0.22361267 -0.30143797 0.38530725 -0.04438609 -0.22776017 -0.01722186 0.58495545
operate 0.040054925 0.5353431 0.12970056 0.23345406 -0.23497842 0.3779532 0.013037558 -0.2012301 -0.014007517 0.6783285
never 0.021889511 0.6955266 0.11183502 0.25126693 -0.35703465 0.47786435 -0.03665732 -0.25490654 -0.05895114 0.71119493
decline -0.03761177 0.5941885 0.12809719 0.16224138 -0.25408632 0.3850275 -0.034136195 -0.18986316 -0.030851321 0.64486414
bring -0.019556325 0.58830076 0.123071134 0.21945107 -0.3225413 0.38198623 -0.021968745 -0.22053124 -0.04540887 0.65359503
ought -0.02803576 0.38365132 0.04046645 0.18151076 -0.22845937 0.29247212 -0.022615865 -0.08959856 -0.009077637 0.43816692
changing 0.01217676 0.57365316 0.12804209 0.18677105 -0.23565166 0.41390732 0.0007982931 -0.18533342 -0.036637835 0.622472
improving 0.0286987 0.5612441 0.124762446 0.19232509 -0.29501024 0.4138677 -0.051516708 -0.17040955 -0.03110557 0.6172051
execution -0.020372039 0.73782563 0.09944878 0.22440255 -0.36470932 0.4774195 -0.02406357 -0.24301796 -0.02832899 0.7729724
achieve 0.016941443 0.7159707 0.16613762 0.20037799 -0.31332156 0.53296816 0.0054064407 -0.18891592 -0.022448674 0.7464142
math 0.019789614 0.4959068 0.13427313 0.21135525 -0.29368472 0.32452768 0.008138053 -0.13880104 -0.048891433 0.53151894
used -0.019474156 0.52273136 0.12980333 0.21361558 -0.24499711 0.4264974 0.02756904 -0.13862832 -0.0069682645 0.6229928
begin -0.02249069 0.5673884 0.08114571 0.25592476 -0.33448973 0.385438 -0.005564831 -0.24215259 -0.03904836 0.6542907
cut 0.010752867 0.55668145 0.14605787 0.19701791 -0.23731083 0.3571524 0.029797858 -0.1721325 0.006107845 0.6127178
savings -0.028847393 0.5192125 0.14201571 0.1671696 -0.24257539 0.42479175 0.027471947 -0.1275826 -0.010406229 0.59310377
industries 0.042577643 0.8191837 0.19976553 0.2647528 -0.40325776 0.56309205 -0.024281384 -0.2556027 -0.06760782 0.8924
concentration -0.051106595 0.6883765 0.11387349 0.23698694 -0.3268688 0.51314247 -0.00928302 -0.29437423 -0.047682308 0.7696483
pricing -0.030297594 0.52912885 0.13114984 0.2007547 -0.24997155 0.37100735 0.008459738 -0.21876812 -0.024759462 0.58086836
increases 0.002875514 0.6584774 0.075026624 0.24710353 -0.34429243 0.46198183 -0.046022825 -0.19808224 -0.055692233 0.6838578
sorry -0.04284772 0.44290137 0.062105224 0.20258313 -0.19578603 0.37042496 -0.029620325 -0.13872397 -0.06735204 0.46779633
thatll -0.0060508987 0.5394218 0.12659977 0.186736 -0.31168243 0.41461235 0.018751385 -0.1710177 -0.03196058 0.6307059
lowsingle 0.012038435 0.60696405 0.09106529 0.22471555 -0.26158765 0.47794327 -0.01675245 -0.2077301 -1.3265965e-05 0.6138993
specialized 0.031510606 0.8636725 0.17352082 0.26073042 -0.40701273 0.5734647 -0.03786733 -0.28055394 -0.07656252 0.85375905
likely 0.012773877 0.626 0.14176963 0.26111215 -0.3287196 0.50620306 0.014414314 -0.19989243 -0.0015823256 0.6823766
leveraging -0.022378946 0.5420584 0.0783224 0.21422066 -0.31060436 0.39685023 -0.040522814 -0.1714445 -0.020013914 0.6179493
order 0.044787362 0.61415476 0.15948766 0.21251354 -0.35196465 0.4566993 -0.011987597 -0.18287219 -0.032684043 0.7423062
repricing -0.010945539 0.54459465 0.1209886 0.22244453 -0.22255266 0.41574782 -0.05158068 -0.1451013 -0.020697117 0.5994359
processes 0.044657543 0.60460067 0.15112998 0.18578951 -0.36517155 0.4943552 -0.05187131 -0.22158644 -0.05842144 0.72994906
quickly -0.04661185 0.4747656 0.14907596 0.15267871 -0.24252023 0.34316593 -0.0011536214 -0.2200402 -0.06320152 0.5657172
excited 0.043735094 0.5088649 0.063188046 0.17074925 -0.21528916 0.34468168 0.032916993 -0.15611278 -0.05583201 0.60818124
doesnt -0.029792571 0.5264957 0.14500865 0.24458718 -0.32031518 0.4048345 -0.060097255 -0.15405998 0.025205262 0.6618668
merger -0.011692883 0.7706608 0.13223913 0.23570576 -0.36770058 0.52398485 0.0055416157 -0.30767643 -0.07872265 0.8828125
investors -0.033084385 0.63973737 0.12635867 0.22987394 -0.28944847 0.4092949 -0.016819911 -0.25083432 -0.041499548 0.6971342
volatility 0.042182304 0.5418736 0.14318518 0.16812943 -0.28951675 0.43059626 -0.030596793 -0.23731816 -0.061255917 0.662425
confident -0.013980653 0.51717424 0.0889276 0.14202176 -0.25173196 0.32432285 0.013392022 -0.19875132 -0.05787984 0.59505326
whole 0.007955958 0.42966267 0.088519834 0.1593038 -0.21362779 0.36497253 -0.046280418 -0.15218768 -0.039270837 0.535831
bbt -0.03454569 0.7385747 0.11042126 0.2065159 -0.38488108 0.52974665 -0.03720848 -0.26204482 -0.04226916 0.83031744
arent 0.008523959 0.45664886 0.08960072 0.10655426 -0.19584805 0.3189458 0.017480664 -0.16253322 0.0005420208 0.4820147
channels 0.003801038 0.7302528 0.14610107 0.24864483 -0.30675796 0.49726593 -0.0039240555 -0.22781625 -0.072195 0.73431426
general 0.010686885 0.5696475 0.10688094 0.23697658 -0.32274505 0.39455625 0.03148471 -0.2138687 -0.016765071 0.6387021
power 0.046991352 0.7470786 0.13174543 0.28267545 -0.36881822 0.50732946 -0.0009026181 -0.28752333 -0.072372325 0.8218148
expansion 0.02675534 0.4799853 0.05947219 0.20853464 -0.26122785 0.33874217 -0.034069743 -0.14805639 -0.01537394 0.50566214
four 0.041091334 0.567022 0.08917069 0.15424645 -0.26365098 0.3965445 0.025026524 -0.18219496 0.006667955 0.536905
middle -0.033504285 0.40432504 0.0942781 0.12962946 -0.16557471 0.29892537 -0.021348553 -0.0747512 -0.024478523 0.35614416
appropriately 0.023570638 0.39579383 0.046624463 0.152932 -0.25888547 0.33493766 -0.06307011 -0.16559775 -0.029398696 0.50617
away -0.036329344 0.44397977 0.107503526 0.19133246 -0.20916533 0.31850696 -0.0054264087 -0.14537342 -0.049626384 0.56828076
shift 0.019062359 0.6480773 0.08737424 0.26249266 -0.27733904 0.427445 -0.0339952 -0.24328025 -0.07371631 0.7434513
slow -0.018750133 0.4404528 0.11465332 0.14055052 -0.2475276 0.36112076 0.014811532 -0.18293975 -0.017980738 0.5202758
reinvestment -0.008514993 0.39166772 0.1226539 0.13608548 -0.25250724 0.32779542 0.022938708 -0.112191245 -0.062207572 0.4963806
drive 0.045223836 0.54231143 0.07168087 0.2510353 -0.24838239 0.44015267 -0.01534121 -0.24743894 -0.03514974 0.63639534
drivers -0.004631766 0.39922336 0.092517525 0.13470165 -0.20570926 0.28426948 0.024703879 -0.1746203 -0.0032822061 0.47269684
thoughts -0.05343001 0.6488236 0.10722694 0.17090575 -0.3196183 0.42595398 -0.00055859506 -0.2078277 -0.014834168 0.67568904
buy -0.05807349 0.4967458 0.120675966 0.18968135 -0.24608132 0.31664875 -0.026732242 -0.13169622 -0.0398441 0.5958467
almost 0.027122496 0.5712264 0.13290462 0.19293179 -0.23965569 0.4283962 -0.023749268 -0.2185965 0.018335061 0.5890225
leveraged 0.0060750474 0.603325 0.15485117 0.15951791 -0.27534938 0.44016203 0.023492623 -0.19274476 -0.009269072 0.56975186
days 0.027531775 0.48544338 0.07270975 0.21041112 -0.25274393 0.35810155 -0.034033824 -0.1610439 0.017271947 0.55250823
curious 0.023946697 0.45855406 0.07289716 0.13918065 -0.24234568 0.3650833 0.025261348 -0.1575659 -7.5342694e-05 0.55297494
floors -0.043326627 0.636554 0.17022602 0.2703931 -0.29356325 0.41842097 -0.05165384 -0.18177228 -0.0747433 0.7403252
goal 0.00649601 0.44695592 0.12527598 0.21443287 -0.2867461 0.30239013 0.011018007 -0.15070488 -0.06443125 0.51837337
ci 0.016724182 0.5056111 0.09416785 0.1916556 -0.22848782 0.3770689 -0.050177813 -0.16694616 -0.015866725 0.54171926
optimistic 0.008752532 0.4542589 0.08415919 0.18979521 -0.19705871 0.32930025 -0.02642505 -0.16531514 -0.019091876 0.5501645
cautious 0.030596497 0.5243958 0.12482839 0.15602346 -0.22526422 0.37908763 0.026075976 -0.13497557 -0.02589734 0.60987896
modest -0.03409314 0.6698694 0.12546465 0.20619535 -0.32855526 0.42052168 0.0014181023 -0.19613835 -0.06034267 0.7067445
plans 0.02043113 0.60572207 0.10680731 0.17051254 -0.3296362 0.37331194 -0.031353217 -0.18641986 -0.050321687 0.65838796
tailwind 0.033345032 0.43622875 0.051006738 0.19269402 -0.23909676 0.29462162 0.034675624 -0.13604894 -0.057608034 0.5330993
everybody -0.0052335355 0.54181796 0.15242289 0.19737202 -0.25587115 0.39193684 -0.0119688 -0.18725452 -0.06773828 0.6240977
strategic 0.046498124 0.6359188 0.13973801 0.18249385 -0.30068532 0.47080472 0.02087886 -0.19830023 0.009940457 0.62978804
perform -0.026795445 0.4035324 0.061221823 0.1341221 -0.25020534 0.30916768 0.0011214368 -0.135917 0.0010714706 0.45189783
peer -0.022564404 0.4203686 0.07548651 0.12224324 -0.16263 0.24422377 -0.04633663 -0.11416992 0.009246031 0.40231994
slightly 0.044802003 0.52940804 0.10409447 0.20519915 -0.2872749 0.34580728 -0.0031052562 -0.20123363 -0.009608741 0.6134302
ive -0.038124923 0.48143476 0.07805652 0.1881854 -0.29095495 0.38137865 0.029278604 -0.13322718 -0.043324117 0.5104693
control 0.00036173195 0.5345829 0.0959814 0.20968513 -0.25156394 0.44593537 -0.013046794 -0.23548338 -0.05538937 0.5970652
riskadjusted 0.019356225 0.4316565 0.07486526 0.13936937 -0.23893842 0.35523784 0.026306434 -0.16327222 -0.0375103 0.47463146
casual -0.023994088 0.7405803 0.14567526 0.24255863 -0.3510923 0.6105025 -0.06625328 -0.27478927 -0.014151548 0.8176886
noninterest -0.0011758019 0.4355935 0.0957572 0.09064452 -0.24058609 0.23726813 -0.0020877286 -0.12811737 -0.041422073 0.47520274
reduction 0.031633567 0.42204124 0.11435481 0.117279805 -0.25756082 0.3478833 0.0112224445 -0.17567636 -0.028570209 0.49513796
built 0.021757668 0.515317 0.15538386 0.18085775 -0.23709744 0.36982834 -0.049896173 -0.22124512 -0.036030933 0.5848774
february -0.006781008 0.5878596 0.06954928 0.15557103 -0.27429387 0.36670595 -0.043970946 -0.22947513 -0.06744813 0.667735
towards -0.011884855 0.45475757 0.052901916 0.18154524 -0.18680215 0.36439553 0.0018554922 -0.16256005 -0.005707506 0.4637642
organic -0.047317524 0.3353551 0.086834036 0.18143658 -0.22327387 0.28174287 -0.021421183 -0.13801387 0.013618727 0.40563598
longterm -0.043189608 0.52790916 0.07769459 0.15351371 -0.2199616 0.33649766 0.0022128816 -0.19591509 0.006027115 0.5165413
rest -0.046181243 0.5211327 0.08889075 0.21428593 -0.3106784 0.4304166 -0.023966456 -0.19091755 0.010941752 0.5984139
cumulative 0.04711045 0.3873221 0.05933619 0.17166498 -0.21331127 0.3077109 0.039629985 -0.11964638 0.03178632 0.4019854
activities -0.03431432 0.5226483 0.15288311 0.21255638 -0.26859432 0.4424325 -0.019318867 -0.22925 -0.067636624 0.6275421
encouraged 0.038474776 0.5147292 0.15407899 0.22389889 -0.28124687 0.38019466 0.030041661 -0.17817563 -0.06847325 0.5744071
performing -0.0123877255 0.5029365 0.15174894 0.16248085 -0.22390871 0.30733117 -0.009336722 -0.1101202 -0.052126955 0.48779282
anticipate 0.023765447 0.5259364 0.1529921 0.21638767 -0.28030246 0.34735462 0.027035035 -0.17593305 -0.057288583 0.5345509
platforms -0.0468035 0.5212682 0.09568884 0.1817466 -0.24858724 0.34172308 -0.013013958 -0.19458234 -0.00064290303 0.50036913
maintain -0.051513094 0.60464084 0.15544446 0.1978422 -0.32575333 0.4591653 -0.041124493 -0.20685257 -0.0038449578 0.57924944
jd 0.012227133 0.67057663 0.15492302 0.18812314 -0.28152132 0.48937064 0.0022453985 -0.17278343 -0.0375955 0.6721005
price 0.016381232 0.65099406 0.11486672 0.28952894 -0.33496055 0.49249902 -0.053672265 -0.22943915 -0.030138744 0.7902777
consider 0.014832831 0.6788275 0.1669719 0.289899 -0.36328995 0.44795886 0.010246088 -0.22678982 -0.028543929 0.7312445
modestly 0.036931872 0.36977136 0.047841206 0.11904728 -0.25082558 0.29083407 -0.033139788 -0.10573691 -0.06450117 0.425163
cet 0.049146097 0.4898531 0.14709614 0.17068566 -0.2088649 0.38473907 -0.0008087893 -0.14838077 -0.018419918 0.5369062
optimization 0.033436906 0.49719015 0.08485287 0.15500347 -0.1919662 0.31323338 0.03155893 -0.19801132 -0.023707325 0.5090253
spending 0.030089945 0.50104004 0.14607175 0.13220334 -0.23627836 0.40586075 0.011318378 -0.15240696 -0.014963741 0.55905455
watson 0.01305002 0.6836128 0.13114028 0.25888932 -0.28948832 0.46642485 -0.019397845 -0.23467104 -0.052101895 0.7591441
quicker 0.04359842 0.670543 0.12760456 0.2354189 -0.36736357 0.50594026 0.026282758 -0.2791828 -0.06722922 0.7772526
carry -0.02189488 0.49828556 0.057358727 0.1766896 -0.28335527 0.37777185 0.020977668 -0.12961435 -0.03575683 0.52974665
classified -0.00068503094 0.5902491 0.13010944 0.21071282 -0.32751924 0.46894112 -0.05560873 -0.19530348 -0.05484956 0.6683506
moved 0.014520025 0.60196537 0.1342298 0.23967315 -0.3630919 0.4581291 0.03366204 -0.23486896 -0.06528355 0.6994068
view -0.024505237 0.59083885 0.13795765 0.2146989 -0.26072964 0.4492875 -0.025283732 -0.22446686 -0.06740737 0.62972265
left 0.04152603 0.4347393 0.10015618 0.1829687 -0.17845024 0.34914488 -0.061062362 -0.12279825 -0.0019475527 0.46408343
premium -0.0122069875 0.66728836 0.13883567 0.23011102 -0.3399528 0.47900185 0.017172819 -0.20832795 -0.016494937 0.7133579
derivatives 0.035349406 0.5685775 0.083807535 0.210016 -0.28281534 0.40061525 -0.029310854 -0.22144763 -0.005994815 0.6132296
rising 0.00096606615 0.46188974 0.12956832 0.15137456 -0.21126638 0.26751426 0.034493033 -0.113274895 -0.05259193 0.46916336
competition -0.034704283 0.41516173 0.043562155 0.1685473 -0.20984624 0.28627267 -0.030381365 -0.10568547 -0.040306114 0.42764553
office -0.041530862 0.7810702 0.19599445 0.2940035 -0.4399666 0.55507785 0.0059642484 -0.24478415 -0.01468846 0.8575002
actively -0.049334567 0.55474377 0.12777412 0.15554997 -0.24384278 0.38552827 -0.019787334 -0.18230496 -0.0071159024 0.5383335
driven -0.029771367 0.4598185 0.12156661 0.19026762 -0.25129098 0.33725792 0.01989404 -0.12740573 0.018864926 0.42871276
greensky 0.017089952 0.46575874 0.105319194 0.16648613 -0.24827537 0.33912784 0.0045163166 -0.195218 -0.06924557 0.5843594
issue 0.047248192 0.48053133 0.14222641 0.16635151 -0.1951583 0.34492257 -0.04584119 -0.19106558 -0.012956287 0.48763
six 0.021025544 0.53868484 0.098636344 0.24535535 -0.2645592 0.46925235 -0.043542348 -0.15289207 -0.028545018 0.58623964
primary -0.029785797 0.47971326 0.08367449 0.21302783 -0.24934514 0.37552473 0.035588615 -0.20996505 -0.028725127 0.5641326
shape 0.002567496 0.27825865 0.03902532 0.16495417 -0.18586682 0.2783713 -0.03407512 -0.07215807 0.02169859 0.29994687
keeping 0.022680834 0.4862647 0.11470692 0.17101695 -0.24209301 0.37036803 -0.054644845 -0.15544006 -0.048153676 0.5540173
stress -0.01598976 0.57856333 0.068034 0.19731171 -0.24929067 0.43005452 0.0022495063 -0.2310915 -0.023342185 0.6324308
underwriting 0.037500065 0.5555084 0.089924686 0.1688319 -0.26386115 0.38600522 -0.020311018 -0.20244066 -0.06066251 0.5905279
artificial -0.035815824 0.659946 0.1857796 0.21621203 -0.27307525 0.50669795 -0.010614906 -0.20501691 -0.014219326 0.721882
intelligence -0.018597353 0.5908097 0.16512632 0.26265734 -0.29015803 0.42065552 -0.008009136 -0.22001843 0.009052094 0.74049187
nir 0.034834497 0.34518436 0.03869228 0.10161649 -0.21529213 0.23956826 -0.010815717 -0.1406027 -0.024177676 0.37230062
grayson 0.000835511 0.40426123 0.13353102 0.12691914 -0.17057677 0.28259227 -0.05144826 -0.1641126 0.026029995 0.4852853
ryan 0.047427766 0.33757082 0.053394973 0.15144429 -0.18952286 0.32410988 -0.036617614 -0.13386926 0.013549076 0.38202474
theyve 0.026257982 0.558778 0.1373876 0.20922728 -0.26694527 0.38594812 -0.059439585 -0.19794932 -0.029640054 0.59353995
efforts 4.0582807e-05 0.4929706 0.08132807 0.20017128 -0.24143857 0.34866023 -0.025415113 -0.10822174 0.02721034 0.54214764
owen 0.03871955 0.49018827 0.08233272 0.15629399 -0.20136438 0.39622265 -0.011716161 -0.17862083 -0.025673937 0.48474035
fees 0.011821883 0.5011268 0.078005016 0.2272712 -0.29367146 0.35324648 -0.013536799 -0.16929638 0.008035802 0.5456982
categories 0.00096585683 0.5098631 0.13902934 0.1579253 -0.25533327 0.3504472 0.017571088 -0.1983396 -0.06250075 0.550359
approach 0.004854593 0.47487497 0.073187225 0.13771868 -0.23997933 0.39762416 -0.036953576 -0.18268712 -0.05550369 0.57988125
crisis 0.03807617 0.4505986 0.069788866 0.1634215 -0.23245287 0.32820103 0.01618384 -0.1645678 -0.025675058 0.54016685
offer -0.0053860387 0.6250176 0.13434944 0.2839897 -0.2816938 0.47515276 -0.058557708 -0.18335459 -0.073214136 0.7030731
quartile 0.0034008932 0.601948 0.09311065 0.20723566 -0.26069322 0.41891292 -0.024241349 -0.24889497 -0.023185825 0.6615693
analytics 0.013533648 0.52669966 0.12754896 0.17934662 -0.29877976 0.39417908 0.027422514 -0.16874623 0.027951105 0.59504926
planning -0.0144504225 0.40035605 0.030083464 0.1529012 -0.22333549 0.2694308 -0.006510934 -0.16285238 -0.016034225 0.45736367
repurchases -0.040243916 0.5103937 0.14980966 0.23867233 -0.31675845 0.38600868 0.010576294 -0.13543615 0.011153949 0.55941725
component -0.03337279 0.5254028 0.094185054 0.18200786 -0.29484233 0.39313918 -0.010346791 -0.13981603 -0.03905442 0.5842678
lcr 0.023964979 0.715792 0.107292436 0.25273 -0.32481897 0.51036346 0.02512213 -0.20617925 -0.052850768 0.7503047
meaningful 0.035478555 0.5372512 0.13363619 0.2015515 -0.2753805 0.36666173 -0.024660112 -0.16503079 -0.031393155 0.60573626
standard 0.033410005 0.499805 0.07308522 0.19064343 -0.20548037 0.3233562 -0.0131345475 -0.20636174 -0.06685384 0.55213094
went -0.042885598 0.49211624 0.12801653 0.14153382 -0.22449756 0.37125245 0.03776948 -0.20975958 -0.013390002 0.5601989
anticipated -0.040620096 0.49642617 0.15619637 0.23902316 -0.22719157 0.36866826 -0.03011997 -0.19118986 -0.06077763 0.63001627
ahead 0.03983485 0.44574672 0.08144323 0.102414705 -0.17697549 0.29813236 0.026617164 -0.09958836 -0.06676084 0.48877713
single 0.003870253 0.38538215 0.039993346 0.16644703 -0.24396805 0.33124116 -0.02763978 -0.14455965 0.034509834 0.46855137
completed 0.03997735 0.5386375 0.083621554 0.14029494 -0.2858683 0.35338426 -0.00011791103 -0.16466272 -0.024285277 0.5887968
youd -0.011088969 0.58105475 0.12298061 0.1726736 -0.27775788 0.42138112 -0.065220185 -0.16204575 -0.011924922 0.58557194
comfortable -0.045058277 0.43274763 0.13422573 0.18050858 -0.25481853 0.3230813 -0.0295347 -0.17874803 -0.017367199 0.54643
success -0.042056426 0.6184639 0.16181873 0.19437611 -0.24980439 0.46954966 -0.059286337 -0.14693266 -0.03582684 0.6364512
books -0.042647813 0.4783437 0.06213701 0.21204136 -0.2500636 0.35990244 -0.02775346 -0.13518862 -0.049457453 0.54188937
paid 0.03765651 0.44162726 0.12811612 0.13043019 -0.2793927 0.37404004 0.03920492 -0.1356769 -0.06143293 0.49859214
deals 0.030424101 0.3906077 0.046609633 0.19905609 -0.25804797 0.27870056 0.029837659 -0.10692437 0.009419507 0.50089073
tangible 0.0355575 0.42412958 0.08400132 0.12233727 -0.2378219 0.32086098 0.038373813 -0.17253664 -0.030932503 0.51223576
chargeoff -0.009456735 0.3502554 0.12286476 0.09570468 -0.19131131 0.25282925 -0.046718054 -0.14155497 -0.051994406 0.41175893
taken -0.0017933223 0.6765051 0.1163606 0.2748725 -0.36900473 0.44469678 0.0091419 -0.1988524 0.018352214 0.7055716
december -0.035625163 0.46634364 0.05103383 0.19664454 -0.18131918 0.31315714 -0.049779583 -0.10060236 -0.014518058 0.51394594
calls -0.010397963 0.5691857 0.15786608 0.2048325 -0.2675456 0.43575045 0.030044602 -0.25067186 0.0012276169 0.6519945
effective -0.0073018544 0.5444659 0.07555534 0.19600002 -0.24677725 0.38097996 0.027391994 -0.15175 0.016084276 0.5648861
nominal -0.015370014 0.3602632 0.07024733 0.13352178 -0.22278132 0.26834503 0.0042521195 -0.14429654 -0.023280244 0.398509
hold 0.025955833 0.411027 0.09473543 0.1515374 -0.25438765 0.32998848 0.018140733 -0.14723979 -0.003201898 0.49205062
healthcare -0.010657835 0.718784 0.1679417 0.27310428 -0.39315325 0.5427357 -0.0056106416 -0.25692135 -0.00037478114 0.79308575
concerned -0.02000523 0.42205676 0.09965488 0.1714555 -0.21290237 0.30045277 -0.01548032 -0.09236088 -0.03329809 0.40552738
asking 0.014915796 0.38831493 0.04453558 0.14395897 -0.26197207 0.30025303 0.034919683 -0.13397938 -0.04105342 0.5274124
unsecured 0.04253854 0.5124168 0.060752165 0.22432701 -0.20045157 0.38904357 -0.059327383 -0.16962203 -0.026066888 0.51207227
restaurant -0.023612646 0.6113989 0.15140022 0.24999197 -0.3262835 0.38773412 0.02580128 -0.17884779 0.008615373 0.5939722
selectivity 0.047796715 0.53667283 0.054283746 0.18068163 -0.23093595 0.36136043 0.015851842 -0.21366031 -0.069022164 0.55505204
willing 0.01547221 0.47774464 0.09474279 0.18798785 -0.25879848 0.33307946 0.024905112 -0.12608719 0.024727432 0.4704629
means 0.025185794 0.42186472 0.043723688 0.14215703 -0.22071522 0.33174115 -0.038660403 -0.16974388 0.026955822 0.48295972
associates -0.012528381 0.78167665 0.109545134 0.24243513 -0.37160388 0.5137753 0.026488077 -0.24855302 0.0048709507 0.813572
targeted -0.00663935 0.4883539 0.059182834 0.1297241 -0.21098258 0.34771895 -0.038790233 -0.20232695 -0.06019959 0.48307288
longer 0.02917734 0.567984 0.14530465 0.17719212 -0.28187573 0.35326102 -0.021304267 -0.1622133 -0.018090751 0.5430992
lines 0.021031631 0.3891303 0.09791021 0.1556166 -0.24505161 0.25777808 -0.058923546 -0.1019609 -0.029459901 0.4778718
accelerate -0.0389294 0.4466829 0.11116756 0.17181109 -0.23717158 0.3012591 -0.059847478 -0.14216363 -0.06324239 0.5179106
spent -0.024823196 0.48678988 0.11541415 0.18136346 -0.2001204 0.37485087 0.0028162668 -0.15051258 -0.033651315 0.4889814
expand -0.043394838 0.44312897 0.053472605 0.10495034 -0.20009018 0.33548847 0.0014526199 -0.11160514 0.020428063 0.46356452
difficult -0.02136787 0.47050798 0.07248153 0.1492839 -0.20192769 0.3603884 -0.027750686 -0.1113291 0.013215094 0.49022406
funds -0.013983015 0.37404808 0.10106139 0.14242934 -0.20048837 0.3158392 -0.02528097 -0.17654903 -0.039635763 0.47796655
timing 0.025211167 0.5231618 0.067392774 0.20294374 -0.19591628 0.37885818 -0.06055643 -0.14723638 0.027003285 0.5165302
happened -0.042010747 0.42885536 0.07876343 0.14538795 -0.25807643 0.3455523 -0.041682635 -0.1624389 -0.0020999676 0.47974098
becomes -0.044033583 0.42573848 0.098502845 0.1758204 -0.19025213 0.23579608 -0.058916092 -0.085700914 -0.026666122 0.42940378
clear 0.047226768 0.4592637 0.0693548 0.18457499 -0.27176133 0.31668186 -0.017537419 -0.20424478 -0.009263926 0.5719992
impacted 0.0060850075 0.43511805 0.12245026 0.16677013 -0.17467064 0.30320665 -0.013430844 -0.11403062 0.001193574 0.4020546
houston 0.015428411 0.48971635 0.10311523 0.21514684 -0.26738197 0.37850043 0.018191256 -0.2060665 -0.058921482 0.54739136
atm 0.024031019 0.7022508 0.18359834 0.27940798 -0.34909126 0.49014667 0.028694617 -0.22976227 0.0045327325 0.7858958
fill -0.0059006917 0.5301391 0.09821815 0.17307793 -0.24668384 0.43844828 -0.039175056 -0.14666137 -0.0198144 0.59633434
turner 0.0370181 0.59731 0.12701622 0.15273741 -0.24920629 0.37587604 -0.051373843 -0.21091871 -0.058971062 0.5542605
room 0.0193128 0.42378175 0.050894268 0.16844574 -0.22406825 0.28190428 0.031174801 -0.11353014 -0.027151173 0.45567897
strength 0.024090722 0.27975017 0.060796943 0.122803815 -0.114387125 0.1852644 -0.01762538 -0.07459051 -0.017689435 0.3059596
improvements 0.011773765 0.47822914 0.14200415 0.20311399 -0.20671348 0.3239378 -0.042261295 -0.13569999 0.025534716 0.5859588
happening 0.030227462 0.41748378 0.10372207 0.13732767 -0.15183643 0.29909387 0.012580592 -0.119042344 0.0031839558 0.38660768
regulatory -0.009011516 0.4275947 0.050782107 0.20709 -0.22248076 0.31203547 -0.02069518 -0.16121595 -0.039376818 0.5320228
itll 0.031968936 0.37049478 0.041365955 0.095606655 -0.24202676 0.33500952 -0.010770064 -0.16641358 -0.03102786 0.4665277
pickup -0.0337738 0.32330984 0.11266535 0.094646975 -0.1594082 0.3037308 -0.01672332 -0.1298816 -0.04991537 0.35562637
rolling 0.022694403 0.53676945 0.074427575 0.16344701 -0.2222084 0.39129424 -0.045082968 -0.20839308 -0.01065387 0.56400824
related -0.041522864 0.5053596 0.06674858 0.20969442 -0.2670998 0.3041341 -0.04323018 -0.19240883 -0.009358342 0.46715903
execute -0.0043081837 0.44392824 0.0751136 0.13929817 -0.16893017 0.31393343 0.036190838 -0.13236533 -0.0032623734 0.4730892
rather -0.0026169037 0.39467975 0.034069873 0.15748762 -0.24186327 0.24637634 -0.056641176 -0.09367343 0.021253072 0.40123156
necessarily -0.050285175 0.51489055 0.15730965 0.24054953 -0.30594006 0.41507012 0.02239347 -0.15984456 -0.04485413 0.5595242
serve 0.048867814 0.40112057 0.059320133 0.16744663 -0.20066683 0.25452378 -0.034147836 -0.09784976 0.02628583 0.41012138
seek -0.04817749 0.47997907 0.1172815 0.22778593 -0.20636846 0.36722323 -0.0054042507 -0.1604077 -0.021848394 0.5269948
digits -0.032901306 0.50772053 0.12250182 0.21175137 -0.2100018 0.31488118 -0.00070327084 -0.15663514 -0.00968745 0.57567006
mathematically 0.0297379 0.37073433 0.051351547 0.09958141 -0.15861233 0.2142231 0.013807309 -0.16418292 -0.022315344 0.35006994
buybacks -0.0030421051 0.28238142 0.048860762 0.072465986 -0.12207756 0.15087211 -0.0036122622 -0.12187005 0.0069409925 0.3316229
nothing 0.0034162095 0.39538985 0.07552198 0.13725458 -0.18611327 0.32590294 0.023111051 -0.14107615 -0.035210647 0.48804015
headwind -0.019705296 0.35871604 0.07019379 0.14020762 -0.1853678 0.26833063 0.03855605 -0.1080372 -0.0044658645 0.37294966
without -0.03102913 0.5018521 0.101779655 0.16794696 -0.22951756 0.33827367 0.013466091 -0.1437426 -0.04877194 0.52684915
interestbearing -0.03794619 0.44012445 0.09737792 0.1807372 -0.24732926 0.36458987 0.018825354 -0.17742246 0.009921167 0.52346766
lots 0.045176294 0.36422953 0.046924904 0.13377857 -0.17900805 0.2616969 0.025127351 -0.12983094 0.029737318 0.49578086
talent -0.014085042 0.43995288 0.08785666 0.15638009 -0.19622439 0.31164056 0.033439822 -0.14678866 -0.039881006 0.4774616
construction 0.0016211522 0.6216291 0.123810336 0.2533041 -0.3267086 0.44234824 0.0033550856 -0.18458495 -0.03324138 0.6353029
rights -0.031245926 0.50096685 0.09432182 0.14858413 -0.2001447 0.31215858 -0.059263464 -0.13121735 0.021777883 0.4886416
economics 0.03352625 0.4670774 0.082228854 0.1769132 -0.29152182 0.3359276 0.0042452267 -0.18241043 -0.07404535 0.5371138
audience -0.030236695 0.40880355 0.06934036 0.15627332 -0.24547005 0.2861619 -0.016661879 -0.18318033 -0.06495777 0.49356782
follow 0.035820536 0.43411407 0.118644 0.19270825 -0.24729462 0.29069346 0.008383831 -0.1006734 -0.02898512 0.49544165
associated -0.044299114 0.5335657 0.16075729 0.1614222 -0.2760794 0.4214793 -0.019435473 -0.20221817 -0.018969728 0.64199907
adding -0.040494014 0.47177365 0.10642773 0.19845836 -0.21662009 0.3577005 0.03306955 -0.123684786 -0.0030828977 0.54659265
ratios 0.035738222 0.33359134 0.108390026 0.15993172 -0.14488642 0.26303262 -0.017296122 -0.14434795 -0.040782623 0.42676973
context 0.019662876 0.40865198 0.10721742 0.1925692 -0.22316839 0.29470226 -0.021383438 -0.19908978 -0.030308312 0.4525824
generating 0.023814844 0.33615685 0.12199629 0.124098316 -0.22375222 0.2718365 -0.007733605 -0.15869582 -0.015401903 0.44158873
performance 0.025878593 0.521981 0.11021452 0.17362553 -0.1906564 0.3727007 -0.018483948 -0.17361173 -0.028296761 0.5288337
january -0.04441923 0.40560976 0.12430494 0.13283774 -0.20429094 0.35708433 -0.040850434 -0.11069864 -0.006791873 0.4708215
groups 0.01481933 0.72144276 0.16362005 0.25279206 -0.31592807 0.45689017 -0.010270238 -0.20159453 -0.046157096 0.76411796
uncertainty -0.053747293 0.505663 0.13974826 0.17970414 -0.23202702 0.42082217 -0.049490187 -0.22217289 -0.0006721408 0.53290457
normal -0.040083807 0.4953214 0.05309856 0.124690756 -0.2889799 0.31504756 -0.024628317 -0.13382336 0.023629773 0.56572354
impacts -0.0022617232 0.2935793 0.04133644 0.055418048 -0.0811299 0.16157429 0.04513095 -0.11968785 -0.040755652 0.31625828
werent -0.009871396 0.6051744 0.08482234 0.2501522 -0.31182945 0.39838803 -0.045244277 -0.22451465 -0.066519834 0.6137651
reform -0.014701593 0.42582595 0.07342794 0.17342101 -0.1894935 0.33523 -0.02663769 -0.1650854 -0.07011276 0.41263172
slowing -0.035042893 0.45656928 0.0522114 0.15540662 -0.24702781 0.31706095 0.018379971 -0.12535219 -0.030918982 0.42375383
