2711 15
think -0.88549185 0.24461575 0.22086602 -0.02976908 -0.22976899 0.02043123 -0.20837541 0.37863836 0.33926317 0.27220315 -0.34372944 -0.41619146 0.42734528 0.25003383 0.5582426
us -0.9543883 0.20857786 0.2581774 0.035622448 -0.26640916 0.06209838 -0.19487885 0.40366727 0.26735985 0.5246772 -0.096744366 -0.3356708 0.49334186 0.31927806 0.47482
good -1.2897112 -0.8456522 -0.06830132 0.22989301 0.18540643 0.110420704 -0.20365925 0.5678942 0.11596582 -0.31500506 -0.5009715 -0.10667994 1.3686823 -0.11289627 0.15487495
going -0.99200135 0.31827053 0.102062695 -0.017005881 -0.26505184 -0.06595486 -0.24155237 0.37801445 0.39072657 0.3509639 -0.5048735 -0.35398266 0.24901113 0.22886816 0.42635494
weve -0.8655944 0.067220494 0.39161938 0.014781537 -0.3544287 -0.15180631 -0.123235345 0.40436628 0.39515 0.06295678 -0.4714415 -0.33326668 0.32656673 0.2905099 0.47535765
growth -1.6271607 0.16274826 -0.057270285 -0.08364572 0.14650431 0.10896049 -0.5473853 0.027410196 -0.38465208 0.5047771 -0.19859034 0.00017613792 0.5761254 0.5512994 0.5307563
well -0.9550048 0.22175859 0.068765104 -0.064646766 -0.15860383 0.024081198 -0.15742087 0.33774152 0.3474141 0.38461268 -0.3645274 -0.35854807 0.41043717 0.34540763 0.5119764
year -1.4138653 0.33463115 0.024828412 -0.16179912 -0.1306673 -0.30887517 -0.3187725 0.20597173 0.15831311 0.37581685 -0.6063284 -0.113206096 0.08280927 0.34074298 0.24264799
thats -0.9585242 0.28962603 0.25729227 0.04278535 -0.35551566 -0.17236361 -0.18557018 0.45035222 0.41737366 0.24524727 -0.3961648 -0.3020192 0.19233593 0.3559226 0.30048677
would -0.9929176 0.17679787 0.050742127 0.0347543 -0.38718674 0.025217954 -0.35735312 0.37379634 0.43894258 0.21809465 -0.36733693 -0.35309944 0.21535721 0.21868874 0.514206
really -0.7851394 0.002346434 0.29683977 -0.01217644 -0.31588155 -0.017772056 -0.109006725 0.40454128 0.5433667 -0.013369916 -0.29484951 -0.34889314 0.59550273 0.31593683 0.5566854
see -1.123355 0.20295495 0.13590965 0.04882348 -0.1509392 0.034637526 -0.27967215 0.299519 0.25136477 0.37298706 -0.34987 -0.12389554 0.38064653 0.3099183 0.49690783
get -0.9799229 0.38765082 0.08049803 0.042612895 -0.20262569 0.07114156 -0.29200974 0.5027666 0.33450502 0.5134232 -0.42951515 -0.26292035 0.34085923 0.27378437 0.33485532
business -0.803685 -0.07543324 0.4463179 0.02327588 -0.41052553 0.3156861 -0.1352196 0.4660363 0.29583645 0.10886647 -0.22374055 -0.35219395 0.5706851 0.30720386 0.643872
yeah -0.88102233 -0.09659854 0.04371809 0.017446518 -0.24902706 -0.1226406 -0.10353015 0.27492204 0.42653596 0.046480853 -0.5083583 -0.41986048 0.6611613 0.08734523 0.43616217
time -0.82200706 0.24613363 0.2975596 0.012456696 -0.32192996 -0.07107403 -0.097575285 0.51036316 0.5161146 0.19304332 -0.38326722 -0.39502674 0.35572967 0.24995208 0.464369
capital -0.7599858 0.24518292 0.20900863 -0.0030587956 -0.29310077 0.18952267 -0.21019982 0.48675105 0.19100183 0.49905258 -0.2675532 -0.53364694 0.55108446 0.33450592 0.55748993
quarter -1.5088185 0.039162192 -0.2695661 -0.20118283 -0.17831875 -0.1395257 -0.3688932 0.100610815 -0.034524135 0.39800537 -0.7791549 -0.16084668 0.11580075 0.48216602 0.356332
continue -0.9016097 0.13486245 0.22693507 -0.024862653 -0.33674595 0.41137132 -0.26775777 0.30754733 0.3318625 0.41723862 -0.19705662 -0.39340994 0.45920843 0.38981786 0.62731
little -1.4943404 0.06366543 -0.19449158 0.0210384 -0.004439477 -0.3712671 -0.42194888 0.19129935 -0.15032952 0.6710961 -0.47233063 -0.15586591 0.2741092 0.33087885 0.40887263
one -0.7937173 -0.03208712 0.21284094 -0.051567752 -0.3312295 -0.077133335 -0.113588385 0.41610295 0.7125392 0.08375048 -0.52018833 -0.34545985 0.48556867 0.19105534 0.39572376
grow -1.0634818 0.24643213 0.08819751 -0.055056833 -0.19221939 0.5421457 -0.22106591 0.4568016 0.0066653974 0.4662199 -0.12714297 -0.17261934 0.57761765 0.5448863 0.68069094
loan -1.4962549 -0.016729334 0.2579303 0.099633425 -0.02137068 -0.07722781 -0.4857636 0.059964485 -0.13532722 0.49952275 -0.2623618 0.09823703 0.43858314 0.35056707 0.39008316
right -0.7855118 0.12588552 0.33882546 0.08574991 -0.1778075 -0.079886414 -0.105713554 0.52641135 0.37323922 0.22575548 -0.4321517 -0.40153775 0.44490126 0.2568842 0.42207643
bit -1.4975475 0.004665385 0.04796669 0.25846764 0.2020843 -0.42298353 -0.5484436 0.22914726 -0.25583896 0.8559762 -0.544389 0.046058726 0.4294209 0.36412627 0.2693234
dont -0.7951244 0.30847508 0.14664516 0.02676903 -0.20788623 0.019009652 -0.13139091 0.42879882 0.36069065 0.28816432 -0.21617043 -0.45418146 0.56172705 0.3860604 0.615794
look -0.85078055 0.084611915 0.17876303 -0.08130145 -0.32729268 0.06971887 -0.27096716 0.41473407 0.5220721 0.17322698 -0.30291244 -0.36042708 0.48703277 0.34974575 0.5197338
youre -0.92300296 0.15204737 0.27422953 0.07087447 -0.1293816 -0.040241767 -0.20260246 0.5278769 0.4217108 0.28152117 -0.35410783 -0.3329102 0.3449672 0.22133388 0.3699051
lot -0.75045377 0.09069622 0.31816182 0.04728159 -0.23834123 -0.023462724 -0.056776248 0.4078734 0.4016108 0.14470631 -0.34551704 -0.45236284 0.6402112 0.1956207 0.60578084
deposit -1.2891747 0.16929428 0.34156287 -0.048122846 -0.13792358 -0.29917663 -0.5264619 0.28811005 0.46950138 0.1886022 -0.107891 0.15978666 0.29473558 0.54944694 0.21271968
like -0.82643515 0.110733144 0.24969009 0.006773002 -0.25333646 0.01589252 -0.18595135 0.4860004 0.56576514 0.1467372 -0.49058926 -0.35547665 0.4727726 0.13721757 0.3999314
morning -1.1447575 -0.843616 -0.21244252 0.25187412 -0.281438 -0.31335774 0.077805385 0.27868313 -0.07988829 -0.2916482 -0.66523147 -0.15658239 1.4487604 -0.0063832668 0.26117238
rate -1.4721346 0.6468101 0.33015156 0.15770784 0.1403198 -0.5518876 -0.13208055 0.2621224 0.39810082 0.19400105 -0.49440107 -0.05462081 -0.122252375 0.10659993 0.36266792
consumer -1.2809696 -0.49073225 0.5583092 -0.07479048 -0.1199629 0.09410215 -0.23320684 0.4976961 0.5311178 -0.22395265 -0.10608268 0.38912517 0.58658814 0.5493914 0.26667306
want -0.92399627 0.28451794 0.18864198 0.07959892 -0.08214423 0.25007465 -0.22154282 0.4076414 0.1609853 0.43674174 -0.21249542 -0.33531976 0.5628573 0.40857112 0.56061643
markets -0.67223376 0.07083621 0.25253403 -0.023738228 -0.317645 0.26595572 -0.13700713 0.34006473 0.48875082 0.23667017 -0.22216636 -0.506502 0.5889019 0.33408532 0.7983181
question -0.8801329 -0.22194947 0.0155851655 -0.042639416 -0.14012176 -0.20340058 -0.06331849 0.35647696 0.4119231 -0.046596188 -0.6081527 -0.39142773 0.84811884 0.10662486 0.43906116
things -0.7175928 0.18956324 0.28211993 -0.09592135 -0.3914678 0.14554632 -0.07881036 0.42778057 0.6940076 0.16531636 -0.3875092 -0.5174653 0.4573238 0.2145333 0.5159322
kind -1.1517385 0.12324404 0.108692504 0.023056386 -0.011749608 -0.08269042 -0.3216764 0.4066044 0.12934071 0.41861677 -0.47860914 -0.17534055 0.3943538 0.24047261 0.40934238
make -0.66449845 0.221811 0.47583562 0.17230994 -0.30464593 0.44102967 0.15971409 0.49329785 0.534314 0.27225962 -0.21334885 -0.57912767 0.57858324 0.22157995 0.7345867
still -1.0237738 0.2254111 0.25824472 0.06315102 -0.19219416 -0.16420026 -0.20844264 0.50277174 0.3540482 0.27608606 -0.31474498 -0.27654508 0.2512324 0.17487356 0.43496406
customers -0.5655221 -0.030697485 0.49619552 0.053642843 -0.45486695 0.29814687 0.079683825 0.47055396 0.7849597 0.027808363 -0.0568261 -0.5692072 0.7150937 0.36782438 0.6642325
could -1.152701 0.22789046 0.07442926 0.115716696 0.0008509045 -0.22688799 -0.3221997 0.39537004 0.15793675 0.5103738 -0.43662292 -0.22128484 0.35194737 0.25309312 0.3301217
basis -1.7345874 0.4801356 0.26569852 0.20647097 -0.941252 -0.24076502 -0.6219756 0.6603566 0.372879 0.6198322 -0.83369815 0.28159195 -0.6469616 0.22473735 -0.46275035
got -0.7785955 -0.06677366 0.3070066 -0.016685447 -0.2726576 -0.16497177 -0.012769822 0.3379599 0.50032985 0.014638945 -0.4913596 -0.37384608 0.667197 0.17567647 0.46099672
back -0.9174837 0.0929741 0.23448685 -0.038110126 -0.25501743 0.09108007 -0.2244311 0.4116576 0.42264718 0.20243731 -0.42792422 -0.2996947 0.47626045 0.22782579 0.41688782
much -0.86438245 0.14108689 0.2602229 0.06448383 -0.20545447 -0.019791674 -0.15974182 0.46874362 0.3575187 0.1973881 -0.29678267 -0.36034745 0.57177365 0.2662386 0.46474054
go -0.831988 0.28571865 0.23194858 -0.03521049 -0.24078064 -0.023967931 -0.124467954 0.45268312 0.5852317 0.14823264 -0.3691412 -0.40434188 0.37678736 0.2690677 0.51497984
side -1.3370368 -0.20421405 0.5804602 0.15649632 -0.07633717 0.09451492 -0.3486567 0.44624916 -0.22232857 0.042737167 -0.18344654 0.15744154 0.7248608 0.4476735 0.3610227
years -0.9887769 0.5300116 0.025583884 -0.44827273 -0.2293253 -0.216961 -0.15202045 0.41401106 0.8567916 0.15169658 -0.8729487 -0.17328346 0.17006192 0.12568541 0.30110592
okay -0.8439251 -0.16930166 0.18330155 0.036430493 -0.1330409 -0.37859803 -0.050518103 0.4099128 0.36824414 0.004292668 -0.5608858 -0.3952548 0.6596362 0.10268904 0.34724575
maybe -1.0826082 0.029136254 0.025323259 0.09307088 0.0025137628 -0.23168969 -0.24988648 0.31253478 0.28112856 0.42122498 -0.52269465 -0.24492724 0.5160376 0.18453509 0.3868165
point -1.0876504 0.22970161 0.1848024 0.062409267 -0.49672994 -0.1873289 -0.33171102 0.44233504 0.44986612 0.3764783 -0.43514252 -0.15466705 0.11680719 0.2796354 0.19328752
last -0.9179842 0.18927877 0.14491941 -0.13810734 -0.21195947 -0.11571418 -0.1263688 0.27410677 0.6733055 0.21441635 -0.629419 -0.41192988 0.34173492 0.2385971 0.34381407
thank -0.94815606 -0.2849583 0.13982788 0.05812826 -0.10677758 -0.3413212 -0.04991034 0.33906654 0.33900493 -0.06818741 -0.53312576 -0.33821806 0.8498017 0.114226535 0.2641963
first -1.2311913 -0.015130759 -0.1653085 -0.0044495636 -0.08308305 -0.05633941 -0.4657467 0.12564348 0.20451072 0.23004864 -0.7020349 -0.42116478 0.3202502 0.36461198 0.30496463
two -0.9624448 0.22882982 0.13998297 -0.18684787 -0.25316012 -0.12702897 -0.04690179 0.4041879 0.75252014 0.18428248 -0.68459547 -0.16814677 0.3677338 0.22761583 0.2306026
john -0.94696265 -0.32152435 0.01194072 0.10007016 -0.2245426 -0.066514105 -0.1045111 0.3664803 0.36077192 -0.040600482 -0.4919141 -0.34850952 0.8328485 0.03165817 0.43976554
portfolio -0.99171185 -0.12035458 0.50528055 0.10732387 -0.23133582 -0.0989601 -0.24541709 0.63601774 0.14802854 0.24007346 -0.24113242 -0.07966247 0.41989803 0.14140445 0.48000568
next -1.1840384 0.53411025 -0.008530703 -0.18960732 -0.150461 -0.14894389 -0.24150454 0.30480608 0.66585326 0.3757739 -0.7084373 -0.18237764 0.06256907 0.19461241 0.16480443
also -0.9072107 0.121191144 0.3903219 7.466844e-05 -0.20608146 0.008654231 -0.10251041 0.49419114 0.402427 0.18753335 -0.19754219 -0.28983217 0.39642948 0.332757 0.45265448
credit -0.9017706 -0.2531983 0.43532228 0.12665275 -0.2823879 -0.05671781 -0.062572844 0.7157463 0.32913932 0.039347783 -0.3198195 -0.21253921 0.68112916 0.04775552 0.29827636
loans -1.2485642 0.17421095 0.40196863 0.02378646 -0.13195008 0.02652478 -0.37174562 0.55787164 0.09425745 0.2632029 -0.2313017 0.0050761034 0.29238543 0.3565835 0.2483061
need -0.75979406 0.37627548 0.29907387 0.024227321 -0.28594935 0.16536902 -0.09740631 0.522239 0.33791566 0.4015804 -0.25959235 -0.48735443 0.44270167 0.34538868 0.5070923
terms -1.1644633 0.13369118 0.33153242 0.1259576 -0.048285175 -0.15959099 -0.32238352 0.50280404 0.09914534 0.41614482 -0.31224427 -0.08070257 0.39543486 0.21737725 0.24164964
know -0.89061296 0.097620174 0.24374041 0.11102216 -0.16112167 -0.04108909 -0.07895578 0.5277311 0.37648886 0.17145431 -0.42948657 -0.4070738 0.405938 0.21018884 0.4537447
rates -1.2893311 0.38777858 0.2503152 0.019119121 -0.14910796 -0.3891028 -0.2702716 0.37875825 0.38678983 0.32217735 -0.4390546 -0.09784847 -0.0021001752 0.17406572 0.23834853
revenue -1.3401209 0.36272034 0.2134014 0.008732436 0.27010572 0.23039366 -0.21412538 0.12182929 -0.15514123 0.46720052 -0.21923095 -0.23257244 0.6007536 0.37747818 0.6176731
said -0.9730815 0.16672704 0.18445158 -0.010920373 -0.41781762 -0.00036171844 -0.32713583 0.33303955 0.37013742 0.19086666 -0.46508095 -0.28143895 0.30100057 0.27348226 0.42736173
theres -0.8135416 0.11488266 0.28587675 0.06419818 -0.24526688 -0.04445459 -0.1280446 0.452773 0.47703314 0.20570847 -0.4079319 -0.39621148 0.38458616 0.16134723 0.5485377
balance -1.8149257 0.59778047 0.6857165 0.019933097 0.21550763 0.012680065 -0.23192087 0.728467 -0.8334681 0.15873353 -0.34519848 0.2675044 0.716281 0.38105342 -0.21642429
risk -0.82250065 0.20510937 0.53096527 0.110166565 -0.3632513 0.10041515 -0.19243461 0.7147101 0.23369123 0.31497538 -0.30158347 -0.3226867 0.39583686 0.19106184 0.3203964
technology -0.60181254 0.09139549 0.40251932 0.015255424 -0.3446306 0.20569558 0.15861908 0.40754464 0.6254476 0.05538757 -0.24028568 -0.6382407 0.59724075 0.23052172 0.81478953
given -1.1649816 0.2106546 0.28651264 0.04979831 -0.1360806 -0.23359631 -0.3711709 0.39187756 0.19709642 0.34552875 -0.40258762 -0.19956347 0.15859102 0.2532541 0.36575827
customer -0.6420908 -0.054925863 0.445382 -0.07325378 -0.42335483 0.23071466 0.029642556 0.4205662 0.7773483 -0.041003343 0.022001559 -0.3784018 0.6921787 0.4922094 0.7291338
talk -1.1447351 0.052622247 0.10424935 0.110581346 -0.018610625 -0.1582267 -0.23226249 0.37090632 0.20094614 0.45232573 -0.33121067 -0.1608087 0.5418036 0.17751136 0.3830184
deposits -1.1691917 -0.258795 0.38288003 -0.15352449 -0.091547474 0.012617741 -0.33716962 0.5158264 0.56909037 -0.23493956 -0.14257643 0.21966226 0.4003224 0.64634365 0.37696534
give -1.1312035 0.19212307 0.048187166 0.12878215 -0.04464943 -0.046180278 -0.40256125 0.3153901 0.15808436 0.55152225 -0.41988105 -0.20901054 0.47772685 0.23635471 0.40568843
way -0.79359853 0.23104253 0.27198935 0.051572163 -0.27901575 0.08662598 -0.117872626 0.5151546 0.4833326 0.23375075 -0.3087474 -0.4143222 0.36393937 0.2817235 0.5202481
today -0.8614555 0.24965917 0.26956394 0.072433114 -0.2797223 -0.044673555 -0.17115203 0.56999063 0.4051043 0.2571018 -0.45286047 -0.3077282 0.32018116 0.1859686 0.44858703
better -0.8525743 0.16924961 0.21815461 0.039586604 -0.17822172 -0.077001944 -0.20954075 0.461512 0.4370191 0.26877916 -0.3250842 -0.36558923 0.44673267 0.30092552 0.5194278
points -1.6795076 0.68847907 0.15404801 0.18361963 -0.9399864 -0.5264246 -0.89570373 0.84143835 0.38558957 0.63695323 -0.6111883 0.25157493 -0.68110526 0.3938421 -0.37339205
environment -1.2916036 0.5845805 0.25694692 0.09894694 0.17612404 -0.46536502 -0.2594178 0.2874671 0.3616295 0.29979086 -0.46625182 -0.07242756 0.021069437 0.17760521 0.5314148
change -0.95266145 0.28151548 0.26809064 -0.020766867 -0.26261005 0.0041924673 -0.09254289 0.4486798 0.42961293 0.2987717 -0.39982644 -0.31127033 0.31476915 0.22575499 0.38165444
mentioned -1.1648507 -0.11899105 0.11157229 0.050186366 -0.24083887 -0.035293393 -0.30836114 0.35689104 0.39198694 0.0819144 -0.5077343 -0.120819956 0.44423902 0.207101 0.23475647
growing -1.1544482 -0.22699331 0.25021636 0.004179124 0.012229513 0.12698384 -0.13412169 0.4811193 0.667417 -0.14371304 -0.16687205 0.16352403 0.49370435 0.46888548 0.4750248
david -0.9711745 -0.17783445 0.069165334 0.108424 -0.19157603 -0.2906244 -0.13305949 0.34072652 0.3705284 0.032516964 -0.5093063 -0.31392404 0.6643681 0.0913557 0.33747
number -0.85485697 0.0054263966 0.20284644 -0.04240603 -0.14406627 -0.005790485 -0.10991178 0.4151191 0.52093005 0.1600878 -0.4691049 -0.44493237 0.43860748 0.3545147 0.46948084
market -0.78872377 0.08294596 0.2955782 -0.009354992 -0.2501835 0.012299961 -0.08328943 0.49131173 0.5366145 0.14620419 -0.32007638 -0.40104526 0.4195172 0.22915742 0.55518776
thanks -0.97609365 -0.31366697 0.07740256 0.13558666 -0.0065113003 -0.21174304 -0.08514805 0.40082756 0.3491274 -0.02515183 -0.5156315 -0.3251692 0.8201612 0.10381352 0.25285247
day -0.93352497 0.049097147 0.417183 -0.090640664 -0.29389614 0.19209395 -0.09743552 0.6036163 0.4072827 0.089431375 -0.6814592 -0.23979606 0.45896286 -0.0054601906 0.22148688
bank -0.7664963 0.081465244 0.3513556 0.044313736 -0.29193947 0.08209964 -0.10083748 0.40119538 0.503904 0.13629064 -0.22901897 -0.48488048 0.45206377 0.25685337 0.66676325
say -0.9461395 -0.04605738 0.19702122 0.014988163 -0.29033414 -0.010977888 -0.080880746 0.30791253 0.48609963 0.111626 -0.48089394 -0.3530645 0.46177542 0.15179233 0.46699148
pretty -1.1173742 -0.06976417 0.18735874 0.109472685 -0.23077494 -0.18827868 -0.14098269 0.36925718 0.1422972 0.12774602 -0.4663484 -0.19655266 0.5186954 0.15254295 0.40470847
real -1.1036226 -0.48495826 0.7951027 0.084360845 -0.85983396 0.44481042 -0.12284804 0.6708776 -0.10755064 -0.13736065 -0.48409382 0.19564584 0.44495013 -0.025372677 0.6120513
million -0.97070634 0.24852617 0.033477478 -0.27373305 -0.22375531 -0.13000806 -0.12657204 0.4618677 0.2937267 0.44182163 -0.51729584 -0.49534655 0.12909892 0.49606898 0.47658834
part -0.9912658 0.09496476 0.10209516 -0.043816872 -0.27666736 0.005080032 -0.18544564 0.33181012 0.34934175 0.15833738 -0.45259303 -0.41153833 0.41195127 0.33932275 0.48372522
expect -1.1543494 0.20122558 0.14699216 -0.036272876 -0.11031562 0.013623934 -0.35164312 0.3608289 0.18575631 0.46769133 -0.38470078 -0.24079417 0.25198117 0.24407469 0.44020885
help -0.8992894 0.1848449 0.15044828 0.08428933 -0.114094466 0.111066386 -0.21839696 0.4313905 0.31767723 0.38898522 -0.2353398 -0.3158009 0.46514398 0.35538533 0.6178108
guys -1.1054876 -0.41042617 0.06918825 0.14096408 0.032577567 -0.16797005 -0.061876774 0.46920106 0.21656884 -0.06347285 -0.5749916 -0.17678995 0.83383644 0.02650483 0.28609812
believe -0.8886427 0.15778413 0.2809871 0.073890686 -0.26588792 0.06071244 -0.13414891 0.47764015 0.4249279 0.22340946 -0.2745265 -0.38518816 0.35697156 0.26499188 0.50799227
opportunities -0.8179782 0.07588077 0.32548782 -0.010596211 -0.358155 0.23214436 -0.15951163 0.4062773 0.31199422 0.4405215 -0.15438527 -0.4060924 0.4719195 0.24060741 0.6812521
take -0.8497205 0.07313648 0.33151993 0.02020025 -0.3696383 0.046642832 -0.1549258 0.44801572 0.4731836 0.2965915 -0.23227154 -0.35850304 0.43714243 0.19612098 0.47063002
put -1.0122503 0.20770481 0.25557458 -0.013479447 -0.22551134 -0.11530919 -0.25786567 0.48688617 0.31024396 0.30061427 -0.3479052 -0.235949 0.29247966 0.23129341 0.4247554
im -0.9119598 0.029156987 0.21417612 0.13207234 -0.09457121 -0.15003176 -0.103752926 0.49149877 0.4128816 0.236746 -0.41133758 -0.27983785 0.40451545 0.19480562 0.39805835
sure -0.7583095 0.05241829 0.27697104 0.08549791 -0.21350737 0.17726 -0.08302691 0.4488445 0.5591108 0.21661165 -0.2160279 -0.48932025 0.54606223 0.33475667 0.5526764
end -1.1326324 0.36588532 0.107130736 0.012542427 -0.14799492 -0.053983677 -0.30748606 0.36009094 0.3485952 0.25838137 -0.49211296 -0.32173586 0.2336954 0.24747735 0.32947415
margin -1.6303959 0.43429783 0.075260624 0.10704329 0.031676732 -0.29842544 -0.438124 0.366511 -0.037432987 0.51653296 -0.535281 -0.023413828 0.0012863034 0.26554292 0.12899931
looking -0.8856361 0.055389427 0.34441817 0.093854204 -0.28071824 0.16104281 -0.09586679 0.47152808 0.5061412 0.23322052 -0.2666048 -0.39536557 0.38793582 0.2155384 0.52202475
sheet -1.6431414 0.37844908 0.8866844 0.38900402 -0.20014565 0.11946025 -0.3061578 0.54620165 -0.6248828 0.667152 -0.14662601 0.31338543 0.87926996 0.06442361 -0.08632916
guess -1.0058042 -0.01803111 0.11044478 0.07103314 -0.08350922 -0.11823913 -0.13899314 0.36941975 0.41258407 0.16867119 -0.45582342 -0.30093303 0.49139985 0.14180644 0.3924142
great -0.77313995 -0.21159828 0.24586046 -0.0063393707 -0.2411491 -0.17312522 0.029959818 0.34916773 0.45064738 -0.03870676 -0.4772379 -0.49660861 0.7242241 0.19138657 0.48141262
couple -1.0286288 0.2863138 0.09013227 -0.16809134 -0.31750053 -0.2336039 -0.119738646 0.41201842 0.6417614 0.2828038 -0.62995946 -0.1542492 0.34235522 0.2760582 0.12088532
investments -0.73182356 0.07244587 0.35334185 -0.019493477 -0.15077667 0.32640785 -0.1386307 0.35390422 0.46881422 0.32881257 -0.018842218 -0.47045574 0.68349355 0.39195707 0.84652203
ph -0.92791224 0.07969006 0.27998507 0.027346022 -0.19669399 -0.13234214 -0.12780423 0.45589456 0.34522873 0.21375275 -0.31349084 -0.28912172 0.4372317 0.27738938 0.41041952
book -1.0431724 0.029655015 0.33720517 0.0694492 -0.26650113 -0.0067153596 -0.41237804 0.57602495 0.17492053 0.19383611 -0.37552634 -0.04926465 0.44371572 0.19023278 0.37644297
obviously -1.103007 0.13072465 0.20098978 0.014499137 -0.09667289 -0.18073781 -0.25759572 0.4575202 0.35184678 0.1775284 -0.47517836 -0.17803833 0.26020676 0.186352 0.37220335
commercial -1.0491822 -0.2867163 0.5838002 0.13174543 -0.5354262 0.17938258 -0.27640358 0.43742433 0.19824786 0.034201954 -0.19143806 -0.03570087 0.54536176 0.24168573 0.5063217
range -1.275069 0.34136966 0.13738504 0.029789357 -0.2619739 -0.2578773 -0.34106162 0.5211885 0.26298252 0.44123977 -0.5606434 -0.15499066 -0.04428528 0.309413 0.14583957
talked -0.9686731 0.06327355 0.1793919 0.028466323 -0.22741728 -0.021424724 -0.18744828 0.41691017 0.32775787 0.1964405 -0.45204043 -0.31644008 0.4647651 0.22541937 0.46986324
come -0.9318529 0.21871437 0.3070068 0.019190902 -0.25758427 0.00038948204 -0.11086814 0.4835284 0.45602664 0.25369188 -0.24895449 -0.35747662 0.31953886 0.33036268 0.43226153
youve -0.9307105 0.060009614 0.26679942 0.045305423 -0.12341222 -0.10094641 -0.13489562 0.4622152 0.36057472 0.12802747 -0.45138368 -0.30077243 0.5698939 0.15987813 0.39996973
opportunity -0.77829105 -0.011031446 0.38310033 0.026783573 -0.3674452 0.083521456 -0.1622582 0.43964162 0.4221232 0.22061378 -0.2585938 -0.3353992 0.55665374 0.20976557 0.6815262
whats -1.0565984 0.21271965 0.31703186 0.09686923 -0.21750551 -0.11919596 -0.24941042 0.4342239 0.25414398 0.31952775 -0.37695682 -0.21653584 0.3999437 0.21424824 0.2702646
three -0.99710137 0.46349233 0.1932533 -0.26590016 -0.28144535 -0.19326821 -0.008154505 0.35564813 0.81217474 0.31637296 -0.6622495 -0.27183157 0.30890968 0.27380958 0.087455876
banks -0.7634733 -0.012499799 0.33941543 0.033655867 -0.17600207 -0.0046467436 -0.06297539 0.4593019 0.53558534 0.09366865 -0.3652833 -0.46644375 0.5665757 0.2235945 0.52315384
add -1.0152433 0.09675979 0.130775 0.017538043 -0.45927638 0.024494331 -0.25468856 0.398884 0.38312057 0.23773703 -0.38758275 -0.2571116 0.336494 0.19037184 0.39767176
impact -1.0576671 0.24657105 0.23792638 0.048790827 -0.21640259 -0.03230121 -0.21000105 0.40056914 0.35580736 0.30526122 -0.41923147 -0.1932176 0.28119287 0.22842278 0.3813979
forward -1.0691243 0.33160806 0.22732218 -0.031142129 -0.18675359 -0.15772069 -0.24214534 0.37691486 0.4452808 0.27775615 -0.5133555 -0.27638018 0.22230992 0.26387262 0.28909123
billion -1.109322 0.047137793 0.20818484 0.04087904 -0.02054499 -0.051542573 -0.41531044 0.4735652 0.2528445 0.34415856 -0.43581286 -0.19161567 0.216071 0.42228663 0.39404362
economy -1.0097171 0.15942419 0.22485429 0.007623525 -0.1752603 -0.0992807 -0.18896572 0.365416 0.30325326 0.2700999 -0.37662742 -0.26747262 0.3484163 0.21282089 0.47756544
feel -1.1846653 -0.1623747 0.12546681 0.12646942 -0.29814574 -0.13864097 -0.14242816 0.4206238 0.07395863 0.087772764 -0.44906124 -0.13785087 0.7371905 0.15731777 0.31222793
banking -0.7500442 -0.17405586 0.63312536 0.14626451 -0.5983265 0.35031536 0.050935496 0.518915 0.50582993 0.0077065257 -0.08922221 -0.44457084 0.6515277 0.21997796 0.65751565
mortgage -0.90308195 -0.0367605 0.34655827 0.039892543 -0.46829617 0.089188054 -0.2345668 0.32875362 0.34409666 0.16888542 -0.3012202 -0.28452715 0.46279603 0.25262278 0.6077628
might -1.0407745 0.19059208 0.27674595 0.04887882 -0.16422717 -0.08758664 -0.2301751 0.45167503 0.31824553 0.31961688 -0.41105753 -0.2811963 0.31298554 0.2094459 0.35818318
second -1.1768733 0.044783805 0.1111069 0.027064322 -0.17308645 0.058799665 -0.34381282 0.2587083 0.19318132 0.22492991 -0.55168474 -0.32969558 0.28812677 0.34986863 0.3824347
return -0.9852806 0.25794008 0.21852887 0.1000337 -0.32312623 0.07429433 -0.2651481 0.54009914 0.18921769 0.5543591 -0.26097947 -0.20638333 0.36458838 0.2439132 0.39255217
important -0.8476035 0.10546874 0.28525057 0.07139105 -0.16223168 0.02938395 -0.11539947 0.4116503 0.38136113 0.20778948 -0.27305296 -0.3310351 0.5793622 0.27056295 0.57687086
use -0.8514244 0.19717096 0.29342353 0.06396215 -0.2804725 0.05266613 -0.13485514 0.36459595 0.4399243 0.3321972 -0.16853885 -0.35976294 0.4889956 0.32962546 0.52965736
coming -1.2256316 0.18971926 0.18710582 0.015427773 -0.18071781 -0.20671609 -0.35905948 0.4341636 0.2591443 0.2983158 -0.46961567 -0.055104636 0.20298442 0.240509 0.2576009
efficiency -1.052726 0.365733 0.06342453 -0.03545962 -0.12431179 0.13078801 -0.24110676 0.4732147 0.14958094 0.32219583 -0.40365732 -0.4267174 0.4034172 0.33864135 0.4228846
actually -0.9630376 0.09685345 0.23027654 -0.018140294 -0.14313512 -0.06633082 -0.10041059 0.4277693 0.50799984 0.21425252 -0.41758102 -0.23359081 0.40136558 0.26238552 0.36776516
even -1.0910027 0.2480404 0.31561545 0.09708883 -0.15071198 -0.21606791 -0.19527921 0.48728022 0.3338913 0.25870982 -0.42478824 -0.16150057 0.21378136 0.20689125 0.3618289
interest -1.6935632 0.61371344 0.15959656 0.1524375 0.21714017 -0.33628616 -0.3930954 0.28039104 -0.012668676 0.5316029 -0.4213072 0.033329356 0.037247628 0.20915236 0.26274684
regions -0.7972907 0.07894096 0.3052932 0.041238718 -0.23485678 0.088568926 -0.021924302 0.4359248 0.50171405 0.21838701 -0.31077662 -0.5283008 0.42192182 0.18445848 0.6197481
different -0.7986412 0.10007961 0.34894902 0.01754447 -0.2925386 -0.039636742 -0.16604313 0.5405366 0.49609625 0.13145785 -0.38460818 -0.3577433 0.36723793 0.17061704 0.58241516
businesses -0.800744 0.010433789 0.3784918 0.010521946 -0.28935304 0.15736617 -0.070376836 0.5243905 0.5595666 0.07308797 -0.23897836 -0.3868236 0.43943474 0.26528278 0.550978
start -0.98876363 0.0579112 0.09210296 -0.057286713 -0.23888254 -0.087759934 -0.16557315 0.2758117 0.41513005 0.1684002 -0.4097005 -0.2773275 0.53483343 0.25974226 0.4433997
low -1.3049964 0.3399334 0.17330697 0.002144804 -0.08628706 -0.31989715 -0.36994708 0.33715224 0.29881498 0.27686787 -0.375513 -0.06415384 0.08765668 0.33887565 0.34223464
seeing -0.9848699 0.02421489 0.31591642 0.10355967 -0.1124673 -0.09355429 -0.17205991 0.4199747 0.34238383 0.2003401 -0.29749048 -0.23880956 0.4905584 0.19989288 0.48551086
theyre -0.784104 0.0472319 0.32461387 0.06802221 -0.37045637 0.008766143 -0.058610443 0.43959063 0.48276427 0.09012719 -0.30720365 -0.43928775 0.49870288 0.27439797 0.54698724
level -1.0848325 0.25352696 0.24179532 0.06407731 -0.2229686 -0.13175559 -0.3185262 0.46607757 0.228417 0.461036 -0.38263512 -0.23063195 0.19889139 0.22276133 0.33815268
higher -1.1622341 0.19253317 0.21200797 0.028369045 -0.05593965 -0.21239452 -0.30833316 0.47593582 0.3521851 0.2709617 -0.38520423 -0.09792848 0.17094474 0.22663411 0.341887
leverage -0.9133962 0.12055093 0.32491896 0.030770684 -0.15685962 0.061333142 -0.05280344 0.50103635 0.4167536 0.121667035 -0.2724979 -0.35710254 0.4753366 0.19748454 0.51535064
lending -0.85210204 -0.11187071 0.5854006 0.09594889 -0.4092318 0.06451951 -0.06679315 0.62621 0.3915319 0.0008724212 -0.23649408 -0.25218326 0.5003712 0.1727059 0.46170318
done -0.77565265 0.020235667 0.31550324 0.049411476 -0.34806457 -0.09056387 -0.07458315 0.4376693 0.46272394 0.07073613 -0.40454456 -0.3725017 0.5675846 0.20464537 0.56663895
peers -1.0556515 0.11901026 0.2269443 -0.0054436363 -0.18100205 -0.096647054 -0.23861301 0.41829026 0.39116007 0.30342627 -0.36865252 -0.17592175 0.28055295 0.28818512 0.38474277
process -0.81929386 0.107476786 0.29812476 0.068283886 -0.24307 -0.016644036 -0.06634862 0.36565745 0.47847277 0.09429356 -0.23855327 -0.4473698 0.49981692 0.3134394 0.617937
within -0.93523747 0.047020674 0.46019313 0.074807994 -0.3142355 -0.031537674 -0.15819648 0.5729181 0.27187642 0.19491969 -0.35147512 -0.20769638 0.33838478 0.1664502 0.4583328
simplify -1.0253586 0.07769504 0.06997179 0.06942514 -0.21248247 0.29184687 -0.22956142 0.27379617 0.15707774 0.36958453 -0.33324808 -0.44500172 0.538013 0.3831552 0.48610562
ratio -1.0958515 0.24747576 0.07080186 0.118266635 -0.2056395 -0.0293817 -0.29511365 0.4247161 0.22979866 0.4445512 -0.4971399 -0.30897152 0.38924614 0.2502509 0.33258855
ill -0.85217184 -0.08199825 0.09107697 -0.0013633842 -0.25760844 -0.08756034 -0.18358345 0.3429903 0.47237083 0.10067261 -0.34872422 -0.34507632 0.6927749 0.13707334 0.54375595
something -0.9076969 0.14029343 0.16271798 0.019464983 -0.26155552 -0.1291385 -0.25129372 0.41729692 0.40877786 0.27300724 -0.40848646 -0.35605443 0.335804 0.2651533 0.46320754
around -0.9519817 0.022898834 0.28091058 0.09666207 -0.30044267 -0.08651089 -0.18773197 0.4733949 0.41224048 0.17889513 -0.36806366 -0.2506818 0.4209471 0.19175436 0.39591154
cost -1.224266 0.25128126 0.2308944 -0.03342217 -0.29063946 -0.1889308 -0.4303135 0.50996876 0.42614228 0.35110086 -0.2976304 0.04360151 0.1332349 0.31399465 0.24011458
increase -1.1912786 0.2131812 0.1853657 0.06224656 -0.12543681 -0.18562986 -0.25241312 0.43614095 0.29394433 0.32776073 -0.3350415 -0.1215825 0.18337174 0.2906019 0.3500387
trying -0.91467077 0.19555093 0.32650676 0.05643277 -0.21983622 -0.07315877 -0.17320766 0.44305024 0.33284062 0.19542077 -0.3119655 -0.31941396 0.39833486 0.28102574 0.4576944
people -0.78488255 0.12221739 0.2943455 0.05155116 -0.24173753 0.03851749 -0.05874744 0.4860619 0.48252547 0.18733911 -0.2842179 -0.39645353 0.47878727 0.27994564 0.57944894
based -0.92704123 0.21690434 0.31585857 0.015871825 -0.2457007 9.593963e-05 -0.20691244 0.5536351 0.31968993 0.29518878 -0.36767778 -0.3168635 0.33637974 0.22502398 0.29795533
quality -0.93106073 -0.108719036 0.43826008 0.117146835 -0.3669983 -0.04015205 -0.07784308 0.565856 0.4038016 0.16889466 -0.28838015 -0.25765964 0.5706 0.06415972 0.40976354
versus -1.0701324 0.14039548 0.26067922 0.019108053 -0.12532403 -0.13428776 -0.25022432 0.44791764 0.278892 0.30551764 -0.32919353 -0.17026277 0.33749375 0.26265454 0.42217985
expense -1.0340426 0.14660594 0.23613593 0.00067153026 0.026404843 -0.02045168 -0.17123969 0.36937132 0.2056271 0.23370337 -0.28736866 -0.27507964 0.589915 0.3337152 0.5639573
thing -0.8553999 0.046170086 0.19068949 -0.009801504 -0.31333143 -0.052385505 -0.08705123 0.42418745 0.49728063 0.14314996 -0.2956857 -0.3759254 0.47101456 0.2926369 0.47215316
estate -1.0177004 -0.30123833 0.8561535 0.12916438 -0.9044364 0.45446032 -0.41289422 0.5418572 -0.070223585 0.25590628 -0.48453036 0.22042537 0.5304601 0.014145547 0.63269347
focus -0.8448935 -0.012399528 0.34962887 0.016891915 -0.3533282 0.094956994 -0.08332514 0.52249247 0.46599036 0.114076965 -0.3083535 -0.27439684 0.47859427 0.23919797 0.55916125
probably -1.1290698 0.13455756 0.16061915 0.01802975 -0.35520053 -0.09105325 -0.3225858 0.43243453 0.24404295 0.2774007 -0.451772 -0.13716863 0.17261514 0.28125668 0.34029475
share -0.8128919 0.13621779 0.25868955 0.07610755 -0.13287047 -0.015073569 -0.20167932 0.47742167 0.37889263 0.15439275 -0.35537076 -0.35296655 0.547067 0.27424026 0.5416815
big -0.95684373 0.09099439 0.27665773 0.07582892 -0.18021895 -0.02812456 -0.18823056 0.4046013 0.40055895 0.16547887 -0.37489605 -0.32137462 0.41470554 0.29918092 0.4546945
work -0.78835034 0.04167829 0.2551144 0.053627364 -0.33397666 0.04993597 -0.07774551 0.44753292 0.40868524 0.14832565 -0.36361328 -0.43139908 0.5863488 0.20047174 0.55637825
guidance -1.260899 0.2764717 0.1255516 0.022306308 -0.1306691 -0.17090647 -0.36230242 0.37955636 0.14715415 0.38034633 -0.480053 -0.115316756 0.20502274 0.3006736 0.32141656
seen -0.92602015 0.065416604 0.29530022 -0.01344226 -0.22857192 -0.120336324 -0.16655052 0.4490833 0.48084998 0.13429126 -0.39111486 -0.22124209 0.37428838 0.20838812 0.51139045
able -0.99697924 0.20888945 0.29781938 0.040084876 -0.17570375 0.011037184 -0.19849811 0.44186834 0.32727596 0.3864037 -0.25272465 -0.29472706 0.35964018 0.37273148 0.4407877
net -1.7282633 0.5537106 0.20319387 0.15600756 0.079102285 -0.2837368 -0.41819775 0.36878017 -0.1621137 0.47597632 -0.45424655 0.08917369 0.104663216 0.2045886 0.15514432
getting -0.83702886 0.12596218 0.31218636 0.05835007 -0.2880721 -0.0056794 -0.11132783 0.5148862 0.4564765 0.16041204 -0.36313197 -0.27809295 0.4391427 0.25244763 0.49971688
new -0.91757625 0.17585608 0.334267 0.07203032 -0.27684537 0.026366895 -0.032871097 0.4294347 0.5000308 0.2376846 -0.2502867 -0.38474968 0.34088472 0.22829236 0.47988632
core -1.0262263 -0.10988796 0.24419208 -0.053159595 -0.20814754 0.12340975 -0.19430138 0.43072525 0.50973916 0.14374317 -0.20529117 -0.04894644 0.49624854 0.4381434 0.50267905
investor -0.98239696 -0.09095052 0.49215835 0.08469279 -0.47903523 0.28540337 -0.2865531 0.63982517 0.24870166 0.08335112 -0.6581978 0.02648339 0.50735307 -0.10540612 0.41676703
beta -1.1135875 0.1609878 0.24789649 0.026215816 -0.18111722 -0.2433956 -0.33567291 0.4410406 0.48284382 0.20589773 -0.38399947 -0.1424624 0.24951588 0.3027664 0.22367235
third -1.1730497 0.08833229 0.08684095 0.02622201 -0.09790197 -0.043983538 -0.3155749 0.23931351 0.2117528 0.20719832 -0.49939293 -0.34204492 0.30262357 0.30445737 0.4092453
income -1.4791992 0.42248985 0.23288198 0.14656658 0.10877134 -0.12221182 -0.32004732 0.4011324 -0.12541912 0.49472547 -0.3862568 0.005331764 0.19575436 0.2389571 0.2811004
making -0.8823157 0.09062937 0.3194919 0.06371953 -0.16610456 0.1879534 -0.01198799 0.46866348 0.31984264 0.27488196 -0.25592524 -0.43152285 0.53193223 0.23815262 0.6368161
benefit -0.9751414 0.15345095 0.24651065 0.005594526 -0.19048384 -0.03695152 -0.23768596 0.47411874 0.41528758 0.19861813 -0.37527215 -0.28569812 0.30237597 0.28953388 0.45472473
may -0.9541145 0.19601813 0.25427622 0.00021603565 -0.1306656 -0.009810559 -0.08792003 0.47323582 0.43226343 0.2612581 -0.3188579 -0.33334967 0.38215584 0.2645575 0.39556634
mean -0.91073453 0.06600861 0.23709765 0.04236605 -0.17413741 -0.05441384 -0.16677669 0.38190752 0.4003674 0.21841122 -0.37627268 -0.36081317 0.4591093 0.17603691 0.48429638
indiscernible -0.9218783 0.17116547 0.259471 0.04847953 -0.22993097 -0.06251539 -0.19363448 0.45931587 0.3742808 0.20916523 -0.40531114 -0.2935525 0.42413002 0.24012172 0.42301685
standpoint -1.0361899 0.15740004 0.23579846 0.0625686 -0.22833611 -0.016881147 -0.23053026 0.3684892 0.26875016 0.28984666 -0.3452675 -0.24301818 0.4105505 0.32565606 0.44423845
management -0.865445 0.11199436 0.35835925 0.0818406 -0.36038798 -0.031612117 -0.20676704 0.5297071 0.45456898 0.21079645 -0.30995572 -0.2753025 0.27449074 0.32832536 0.44625056
every -0.8764875 0.09905726 0.2983863 0.073134124 -0.2063111 0.122160085 -0.1401441 0.45901942 0.44682625 0.113478824 -0.35786736 -0.3678376 0.48651558 0.26381597 0.4932021
whether -0.8652106 0.05576358 0.3509363 0.0060371505 -0.29059115 0.09579689 -0.1090214 0.47335008 0.42136514 0.16503437 -0.2696002 -0.33592746 0.4352954 0.26456165 0.50556976
call -0.9362044 0.11933781 0.25277755 0.043983083 -0.289503 -0.05768328 -0.103893 0.50829583 0.49061525 0.12429369 -0.3107174 -0.2974036 0.2741384 0.3446189 0.44395313
across -0.865917 -0.037884247 0.3855188 0.06734428 -0.2635898 0.025273519 -0.14489327 0.41939574 0.36867693 0.15107216 -0.27227953 -0.3494971 0.52957016 0.21450303 0.5289648
indirect -0.9211678 -0.121445045 0.3605785 0.04178888 -0.20985453 -0.13252647 -0.15444617 0.5982289 0.40960282 0.007109623 -0.31397682 -0.22713755 0.35332957 0.26093656 0.38844356
wanted -0.98630184 -0.100903526 0.16422471 0.14653797 -0.13893856 -0.14923103 -0.12270051 0.40625325 0.2581833 0.16344942 -0.37967885 -0.25411656 0.58164084 0.2144245 0.33101258
assets -1.2525419 0.24389881 0.32657772 0.11432907 -0.098403424 -0.033880286 -0.34940377 0.5060774 0.047092635 0.34182566 -0.28616118 -0.062113725 0.30063978 0.27624637 0.35314575
plan -0.8743274 0.120347045 0.20318685 0.026530588 -0.25225973 0.0015740864 -0.09785917 0.45498547 0.38128948 0.24365893 -0.37653828 -0.4117629 0.3911649 0.2545799 0.47724035
equity -1.070658 0.15244043 0.27702624 0.1821488 -0.4958414 -0.06079049 -0.18138193 0.7514798 0.17318068 0.5675602 -0.2851739 0.052216567 0.20902433 0.32616118 0.17803474
securities -1.128936 0.14469226 0.321765 0.08909606 -0.15850285 -0.1227817 -0.36292303 0.605044 0.12420661 0.37140402 -0.32034865 -0.039140187 0.3025052 0.28404412 0.3155388
base -1.112755 0.03551115 0.26766998 -0.06524957 -0.14057386 0.056656897 -0.3578029 0.5019946 0.4930802 0.16709375 -0.171209 -0.015392357 0.37304568 0.4126355 0.46020848
target -0.93672293 0.15557891 0.17461127 0.06347072 -0.2551887 -0.012545187 -0.12608849 0.5928102 0.33086988 0.3702618 -0.40131292 -0.29003432 0.35654226 0.23307167 0.4221169
clearly -1.0773239 0.27657703 0.33687544 0.0255585 -0.125549 -0.14739417 -0.20686828 0.3914469 0.31313798 0.2389151 -0.35157996 -0.20302282 0.36660475 0.1977793 0.4182384
branches -0.76890165 0.11848132 0.30587596 -0.008275547 -0.27237794 0.0042984164 -0.063057065 0.46653718 0.549055 0.14233279 -0.2804566 -0.38724557 0.47804406 0.2941663 0.5764647
digital -0.7966373 0.08386863 0.35296336 0.042807586 -0.37622932 0.07427114 0.009877271 0.4883393 0.5950996 0.06628139 -0.1695084 -0.4334318 0.5200451 0.31732166 0.5525979
spend -0.7979642 0.1769742 0.29452488 -0.07374854 -0.27644202 0.083237246 -0.10665906 0.40489033 0.5253172 0.1900778 -0.36002114 -0.49466938 0.47852212 0.249829 0.5995497
earlier -0.9952466 0.07069559 0.16246204 0.050527573 -0.24214403 -0.06134391 -0.17642784 0.40362704 0.31761613 0.19373718 -0.41374764 -0.31888103 0.43119496 0.2678762 0.40373635
made -0.86214167 0.11696259 0.30962756 0.037955306 -0.22064802 0.034182217 -0.09446717 0.48729938 0.3833276 0.2561801 -0.2875806 -0.2887487 0.46075046 0.24101835 0.4931165
another -1.1111219 0.14951925 0.2299135 0.02633727 -0.30017158 -0.144045 -0.2988259 0.4602657 0.35455945 0.2727773 -0.44991833 -0.16602135 0.22734092 0.27406186 0.27068043
result -0.8667523 0.0879445 0.34644443 0.07174238 -0.2664414 0.004780353 -0.16547745 0.48645115 0.4077197 0.20150252 -0.32018316 -0.30110905 0.42880118 0.23133476 0.4480361
accounts -1.0983685 -0.3303642 0.28004134 -0.0073048263 -0.109437205 0.079825126 -0.064723305 0.51348674 0.73117054 -0.1983623 -0.17672603 0.14859864 0.5879606 0.49477798 0.43163204
cycle -0.911203 0.18827716 0.25757787 0.05446724 -0.18320706 -0.11371467 -0.1425661 0.44837704 0.45743915 0.25394836 -0.3273108 -0.35965258 0.35344663 0.21502781 0.4619891
saw -1.1020855 0.049391195 0.18360457 0.033538938 -0.19463427 -0.07024655 -0.2602861 0.36837357 0.21020652 0.26616308 -0.4250739 -0.23368987 0.3466053 0.28309575 0.45092002
expenses -0.9839848 0.117141716 0.21112473 0.06698628 -0.07762294 0.04897227 -0.14924443 0.37909335 0.35851976 0.24720213 -0.30807272 -0.32255793 0.42177448 0.29669237 0.53977764
focused -0.8457405 0.083653785 0.36938733 0.07393375 -0.2959282 0.063981265 -0.11211102 0.45618555 0.41615036 0.10939422 -0.28103513 -0.35997984 0.4958271 0.24113153 0.45091543
returns -0.8409111 0.08793991 0.32546368 0.07516887 -0.2592364 0.023506481 -0.0952528 0.54877335 0.334103 0.27016172 -0.33452052 -0.3692313 0.43317512 0.24859162 0.4451036
financial -0.77912825 0.05154199 0.36283132 0.023630125 -0.28090984 0.12735598 -0.059499864 0.4431354 0.37487164 0.20689659 -0.32182676 -0.40763798 0.46525434 0.22322235 0.54978836
improve -0.83780795 0.088115 0.27336684 0.013982517 -0.27260208 0.15974256 -0.08188403 0.48848528 0.46311533 0.25784755 -0.23289792 -0.43622726 0.49127126 0.27130195 0.56947803
capabilities -0.83606476 0.10638364 0.32118914 0.015375808 -0.3247071 0.1899522 -0.05063366 0.42806605 0.45927104 0.18055782 -0.14719468 -0.46276537 0.54852694 0.30780572 0.6146066
improvement -0.8829133 0.16111779 0.27914655 0.068051144 -0.23383772 0.096675456 -0.09322717 0.39159545 0.3850961 0.23018144 -0.28228998 -0.4176352 0.5670278 0.28822345 0.57128185
investment -0.97472984 0.094537765 0.27878135 0.022833554 -0.24592818 -0.016208014 -0.23833476 0.4857357 0.2768985 0.24984676 -0.31326246 -0.23791592 0.42084703 0.27060634 0.4511668
questions -0.9342581 -0.05945645 0.11120207 -0.026312858 -0.18770576 -0.11099195 -0.10167414 0.43797284 0.36989757 0.07209621 -0.4910579 -0.31695753 0.5558015 0.18916886 0.3898019
let -1.0151228 0.03584654 0.109580845 0.0048552523 -0.20982459 -0.057198446 -0.19399923 0.3728601 0.35319299 0.16039205 -0.36004856 -0.30064344 0.51309425 0.19048001 0.4578944
outlook -1.1235604 0.18832104 0.20889023 0.036404468 -0.07853111 -0.13545723 -0.22624542 0.45093766 0.28054827 0.2795267 -0.40801448 -0.18633896 0.3360055 0.19972308 0.36035112
common -0.9704632 0.1822502 0.24304911 0.089464925 -0.56852573 0.04240263 -0.14320195 0.771546 0.27799198 0.61133254 -0.39696327 0.020359097 0.20764785 0.2576427 0.20094867
fourth -1.2259982 0.036354393 -0.013224432 -0.020597449 -0.03775847 -0.075695276 -0.33065927 0.20808132 0.17370677 0.27452773 -0.49640813 -0.3793648 0.3239121 0.3065891 0.4010355
center -0.7217229 0.06921096 0.3179367 0.05585694 -0.3332732 0.016013695 -0.007946201 0.48767313 0.60450435 0.0410215 -0.24787576 -0.50325894 0.449489 0.42005023 0.6441007
didnt -0.9547675 0.111630134 0.26297736 0.046561345 -0.19346617 -0.06987411 -0.19128762 0.41844615 0.3918882 0.24763411 -0.3132232 -0.28508508 0.33930522 0.2779165 0.47830817
hi -0.9876857 -0.37038043 0.08480216 0.12637752 -0.021080362 -0.096614234 -0.08076686 0.4344839 0.15239361 -0.0357673 -0.406739 -0.20672613 0.8074733 0.068089224 0.24678507
long -0.9724199 0.21941264 0.3259808 -0.008920505 -0.22149643 -0.03653611 -0.056587804 0.48459274 0.44988012 0.13985138 -0.3451245 -0.3191185 0.31543612 0.24434948 0.4298376
term -0.99411505 0.17792076 0.41995552 0.06312789 -0.3204667 0.015028761 -0.15390752 0.5716847 0.3314195 0.16867916 -0.2387385 -0.21829487 0.41990638 0.15700562 0.3819988
exposure -0.9751696 0.098100595 0.42599455 0.106357396 -0.26193342 -0.08302711 -0.12082315 0.5749319 0.30734044 0.113043934 -0.31501055 -0.26359096 0.3934225 0.21537718 0.32903072
curve -1.0453598 0.2986641 0.27985236 0.062332846 -0.15093052 -0.18834002 -0.12274043 0.48142585 0.4416783 0.17453277 -0.47868478 -0.29056278 0.23209618 0.21954207 0.34573665
operating -0.93442184 0.09848159 0.32038534 0.03655283 -0.14361294 0.11199566 -0.093348324 0.46155378 0.45140338 0.11403674 -0.3686851 -0.33311567 0.5389492 0.2861366 0.47069022
asset -1.0172131 0.1402529 0.32194495 0.052354984 -0.14989014 -0.14309935 -0.20831406 0.43471166 0.30284178 0.21770754 -0.384903 -0.2075697 0.39820424 0.20935003 0.3808614
particular -0.9325755 0.097983345 0.27776766 -0.0015497013 -0.22349843 0.02995851 -0.18235789 0.47353584 0.42422646 0.15775794 -0.3040595 -0.3202839 0.43381178 0.22409756 0.49555925
thought -1.0780783 0.2005953 0.22265673 0.072296575 -0.16278324 -0.130286 -0.24647446 0.42631283 0.34450066 0.29319197 -0.3963781 -0.20355503 0.24313125 0.24809904 0.3975902
appropriate -0.88357484 0.14692873 0.28128198 0.013042509 -0.28181309 0.08304352 -0.16255932 0.57004666 0.296788 0.29218102 -0.27989644 -0.37320247 0.45555288 0.28823748 0.46120083
youll -1.0547065 0.10109814 0.17840481 0.008452593 -0.18663037 -0.024558965 -0.25514397 0.38727704 0.34355277 0.23889734 -0.36071664 -0.18940438 0.37769198 0.32062808 0.4135129
manage -1.0022129 0.19325237 0.37174293 0.10801751 -0.2427842 -0.013438811 -0.23517972 0.5242409 0.22451459 0.32902825 -0.29229707 -0.20022357 0.4256036 0.2109075 0.39875963
nii -1.3345597 0.30910206 0.16294 0.07164224 -0.040812362 -0.066126086 -0.37344912 0.3419983 0.016626956 0.49257073 -0.30881482 -0.12372879 0.3209279 0.3298513 0.37296
advantage -0.8783377 0.16541585 0.3577215 -0.023692347 -0.22557044 0.011082221 -0.22862926 0.55914944 0.43239895 0.33094645 -0.21859296 -0.27974236 0.3851875 0.26225922 0.515443
lower -1.1715343 0.30108303 0.25819921 0.053379595 -0.14406832 -0.22626929 -0.24219596 0.4956265 0.32178366 0.32697716 -0.45273262 -0.14776859 0.17258732 0.25740108 0.29272583
industry -0.9154585 0.027533408 0.32566863 0.050365876 -0.24696729 0.042392008 -0.13265587 0.4151214 0.37893438 0.18910465 -0.3462061 -0.2972071 0.3969231 0.24414025 0.54235464
cecl -0.9782868 0.06153199 0.18572742 0.03301332 -0.21184118 -0.095693916 -0.1006151 0.50336415 0.35544738 0.1528415 -0.4077607 -0.298389 0.4354119 0.2232684 0.4001451
fed -0.9857781 0.21432354 0.30723342 0.07630727 -0.13407214 -0.19688247 -0.19742115 0.46600613 0.42847922 0.19274406 -0.344388 -0.22338454 0.2572565 0.23132974 0.4200617
expectations -1.1034168 0.13995986 0.20460428 -0.00027055535 -0.19801715 -0.108394176 -0.22934638 0.40666127 0.31765154 0.30701676 -0.41084552 -0.18140031 0.3729082 0.21855211 0.3725938
past -0.95811063 0.076842405 0.1954926 0.034706607 -0.1582749 -0.052398942 -0.20846668 0.39834136 0.4198427 0.2394173 -0.4256199 -0.33091798 0.3937062 0.24609125 0.4553043
changes -0.9053287 0.16136171 0.27774474 0.015140727 -0.20172238 -0.040631767 -0.1370411 0.4921028 0.4104304 0.20492254 -0.30247247 -0.34834158 0.4055752 0.2556278 0.47724965
yes -0.9070792 0.06483533 0.22818547 0.01167475 -0.21398148 -0.036543798 -0.1415106 0.41550004 0.39231333 0.16733575 -0.31662992 -0.3550873 0.4748049 0.27109694 0.47266626
period -1.0257379 0.14074934 0.26814857 0.0042284 -0.21971492 -0.085951276 -0.15453921 0.42385292 0.40487474 0.17836218 -0.4235167 -0.28568095 0.34418038 0.17947084 0.4218278
run -0.93941164 0.16766283 0.26747215 -0.013722562 -0.17626315 0.006772202 -0.20403586 0.48767668 0.3638125 0.32690424 -0.37574267 -0.24565639 0.33093968 0.247807 0.4750914
stable -1.0523012 0.18275195 0.30065602 0.021489702 -0.14389747 -0.049671214 -0.25358605 0.47976428 0.33881295 0.24270159 -0.3352988 -0.22608079 0.3370269 0.2848922 0.4392298
stay -1.0093932 0.21636721 0.3051191 0.09930813 -0.263733 -0.10829766 -0.21888006 0.48780984 0.3722867 0.22681603 -0.33216694 -0.30317837 0.31760204 0.24144801 0.42152208
area -0.9280193 0.0327175 0.31864852 0.050417636 -0.28416905 0.03747744 -0.16554935 0.49893025 0.36072785 0.14307135 -0.31425765 -0.2829301 0.3864525 0.27508184 0.4381635
keep -0.9209739 0.23763433 0.30014855 -0.01148416 -0.18426143 0.0066245086 -0.18275076 0.44972593 0.35855806 0.24312589 -0.28773376 -0.33317837 0.4010904 0.26157072 0.5035758
fairly -0.9785501 0.20230709 0.29132304 0.066269994 -0.22538452 -0.10336765 -0.18973966 0.47043473 0.40412295 0.16679925 -0.37345204 -0.23476696 0.2973646 0.30189937 0.41914752
continuing -0.98179126 0.096243225 0.25339383 0.046431527 -0.2420807 0.026474396 -0.19045568 0.41926238 0.43998316 0.18621059 -0.24999885 -0.3115574 0.42693877 0.28608847 0.54485124
ago -0.954353 0.30014655 0.28121197 -0.07889998 -0.27054125 -0.0898186 -0.09576838 0.38945028 0.61369675 0.25689942 -0.52190965 -0.26835033 0.32792068 0.2908649 0.2967943
data -0.8524908 0.034418933 0.32645848 0.008364463 -0.30070645 -0.0897591 -0.097343214 0.44106403 0.51057166 0.1617233 -0.33035582 -0.30674276 0.35983858 0.26988536 0.41106358
less -0.98290926 0.13548948 0.2677927 -0.008149234 -0.18967377 -0.07397431 -0.13143733 0.43776435 0.336038 0.28284556 -0.35576808 -0.27457553 0.39619067 0.2592248 0.44631743
program -0.9693494 0.13096493 0.24130534 0.04137262 -0.21672067 -0.022420019 -0.16248754 0.37882617 0.31698307 0.22635213 -0.36463302 -0.3588885 0.37714133 0.28393427 0.52636075
ask -0.8882613 -0.1009156 0.10508221 0.12199146 -0.1502756 -0.030768482 -0.09948418 0.39159206 0.36144823 0.15490392 -0.4005996 -0.35806566 0.6278515 0.1898797 0.43276274
wealth -0.8203083 0.033020046 0.44002283 0.017455932 -0.28106242 0.13250512 -0.14761777 0.47338253 0.47031033 0.14209445 -0.25484017 -0.38024855 0.51159024 0.32153502 0.5270889
initiatives -0.9643359 0.1513177 0.17119208 -0.009320446 -0.18975441 0.017956356 -0.16345051 0.38227764 0.2851812 0.22622113 -0.34184182 -0.4006417 0.44648483 0.31514356 0.53816086
space -0.79091746 0.048537876 0.4728537 0.06705569 -0.37627783 0.010708921 -0.09690654 0.4783772 0.4388505 0.13915403 -0.30045053 -0.30509943 0.41988713 0.18029268 0.5404723
ability -0.99501467 0.09838334 0.27518216 0.036217246 -0.15564768 -0.076622374 -0.2077409 0.46205184 0.40280917 0.30364844 -0.2891922 -0.25541094 0.37639517 0.24072027 0.47540352
gerard -0.8968119 -0.11327812 0.1307526 0.03776611 -0.1676565 -0.013583089 -0.120167114 0.42335644 0.33148226 0.059651036 -0.33283716 -0.30433625 0.6281025 0.13964784 0.35521853
months -0.996749 0.12851925 0.21822351 -0.004901365 -0.16088322 -0.13624777 -0.15258057 0.4187315 0.48815766 0.2388146 -0.4042994 -0.20117866 0.3449602 0.2375455 0.43081287
portfolios -1.0070416 -0.014819888 0.3197337 0.04109894 -0.24988322 -0.022914 -0.21176505 0.49932337 0.35466978 0.14207679 -0.327144 -0.25394678 0.41677868 0.23965687 0.44264683
sort -1.0232394 0.15528244 0.21913709 0.06903502 -0.19278196 -0.118252724 -0.2012146 0.43671218 0.34286532 0.25588638 -0.32859188 -0.22930682 0.3229551 0.2921092 0.39195898
expectation -1.1677295 0.23750263 0.13471355 0.027995463 -0.25678867 -0.13975446 -0.27475512 0.37848333 0.2911092 0.35268497 -0.39619014 -0.23310223 0.25718585 0.22025606 0.3334245
checking -1.1577001 -0.27803063 0.23292431 -0.025942545 -0.046236027 0.08513599 -0.13496834 0.47733048 0.6329907 -0.09640285 -0.21706627 0.10532756 0.54007626 0.44415596 0.47937465
positive -0.9689421 0.099312 0.30960068 0.03619205 -0.13132927 0.060812477 -0.09404859 0.4970088 0.41220975 0.14192118 -0.40494317 -0.30695447 0.46395946 0.17590888 0.50584424
costs -1.1663022 0.04778082 0.21586125 -0.010170831 -0.12009367 -0.1402422 -0.33546683 0.53337693 0.41041413 0.28561515 -0.26102924 -0.050469864 0.26036486 0.3370575 0.35534704
money -0.8043258 0.07545198 0.301395 0.042775393 -0.22043413 0.048983112 -0.0875423 0.47794625 0.5452692 0.085899055 -0.3266433 -0.44015312 0.51232755 0.2994685 0.63032883
amount -0.8726723 0.106224395 0.28107455 0.0049200645 -0.24995454 -0.013741028 -0.14635779 0.50623876 0.3720962 0.2190486 -0.3097885 -0.32373244 0.49609864 0.24787411 0.48592556
half -1.1198874 0.095795415 0.18876852 0.01835211 -0.2225922 -0.070720926 -0.28328305 0.31857535 0.25628626 0.22735572 -0.4566174 -0.19676003 0.41135612 0.28425464 0.37892243
shareholders -0.8522329 0.18581495 0.26532477 0.048816584 -0.23810431 0.006882907 -0.14774078 0.54232925 0.33780882 0.3138068 -0.2894191 -0.37297606 0.403384 0.2935458 0.47878927
branch -0.8659148 0.07053688 0.29775667 0.018345095 -0.31226376 -0.005404475 -0.049838684 0.45405152 0.49550983 0.15763426 -0.29139873 -0.2992326 0.42785543 0.2805277 0.5263096
tell -0.90558213 0.10187375 0.29779178 0.056039773 -0.28842223 0.028801529 -0.1223124 0.43812525 0.44831303 0.17170656 -0.32398823 -0.34851578 0.40908223 0.20840831 0.49341518
relative -1.035419 0.16757116 0.2098206 0.02228454 -0.29874352 -0.08178075 -0.23112735 0.5016842 0.32798803 0.27254197 -0.33824098 -0.19723123 0.30245656 0.23729876 0.3633988
q -0.9019063 -0.06499464 0.18991125 0.10138024 -0.12712754 -0.20007643 -0.15655367 0.44764474 0.39163142 0.1802738 -0.4241239 -0.36081362 0.46503043 0.24764001 0.41427717
place -0.9600295 0.13774952 0.20455538 0.014341211 -0.24173664 -0.05691379 -0.10005951 0.4233467 0.38092852 0.22656626 -0.36343172 -0.3131175 0.46705353 0.2090715 0.4729827
early -0.8857827 0.07581123 0.25394356 0.025140686 -0.21907319 -0.063711844 -0.13866243 0.45126137 0.45457265 0.1985773 -0.31261536 -0.36193115 0.38193628 0.26826212 0.44183233
always -0.8268296 0.030842641 0.3286025 0.04938422 -0.3071741 0.046475463 -0.068805985 0.49210855 0.4582721 0.14414659 -0.32291836 -0.36612973 0.48520595 0.273241 0.5447615
move -1.1006131 0.1501319 0.20583808 0.018262668 -0.2093513 -0.13436715 -0.2356031 0.477579 0.32376727 0.28245693 -0.43513793 -0.14679496 0.31232935 0.2413365 0.322815
energy -0.90873903 0.05114907 0.36647075 0.064861566 -0.23990454 -0.08666575 -0.08504888 0.4742684 0.3929897 0.10273004 -0.34902674 -0.24929546 0.47674137 0.20381457 0.46122262
barb -0.9253327 0.0007066652 0.23187305 0.042274185 -0.24952246 -0.102924235 -0.12965627 0.43432692 0.38495192 0.15603895 -0.3920082 -0.2581752 0.4597078 0.19549577 0.38231617
best -0.9065315 0.15521027 0.29477012 -0.03035581 -0.2566783 -0.009591268 -0.15766591 0.44382808 0.4400077 0.23981698 -0.2766278 -0.33699608 0.39593327 0.26312092 0.47780374
helpful -1.0033586 0.0574789 0.2218723 0.013152102 -0.14747846 -0.21631062 -0.13011135 0.3635989 0.3937831 0.13400461 -0.39709154 -0.27507767 0.45715496 0.27377194 0.37057322
thinking -0.94025 0.13360311 0.28789917 0.097197704 -0.16081105 -0.08055457 -0.17503276 0.50158364 0.35001734 0.25934118 -0.39015922 -0.22926618 0.351971 0.2116974 0.40434602
times -0.94166505 0.1261407 0.23323473 0.031349372 -0.21417077 -0.031470273 -0.1872144 0.4327443 0.38240787 0.2160435 -0.34399575 -0.2707992 0.39840475 0.30153725 0.43767378
using -0.7481286 0.048314117 0.3112457 0.032622807 -0.24347755 0.004856227 -0.07503614 0.50983435 0.5664427 0.15895435 -0.25102744 -0.45033637 0.4479459 0.32330874 0.6004222
top -0.94082963 0.14476494 0.30043513 -0.00075109216 -0.18619765 -0.07038779 -0.15210642 0.5039316 0.4558401 0.16713096 -0.32984772 -0.31388134 0.35759577 0.21192148 0.4463589
plus -1.0490196 0.109869845 0.19300732 0.017317826 -0.15314868 -0.05112995 -0.2631106 0.4049026 0.19393322 0.33555108 -0.35203928 -0.25137755 0.42954057 0.34238032 0.49582818
competitive -0.89682055 0.12891519 0.3553324 0.026228704 -0.2128633 -0.038295943 -0.2067012 0.5219109 0.41694847 0.21911891 -0.2194858 -0.27047142 0.37192237 0.29330406 0.49561715
example -0.84519106 0.04045391 0.30486685 0.0061082104 -0.29782388 0.043260537 -0.16968729 0.5273591 0.4833546 0.18538018 -0.2618752 -0.31552228 0.43161318 0.2359821 0.5080061
numbers -0.94229734 0.13354427 0.29786935 0.03301545 -0.21991472 -0.0058987355 -0.19298232 0.49738058 0.39591727 0.18504614 -0.34428588 -0.2571188 0.45231283 0.25067827 0.4365632
already -0.9326716 0.14142637 0.2870164 0.037483346 -0.15009074 -0.03844594 -0.14334415 0.46801478 0.40584883 0.19105227 -0.34180698 -0.33217385 0.3812878 0.28519183 0.48852152
challenging -1.0296226 0.2586735 0.23754711 -0.002719471 -0.083053455 -0.10088765 -0.0919814 0.4273239 0.3890197 0.18296552 -0.42676398 -0.33934706 0.42669907 0.24136169 0.45405608
potentially -0.94632626 0.20503849 0.33639655 0.11764517 -0.20883659 -0.05197043 -0.13150181 0.5081714 0.35363635 0.25123748 -0.332173 -0.31685227 0.33480546 0.22392973 0.44460338
high -1.0556206 0.10476101 0.24343432 0.052622814 -0.24936524 -0.053636078 -0.18159206 0.53367835 0.38412142 0.27808553 -0.3421082 -0.18389788 0.3487861 0.2661691 0.37341198
fact -0.914288 0.121712655 0.2913882 -0.004658818 -0.25525582 -0.048053395 -0.15090927 0.4598818 0.47132456 0.17539172 -0.3335706 -0.27130547 0.36841488 0.30201465 0.45830536
taking -0.92102295 -0.0769349 0.17810316 0.05290748 -0.12789677 -0.10894243 -0.07701189 0.4269466 0.36473113 0.10719835 -0.41704136 -0.36141005 0.56467855 0.21913399 0.39734492
wondering -1.0395948 0.033884667 0.21011053 0.089373924 -0.07369305 -0.0737509 -0.2136376 0.45836082 0.29290044 0.25258195 -0.38109785 -0.2203726 0.41083664 0.17481066 0.42260998
cant -0.92142487 0.102374695 0.26394594 0.008039039 -0.23360127 0.018815516 -0.15667577 0.46440628 0.41529453 0.2519669 -0.28617603 -0.30572078 0.41069454 0.25661907 0.5198262
quite -0.94977295 0.09553595 0.17348608 0.04125271 -0.18188493 -0.12993683 -0.1390676 0.45383605 0.37945423 0.19555478 -0.3872524 -0.2874317 0.32796755 0.2874875 0.45413107
mobile -0.82439953 0.10396305 0.35396585 0.03714045 -0.30153292 0.044024564 -0.029879408 0.44738507 0.5237453 0.1073616 -0.26394737 -0.40599272 0.44375598 0.26999843 0.54233974
answer -0.9495185 0.08520373 0.20953116 0.015562642 -0.17806366 -0.032098673 -0.12355969 0.43033627 0.4184323 0.10622698 -0.39069736 -0.3224255 0.5027489 0.30533174 0.4281189
account -1.0492482 -0.10457928 0.29240927 0.008441062 -0.18678583 0.01729059 -0.13852239 0.42712322 0.47409067 0.10582553 -0.28025877 -0.0669759 0.5021099 0.3465465 0.4789201
working -0.914229 0.106657 0.24600177 0.07624545 -0.24020985 -0.024134558 -0.13102312 0.44261873 0.4371708 0.20830259 -0.3821751 -0.32254955 0.40972364 0.27124658 0.4732219
total -1.0238229 0.12594554 0.31975734 0.065464996 -0.24503249 -0.09859536 -0.2451686 0.5065976 0.32484522 0.20121284 -0.30288988 -0.1822674 0.39019498 0.3279653 0.37521616
platform -0.8789673 0.022821069 0.3270346 -0.01199347 -0.30629638 0.011709155 -0.0462696 0.4715957 0.53895736 0.103271194 -0.29048967 -0.33158112 0.46122807 0.2868887 0.5113956
roughly -1.0296432 0.19340943 0.25756055 0.0013558154 -0.25671932 -0.10683373 -0.16748491 0.47259274 0.35761783 0.276789 -0.3749768 -0.23356748 0.3405359 0.22951533 0.38501954
significant -0.8985351 0.12532091 0.309198 -0.0021824054 -0.21390794 -0.007946539 -0.10366917 0.49296594 0.42312273 0.2005318 -0.34031868 -0.30006287 0.47607526 0.28903294 0.51475614
ccar -0.9004755 0.14853165 0.22353892 0.06892692 -0.1960029 -0.087266624 -0.16534707 0.49372458 0.3914188 0.22675501 -0.3596405 -0.33263165 0.38637504 0.23135646 0.4250481
franchise -0.9541451 0.08977333 0.2776505 0.0056764544 -0.21709037 0.03462492 -0.20352289 0.5032789 0.47398618 0.19590116 -0.31616753 -0.18595058 0.44677794 0.28501177 0.49488097
happen -0.9512356 0.14948793 0.27537432 0.008329233 -0.19559152 -0.081277855 -0.17448111 0.43030244 0.40629417 0.21641943 -0.37657753 -0.30247417 0.38818732 0.27239645 0.4017293
flat -1.1784418 0.24898636 0.3005589 0.10926492 -0.12061166 -0.13772188 -0.20777887 0.44601482 0.29013044 0.27403125 -0.3757322 -0.17706124 0.25822446 0.27136874 0.41783696
strategy -0.98833156 0.1329976 0.27694696 0.05938887 -0.16044755 -0.0340703 -0.15210465 0.3859442 0.26732555 0.2604117 -0.33108276 -0.2442508 0.43614247 0.287583 0.4816878
hard -0.99203557 0.11135192 0.25358224 0.06688193 -0.21347201 -0.04171489 -0.21267971 0.44638044 0.3228099 0.25314957 -0.34875017 -0.23551092 0.40938511 0.2551156 0.44350407
job -0.92407405 -0.08534256 0.24610148 0.046408355 -0.30217454 -0.128654 -0.09805492 0.45493472 0.41580707 0.061011266 -0.36397898 -0.23937093 0.5861122 0.20969118 0.45883682
targets -0.91506267 0.15455313 0.23510334 0.051935446 -0.21961208 -0.026896155 -0.11767823 0.43614703 0.35666737 0.2882756 -0.35111618 -0.38618806 0.40984777 0.28124425 0.455257
tier -1.017032 0.1320208 0.2673514 0.14052151 -0.50970143 -0.011798218 -0.18929787 0.6976493 0.2755844 0.5283751 -0.37330726 0.013036025 0.26061186 0.25589538 0.24957411
runoff -1.1147729 0.07620385 0.273037 0.08657929 -0.21553959 -0.04522411 -0.25522944 0.42797267 0.27928373 0.19024982 -0.34032655 -0.15363748 0.3250466 0.3024574 0.43001527
far -0.9168097 0.083552554 0.27824742 0.07063425 -0.21482088 -0.056163415 -0.15725403 0.48643032 0.4302847 0.13756268 -0.34405288 -0.34290898 0.42420095 0.27285096 0.47639018
mix -1.1636839 0.18720348 0.3291023 0.041236605 -0.2207764 -0.028539265 -0.24144378 0.50171506 0.19849086 0.29336834 -0.3027891 -0.14816102 0.381367 0.2711289 0.35937
areas -0.91532207 0.083101414 0.31072262 0.04130568 -0.23825756 -0.0057823556 -0.1725315 0.433188 0.43325058 0.19751519 -0.36505148 -0.34726605 0.46729425 0.22153719 0.4941531
pressure -1.1778198 0.228625 0.27043435 0.030818406 -0.17627363 -0.16779067 -0.31892255 0.46359217 0.32709715 0.2674739 -0.37749967 -0.1631463 0.21932325 0.21468839 0.3243775
build -0.89421815 0.053747434 0.25690952 0.010552306 -0.30339822 0.08537427 -0.124472715 0.47772202 0.4155883 0.21143506 -0.3223464 -0.30958912 0.47312716 0.25888854 0.516536
nice -1.096047 0.07691858 0.24627504 0.01671359 -0.13121942 -0.027255174 -0.22192511 0.38468498 0.25295234 0.23523524 -0.32625648 -0.20396088 0.4247381 0.2754963 0.45950216
auto -0.97486717 -0.05292071 0.29233497 0.03347313 -0.1778779 -0.088998325 -0.1776704 0.5197875 0.35556084 0.10834683 -0.3507037 -0.29215857 0.37166452 0.2765797 0.4048408
bankers -0.8100755 0.058976624 0.3485921 0.037470713 -0.31498533 0.09001527 -0.07940853 0.4843024 0.4800181 0.123354755 -0.32698682 -0.4121985 0.5191318 0.25716132 0.5233956
relationship -0.8661647 0.047500536 0.35166264 0.028230939 -0.22715414 0.08323425 -0.113696836 0.5109905 0.45305598 0.14951034 -0.29046872 -0.32067278 0.5230455 0.31776646 0.50368494
changed -1.0068443 0.14786364 0.30451816 0.009515523 -0.17272583 -0.05478765 -0.19092502 0.39620036 0.33785024 0.22349009 -0.3834783 -0.23418568 0.3779103 0.20723358 0.4542727
team -0.84236634 0.02287243 0.33007944 0.078141905 -0.2935619 0.02136129 -0.14593227 0.43246043 0.4548329 0.11759639 -0.33626017 -0.38449442 0.4407088 0.28974774 0.5277769
gives -0.9929525 0.14810912 0.232485 0.09411021 -0.23893113 -0.05013042 -0.20120972 0.44665548 0.38252652 0.2840707 -0.31117424 -0.21684103 0.3783327 0.24524683 0.4459499
experience -0.85629314 0.09027797 0.29718938 0.01631054 -0.28152627 0.07610824 -0.095293194 0.52445465 0.55316514 0.17787412 -0.2505893 -0.38785064 0.5022239 0.300548 0.52671474
id -0.90766376 0.073149465 0.2073035 -0.013004815 -0.34567082 -0.0055015516 -0.19861825 0.38549596 0.4860791 0.1533089 -0.3559891 -0.29486254 0.4647453 0.271022 0.48976278
dividend -0.9313588 0.16310966 0.20361765 0.08691304 -0.21817559 -0.07238878 -0.2500698 0.49202284 0.3437224 0.25146368 -0.36077648 -0.28181452 0.36560443 0.25644392 0.45201614
demand -1.0783927 -0.09869007 0.28563216 -0.017772637 -0.14038488 -0.016847381 -0.22467929 0.45289776 0.4420644 0.016522167 -0.2962164 -0.09615642 0.48302874 0.42779046 0.43411452
group -0.889247 0.049099773 0.38216826 0.109980054 -0.3660649 0.05086592 -0.17237411 0.49764884 0.45003837 0.11996393 -0.25472614 -0.31932044 0.34132776 0.22770965 0.44480985
hey -0.9524082 -0.23863733 0.071788885 0.110267095 -0.05053283 -0.031486478 -0.1359356 0.42300522 0.23402543 0.024651306 -0.40581876 -0.17610404 0.69984585 0.06858737 0.310382
full -1.0592489 0.11834533 0.2684335 0.051654343 -0.19746518 -0.06363751 -0.2532196 0.42662328 0.36559126 0.2691065 -0.37795112 -0.2765432 0.33425683 0.2836777 0.39547175
color -1.0434743 -0.027070716 0.16387556 0.12925664 -0.12543377 -0.2114038 -0.19556205 0.36312267 0.24448532 0.3191299 -0.4190843 -0.22786194 0.4709701 0.27942243 0.4244863
count -0.9974961 0.07243769 0.2343266 0.014336105 -0.28433725 -0.039110202 -0.20259273 0.4113885 0.3774146 0.15816465 -0.489569 -0.19789168 0.42938608 0.21610454 0.46639958
talking -1.0102632 0.093861915 0.3019985 0.072340906 -0.18626355 -0.083763845 -0.17573528 0.49124774 0.38451764 0.16632234 -0.33997285 -0.27536583 0.4344139 0.21170603 0.43876123
many -0.86610174 0.102003984 0.30121437 0.022442035 -0.22555375 0.005207965 -0.11015667 0.47122458 0.48619935 0.16393752 -0.34675786 -0.3472073 0.47905326 0.26851827 0.45247608
particularly -0.9789585 0.0055511896 0.32218695 0.00783952 -0.21920961 -0.02694254 -0.2077441 0.5042864 0.42042807 0.14624418 -0.32985812 -0.25160986 0.37961513 0.2624714 0.45028198
pay -0.9077796 0.115303 0.31316483 0.031157585 -0.20722389 0.004274091 -0.16262013 0.4554525 0.3949745 0.23333234 -0.34041002 -0.32009473 0.41476613 0.29042062 0.47946027
service -0.9478448 0.033103824 0.25853178 0.062199615 -0.17793089 -0.01215212 -0.088991456 0.45167336 0.394817 0.19446743 -0.27330467 -0.2509165 0.50315166 0.3011588 0.48649237
relatively -1.0357839 0.2406138 0.28445104 0.04265131 -0.09385923 -0.06220913 -0.19478332 0.47779953 0.33699042 0.26431653 -0.35791534 -0.22675216 0.35565808 0.27213913 0.44004726
insurance -0.89027905 0.11168543 0.3374173 0.077953845 -0.24857868 0.053579137 -0.12381068 0.4966949 0.4012249 0.15185629 -0.3488151 -0.29424334 0.37842265 0.23900037 0.5020884
understand -0.91544396 0.14987683 0.2868516 0.021435473 -0.15514511 0.020519564 -0.13156019 0.47542584 0.41740558 0.19590393 -0.37950873 -0.3421107 0.44579524 0.26694587 0.46410403
teams -0.9123512 0.05748324 0.2654033 0.019294625 -0.22561724 -0.010945421 -0.16257337 0.45603523 0.45107532 0.1681223 -0.33874604 -0.35279202 0.43824172 0.24669386 0.47623911
followup -0.956005 -0.13152838 0.18756765 0.09128679 -0.0964251 -0.08682824 -0.08475028 0.39649332 0.38108444 0.05240156 -0.43634945 -0.2839625 0.65922767 0.2167172 0.35417256
online -0.8655811 0.093368046 0.3416707 0.058802027 -0.36898085 0.043908827 -0.05061479 0.4738976 0.5443925 0.06285486 -0.26294026 -0.3607417 0.4358631 0.21304043 0.5404246
close -0.9641815 0.16613139 0.24814522 0.0012287698 -0.21438831 -0.057843085 -0.1382765 0.49282113 0.39942995 0.23279849 -0.38103458 -0.26021546 0.36562777 0.25860852 0.38921702
liquidity -0.93583333 0.15564016 0.3132157 0.08458551 -0.20310579 -0.0018754838 -0.17339508 0.47926888 0.35663518 0.2862095 -0.2829173 -0.32524145 0.43186224 0.2153939 0.47659743
overall -1.0263863 0.1476799 0.31751853 0.072741 -0.2549487 -0.06344397 -0.22779182 0.51445174 0.3000516 0.19683234 -0.31821954 -0.23594806 0.4632597 0.24405815 0.37913445
certainly -0.9328249 0.14396122 0.27035576 0.04960326 -0.18161859 -0.06659687 -0.14249988 0.4748468 0.397567 0.24528943 -0.3504231 -0.28603113 0.37881556 0.21752375 0.51040775
anything -0.9778228 0.13481472 0.3091912 0.038353253 -0.20493303 -0.032521833 -0.1800883 0.47570556 0.33538815 0.21934952 -0.33805293 -0.27339464 0.43078017 0.19910376 0.45739067
company -0.92102486 0.12189013 0.29431427 0.03524941 -0.21033718 -0.018077787 -0.19385187 0.48610663 0.39549896 0.2601736 -0.31019887 -0.32380116 0.39775378 0.2648504 0.43204316
piece -0.95976067 0.14436942 0.2916811 0.030834472 -0.27399912 -0.030275522 -0.18784909 0.4855431 0.349566 0.22653972 -0.33438596 -0.2339664 0.41892505 0.25633508 0.43935668
generate -0.9747709 0.17437471 0.28704366 0.003902893 -0.16391897 0.12111774 -0.17551298 0.45901048 0.32932732 0.23170167 -0.33207923 -0.327559 0.49095562 0.25843853 0.5009185
hedging -1.0169632 0.19131213 0.26898935 0.06203583 -0.21011542 -0.13125701 -0.19265628 0.41052037 0.31937227 0.25715044 -0.36536142 -0.25072983 0.3886832 0.21079803 0.45561796
relationships -0.8913605 0.07027427 0.2995313 0.0028997832 -0.22121319 0.030068649 -0.066297665 0.49096766 0.48458284 0.14991711 -0.3130386 -0.351966 0.43347454 0.24947746 0.49362117
sensitivity -1.0386198 0.18712348 0.26283726 0.004980463 -0.18090142 -0.11395969 -0.20829134 0.44335243 0.346654 0.23562382 -0.31804445 -0.24612449 0.35576585 0.23355415 0.4067053
initiative -0.95697814 0.085754916 0.17066455 0.016561566 -0.29845586 0.12889248 -0.16239917 0.42910877 0.2898929 0.20238976 -0.3377577 -0.34497502 0.53565043 0.35200164 0.5570741
came -0.99444336 0.06251867 0.2709961 0.04106853 -0.2106696 -0.096416 -0.2059868 0.4322989 0.37688962 0.20640422 -0.37021646 -0.2689848 0.3601904 0.2629767 0.43206888
set -0.9494105 0.16672648 0.2647514 0.049685363 -0.24199483 -0.07227028 -0.19959974 0.46360132 0.39863876 0.29918775 -0.3669936 -0.28045067 0.32436112 0.29093343 0.41823465
extent -0.94475937 0.14732341 0.27457383 0.017718755 -0.16258478 -0.06189596 -0.14255963 0.5004496 0.33708966 0.22726372 -0.3281418 -0.2480821 0.37283707 0.22322688 0.4548566
line -1.029387 0.12058361 0.2561184 0.029470887 -0.2280655 -0.06512059 -0.16394527 0.47451937 0.25596476 0.24038912 -0.3540059 -0.23430178 0.4232648 0.23301335 0.3494301
needs -0.8697747 0.14034049 0.3530807 0.06914034 -0.23660995 0.06595579 -0.08877299 0.48883492 0.48038334 0.20087436 -0.17843814 -0.37812126 0.49045822 0.32660615 0.55763143
levels -1.0448844 0.16601273 0.2855135 0.05530407 -0.22717156 -0.12639774 -0.19896181 0.48696262 0.35867733 0.20236668 -0.33924598 -0.16253617 0.31187117 0.2062584 0.40763444
corporate -1.0027554 -0.02575553 0.44943914 0.13288751 -0.37566862 0.13603406 -0.1481064 0.4423598 0.3195242 0.09962316 -0.26944795 -0.3023547 0.4919623 0.220611 0.45785004
committed -1.0168728 0.19007745 0.27003777 0.07128053 -0.1846912 -0.045302816 -0.1358864 0.43900967 0.28583533 0.26671588 -0.4123573 -0.26844767 0.4365414 0.2337324 0.39141014
reduce -0.9812448 0.16191113 0.3505326 0.020647677 -0.24671529 -0.04625817 -0.23377357 0.5160037 0.42675948 0.19361468 -0.28978345 -0.22651228 0.3824733 0.28237334 0.4298799
others -0.9367423 0.14003153 0.30059126 0.01059747 -0.1750974 -0.010015559 -0.20516548 0.42100018 0.38966247 0.26939034 -0.29628724 -0.32112888 0.45248955 0.27167317 0.48574895
deliver -0.9264283 0.1551293 0.29922238 0.07288156 -0.23374876 0.051580805 -0.11329085 0.51569104 0.40138388 0.21800584 -0.29093257 -0.34416786 0.40942794 0.23407876 0.45790032
services -0.95152414 -0.0052842004 0.3682922 0.07894814 -0.26745367 0.08258243 -0.119792834 0.5138758 0.3599351 0.14028007 -0.278261 -0.29023317 0.46092352 0.30553484 0.48585296
factset -0.7180005 -0.20802726 0.25957847 0.24702418 -0.13378967 -0.11818813 -0.0006819096 0.55952233 0.37569386 0.14726637 -0.28468943 -0.49761555 0.5617882 0.28638384 0.50400937
primarily -0.9574007 0.11017382 0.27414364 0.08043039 -0.2169533 -0.040322475 -0.16243133 0.43246424 0.35608146 0.18045694 -0.3432937 -0.23343813 0.37526375 0.24657239 0.4612874
nonbank -0.92159027 0.09086558 0.2753147 0.039676618 -0.252787 0.022170328 -0.14746584 0.42328626 0.3768985 0.25863653 -0.32991573 -0.38643885 0.45689246 0.22327007 0.49315464
become -0.9283767 0.10721224 0.26200497 0.007908199 -0.21798943 -0.04098189 -0.15518188 0.45036715 0.40956894 0.23712938 -0.3784666 -0.31988338 0.41177082 0.2553377 0.4702989
betas -1.0647062 0.06562806 0.2501829 0.047583655 -0.17096862 -0.12871085 -0.27992216 0.51831555 0.43775898 0.2400523 -0.27814847 -0.16720739 0.31623176 0.31532967 0.39465752
head -0.9930419 0.047670174 0.23103967 0.032375958 -0.24687888 0.015253686 -0.16701584 0.4231814 0.45621777 0.102314435 -0.34086132 -0.3017801 0.39503658 0.24740691 0.47418883
quarters -1.0539753 0.17550418 0.19988291 -0.022896368 -0.17296773 -0.09558094 -0.2075533 0.41101107 0.4356879 0.23899032 -0.48011413 -0.23969102 0.29405466 0.24437045 0.44135478
fee -1.1287509 0.12498098 0.22958475 0.045527034 -0.07326034 -0.037588667 -0.21052131 0.33674315 0.2402233 0.29123625 -0.3138036 -0.21882384 0.44512284 0.23975787 0.42092252
type -1.0203604 0.09716141 0.31099722 0.039393775 -0.19279875 -0.033050813 -0.19582155 0.4791534 0.34826583 0.17288384 -0.28924733 -0.29311246 0.41752356 0.29555622 0.43892145
credits -0.90750337 0.07698873 0.3263432 -0.008282644 -0.20310844 -0.07938326 -0.13266857 0.48911747 0.45260018 0.12022429 -0.39442086 -0.2874593 0.36045325 0.23268466 0.40257353
matt -0.92882776 0.022670493 0.15901837 0.05759211 -0.20976667 0.01537542 -0.14180003 0.4116542 0.30221286 0.16882432 -0.32491395 -0.24809916 0.47973487 0.17138082 0.42692405
certain -0.9790212 0.106999755 0.32139617 0.034264617 -0.18865813 7.0489754e-05 -0.1686897 0.51808405 0.31806883 0.18291725 -0.36610904 -0.24222709 0.41047975 0.20741087 0.45848143
course -0.99257827 0.11696833 0.25670305 0.010368535 -0.16701964 -0.074012734 -0.17005958 0.46652943 0.39596123 0.2159729 -0.34122083 -0.2706366 0.4022 0.23055683 0.4353047
largely -0.9145832 0.11689802 0.31331468 0.06211194 -0.3026969 -0.009283943 -0.14349365 0.51506746 0.39286855 0.17098695 -0.3187119 -0.26662087 0.43231258 0.2257749 0.4599818
short -1.0409468 0.24557346 0.3166568 0.030471392 -0.25104898 -0.098616496 -0.13514966 0.52463436 0.2963449 0.22454809 -0.38638735 -0.21841134 0.29426026 0.22182736 0.31660733
started -0.972515 0.10456397 0.2309479 0.0072838203 -0.24063879 -0.030113187 -0.18119325 0.41308668 0.405472 0.23923816 -0.34299272 -0.25082284 0.3795311 0.26455146 0.40851134
board -0.85342866 0.032910645 0.26509926 0.084248446 -0.19855262 -0.020942666 -0.14521949 0.41647834 0.41301695 0.17397957 -0.32742682 -0.33628872 0.5065936 0.2513556 0.4870901
comes -1.0006095 0.14825255 0.31303316 0.044292074 -0.1696353 -0.041010786 -0.15636154 0.42959985 0.32476157 0.23248322 -0.32286394 -0.29566327 0.42425254 0.2844042 0.43845034
since -1.0080193 0.13299055 0.3144269 0.061624438 -0.28394818 -0.11124179 -0.20481645 0.47352338 0.3569244 0.19150582 -0.4120045 -0.22335538 0.30333665 0.25241497 0.3678463
prepared -0.94150704 0.07020017 0.24664772 0.0015142583 -0.25162345 -0.072389714 -0.15937714 0.4400052 0.3780975 0.2216767 -0.32648677 -0.3011355 0.4354313 0.25847188 0.46732816
wed -0.99529225 0.16018622 0.22059259 0.06653785 -0.21192 -0.030395543 -0.19056928 0.4696313 0.44346064 0.27838278 -0.36516896 -0.2911953 0.39899382 0.25072664 0.45983413
key -0.9539943 0.14765371 0.27121055 0.05885047 -0.21942429 -0.0060862456 -0.18611741 0.4528674 0.37338495 0.19709794 -0.33283877 -0.29409978 0.4133245 0.2795009 0.44186005
footprint -0.90319604 0.111488886 0.32349253 0.012491057 -0.20111969 -0.021713987 -0.16688688 0.4624983 0.36632687 0.234644 -0.3295967 -0.31397885 0.48548353 0.23240368 0.46463707
future -0.9835296 0.1267347 0.26235154 0.075303234 -0.1614404 -0.039794784 -0.20401922 0.46282673 0.33363044 0.21796761 -0.34293452 -0.25500402 0.44036058 0.26832122 0.42810437
faster -1.0135717 0.13765383 0.25344634 0.0049911006 -0.14114016 0.053984303 -0.20570853 0.4301462 0.3631853 0.26205283 -0.2825701 -0.27384093 0.45076954 0.38752425 0.5485407
moving -0.98674715 0.12291415 0.26990476 0.0087753115 -0.1505526 -0.088601924 -0.15541591 0.45383757 0.41800234 0.21919061 -0.36871853 -0.31242296 0.37014893 0.26164177 0.4428636
lets -1.0200237 0.06311693 0.2659549 0.027407708 -0.20518847 -0.029325921 -0.17366543 0.45096618 0.35640416 0.2063904 -0.39424226 -0.26256174 0.4664309 0.22577511 0.4239906
fixed -1.080612 0.21708663 0.2995764 0.041550975 -0.13959369 -0.08281115 -0.19436078 0.4943966 0.35436466 0.2637677 -0.3100238 -0.20634362 0.2912743 0.22926697 0.39103067
losses -0.9318848 0.060053542 0.2580324 0.06404397 -0.21278544 -0.061385803 -0.171121 0.4646951 0.36985376 0.22651325 -0.3837703 -0.24681927 0.40096772 0.23938987 0.4272853
try -0.9483642 0.14289236 0.25705853 0.004281942 -0.24948627 -0.048385143 -0.13953698 0.46700168 0.35487753 0.19185916 -0.32269964 -0.28772488 0.37155387 0.27727222 0.41828287
either -0.93731964 0.13114645 0.3183191 0.08952975 -0.26342013 -0.011660285 -0.20385799 0.5117518 0.40827543 0.22277682 -0.31972775 -0.31287646 0.34008867 0.24488877 0.436521
sense -0.9999965 0.14113183 0.2175849 0.09413429 -0.18602215 -0.07528353 -0.25158706 0.44444117 0.36795998 0.29382896 -0.37808245 -0.2943029 0.36341068 0.25689414 0.48742372
solid -1.0163009 0.0075244624 0.25298926 0.025055513 -0.2547496 0.056362793 -0.1673066 0.42204913 0.33056536 0.16386206 -0.31758395 -0.3175333 0.54105014 0.24289991 0.4531183
though -0.9843979 0.15203612 0.28292564 0.03245648 -0.20178615 -0.055743717 -0.13227558 0.4559843 0.4060631 0.23071261 -0.37010118 -0.24989758 0.3796872 0.27155146 0.4052531
invest -0.9020646 0.11258713 0.28902504 0.01873367 -0.26746535 0.068544894 -0.140389 0.4518626 0.4182962 0.25866327 -0.29171968 -0.36355782 0.48159945 0.25059173 0.5516403
meet -0.95206934 0.16524373 0.2395307 0.047212034 -0.20839614 0.03463145 -0.18265389 0.4498223 0.3902161 0.2576377 -0.2563076 -0.31929588 0.4726588 0.29586202 0.50849456
looks -0.963441 0.06004437 0.19745672 0.037607707 -0.23243313 -0.0933526 -0.20469406 0.48343337 0.39480367 0.19596283 -0.39796785 -0.28500152 0.44671753 0.25292188 0.41176608
additional -1.0017394 0.11442364 0.24045758 0.04678052 -0.288358 -0.07506219 -0.20328169 0.40939474 0.32688877 0.22962971 -0.2997986 -0.26117224 0.35255992 0.23726688 0.40169767
comments -0.9951699 0.026545344 0.19298008 -0.0018200775 -0.24252628 -0.056645107 -0.22232945 0.44134134 0.36777022 0.18670018 -0.41326886 -0.27720976 0.44036394 0.19525342 0.41794202
ai -0.85424155 0.07913253 0.30387738 0.03097365 -0.27677023 -0.012295081 -0.0797031 0.42604902 0.45895845 0.14603351 -0.3190043 -0.35970992 0.44379812 0.26825497 0.48708075
continues -1.0361868 0.0457683 0.22741763 0.056520067 -0.17601404 -0.06731608 -0.17398812 0.427264 0.35848635 0.25920796 -0.34881318 -0.23515114 0.4179615 0.2825028 0.47091955
loss -1.088445 0.19794787 0.23352456 0.060109485 -0.300329 -0.17140809 -0.2778647 0.4761229 0.34471753 0.24163929 -0.38401046 -0.20963906 0.24653845 0.21683054 0.27288797
earnings -1.024922 0.14886796 0.24983923 0.08859206 -0.16013929 -0.050775453 -0.19091536 0.4657284 0.36869648 0.2605509 -0.39502004 -0.25512806 0.35614172 0.24229671 0.4075936
provide -0.9018802 0.06657458 0.24821582 0.065603144 -0.26852968 0.028963149 -0.16649967 0.41998136 0.40462336 0.16697994 -0.35121855 -0.3308917 0.43388656 0.27278283 0.46695557
current -0.9800409 0.11810067 0.28820363 0.05029064 -0.21868186 -0.1290048 -0.19704747 0.48533142 0.3843028 0.19725072 -0.38893896 -0.28303385 0.3849299 0.21220127 0.4137188
smaller -0.8556681 0.053868227 0.32257405 0.06300893 -0.1958618 -0.014806982 -0.12592393 0.4825587 0.47968543 0.21922223 -0.31851786 -0.3490066 0.45086536 0.30514842 0.53940743
llc -0.77907944 -0.15195937 0.23167303 0.1636089 -0.13006307 -0.051615752 -0.023004042 0.49446034 0.36596215 0.20155373 -0.32968658 -0.42898488 0.5285841 0.20218062 0.44168445
economic -0.94874936 0.15144876 0.31693947 0.0057684737 -0.22054051 -0.023101892 -0.11723118 0.43546468 0.39713138 0.27428803 -0.34084716 -0.28595322 0.36018655 0.21363088 0.4476556
commitment -0.95214295 0.101524614 0.29650182 0.03482164 -0.23208009 0.07809055 -0.15242685 0.4400015 0.36282006 0.21822064 -0.36559466 -0.29217923 0.47915128 0.24209224 0.4912404
acquisitions -0.95074797 0.12133201 0.2557459 0.029630234 -0.224537 -0.015043414 -0.16805711 0.40343332 0.3934647 0.22417283 -0.35637984 -0.29389298 0.4125035 0.27254292 0.52615374
exactly -0.9327022 0.09840914 0.28962946 0.010249935 -0.20026289 -0.023684863 -0.12544449 0.45738825 0.35726213 0.19338128 -0.34466347 -0.34394166 0.43647173 0.26932457 0.46814686
adjusted -1.1361175 0.20675825 0.31665957 0.03163764 -0.2468602 -0.07685451 -0.3146198 0.46637708 0.2792541 0.3016494 -0.31243306 -0.22398318 0.29309055 0.2650998 0.3800266
erika -0.9192276 -0.0984189 0.18194912 0.039411373 -0.15010282 -0.048774797 -0.12708734 0.40812543 0.3315071 0.07912962 -0.3317457 -0.24919793 0.5534553 0.16847047 0.40780866
perhaps -0.9697879 0.18054646 0.2465482 0.07044074 -0.20253156 -0.10219419 -0.15071094 0.49265656 0.39767236 0.3066488 -0.3644976 -0.28035635 0.3716935 0.2780732 0.45399976
hear -0.874308 0.04399753 0.23434539 0.080427095 -0.21768117 -0.022785647 -0.16590586 0.4646037 0.42530772 0.14706075 -0.3658102 -0.34769046 0.44851947 0.20524652 0.44536898
continued -1.0290048 0.09683818 0.2607522 0.06032515 -0.19110164 -0.050480805 -0.18156436 0.44318202 0.38027033 0.23694117 -0.30774048 -0.26959875 0.36692408 0.2956755 0.4183623
ken -0.96870154 0.02309433 0.18436764 0.04964754 -0.1616783 -0.05098148 -0.13124646 0.41532075 0.31753278 0.12067005 -0.35523474 -0.235515 0.46890634 0.1779733 0.36455053
saying -1.0030155 0.15395737 0.26348594 0.036588177 -0.24024156 -0.05364399 -0.20117466 0.4752238 0.3689541 0.19827497 -0.38480982 -0.27353454 0.33581713 0.24752 0.4063406
percentage -0.9871032 0.14839546 0.30494598 0.04447133 -0.2255607 -0.086577855 -0.24570215 0.47827792 0.36773014 0.19609372 -0.3202843 -0.24757724 0.40110338 0.2307915 0.40052146
companies -0.8917288 0.0954353 0.3107678 0.027236274 -0.25414425 -0.019977523 -0.14401266 0.47499552 0.4174488 0.2214793 -0.3495419 -0.29198512 0.3712893 0.23842032 0.456651
results -0.8795282 0.06130587 0.28281343 0.071719326 -0.20633179 -0.009643531 -0.15961619 0.44342545 0.4053534 0.22335218 -0.30356294 -0.34798822 0.46362886 0.2773135 0.5083024
wont -0.94501764 0.09146787 0.27654567 0.062032275 -0.20500413 -0.0049938723 -0.14274411 0.44789535 0.34332561 0.20296969 -0.37643075 -0.29297352 0.43833157 0.22813128 0.43006155
value -0.93666184 0.15463504 0.3003086 0.08243813 -0.24726918 -0.033049107 -0.17675029 0.50616163 0.40235794 0.23774686 -0.2980209 -0.2204889 0.41554672 0.20323819 0.4848225
potential -0.9684761 0.091174066 0.2911633 0.023258647 -0.17456906 -0.026678897 -0.16030216 0.4429311 0.3793041 0.18272844 -0.32641217 -0.27023122 0.44172186 0.23822133 0.45699364
system -0.9971893 0.048951276 0.24899784 0.029025188 -0.26053214 -0.0046746205 -0.16571467 0.47876665 0.5008806 0.20188488 -0.3115897 -0.23271906 0.40508378 0.29940495 0.4818746
gdp -1.1276557 0.15974145 0.18366948 0.031976897 -0.14553174 -0.110731244 -0.2792117 0.3654358 0.24631508 0.32708874 -0.37221318 -0.25052014 0.30905783 0.26764375 0.4491879
continuous -0.95011306 0.13088018 0.23702724 0.047697492 -0.22594474 0.03968153 -0.07661264 0.45812684 0.35607237 0.17789671 -0.31522933 -0.41021565 0.50180095 0.28473818 0.5518004
least -0.99208707 0.16035782 0.27663973 -0.005475942 -0.20235048 0.025603801 -0.1781977 0.45015648 0.4104422 0.27245677 -0.37007043 -0.32911915 0.39683875 0.26785666 0.46659127
threeyear -1.0241911 0.15752953 0.2790038 0.0072479225 -0.22859435 -0.070021845 -0.14448808 0.4279203 0.37842563 0.20417807 -0.39512086 -0.28045577 0.3791557 0.21208055 0.44016257
efficient -0.9147909 0.13965131 0.30312455 0.022328204 -0.20468837 0.0012385842 -0.12774786 0.49832198 0.36987886 0.19610806 -0.3269828 -0.33897057 0.4303168 0.25190726 0.4939348
front -1.0104997 0.003014944 0.2886973 0.078865096 -0.21417995 -0.022846878 -0.1768567 0.46266848 0.38066134 0.1873543 -0.30733067 -0.2743319 0.47406223 0.26114962 0.4473453
reserve -0.9978616 0.14128238 0.26006812 0.0380801 -0.19324471 -0.08447253 -0.20027857 0.4468501 0.34892902 0.21446918 -0.3330337 -0.251688 0.34869927 0.2849327 0.4197671
earning -1.2116704 0.17177798 0.29484376 0.03148905 -0.069912665 0.0007866602 -0.29886442 0.4951972 0.1499988 0.31900948 -0.3422398 -0.13949387 0.39696336 0.25777626 0.3648291
cash -0.9158373 0.123449 0.31149366 0.05546163 -0.2463964 -0.045471553 -0.13529252 0.5345221 0.41483283 0.20062645 -0.27364242 -0.30530232 0.3815209 0.22419885 0.45077443
beginning -1.0404913 0.13881959 0.27284023 0.051013127 -0.28468356 -0.043339316 -0.2048558 0.443756 0.31990063 0.26268736 -0.38059708 -0.23168859 0.33391044 0.3110515 0.46456128
nim -1.0658681 0.12974045 0.30518982 0.06650795 -0.1669235 -0.12039001 -0.1827793 0.45622754 0.34956005 0.22898927 -0.37392518 -0.23829064 0.32984188 0.2260478 0.38814747
deal -0.9326771 0.06535956 0.26435727 0.03387661 -0.19504108 -0.038114287 -0.16594209 0.4713256 0.3828342 0.23946886 -0.35770416 -0.26552388 0.42253432 0.22006038 0.406486
excess -0.932961 0.16192946 0.31595254 0.018205253 -0.21912128 -0.027039573 -0.20796247 0.5272686 0.36070764 0.2829827 -0.31129062 -0.31712025 0.4345188 0.29000103 0.4700074
average -1.1020632 0.069828756 0.23256586 0.016089149 -0.1220188 -0.073975205 -0.264567 0.48385873 0.28723016 0.24689029 -0.3163443 -0.16565637 0.40109462 0.2594521 0.41132113
chargeoffs -1.140128 0.17874834 0.24017482 0.089815214 -0.340058 -0.1518746 -0.31732675 0.52726114 0.3513643 0.26011983 -0.42455712 -0.14721504 0.17426394 0.21753588 0.24006723
fast -0.8964374 0.096109025 0.27846992 0.045910325 -0.24644284 -0.042965405 -0.14293395 0.51553977 0.39812097 0.17374179 -0.28279155 -0.2819706 0.39201248 0.267625 0.4643176
driver -1.1348615 0.14027077 0.26063216 0.04282642 -0.16995381 -0.076691076 -0.21115379 0.45315826 0.27289796 0.2387939 -0.34255192 -0.1607866 0.33782747 0.2980372 0.4093651
update -0.9619378 0.078463145 0.2109954 0.02176291 -0.16124168 -0.013194885 -0.14821528 0.40851417 0.40275955 0.25641355 -0.38877866 -0.32486543 0.45017457 0.19012599 0.3857321
tax -0.9925026 0.16900346 0.30041465 0.07603979 -0.30160284 -0.074077666 -0.18784732 0.49967074 0.39802492 0.20476374 -0.34247196 -0.20949148 0.30478954 0.24814653 0.3892902
transaction -0.86708826 0.105716005 0.2866062 0.04145784 -0.2199567 -0.03741596 -0.11781121 0.480296 0.38745844 0.15011075 -0.3536893 -0.35178468 0.455785 0.23339382 0.4819096
mids -1.0066454 0.1725163 0.26225796 0.019869998 -0.18553379 -0.066389054 -0.16667001 0.4951631 0.32460904 0.23253801 -0.35549504 -0.2775973 0.38157004 0.28035337 0.46612993
decision -0.9676462 0.12670888 0.29281965 0.08740297 -0.2259875 0.0052932487 -0.19752419 0.49405697 0.412545 0.23167564 -0.31229958 -0.30110922 0.35708043 0.25774324 0.45664567
scale -0.9306539 0.0966365 0.2336983 0.033842083 -0.22443552 -0.030022804 -0.14503416 0.47617385 0.38745388 0.16943307 -0.352794 -0.34419322 0.43460032 0.2820749 0.48864824
interested -0.987248 0.05759926 0.31141534 0.037159074 -0.20351842 -0.06614798 -0.19674282 0.486237 0.38087988 0.20812307 -0.3651628 -0.29461762 0.4302422 0.23885767 0.44012845
baked -1.0137259 0.19150166 0.22479023 0.049375404 -0.18396811 -0.10240284 -0.22773391 0.44485012 0.38120666 0.25457773 -0.36461812 -0.23522298 0.3713396 0.27944267 0.4076426
incremental -1.0414563 0.14241731 0.24542816 0.007971157 -0.18461312 -0.05028503 -0.219532 0.43855813 0.30522203 0.25197452 -0.39269307 -0.31098107 0.34541175 0.29460803 0.45817545
beyond -0.9754407 0.15504745 0.2948296 0.031981368 -0.21476714 -0.05970735 -0.15795569 0.4452685 0.3296186 0.26849407 -0.3824402 -0.24026528 0.42897353 0.25609908 0.41578385
heard -0.9315476 0.032881916 0.2636156 0.059382282 -0.19997141 0.0068116086 -0.17732291 0.47156614 0.40101424 0.1657428 -0.34202924 -0.31268963 0.45182118 0.23903075 0.4361102
debt -0.9289067 0.10274628 0.31083995 0.07124666 -0.24035613 0.017315654 -0.14678745 0.48115203 0.35960567 0.21089429 -0.29925272 -0.30371937 0.42640898 0.21722186 0.4335238
contact -0.8606027 0.10848242 0.26351896 0.02485071 -0.25055066 -0.05808454 -0.10716596 0.4631194 0.53528607 0.079498835 -0.31004897 -0.3794379 0.41573322 0.25237867 0.54440904
recently -0.8905049 0.09294921 0.31785414 0.041073207 -0.23538344 -0.027248928 -0.14758176 0.4482983 0.43557444 0.17958719 -0.30631334 -0.2740759 0.41763538 0.22348244 0.47981378
ways -0.96658796 0.12504598 0.28019232 -0.012372973 -0.2580719 0.09482465 -0.13776264 0.47805956 0.47000065 0.19187498 -0.35294238 -0.3168504 0.4421632 0.28141335 0.48340276
larger -0.9634135 0.079227455 0.26326922 0.06943158 -0.262491 -0.027161293 -0.18344483 0.45134383 0.3542853 0.19913255 -0.3476173 -0.28988785 0.37720445 0.28660965 0.4665631
card -0.9882013 0.0037587339 0.30010656 0.08665603 -0.21366325 0.0040979455 -0.1512846 0.5147412 0.45634693 0.10831254 -0.30560485 -0.22448067 0.40391204 0.27971897 0.37674883
consistent -0.9644073 0.14979148 0.2894348 0.07183116 -0.20563911 -0.015586242 -0.20141295 0.48004168 0.3717528 0.24331962 -0.27699476 -0.3059749 0.41849637 0.2578594 0.4088787
profile -0.96865904 0.18020082 0.3625788 0.05874139 -0.24827999 0.015816232 -0.18364058 0.5782318 0.36026713 0.2301511 -0.33390224 -0.3351391 0.42618683 0.26066592 0.43880665
easier -0.90935695 0.090835735 0.41459814 0.059105035 -0.29071528 0.20566215 -0.13547638 0.45226696 0.5165919 0.21100219 -0.1978031 -0.42992237 0.5608047 0.27799013 0.5905642
yield -1.037405 0.16506022 0.28193718 0.054488484 -0.19437283 -0.12967415 -0.1597747 0.45172945 0.399517 0.24813743 -0.3737306 -0.26706675 0.33161756 0.25672472 0.40664303
strong -0.9656284 0.0599501 0.2964796 0.030884208 -0.24672863 -0.03776884 -0.19432218 0.41029575 0.32713854 0.18703432 -0.33988926 -0.29875588 0.42483 0.24894112 0.43166992
managing -0.9911183 0.060136635 0.33883122 0.020963859 -0.2087715 -0.07254239 -0.17084679 0.49328473 0.3391253 0.16805619 -0.2866184 -0.2315418 0.44339067 0.25228694 0.41403288
information -0.90918386 0.1264556 0.23448248 0.06082697 -0.20954783 -0.014080063 -0.12525229 0.48578462 0.3948952 0.23395579 -0.28544605 -0.26084697 0.34133002 0.28446317 0.39763618
starting -0.99299115 0.11409043 0.2567449 0.022973431 -0.20827243 -0.10932645 -0.20718512 0.4838346 0.41136003 0.23004167 -0.36089504 -0.22365001 0.3488589 0.21739702 0.41688785
buyback -0.952957 0.12286422 0.2605873 0.037871324 -0.19713366 -0.03389278 -0.19027561 0.4315435 0.37554643 0.23860057 -0.35356104 -0.25884816 0.41363555 0.24799137 0.46784744
swaps -1.0699598 0.18209177 0.30611357 0.067720816 -0.1349765 -0.18808413 -0.15526032 0.47317684 0.3801007 0.20631984 -0.39585948 -0.23122898 0.2678258 0.19556184 0.39318407
gone -0.9375143 0.08099111 0.33085984 0.05390973 -0.24314353 -0.07689761 -0.11100719 0.43508112 0.41812012 0.13685983 -0.3182397 -0.3080656 0.42955172 0.27231723 0.44727492
clients -0.9065662 0.08608855 0.28978306 0.07042338 -0.28351328 0.0099913115 -0.15574345 0.4608616 0.437245 0.15883291 -0.3313946 -0.29279104 0.450309 0.25155976 0.49225652
generally -0.95354074 0.10649305 0.3152357 0.042169854 -0.2380823 -0.03865258 -0.19420148 0.44726917 0.39613974 0.20695765 -0.3034352 -0.2844314 0.4049412 0.21251297 0.46013853
servicing -0.8727671 0.07242328 0.33667085 0.069752805 -0.30525878 0.01215975 -0.1826661 0.48425123 0.4482716 0.16890201 -0.35524353 -0.32793668 0.43428823 0.2167428 0.5074743
later -0.95715064 0.12353502 0.26615664 0.024364945 -0.23386663 -0.02854785 -0.19308287 0.4521131 0.38783565 0.2355251 -0.34002623 -0.3270591 0.44854924 0.25090516 0.4444686
gets -0.92036587 0.1382072 0.24332544 0.021526458 -0.17962249 -0.06626648 -0.17878184 0.4579127 0.37662217 0.24262176 -0.31040946 -0.30893898 0.40120494 0.22711669 0.47236767
production -1.0683596 0.029223487 0.26005927 0.064396076 -0.2046578 -0.053231668 -0.18468912 0.3643379 0.23613338 0.23427697 -0.38448673 -0.20322353 0.4237966 0.21800272 0.44738898
comment -0.8891365 0.083724804 0.27334806 0.014801477 -0.19202465 -0.044291414 -0.18591128 0.45235592 0.42977005 0.17430097 -0.33603486 -0.31061086 0.438893 0.25282 0.45103496
systems -0.9205992 0.12475135 0.2535756 0.01076048 -0.26505977 0.02423123 -0.1016799 0.43967164 0.49280885 0.21044146 -0.3632232 -0.33426303 0.4326523 0.28763425 0.47191176
havent -1.0107596 0.08019393 0.2633094 0.044951085 -0.15138611 -0.048947968 -0.16816033 0.46598068 0.33843446 0.2093906 -0.3326282 -0.26267225 0.4320316 0.20959033 0.42777854
size -0.94787633 0.12849899 0.29402167 0.084428474 -0.17030814 -0.0629237 -0.16148953 0.46790403 0.39025953 0.26695853 -0.35704133 -0.30233398 0.38495082 0.22052896 0.45534915
places -0.89184606 0.13229583 0.3037542 -0.009975151 -0.23176941 0.01940796 -0.14651635 0.44390514 0.4334102 0.22028638 -0.30574518 -0.34495994 0.45878857 0.2610485 0.45150682
together -0.9442611 0.101306535 0.34729552 0.039251883 -0.22906698 -0.013579084 -0.14319503 0.45739567 0.38211632 0.256768 -0.35601494 -0.35968497 0.43279597 0.26043555 0.46585894
products -0.93854874 0.09586925 0.35396108 0.043709967 -0.24167034 0.03273295 -0.14182746 0.46714818 0.3994993 0.15377043 -0.3192949 -0.31314665 0.43996337 0.27544734 0.4691456
metrics -1.0027008 0.0955054 0.28094962 0.04836078 -0.22978285 -0.054637507 -0.15668468 0.45823157 0.3739272 0.21761234 -0.3601357 -0.29025775 0.44543144 0.24654353 0.4127018
criticized -1.0234786 0.121138275 0.29922906 0.03070847 -0.16367044 -0.060914297 -0.16799748 0.45132655 0.34305432 0.24158251 -0.36201784 -0.21187945 0.33547765 0.29198563 0.4217054
duration -1.0294778 0.09474838 0.28220084 0.050426 -0.15699661 -0.059390914 -0.18772015 0.51546437 0.34988126 0.29237285 -0.33144903 -0.22221069 0.40416476 0.27121973 0.41959956
pick -1.0568337 0.14317654 0.25794676 0.058573738 -0.25189403 -0.011388571 -0.21700689 0.4384795 0.39359707 0.23340933 -0.34291077 -0.21045181 0.35554737 0.26685765 0.405403
respect -1.002458 0.106987014 0.30456883 0.009183449 -0.24433143 -0.024625055 -0.14859809 0.45670256 0.39104834 0.24039644 -0.34159097 -0.2634555 0.38761762 0.22124876 0.45247746
activity -0.97526556 0.06008073 0.24996786 0.019038651 -0.19596209 -0.059990194 -0.16452567 0.4011037 0.32421875 0.18992102 -0.31194124 -0.28431857 0.44246885 0.2646639 0.486039
consistently -0.92100537 0.08477909 0.29758742 0.05881716 -0.24259311 0.01699526 -0.1396868 0.5024875 0.4445301 0.159823 -0.28125465 -0.301319 0.40064496 0.3076025 0.41388002
investing -0.92499614 0.11903411 0.33273816 0.004920204 -0.21327539 0.020490875 -0.14869997 0.4486385 0.4629049 0.22454506 -0.3391475 -0.36202115 0.43100923 0.30233327 0.49795377
confidence -1.0510547 0.096001245 0.23783574 0.05581263 -0.23607816 -0.07381355 -0.17652746 0.42902222 0.34132826 0.21415451 -0.38025448 -0.27445874 0.42353073 0.2741963 0.44697553
giving -0.997564 0.12556545 0.253958 0.07745403 -0.14293607 -0.08161376 -0.22555472 0.46437532 0.3395891 0.21130322 -0.40547886 -0.24472752 0.41087008 0.28492516 0.45989338
grew -1.0571256 0.019749494 0.30744478 -0.01555239 -0.23585159 0.0049668793 -0.20470777 0.44799173 0.3552206 0.17537463 -0.33045682 -0.1967495 0.39178166 0.3061093 0.4531445
enough -0.9336977 0.109685436 0.27790773 0.06035608 -0.17590533 -0.09443977 -0.20058247 0.43671188 0.38969353 0.21476428 -0.3197884 -0.2677685 0.44076848 0.2594692 0.41144297
five -0.99303126 0.14590931 0.22185609 -0.016909687 -0.2056565 -0.06689284 -0.10536337 0.4142692 0.493511 0.22715816 -0.42656332 -0.30886737 0.416129 0.29076344 0.41017872
digit -1.0746285 0.1619959 0.25776827 0.07044217 -0.16596681 -0.09303622 -0.25885636 0.41348153 0.24797693 0.27091226 -0.36411768 -0.21219224 0.31883192 0.3087735 0.3658281
challenge -0.9875856 0.14195368 0.2284092 -0.0013409049 -0.17368533 0.02874596 -0.15083611 0.4467412 0.36476448 0.21586753 -0.40567136 -0.2925569 0.42402956 0.22203147 0.4814785
deron -1.0428854 0.13691165 0.18840657 0.03821364 -0.172935 -0.14996132 -0.17784823 0.40784708 0.32787737 0.24140085 -0.39334014 -0.27255452 0.43493322 0.2542554 0.41478646
acquisition -0.8955625 0.09513567 0.28188697 0.06860088 -0.21164423 -0.03253054 -0.10344993 0.4832311 0.43823388 0.21261156 -0.30349752 -0.33713618 0.36025715 0.242193 0.48034585
corp -0.86295485 0.11110345 0.28473508 0.018745726 -0.22759175 0.051028673 -0.05709174 0.45315766 0.43209994 0.22411484 -0.33133316 -0.38252163 0.4399045 0.1966664 0.49468607
sustainable -0.95242953 0.11556297 0.27846462 0.019667545 -0.25579962 -0.061551437 -0.14773493 0.45937312 0.32851174 0.20757474 -0.3317577 -0.30877432 0.40719938 0.25952297 0.4043128
running -0.9744191 0.09632974 0.25658467 0.03957533 -0.20797826 -0.016402083 -0.17058185 0.47904667 0.38107556 0.20343909 -0.36558062 -0.26696467 0.3797099 0.2239012 0.42336848
case -0.962058 0.061898682 0.24582705 0.051311444 -0.20387344 -0.058704186 -0.13737461 0.4832785 0.35050997 0.23216218 -0.34081876 -0.27348924 0.3559614 0.23829703 0.40099457
forecast -0.99223065 0.17054133 0.2888467 0.0059144064 -0.23913115 -0.08459713 -0.14722559 0.47868273 0.3727717 0.20421712 -0.38608864 -0.25729418 0.37152976 0.21178252 0.43690693
putting -0.9317976 0.11520686 0.30470744 0.022032984 -0.21730557 -0.014623542 -0.18301177 0.43425447 0.34005177 0.22786006 -0.36502996 -0.30450106 0.475872 0.23569873 0.42390746
benefits -0.97110486 0.103196405 0.22812247 0.0023268585 -0.23722449 -0.03519966 -0.2098105 0.495912 0.37216815 0.2114893 -0.38879213 -0.32529044 0.445312 0.30060893 0.4598835
betsy -0.8913495 0.025957903 0.22133 0.06664164 -0.1518863 -0.005982172 -0.10861802 0.429395 0.2989163 0.14981535 -0.32475275 -0.2625143 0.46408138 0.17765285 0.33711544
pace -1.0256406 0.09600166 0.24127957 0.03462718 -0.1429927 -0.02338159 -0.19960952 0.43013367 0.34036326 0.24787675 -0.37885857 -0.31417707 0.36757243 0.29076263 0.45102787
expected -1.0688889 0.07536047 0.21033224 0.050072003 -0.16283748 -0.07980335 -0.23177394 0.3870551 0.29805037 0.2303141 -0.40297666 -0.27151018 0.39608142 0.26398805 0.4165607
fair -0.9426595 0.14611767 0.30481946 0.038922258 -0.23537385 -0.05781102 -0.11369426 0.43136418 0.39754984 0.19081219 -0.35165378 -0.30015725 0.4379088 0.20476097 0.4783731
model -0.9623755 0.13982658 0.2589192 0.012814519 -0.19511673 -0.07649836 -0.1590048 0.46767476 0.3803793 0.1968371 -0.36148188 -0.25691253 0.35755873 0.23080985 0.41371644
seems -0.99691385 0.13215286 0.23699956 0.02400394 -0.24989828 -0.03806158 -0.22102623 0.45675758 0.37453377 0.257186 -0.38265592 -0.31552318 0.39432043 0.23750934 0.3992535
makes -0.9925252 0.095661 0.28540573 0.064246565 -0.1849768 -0.051932026 -0.18629947 0.4921508 0.4283034 0.20093885 -0.33679628 -0.22539493 0.36863893 0.22958496 0.425427
preferred -0.93694675 0.11294312 0.23989956 0.07650469 -0.21846484 -0.023524763 -0.11516915 0.511463 0.32351062 0.30182984 -0.32691002 -0.26114702 0.39301878 0.25122795 0.39433655
expensive -0.9496809 0.093636766 0.2663248 0.054739036 -0.21862304 -0.049401514 -0.16510238 0.47360876 0.41194832 0.20598303 -0.31209683 -0.21484484 0.39313662 0.25831136 0.4066619
closer -1.0228531 0.20217557 0.29426673 0.031551514 -0.30066118 -0.09909582 -0.22823045 0.49157727 0.41446412 0.29553837 -0.41939965 -0.19273016 0.20797184 0.2291615 0.2943057
several -0.9524417 0.093479395 0.2840226 0.002610615 -0.22845984 -0.061971024 -0.110727035 0.48502728 0.44591486 0.17635256 -0.36285514 -0.28354806 0.44631177 0.24795583 0.42892122
bigger -0.98404473 0.13365816 0.28200224 0.03745517 -0.17014591 -0.0788124 -0.20820047 0.4248203 0.35833183 0.25527048 -0.36696127 -0.26046184 0.40408292 0.22980611 0.44733897
shared -0.9252934 0.023484439 0.42544758 0.050491076 -0.21694732 0.006174678 -0.12798074 0.565315 0.39156094 0.12989059 -0.3292787 -0.25095987 0.43056044 0.14370744 0.44573843
laid -1.0105639 0.091101974 0.27623224 0.06743679 -0.23133612 0.0203286 -0.22164321 0.5023525 0.30094022 0.23768947 -0.4062011 -0.25615034 0.3816384 0.24941093 0.43385112
large -0.97334015 0.09529315 0.33143717 0.07917073 -0.21398526 -0.041936025 -0.13016082 0.46160334 0.40637928 0.21568894 -0.30602962 -0.33976907 0.41938815 0.2229924 0.42639488
stock -0.9111492 0.10777541 0.24627417 0.020667927 -0.23344027 -0.032724746 -0.19374123 0.5197009 0.42262957 0.19858736 -0.32968375 -0.29408374 0.42372835 0.26446685 0.5274051
client -0.8560391 0.06959187 0.29944572 -0.0006023499 -0.22060648 -0.03329306 -0.17763685 0.5106702 0.39216954 0.20036511 -0.35769093 -0.3603113 0.43967742 0.21333098 0.47434583
allow -0.9842063 0.17421404 0.3070752 0.025219744 -0.22159506 0.027659602 -0.20380354 0.4377711 0.30825132 0.24393111 -0.32912323 -0.2491209 0.4385626 0.29547065 0.4544685
form -0.93181753 0.14719622 0.27170625 0.056723878 -0.19143873 -0.047557294 -0.1840282 0.5023733 0.32218364 0.20372309 -0.33210704 -0.27980536 0.42886055 0.2611891 0.4107311
callstreet -0.7551572 -0.1315332 0.2738715 0.16635028 -0.13396977 -0.07368134 -0.045147315 0.50855166 0.43655398 0.22217987 -0.31234762 -0.42285526 0.51731783 0.26911438 0.41137686
product -0.9005546 0.10429908 0.31866333 0.026502125 -0.2756124 -0.028155692 -0.11854958 0.48158577 0.4294369 0.22092381 -0.30074522 -0.32666603 0.37390524 0.28704405 0.47482824
trade -0.9801777 0.09624272 0.26932952 0.06484229 -0.22357585 -0.053106684 -0.15157461 0.4487306 0.3669688 0.22995038 -0.34574196 -0.2782793 0.38529426 0.2243769 0.42818287
takes -0.95710534 0.100452244 0.3125619 0.04022282 -0.18691401 -0.0739177 -0.18639411 0.46180007 0.30294636 0.26174468 -0.29630563 -0.30396125 0.45929077 0.2721245 0.41838655
transactions -0.9262728 0.09380105 0.28428042 0.04110633 -0.25882253 -0.027799334 -0.16270366 0.46523234 0.44450116 0.16150516 -0.34732655 -0.29210752 0.39744624 0.26876232 0.45491964
open -0.9355892 0.09037379 0.23098688 0.016790137 -0.2566098 -0.068476416 -0.16948286 0.46175858 0.45069376 0.20736691 -0.37891102 -0.33927828 0.3877135 0.23567893 0.43474954
channel -0.9023027 0.08938362 0.3323639 0.07769514 -0.2969893 -0.013775906 -0.10372747 0.48101494 0.4633632 0.1530859 -0.29457155 -0.35986033 0.4317579 0.253777 0.46676165
small -1.0027311 -0.01658574 0.30863595 0.062162425 -0.2731398 0.024699284 -0.15583257 0.45121714 0.38591802 0.18225366 -0.31208894 -0.22271663 0.47392634 0.28275645 0.46811906
pipelines -1.023636 0.06676037 0.189049 0.041437116 -0.16291058 -0.0718768 -0.17340626 0.385421 0.2549663 0.23923492 -0.40821725 -0.29970074 0.44708207 0.27485514 0.38233808
happens -0.9999612 0.1523375 0.27529398 0.03920332 -0.18325095 -0.0045184167 -0.21078736 0.46875563 0.35950357 0.27898362 -0.3562852 -0.28600353 0.38667876 0.28336725 0.41984114
effectively -0.920126 0.08673318 0.28204608 0.04650022 -0.19713941 -0.05016605 -0.17150144 0.48752737 0.37214184 0.21494447 -0.3513946 -0.33202067 0.3938864 0.23837548 0.49563462
sector -0.92225087 0.053492185 0.3413125 0.03715346 -0.24905775 -0.03941133 -0.1606014 0.47366568 0.38838774 0.15729393 -0.2957927 -0.28568995 0.39746314 0.19401732 0.44285396
derisking -0.96174496 0.089897156 0.2868948 0.0751937 -0.24153732 -0.0013935424 -0.12401863 0.49074316 0.34303135 0.21510679 -0.36850756 -0.23750623 0.41685766 0.20281014 0.43165302
balances -1.011228 0.061409857 0.28480864 0.06760935 -0.20327634 -0.053377368 -0.19798866 0.47796068 0.38140795 0.19959965 -0.30736166 -0.1659868 0.38760749 0.291879 0.4247464
fund -1.0266567 0.12092723 0.30179062 -0.0032861528 -0.17284182 -0.07763229 -0.2212052 0.48203763 0.36060056 0.2530077 -0.34057364 -0.1904426 0.39285144 0.2971826 0.43763632
