1441 10
think 0.42930788 0.01805456 -0.29678956 -0.1858382 -0.44977543 -0.3377157 0.026150148 -0.852273 0.44435412 -0.4659953
us 0.64836913 0.1404682 -0.38972318 -0.19342802 -0.49052438 -0.32144076 -0.18207371 -0.6476657 0.4734833 -0.53645134
good 0.3035907 0.069481716 -0.50630015 -0.058929186 -0.031938363 -0.68230844 -0.18189226 -0.90334135 -1.0225495 -1.4922363
going 0.1716468 -0.17208071 -0.20285317 -0.33904615 -0.5285094 -0.28472415 0.1190866 -0.8860806 0.55652815 -0.49439463
weve 0.42103925 0.07455318 -0.5911917 -0.2769263 -0.35793263 -0.28928164 0.11058902 -0.7173504 0.092867985 -0.69807327
growth 0.53399754 0.43341988 0.047174033 -0.8183648 -0.18844335 -0.37715816 -0.59115756 -0.962508 0.2242799 -0.4357489
well 0.5079134 -0.018708842 -0.20298925 -0.27602464 -0.32633147 -0.25829554 0.044448115 -0.9013946 0.3105802 -0.53766114
year 0.033702526 -0.3832796 0.20674124 -0.82307136 -0.49662334 -0.45077455 0.038753096 -0.93862784 0.49578375 -0.5946245
thats 0.38741884 -0.15941435 -0.30135432 -0.30067936 -0.39582697 -0.19620419 0.061329354 -0.7903601 0.28692362 -0.6935775
would 0.392672 -0.36176616 -0.21816285 -0.17798999 -0.44581228 -0.347361 0.16324481 -0.83111584 0.62214416 -0.5258496
really 0.56298894 0.217152 -0.43550327 -0.008391971 -0.24392837 -0.3942751 0.15919013 -0.85050005 0.22225368 -0.55499995
see 0.33552325 -0.092677206 -0.28761387 -0.32588717 -0.3609302 -0.3645013 0.041483343 -0.8767788 0.44765007 -0.48483458
get 0.2309476 -0.33015493 -0.3929722 -0.6231814 -0.5652698 -0.34912828 -0.09623132 -0.76123554 0.45175233 -0.44009745
business 0.6733714 0.5723225 -0.6528143 -0.1229745 -0.303336 -0.41740355 0.20818684 -0.8032369 0.34847903 -0.27021283
yeah 0.44256115 -0.19820766 -0.28435022 -0.16038795 -0.43139532 -0.37201568 0.11923752 -0.75773627 -0.23151052 -0.8545598
time 0.21831284 -0.13796711 -0.46829808 -0.1226709 -0.38952723 -0.38518345 0.18785363 -0.838876 0.617332 -0.4943862
capital 0.61005396 0.104766116 -0.5871193 -0.41355458 -0.61643434 -0.0012553384 0.03138424 -0.72352153 0.16209404 -0.46001732
quarter 0.10015245 -0.35313988 0.48418298 -0.5915 -0.05261614 -0.35609835 0.3244848 -1.1941811 0.5494346 -0.79084945
continue 0.6258334 0.44898298 -0.2883515 -0.20272058 -0.33503264 -0.40500754 -0.017078903 -0.83203304 0.51500744 -0.34939206
little 0.3210949 -0.5537261 0.38879544 -0.8052843 0.0016705615 -0.5416704 -0.25367227 -0.83053625 0.54839927 -1.0165092
one 0.35535663 -0.15742129 -0.48594627 -0.30823597 -0.31157634 -0.39578313 0.35730585 -0.8624189 0.058619954 -0.53150886
grow 0.67469287 0.5923143 -0.058653694 -0.23890878 -0.35747176 -0.6833692 -0.32642236 -1.0273697 0.10437295 -0.2442283
loan 0.3477575 0.28964284 -0.22413546 -0.5568022 -0.28768772 -0.15649311 -0.4291288 -1.157403 0.27589482 -0.25772393
right 0.4183991 -0.10680733 -0.28667054 -0.31236488 -0.50609 -0.17812873 0.105055064 -0.7735986 0.034647338 -0.7421789
bit 0.44142222 -0.64939505 0.29163533 -0.28210846 -0.39899886 -0.5267874 0.1544084 -0.7762689 0.52685827 -0.85681707
dont 0.45661438 0.043820404 -0.402116 -0.22068286 -0.38593534 -0.2917285 0.04158746 -0.84564155 0.46049163 -0.43674484
look 0.65893394 0.082292534 -0.3172267 -0.110541046 -0.33281893 -0.2541836 0.18766996 -0.8796517 0.27660167 -0.47770756
youre 0.50869083 -0.23868649 -0.32346833 -0.387907 -0.46645558 -0.3038092 0.1570782 -0.69255567 0.2731571 -0.6336182
lot 0.37725988 0.08899419 -0.50572616 -0.15920345 -0.3912805 -0.2849821 0.09863656 -0.9112222 -0.01129776 -0.5829065
deposit 0.6404109 0.25603566 0.062005874 -0.4389542 -0.4500552 -0.13453215 0.04251282 -0.82441413 0.6053011 -0.4470952
like 0.40752625 -0.0047927843 -0.33807045 -0.16087335 -0.31131032 -0.43458712 0.17175558 -0.82913435 0.4038619 -0.51248646
morning 0.42268905 -0.1905602 -0.20612669 0.1759542 -0.50343704 -0.6088295 0.3032737 -0.6705405 -1.1012851 -1.652925
rate 0.024495345 -0.6146001 0.286784 -0.45479292 -0.7007053 -0.6169013 -0.14838529 -0.75706273 1.090771 -0.7924445
consumer 1.0510803 0.95274717 -0.613653 -0.083451115 0.17902467 -0.38695672 0.25696182 -1.3253944 0.24923497 0.14974068
want 0.65847224 0.18697827 -0.23030019 -0.35070148 -0.36929938 -0.24844036 -0.11940254 -0.8289445 0.24381226 -0.48770642
markets 0.8261968 0.4447136 -0.72025204 0.041440617 -0.34988835 -0.19564196 0.23926271 -0.78305656 0.19346124 -0.43431428
question 0.46641022 -0.29342616 -0.17944181 -0.16686517 -0.53201866 -0.40387648 0.22043288 -0.70121574 -0.59124166 -1.2109604
things 0.39082566 0.0883007 -0.5328256 -0.19355254 -0.26607975 -0.32427323 0.2972527 -0.84513414 0.43086708 -0.4501763
kind 0.3198681 -0.22139816 0.0061837835 -0.5624333 -0.33098918 -0.3569319 -0.1768544 -0.8816897 0.34875038 -0.7112663
make 0.8817867 0.48872772 -0.7572648 0.0061230743 -0.31636956 -0.3654246 0.12400938 -0.7844114 0.13475722 -0.34043747
still 0.29474023 -0.307973 -0.08674557 -0.31814682 -0.41590065 -0.40470538 0.045481954 -0.8012194 0.5900885 -0.67547005
customers 1.0028986 0.5963191 -0.81398666 0.08283248 -0.21768363 -0.27442682 0.38900843 -0.701425 0.40884084 -0.35273904
could 0.36159703 -0.3219108 0.03355848 -0.47431597 -0.46341217 -0.44310507 -0.082549565 -0.6920401 0.45023087 -0.8138713
basis 0.10709658 -1.2912558 -0.55429304 -1.3880821 -1.1565341 0.019164793 0.03311169 -0.67046237 0.38544273 -0.521783
got 0.4828881 -0.019770192 -0.38435715 -0.18529923 -0.26630038 -0.30076206 0.038189415 -0.78559846 -0.29531088 -0.9258625
back 0.31306 -0.12031144 -0.15989465 -0.2675008 -0.4844054 -0.26166862 0.043795362 -0.881424 0.3405925 -0.60936755
much 0.4569967 0.14953573 -0.2563178 -0.2746457 -0.43737414 -0.43199083 -0.042095337 -0.7735153 0.11084157 -0.63728935
go 0.310769 -0.13909347 -0.31202635 -0.2885933 -0.4526752 -0.25658053 0.26850468 -0.8603405 0.4048559 -0.54649854
side 0.7517142 0.9364779 -0.535013 -0.45713958 -0.05154651 -0.6622265 -0.1577392 -1.0652674 -0.1741765 -0.11353351
years -0.2410436 -0.32945758 -0.20278752 -0.65296936 -0.5093785 -0.56604826 0.41786838 -0.92884135 0.5855646 -0.52540416
okay 0.3693049 -0.17534626 -0.1303157 -0.25875372 -0.45551798 -0.38882723 -0.007076591 -0.7366272 -0.607831 -1.1545614
maybe 0.38244322 -0.41707888 0.018472526 -0.35396436 -0.49127704 -0.44826078 0.10947704 -0.691261 0.1511885 -0.9261905
point 0.29316282 -0.38054764 -0.35271767 -0.5376997 -0.49965063 -0.27162424 0.1339399 -0.86116046 0.3667585 -0.40233493
last 0.18787481 -0.2326502 0.002698707 -0.37513244 -0.37485957 -0.46449196 0.3115097 -0.8464405 0.31884032 -0.75501704
thank 0.54640096 -0.22019976 -0.26498377 -0.25585112 -0.32800773 -0.31009707 -0.007290893 -0.72664523 -0.8100415 -1.2649727
first 0.32554322 -0.19406605 0.13362737 -0.48283964 -0.42602992 -0.18382421 0.3089695 -0.8008115 0.28062415 -0.91836596
two -0.03594003 -0.2774346 -0.25287762 -0.45370775 -0.541446 -0.55892456 0.22771296 -0.8707802 0.2802022 -0.58250016
john 0.3802746 -0.2754367 -0.40636063 -0.08974595 -0.45610943 -0.46126464 0.11963528 -0.8422964 -0.6558492 -1.0261827
portfolio 0.30009887 0.3543223 -0.34601364 -0.14189711 -0.2622278 -0.38842 0.09047795 -0.99975854 0.28707165 -0.48727486
next -0.019489342 -0.53516686 0.24568298 -0.76211125 -0.600812 -0.38585976 0.09893747 -0.8933581 0.5812004 -0.76550096
also 0.5165915 0.23477636 -0.36115554 -0.32076967 -0.3986398 -0.40353286 -0.11190589 -0.825669 0.2437706 -0.38452056
credit 0.4119269 0.2713425 -0.23205969 0.023785878 -0.22824362 -0.58307314 0.33013198 -0.89320946 0.2045301 -0.6329477
loans 0.3767238 0.3323331 0.09743944 -0.5422268 -0.44432515 -0.2562698 -0.16967048 -1.0547376 0.34214345 -0.4110079
need 0.5143584 -1.9794214e-05 -0.63182354 -0.28736466 -0.49007574 -0.07684239 -0.012790736 -0.7972105 0.33112824 -0.4006493
terms 0.34670845 0.025456673 -0.13110766 -0.48741874 -0.43933704 -0.39853388 -0.12796749 -0.780778 0.36596814 -0.60191065
know 0.32983702 -0.22273116 -0.43639323 -0.4046165 -0.5506259 -0.26623818 0.045875136 -0.8068544 0.18536659 -0.5177297
rates 0.040854007 -0.38806838 0.029089063 -0.53515255 -0.6142365 -0.4157862 -0.08130345 -0.74297106 0.86610633 -0.758285
revenue 0.5453885 0.4389777 -0.12664677 -0.6821234 -0.47721562 -0.7574199 -0.45445824 -0.760187 0.068803534 -0.30137554
said 0.33769625 -0.2846934 -0.30685183 -0.2624936 -0.459714 -0.26082635 0.06552702 -0.78971535 0.20280963 -0.74947244
theres 0.37574735 -0.15225203 -0.32677108 -0.17662425 -0.29702002 -0.38732275 0.10758135 -0.84726584 0.3493175 -0.60676634
balance 0.35386705 1.0625386 0.37737197 -1.2019024 -0.65485734 -0.41450587 -0.8768942 -1.1670263 -0.4144106 -0.48370966
risk 0.36427826 0.31024 -0.39328253 -0.22308148 -0.6176578 -0.25512663 -0.058400527 -0.8311071 0.33491668 -0.46181932
technology 0.75256246 0.25436106 -0.81230015 -0.11347995 -0.26333445 -0.41726333 0.2936392 -0.59589905 0.08806689 -0.55476904
given 0.30240378 -0.26180118 -0.10702649 -0.55696845 -0.53463453 -0.22136302 -0.04315434 -0.8224336 0.34183732 -0.64821935
customer 1.0551876 0.49361256 -0.7952751 0.10962932 -0.096708834 -0.42325047 0.24257322 -0.8398082 0.41349158 -0.1284102
talk 0.43605196 -0.24219456 -0.15732203 -0.39775622 -0.2705094 -0.5542872 0.021712054 -0.7581874 0.05547504 -0.7442903
deposits 0.9917873 0.83378154 -0.46734992 -0.1669118 0.12929355 -0.32285488 0.079648115 -1.3148799 0.34546944 0.13424906
give 0.3819475 -0.34246898 -0.1937435 -0.27434918 -0.5330328 -0.5026255 -0.1295367 -0.6647614 0.2715223 -0.793716
way 0.45589373 0.05052055 -0.37383717 -0.33606395 -0.49863216 -0.2636617 0.023983758 -0.7468757 0.3437892 -0.5041493
today 0.31221002 -0.2417016 -0.3066021 -0.43028557 -0.4797579 -0.2795056 0.090207785 -0.8299518 0.29032266 -0.5572201
better 0.4611929 0.054738436 -0.29275322 -0.2729695 -0.43615058 -0.46010536 0.1724964 -0.82113695 0.38157392 -0.37441707
points 0.12910017 -1.5146018 -0.8019651 -1.5728984 -0.9315471 0.2433846 0.07835544 -0.8821499 0.1951657 -0.48775417
environment 0.14117262 -0.5708209 0.14298055 -0.29091564 -0.78252774 -0.8598642 -0.2916243 -0.557346 1.0776079 -0.83026636
change 0.23804596 -0.1373455 -0.2567313 -0.44187334 -0.5026279 -0.18585885 0.08484922 -0.92554176 0.40136382 -0.45074776
mentioned 0.37476316 -0.34018096 -0.2871627 -0.4245406 -0.403746 -0.2963401 0.109328866 -0.88540363 -0.2981428 -0.81050366
growing 0.9271694 0.637795 -0.21688451 -0.017090542 0.08902066 -0.78392804 0.076371096 -1.2346293 0.39821315 0.080559395
david 0.40705135 -0.463043 -0.16862585 -0.1691879 -0.38752666 -0.4585878 0.21282469 -0.7366376 -0.51680326 -1.216861
number 0.46362266 0.032700036 -0.40332493 -0.37463516 -0.30148256 -0.30904743 0.24160002 -0.7200003 0.27125847 -0.6427611
market 0.5688487 0.1649028 -0.31249782 -0.17495923 -0.2965378 -0.25911775 0.3000573 -0.8110004 0.5277396 -0.48477635
thanks 0.48352277 -0.21972486 -0.1756604 -0.27439296 -0.38337752 -0.42822587 -0.013073335 -0.7409554 -0.80042833 -1.2723433
day -0.14052345 -0.6417691 -0.29918438 -0.26654294 -0.6309511 -0.35962263 0.08528876 -1.2972612 0.0058394903 -0.39491382
bank 0.6878622 0.29421735 -0.46762446 -0.21031721 -0.2614741 -0.3021477 0.20460543 -0.75053746 0.14998059 -0.570189
say 0.43803728 -0.28655306 -0.29859588 -0.19606248 -0.25819492 -0.47319114 0.0915163 -0.894627 0.1764903 -0.54259723
pretty 0.36697426 -0.1387658 -0.13304 -0.2506117 -0.2858619 -0.47982597 0.074588194 -0.77913666 0.19711578 -0.81095475
real 0.5200553 0.5526734 -1.090354 0.07058834 -0.33980197 -0.30483648 0.2504179 -1.352704 -0.46193716 -0.046007354
million 0.22624454 -0.5595552 -0.1353438 -0.44540328 -0.32414818 -0.3288797 0.5409017 -0.8109434 0.44264513 -0.7676508
part 0.4599548 0.077074684 -0.18739954 -0.1821017 -0.2964615 -0.4710581 0.13402396 -0.87870705 0.32842177 -0.55566925
expect 0.28126496 -0.070188105 -0.11951056 -0.53657734 -0.45764095 -0.4123578 -0.12805443 -0.8430613 0.4271353 -0.47146302
help 0.5291372 0.12187985 -0.38025755 -0.28815505 -0.5547198 -0.4476305 -0.12717181 -0.69913226 0.5339076 -0.3310566
guys 0.26891863 -0.20838472 -0.23921181 -0.09304051 -0.41192982 -0.46168908 0.07456493 -0.84154963 -0.73218834 -1.2657148
believe 0.47840303 0.12178779 -0.3703094 -0.3290533 -0.32474515 -0.39232725 0.032513775 -0.84937453 0.49491423 -0.30809745
opportunities 0.78542936 0.24219808 -0.56353784 -0.29730356 -0.3511715 -0.26486057 0.16836299 -0.6610747 0.32194197 -0.39023343
take 0.6744035 -0.056369916 -0.3694523 -0.2976732 -0.38421366 -0.19900493 0.22084652 -0.7763094 0.34364513 -0.44959328
put 0.2735538 -0.0915233 -0.33748567 -0.3846153 -0.46167105 -0.2832756 -0.010538928 -0.8373993 0.3154515 -0.5807799
im 0.33911607 -0.32605982 -0.26337805 -0.29371876 -0.5554995 -0.30099347 0.06004168 -0.7794413 0.002517646 -0.72832096
sure 0.7200212 0.09517885 -0.52126294 -0.32880172 -0.39233777 -0.031299587 0.15954897 -0.76124185 0.08551022 -0.5535995
end 0.12411555 -0.36765707 -0.0078276405 -0.49641034 -0.37800452 -0.42096907 0.08605171 -0.84455115 0.7021323 -0.667861
margin 0.053906363 -0.44205713 0.30194566 -0.8256313 -0.90468454 -0.49042958 -0.52287227 -0.68015 0.60820603 -0.90974176
looking 0.5962042 0.12710726 -0.56144184 -0.35367835 -0.32945558 -0.23625715 0.110216886 -0.7939924 0.37859687 -0.39218488
sheet 0.09023359 0.9688831 0.29814696 -0.5937788 -0.6281268 -0.8476561 -0.9948588 -1.5025326 -0.24377593 -0.24540581
guess 0.38345376 -0.14621708 -0.23849238 -0.45314354 -0.419048 -0.37083933 0.027550772 -0.7658504 -0.14137445 -0.798849
great 0.5795218 0.026377019 -0.45861334 -0.04125995 -0.2788904 -0.374633 0.18851516 -0.7215569 -0.46705514 -1.0262992
couple -0.004014401 -0.481409 -0.11400717 -0.5707508 -0.5843879 -0.3606294 0.33551365 -0.797431 0.25205424 -0.8366748
investments 1.0270342 0.5573099 -0.6966184 -0.19321784 -0.2372229 -0.38753954 0.11529726 -0.64554226 0.20248948 -0.3605008
ph 0.36844197 -0.112558685 -0.17682563 -0.3571598 -0.39004332 -0.39115208 0.085764006 -0.78681713 0.14122026 -0.68656445
book 0.34652418 0.05069694 -0.1755051 -0.30394217 -0.45024145 -0.20742804 -0.10389335 -1.059158 0.0013201619 -0.56524193
obviously 0.21524067 -0.34012252 -0.018058069 -0.45072147 -0.39137217 -0.40884632 0.097202405 -0.88275623 0.4134682 -0.6747039
commercial 0.73472375 0.659959 -0.85297394 -0.18010701 -0.10270687 -0.3363424 0.2579722 -1.0476965 0.0076008183 -0.14337936
range 0.124352574 -0.6920814 -0.031134961 -0.6830731 -0.6131859 -0.27622318 -0.021013817 -0.8094536 0.6277947 -0.71204394
talked 0.32591373 -0.1510304 -0.19115584 -0.42435187 -0.40401912 -0.45378846 0.006741855 -0.8698605 -0.04318492 -0.7114415
come 0.37714723 0.05631516 -0.22480428 -0.2707285 -0.41081324 -0.348682 0.17993183 -0.8685083 0.5325622 -0.42866388
youve 0.27411935 0.05547437 -0.21768516 -0.3494444 -0.45920312 -0.55042326 -0.04115628 -0.82959664 -0.05653133 -0.6905908
opportunity 0.6646164 0.20559005 -0.64622486 -0.007312879 -0.33227572 -0.30014992 0.22974502 -0.8713161 0.20685269 -0.35698748
whats 0.35902172 -0.008034675 -0.07787632 -0.5287892 -0.46232083 -0.32998726 -0.06637085 -0.8679721 0.38758248 -0.47524714
three -0.12671612 -0.3924979 -0.09350576 -0.67337453 -0.5995001 -0.5379506 0.17455071 -0.87671965 0.52139014 -0.5542957
banks 0.5210166 0.12363785 -0.53092206 -0.16242017 -0.3459185 -0.26382908 0.20073473 -0.8085075 0.13573113 -0.589075
add 0.48528057 -0.28513852 -0.36158904 -0.36756268 -0.54107934 -0.3648986 0.14773326 -0.7250568 0.20988429 -0.5029407
impact 0.3381879 -0.13848259 -0.2814005 -0.3819594 -0.43571553 -0.45586914 -0.03859918 -0.8150995 0.38505206 -0.48330432
forward 0.15472886 -0.3180558 -0.17364374 -0.55543673 -0.50580454 -0.35727003 0.099399805 -0.82288975 0.49496654 -0.5855144
billion 0.3929434 -0.24776584 0.19455849 -0.5274049 -0.48224697 -0.14810516 0.07186315 -0.8644767 0.4066697 -0.8016253
economy 0.42324486 -0.16414486 -0.28732985 -0.3442823 -0.40157717 -0.41385323 0.14087155 -0.74161047 0.4470515 -0.4985914
feel 0.3860887 0.005828556 -0.14459679 -0.12177073 -0.34458205 -0.5558764 0.111033134 -0.8732426 -0.045292456 -0.7782573
banking 0.99100405 0.81767046 -0.9188943 0.030621508 -0.14279309 -0.3814758 0.32144436 -0.8511261 0.26702556 -0.2002305
mortgage 0.60564584 0.32182416 -0.7702598 -0.19988856 -0.15023763 -0.47292194 0.07637934 -0.79895854 0.3852616 -0.26755187
might 0.2859008 -0.14616932 -0.09421515 -0.35730585 -0.43951106 -0.28205633 0.05554423 -0.87812024 0.47438574 -0.5982617
second 0.3697627 -0.07962258 0.02106885 -0.5395153 -0.34940284 -0.2073092 0.1932178 -0.9312587 0.24365528 -0.66049474
return 0.44884348 -0.023310704 -0.350086 -0.4645602 -0.63659126 -0.095099814 -0.24641952 -0.7746907 0.28110355 -0.53403455
important 0.559592 0.29032114 -0.48010603 -0.12685038 -0.41799897 -0.30889434 0.05112685 -0.7932998 0.3485168 -0.42923048
use 0.6866622 0.23343052 -0.52867585 -0.28785554 -0.4643551 -0.20989673 0.16641934 -0.74538076 0.23161982 -0.38442808
coming 0.28347063 -0.28577965 0.01924449 -0.5829651 -0.48506415 -0.33014122 0.010646639 -0.8329146 0.50389504 -0.62664044
efficiency 0.23080522 -0.09688441 -0.29811072 -0.70338875 -0.49519864 -0.5794939 -0.42970684 -0.780648 0.34391016 -0.41516986
actually 0.35394529 -0.046511147 -0.34363577 -0.2248296 -0.29716635 -0.4203989 0.10896413 -0.79014677 0.1063586 -0.7273776
even 0.32002607 -0.25604427 -0.0956186 -0.5173922 -0.44450575 -0.38020426 0.028762382 -0.7766906 0.47063088 -0.60815245
interest 0.14146799 -0.4003757 0.40947536 -0.6653166 -1.0143434 -0.6609356 -0.7365752 -0.7224502 0.6080609 -0.8135732
regions 0.419883 0.23103832 -0.39870447 -0.30067012 -0.30791244 -0.20490912 0.15630738 -0.98807055 0.11135399 -0.43011984
different 0.4092695 0.020790903 -0.3709376 -0.22190052 -0.4349011 -0.3104452 0.18150581 -0.8101801 0.26578656 -0.57384926
businesses 0.67782986 0.3163463 -0.6251896 -0.165684 -0.26410365 -0.312054 0.18747683 -0.7926084 0.32765958 -0.3382582
start 0.31570375 -0.20446987 -0.27120233 -0.35644007 -0.57325387 -0.36652237 0.073739335 -0.7674002 0.010671555 -0.67567396
low 0.17581958 -0.31048706 -0.03248924 -0.56156886 -0.49328595 -0.35271445 -0.1597524 -0.7787695 0.76097786 -0.66848844
seeing 0.5733471 0.08964775 -0.38444543 -0.29665726 -0.27407286 -0.42557943 0.15301347 -0.77188915 0.22690599 -0.48709193
theyre 0.60642713 0.14944743 -0.5749548 -0.052969255 -0.3304448 -0.38063017 0.31988105 -0.78818184 0.15381972 -0.5038207
level 0.36033896 -0.23038428 -0.24554251 -0.53690934 -0.6047135 -0.22534399 -0.029222332 -0.73091817 0.32123357 -0.59153223
higher 0.32232338 -0.1582907 -0.1246531 -0.44878167 -0.40000954 -0.36020643 0.013426375 -0.85880417 0.5321449 -0.50417095
leverage 0.3909426 0.083821364 -0.1063344 -0.28032956 -0.52168864 -0.5720942 0.06634103 -0.9046325 0.40571213 -0.31186816
lending 0.6549784 0.4309327 -0.6400147 -0.00219375 -0.2563402 -0.34632528 0.2128732 -0.9310444 0.31978062 -0.2741852
done 0.4119544 0.04241978 -0.5079957 -0.09249918 -0.3202433 -0.488275 0.15843327 -0.7050384 0.0389697 -0.81246036
peers 0.4066519 -0.055099767 -0.23952338 -0.2959001 -0.39863825 -0.33601 0.07234363 -0.8735987 0.39703295 -0.44701943
process 0.54101336 0.13723963 -0.38832423 -0.14772725 -0.33503214 -0.39425975 0.16728124 -0.8730786 0.2512059 -0.41144562
within 0.49958634 0.2108246 -0.541585 -0.2607737 -0.32813904 -0.32451338 0.19828327 -0.81271136 0.25632554 -0.42129168
simplify 0.50323766 0.28705138 -0.30309162 -0.2228371 -0.43179703 -0.6155321 -0.3587878 -0.8367648 -0.028530546 -0.54094493
ratio 0.15060158 -0.28443992 -0.24492247 -0.6709625 -0.67672074 -0.5034279 -0.19543354 -0.7468136 0.3810372 -0.51404005
ill 0.52298373 -0.25316334 -0.3138289 -0.19227506 -0.47103223 -0.4164417 0.14977896 -0.65327436 -0.15897825 -0.8602382
something 0.28597257 -0.11781509 -0.22797735 -0.23998722 -0.48954222 -0.39154297 0.04666205 -0.7971035 0.31619182 -0.6429728
around 0.4778629 0.08574727 -0.37250155 -0.30434525 -0.31749466 -0.33714995 0.11674723 -0.82162833 0.19002973 -0.5403228
cost 0.29895145 -0.1363114 -0.3037378 -0.45894662 -0.5391537 -0.28538787 0.02572048 -0.8440403 0.55334496 -0.42387405
increase 0.37359834 -0.15413618 -0.09632528 -0.48302397 -0.3521063 -0.38331908 0.090000466 -0.78816473 0.5332794 -0.57654846
trying 0.4051515 0.17720251 -0.29066244 -0.29997525 -0.43589607 -0.22964078 -0.030653417 -0.9068161 0.2468426 -0.45274064
people 0.5406439 0.21187615 -0.5300773 -0.1525254 -0.32264927 -0.397683 0.117516726 -0.72567135 0.31096914 -0.55387336
based 0.36041442 -0.062120996 -0.32789755 -0.48590115 -0.5323956 -0.17323425 0.08730833 -0.88987124 0.26789284 -0.39665392
quality 0.3921574 0.37373194 -0.32055724 0.03465372 -0.27169 -0.65566295 0.28051618 -0.8774761 0.28685242 -0.5521501
versus 0.4456189 0.075475596 -0.15369074 -0.44785926 -0.39573133 -0.36349842 0.027865525 -0.88030964 0.3321468 -0.4297477
expense 0.5399376 0.25632477 -0.26778305 -0.40350965 -0.4317948 -0.55680627 -0.069206744 -0.7643999 0.05623053 -0.46204963
thing 0.57160205 0.039005987 -0.35441703 -0.17619203 -0.36759323 -0.36466235 0.14387092 -0.7707743 0.16869012 -0.55883706
estate 0.28736687 0.17563024 -1.056112 -0.122387365 -0.36628845 -0.27550834 0.1567805 -1.542151 -0.29798695 0.14610776
focus 0.5854591 0.35298952 -0.4439277 -0.1426726 -0.23136877 -0.3798659 0.16576353 -0.85697037 0.31537855 -0.43463033
probably 0.27857333 -0.29547653 -0.31582117 -0.4653538 -0.4513362 -0.24851504 0.18205671 -0.8055202 0.27667448 -0.61472905
share 0.48881423 0.07211812 -0.36375478 -0.16477777 -0.4507067 -0.30457473 0.095518805 -0.7703288 0.19485977 -0.5886173
big 0.5146958 0.1007186 -0.28480726 -0.22075304 -0.41963622 -0.33186954 0.024082566 -0.8555776 0.26890278 -0.49419686
work 0.50690436 0.16429797 -0.5500886 -0.23213483 -0.38452592 -0.4045829 0.08675834 -0.7288633 0.11113513 -0.5417923
guidance 0.30714497 -0.4280196 -0.08420643 -0.6518966 -0.5706699 -0.22534753 -0.18177088 -0.7584116 0.3138818 -0.7628163
seen 0.3427328 0.064305186 -0.36041883 -0.30720034 -0.28064746 -0.3348043 0.03857798 -0.8512726 0.31809568 -0.5689846
able 0.41316956 0.15740696 -0.19376093 -0.396794 -0.48786455 -0.3430783 -0.046862416 -0.8007031 0.40269083 -0.49014628
net 0.20095168 -0.19159187 0.23328176 -0.8252469 -0.9438271 -0.5505786 -0.6627845 -0.66560143 0.43198237 -0.7744116
getting 0.5054675 0.0018824734 -0.40333727 -0.2174104 -0.38700858 -0.33061284 0.11806186 -0.872272 0.20775832 -0.44794202
new 0.5713504 0.19574398 -0.41385162 -0.3294986 -0.24525975 -0.36223006 0.15018378 -0.76807433 0.36243984 -0.4867562
core 0.8311859 0.4987529 -0.37943316 -0.06812976 -0.09743738 -0.48027852 -0.011592367 -1.0046893 0.31601474 -0.2240191
investor 0.09019889 -0.41441 -0.5603503 -0.22684036 -0.43624035 -0.24751261 0.03800581 -1.3227693 -0.26409608 -0.4257595
beta 0.38955203 -0.14252959 -0.15345965 -0.43156192 -0.45863777 -0.19291392 0.13395503 -0.8046869 0.37585908 -0.6249848
third 0.37955564 -0.015054148 -0.014915187 -0.47206083 -0.29010192 -0.3340759 0.25652885 -0.87037283 0.42011267 -0.5842246
income 0.3085173 -0.027421657 0.18329939 -0.64985055 -0.73666054 -0.48746422 -0.6044359 -0.75472033 0.3108854 -0.6735386
making 0.67998767 0.3369945 -0.588699 -0.20242213 -0.2970145 -0.43404347 -0.00067037926 -0.81198084 0.12308695 -0.38645667
benefit 0.30571416 -0.09610967 -0.040326227 -0.38549477 -0.4502273 -0.3517364 0.018364783 -0.85235465 0.59139115 -0.5676689
may 0.42939892 -0.054517638 -0.2925651 -0.2953403 -0.4200952 -0.4350322 0.07598352 -0.7421112 0.38851678 -0.5523517
mean 0.36343876 -0.114009365 -0.22632061 -0.26063353 -0.3676792 -0.38725746 0.07562754 -0.8259575 0.14064357 -0.63489765
indiscernible 0.37779072 -0.020871118 -0.22324918 -0.30583534 -0.42333648 -0.3576426 0.080609836 -0.82002354 0.31836662 -0.5917344
standpoint 0.48466378 0.13809153 -0.33956283 -0.33277488 -0.44679946 -0.35140133 -0.0052809105 -0.7833144 0.37504435 -0.46690384
management 0.5238725 0.09744154 -0.6339032 -0.36273393 -0.53603065 -0.24046397 0.20701264 -0.70909053 0.38853663 -0.29756373
every 0.51690245 0.083620474 -0.20710358 -0.24208818 -0.33774516 -0.33940443 0.15767649 -0.90254885 0.27828664 -0.48211226
whether 0.5684515 0.2825302 -0.5651667 -0.24327971 -0.43599787 -0.35818908 0.124634124 -0.7024122 0.29627037 -0.43219337
call 0.46403086 0.024337871 -0.33314806 -0.30588976 -0.38040927 -0.37590918 0.2159489 -0.7815143 0.26580366 -0.5139748
across 0.6446406 0.3792842 -0.43050474 -0.16907972 -0.2911639 -0.44262087 0.20459679 -0.8332474 0.23209254 -0.3724914
indirect 0.3729009 0.17852145 -0.45467064 -0.22175628 -0.21042198 -0.30581787 0.23216672 -0.98187536 0.13218684 -0.46606305
wanted 0.4196398 -0.04612313 -0.29066083 -0.23438771 -0.42729467 -0.35067913 0.07920076 -0.7470347 -0.1896911 -0.8100498
assets 0.3329167 0.27944347 0.06941186 -0.5393431 -0.52935874 -0.3388495 -0.28585404 -0.9345967 0.2791071 -0.5385293
plan 0.3747708 0.012556761 -0.22945234 -0.34119713 -0.44889417 -0.3021671 0.14015357 -0.77999586 0.35479766 -0.5638401
equity 0.4987364 -0.418202 -0.6183537 -0.7315866 -0.39221093 0.055504628 -0.05478225 -0.64109993 0.45898992 -0.6319794
securities 0.21328224 0.036751874 0.10694103 -0.42665884 -0.61128575 -0.27267116 -0.24643166 -0.9678143 0.23506723 -0.69132745
base 0.7392294 0.3901051 -0.3013527 -0.16646768 -0.20465371 -0.36868966 0.031630486 -0.8369232 0.5235422 -0.41595328
target 0.37289476 -0.24045996 -0.2612413 -0.52789634 -0.5020578 -0.22912183 0.021145163 -0.7791601 0.31245622 -0.5539703
clearly 0.22597174 0.023122745 -0.14394778 -0.4054773 -0.5096249 -0.47277656 -0.110124655 -0.86648154 0.29580602 -0.56203294
branches 0.49965006 0.1761205 -0.56359893 -0.25325638 -0.2555894 -0.36728734 0.18718107 -0.78223836 0.26166737 -0.48305458
digital 0.767041 0.29725513 -0.56524193 -0.034349576 -0.17102185 -0.48303083 0.32036695 -0.78393465 0.26508513 -0.4402344
spend 0.50002986 -0.034584906 -0.44634435 -0.19148263 -0.3183365 -0.31424662 0.31539726 -0.8767458 0.1936767 -0.5539361
earlier 0.4460566 -0.15810458 -0.22353089 -0.26397258 -0.41483498 -0.33708867 0.18703549 -0.7952642 0.0056566047 -0.7780984
made 0.5551313 0.12955116 -0.33407852 -0.29870567 -0.41499498 -0.35876337 -0.039971948 -0.79781765 0.1672431 -0.47500888
another 0.44887602 -0.26166824 -0.26667103 -0.4198454 -0.4652532 -0.22009237 0.08202146 -0.8231219 0.34311217 -0.55770624
result 0.514785 0.12681626 -0.36686423 -0.22767949 -0.38101137 -0.31240338 0.16701993 -0.8260678 0.34643924 -0.41623405
accounts 1.0316159 0.6987912 -0.39690775 0.08056506 0.14620234 -0.69220036 0.1328317 -1.2695222 0.20175499 0.028477306
cycle 0.4051666 -0.082739264 -0.21992438 -0.37382537 -0.43423778 -0.28797475 0.075294286 -0.77272356 0.40564853 -0.574136
saw 0.35883653 0.040842567 -0.16125044 -0.47016293 -0.32226494 -0.31893057 0.054794464 -0.88049996 0.41329527 -0.5145529
expenses 0.48183334 0.19692177 -0.29970795 -0.37326354 -0.42782602 -0.42257538 3.4296267e-05 -0.7578144 0.12624092 -0.526734
focused 0.4776027 0.2838976 -0.51680785 -0.13371068 -0.31369472 -0.4217461 0.20522319 -0.7862377 0.17307138 -0.49864444
returns 0.37405497 0.1622849 -0.36448905 -0.25121924 -0.41055053 -0.31376708 0.122099176 -0.8650383 0.2490274 -0.4883884
financial 0.40296963 0.09504468 -0.3228904 -0.31981227 -0.36144388 -0.22586651 0.09603527 -0.9878624 0.00923773 -0.40391326
improve 0.6129927 0.2538928 -0.4638835 -0.2097343 -0.4159888 -0.4016713 0.11028374 -0.7783349 0.2929479 -0.38196507
capabilities 0.74400437 0.427973 -0.63629395 -0.14800577 -0.29688668 -0.41363984 0.09648725 -0.7054634 0.37733826 -0.3829114
improvement 0.38725904 0.1803396 -0.35430834 -0.2205219 -0.44949132 -0.6056629 -0.013785399 -0.8034061 0.28880385 -0.46904123
investment 0.39831945 0.049288556 -0.3561756 -0.27078262 -0.3646762 -0.36167103 0.12464714 -0.8543195 0.27543542 -0.51776624
questions 0.33398327 -0.15271421 -0.18563679 -0.20230584 -0.47202936 -0.3321506 0.15310498 -0.8169696 -0.16480474 -0.8542292
let 0.39994133 -0.21839105 -0.24981475 -0.3297608 -0.52393377 -0.43801183 0.00023820289 -0.7434253 0.08797181 -0.6273536
outlook 0.2858749 -0.23207262 -0.09501355 -0.4750812 -0.54519814 -0.4030866 -0.12230466 -0.78040564 0.32686687 -0.6727449
common 0.41305417 -0.34362277 -0.75185597 -0.809788 -0.5206711 0.10654379 -0.06550374 -0.75402385 0.35067835 -0.43594474
fourth 0.32073504 -0.092165865 0.11470689 -0.49494004 -0.3525611 -0.29216754 0.2886321 -0.87366116 0.46281832 -0.69983506
center 0.5554663 0.2963684 -0.67682993 -0.064733654 -0.41411832 -0.4461924 0.38932228 -0.78347486 0.1369075 -0.41435054
didnt 0.3466444 -0.07410358 -0.21147436 -0.37782192 -0.3599236 -0.28753012 0.08424081 -0.8472965 0.41710597 -0.56683767
hi 0.28852332 -0.07228893 -0.3339352 -0.08565744 -0.30289942 -0.5027288 0.015489622 -0.75342166 -0.61771667 -1.0398699
long 0.30544215 0.021522447 -0.3371715 -0.24686544 -0.37986982 -0.4430835 0.07176128 -0.84120136 0.51600915 -0.48362976
term 0.42481613 0.1661794 -0.3540089 -0.3608145 -0.33067858 -0.37573114 -0.12247965 -0.9097325 0.3023243 -0.39639774
exposure 0.34962198 0.16283184 -0.28848004 -0.27502218 -0.3500832 -0.35730782 0.019054223 -0.8692277 0.34273604 -0.582678
curve 0.14151742 -0.24782962 -0.114965916 -0.3965037 -0.53645 -0.4707662 -0.039503314 -0.76272345 0.68795353 -0.6635209
operating 0.52010834 0.20229067 -0.08486194 -0.2619765 -0.3269261 -0.59936017 0.1147634 -0.95503706 0.36529544 -0.28776503
asset 0.3270309 0.03513964 -0.06925521 -0.33384848 -0.41095826 -0.39398107 -0.050959136 -0.85344285 0.39385253 -0.5578281
particular 0.46884173 0.09375331 -0.33501375 -0.25860447 -0.3336136 -0.3677867 0.20533103 -0.8561796 0.31866187 -0.4907631
thought 0.21132872 -0.17886867 -0.12218983 -0.3951978 -0.4241865 -0.39597878 -0.005047199 -0.8526984 0.519773 -0.59617513
appropriate 0.50728756 0.23782139 -0.38247162 -0.35043985 -0.49432486 -0.30108166 -0.10174596 -0.8230514 0.17733458 -0.44032153
youll 0.4306934 -0.05008917 -0.20165421 -0.269277 -0.37075725 -0.34746704 0.07495679 -0.87119514 0.44447434 -0.4750837
manage 0.35585433 0.13551055 -0.22013599 -0.4169274 -0.5257116 -0.27991706 -0.117546104 -0.8602378 0.3116909 -0.53681517
nii 0.32430223 0.035085347 -0.0004962285 -0.53607523 -0.5769493 -0.38544413 -0.36353374 -0.8844676 0.27509144 -0.55104584
advantage 0.630623 0.11302708 -0.44437024 -0.25913182 -0.4986536 -0.24354711 0.19892812 -0.6649809 0.40665922 -0.5228321
lower 0.1925879 -0.32861423 -0.117311485 -0.4716807 -0.57401854 -0.31669432 -0.0035303491 -0.77866 0.60230917 -0.69680434
industry 0.509254 0.20556717 -0.41745672 -0.25408834 -0.269013 -0.4363984 0.09864054 -0.8074717 0.29584792 -0.47687304
cecl 0.30133757 -0.12340213 -0.2941369 -0.29358378 -0.3742772 -0.37453178 0.06531012 -0.8690612 0.18454115 -0.6282575
fed 0.3101541 -0.23053305 -0.17153187 -0.418841 -0.4971846 -0.34906447 0.052884176 -0.7246025 0.5847723 -0.57161796
expectations 0.28020963 -0.22682649 -0.14693655 -0.413273 -0.4220626 -0.32385805 0.048487466 -0.89815813 0.3706541 -0.58278626
past 0.4265732 1.734752e-05 -0.24558969 -0.34351447 -0.35257715 -0.42086852 0.22295056 -0.7773741 0.2911721 -0.5960418
changes 0.40227085 -0.064882554 -0.33573467 -0.320843 -0.31592074 -0.34774503 0.10518554 -0.8281188 0.33536404 -0.5613579
yes 0.4949291 0.0747264 -0.32136178 -0.2273824 -0.35827014 -0.36013275 0.108075894 -0.8044501 0.13892713 -0.5548127
period 0.27515635 -0.21976158 -0.25751844 -0.37878102 -0.41482216 -0.33733216 0.057880074 -0.7864996 0.5486399 -0.61915344
run 0.266776 -0.04836141 -0.2866979 -0.35258082 -0.5161915 -0.29540592 0.08044902 -0.8021375 0.39791396 -0.53884095
stable 0.30232668 0.06810303 -0.15329772 -0.46361807 -0.43128893 -0.3764144 0.03157672 -0.81557304 0.46623632 -0.5598101
stay 0.2904707 -0.056932703 -0.26377583 -0.35577872 -0.44695795 -0.38708833 0.03757909 -0.8197379 0.3877834 -0.6108277
area 0.44391662 0.21314108 -0.376354 -0.3180529 -0.38737002 -0.30735722 0.044642314 -0.80360514 0.23858762 -0.5107033
keep 0.4198913 0.1131976 -0.23293546 -0.30845457 -0.47225204 -0.31669742 -0.044374164 -0.7792833 0.41407606 -0.537844
fairly 0.40848395 -0.104287274 -0.29731444 -0.42384908 -0.4161063 -0.27175266 0.086313725 -0.7748046 0.3703692 -0.534235
continuing 0.6331151 0.2753048 -0.34248787 -0.19538851 -0.32976025 -0.4042876 -0.033166204 -0.8600699 0.39388913 -0.37734404
ago 0.15974149 -0.14146072 -0.1445377 -0.41742313 -0.4825242 -0.48131016 0.15080614 -0.8540813 0.48353422 -0.52175045
data 0.48950276 0.07004189 -0.5143204 -0.23795205 -0.34755683 -0.3263564 0.15142664 -0.79419374 0.21932305 -0.47976467
less 0.33459657 -0.12577766 -0.2826513 -0.40957353 -0.42304385 -0.35027355 0.08737996 -0.8463777 0.34180105 -0.53031194
program 0.3463438 -0.15226601 -0.18042137 -0.27215865 -0.43891165 -0.35418335 -0.011357792 -0.8070253 0.4075278 -0.61737865
ask 0.35868207 -0.07814905 -0.27127743 -0.22903949 -0.4826837 -0.32209054 0.11222403 -0.7804067 -0.19942412 -0.86930513
wealth 0.7421591 0.34168187 -0.6812091 -0.17308849 -0.36838982 -0.3471072 0.12769973 -0.73861927 0.31099585 -0.3502852
initiatives 0.4706486 0.05312639 -0.23424107 -0.4241107 -0.35501334 -0.46871635 0.053821452 -0.75972366 0.14928539 -0.5920077
space 0.52111447 0.16376674 -0.55057114 -0.0808054 -0.31805497 -0.36713547 0.31845537 -0.83658147 0.2033744 -0.44529432
ability 0.41787803 0.079143666 -0.29782742 -0.32012987 -0.40403637 -0.29765582 0.07263793 -0.83416843 0.4138327 -0.50304216
gerard 0.34464383 -0.028609607 -0.4239863 -0.1572992 -0.3386192 -0.39936587 0.089873835 -0.7521637 -0.25211623 -0.7658376
months 0.25269282 -0.07740451 -0.12849723 -0.29342738 -0.4124272 -0.43228206 0.14185134 -0.8567046 0.39894938 -0.6004657
portfolios 0.41823295 0.21516752 -0.4013556 -0.2780797 -0.28514296 -0.42947066 0.11465954 -0.86673623 0.273659 -0.46785247
sort 0.36881855 -0.0884578 -0.251218 -0.39534533 -0.35948277 -0.38297507 -0.034912378 -0.8488466 0.3285962 -0.5042079
expectation 0.27857658 -0.3920049 -0.14650561 -0.55704135 -0.46448436 -0.27289668 0.0063659293 -0.824931 0.4400871 -0.60206175
checking 1.0329852 0.60985357 -0.30332637 -0.04667275 0.1254699 -0.5756494 0.14197889 -1.1937066 0.26165667 -0.06536537
positive 0.38465673 0.13835238 -0.13869843 -0.3016197 -0.5006767 -0.4881254 0.0458033 -0.90156424 0.4138741 -0.36906984
costs 0.43334535 0.13711803 -0.19598573 -0.31002468 -0.49501228 -0.31230345 0.027103798 -0.7606233 0.5859375 -0.5445693
money 0.625719 0.14404753 -0.5821645 -0.12185674 -0.31299543 -0.28187698 0.2894347 -0.8919282 0.19102608 -0.43150342
amount 0.47010988 0.05467476 -0.4521558 -0.26360342 -0.47897983 -0.3191137 0.01136682 -0.78517646 0.21224312 -0.49953696
half 0.33455387 -0.018557724 -0.0799405 -0.4380515 -0.2593044 -0.34988856 0.11178591 -0.96340257 0.32227948 -0.55790997
shareholders 0.4016335 0.094799265 -0.37248355 -0.31677723 -0.47484913 -0.3568221 0.014938221 -0.7627803 0.3243065 -0.52373195
branch 0.5384653 0.10078826 -0.5348493 -0.17790304 -0.23242421 -0.38629556 0.24283907 -0.7802298 0.2679579 -0.5126979
tell 0.38602728 -0.060297947 -0.36194175 -0.23937458 -0.34275153 -0.39321348 0.082776174 -0.84638757 0.30225956 -0.5583228
relative 0.30421722 -0.12169911 -0.32242963 -0.41357225 -0.47940153 -0.32172632 0.034674913 -0.88640684 0.28234908 -0.45554653
q 0.45055944 -0.1530466 -0.21062632 -0.3638504 -0.4039295 -0.2510074 0.09500598 -0.754405 0.028131595 -0.80215013
place 0.4523261 0.033312574 -0.28027487 -0.21493933 -0.43624005 -0.4122464 0.021299357 -0.7969506 0.26090264 -0.5578993
early 0.4354134 -0.060122944 -0.28486526 -0.22770756 -0.41555783 -0.34588012 0.16795129 -0.8208881 0.28806385 -0.54239005
always 0.53380424 0.1274834 -0.43764552 -0.22940758 -0.3749717 -0.24902382 0.17936398 -0.8487843 0.18217999 -0.4612016
move 0.31408036 -0.33534348 -0.24390048 -0.3861764 -0.47065932 -0.36949715 0.1317665 -0.816023 0.44304445 -0.576125
energy 0.29621986 0.096925385 -0.3014247 -0.24053232 -0.45315734 -0.4439008 0.16690359 -0.82578003 0.25325447 -0.54126394
barb 0.3379132 -0.2298892 -0.3254081 -0.29275358 -0.4589316 -0.30589864 0.18733706 -0.7827728 -0.048196908 -0.6949779
best 0.4874183 0.12112537 -0.39767423 -0.2858706 -0.33981377 -0.3501263 0.07975631 -0.8565036 0.29044768 -0.41636607
helpful 0.44020706 -0.04323279 -0.18298057 -0.30732587 -0.30586937 -0.28123134 0.07795931 -0.82679635 -0.03891737 -0.7476406
thinking 0.38346493 -0.024230981 -0.20724595 -0.38917387 -0.47293863 -0.36699435 -0.059176106 -0.7927231 0.26050773 -0.5580156
times 0.38576537 0.013547029 -0.32596943 -0.23684669 -0.39358926 -0.42975768 0.023354867 -0.8898187 0.15200299 -0.5056796
using 0.6647987 0.2742575 -0.47597116 -0.16706905 -0.33907172 -0.34424466 0.2029132 -0.7958353 0.20808157 -0.4211265
top 0.47178555 0.092291735 -0.38496813 -0.33028704 -0.39565176 -0.28221077 0.100349925 -0.84501815 0.26166907 -0.44429097
plus 0.44997838 -0.024450263 -0.26852554 -0.32408 -0.2961768 -0.4448419 0.1343059 -0.87727535 0.2768968 -0.4836391
competitive 0.60543036 0.1495561 -0.3729673 -0.14773728 -0.32104325 -0.3567958 0.09849026 -0.7906127 0.36378253 -0.52759206
example 0.53970575 0.14213383 -0.48418495 -0.22623374 -0.30761257 -0.35094526 0.16080132 -0.8162586 0.21765038 -0.4766167
numbers 0.4167434 0.08317902 -0.22147158 -0.32238328 -0.36535758 -0.39449272 0.16309236 -0.8802504 0.34786025 -0.4780696
already 0.49244004 -0.08234255 -0.27609074 -0.38632792 -0.44425887 -0.35711408 0.124644354 -0.73561996 0.22221026 -0.6083791
challenging 0.39661658 0.02082139 -0.20896769 -0.32853737 -0.5177904 -0.5767446 -0.017873533 -0.7604468 0.30621094 -0.57050556
potentially 0.4496564 0.0055907057 -0.2917017 -0.32772946 -0.4683946 -0.35986173 0.015495404 -0.7366561 0.40606487 -0.551125
high 0.36750484 -0.13807 -0.32458633 -0.37261018 -0.42808568 -0.2932602 0.074127376 -0.8506184 0.3643727 -0.5541528
fact 0.5177751 0.1426948 -0.39887565 -0.24730287 -0.38627058 -0.3247229 0.1489765 -0.809594 0.3454624 -0.44153398
taking 0.3414741 -0.10474705 -0.24971135 -0.25818855 -0.43618768 -0.3754813 0.07157377 -0.79668766 -0.09638708 -0.7794993
wondering 0.30770206 -0.05264204 -0.27277517 -0.4171658 -0.4756438 -0.3914536 -0.013729027 -0.7745989 0.011403145 -0.7289802
cant 0.4357663 0.0040231263 -0.4013965 -0.2151199 -0.39724076 -0.29351896 0.0909721 -0.8306286 0.3026814 -0.5207067
quite 0.3268574 -0.066864215 -0.25995773 -0.40965512 -0.3060137 -0.29169926 0.07614829 -0.8399042 0.33735555 -0.59255815
mobile 0.57794935 0.25447482 -0.61637014 -0.12683144 -0.18842694 -0.4097282 0.32079756 -0.8016973 0.38492215 -0.40625545
answer 0.48772615 -0.1196677 -0.24185021 -0.22162 -0.51492757 -0.3299632 0.07658296 -0.7660047 0.027147932 -0.69784343
account 0.6829515 0.42282546 -0.28736424 -0.18114258 -0.09508899 -0.5457044 0.13587783 -1.029193 0.2485095 -0.21402587
working 0.4307571 0.04615497 -0.39186198 -0.3100235 -0.32647264 -0.33477482 0.18226257 -0.84054554 0.19392653 -0.4918497
total 0.4211221 0.16592519 -0.30902323 -0.26769444 -0.39375052 -0.3361847 0.010464577 -0.8856467 0.25916934 -0.4786993
platform 0.51894206 0.14852105 -0.53562236 -0.21164152 -0.22174099 -0.38551307 0.21557677 -0.81487113 0.23217534 -0.49255008
roughly 0.34852633 -0.05071137 -0.19324556 -0.47433612 -0.4951112 -0.3648846 -0.0033922954 -0.87329847 0.33412609 -0.48118395
significant 0.51492697 0.14701463 -0.37547064 -0.2672645 -0.3719226 -0.37445715 0.068879 -0.8363002 0.31296366 -0.44675818
ccar 0.3500262 -0.14777629 -0.3156377 -0.4032106 -0.47223428 -0.27030468 0.13462807 -0.77512294 0.29452285 -0.5787214
franchise 0.5270284 0.21077362 -0.44412926 -0.21883133 -0.32805365 -0.3319602 0.105546474 -0.8474742 0.29717538 -0.47643763
happen 0.32537103 -0.03587249 -0.32670996 -0.2850967 -0.41324085 -0.34502047 0.07480157 -0.83584595 0.34336832 -0.5662902
flat 0.24602683 -0.22226395 -0.13405704 -0.46651325 -0.48041615 -0.50529283 -0.023215137 -0.7957316 0.46469882 -0.6475455
strategy 0.4456892 0.104967974 -0.18834813 -0.31394598 -0.33425653 -0.43177107 0.02245312 -0.8628889 0.16078696 -0.54531854
hard 0.37638235 0.017837958 -0.37043086 -0.34909984 -0.36293095 -0.41747907 -0.027335696 -0.8757457 0.2940097 -0.442788
job 0.46053922 0.07115078 -0.3905269 -0.09121077 -0.27626452 -0.5282046 0.19118133 -0.79830736 -0.052614056 -0.73928946
targets 0.357457 -0.04097708 -0.26238436 -0.32946593 -0.43445954 -0.37098348 0.00049823336 -0.8470291 0.354843 -0.49747804
tier 0.41522735 -0.32763633 -0.6826507 -0.7669258 -0.5811459 0.03558535 0.05872512 -0.70801944 0.28251186 -0.5000169
runoff 0.4265679 0.0850575 -0.3163117 -0.30979434 -0.24273871 -0.3616344 -0.044127002 -0.9654664 0.26110947 -0.49096647
far 0.45145392 -0.08026054 -0.32046077 -0.3391088 -0.3993857 -0.28219673 0.10717086 -0.83763975 0.160505 -0.5835581
mix 0.4695619 0.24344228 -0.16690454 -0.4176017 -0.39480755 -0.38378844 -0.09280879 -0.9381242 0.17502938 -0.4550022
areas 0.51385355 0.027786674 -0.38880056 -0.29899856 -0.37849304 -0.3630416 0.120629855 -0.8107312 0.17623888 -0.5286553
pressure 0.28073516 -0.22685212 -0.08838831 -0.45742097 -0.5659635 -0.39685354 -0.10455995 -0.8266743 0.55880374 -0.5737427
build 0.52593774 0.25109532 -0.45195377 -0.22544925 -0.38402867 -0.37823126 0.013044612 -0.8024283 0.2946235 -0.48070684
nice 0.39877877 0.072861284 -0.16628633 -0.33913484 -0.36586842 -0.4625244 -0.070567265 -0.8960142 0.15943822 -0.54967386
auto 0.4251531 0.053019635 -0.3079758 -0.16351402 -0.24503031 -0.31724638 0.029175572 -0.9470441 0.2460843 -0.5799367
bankers 0.6678268 0.28542823 -0.5229677 -0.1879995 -0.28243423 -0.3766746 0.20679194 -0.7984322 0.27008587 -0.42136636
relationship 0.59986895 0.37415475 -0.5022656 -0.18392022 -0.33135042 -0.3466843 0.10335947 -0.8683019 0.27776676 -0.35643524
changed 0.35855722 0.03395988 -0.24354151 -0.39433795 -0.37784937 -0.31591457 0.038673207 -0.8400234 0.34480166 -0.54776657
team 0.5781241 0.20576547 -0.41614538 -0.09886106 -0.29946068 -0.3876956 0.04203547 -0.8045823 0.24675317 -0.5328556
gives 0.42469543 0.037847545 -0.32588863 -0.29732105 -0.41744804 -0.3760414 0.07597292 -0.81161386 0.30686486 -0.49008685
experience 0.64727366 0.33654496 -0.5818592 -0.20232409 -0.2236391 -0.4234275 0.13574395 -0.84439623 0.26111707 -0.3904204
id 0.486271 -0.026675902 -0.30484793 -0.23599708 -0.4235441 -0.3745773 0.15045354 -0.8006239 0.22339746 -0.54200804
dividend 0.41839224 0.0002360238 -0.24497479 -0.41778988 -0.38513294 -0.2858833 0.02155566 -0.79420054 0.3170425 -0.57966095
demand 0.7242886 0.4814255 -0.55039537 -0.30567676 -0.10474751 -0.33510715 0.11821615 -1.0333486 0.2805957 -0.16417722
group 0.49323222 0.21696173 -0.49558267 -0.23173092 -0.33297944 -0.23720062 0.13209604 -0.88167787 0.25102758 -0.4261946
hey 0.37237635 -0.027541228 -0.2964324 -0.19400257 -0.27694058 -0.44953686 0.0076328884 -0.69157434 -0.40442806 -0.94859487
full 0.38104495 -0.08750746 -0.18609358 -0.46505514 -0.36179072 -0.35805854 0.09572574 -0.8154309 0.324267 -0.61363786
color 0.4677179 -0.1392644 -0.23259903 -0.30659297 -0.3597126 -0.33630002 0.050729144 -0.7465085 0.05068964 -0.7934638
count 0.30572525 -0.06780579 -0.3486372 -0.38943517 -0.44200358 -0.35111538 0.21604186 -0.9319951 0.23418745 -0.44241405
talking 0.42210692 -0.02146878 -0.32560888 -0.34780037 -0.44528952 -0.34588572 0.10687962 -0.84445316 0.22908887 -0.5254243
many 0.44198263 0.15060773 -0.41800293 -0.2188188 -0.36841518 -0.3673669 0.13942304 -0.83106 0.2344156 -0.48687464
particularly 0.5244175 0.23162872 -0.4745763 -0.20828025 -0.2952152 -0.3664919 0.133499 -0.94569886 0.22915287 -0.36591372
pay 0.49794975 0.16760823 -0.3065726 -0.3128077 -0.35249418 -0.36553127 0.04984437 -0.85444176 0.28178626 -0.4701902
service 0.59325236 0.307791 -0.3738593 -0.18996574 -0.28375018 -0.42181945 0.15709566 -0.89191604 0.15083604 -0.37695277
relatively 0.3360582 -0.015859373 -0.18505086 -0.48132998 -0.4465853 -0.40147352 -0.038477913 -0.82553434 0.38739064 -0.5596483
insurance 0.46797875 0.15955074 -0.40630135 -0.29312655 -0.3286422 -0.32373932 -0.009302189 -0.8902914 0.20149365 -0.44233826
understand 0.4732251 0.016495256 -0.2760816 -0.32124108 -0.4032582 -0.3078295 0.0776083 -0.8255926 0.31123644 -0.51140445
teams 0.48452783 0.20440263 -0.40668344 -0.2224976 -0.30949885 -0.4541339 0.061313514 -0.8414986 0.24727964 -0.49021828
followup 0.47164622 -0.11001424 -0.24774665 -0.19452696 -0.37853733 -0.3780793 0.09039055 -0.766518 -0.24095817 -0.89531916
online 0.5780396 0.26704398 -0.52924985 -0.18098493 -0.23264809 -0.49186337 0.314102 -0.77239174 0.37514615 -0.4540515
close 0.31357378 -0.18822522 -0.28255582 -0.41985744 -0.42174146 -0.36457527 0.123826504 -0.7802688 0.33680156 -0.5874003
liquidity 0.40952176 0.0199194 -0.32160422 -0.33184674 -0.43538293 -0.26598588 -0.007955767 -0.8424636 0.3319153 -0.5379283
overall 0.39361873 0.14434955 -0.30963975 -0.36952 -0.42970285 -0.40733734 -0.0036452496 -0.864933 0.26285172 -0.45623243
certainly 0.37106752 -0.03223215 -0.3035024 -0.35192543 -0.42032042 -0.3941872 0.032767963 -0.8384115 0.27026683 -0.5231327
anything 0.36806345 -0.009076577 -0.2611836 -0.33581263 -0.43040413 -0.407711 0.056744624 -0.8286455 0.29924154 -0.57620955
company 0.45463616 0.09298039 -0.29472634 -0.31442258 -0.42379197 -0.3299148 0.03263515 -0.81094825 0.3677936 -0.48517752
piece 0.4207653 0.07171947 -0.43957922 -0.3057326 -0.43544167 -0.34254006 0.082880706 -0.75514936 0.3600195 -0.49057654
generate 0.49865174 0.12225802 -0.3169178 -0.39508218 -0.49829924 -0.41168255 -0.123318985 -0.79452336 0.3158988 -0.42585
hedging 0.34068906 -0.14405008 -0.13518123 -0.29807842 -0.43590686 -0.42163467 -0.037968695 -0.77549404 0.36757365 -0.7141854
relationships 0.61560214 0.35123986 -0.38278785 -0.22173877 -0.2700962 -0.3817911 0.07922813 -0.8498582 0.3165847 -0.43790337
sensitivity 0.40114233 -0.054243047 -0.13054901 -0.4161394 -0.50245553 -0.40378353 -0.030979754 -0.73958164 0.40741727 -0.6024626
initiative 0.46731582 0.17501643 -0.331154 -0.26521018 -0.40618765 -0.55066156 0.023181222 -0.902296 0.03917077 -0.459351
came 0.40769356 -0.049523372 -0.29813206 -0.39140087 -0.38138482 -0.33987188 0.14948408 -0.8118945 0.3069076 -0.55748963
set 0.42587367 -0.04037329 -0.37789306 -0.42458457 -0.39526525 -0.33975962 0.08322191 -0.7763309 0.30143872 -0.49370766
extent 0.3408078 -0.10228704 -0.20455487 -0.38773718 -0.48078316 -0.37427312 0.08154534 -0.78084236 0.369009 -0.5321781
line 0.45319083 0.09445437 -0.21325317 -0.33656877 -0.3673687 -0.3096494 0.053709958 -0.88323945 0.20566998 -0.54099953
needs 0.6265622 0.23530717 -0.5250463 -0.1834207 -0.36833066 -0.44615883 0.14643352 -0.8017124 0.26655063 -0.38144603
levels 0.39060685 0.014669427 -0.15279561 -0.33331776 -0.46044838 -0.30221102 0.040890407 -0.8397272 0.40079308 -0.5371378
corporate 0.6410861 0.3953155 -0.54290247 -0.19336934 -0.197893 -0.27602687 0.14147574 -0.9598012 0.21299475 -0.37385616
committed 0.3249059 0.08132846 -0.24227798 -0.34987855 -0.48041776 -0.47064358 -0.04714959 -0.8539126 0.32092705 -0.43460312
reduce 0.48259816 0.09692566 -0.38342857 -0.31328458 -0.4919087 -0.31366107 0.10335069 -0.79276574 0.26035342 -0.47689396
others 0.3958749 0.08081245 -0.29630786 -0.31206253 -0.34738806 -0.40296367 0.062310334 -0.8555679 0.28053144 -0.5525672
deliver 0.4562064 0.1392948 -0.41676778 -0.2667208 -0.34300175 -0.39117065 -0.029684654 -0.79368186 0.28083694 -0.51085925
services 0.49606642 0.33680034 -0.43903965 -0.24031347 -0.29955405 -0.34510505 0.09996744 -0.9425545 0.26381016 -0.3592329
factset 0.34685355 0.3533182 -0.45749548 -0.4356745 -0.50876594 -0.32661253 0.29564264 -0.77277327 0.26168442 -0.3243949
primarily 0.3757079 0.10941688 -0.23865037 -0.32211488 -0.41624194 -0.39284986 0.024892868 -0.77488583 0.33900315 -0.54246414
nonbank 0.6103494 0.15545212 -0.30827254 -0.2481005 -0.40382484 -0.34778756 0.061540462 -0.7566865 0.29427215 -0.5651523
become 0.3598612 0.05917646 -0.3964261 -0.3394172 -0.41704398 -0.39760116 0.048490807 -0.7492291 0.31827343 -0.530893
betas 0.46526763 0.09166361 -0.34335294 -0.2913271 -0.3238988 -0.34121978 0.1113218 -0.8493977 0.4511151 -0.4324085
head 0.41797537 0.079103015 -0.2920544 -0.37311903 -0.32328495 -0.38734436 0.106481485 -0.8670675 0.251619 -0.4543165
quarters 0.32238874 -0.15969028 -0.1393394 -0.43532193 -0.39772904 -0.42751446 0.17690967 -0.80227387 0.40200368 -0.6157033
fee 0.47630253 0.04312866 -0.17476736 -0.43781534 -0.38163555 -0.40250498 -0.059842337 -0.8535007 0.15212588 -0.5204742
type 0.45668313 0.17186639 -0.38714248 -0.33649424 -0.32988122 -0.38422906 0.13329887 -0.85099626 0.27402794 -0.49509388
credits 0.2722486 -0.012704063 -0.3340341 -0.30265796 -0.40538785 -0.3549781 0.21331209 -0.81513023 0.26221466 -0.60909384
matt 0.39249304 -0.076452434 -0.3068002 -0.20446356 -0.38113704 -0.3399227 0.08959441 -0.7779883 -0.009673072 -0.65978783
certain 0.39982575 0.11303837 -0.27287123 -0.2817607 -0.33609596 -0.42370805 0.012858126 -0.8813665 0.28325483 -0.50973177
course 0.36027455 -0.02181804 -0.27715832 -0.39680448 -0.4465468 -0.30094096 0.082731254 -0.82337487 0.3237233 -0.5267379
largely 0.43186125 0.21894655 -0.30226764 -0.341089 -0.3511438 -0.32433346 0.093930885 -0.84938335 0.30837598 -0.47218135
short 0.30974373 -0.057887834 -0.163802 -0.43892267 -0.4186294 -0.39162678 0.024401896 -0.7810664 0.44551492 -0.59934473
started 0.40738648 -0.054368492 -0.24674939 -0.32875973 -0.4019921 -0.3460041 0.09856966 -0.77252436 0.32354605 -0.59351635
board 0.35960197 -0.033621278 -0.3432486 -0.22445822 -0.42813212 -0.35843563 0.09709109 -0.7988637 0.16677386 -0.61025304
comes 0.42756474 0.09407639 -0.2921293 -0.32478362 -0.3914292 -0.47490498 0.05597303 -0.85745084 0.2605252 -0.44841036
since 0.3152455 -0.12241915 -0.25151914 -0.4243975 -0.4542004 -0.37863594 0.122007646 -0.8275885 0.3299066 -0.5112598
prepared 0.3497583 -0.0028952996 -0.26724923 -0.33008143 -0.4538694 -0.31472927 0.09977108 -0.7820535 0.20829971 -0.60670924
wed 0.39772144 -0.025899436 -0.2675135 -0.28309 -0.4182572 -0.39889252 0.07307481 -0.87224084 0.33958277 -0.5278555
key 0.44764557 0.018966751 -0.3702278 -0.33733618 -0.38665864 -0.3645104 0.008403019 -0.8066474 0.21998414 -0.5433861
footprint 0.51881194 0.18488768 -0.3803748 -0.20356533 -0.33339015 -0.37175342 0.12983266 -0.8048199 0.27859983 -0.5486793
future 0.39171278 0.031833824 -0.27082843 -0.3378571 -0.4031227 -0.4102591 0.07938372 -0.8364643 0.27093983 -0.5151814
faster 0.60208654 0.12644012 -0.32458752 -0.31582966 -0.38793567 -0.40268594 0.045955624 -0.88659483 0.30016458 -0.35330918
moving 0.4230525 0.029225206 -0.334492 -0.29310367 -0.35840747 -0.3737135 0.031204509 -0.81073934 0.31720993 -0.5902279
lets 0.47015476 0.03011661 -0.30678257 -0.25073433 -0.43243584 -0.4145388 0.041604333 -0.81970245 0.25941926 -0.56923544
fixed 0.37503064 -0.013056235 -0.20972319 -0.38910672 -0.48448285 -0.39583454 -0.051707525 -0.77715063 0.41527683 -0.5824752
losses 0.39500332 -0.03559108 -0.37020674 -0.3906957 -0.35928965 -0.2664644 0.09930069 -0.859182 0.2261937 -0.5003988
try 0.46681002 0.0330686 -0.35744256 -0.25538427 -0.37268734 -0.296536 0.041634236 -0.82831764 0.28456053 -0.5076893
either 0.4071415 0.06788438 -0.4039592 -0.2989598 -0.3833682 -0.29723534 0.040422395 -0.9101452 0.252414 -0.48395276
sense 0.4123923 -0.10118171 -0.20153002 -0.3562136 -0.52744126 -0.3451451 -0.029774752 -0.81764734 0.28328148 -0.6481579
solid 0.45563823 0.2063874 -0.35323754 -0.26138294 -0.3776596 -0.3595071 0.07897732 -0.8358355 0.23448427 -0.532587
though 0.42644262 -0.014707253 -0.31938526 -0.36968186 -0.432874 -0.29575765 0.07098719 -0.80081624 0.32135782 -0.50672966
invest 0.53676707 0.15356949 -0.42676675 -0.20950869 -0.40352684 -0.34135365 0.11673755 -0.8279025 0.2905832 -0.46515644
meet 0.5985576 0.19810131 -0.42975396 -0.26670393 -0.39128724 -0.3396179 0.054200914 -0.7967291 0.38348204 -0.4060987
looks 0.2910428 -0.045738176 -0.2974802 -0.27323437 -0.4083787 -0.45022792 0.13228415 -0.8096073 0.34461004 -0.5765278
additional 0.4452421 -0.050192818 -0.37737098 -0.4397348 -0.40720683 -0.23689628 0.0055325115 -0.8152248 0.26564956 -0.51859343
comments 0.40818506 -0.10512363 -0.33495328 -0.3573012 -0.44680882 -0.3256657 0.15011218 -0.8006037 0.043202974 -0.6387971
ai 0.51278514 0.10766323 -0.4506448 -0.15563104 -0.3709236 -0.43489316 0.13668628 -0.747892 0.09772861 -0.5543835
continues 0.5008128 0.0439138 -0.33017325 -0.27761516 -0.3289575 -0.43441507 0.009791883 -0.8501748 0.35839093 -0.44361356
loss 0.36336914 -0.15921147 -0.28447443 -0.5048971 -0.4097073 -0.36583135 0.08475605 -0.8260486 0.3542135 -0.4599751
earnings 0.34029424 0.039009694 -0.14652477 -0.4147672 -0.44359726 -0.3684799 0.03779382 -0.8915569 0.37535694 -0.48531848
provide 0.43358585 0.10968799 -0.37423396 -0.2019778 -0.364501 -0.31386575 0.15882997 -0.8288532 0.26804414 -0.5200122
current 0.3501409 -0.09917726 -0.25680733 -0.32264328 -0.4021143 -0.3506396 0.140871 -0.8146955 0.34273323 -0.62646943
smaller 0.57008666 0.12081873 -0.42141512 -0.17316164 -0.40632647 -0.308854 0.1698594 -0.83767873 0.28270444 -0.462859
llc 0.45421818 0.1910649 -0.44400656 -0.31777012 -0.47408187 -0.2651789 0.17491192 -0.7395613 0.022733936 -0.52168083
economic 0.38090438 0.012184273 -0.3088213 -0.3559743 -0.39630324 -0.3526137 0.051111657 -0.80404335 0.40104502 -0.5355781
commitment 0.41186014 0.099421 -0.34012145 -0.31843317 -0.41205087 -0.40016615 -0.020659294 -0.85759616 0.22332035 -0.46966583
acquisitions 0.44428378 0.0600425 -0.26393682 -0.32057428 -0.41154474 -0.39804697 0.063334 -0.7939316 0.33043092 -0.54151577
exactly 0.42335427 -0.071504585 -0.32918134 -0.3364651 -0.42942348 -0.3057712 0.027547738 -0.82157105 0.20253123 -0.55486906
adjusted 0.35174355 -0.004053599 -0.36860815 -0.4784102 -0.40196323 -0.29654565 -0.06705458 -0.9309283 0.25230476 -0.44261914
erika 0.36217985 0.0034936382 -0.3214642 -0.22378883 -0.27607188 -0.39415047 0.09411619 -0.7878871 -0.12045626 -0.7073679
perhaps 0.37277842 -0.1478818 -0.27944615 -0.38257468 -0.49684197 -0.39655733 0.048694134 -0.767229 0.3712388 -0.5871199
hear 0.38811773 -0.025532158 -0.3363614 -0.27117577 -0.4303274 -0.29565588 0.108786 -0.8207066 0.2174181 -0.5456729
continued 0.42413536 0.07372707 -0.2766028 -0.3691748 -0.39690897 -0.3129625 -0.006050272 -0.83907247 0.3378687 -0.47007814
ken 0.29017153 -0.05717759 -0.30362645 -0.30609044 -0.4164464 -0.33660316 0.02062259 -0.7947835 0.04067041 -0.6443891
saying 0.35882816 -0.08363305 -0.34730455 -0.38189086 -0.41696978 -0.35569003 0.06541098 -0.7892244 0.20088828 -0.60339195
percentage 0.39984238 0.05310777 -0.2731235 -0.39245197 -0.38738006 -0.35079345 -0.029147508 -0.8068631 0.27045798 -0.55638486
companies 0.34403935 0.13260151 -0.33622894 -0.3102012 -0.35302764 -0.32598808 0.13701788 -0.8547772 0.32635945 -0.5166067
results 0.44153503 0.08273496 -0.2947133 -0.25334454 -0.41210794 -0.3754768 0.109178126 -0.82382077 0.313729 -0.48857075
wont 0.41899356 -0.07621094 -0.31986 -0.31347033 -0.34809592 -0.37560573 0.068574116 -0.80547136 0.20996271 -0.5701046
value 0.47310486 0.10754326 -0.33630717 -0.1989067 -0.3604141 -0.35664564 0.08438517 -0.8387301 0.29384604 -0.52011126
potential 0.40537843 0.041249186 -0.34537864 -0.3498009 -0.40662217 -0.34622768 0.07650011 -0.777111 0.26347858 -0.6057981
system 0.54940295 0.12353967 -0.42606893 -0.34052807 -0.2991309 -0.320551 0.104746304 -0.84140974 0.21938793 -0.491093
gdp 0.28688478 -0.17488544 -0.16727138 -0.5026533 -0.398393 -0.42979872 -0.009855607 -0.8189733 0.3571475 -0.5655547
continuous 0.40237176 0.10605275 -0.22485086 -0.3146734 -0.40707985 -0.4720484 -0.007985898 -0.88769615 0.25184307 -0.50867075
least 0.37544551 0.03449742 -0.2862146 -0.38869247 -0.39132252 -0.3456581 0.09888142 -0.85448617 0.41697958 -0.49738
threeyear 0.25554398 -0.11944653 -0.2666381 -0.34813982 -0.49769405 -0.37953272 0.11907669 -0.8201128 0.46714708 -0.54733235
efficient 0.42101964 0.12914653 -0.38918725 -0.33937186 -0.4565981 -0.4193187 -0.03981293 -0.7896011 0.18690027 -0.4732904
front 0.508068 0.15452632 -0.2907935 -0.34074825 -0.33536232 -0.3507492 0.036223073 -0.86842597 0.153971 -0.53901
reserve 0.3600395 -0.09947852 -0.2644559 -0.3850247 -0.44244567 -0.31320766 0.08474866 -0.8239268 0.36927283 -0.5092538
earning 0.333822 0.12813528 -0.10317726 -0.4701249 -0.45747694 -0.3595326 -0.16358757 -0.9483124 0.19282652 -0.5503746
cash 0.5177561 0.08174704 -0.33730727 -0.25430113 -0.42925963 -0.31444043 0.13771644 -0.7887204 0.31457296 -0.49121222
beginning 0.31673938 -0.07645229 -0.22684772 -0.37017983 -0.45267633 -0.4090434 0.06464895 -0.8740933 0.38407284 -0.52119005
nim 0.4106874 -0.052916747 -0.2415401 -0.466643 -0.4290248 -0.32919836 0.033974703 -0.7995076 0.25181025 -0.59812945
deal 0.3906615 0.0112505825 -0.2927006 -0.34992298 -0.33823183 -0.39587486 -0.0033877064 -0.8125339 0.27799225 -0.52617294
excess 0.51565456 0.14923553 -0.42295304 -0.3504101 -0.39483595 -0.28137192 0.0077169677 -0.8233827 0.26049295 -0.5247936
average 0.40207598 0.04273078 -0.11618801 -0.40047723 -0.4215931 -0.3165905 -0.017129922 -0.8255034 0.35383743 -0.5916465
chargeoffs 0.27426782 -0.38476312 -0.34669903 -0.58116174 -0.5142291 -0.24891743 0.1208744 -0.82379895 0.2724916 -0.5358082
fast 0.488832 0.045603607 -0.36226556 -0.24388246 -0.39840648 -0.36170736 0.116085954 -0.7764308 0.29259992 -0.46723297
driver 0.40157261 0.018245297 -0.2161841 -0.40712646 -0.4462666 -0.43978974 -0.06767138 -0.8411467 0.32763138 -0.5099731
update 0.24987587 -0.14060608 -0.24327664 -0.3752414 -0.50067925 -0.3080835 0.019592209 -0.8448637 0.17970301 -0.574123
tax 0.4081309 -0.06581272 -0.35520628 -0.4183663 -0.3638463 -0.34976372 0.038777936 -0.8136187 0.34503898 -0.51050407
transaction 0.40442476 0.04160939 -0.33355227 -0.24909487 -0.3555773 -0.40296704 0.1179388 -0.7906418 0.32668027 -0.54699045
mids 0.3370565 -0.15605542 -0.24497351 -0.41165474 -0.47478104 -0.44023687 -0.027370313 -0.7468352 0.38551778 -0.6149717
decision 0.5084801 0.038985856 -0.35393953 -0.27334175 -0.35163343 -0.3336771 0.11388619 -0.7863836 0.33705038 -0.5980373
scale 0.49525574 0.039889317 -0.3920067 -0.24955273 -0.38542348 -0.33229885 0.11491898 -0.8175241 0.2689563 -0.53552586
interested 0.47005558 0.018910272 -0.3098961 -0.35921368 -0.34074277 -0.39486915 0.08809169 -0.87566984 0.21355256 -0.5468725
baked 0.36587065 -0.14384092 -0.23600036 -0.41302857 -0.4441713 -0.36492652 0.030875446 -0.767086 0.41054058 -0.60109574
incremental 0.36966357 -0.07352421 -0.17029998 -0.4437606 -0.4822655 -0.31578153 0.0022383472 -0.83608556 0.36837208 -0.55991346
beyond 0.39094454 0.037793797 -0.268247 -0.31679478 -0.4442726 -0.35886547 0.061666314 -0.82316434 0.23853499 -0.56098956
heard 0.35218692 0.004180202 -0.3499373 -0.3156514 -0.4348931 -0.39584073 0.10824483 -0.8599742 0.12601343 -0.5404941
debt 0.4712525 0.072026916 -0.3197396 -0.34993473 -0.3943642 -0.2758337 0.101524204 -0.8285064 0.2109574 -0.53857917
contact 0.47756112 0.13278063 -0.45805803 -0.2297099 -0.35897458 -0.46002778 0.21727633 -0.81561255 0.19240066 -0.4533427
recently 0.54019195 0.078108296 -0.318187 -0.26044717 -0.31111315 -0.40653864 0.10701118 -0.76868725 0.26135486 -0.5588241
ways 0.49975017 0.16517022 -0.39886725 -0.2623951 -0.3817414 -0.36236912 0.019386603 -0.8327244 0.3315496 -0.4719226
larger 0.45291495 -0.01487363 -0.34260696 -0.3287173 -0.3897649 -0.34481785 0.07750235 -0.8024702 0.23840627 -0.52480626
card 0.55885947 0.18402007 -0.33951646 -0.24164684 -0.22124574 -0.42901012 0.075860776 -0.9467513 0.24492091 -0.32340476
consistent 0.48619658 0.14276604 -0.32358927 -0.32366842 -0.37533087 -0.31945515 0.038877238 -0.8939851 0.22706513 -0.42519298
profile 0.45201516 0.00977413 -0.37799153 -0.43427393 -0.47886425 -0.24821238 0.07301055 -0.84678125 0.399608 -0.4688384
easier 0.7919125 0.40612057 -0.56647974 -0.17571914 -0.33655173 -0.29832307 0.0915591 -0.88244575 0.33128008 -0.36694953
yield 0.33217955 -0.06496599 -0.21007276 -0.36621964 -0.42030016 -0.37584534 0.074423335 -0.81872857 0.41222915 -0.61360294
strong 0.46404788 0.21150815 -0.37521252 -0.17780219 -0.34586054 -0.39994967 0.042270336 -0.84241575 0.23570026 -0.4862917
managing 0.47008887 0.15707782 -0.3204603 -0.33135948 -0.38179323 -0.36902577 0.10029259 -0.81065637 0.28987774 -0.4855162
information 0.48028854 0.06521122 -0.3517856 -0.32457325 -0.4558449 -0.27910906 0.10749605 -0.7716257 0.2559444 -0.43832463
starting 0.3192773 -0.14792441 -0.21088085 -0.34780148 -0.46424037 -0.31689104 0.09121008 -0.850135 0.38120958 -0.60126776
buyback 0.39792252 0.022103474 -0.24908774 -0.43042722 -0.35465214 -0.29324186 0.07350545 -0.804385 0.35414174 -0.5858017
swaps 0.34411418 -0.16315572 -0.15091497 -0.39801347 -0.5029997 -0.38447815 0.015655454 -0.7851637 0.457993 -0.5482667
gone 0.45129147 0.039074752 -0.40601248 -0.23169577 -0.36034432 -0.3549758 0.09852617 -0.82377344 0.13855419 -0.54380745
clients 0.4806622 0.070232876 -0.37232655 -0.2125922 -0.35204098 -0.34051126 0.112585634 -0.86388075 0.2693797 -0.52486026
generally 0.392411 0.084266976 -0.3326977 -0.30346605 -0.34325668 -0.32111672 0.08445342 -0.8701074 0.3012996 -0.47232586
servicing 0.4840571 0.11492408 -0.60394174 -0.28950298 -0.29208282 -0.38430113 0.12430655 -0.7821753 0.315088 -0.4253542
later 0.43567577 -0.11188135 -0.2373653 -0.31642556 -0.4140432 -0.31907526 0.043467507 -0.8203582 0.30049267 -0.5665468
gets 0.37767464 0.04349044 -0.20820998 -0.35551783 -0.39516047 -0.30863872 0.087993845 -0.8258432 0.2988047 -0.5408049
production 0.37637356 0.10687789 -0.18530214 -0.32918563 -0.32959306 -0.3982708 0.14041074 -0.88209194 0.29235423 -0.52228045
comment 0.40380192 0.043342374 -0.24784483 -0.37167946 -0.47517514 -0.3203754 0.09043125 -0.82641685 0.16807328 -0.5181962
systems 0.43627122 0.10780689 -0.3200178 -0.30809233 -0.4025627 -0.30475608 0.15825176 -0.8663823 0.29102013 -0.54989916
havent 0.3781711 0.09191522 -0.3083802 -0.29465845 -0.41018802 -0.35439748 0.10482453 -0.8192463 0.2577867 -0.54915094
size 0.418488 -0.026770135 -0.23642386 -0.28315845 -0.45114896 -0.34772825 0.08012232 -0.8157057 0.3484227 -0.6046087
places 0.40818566 0.14104809 -0.42615992 -0.31803015 -0.33938667 -0.41207683 0.11117523 -0.782111 0.2421386 -0.54445827
together 0.38065988 0.03136043 -0.4148466 -0.32803372 -0.4402773 -0.31651744 0.019834543 -0.8280162 0.23731846 -0.54489905
products 0.52551466 0.10093745 -0.46047392 -0.21640834 -0.34647718 -0.33905149 0.10104016 -0.81432104 0.2454585 -0.5296683
metrics 0.4117364 0.120999455 -0.31943926 -0.26659784 -0.32324892 -0.36280707 0.12633114 -0.9280603 0.38039553 -0.45739028
criticized 0.36442012 -0.021087624 -0.15219197 -0.35812947 -0.38961363 -0.33861628 0.11090458 -0.87391645 0.31052226 -0.5855847
duration 0.33648747 0.05885766 -0.24550375 -0.29255024 -0.4235183 -0.38576838 0.05536698 -0.86623496 0.3040802 -0.57462925
pick 0.40431446 0.02409623 -0.34062538 -0.43680036 -0.42214298 -0.33147225 0.08183105 -0.83986783 0.3090914 -0.46806327
respect 0.50649613 0.1134269 -0.3755435 -0.35390133 -0.37800854 -0.31974557 0.07319946 -0.82008606 0.20370443 -0.5060026
activity 0.50005037 0.110145874 -0.27332044 -0.28117484 -0.30189538 -0.38990116 0.13057806 -0.8750933 0.30653656 -0.4661952
consistently 0.54295707 0.2516766 -0.42246097 -0.19619685 -0.34890035 -0.37358502 0.1259521 -0.79394835 0.2666309 -0.4569892
investing 0.5807919 0.093173854 -0.40992397 -0.24145219 -0.37057093 -0.3720731 0.097180344 -0.7848637 0.34668493 -0.49638245
confidence 0.46121785 -0.05433523 -0.22076856 -0.29466614 -0.44415998 -0.37733507 -0.012587015 -0.8335149 0.3333836 -0.5497128
giving 0.37781292 -0.0640544 -0.23863308 -0.39916468 -0.50741583 -0.41062298 -0.0048252414 -0.8133921 0.33585915 -0.61360836
grew 0.497809 0.24060997 -0.39470467 -0.24720101 -0.27776456 -0.40765926 0.14146668 -0.9694071 0.24594219 -0.34252092
enough 0.37359053 -0.028333731 -0.23535754 -0.23648445 -0.42579916 -0.36009878 0.10357552 -0.7964628 0.19160882 -0.62661254
five 0.32507974 -0.0617998 -0.26012075 -0.35711336 -0.43685383 -0.39790836 0.11913606 -0.88179344 0.29874468 -0.56707317
digit 0.3383282 0.0076063746 -0.2505509 -0.44351476 -0.3398147 -0.2760913 -0.018347062 -0.8845108 0.3001478 -0.49170202
challenge 0.39176804 -0.0055269115 -0.24811582 -0.3947743 -0.4278032 -0.40485093 0.0279568 -0.8324238 0.2820445 -0.45802885
deron 0.46029535 -0.21218847 -0.27354255 -0.3473284 -0.44138497 -0.46920398 0.051222805 -0.73105776 0.18953222 -0.62543625
acquisition 0.51980895 0.12742822 -0.35750493 -0.24828485 -0.40054932 -0.38306236 0.0456301 -0.75555366 0.36108303 -0.50508547
corp 0.38008022 0.08563406 -0.30426097 -0.3412275 -0.33959076 -0.21603565 0.11669108 -0.97278446 0.14592353 -0.46395734
sustainable 0.46011567 0.14100674 -0.32422006 -0.3099468 -0.4211344 -0.37513608 -0.0016701537 -0.7793517 0.24092557 -0.47875127
running 0.4397283 0.011818835 -0.32444614 -0.3020711 -0.3877666 -0.343076 0.035618167 -0.83175766 0.27740675 -0.5167736
case 0.39873323 -0.08960526 -0.3330333 -0.352318 -0.3436919 -0.39050272 0.13779847 -0.75740695 0.32040927 -0.56386095
forecast 0.36940128 -0.100699335 -0.33396587 -0.28090695 -0.45222923 -0.30354738 0.08454673 -0.86319184 0.2857748 -0.5096122
putting 0.39345202 0.115131184 -0.3416875 -0.29888254 -0.41563874 -0.40890715 0.002417376 -0.79939234 0.16295809 -0.5688046
benefits 0.40607476 0.09951509 -0.27385014 -0.33426976 -0.42037305 -0.39455006 0.115598105 -0.86774284 0.21827337 -0.55430627
betsy 0.31230587 -0.01624986 -0.31145227 -0.260799 -0.36686274 -0.3817196 0.053481515 -0.7786965 0.005770183 -0.5623491
pace 0.38385636 0.09266262 -0.19358833 -0.33661056 -0.37344548 -0.37225989 0.0783999 -0.8728244 0.3632009 -0.5328721
expected 0.40644765 -0.014371894 -0.18066914 -0.38103232 -0.3258093 -0.35176477 0.057828203 -0.88222647 0.34829333 -0.5500953
fair 0.45281944 -0.07494706 -0.29980132 -0.22952864 -0.4143524 -0.35567605 0.04939509 -0.82332 0.22722103 -0.55419093
model 0.37121668 0.019626094 -0.34139168 -0.2672982 -0.39010328 -0.2806032 0.06214652 -0.8614679 0.24004282 -0.48745015
seems 0.33085325 -0.020871092 -0.26766643 -0.40319303 -0.45074502 -0.39779237 0.10453412 -0.8269431 0.30438 -0.58311766
makes 0.47096992 0.039551254 -0.2518038 -0.31544918 -0.3719726 -0.35382646 0.06808162 -0.81519705 0.29413953 -0.5469053
preferred 0.4124303 -0.063410014 -0.34244868 -0.40559587 -0.3874448 -0.22108291 0.04016576 -0.7746608 0.3124154 -0.5738509
expensive 0.45322716 0.052172817 -0.38031146 -0.35459378 -0.43753046 -0.26732582 0.03528632 -0.8497034 0.30643287 -0.4666867
closer 0.29495567 -0.21648565 -0.37490436 -0.5720001 -0.505198 -0.2534128 0.08709019 -0.79732263 0.3455276 -0.49093714
several 0.3629672 0.12334741 -0.300709 -0.36151326 -0.40284052 -0.3720231 0.10792165 -0.8402244 0.30585286 -0.5135215
bigger 0.34291434 -0.017625911 -0.29678953 -0.3350053 -0.4124482 -0.3511989 0.055857472 -0.81167454 0.29074058 -0.5733747
shared 0.41606095 0.15604669 -0.27043846 -0.12722516 -0.3364307 -0.39189494 0.19932574 -0.8843936 0.22191238 -0.57285404
laid 0.30932727 -0.15131871 -0.308972 -0.4307908 -0.43529215 -0.32565427 -0.034178264 -0.85495496 0.30947107 -0.5244955
large 0.47055432 0.037651595 -0.3508346 -0.212723 -0.4047097 -0.39972514 0.10936567 -0.8091612 0.3300375 -0.5408403
stock 0.42687225 0.061574765 -0.2921591 -0.35651642 -0.42914444 -0.31760165 0.022767887 -0.87823325 0.28719333 -0.47146884
client 0.45658603 0.0985202 -0.37525004 -0.24751422 -0.33154243 -0.3595702 0.17424731 -0.77470416 0.3115374 -0.5145313
allow 0.44595855 0.097537816 -0.38682595 -0.32959506 -0.48458415 -0.3937057 -0.010240387 -0.76812065 0.3506679 -0.48127264
form 0.39836046 0.009839761 -0.25035802 -0.3600618 -0.460074 -0.3346486 0.0050184038 -0.84465724 0.32572874 -0.50117093
callstreet 0.35244435 0.36042202 -0.43194103 -0.42463 -0.48641545 -0.29717606 0.26152775 -0.7857682 0.23034418 -0.3704566
product 0.45198214 0.07387043 -0.40000933 -0.3415281 -0.40047103 -0.38188657 0.09383725 -0.851853 0.25627473 -0.42300922
trade 0.40084562 -0.023704823 -0.360051 -0.4046748 -0.3530192 -0.28307745 0.1186637 -0.8297656 0.3323373 -0.54214776
takes 0.4507982 0.09262014 -0.27947253 -0.32534695 -0.38548535 -0.39249358 -0.019104091 -0.81706744 0.31044045 -0.5144226
transactions 0.4398139 0.1469084 -0.2945264 -0.25135976 -0.37614587 -0.38249567 0.05408948 -0.86944515 0.35308263 -0.50485003
open 0.37863466 -0.009044173 -0.33095253 -0.34875217 -0.34020954 -0.32747144 0.12685849 -0.894409 0.28504923 -0.5207135
channel 0.58444583 0.14312944 -0.38440073 -0.26551598 -0.28906316 -0.41237614 0.18502942 -0.79423445 0.22739206 -0.5123528
small 0.5957487 0.21550007 -0.4068875 -0.24539317 -0.3107445 -0.37907508 0.1048574 -0.8995733 0.2725041 -0.38617405
pipelines 0.40581635 0.022381375 -0.11834762 -0.30746582 -0.35025933 -0.34748515 0.14434136 -0.85113734 0.31752226 -0.5698718
happens 0.367801 -0.023460176 -0.25899294 -0.29205278 -0.47037596 -0.37822008 0.017179027 -0.8287515 0.31538746 -0.5701528
effectively 0.36068124 0.04733984 -0.37370017 -0.29796925 -0.39542374 -0.41838112 0.100866325 -0.8044033 0.25311285 -0.52311045
sector 0.3873981 0.12000103 -0.30647498 -0.25687367 -0.4148925 -0.43010652 0.12526456 -0.7786116 0.32108247 -0.5297174
derisking 0.40720186 0.16035938 -0.3457565 -0.27005744 -0.3553265 -0.37656078 0.08248183 -0.905535 0.18230811 -0.49451026
balances 0.48169133 0.10357799 -0.316338 -0.24689943 -0.3861955 -0.3433823 0.04174739 -0.8519586 0.34223086 -0.4913249
fund 0.5381547 0.14244665 -0.32670182 -0.31115913 -0.31976798 -0.3147442 0.0708746 -0.8559682 0.3023692 -0.48660854
funding 0.48036364 0.16504802 -0.13175415 -0.35259685 -0.41724378 -0.27294528 0.027270922 -0.9220804 0.35543868 -0.50081664
optimize 0.48374087 0.21271826 -0.34175718 -0.3286414 -0.43533313 -0.30081314 -0.07467345 -0.8682541 0.26066738 -0.521533
national 0.4125992 0.18699747 -0.28887644 -0.16174668 -0.31052068 -0.47982514 0.17535491 -0.8605556 0.3267881 -0.54538506
hit 0.34578198 0.054589815 -0.32574636 -0.31471527 -0.4505826 -0.42378128 0.06346024 -0.88645893 0.22727767 -0.5553572
parts 0.4328346 0.13221249 -0.3514282 -0.2937914 -0.34982714 -0.40718797 0.07544937 -0.8269717 0.2887175 -0.5255229
began 0.3918976 -0.027242223 -0.22305083 -0.3767328 -0.38783973 -0.39002225 0.07470724 -0.8159615 0.33474234 -0.5812306
cuts 0.38376117 -0.09172081 -0.280276 -0.4421768 -0.41645762 -0.3352152 0.06932412 -0.8129688 0.38837808 -0.5278735
helps 0.45151857 0.06181226 -0.28023237 -0.34983385 -0.43533233 -0.3423325 -0.019292686 -0.8212816 0.31469575 -0.5431334
push 0.3601204 -0.102522604 -0.32697335 -0.43269324 -0.37800464 -0.32803875 0.06604921 -0.82406884 0.34981737 -0.57837695
asked 0.49070218 -0.022604212 -0.30574435 -0.27479365 -0.463073 -0.32305384 0.080208704 -0.78549856 0.07902466 -0.59549516
downturn 0.38222185 -0.041310593 -0.26783013 -0.36934814 -0.45522195 -0.35952935 0.078405544 -0.8239118 0.33465746 -0.5545267
whatever 0.41505545 0.040375505 -0.3984667 -0.30909923 -0.34771702 -0.34316573 0.07670011 -0.83764297 0.39442337 -0.49280655
reduced 0.4164608 0.14726259 -0.36156636 -0.36350515 -0.40246248 -0.31846595 0.1023724 -0.8333517 0.16024727 -0.49895725
protection 0.35457346 -0.11725108 -0.15117353 -0.35733002 -0.4708128 -0.37230685 0.0144341355 -0.8140363 0.37309864 -0.66063035
upon 0.44413146 0.14033064 -0.3137201 -0.3129964 -0.42924473 -0.33165488 0.029968614 -0.86695385 0.26006797 -0.4200968
life 0.39029545 0.050396927 -0.3899468 -0.3637597 -0.33265948 -0.287851 0.0112560745 -0.8848553 0.22748575 -0.4984179
limit 0.42619306 -0.0358015 -0.32341367 -0.35960323 -0.38117802 -0.29138225 0.043339096 -0.84468055 0.24997132 -0.4660841
protect 0.4155234 -0.08265747 -0.15576214 -0.38920742 -0.47997406 -0.3682024 -0.11915449 -0.7689609 0.45742637 -0.5469019
along 0.4700579 -0.010172513 -0.2549874 -0.36386558 -0.41052088 -0.3166344 0.0757601 -0.84220797 0.31918067 -0.54157674
exit 0.47990465 0.13219666 -0.4127849 -0.26110414 -0.4034872 -0.3502253 0.079731666 -0.8167434 0.2569803 -0.53312784
else 0.44811696 -0.0019448048 -0.25952888 -0.30795434 -0.40392894 -0.3586557 0.030463418 -0.7956588 0.25539654 -0.56447846
disciplined 0.47335914 0.20357253 -0.32294032 -0.37422863 -0.42557627 -0.30490348 -0.05540661 -0.93907183 0.20880018 -0.46765214
currently 0.48681188 0.03971939 -0.34664944 -0.33044457 -0.36882782 -0.2807757 0.06229057 -0.8415935 0.27823716 -0.5105812
retail 0.54880387 0.1660533 -0.3717207 -0.2272936 -0.31672063 -0.3818244 0.13147545 -0.8296836 0.32954842 -0.50098825
wholesale 0.50950354 0.23156254 -0.32519752 -0.3436322 -0.26502496 -0.30109912 0.03905703 -0.8740079 0.30883637 -0.47458515
matter 0.4173845 0.040659633 -0.3209637 -0.32032755 -0.40238562 -0.35035738 0.13474604 -0.8263714 0.25536892 -0.4801042
yet 0.448398 -0.0067878533 -0.29360825 -0.28432733 -0.35041392 -0.38545752 0.099252746 -0.88346773 0.311977 -0.4999851
similar 0.4068277 -0.04257337 -0.2898075 -0.3209603 -0.3849054 -0.36586928 0.027567254 -0.81625104 0.19580077 -0.59122753
gave 0.33713064 -0.23013502 -0.24173242 -0.48831102 -0.49750593 -0.33814654 -0.020107513 -0.75383633 0.2519307 -0.6045415
wouldnt 0.41412023 0.0061169625 -0.27224627 -0.3561579 -0.4368027 -0.39112848 0.032888357 -0.8246797 0.3005806 -0.5287675
everything 0.46244085 0.076440096 -0.308952 -0.29789975 -0.3726105 -0.36409777 0.13622607 -0.8179269 0.23277791 -0.5136279
atlanta 0.51903975 0.16651149 -0.41896722 -0.24706165 -0.29761598 -0.36384845 0.17532381 -0.7908248 0.36178234 -0.46824735
building 0.44062766 0.2106882 -0.39774904 -0.25641343 -0.33296764 -0.42717153 0.1012012 -0.8326015 0.23391393 -0.4801222
specific 0.46097663 0.019728038 -0.31963927 -0.40363914 -0.42350355 -0.3619355 0.027664548 -0.7990579 0.3222358 -0.46236858
find 0.49966863 0.07482879 -0.32787138 -0.31904888 -0.4305624 -0.3180399 -0.005563474 -0.8115802 0.26988834 -0.49331093
perspective 0.47495347 0.029744709 -0.34491158 -0.24617063 -0.39307016 -0.39289197 0.11219317 -0.84767544 0.30737594 -0.48775524
operate 0.49636248 0.050619163 -0.39390892 -0.2971128 -0.38397914 -0.38564688 0.14587183 -0.8116682 0.21585709 -0.50207
never 0.43460894 0.035672918 -0.3835988 -0.2966204 -0.4035263 -0.3700112 0.13723968 -0.82437515 0.2736935 -0.4806077
decline 0.34938133 -0.121449076 -0.16351424 -0.445126 -0.35626617 -0.3494004 0.072681025 -0.86718416 0.31451404 -0.60079265
bring 0.439533 0.043031923 -0.27293253 -0.36605206 -0.4254992 -0.36142516 0.03752263 -0.7996825 0.36219567 -0.58673024
ought 0.36888754 -0.07219091 -0.28609473 -0.3855787 -0.37645093 -0.36923036 0.121083006 -0.8572374 0.3196519 -0.55012244
changing 0.46346235 0.059714664 -0.2729015 -0.2804106 -0.46236762 -0.40068996 0.038364347 -0.80422807 0.27495152 -0.53416854
improving 0.4882897 0.22013648 -0.3713029 -0.31288034 -0.3240398 -0.39406595 0.036769375 -0.86687857 0.29358128 -0.46563834
execution 0.4473009 0.052353404 -0.37377092 -0.303632 -0.38559857 -0.40814897 0.1352354 -0.8164446 0.2724946 -0.4641574
achieve 0.4345157 0.04251322 -0.3361013 -0.32143727 -0.3988275 -0.3728016 0.082814686 -0.79765916 0.31974152 -0.4947122
math 0.4180016 -0.14002758 -0.37330985 -0.37926573 -0.4861283 -0.2837107 0.022236522 -0.791997 0.2610462 -0.5617229
used 0.47634542 -0.023027457 -0.29183227 -0.3381558 -0.42841175 -0.2739976 0.059756532 -0.8127706 0.37457722 -0.51698095
begin 0.3855199 0.0053420993 -0.25670326 -0.32064602 -0.36670065 -0.38051364 0.03846574 -0.8937806 0.34501174 -0.54344124
cut 0.38259178 -0.11843898 -0.2550495 -0.39675462 -0.4794372 -0.35123762 0.099380784 -0.84959525 0.38015085 -0.5170052
savings 0.5993333 0.2823397 -0.40347892 -0.30227748 -0.21667711 -0.45954126 0.1348247 -0.9581648 0.20681565 -0.34067973
industries 0.41806725 0.21015763 -0.43086874 -0.2798367 -0.31322578 -0.3538875 0.116113774 -0.8770903 0.3255637 -0.44638425
concentration 0.41789442 0.11381073 -0.39155665 -0.27891538 -0.40745038 -0.3078957 0.10377985 -0.8517389 0.25496298 -0.48831323
pricing 0.40729442 0.0020000115 -0.2440905 -0.36746308 -0.40817308 -0.32384214 0.08617744 -0.89562607 0.35470957 -0.5138544
increases 0.4374035 -0.040569857 -0.25058934 -0.3138679 -0.39821786 -0.3451347 0.042328466 -0.83632773 0.36536008 -0.5623895
sorry 0.3501105 -0.06282492 -0.2714349 -0.4015967 -0.47706357 -0.31347406 0.03446747 -0.7662137 0.2548125 -0.58911693
thatll 0.46231586 0.055415083 -0.28453836 -0.2754528 -0.4281881 -0.34869382 0.08841951 -0.82902175 0.3467528 -0.5283138
lowsingle 0.45439932 0.121067114 -0.29440543 -0.3377157 -0.383168 -0.32219496 -0.07100249 -0.8544329 0.24428976 -0.46216917
specialized 0.44559643 0.24848907 -0.38942376 -0.29286578 -0.3188865 -0.36895594 0.1283755 -0.9075361 0.23588523 -0.43135092
likely 0.41150975 0.014255995 -0.2499339 -0.26310277 -0.42764163 -0.36397222 0.11276883 -0.80967504 0.30358654 -0.4839052
leveraging 0.4164257 0.12927476 -0.35982618 -0.2939854 -0.34599435 -0.36024377 0.11411213 -0.8581436 0.3303184 -0.47266227
order 0.39187202 0.11903302 -0.34881648 -0.30287164 -0.3655589 -0.37764362 0.08158819 -0.83341646 0.22202474 -0.53984004
repricing 0.3101398 0.08658188 -0.12167484 -0.4490743 -0.5103767 -0.39833274 -0.12195868 -0.88161343 0.2754026 -0.60883754
processes 0.46958762 0.13214229 -0.44702917 -0.31729499 -0.34610102 -0.40995544 0.10587115 -0.81322056 0.29700387 -0.4386173
quickly 0.47133863 -0.032366715 -0.30642375 -0.34101886 -0.3496976 -0.3493912 0.098516256 -0.84873426 0.36271417 -0.52540976
excited 0.5298328 0.12161284 -0.41165787 -0.25275177 -0.40145957 -0.3385931 0.11918688 -0.82497 0.2439126 -0.5023259
doesnt 0.35390103 0.01042081 -0.3433547 -0.33788425 -0.3683916 -0.36866242 0.10937938 -0.79365313 0.30833724 -0.5679561
merger 0.3826719 0.063759215 -0.3178234 -0.2759675 -0.40586516 -0.3990663 0.0067401873 -0.8115966 0.20142554 -0.5634544
investors 0.42521444 -0.011389346 -0.35024464 -0.25443202 -0.42387035 -0.3575331 0.048890915 -0.7811362 0.20982389 -0.5197015
volatility 0.34897348 -0.032667503 -0.2887921 -0.35949942 -0.41613182 -0.35648483 0.041633073 -0.8278394 0.34802508 -0.53055173
confident 0.35769844 0.026119128 -0.32301712 -0.31942976 -0.46428344 -0.43807787 0.014721059 -0.8396444 0.1819986 -0.59738773
whole 0.47811025 0.022421189 -0.28692243 -0.23496857 -0.3814937 -0.40899107 0.08383447 -0.83550704 0.37787783 -0.54621506
bbt 0.42215198 0.0815706 -0.25942037 -0.27997676 -0.31241605 -0.38503787 0.11948581 -0.7972122 0.2874036 -0.5032659
arent 0.47103828 0.085899025 -0.2883011 -0.31916162 -0.32123643 -0.37620732 0.09120138 -0.94633657 0.32651585 -0.43621826
channels 0.5400973 0.038260143 -0.35576928 -0.29653257 -0.37430033 -0.3732197 0.15417357 -0.7844462 0.3014782 -0.490755
general 0.4210824 0.06455805 -0.28699604 -0.28989446 -0.4030103 -0.3548203 0.13199745 -0.8563697 0.23242772 -0.44962806
power 0.540304 0.09660535 -0.40311733 -0.32441694 -0.3266488 -0.28391078 0.12914208 -0.805367 0.3273968 -0.4625283
expansion 0.34213078 -0.045039766 -0.21971773 -0.3764005 -0.42161325 -0.33705962 0.096695736 -0.8714979 0.35883683 -0.5488004
four 0.4155427 -0.09465403 -0.2771566 -0.41258284 -0.4903824 -0.30188257 0.16547447 -0.8792165 0.28613994 -0.47347233
middle 0.39055973 -0.12043729 -0.27000412 -0.3511517 -0.4313415 -0.29845187 0.0709003 -0.8838582 0.31165043 -0.5906065
appropriately 0.42003438 0.049742818 -0.39051363 -0.31033608 -0.42124933 -0.2928268 0.016821885 -0.89680296 0.25685534 -0.4653714
away 0.4273109 -0.04751388 -0.2125021 -0.34286058 -0.39173365 -0.32805607 0.03248569 -0.81478995 0.34281301 -0.5420117
shift 0.4706962 0.13942339 -0.36232403 -0.25296128 -0.30743036 -0.41311657 0.08742658 -0.8730386 0.29996946 -0.44996378
slow 0.3622752 -0.03995167 -0.18658336 -0.3581516 -0.37999645 -0.3706331 0.0828235 -0.851745 0.3429929 -0.56709987
reinvestment 0.3132997 -0.059652038 -0.1960939 -0.43470958 -0.4537501 -0.35815203 0.013168646 -0.8541423 0.34902012 -0.5777431
drive 0.48174286 0.08226375 -0.37594026 -0.23906131 -0.42820337 -0.3575668 0.10699396 -0.80069625 0.27050522 -0.4967523
drivers 0.43762365 0.042987514 -0.31634277 -0.29078728 -0.37715307 -0.38656756 0.02758143 -0.8257807 0.21209611 -0.5496099
thoughts 0.3946693 -0.0459339 -0.26589984 -0.37072244 -0.48832697 -0.3908419 0.101643555 -0.79708815 0.3212367 -0.55888355
buy 0.47239104 0.07645721 -0.24449913 -0.33866778 -0.39365506 -0.32222086 0.06815648 -0.88689834 0.24756749 -0.49612248
almost 0.44493392 0.055509716 -0.27687883 -0.3677781 -0.3612297 -0.43807092 0.059761215 -0.86733055 0.30898252 -0.45856103
leveraged 0.48693517 0.016105317 -0.34704593 -0.3030665 -0.33921513 -0.38571373 0.057549067 -0.85362387 0.21524554 -0.54533637
days 0.41316932 -0.03652176 -0.327441 -0.33754623 -0.4154164 -0.34860766 0.14978887 -0.8423078 0.37690884 -0.48452035
curious 0.39322987 -0.14336509 -0.24184287 -0.33411345 -0.4493037 -0.42869014 0.08912689 -0.7919012 0.21924351 -0.6026633
floors 0.33828685 -0.12207642 -0.19962573 -0.35004827 -0.5404578 -0.4259031 -0.036495425 -0.757313 0.44368902 -0.613683
goal 0.41500914 0.05337062 -0.30464154 -0.31626174 -0.4530867 -0.3358933 0.009964206 -0.81274235 0.32770625 -0.5192588
ci 0.4639486 0.09095329 -0.3413027 -0.25888225 -0.38427186 -0.34062606 0.08992531 -0.9197945 0.24709176 -0.45165217
optimistic 0.4474894 0.026574718 -0.28678837 -0.27631897 -0.42433655 -0.40125066 0.058835622 -0.803954 0.2623517 -0.53992563
cautious 0.4689578 -0.037818406 -0.29898924 -0.30102977 -0.35716912 -0.38911283 0.11132113 -0.7917883 0.26533034 -0.59838086
modest 0.39833546 0.08999557 -0.28719348 -0.30554646 -0.41835126 -0.31995162 0.058571234 -0.85515904 0.35592946 -0.5538015
plans 0.41614586 0.089159854 -0.2963917 -0.30849448 -0.39268622 -0.38741475 0.11724396 -0.78376484 0.31560355 -0.5159802
tailwind 0.33429 -0.05402878 -0.17631006 -0.46631947 -0.449953 -0.40125906 -0.09595729 -0.7824009 0.31991032 -0.62514526
everybody 0.3636559 -0.05874831 -0.30119133 -0.31885126 -0.36490726 -0.37165436 0.02707605 -0.8243006 0.15780057 -0.6220806
strategic 0.45624512 0.033741504 -0.26435468 -0.26843488 -0.3514636 -0.3738975 0.059036218 -0.86235523 0.28309458 -0.47982478
perform 0.45495534 0.15625036 -0.32945538 -0.28191435 -0.3523085 -0.35954934 0.038162254 -0.86009365 0.35150307 -0.4541656
peer 0.4042916 -0.062483832 -0.39292774 -0.35606855 -0.37504214 -0.2545699 0.13018046 -0.8050218 0.30883914 -0.5442121
slightly 0.38098466 -0.103529684 -0.2996542 -0.327526 -0.46599254 -0.38545576 0.0418367 -0.8076298 0.21720374 -0.6149955
ive 0.45181945 -0.02881356 -0.33171782 -0.2976886 -0.38608605 -0.33453476 0.1595084 -0.8554866 0.2649636 -0.54410094
control 0.47956908 0.07737098 -0.3985615 -0.25725937 -0.3863557 -0.3781475 0.06693314 -0.81795967 0.32412893 -0.5388132
riskadjusted 0.45101744 0.061645 -0.3527823 -0.31404543 -0.4164815 -0.34918344 0.089260615 -0.80404335 0.2516254 -0.51623404
casual 0.43311656 0.076490976 -0.35944042 -0.2607452 -0.35348812 -0.36752936 0.09470114 -0.7660667 0.24753875 -0.5340402
noninterest 0.46297482 0.16721845 -0.3211684 -0.3963704 -0.44578454 -0.42590058 -0.10021883 -0.8445179 0.23827007 -0.45512262
reduction 0.37556103 -0.0670788 -0.30564767 -0.39447525 -0.4306826 -0.3299726 0.13095501 -0.8457464 0.37868994 -0.60550195
built 0.51464075 0.106651925 -0.3809921 -0.28061613 -0.36107302 -0.32472092 0.046046704 -0.8722212 0.19653578 -0.5193328
february 0.2525745 -0.12533489 -0.31015804 -0.25059307 -0.4783911 -0.3968995 0.11046808 -0.8827454 0.21517783 -0.55845755
towards 0.39903516 -0.039719753 -0.30469164 -0.33180737 -0.37538585 -0.30721745 0.09569295 -0.8580581 0.28579015 -0.5894929
organic 0.4856822 0.17177677 -0.21096703 -0.33982328 -0.41083166 -0.28181395 -0.0038155753 -0.915372 0.21214373 -0.48463395
longterm 0.3978464 -0.051743012 -0.28690505 -0.410726 -0.433031 -0.35059363 0.09656837 -0.8302191 0.31429243 -0.5304986
rest 0.4155466 0.02966636 -0.27652827 -0.3539976 -0.44023985 -0.33166212 0.039197948 -0.8085843 0.25349283 -0.5103208
cumulative 0.44725174 -0.05843776 -0.2759805 -0.33272973 -0.36817032 -0.3560478 0.1020171 -0.78588915 0.28950214 -0.54536414
activities 0.43848965 0.078477085 -0.30934182 -0.25817704 -0.4007409 -0.31545874 0.107619785 -0.9022245 0.18543255 -0.49333593
encouraged 0.4212361 0.03768877 -0.3464865 -0.31798604 -0.4163735 -0.38238668 0.09103213 -0.81514025 0.263574 -0.48830175
performing 0.4433943 0.16278861 -0.3224381 -0.28522885 -0.34913203 -0.36427295 0.009976666 -0.8258364 0.30643803 -0.46225515
anticipate 0.4524393 0.0656209 -0.31105044 -0.3607462 -0.39855868 -0.30518523 0.11186338 -0.8263499 0.28016922 -0.5177686
platforms 0.53900343 0.13491233 -0.42168114 -0.2145143 -0.33169243 -0.4128411 0.08698478 -0.85235286 0.2679751 -0.4821019
maintain 0.5198103 0.15582612 -0.3194147 -0.27197933 -0.41374227 -0.4106053 0.06020164 -0.85496265 0.34017068 -0.4769329
jd 0.52695525 0.09123307 -0.40819496 -0.2429903 -0.33327922 -0.29807994 0.11800263 -0.7978285 0.31346023 -0.5070605
price 0.3919592 0.0496803 -0.3651419 -0.26043496 -0.33590555 -0.38392082 0.021879971 -0.86856323 0.19496356 -0.5355303
consider 0.4449359 -0.029074367 -0.26906896 -0.33498248 -0.3969058 -0.29706708 0.10545868 -0.8458139 0.31619966 -0.47912288
modestly 0.40847638 0.09983249 -0.23356983 -0.34984323 -0.41277128 -0.45633247 -0.06036158 -0.93783927 0.30759937 -0.4521254
cet 0.41369388 -0.09004264 -0.2897863 -0.3438111 -0.4310628 -0.31966174 0.09467337 -0.7943759 0.27161512 -0.57315606
optimization 0.47959945 0.17945866 -0.26587352 -0.33971283 -0.44034168 -0.3248108 -0.051558472 -0.85188 0.21280463 -0.5283775
spending 0.5133775 0.08029905 -0.4194046 -0.28013393 -0.37922525 -0.3898967 0.075999856 -0.8127347 0.27772984 -0.49231684
watson 0.46454257 0.07048645 -0.2714123 -0.23890895 -0.3750276 -0.36612776 0.07021771 -0.80619055 0.1687247 -0.5996258
quicker 0.40219724 0.016458534 -0.2628899 -0.325109 -0.36969018 -0.37583193 0.12303119 -0.78230447 0.34490013 -0.52879477
carry 0.40472168 -0.03417909 -0.25256333 -0.35876822 -0.42740777 -0.41849324 0.012335341 -0.8979495 0.33475307 -0.51639557
classified 0.35113853 0.015992844 -0.16711657 -0.35382903 -0.43730167 -0.34836906 0.0513899 -0.8733188 0.28594992 -0.55372286
moved 0.3711229 -0.07785258 -0.34201708 -0.41662827 -0.43241772 -0.37126252 0.0894709 -0.8042315 0.27815172 -0.50752515
view 0.44304976 0.008009043 -0.28767845 -0.32139644 -0.37706977 -0.42009276 0.082264 -0.82144487 0.32112882 -0.5383873
left 0.47168177 0.29360288 -0.24359505 -0.45883188 -0.3997591 -0.45257285 -0.07046593 -0.9490398 0.10916681 -0.50353414
premium 0.39846987 -0.030556293 -0.21812426 -0.35812712 -0.38837165 -0.4056917 0.105595246 -0.8349185 0.39898106 -0.62187964
derivatives 0.38014925 0.029006705 -0.22201094 -0.34688523 -0.4466727 -0.35600838 0.015288512 -0.7758486 0.40107533 -0.61478794
rising 0.31755492 -0.04741286 -0.26981157 -0.29615256 -0.44456452 -0.45270282 0.059436265 -0.7662624 0.48679295 -0.6219729
competition 0.5333788 0.037787467 -0.44058397 -0.30811352 -0.3784109 -0.34595433 0.13537917 -0.80459577 0.20846395 -0.48450643
office 0.50617886 0.14789324 -0.35373348 -0.27100807 -0.34656343 -0.30882055 0.09445259 -0.8076211 0.25656742 -0.47518563
actively 0.47311223 0.11998304 -0.41325533 -0.21354032 -0.33279112 -0.35391647 0.14374483 -0.8821886 0.23440991 -0.49834102
driven 0.4662632 0.07056382 -0.27934572 -0.3091744 -0.36433735 -0.4088945 0.038362093 -0.85597384 0.25536835 -0.47787437
greensky 0.45048073 0.079950556 -0.31670356 -0.2839693 -0.3427593 -0.36063665 0.035525452 -0.8055546 0.17417505 -0.5050017
issue 0.45584062 -0.01543413 -0.3278206 -0.31547913 -0.3770539 -0.36966196 0.102837406 -0.84513116 0.31778562 -0.5152923
six 0.421625 0.056160785 -0.2134642 -0.33522743 -0.3474542 -0.40494177 0.09616395 -0.8604627 0.32718533 -0.54471993
primary 0.50413257 0.07128824 -0.33936244 -0.2982568 -0.30389315 -0.33800393 0.13903768 -0.8725338 0.22553445 -0.4722564
shape 0.3884873 -0.010971484 -0.26867205 -0.2787653 -0.33353814 -0.38946894 0.08352174 -0.8071656 0.18233487 -0.6226929
keeping 0.43798772 0.10493106 -0.38878843 -0.29186273 -0.38419706 -0.40992567 0.07316954 -0.8207705 0.24021818 -0.4701147
stress 0.33617342 -0.0030222174 -0.34594607 -0.30347288 -0.40708518 -0.2841925 0.08868351 -0.8453735 0.2687574 -0.48635283
underwriting 0.4471439 0.05219417 -0.31551874 -0.26667747 -0.39902106 -0.40219465 0.12928243 -0.85899425 0.22022554 -0.50152767
artificial 0.52484584 0.088667154 -0.39457327 -0.24013563 -0.40617642 -0.34502938 0.07752216 -0.75420564 0.225475 -0.48898894
intelligence 0.42289343 0.01909656 -0.30202532 -0.29318973 -0.41106197 -0.39610654 0.12027887 -0.81448114 0.21959965 -0.50845534
nir 0.46712333 0.122758955 -0.30627245 -0.37426606 -0.35873547 -0.43099064 -0.040400516 -0.83400697 0.29193345 -0.50535244
grayson 0.3737591 -0.021490302 -0.2794298 -0.244954 -0.32468665 -0.37559688 0.1145001 -0.7382485 0.025639461 -0.6058708
ryan 0.37439623 -0.028671177 -0.2797164 -0.28749576 -0.39910674 -0.28876865 0.024992917 -0.7482753 0.09635482 -0.58903897
theyve 0.5189724 0.05968967 -0.34511158 -0.32373038 -0.39237174 -0.34497848 0.10677073 -0.79800946 0.20914981 -0.5541767
efforts 0.35007307 0.17646906 -0.21984231 -0.35229203 -0.45405465 -0.4416551 -0.071032666 -0.8862109 0.2764083 -0.4657478
owen 0.4011857 0.039827336 -0.39708224 -0.22841635 -0.45150843 -0.4431148 0.061128467 -0.7696442 -0.020232562 -0.6269221
fees 0.48222864 0.087591015 -0.2794663 -0.27765334 -0.32781866 -0.40532663 0.10255756 -0.8535047 0.31258807 -0.4295376
categories 0.47844228 0.11846133 -0.3668603 -0.25060174 -0.309778 -0.3136885 0.17368145 -0.90482503 0.20963877 -0.5216866
approach 0.4538263 0.040427882 -0.31795883 -0.2947252 -0.37488583 -0.38442957 0.13439551 -0.81207013 0.33094144 -0.49051824
crisis 0.4359284 0.1169346 -0.31267124 -0.31976524 -0.41154346 -0.3558092 0.059060298 -0.88308394 0.25900245 -0.5158486
offer 0.4037367 0.114720605 -0.341556 -0.26609114 -0.35261634 -0.36012328 0.13020761 -0.8944091 0.255006 -0.45226967
quartile 0.47803605 0.09785246 -0.38895187 -0.32561228 -0.28362054 -0.31413653 0.19284296 -0.7989041 0.356256 -0.52013695
analytics 0.43978247 0.06842336 -0.40052786 -0.24202687 -0.38946056 -0.41509524 0.15174837 -0.86909235 0.24523367 -0.59083873
planning 0.44225207 -0.008077873 -0.34123766 -0.34326357 -0.397 -0.36748105 0.08574205 -0.7537075 0.29768458 -0.5942113
repurchases 0.4503501 0.033307027 -0.31449452 -0.34567526 -0.39275947 -0.3514222 0.1039838 -0.776482 0.2890548 -0.5010102
component 0.45578313 0.074826546 -0.33814934 -0.30016202 -0.4035717 -0.33560202 0.0010267809 -0.7895096 0.27342048 -0.5354209
lcr 0.3774209 0.017462676 -0.29398695 -0.32261992 -0.4177317 -0.37792456 0.0346534 -0.80106354 0.24777521 -0.5398248
meaningful 0.46361044 0.05567641 -0.3508701 -0.2631061 -0.40218517 -0.36597547 0.070321694 -0.8519618 0.24549823 -0.4499093
standard 0.4462348 0.038822092 -0.26891994 -0.2999367 -0.44328976 -0.30567744 0.09888354 -0.8003293 0.2541094 -0.5177358
went 0.4117318 0.04481086 -0.28625292 -0.3402482 -0.3561276 -0.36793655 0.052644245 -0.84683293 0.2606864 -0.50456065
anticipated 0.35139093 -0.06711898 -0.28432426 -0.39947268 -0.42304754 -0.31788498 0.035331212 -0.7858393 0.38226047 -0.55377024
ahead 0.3797133 0.014613518 -0.32566786 -0.3883286 -0.45424172 -0.3628618 0.026356403 -0.81945187 0.24557367 -0.551907
single 0.39858335 -0.019325756 -0.2165831 -0.39819372 -0.36717072 -0.32366717 -0.016428687 -0.8360096 0.39120787 -0.5227803
completed 0.3696601 0.014670534 -0.24536467 -0.33776712 -0.39013302 -0.35821208 0.069033265 -0.8803261 0.32380912 -0.5650316
youd 0.4013217 0.08521912 -0.27191722 -0.30259016 -0.4152753 -0.30707714 0.10524287 -0.8752334 0.2628416 -0.5181847
comfortable 0.47369903 -0.028028065 -0.32621992 -0.42103568 -0.474732 -0.27668923 0.1136545 -0.8487381 0.20879799 -0.4916003
success 0.44488743 0.054823186 -0.31932044 -0.267997 -0.33472735 -0.38146693 0.11723647 -0.8256028 0.17485867 -0.4973783
books 0.4303737 0.0628305 -0.34024015 -0.29358694 -0.37635192 -0.38535923 -0.025400814 -0.8889395 0.24651943 -0.48284808
paid 0.4897628 0.0855891 -0.384937 -0.34322095 -0.38905042 -0.29805186 0.051793355 -0.8607974 0.28455308 -0.5299008
deals 0.44289348 -0.008033428 -0.31796682 -0.2701202 -0.35475022 -0.36398643 0.07834715 -0.7931125 0.2706953 -0.58484775
tangible 0.42881706 -0.07304419 -0.4115877 -0.48690134 -0.46113843 -0.22268234 0.053785425 -0.8316574 0.29632878 -0.5307974
chargeoff 0.35562104 -0.06896681 -0.2775935 -0.35168815 -0.4562645 -0.3017131 0.082359985 -0.8190693 0.2834843 -0.5592336
taken 0.51146424 0.10215351 -0.39377248 -0.28223214 -0.31047374 -0.3291711 0.07310546 -0.81635654 0.27468544 -0.4950195
december 0.38885543 -0.003311369 -0.2928772 -0.31915072 -0.4441253 -0.33024782 0.099492215 -0.8064783 0.3886955 -0.5887384
calls 0.43779865 0.08857908 -0.32094842 -0.23159334 -0.330939 -0.37305963 0.09388129 -0.8047034 0.27927938 -0.5138267
effective 0.45363134 0.115750805 -0.38974932 -0.35410506 -0.39222863 -0.38404855 0.00022189367 -0.7799144 0.24419668 -0.48704886
nominal 0.37739897 0.32325417 -0.13287312 -0.5608103 -0.5163638 -0.5316573 -0.39656842 -0.929033 0.14744613 -0.46299422
hold 0.40927106 0.0053216573 -0.29059616 -0.41057068 -0.4586506 -0.33923635 0.0053797904 -0.79632306 0.36426505 -0.54847074
healthcare 0.40831128 0.12297946 -0.44598168 -0.2757191 -0.32469875 -0.34570238 0.15526532 -0.80299366 0.27665943 -0.52533394
concerned 0.4304717 -0.00892711 -0.32016218 -0.3323145 -0.37012655 -0.40571848 0.06335749 -0.8548939 0.2470444 -0.531733
asking 0.48988563 0.059300724 -0.28141055 -0.32257822 -0.42958394 -0.31798482 0.092968516 -0.81376785 0.220874 -0.5334577
unsecured 0.49818376 0.15744664 -0.39300582 -0.21038532 -0.29729074 -0.3869892 0.12865607 -0.8824754 0.2499004 -0.54575324
restaurant 0.38318282 0.15382004 -0.39795798 -0.27306685 -0.38576543 -0.33050248 0.07618911 -0.7578966 0.29842222 -0.5524384
selectivity 0.40780815 0.15200989 -0.39807674 -0.19079436 -0.3568724 -0.3302407 0.17120689 -0.81535536 0.24016474 -0.5540143
willing 0.49471718 0.05070449 -0.35681114 -0.31392992 -0.4041133 -0.31917518 0.11187988 -0.80695385 0.2479379 -0.5481073
means 0.35450011 0.059553064 -0.27493083 -0.3021641 -0.41508615 -0.3828179 0.02098442 -0.8378147 0.2572387 -0.53561723
associates 0.509946 0.19797333 -0.42920485 -0.23857689 -0.41645348 -0.36925605 0.16397366 -0.7332155 0.30892533 -0.39830208
targeted 0.48801666 0.10493846 -0.32678586 -0.32395673 -0.4007378 -0.27281746 0.116536096 -0.7947549 0.22574042 -0.4470523
longer 0.3971294 0.0026872135 -0.28845236 -0.36449155 -0.42849433 -0.3342576 -0.007893298 -0.77799356 0.30355138 -0.5838234
lines 0.48042437 0.099678546 -0.28439924 -0.3343331 -0.32763702 -0.38749665 0.093572505 -0.8812472 0.21979581 -0.4631797
accelerate 0.4864106 0.11830639 -0.25690553 -0.27805072 -0.39976016 -0.3840143 0.014628211 -0.8101803 0.3139974 -0.45786127
spent 0.44400638 -0.012977752 -0.3851634 -0.27098665 -0.35181338 -0.3855455 0.05980083 -0.79070157 0.26277247 -0.518599
expand 0.43059334 -0.0064498507 -0.3090741 -0.2944785 -0.42260858 -0.35766083 0.06089358 -0.7960611 0.36906773 -0.56122917
difficult 0.43881485 -0.004668697 -0.2881713 -0.28898767 -0.42686364 -0.38816968 0.051498465 -0.82593757 0.2893733 -0.50013566
funds 0.45717883 -0.03183203 -0.26866612 -0.31510356 -0.4880422 -0.3939966 0.12436384 -0.8084882 0.34231383 -0.49030212
timing 0.4191787 0.017978448 -0.30033824 -0.3265978 -0.36570367 -0.4000921 0.095906354 -0.83649766 0.27391744 -0.5043396
happened 0.3201598 0.04991023 -0.20171475 -0.3758074 -0.37761652 -0.30169106 0.029525166 -0.87761784 0.2916362 -0.59269184
becomes 0.43025845 -0.048220918 -0.3419326 -0.35244882 -0.47082058 -0.3630713 0.029068194 -0.909594 0.25548968 -0.5091957
clear 0.4243446 0.012817606 -0.33274537 -0.31094176 -0.4007543 -0.30208042 0.015235825 -0.791548 0.21910459 -0.54235864
impacted 0.35884857 -0.04963983 -0.24472195 -0.40562737 -0.42094108 -0.36438826 0.033806987 -0.86448354 0.28657967 -0.51174533
houston 0.42989635 0.14473741 -0.38661906 -0.24841689 -0.3389683 -0.35448062 0.08696324 -0.8616516 0.27344057 -0.43281633
atm 0.49645486 0.08910791 -0.31567916 -0.3209335 -0.36694077 -0.373092 0.07670259 -0.78570354 0.31107846 -0.42090416
fill 0.48089945 0.104267836 -0.35200822 -0.24501057 -0.3494027 -0.32079518 0.11546065 -0.8193819 0.2973353 -0.506623
turner 0.4013773 0.009179855 -0.3104572 -0.3128071 -0.36794704 -0.31326926 0.11558999 -0.7823716 0.09243906 -0.59592
room 0.3809022 -0.051797308 -0.29929525 -0.38655937 -0.5021592 -0.34686548 0.07084035 -0.80914414 0.3019103 -0.5675247
strength 0.4699903 0.13350369 -0.36556482 -0.2774711 -0.35683966 -0.3377014 0.0974606 -0.83085555 0.30523485 -0.49102193
improvements 0.4219874 0.09115253 -0.26286343 -0.3525304 -0.40717766 -0.4144297 -0.016880728 -0.8346198 0.31416264 -0.48984846
happening 0.43094 0.018804116 -0.2336786 -0.3293095 -0.41646641 -0.32197157 0.10222775 -0.85906136 0.23020443 -0.51690084
regulatory 0.45053002 -0.06711478 -0.3173429 -0.35741758 -0.4182712 -0.28504315 0.10112358 -0.79861045 0.26575068 -0.5339224
itll 0.4082642 0.018930642 -0.22778189 -0.30830225 -0.33861 -0.34845164 0.078722864 -0.7962127 0.3091377 -0.5892744
pickup 0.37480894 -0.10949319 -0.24200656 -0.39142275 -0.4037196 -0.32119572 0.060706884 -0.87484056 0.25874445 -0.6000835
rolling 0.36702916 0.048723653 -0.18390293 -0.4015083 -0.4289418 -0.3360185 -0.05478481 -0.9019612 0.35446137 -0.5271904
related 0.35936484 0.017904079 -0.3731895 -0.2981041 -0.3810193 -0.34162447 0.13303421 -0.8505344 0.2937175 -0.50548303
execute 0.47520027 -0.005296933 -0.3184498 -0.2762733 -0.4180692 -0.39518213 0.06950953 -0.77858365 0.24814148 -0.5318585
rather 0.43159062 -0.023953285 -0.29986623 -0.34762967 -0.3696166 -0.3880654 0.089665696 -0.8705285 0.27680883 -0.5242881
necessarily 0.39265022 0.028271057 -0.26073283 -0.29013908 -0.32677424 -0.38926914 0.065627374 -0.84577715 0.32940686 -0.515358
serve 0.56330335 0.20342736 -0.38525245 -0.2799018 -0.40823668 -0.34164426 0.057805702 -0.8225102 0.3375965 -0.5477508
seek 0.40529615 0.14196442 -0.36647177 -0.35916418 -0.42917863 -0.31843308 0.05536089 -0.84277385 0.30817655 -0.40805164
digits 0.35398078 -0.042489737 -0.20696661 -0.35529494 -0.37667742 -0.3597362 0.0044217994 -0.8511591 0.32715625 -0.5339169
mathematically 0.36828932 -0.059774023 -0.33649206 -0.36242363 -0.49122941 -0.33098203 0.08703668 -0.78534436 0.33844706 -0.48208365
buybacks 0.48460633 0.014102427 -0.28467378 -0.37313855 -0.44586664 -0.27437547 0.028876776 -0.81550175 0.34071374 -0.5714916
nothing 0.37088922 -0.05897488 -0.273406 -0.29412094 -0.42578152 -0.42454025 0.13101669 -0.8365538 0.31265393 -0.60734975
headwind 0.40671062 0.06224933 -0.28751686 -0.30586937 -0.33632985 -0.36683005 -0.027198037 -0.8636491 0.3314773 -0.5122777
without 0.36572084 -0.06860273 -0.30444813 -0.36288077 -0.5041825 -0.2866891 0.073855154 -0.8054994 0.36276516 -0.49916777
interestbearing 0.5281322 0.117828615 -0.3137526 -0.30864543 -0.3634504 -0.2908061 0.043837775 -0.8361084 0.29596442 -0.4921882
lots 0.43930298 0.08121899 -0.33847094 -0.30621102 -0.37518647 -0.40974003 0.12955888 -0.8520462 0.18568994 -0.469936
talent 0.51957744 0.19659537 -0.41310257 -0.30397698 -0.405379 -0.3783106 0.08487421 -0.8012604 0.2644484 -0.4592739
construction 0.45528853 0.098367915 -0.38192514 -0.30486104 -0.3612441 -0.34864166 0.10599598 -0.8835439 0.1830732 -0.47108582
rights 0.4692625 0.11011739 -0.4425069 -0.3166293 -0.3202501 -0.42194054 0.09990515 -0.8216922 0.3148272 -0.46859354
economics 0.44986984 0.12512143 -0.37132186 -0.32204816 -0.33170474 -0.38660532 0.10777438 -0.8700321 0.21899383 -0.49414828
audience 0.4017045 -0.012462012 -0.23583467 -0.33335465 -0.41401967 -0.4033545 0.07064087 -0.80766225 0.1893152 -0.6193051
follow 0.43141225 0.020628318 -0.27778658 -0.3664095 -0.40028542 -0.32864925 0.028270768 -0.78524536 0.21305193 -0.54055816
associated 0.5256537 0.13612536 -0.37404835 -0.2552916 -0.31017154 -0.34063035 0.060952943 -0.857626 0.2721652 -0.45143595
adding 0.5506289 0.058595043 -0.43474597 -0.2485971 -0.41069466 -0.3409282 0.0855097 -0.81619585 0.2624686 -0.46395063
ratios 0.38522637 0.03922145 -0.34680417 -0.39456514 -0.39779997 -0.36970356 0.08620613 -0.8082217 0.28397328 -0.53810495
context 0.4357894 0.10110719 -0.31136093 -0.29246032 -0.36632067 -0.36432925 0.046415728 -0.8313547 0.33161256 -0.4746462
generating 0.50359935 0.06721821 -0.30988815 -0.35036355 -0.4106016 -0.4888225 0.016542047 -0.8533337 0.22976333 -0.51235735
performance 0.4123413 0.098996386 -0.27479097 -0.2760782 -0.4032634 -0.3850757 0.07691531 -0.8013922 0.29256558 -0.5491002
january 0.3732725 -0.049966674 -0.25435182 -0.33678633 -0.42241225 -0.34911266 0.06209563 -0.8200713 0.24900164 -0.52555346
