1441 15
think 0.46300298 -0.17509516 -0.35367626 0.48697698 0.5927784 0.11342363 -0.10126544 0.20495713 0.15618406 -0.3032815 -0.014015611 0.35658047 0.4182722 0.5701987 0.04209267
us 0.35714942 -0.23056023 -0.3110914 0.44397306 0.5531793 0.0051243827 -0.24870764 0.1592999 0.11097933 -0.35487145 0.093676016 0.2123127 0.5869344 0.68425304 0.047048964
good 0.434199 0.12126386 -0.0611828 1.0561525 0.20362853 0.14439102 0.22916353 -0.097052194 -0.6068884 -0.6740164 -0.27337787 1.0759562 -0.12966774 0.7098425 -0.4017627
going 0.46438995 -0.17104979 -0.36831537 0.5094402 0.60615396 0.0922124 -0.10691291 0.32713604 0.3239162 -0.20762537 -0.023108289 0.14600436 0.32036275 0.6902119 0.24519199
weve 0.51795584 -0.19155993 -0.31488645 0.3665623 0.31732064 -0.018160854 -0.079168834 0.037674677 0.059072144 -0.5567525 -0.007429001 0.32572338 0.57153827 0.6694515 0.07066217
growth 1.1826247 0.10236859 0.12707624 0.81173205 0.76978177 -0.05500024 -0.10632298 -0.083385915 0.35503706 -0.25560716 -0.13624516 -0.07792099 0.12400971 0.47512415 -0.23034588
well 0.4834804 -0.12686066 -0.3433605 0.45184863 0.59537584 -0.03112018 -0.14663085 0.1474396 0.2017687 -0.23493299 0.045362424 0.3574712 0.46519566 0.59132713 0.12457877
year 0.8572297 -0.1250818 -0.14730735 0.70805997 0.51172006 0.06324668 -0.17607062 0.3415181 0.55614644 -0.40171334 -0.3343979 -0.0677363 0.13233407 0.49237174 0.30059823
thats 0.4782372 -0.24116872 -0.3216968 0.42375925 0.56729114 0.071097106 -0.20194882 0.15509817 0.26067603 -0.41107246 -0.0706194 0.20616312 0.43084112 0.575349 0.059208803
would 0.48697555 -0.25986162 -0.27672642 0.5591033 0.5033207 0.069679305 -0.20007618 0.26133743 0.31013542 -0.406527 -0.019413216 0.2985669 0.29077205 0.5393278 0.27561155
really 0.45948455 -0.12768443 -0.4230657 0.42219418 0.48055598 -0.116163895 -0.08681042 -0.016806452 0.036240138 -0.25686783 0.034899775 0.55852234 0.37303406 0.70134264 -0.023912672
see 0.6083944 -0.19502378 -0.2579745 0.4663463 0.6922218 0.03376823 -0.28539297 0.13104829 0.28443617 -0.28592435 -0.09719661 0.21694668 0.3051343 0.54484046 0.008259412
get 0.4585137 -0.21103589 -0.2581946 0.41462278 0.6377535 0.053420093 -0.28531003 0.27098435 0.28438324 -0.36688298 -0.07161764 0.21649936 0.48583266 0.5451888 0.24285808
business 0.48066744 -0.21069711 -0.5953745 0.36460963 0.60180277 -0.27252734 -0.0072868895 -0.07703117 0.09440796 -0.15053727 0.36995602 0.44705373 0.49964327 0.7024688 -0.14515966
yeah 0.5043305 0.07201017 -0.22608413 0.6503985 0.24448584 0.15400283 -0.08365157 0.17729728 -0.0035454868 -0.41713324 -0.15241857 0.6204247 0.26192662 0.5741235 0.11369275
time 0.4464727 -0.201109 -0.34932038 0.4577727 0.5804871 0.11198529 -0.14518484 0.32578626 0.28140998 -0.30632833 -0.14077203 0.2672269 0.49872983 0.5359806 0.08396728
capital 0.2871017 -0.2060671 -0.34933385 0.3670816 0.59067315 0.015533592 -0.08319465 0.29797757 0.07566143 -0.3599208 0.081471786 0.67310315 0.76646847 0.40978625 0.022089975
quarter 0.8092236 0.003291381 0.088902466 0.87390965 0.74499995 -0.1364647 0.026476165 0.26632714 0.6566934 -0.5780895 -0.33114293 0.17219886 -0.17075238 0.40408993 0.23265922
continue 0.57705784 -0.28753114 -0.43595502 0.25444654 0.6560014 -0.20444071 -0.070479244 0.11915032 0.16152678 -0.2172592 0.30785346 0.27103487 0.4735021 0.74411196 -0.04652614
little 0.81392694 -0.17336291 0.16568941 0.9817811 0.87012273 0.21605131 -0.40182683 0.53150433 0.34059495 -0.40717483 -0.30737948 0.07573034 -0.1242342 0.29479063 -0.20778964
one 0.51639557 -0.1569376 -0.38505322 0.3946395 0.3333868 0.05598079 -0.20125276 0.22179484 0.090471305 -0.27616313 -0.1883088 0.70736146 0.2680559 0.6149063 0.13489352
grow 0.7967575 -0.07314619 -0.42275313 0.47179678 0.7308499 -0.3277409 0.009381063 -0.1447049 0.04677734 -0.17974366 0.36176333 0.025028285 0.4575436 0.72918725 -0.17482336
loan 0.7662333 -0.07513217 -0.15174831 0.73290396 0.7998779 -0.08826945 -0.21009633 0.11904214 0.33172974 -0.100962885 -0.19851974 0.044013567 0.15418838 0.505409 -0.0056399195
right 0.40440077 -0.08229416 -0.327019 0.48533475 0.42540863 0.14333142 -0.19544366 0.20499012 0.00884996 -0.3482599 -0.03278464 0.45736444 0.5180343 0.58799773 0.11290881
bit 0.755535 0.034714986 0.065856054 0.9334299 0.8171756 0.28968322 -0.4748618 0.49489322 0.5091447 -0.48182407 -0.41061255 0.268448 -0.04972777 0.16795702 -0.12492014
dont 0.38213247 -0.16367431 -0.43204376 0.40073404 0.6422417 0.1146734 -0.20149982 0.21248358 0.16749707 -0.22898722 0.13328013 0.33930084 0.4350548 0.6558585 0.049129203
look 0.4822102 -0.26949313 -0.37401626 0.39268112 0.52134234 0.037745215 -0.10791689 0.06436678 0.15988918 -0.3847361 0.04119563 0.40925887 0.269527 0.69284046 0.052908443
youre 0.4247174 -0.07104751 -0.2540698 0.7067882 0.3059386 0.24776281 -0.27329072 0.34003612 0.11579836 -0.29764065 -0.1888054 0.504554 0.32520926 0.57976925 0.15892723
lot 0.5385283 -0.065537505 -0.38282028 0.5148745 0.41227812 0.09735915 -0.044492405 0.19683611 -0.0042223423 -0.20204823 0.035927072 0.6202555 0.44253415 0.5498667 0.027438058
deposit 0.5698878 -0.3126808 -0.16546278 0.33112845 0.62771326 -0.028891182 -0.34738347 0.11755056 0.40093967 -0.42541277 -0.3171989 0.12283699 0.27268952 0.7449346 -0.030610185
like 0.40541252 -0.27217236 -0.36768898 0.51440156 0.40003935 0.07032191 -0.10936436 0.2155143 0.16619045 -0.33488163 -0.07169661 0.52508724 0.36177737 0.58447427 0.10750496
morning 0.6543499 0.51464635 0.041410666 1.0787747 -0.02957849 0.02735518 -0.06917096 -0.08030456 -0.3919942 -0.5846412 -0.34651297 1.1864525 -0.22420019 0.64594185 -0.22013977
rate 0.5654552 -0.24891682 -0.17395777 0.7404468 0.6478838 0.17982762 -0.43181866 0.39165992 0.52582407 -0.23674701 -0.45659554 -0.13334161 0.17840941 0.5756428 0.37512812
consumer 0.9365872 -0.42460948 -0.51855826 0.42485785 0.8559094 -0.32113734 -0.36958212 -0.17594771 0.12342265 -0.16262908 0.23816922 0.3211826 -0.1083977 0.63080895 -0.7112274
want 0.49198303 -0.19776839 -0.39659074 0.41737217 0.6616228 -0.14886512 -0.1391739 0.09542534 0.029037146 -0.22661956 0.21346477 0.3648496 0.42160493 0.6493383 -0.06998388
markets 0.36063215 -0.25103185 -0.48447356 0.29948673 0.56716377 -0.18925288 -0.07562761 -0.024443882 -0.023958772 -0.187729 0.22957012 0.81670356 0.5963117 0.6134914 -0.112492315
question 0.56564146 0.14882217 -0.14935721 0.81475574 0.12416974 0.15246029 -0.043238282 0.11698398 -0.23084317 -0.35671115 -0.25248647 0.98709977 0.09042648 0.63812196 -0.023472909
things 0.30682003 -0.16999173 -0.55714357 0.36616367 0.42927408 0.044796854 -0.080883086 0.10255372 0.19467953 -0.3182307 0.06914974 0.63527983 0.41850677 0.66974247 0.06633355
kind 0.63876104 -0.095879495 -0.10935669 0.7960038 0.50313896 0.17466937 -0.19920973 0.39127073 0.30921167 -0.32715926 -0.25485703 0.3569514 0.21398927 0.43528846 0.062334355
make 0.3780977 -0.108761266 -0.7547261 0.20366314 0.43933025 -0.2774064 0.044646017 0.024642937 0.004724518 -0.11199631 0.4442707 0.71566 0.620937 0.84366286 0.008731505
still 0.4328982 -0.23531386 -0.32042652 0.53002256 0.5589757 0.098513186 -0.25186545 0.24835889 0.22107865 -0.36890388 -0.107572146 0.17054112 0.41079336 0.6020242 0.08921262
customers 0.2835664 -0.31497294 -0.7967006 0.26880383 0.4652115 -0.17509776 -0.11445334 -0.055496212 -0.066085 -0.19103135 0.25532597 0.927659 0.49252856 0.66841173 -0.2235102
could 0.60459423 -0.099964246 -0.10723711 0.7625929 0.5445754 0.25323945 -0.26545352 0.27464095 0.15732744 -0.30073497 -0.23680876 0.26833934 0.141392 0.5506076 0.07208184
basis 0.30394217 -0.56205404 -0.20887227 0.19259295 0.31167746 0.0062208353 -0.29395002 0.34650835 1.0337986 -1.2896272 -0.15661816 -0.5796653 0.90231854 0.8939925 0.6979478
got 0.5972037 -0.018880675 -0.2854081 0.4966308 0.26243234 0.02473835 -0.07922055 0.20128615 -0.2095763 -0.34590974 -0.11849621 0.69636214 0.29136926 0.6590578 -0.031472433
back 0.567545 -0.06822206 -0.29611835 0.6431764 0.44290853 0.11197616 -0.23894791 0.22058506 0.10320455 -0.21584104 -0.10134392 0.36408553 0.26985788 0.5910308 0.15982068
much 0.5704309 -0.14235882 -0.24368216 0.49896824 0.39371818 0.09418816 -0.21572776 0.046138626 -0.06655214 -0.26321787 -0.09370796 0.40577763 0.43936983 0.69152266 0.022735015
go 0.45572057 -0.15956101 -0.31800792 0.53317416 0.43153632 0.08473082 -0.23178676 0.20315838 0.16081136 -0.24290738 -0.10058587 0.46886182 0.37917134 0.6054365 0.22093855
side 0.97675896 -0.08631946 -0.24546136 0.46907014 0.5207185 -0.16245659 -0.14465427 -0.1622276 -0.0313532 -0.12713721 0.30033317 0.2978838 0.37721726 0.73897254 -0.35315582
years 0.6955987 -0.21472624 -0.36027315 0.39407206 0.21248648 0.22423862 -0.11780833 0.38971478 0.46896136 -0.50030786 -0.3373816 0.5043554 0.10060868 0.60319847 0.40831864
okay 0.53050596 0.10174331 -0.05546908 0.7428607 0.19110338 0.17130683 -0.15284264 0.25982597 -0.27379736 -0.3281676 -0.35203317 0.7955532 0.19019084 0.5965606 0.11410374
maybe 0.60060763 0.0315053 0.015767766 0.8742505 0.42979005 0.23614745 -0.31158772 0.38704494 0.16684769 -0.38422856 -0.34686252 0.5305312 0.13359372 0.4354072 0.055826716
point 0.52653223 -0.17689097 -0.23513252 0.43582332 0.47271103 0.1728462 -0.29825553 0.16858187 0.46313438 -0.4559805 -0.14062902 0.21018061 0.25344613 0.6681959 0.2932902
last 0.6333505 -0.11412123 -0.21260749 0.5320166 0.3121254 0.040018924 -0.23477727 0.32964492 0.2201693 -0.40194184 -0.30354407 0.536204 0.105839565 0.5957952 0.12779202
thank 0.5000498 0.1969462 -0.14076495 0.73448145 0.21916702 0.13871206 -0.15387814 0.12258909 -0.3230641 -0.2796483 -0.30184704 0.93137246 0.16111518 0.6179566 -0.016835218
first 0.65550506 0.04312334 0.044214174 0.68436193 0.5684335 -0.070448115 -0.10793349 0.2921146 0.28946936 -0.42148608 -0.14141169 0.5143199 -0.0010914479 0.548654 0.18050697
two 0.5689622 -0.16144162 -0.3548061 0.5100331 0.27802926 0.20967795 -0.1362439 0.25739715 0.18628564 -0.338661 -0.29583746 0.59283787 0.2003209 0.62080437 0.22537127
john 0.59009296 0.1432426 -0.083785444 0.83267766 0.1486036 0.10480112 0.012839494 0.0769764 -0.064710185 -0.47152916 -0.08352096 0.6861742 0.14478844 0.66996425 0.015663063
portfolio 0.5902622 -0.23083897 -0.27970222 0.5515355 0.46060574 0.020821946 -0.14787999 -0.01689114 0.11900899 -0.28270137 -0.079786554 0.26819292 0.40619844 0.62375414 0.10028193
next 0.63970494 -0.20093696 -0.15337873 0.57282555 0.3635219 0.15556332 -0.32847565 0.3996328 0.5011133 -0.37160558 -0.4127812 0.27160478 0.13196398 0.5745126 0.3889308
also 0.60131973 -0.23283488 -0.30842012 0.37125167 0.46696547 -0.09843992 -0.17615817 0.028254606 0.04389094 -0.30143476 0.043894686 0.3711451 0.52767223 0.61797136 0.073254794
credit 0.4586055 -0.11503359 -0.32210585 0.5773667 0.4916638 -0.12953755 -0.22003599 -0.015137414 0.031883396 -0.32409778 -0.19949809 0.44969794 0.25562432 0.6575034 0.059344087
loans 0.79521847 -0.22242299 -0.26471895 0.4169167 0.47342175 -0.018818375 -0.16884466 -0.14724709 0.14117654 -0.2613284 0.030126834 0.06412202 0.38501596 0.74139416 0.23994201
need 0.32169628 -0.16196218 -0.5245076 0.2517657 0.59861183 0.12822945 -0.19620368 0.18948834 0.18088849 -0.21558544 0.18444213 0.39244616 0.7242357 0.6114228 0.05148311
terms 0.7029159 -0.10050952 -0.17398453 0.5299172 0.4785588 0.12342368 -0.19079635 0.090422794 0.18466076 -0.31910315 -0.19092542 0.25522017 0.36173332 0.5671766 0.10746414
know 0.38311604 -0.20513926 -0.21170244 0.56894135 0.47191387 0.14519405 -0.23485968 0.2808615 0.15994915 -0.30275378 -0.026633786 0.45568916 0.4797644 0.5447141 0.12778652
rates 0.53459364 -0.3474844 -0.16937019 0.53379923 0.5627634 0.15864344 -0.3012122 0.3284401 0.39393115 -0.38174537 -0.32314062 -0.043231826 0.36330172 0.6315693 0.35787842
revenue 1.0015892 -0.05748838 -0.1920198 0.4740433 0.41217816 -0.14938806 -0.15327421 0.049299795 0.09844885 -0.20538811 0.17318328 0.0005871799 0.43758932 0.7317135 0.07989303
said 0.40515682 -0.19549155 -0.34610146 0.5124202 0.3944888 0.030988362 -0.06206681 0.27346665 0.28031713 -0.51920956 0.014918058 0.23618606 0.3497091 0.6746216 0.06646815
theres 0.43952012 -0.11650421 -0.37527055 0.5614371 0.43936798 0.108791344 -0.14653835 0.27640045 0.1255157 -0.24713118 0.02047893 0.46277505 0.45440927 0.54444927 0.09579036
balance 1.3874024 0.14043586 -0.08499207 0.46666682 0.37133822 -0.16327257 0.11863853 -0.5345356 -0.5540385 -0.51349306 -0.032524325 -0.3043398 0.07684306 1.2732402 0.17597848
risk 0.34738666 -0.1672309 -0.4653383 0.47956368 0.49689776 -0.032100663 -0.0012202015 0.009243767 0.10223018 -0.40348607 0.02074033 0.29374456 0.6189625 0.62031835 0.25948152
technology 0.44336346 -0.030055204 -0.56780666 0.38844153 0.2066162 0.015943058 0.022037923 0.11158852 -0.08756769 -0.15015252 0.27729583 0.8041496 0.5413344 0.79142123 -0.020526903
given 0.5942111 -0.2709785 -0.14766285 0.56962436 0.4359478 0.16078924 -0.20464696 0.21556537 0.3625644 -0.4412517 -0.2783724 0.15756051 0.3929347 0.49940488 0.26710138
customer 0.36077663 -0.25861248 -0.75149584 0.18812022 0.45366478 -0.07063514 -0.19789188 -0.1782777 -0.072861895 -0.23118103 0.24670628 0.73823655 0.56594527 0.7491344 -0.32326448
talk 0.63002026 -0.0046600816 -0.09220433 0.8252884 0.5032505 0.2259119 -0.26331538 0.1891466 0.15410425 -0.3505775 -0.23228884 0.45582178 0.06534787 0.48089412 -0.053047054
deposits 0.8875988 -0.5449109 -0.37731156 0.2860229 0.9304373 -0.2347606 -0.27504182 -0.02419928 0.20350994 -0.20698375 0.07745508 0.28650427 0.038092658 0.55599755 -0.5503387
give 0.56312 -0.015314135 -0.090983264 0.74360096 0.56842226 0.15255812 -0.19267754 0.3298438 0.21895559 -0.35825855 -0.26671618 0.37055025 0.18900613 0.508349 -0.044956632
way 0.4159084 -0.15001145 -0.46322644 0.4491253 0.44154003 0.04590953 -0.12573978 0.06508939 0.089358516 -0.3447443 0.06775686 0.4094398 0.48012155 0.63407 0.120863415
today 0.42572057 -0.16614775 -0.33096522 0.5294065 0.38807058 0.13197784 -0.16651177 0.21972522 0.20503841 -0.34441873 -0.0908387 0.38020906 0.44500822 0.5865956 0.24073337
better 0.46145704 -0.22445369 -0.35612395 0.42333373 0.5355226 -0.024481779 -0.21376435 0.17799266 0.25909698 -0.3156084 -0.018384742 0.34303024 0.44941315 0.6042548 0.039451268
points 0.45312518 -0.5087802 0.1976745 0.24400666 0.5639119 0.33457693 -0.59890646 0.13236587 1.1582006 -1.2986058 -0.36805162 -0.5710407 0.516108 0.95820487 0.9051716
environment 0.5834125 -0.38496888 -0.16685559 0.66979253 0.74952704 0.2602486 -0.2969348 0.4220811 0.34178436 -0.30779883 -0.3256596 -0.14299731 0.17602125 0.55495197 0.42128453
change 0.47175652 -0.18138693 -0.38029835 0.4549966 0.4511041 0.19782709 -0.17446338 0.21161255 0.33936906 -0.22214262 -0.017368864 0.32135716 0.42842725 0.6372234 0.33943623
mentioned 0.59156215 -0.057800595 -0.19234546 0.5948501 0.33906627 -0.024828633 -0.11709227 0.14489459 0.15871008 -0.54104155 -0.19360545 0.3601655 0.17340761 0.7124908 0.05178317
growing 0.8177797 -0.50458753 -0.6664369 0.4177093 0.7927668 -0.30371228 -0.40529975 -0.048278224 0.20765592 -0.1621359 0.19726855 0.35222548 -0.040345475 0.54560006 -0.6465813
david 0.6245366 0.13694972 -0.06592091 0.7592936 0.2345724 0.10372199 -0.17321962 0.1922552 -0.15243042 -0.43226653 -0.22013265 0.72238755 0.12421965 0.580225 0.0071130977
number 0.5191717 -0.18536538 -0.36644638 0.49587932 0.33935001 0.05600662 -0.07670322 0.12261032 0.15127863 -0.33616397 -0.1252582 0.5309968 0.3019177 0.64710724 0.09377091
market 0.4526314 -0.28476524 -0.33534437 0.42283514 0.46865964 -0.038427193 -0.13429292 0.13461556 0.14730603 -0.25813925 -0.0029197994 0.5022369 0.45907032 0.60911655 0.10692161
thanks 0.4978035 0.23384212 -0.055615593 0.7979993 0.21488029 0.19703364 -0.07918753 0.17787738 -0.26986054 -0.3458798 -0.29740304 0.9344075 0.12119703 0.6764328 -0.1020267
day 0.38172832 -0.16637447 -0.46526012 0.77349186 0.18010727 0.358692 -0.04505908 0.40897328 0.32830414 -0.3107965 -0.017961126 0.21472801 0.43855804 0.6101107 0.40083775
bank 0.48488298 -0.21727537 -0.44625056 0.41793606 0.41296628 -0.012771769 -0.10721591 0.022484755 0.07648922 -0.29579264 0.17085613 0.5583329 0.4100867 0.6576488 -0.021119202
say 0.47779012 -0.18293825 -0.29767445 0.68401086 0.42495573 0.09207432 -0.1872175 0.09593982 0.21962868 -0.34752303 -0.1849447 0.4548941 0.15949646 0.5092199 0.21627985
pretty 0.5395929 -0.039755493 -0.16279176 0.59575063 0.49690402 -0.021612376 -0.19681136 0.19214568 0.17116055 -0.38079154 -0.17174204 0.41808444 0.17420785 0.6290238 0.07928264
real 0.73551095 0.18902895 -0.24077907 0.8140831 0.19306765 -0.008220247 0.011648814 -0.21003908 -0.041473366 -0.43447873 0.7505051 0.46547702 0.47039896 0.69283104 -0.1245319
million 0.48665994 -0.06932068 -0.26762262 0.4296983 0.10026087 -0.054746665 0.053368714 0.25575662 0.33711898 -0.6337539 -0.031105502 0.55188525 0.61652464 0.61590534 0.15233795
part 0.6052454 -0.14022194 -0.28726146 0.573964 0.5585171 -0.043454036 -0.083336666 0.1011578 0.1903696 -0.2625641 -0.028256267 0.4054647 0.27279204 0.567388 0.09848417
expect 0.72974855 -0.21292631 -0.20567854 0.46585274 0.58860767 -0.041124463 -0.097278774 0.11602116 0.30612662 -0.33500993 -0.1094571 0.053954516 0.3404232 0.6063959 0.17432787
help 0.5200175 -0.19023463 -0.36986217 0.39797544 0.6170142 -0.03196628 -0.13965577 0.11298178 0.16067901 -0.22884046 0.09483267 0.21639536 0.5899664 0.61528283 -0.0103630945
guys 0.62682754 0.18770374 0.03547874 0.90955466 0.19201215 0.20030592 -0.107427515 0.1369446 -0.31275406 -0.42575034 -0.27823097 0.8521922 0.039124426 0.6113629 -0.061093215
believe 0.41864195 -0.26183525 -0.40322974 0.4041418 0.5694481 -0.05066 -0.15554623 0.10727302 0.19425657 -0.31186423 0.08569859 0.34145176 0.56990427 0.5635287 0.04052291
opportunities 0.35731214 -0.21062951 -0.45484227 0.36666608 0.55175877 -0.030971589 -0.106119186 0.067424975 0.15559912 -0.27491313 0.289547 0.30906326 0.62677574 0.7148799 -0.05633984
take 0.36216247 -0.2366206 -0.36632544 0.4735252 0.4936803 0.09132268 -0.2517833 0.046665233 0.21716428 -0.31520942 -0.00045159314 0.3527158 0.52704686 0.60848624 0.11238341
put 0.5612448 -0.20464136 -0.27922583 0.49769446 0.42994383 0.10772364 -0.17288886 0.21902795 0.25932658 -0.31863585 -0.06038692 0.2733159 0.48490652 0.5460116 0.1877873
im 0.528787 0.01422541 -0.13732302 0.68811804 0.33894134 0.18856074 -0.17247438 0.33727747 0.066047885 -0.2887136 -0.15478913 0.51724577 0.2712402 0.580609 0.17438652
sure 0.3301377 -0.14002986 -0.47333303 0.43046588 0.27304494 -0.12428214 -0.15726084 0.1268364 -0.0037596617 -0.30804303 0.11854069 0.7475548 0.49342182 0.6812628 0.16390616
end 0.5203953 -0.27958772 -0.25974634 0.59131557 0.55104685 0.14485696 -0.24002652 0.29527158 0.41944656 -0.31796932 -0.21602389 0.12531893 0.2810129 0.56254745 0.22448772
margin 0.743689 -0.12811679 0.03774431 0.8019888 0.61553055 0.14876814 -0.35497656 0.18400423 0.4875089 -0.5558373 -0.38759136 -0.18101853 0.2631668 0.47364625 0.23870677
looking 0.3925951 -0.1419144 -0.42355022 0.4409598 0.5455075 -0.028018424 -0.17835148 0.117821954 0.11427438 -0.24395685 0.084258765 0.46507776 0.4801054 0.6436955 0.10346966
sheet 1.5570228 0.10103201 0.14958824 0.776942 0.10858397 0.27083704 0.05240814 -0.60265666 0.22939822 -0.14073701 0.18788496 -0.20475811 0.9080318 0.6574386 0.16274089
guess 0.6621265 0.028115842 -0.082296975 0.6796774 0.2535276 0.11323972 -0.20516053 0.21758808 -0.009605502 -0.36463264 -0.22359979 0.5859452 0.22211455 0.5752346 0.13748905
great 0.4747633 0.15482819 -0.17381062 0.6478836 0.24317563 0.1170625 -0.11938906 0.12049962 -0.2445578 -0.24599439 -0.19655271 0.9320585 0.29596457 0.63138074 0.041336343
couple 0.53318405 -0.17795333 -0.25636214 0.54531634 0.2557474 0.12025579 -0.20375925 0.24399786 0.24435814 -0.5098911 -0.27838513 0.49124143 0.15481311 0.64285576 0.22896941
investments 0.40895024 -0.1167546 -0.65228397 0.32017663 0.38168332 -0.29437193 -0.0074489876 -0.02368172 -0.10502259 -0.2042581 0.39130178 0.72077376 0.5970155 0.7771794 -0.04309956
ph 0.5395111 -0.13332187 -0.21924742 0.58408886 0.385081 0.059259027 -0.21381748 0.16245922 0.08620387 -0.38887826 -0.088599905 0.44413495 0.3122743 0.54059994 0.041876566
book 0.6355906 -0.11870761 -0.34100792 0.60844743 0.46940845 0.12519452 -0.09630902 -0.042292397 0.14908585 -0.23221228 -0.05050941 0.20291893 0.39021516 0.6179394 0.18600607
obviously 0.56468546 -0.19236296 -0.14332871 0.6476403 0.48868915 0.12569426 -0.18920389 0.23368613 0.19119819 -0.37606406 -0.21161081 0.29266676 0.24699543 0.56084454 0.15944825
commercial 0.5631902 -0.18389307 -0.43762305 0.5673281 0.55424225 -0.2067284 -0.02961727 -0.1575833 0.026620757 -0.22109035 0.36441487 0.56833917 0.39520335 0.5614948 -0.15620448
range 0.57615656 -0.32237315 -0.16595273 0.5906143 0.41554525 0.15916026 -0.27234268 0.3167516 0.57778466 -0.57971144 -0.29828826 -0.01898098 0.41739514 0.5079312 0.37130007
talked 0.64929044 -0.06611055 -0.27700356 0.58469695 0.35506055 0.042773582 -0.062248904 0.20377165 0.14741085 -0.35415593 -0.0742999 0.42954305 0.3676312 0.57219046 0.060980897
come 0.44532412 -0.24147381 -0.41676623 0.46354955 0.4824299 0.03963986 -0.18289262 0.104754366 0.18354663 -0.25336605 -0.03500134 0.3339477 0.407934 0.67112 0.16064222
youve 0.6033522 -0.047521662 -0.26769936 0.66148686 0.2802057 0.088920325 -0.10658275 0.13681036 -0.021450175 -0.34627804 -0.18447608 0.45983705 0.3064863 0.62608135 0.09661337
opportunity 0.42937535 -0.1083966 -0.50447416 0.4358909 0.5063234 -0.07296488 -0.058976345 0.08645314 0.07006689 -0.21741496 0.26198977 0.47300518 0.6109725 0.6399922 -0.06104493
whats 0.5305242 -0.16689304 -0.1936475 0.52467865 0.4476381 0.13777627 -0.14181603 0.10874233 0.16785713 -0.36935368 -0.11452858 0.28328016 0.3642066 0.6782091 0.1532742
three 0.5979078 -0.14057216 -0.41343403 0.54248816 0.22140735 0.18047488 -0.2157501 0.28553402 0.22960064 -0.35133517 -0.31486282 0.43666315 0.19331892 0.6269418 0.38864312
banks 0.48002398 -0.20770198 -0.33623415 0.58835983 0.2858624 0.2196008 -0.12086735 0.1474986 0.012935562 -0.2213619 -0.14547512 0.65409636 0.36450633 0.6087665 0.07172336
add 0.4475044 -0.13497065 -0.3178193 0.47644234 0.41207403 0.087431945 -0.22283342 0.06468469 0.2536922 -0.5264424 -0.066676736 0.31177458 0.3554666 0.6133811 0.14040543
impact 0.5257165 -0.17305471 -0.2684217 0.5137715 0.47552076 0.08818257 -0.17935345 0.18345612 0.29586482 -0.39674956 -0.10742712 0.15810904 0.4694302 0.6016087 0.2117272
forward 0.51952904 -0.2505118 -0.3206052 0.5193898 0.46569648 0.12975031 -0.19469978 0.32885236 0.25527585 -0.28152147 -0.1426058 0.15986198 0.3250889 0.66350627 0.31477547
billion 0.63446224 -0.27241752 -0.33756426 0.61156607 0.3463825 0.13743085 -0.13953681 0.20436004 0.26662728 -0.3833833 -0.19518878 0.2991145 0.28400823 0.5155269 0.20412354
economy 0.48047724 -0.24392809 -0.30234393 0.5637711 0.57396924 0.10917753 -0.2605476 0.32615253 0.23643547 -0.32738 -0.029441625 0.23285846 0.28978574 0.53098834 0.05418361
feel 0.6372464 0.021246996 -0.2193737 0.6602442 0.41487172 -0.04173731 -0.14382845 0.05305764 0.118842535 -0.38982588 -0.09664191 0.45788354 0.14829704 0.6314978 0.026473144
banking 0.4836562 -0.17400196 -0.6487509 0.38798064 0.3641484 -0.18264118 -0.0116687855 -0.08118516 -0.08176305 -0.2926308 0.26806894 0.83839184 0.43496332 0.6580846 -0.17859997
mortgage 0.5839261 -0.09812913 -0.4384192 0.5370388 0.5624948 -0.14268698 -0.085419245 0.049530745 0.16886547 -0.24711345 0.15069869 0.29993102 0.3822277 0.60049605 -0.011922339
might 0.5021661 -0.14064969 -0.2891214 0.59646374 0.51138335 0.086124554 -0.24839678 0.20571806 0.2153867 -0.32692623 -0.1289419 0.3151819 0.34223267 0.5470611 0.15450639
second 0.7117013 0.00026284315 -0.11261723 0.63220686 0.561715 -0.05340596 -0.07240131 0.087376796 0.20842743 -0.3594842 -0.050381694 0.42567945 0.0977117 0.58176464 0.18555892
return 0.39603773 -0.21242562 -0.3156487 0.3799902 0.60389596 0.025738457 -0.1920328 0.17796119 0.254522 -0.5019409 -0.09096066 0.2308809 0.6262113 0.49567553 0.16967449
important 0.4400335 -0.20314406 -0.49939093 0.36585063 0.5529934 -0.041537188 -0.06834008 0.052161805 0.08305507 -0.26957864 0.10760407 0.445464 0.45752764 0.6199506 -0.031619325
use 0.40424007 -0.23782882 -0.39051816 0.38469943 0.4890569 -0.013204744 -0.20509738 0.08457929 0.12743823 -0.34543145 0.12313171 0.5337566 0.5047302 0.5827069 -0.0037063407
coming 0.63884664 -0.1900505 -0.14905839 0.54468614 0.54556197 0.11490093 -0.2084022 0.1750211 0.324487 -0.37627953 -0.1897286 0.06267184 0.31844753 0.6337566 0.2065967
efficiency 0.7040381 -0.051762413 -0.14814371 0.5250363 0.30318305 0.010823787 -0.27260908 0.17074761 0.23806024 -0.40477785 -0.08692978 0.10149674 0.42251325 0.7362512 0.18963972
actually 0.53810537 -0.080214866 -0.28023118 0.58514917 0.3501892 0.04051665 -0.16045292 0.104005046 0.09473197 -0.37132806 -0.0953141 0.5667003 0.19795823 0.6054987 0.022779495
even 0.4881209 -0.24083468 -0.22912987 0.5760571 0.51754373 0.116331734 -0.21264538 0.22922622 0.2706593 -0.4333875 -0.12408351 0.100254 0.39882326 0.6256838 0.23101923
interest 0.8020452 -0.100238934 0.0278589 0.8498229 0.56369144 0.08906741 -0.35700914 0.10972072 0.25863117 -0.50883126 -0.33183572 -0.15740989 0.28746226 0.47858348 0.21023919
regions 0.56990933 -0.12164497 -0.29620618 0.62552434 0.22386236 0.0103691025 0.013202169 -0.06877968 0.023223381 -0.34245506 0.014850115 0.48124707 0.5081706 0.5913446 0.17763768
different 0.4666135 -0.20800541 -0.36270905 0.54907334 0.45912367 0.04811362 -0.10686765 0.09174454 0.17353046 -0.29407817 -0.012520085 0.3855595 0.40576667 0.6261575 0.091995336
businesses 0.40437078 -0.3164021 -0.4545557 0.38466987 0.5567945 -0.1560979 -0.11618522 0.052943356 0.12416288 -0.314287 0.115152106 0.41787016 0.4564141 0.6232191 -0.029825917
start 0.541408 0.018738167 -0.17007026 0.6605959 0.39507267 0.12841761 -0.24054854 0.14443107 0.20603298 -0.3908318 -0.21852586 0.5398189 0.1617717 0.54176784 0.117098965
low 0.54214346 -0.32461318 -0.2004939 0.5830062 0.67847663 0.11727583 -0.27291763 0.29409742 0.46334916 -0.42140603 -0.3195879 -0.035468876 0.30308926 0.53499866 0.25897303
seeing 0.52607363 -0.08357162 -0.27920493 0.6048082 0.4872105 0.06939079 -0.2065629 0.095713325 0.12075341 -0.23507069 -0.025723414 0.59127235 0.2626474 0.56395406 -0.009627185
theyre 0.44122803 -0.12576444 -0.4373822 0.53169453 0.38843027 0.018105425 -0.1274541 0.08131606 0.041898776 -0.25974545 0.03611046 0.6432656 0.31116948 0.6469915 0.02288441
level 0.4514662 -0.2155395 -0.1843393 0.53476614 0.443357 0.11029829 -0.22903395 0.16543321 0.24785565 -0.47792697 -0.1709081 0.2210866 0.46314088 0.5873293 0.19676965
higher 0.5207841 -0.25335124 -0.23450235 0.61213905 0.5547501 0.04846953 -0.20812075 0.21405345 0.3239001 -0.29116052 -0.21346591 0.22138284 0.30399823 0.5508332 0.23498121
leverage 0.54232 -0.32451952 -0.35861564 0.60937685 0.38464588 0.07320627 -0.2309845 0.10214121 0.08727406 -0.25687197 -0.09625854 0.26903826 0.43475968 0.5476993 0.25508788
lending 0.59706855 -0.19974525 -0.33117512 0.47003064 0.48071042 -0.14255711 -0.20261586 -0.14725262 0.049655225 -0.22896364 0.09887186 0.29689887 0.5082898 0.688222 0.027123654
done 0.5210923 -0.167193 -0.3587882 0.48447198 0.36708075 -0.017929804 -0.07121879 0.11802438 0.053905755 -0.3788401 -0.06942215 0.5688882 0.34683055 0.59269917 0.012270821
peers 0.5448751 -0.24300218 -0.28605506 0.54275745 0.51764715 0.039642036 -0.19759414 0.16318636 0.22706741 -0.35266024 -0.072447605 0.2340479 0.38831216 0.55925554 0.04625816
process 0.529801 -0.114377216 -0.38763425 0.4470741 0.42688408 -0.06565668 -0.15989016 0.042452537 0.052433454 -0.31114566 0.105257615 0.40234864 0.45380917 0.6649703 0.022421055
within 0.5321025 -0.24365102 -0.3330396 0.51366395 0.44696358 -0.039074395 -0.12715104 0.039160233 0.1542564 -0.34285554 0.048149757 0.25758612 0.5108562 0.5739177 0.10491695
simplify 0.70628774 -0.07882546 -0.317098 0.41738257 0.5342525 -0.1480746 0.0355731 0.021253407 0.14224997 -0.3598462 0.25341147 0.17175777 0.42451608 0.70349425 0.07414308
ratio 0.6821891 -0.14903463 -0.12209629 0.4479147 0.5096254 0.07977111 -0.15883037 0.26810098 0.18065773 -0.42176265 -0.15285437 0.05180649 0.55928683 0.604064 0.33351794
ill 0.5132759 0.008755261 -0.2551546 0.69343525 0.22879966 0.1344142 -0.16089182 0.1471916 0.057043742 -0.42553636 -0.030895669 0.5853993 0.16882959 0.6153229 0.12004298
something 0.5019561 -0.14674518 -0.2506135 0.50745696 0.5159187 0.10853129 -0.1810165 0.19867866 0.19033016 -0.3355779 -0.056648456 0.30963075 0.30174607 0.6638033 0.0894789
around 0.48855972 -0.103682175 -0.320133 0.5593366 0.40161833 0.06518267 -0.1440576 0.114887185 0.12468269 -0.35301948 -0.033799168 0.49094677 0.4035404 0.5771763 0.041872874
cost 0.49402174 -0.40422508 -0.24418941 0.3459554 0.5700184 -0.026581677 -0.1701248 0.122612484 0.39977285 -0.51702726 -0.21406591 0.09404718 0.47286552 0.66908777 0.165627
increase 0.6022146 -0.2367139 -0.1272851 0.5791504 0.60364 0.009576887 -0.23977672 0.2585637 0.33611345 -0.35588005 -0.19216853 0.19856267 0.26047593 0.54155445 0.08190617
trying 0.5121327 -0.18937474 -0.35466903 0.42492187 0.45473975 -0.013435 -0.12086225 0.068932585 0.15407237 -0.28835952 0.0446579 0.32766902 0.4695169 0.66438496 0.0996963
people 0.41305122 -0.20318896 -0.47144744 0.44540557 0.47352734 0.020405537 -0.11610045 0.07093241 0.06174602 -0.25608328 0.047759384 0.53258663 0.4326115 0.6128303 0.013477789
based 0.39575785 -0.20142312 -0.3814752 0.47797656 0.42781353 0.006547948 -0.09491788 0.09234555 0.27276912 -0.3982431 -0.07356645 0.24950756 0.58499527 0.5839211 0.20067747
quality 0.43400854 -0.23628657 -0.3865289 0.42022333 0.5331454 -0.12800212 -0.115454175 -0.0048197485 0.029876672 -0.379169 -0.1065735 0.47179687 0.3607895 0.6692563 0.036983732
versus 0.6386323 -0.20249696 -0.24517141 0.6039704 0.4543311 0.06592562 -0.19392212 0.123239316 0.20453803 -0.33012116 -0.07339156 0.29148132 0.29014 0.5832552 0.059732836
expense 0.75960654 -0.09301444 -0.24180037 0.52416104 0.35225594 0.02464453 -0.1260988 0.1652092 0.046717174 -0.23101476 0.051809315 0.35124984 0.32357135 0.69193524 0.081504814
thing 0.4729524 -0.14220189 -0.37806657 0.47772038 0.45071507 0.020112475 -0.18518578 0.09615249 0.08331735 -0.3652747 -0.029936852 0.51175416 0.3629142 0.5775683 -0.022008333
estate 0.58804417 0.19691879 -0.6049384 1.0605552 0.50898737 -0.047335226 0.27785826 -0.36020637 -0.11387962 -0.0722805 0.6487969 0.27742228 0.7094418 0.5345323 0.29276332
focus 0.4840672 -0.24471454 -0.48611844 0.3973572 0.54664224 -0.1594524 -0.12210679 0.004271564 0.08238273 -0.23871212 0.0630425 0.4714773 0.426717 0.6061701 -0.07562249
probably 0.5155696 -0.2278888 -0.21894498 0.53998286 0.48373547 0.016686289 -0.17329553 0.19017875 0.32341754 -0.4252479 -0.054740727 0.14562914 0.36725858 0.60259295 0.2155683
share 0.5088952 -0.18985337 -0.27286455 0.5313565 0.4314446 0.011496797 -0.1464478 0.17017508 0.07212092 -0.2951495 -0.035894733 0.50255746 0.4231267 0.5363773 0.0016650619
big 0.5737748 -0.18376763 -0.3206386 0.5053955 0.46699566 0.06262082 -0.15899935 0.10922946 0.15806897 -0.2364687 -0.07999459 0.37708175 0.3146849 0.64950854 0.15762082
work 0.4994201 -0.1487277 -0.40516934 0.41476965 0.4777571 -0.02891602 -0.08686678 0.08451345 0.06718855 -0.3002676 0.07014271 0.46307084 0.45162338 0.63995975 0.033657324
guidance 0.578586 -0.2457221 -0.09507976 0.62301195 0.41985747 0.04294811 -0.23391065 0.24223347 0.38247392 -0.61559165 -0.18217942 0.039400678 0.36370334 0.5740104 0.20635125
seen 0.6076897 -0.25653544 -0.27648327 0.4920491 0.4076727 -0.040913496 -0.08882583 0.19694935 0.12008264 -0.31785288 -0.12993458 0.38136646 0.42800736 0.5899435 0.021955147
able 0.5593459 -0.25339293 -0.30926138 0.48922753 0.45859686 -0.009875691 -0.20820256 0.09252316 0.14870039 -0.3463631 0.03526522 0.3174133 0.472619 0.60183907 0.06777338
net 0.7955659 -0.011822901 -0.04065361 0.8279066 0.632658 0.117494255 -0.33997703 -0.009196945 0.36912665 -0.44098344 -0.3290064 -0.055146016 0.28695422 0.41345084 0.19261228
getting 0.43151566 -0.18573245 -0.39279965 0.52295256 0.49751437 0.03956147 -0.21927352 0.0952914 0.13630104 -0.21728602 0.015144073 0.4041992 0.4471838 0.6047303 0.11366181
new 0.46989295 -0.17647776 -0.41646266 0.4616361 0.37941915 -0.03311124 -0.13021243 0.05423942 0.07536867 -0.26292124 0.038381886 0.4399326 0.49483332 0.67982906 0.11821429
core 0.62633646 -0.2853392 -0.4807507 0.37447304 0.7079403 -0.21416783 -0.18076512 0.003611321 0.14530835 -0.26533943 0.10650668 0.3403059 0.30206406 0.591533 -0.2547089
investor 0.5990743 -0.090515666 -0.44448823 0.858283 0.24531256 0.22804072 0.011155478 0.18966007 0.19452953 -0.14248158 0.19425507 0.23816337 0.56984663 0.5338666 0.35639626
beta 0.5327718 -0.3203862 -0.14289501 0.46090135 0.49675447 0.005398446 -0.21915962 0.2192724 0.34213835 -0.42737785 -0.209412 0.27841002 0.30444893 0.6405289 0.15915717
third 0.77234936 -0.06065228 -0.06796014 0.5585809 0.65299547 -0.07836117 -0.11589261 0.12227412 0.2599623 -0.32612413 -0.12517606 0.28305727 0.07971517 0.6087129 0.09765398
income 0.7601116 -0.043265454 -0.11583189 0.7724048 0.6295774 -0.024815582 -0.25911114 -0.032037325 0.17206448 -0.3691475 -0.21762225 0.03512348 0.26485783 0.49671233 0.04088812
making 0.52380836 -0.09095112 -0.4884206 0.46970534 0.42603514 -0.14931206 -0.01805751 0.07946013 -0.020946387 -0.22368403 0.20435907 0.5203041 0.44765657 0.7157727 -0.061296538
benefit 0.5362061 -0.26582092 -0.22748002 0.4937121 0.5617898 0.028233979 -0.22383739 0.13820446 0.19938262 -0.3376919 -0.16890177 0.24649234 0.3278454 0.6250869 0.19501266
may 0.4320053 -0.1399266 -0.3563095 0.5072789 0.4807055 0.0654674 -0.15745385 0.12897903 0.15623364 -0.3077294 -0.04208253 0.3088767 0.4208339 0.6646782 0.11187546
mean 0.557436 -0.10329008 -0.29144186 0.589775 0.45856786 0.091654114 -0.17592728 0.1270517 0.07047158 -0.24536446 -0.03352236 0.41127986 0.3168097 0.5485651 0.14762956
indiscernible 0.49800265 -0.18321176 -0.33935827 0.5316461 0.45018077 0.08647769 -0.16881427 0.14016807 0.117608406 -0.31389928 -0.07827971 0.42667475 0.39598763 0.56153566 0.08329282
standpoint 0.5618491 -0.15840557 -0.2785355 0.51170766 0.53270537 0.09686258 -0.121524066 0.074889705 0.18838522 -0.36958626 -0.060188726 0.31865093 0.41143233 0.5658041 0.09457162
management 0.43005434 -0.3291971 -0.32839042 0.36394686 0.4870949 -0.11420771 -0.19970728 0.049862638 0.19349769 -0.43192405 0.013590184 0.28972024 0.59142786 0.5841174 0.14970095
every 0.47086936 -0.22949505 -0.43564194 0.4798093 0.4591546 0.0067121163 -0.18770649 0.12876683 0.16419046 -0.25266424 0.016019482 0.44281897 0.35440716 0.6264624 0.15112652
whether 0.49253723 -0.16467376 -0.37759262 0.48598245 0.41516438 0.010444675 -0.12143891 0.040638342 0.08251626 -0.30571982 0.09143534 0.44109935 0.4547658 0.63181585 -0.0009372126
call 0.43345994 -0.18196575 -0.3660347 0.4572577 0.38351628 0.02077717 -0.2830001 0.024391562 0.20280701 -0.39567995 -0.02192432 0.41959652 0.4755509 0.58072233 0.17095964
across 0.49376133 -0.19438899 -0.35114545 0.48725802 0.4740641 -0.10320753 -0.04051428 -0.04535498 0.07667595 -0.29567584 0.08684275 0.5502462 0.38757482 0.63117665 -0.07538453
indirect 0.53512204 -0.27061793 -0.21870576 0.46290195 0.4821697 -0.062287007 -0.23259722 0.1211457 0.16682683 -0.24471357 -0.07723046 0.43056768 0.2643484 0.6717055 0.01807939
wanted 0.4997523 -0.052821595 -0.11674287 0.695436 0.34121946 0.08056924 -0.17022696 0.16260298 -0.009611951 -0.36501637 -0.14693254 0.5861988 0.20115764 0.5571971 0.019565474
assets 0.7236766 -0.208601 -0.24829118 0.5031258 0.43829387 0.0411057 -0.15382247 -0.00942972 0.16897683 -0.2804099 -0.12153025 0.15559515 0.37859142 0.6753864 0.20036645
plan 0.50892586 -0.21935521 -0.33914235 0.4921493 0.46948433 -0.011406541 -0.18537627 0.16948545 0.11890581 -0.29402176 -0.11755357 0.35238153 0.4271498 0.5597345 0.19187047
equity 0.46613958 -0.1576124 -0.39827734 0.28893843 0.61980563 -0.030963125 -0.23786208 0.16974117 0.14399128 -0.7044604 -0.15826514 0.18943611 0.6733152 0.36495715 0.067712575
securities 0.70762813 -0.21277417 -0.29963228 0.60225314 0.34623033 0.17831777 -0.10977057 -0.022847097 0.12959841 -0.2691474 -0.12311805 0.14844492 0.39900762 0.6494039 0.25383654
base 0.60617024 -0.40752155 -0.34157214 0.30661973 0.68563277 -0.0811935 -0.2035788 -0.013365602 0.1933427 -0.34606516 -0.0833131 0.33851218 0.38151807 0.6096554 -0.11403671
target 0.52097964 -0.11016787 -0.327084 0.47275925 0.41226563 0.043559372 -0.22725315 0.22559173 0.12325976 -0.44147244 -0.10493151 0.32554245 0.52666336 0.5407913 0.16865781
clearly 0.6255806 -0.17176375 -0.21702704 0.6086776 0.4723312 0.053201847 -0.17999706 0.113797754 0.14137582 -0.33188057 -0.09169258 0.12886892 0.39839965 0.6274082 0.22963014
branches 0.51775444 -0.20833391 -0.44183424 0.3622246 0.31742218 0.0056300396 -0.091951735 0.03498399 0.060936768 -0.32107863 0.059882842 0.55302453 0.4314885 0.690649 0.041447956
digital 0.49332052 -0.110887274 -0.541663 0.4388026 0.3033397 -0.03710592 -0.19937912 -0.07677394 0.014247748 -0.22730634 0.1211046 0.6977715 0.39933178 0.7441444 -0.12129441
spend 0.50473917 -0.10755016 -0.34288424 0.49472877 0.34360448 0.088773265 -0.07579536 0.112621464 0.115931556 -0.31663322 0.037494257 0.60760325 0.3797801 0.668246 0.047042854
earlier 0.59861606 -0.049123693 -0.1679829 0.6186456 0.36922827 -0.006870797 -0.15504575 0.13026021 0.05121152 -0.42785624 -0.029107548 0.40741092 0.31534448 0.6192268 0.069247015
made 0.52425337 -0.19695008 -0.32778347 0.5074799 0.41462335 -0.0471004 -0.102576174 0.060141202 0.032036457 -0.3614821 0.06599747 0.371789 0.4196482 0.6526575 0.07168374
another 0.5333599 -0.24521267 -0.20748968 0.46532494 0.5177935 0.061695408 -0.25979254 0.14911206 0.31802246 -0.472265 -0.11460056 0.1565457 0.37460566 0.65309954 0.19501364
result 0.51014847 -0.24082823 -0.30297408 0.52712697 0.4863037 -0.05423293 -0.18626401 0.08194272 0.17356402 -0.26399964 0.015532701 0.37652448 0.4284494 0.5593788 0.09425748
accounts 0.75026524 -0.5329151 -0.61608267 0.39092806 0.7400861 -0.2621783 -0.42979237 -0.09802517 0.21933793 -0.24359758 0.1936025 0.38034073 0.0070160395 0.61451846 -0.6128232
cycle 0.52290064 -0.23604915 -0.30304807 0.5292037 0.43091705 0.12311713 -0.16438188 0.20408109 0.2078129 -0.2764579 -0.1047682 0.35045454 0.33025277 0.6107109 0.15386762
saw 0.60272425 -0.14388257 -0.2049322 0.5785269 0.59159094 -0.052626412 -0.14358135 0.12234003 0.2716162 -0.34842896 -0.07872873 0.286773 0.24487954 0.5744572 0.075541735
expenses 0.57918894 -0.1551019 -0.31789896 0.5123402 0.40982962 -0.041772787 -0.14950019 0.09749987 0.11551187 -0.30837467 0.008322174 0.354102 0.3898626 0.6177162 0.106122635
focused 0.4445817 -0.15398365 -0.45886743 0.42214122 0.48632905 -0.09276237 -0.07942039 -0.006975905 0.1030371 -0.2796783 0.060195815 0.43957144 0.4630727 0.6120756 0.05345392
returns 0.343657 -0.20555636 -0.34081206 0.4249688 0.5242183 -0.027633771 -0.10916266 0.073206566 0.2170192 -0.29467535 -0.022588998 0.35973465 0.5677951 0.62574583 0.18500504
financial 0.54488117 -0.2156445 -0.3042673 0.5788647 0.341685 0.029097632 -0.004431419 0.010575453 0.06457488 -0.27084184 0.06533968 0.44893816 0.41509286 0.547478 0.18544056
improve 0.44878465 -0.212206 -0.45245636 0.42352164 0.45170516 -0.09543787 -0.08006906 0.06843811 0.09219378 -0.28678063 0.10694438 0.37768933 0.5450534 0.66879827 0.09055098
capabilities 0.3993546 -0.13977389 -0.448902 0.38676673 0.4756805 -0.06584022 -0.11472177 -0.039567214 0.05783788 -0.27739668 0.2119788 0.5848091 0.53186446 0.7301932 -0.058970712
improvement 0.6251501 -0.15104748 -0.351988 0.49121335 0.5001979 -0.023018215 -0.04866062 0.004917375 0.07392342 -0.26615843 0.07748704 0.23179221 0.4879319 0.6611731 0.1880697
investment 0.5184374 -0.19692859 -0.29650098 0.5321833 0.42090958 0.050881457 -0.1527605 0.042924777 0.09206683 -0.31419688 -0.044466894 0.39266503 0.4397057 0.6042578 0.1070228
questions 0.5264228 -0.022567803 -0.17345366 0.65131664 0.29632378 0.14772977 -0.15801531 0.17008628 -0.005537316 -0.35038427 -0.18771635 0.63189197 0.2437372 0.5847488 0.057076894
let 0.6051594 -0.062165428 -0.21990559 0.585435 0.38835853 0.09927459 -0.20370963 0.124742724 0.15259336 -0.39758876 -0.08342494 0.39756814 0.2510643 0.55102575 0.12535961
outlook 0.59264237 -0.18158695 -0.16734524 0.6197684 0.47148183 0.14913987 -0.18967775 0.16130058 0.21428417 -0.3079266 -0.16492352 0.32207862 0.32072803 0.55975616 0.17383847
common 0.36385664 -0.24512799 -0.43723938 0.29065722 0.61906224 0.051833406 -0.18640764 0.18625101 0.14250943 -0.6399681 -0.08189492 0.2307187 0.7786646 0.40132454 0.1440351
fourth 0.72932714 -0.09172789 -0.0104930205 0.6573263 0.64960736 -0.09978168 -0.1140241 0.14197215 0.34955147 -0.39421618 -0.13352087 0.31899095 0.06646048 0.5209364 0.069014646
center 0.43708444 -0.25845626 -0.5150813 0.42123672 0.28286806 -0.04524738 -0.27731147 -0.09708855 -0.037829526 -0.2866972 0.14333378 0.6943518 0.50129396 0.6386061 0.11199256
didnt 0.48497006 -0.22656342 -0.29718664 0.5232688 0.4817971 0.008989324 -0.19895378 0.12574953 0.2552326 -0.36639094 -0.060154855 0.29284918 0.42844912 0.57669955 0.15716754
hi 0.5131385 0.116002366 -0.03198565 0.8326285 0.16510545 0.10303299 -0.059710752 0.055413783 -0.21400863 -0.46048492 -0.23242976 0.74682474 0.05458543 0.5635709 -0.050661966
long 0.45836985 -0.26598102 -0.35456288 0.54754144 0.5111471 0.023533892 -0.11691101 0.11530944 0.18921828 -0.28707427 -0.060288273 0.29824817 0.40570068 0.63155454 0.1692464
term 0.5859843 -0.25582784 -0.25521725 0.54530185 0.45966616 0.057201076 -0.18053621 -0.034224555 0.12418477 -0.24660186 -0.03946662 0.19923149 0.5239387 0.64537114 0.16500865
exposure 0.5484456 -0.23551497 -0.33629623 0.52470076 0.4195138 -0.017233646 -0.17943953 0.06673338 0.14326845 -0.29099673 -0.076873876 0.25658572 0.43867618 0.6372265 0.16514172
curve 0.4854191 -0.2677578 -0.32417625 0.53805137 0.5818925 0.08201937 -0.17002995 0.22742712 0.31942573 -0.31339803 -0.18519326 0.1348786 0.34101275 0.64592636 0.29484448
operating 0.6508225 -0.4080282 -0.44935176 0.5257559 0.49573666 -0.060441002 -0.2273043 0.13277984 0.064233296 -0.16011184 0.063505314 0.21739243 0.35937986 0.6009211 0.10809591
asset 0.5974883 -0.16448796 -0.25627437 0.54466933 0.48565897 0.09323631 -0.10727602 0.06220754 0.18068856 -0.29889742 -0.09076469 0.27731827 0.34139636 0.6297583 0.12833962
particular 0.537446 -0.23140413 -0.31991026 0.46372104 0.43324652 -0.013570539 -0.19205861 0.06704601 0.20278218 -0.27295923 -0.039621938 0.36167756 0.37894014 0.64025474 0.109334014
thought 0.57727563 -0.13839778 -0.23180489 0.6241597 0.47685677 0.115242295 -0.225857 0.2238747 0.27472857 -0.28430355 -0.12346197 0.24293631 0.31889254 0.5403684 0.2110499
appropriate 0.45979953 -0.2619964 -0.34119752 0.45584446 0.56540763 -0.0061616516 -0.13793468 0.1362904 0.17081308 -0.31040603 0.06101082 0.30017796 0.53685176 0.6086949 0.058654513
youll 0.55365086 -0.17481333 -0.2456875 0.42821884 0.6468108 -0.0036845293 -0.1430715 0.17083389 0.29706722 -0.33149013 -0.054425355 0.26642638 0.26841062 0.6198762 0.0047675623
manage 0.5621341 -0.21635883 -0.37869218 0.46170065 0.51252097 0.018080605 -0.10644747 0.03875222 0.1717106 -0.32267448 -0.01616878 0.25611973 0.55726063 0.5711608 0.16450046
nii 0.7084701 -0.10946121 -0.15756693 0.55331945 0.6113072 0.017066462 -0.16008809 0.10349396 0.25264174 -0.37340936 -0.106159255 0.037620816 0.3615228 0.6026407 0.08790579
advantage 0.4035985 -0.19547394 -0.39515868 0.4311487 0.52857965 0.0475407 -0.1658573 0.08127127 0.110647574 -0.3243104 0.0471017 0.33899853 0.5478295 0.6950757 0.073157206
lower 0.5512018 -0.205887 -0.15092322 0.6028895 0.5364553 0.13016036 -0.22224845 0.23959006 0.3277563 -0.40091336 -0.2344137 0.13973361 0.36650714 0.5745766 0.275823
industry 0.5556724 -0.17992127 -0.32745484 0.4853096 0.505757 -0.07540448 -0.13613845 0.072696865 0.08573574 -0.2781558 0.015024495 0.37443367 0.41163358 0.6194535 0.017440155
cecl 0.49275646 -0.13535497 -0.26332936 0.5653077 0.39834407 0.053993367 -0.17331979 0.21610022 0.16432889 -0.33886772 -0.06991823 0.45832536 0.34717086 0.6075703 0.1258687
fed 0.5284168 -0.30193686 -0.19895917 0.57060486 0.46450987 0.08648964 -0.23890395 0.26039663 0.27470595 -0.40182096 -0.13498479 0.19503686 0.37172586 0.5603186 0.18572553
expectations 0.5501501 -0.19681498 -0.20934038 0.6231316 0.47528133 0.119678445 -0.20240608 0.19908515 0.2330085 -0.3260976 -0.13768212 0.2778867 0.3792333 0.56600195 0.16169375
past 0.59341294 -0.1872838 -0.21307543 0.5445838 0.41404912 -0.015894745 -0.152469 0.1243978 0.19268999 -0.35569394 -0.072225355 0.42172864 0.30319348 0.5951567 0.048156112
changes 0.50773793 -0.18888403 -0.29184547 0.52724445 0.4427772 0.052086487 -0.13550584 0.13331616 0.11703783 -0.29178077 -0.082748964 0.372586 0.38769874 0.6330888 0.071931325
yes 0.48112708 -0.13672772 -0.32566854 0.53674114 0.42001784 0.052722115 -0.17042057 0.112824306 0.09460951 -0.2857126 -0.010379411 0.44481435 0.41510153 0.57865214 0.06838323
period 0.5126221 -0.19244477 -0.256805 0.59188044 0.5756855 0.09472479 -0.13295557 0.21944343 0.25658152 -0.3070434 -0.21048805 0.29944918 0.3370798 0.54681456 0.14517525
run 0.532437 -0.170421 -0.2927868 0.48950934 0.44549403 0.090606555 -0.167612 0.18621296 0.17434835 -0.35687906 -0.10502067 0.34934518 0.4442732 0.56210756 0.12085908
stable 0.583925 -0.2246343 -0.28946277 0.5155945 0.5479405 0.025111921 -0.21901509 0.16653624 0.19332862 -0.3773376 -0.10321824 0.19809635 0.2918189 0.6293582 0.09512014
stay 0.4771897 -0.24376011 -0.2701672 0.57509154 0.46780512 0.086985484 -0.20731337 0.19174016 0.18654178 -0.35058478 -0.11917346 0.32982326 0.40163985 0.5918979 0.14627697
area 0.53079545 -0.21214369 -0.32760096 0.5210277 0.4487773 0.008818617 -0.138111 0.05444387 0.09238494 -0.32030234 -0.026875209 0.36518013 0.4243247 0.573555 0.06280323
keep 0.48306516 -0.21318977 -0.36541435 0.46156487 0.49818635 0.018013157 -0.12307528 0.14580134 0.16761105 -0.29294395 -0.041153464 0.35515025 0.39484692 0.64712554 0.06405143
fairly 0.5406819 -0.27204865 -0.24329264 0.5247946 0.4754919 0.044722203 -0.13477735 0.12179779 0.20486367 -0.35679442 -0.11080513 0.297182 0.3598634 0.5888222 0.17049362
continuing 0.5320873 -0.19476514 -0.3783022 0.4366382 0.57129765 -0.122530535 -0.13211791 0.0953514 0.1964128 -0.2698083 0.1077741 0.30144292 0.42539212 0.65850925 -0.012398293
ago 0.53369045 -0.21206743 -0.3577196 0.51656276 0.40059796 0.08648207 -0.18483075 0.20722415 0.22253938 -0.3362199 -0.21591909 0.4329135 0.25886142 0.59004 0.17125215
data 0.3996336 -0.25254372 -0.35116223 0.4881744 0.37279847 -0.029575843 -0.1421417 0.09561355 0.16446157 -0.3689069 -0.077733345 0.41710722 0.44988215 0.6232087 0.05778567
less 0.5525055 -0.17227277 -0.33888674 0.56601214 0.4324026 0.09088319 -0.18214105 0.15987124 0.14647758 -0.3097696 -0.062358867 0.38245898 0.3557427 0.5695658 0.13603464
program 0.5536568 -0.19358645 -0.25172532 0.5925479 0.48666638 -0.013128112 -0.10376029 0.15312044 0.12180609 -0.33611542 -0.099342376 0.24920219 0.3537965 0.59900093 0.16143163
ask 0.56673235 -0.0012231027 -0.13726045 0.6898323 0.2599159 0.11311908 -0.16331677 0.13810223 0.0020903433 -0.39193305 -0.17564183 0.6356628 0.18431664 0.5703081 0.06703958
wealth 0.46847862 -0.24978219 -0.38099396 0.3886133 0.48886874 -0.13144277 -0.12304469 0.025894916 0.11428103 -0.28442878 0.11946361 0.4759918 0.55622655 0.6268867 0.07025904
initiatives 0.6135062 -0.07234656 -0.23261298 0.5528176 0.41164523 0.024205215 -0.09908022 0.119551055 0.13668737 -0.32248336 -0.015030542 0.3685214 0.40376517 0.6336434 0.09279045
space 0.540116 -0.1663975 -0.36527652 0.494267 0.37550154 -0.052034844 -0.10940785 0.0006241628 0.12124311 -0.23735014 0.048427872 0.43213984 0.46469074 0.6535389 0.035077788
ability 0.5583289 -0.22553317 -0.24891306 0.50784016 0.49956438 -0.025060879 -0.15131499 0.114533246 0.16903886 -0.32480633 -0.08092305 0.36006764 0.36280915 0.62618476 0.0754687
gerard 0.4538389 -0.061358925 -0.22358976 0.60874236 0.2881977 0.07243612 -0.10879269 0.080293626 -0.079884425 -0.38616425 -0.101690784 0.5936297 0.22795355 0.61172986 0.03097294
months 0.56039685 -0.19406264 -0.28698558 0.55454725 0.4293064 0.070132025 -0.17878546 0.17077848 0.19633076 -0.35008073 -0.18037726 0.38547444 0.24907888 0.60710317 0.1301589
portfolios 0.5824077 -0.17411052 -0.33996397 0.4574792 0.42729753 -0.03860441 -0.17931834 0.04251999 0.18286416 -0.30836973 -0.007439398 0.37489104 0.43396837 0.62526625 0.048200123
sort 0.5751006 -0.19858424 -0.27524576 0.57431626 0.4866196 0.011332073 -0.20297405 0.14304125 0.24487026 -0.32343388 -0.11844602 0.27680972 0.34646243 0.5229134 0.08998147
expectation 0.5633145 -0.15808187 -0.19118656 0.5347482 0.48314956 0.10919877 -0.24844748 0.23217939 0.2966736 -0.4559942 -0.17773569 0.1612289 0.34201595 0.59341717 0.23215732
checking 0.81294554 -0.4337346 -0.5971871 0.37003905 0.7061582 -0.3112392 -0.38075775 -0.027606757 0.28096628 -0.18797295 0.1025194 0.34572908 0.09049854 0.5752657 -0.53744435
positive 0.5450494 -0.3302914 -0.37096107 0.5781223 0.4086594 -0.014094925 -0.19374341 0.14799306 0.12751502 -0.25764018 -0.006832576 0.28069466 0.45286468 0.58552283 0.17754331
costs 0.5329815 -0.32246196 -0.19203822 0.4687463 0.5473123 -0.026561197 -0.16455474 0.13459371 0.31507212 -0.40798557 -0.25008136 0.27272567 0.38226974 0.6076561 0.07015068
money 0.49880698 -0.2164011 -0.40554908 0.44600922 0.4771061 -0.00047126174 -0.20978343 0.078106634 0.110660516 -0.19586791 0.08871625 0.60595995 0.48352 0.57124627 0.016361414
amount 0.49150392 -0.16762379 -0.38064107 0.4561023 0.45449415 0.06980591 -0.1252718 0.12566917 0.06859803 -0.25710547 0.04144155 0.44089338 0.52439153 0.5581933 0.11220153
half 0.6388903 -0.11446089 -0.24776164 0.6015645 0.55763334 0.0042314134 -0.20036124 0.1782395 0.272107 -0.35164142 -0.08240056 0.28629446 0.27763996 0.50348306 0.043662664
shareholders 0.43222702 -0.25650713 -0.3184122 0.46034342 0.51863444 -0.017662885 -0.1177302 0.12089495 0.20144908 -0.31493488 -0.026345974 0.31058857 0.5321735 0.61264807 0.12114917
branch 0.4954547 -0.13809535 -0.41100618 0.4800646 0.3876251 0.02994071 -0.14058256 0.018098757 0.060126793 -0.27282763 0.009165351 0.53850645 0.3362092 0.66048217 0.0728642
tell 0.5118301 -0.23169765 -0.34693766 0.5057735 0.4961484 0.028408598 -0.16753463 0.13354893 0.21368426 -0.3459724 -0.054782007 0.3095921 0.33484584 0.57346666 0.11672621
relative 0.5784143 -0.2237567 -0.23625708 0.46213567 0.48247355 0.044061136 -0.19921039 0.107257925 0.2986312 -0.35201275 -0.091921106 0.204689 0.39595264 0.63466257 0.18860264
q 0.4610369 -0.14290999 -0.2075858 0.6281868 0.30781624 0.09596112 -0.09714842 0.1875525 0.0449183 -0.4071347 -0.09983694 0.5260222 0.36422363 0.558196 0.13723148
place 0.4883759 -0.13058034 -0.3402864 0.49889147 0.47896644 0.06558295 -0.18473464 0.120905854 0.11746622 -0.2649783 -0.0077795037 0.3983682 0.4026998 0.64070266 0.07719004
early 0.5579416 -0.13392211 -0.2958391 0.4966735 0.4415087 -0.009535831 -0.14624539 0.0905366 0.10791445 -0.27880883 -0.05891549 0.40059832 0.40960044 0.6051017 0.09446905
always 0.4504561 -0.1925702 -0.4206874 0.47534725 0.40532038 0.0123046925 -0.1045357 0.10296684 0.13153088 -0.2737549 0.056800153 0.483734 0.45275447 0.6435886 0.059922412
move 0.5816875 -0.18198927 -0.20318975 0.58529866 0.51463866 0.078137636 -0.25070694 0.25980958 0.26978317 -0.38369817 -0.12683462 0.31862196 0.32479876 0.53816843 0.15257987
energy 0.5498926 -0.14970109 -0.3234434 0.5487648 0.41140762 0.00854066 -0.11134038 0.055746403 0.070737936 -0.32882485 -0.12877175 0.36815023 0.36578274 0.5951192 0.11114284
barb 0.48834932 -0.023930859 -0.2032329 0.57898295 0.3130866 0.10225221 -0.19280478 0.15722038 0.10827043 -0.42492244 -0.109354064 0.4823426 0.3118618 0.5666697 0.12857772
best 0.45272815 -0.19580907 -0.42455208 0.50169134 0.47567666 -0.022175662 -0.11255539 0.060278766 0.104711734 -0.30175057 -0.037246138 0.43912256 0.41918525 0.6111503 0.03972249
helpful 0.54343754 -0.038510583 -0.25644007 0.5380269 0.46275842 0.037619982 -0.14848526 0.14988826 -0.047668483 -0.32178727 -0.1172694 0.4909857 0.30782664 0.55913246 0.022590796
thinking 0.53398705 -0.122455075 -0.2778461 0.57306755 0.40516528 0.11125874 -0.21024816 0.1511344 0.11066209 -0.359542 -0.07351026 0.31278104 0.35879916 0.6166931 0.11493044
times 0.52163774 -0.1967643 -0.29430163 0.52779484 0.44815055 -0.012601853 -0.14867705 0.088294834 0.13740323 -0.3256366 -0.017780697 0.40229747 0.34688824 0.6173896 0.07088655
using 0.40848297 -0.24406885 -0.41071975 0.46206677 0.40493703 0.025427997 -0.2222996 0.019593019 0.032655567 -0.2644637 0.05604499 0.5568656 0.5144212 0.6111363 0.054423463
top 0.49579328 -0.19016346 -0.36101267 0.47057572 0.42173558 0.03970569 -0.11771112 0.10879806 0.17407052 -0.28417113 -0.054565348 0.46803528 0.37128422 0.62053007 0.14155164
plus 0.5836468 -0.18341151 -0.29570273 0.5811332 0.549214 0.055744644 -0.20735504 0.22214101 0.17157575 -0.373002 -0.059566386 0.33809432 0.2966884 0.523997 -0.027059264
competitive 0.46516594 -0.23266019 -0.3337035 0.47007066 0.51585543 0.016725194 -0.1614155 0.09634287 0.099909775 -0.35849172 -0.064289905 0.4101623 0.46633255 0.58269244 0.037780963
example 0.497801 -0.1845546 -0.37122577 0.4499921 0.46998477 -0.013460368 -0.16267657 0.020616723 0.124821134 -0.2875108 0.002657777 0.4853202 0.4866624 0.5649234 0.056387365
numbers 0.55385375 -0.16208999 -0.34038046 0.48711425 0.5067656 0.057330012 -0.15754044 0.10809247 0.16933765 -0.32781214 -0.06671966 0.3264278 0.33755466 0.630362 0.055354856
already 0.548473 -0.20825952 -0.30268854 0.5091373 0.39245257 -0.013756607 -0.16026358 0.15646748 0.116360806 -0.37113196 -0.08164392 0.3800793 0.43814155 0.59627837 0.13391137
challenging 0.59555686 -0.14143546 -0.34625512 0.5999167 0.43304497 0.0440629 -0.198934 0.16193946 0.15655725 -0.28539962 -0.114894286 0.28238577 0.3311493 0.6391295 0.20330144
potentially 0.47977895 -0.23777914 -0.32959172 0.53971255 0.5031834 0.02974662 -0.17691751 0.0921898 0.20548797 -0.29140788 -0.079200126 0.2755184 0.44041717 0.5851068 0.17288443
high 0.49208507 -0.23276868 -0.28571126 0.5606557 0.50600386 0.05842166 -0.2208939 0.11818994 0.19709954 -0.37048057 -0.13253012 0.34144792 0.41127175 0.56548285 0.108209915
fact 0.56035256 -0.20506944 -0.29928857 0.53809327 0.45235527 0.021211926 -0.189688 0.07512806 0.13324624 -0.34418848 -0.01963329 0.39416993 0.35116223 0.5768429 0.09815991
taking 0.5261931 -0.007501879 -0.18927765 0.66212 0.36056158 0.08606181 -0.1539353 0.12106407 -0.029620303 -0.35359806 -0.09767126 0.55400866 0.24756294 0.5762992 0.03705744
wondering 0.5844064 -0.09393455 -0.17264222 0.6948916 0.37713304 0.074875504 -0.2142242 0.13056502 0.047074232 -0.31284463 -0.17572737 0.46342212 0.25578508 0.55808014 0.07282522
cant 0.4488676 -0.1938646 -0.310607 0.4646319 0.48351467 0.027580399 -0.18785119 0.15763281 0.1412629 -0.3189655 -0.050463572 0.37285227 0.41802832 0.6302308 0.11344497
quite 0.5307342 -0.18428019 -0.23863822 0.53295124 0.5431406 0.0039216285 -0.17687118 0.19127434 0.2276741 -0.3150946 -0.10683893 0.3576088 0.32078195 0.49991423 0.058596786
mobile 0.4573264 -0.16173239 -0.5251425 0.45131552 0.29667762 -0.062719755 -0.15634955 -0.0077540223 0.024230057 -0.28927976 0.0410864 0.66415185 0.42413998 0.6522736 0.006980007
answer 0.5051049 -0.10793124 -0.29919803 0.5234297 0.34132907 0.07196085 -0.19298726 0.18926132 0.03683611 -0.3429801 -0.08677673 0.5253942 0.34793705 0.61564726 0.113345616
account 0.6172421 -0.26081294 -0.42246997 0.46796897 0.60679966 -0.15428726 -0.26625282 -0.023198374 0.15694267 -0.24283086 0.08871621 0.32798466 0.24752699 0.6089539 -0.17222098
working 0.53979254 -0.21288584 -0.35826924 0.45809063 0.40769714 -0.053150065 -0.15802297 0.15103321 0.16776472 -0.33258107 -0.04214408 0.3886141 0.38322172 0.60661674 0.06371616
total 0.5771024 -0.26270947 -0.29882947 0.45109835 0.4141785 0.056413244 -0.1546848 0.060458373 0.14349525 -0.33442533 -0.05900335 0.29229042 0.4303211 0.64161813 0.11113651
platform 0.48918045 -0.09488809 -0.41246548 0.4634844 0.3851894 0.029087799 -0.16996187 0.1112922 0.071322665 -0.23711434 -0.042711835 0.5994363 0.34593907 0.6607239 0.08001517
roughly 0.606785 -0.18331946 -0.30140138 0.50201917 0.3963629 0.08194382 -0.11923226 0.10829406 0.15763234 -0.37855932 -0.073644646 0.32798496 0.41630405 0.60610414 0.16018748
significant 0.5582109 -0.20699589 -0.36698985 0.47003356 0.5096437 -0.005713873 -0.12251914 0.069261014 0.097906485 -0.3324184 -0.021313732 0.39590606 0.44915855 0.61956424 0.068689086
ccar 0.51821965 -0.19017969 -0.28459477 0.50424343 0.44004652 0.1007936 -0.16743696 0.19070697 0.1737333 -0.3275021 -0.07772224 0.39017808 0.4540534 0.5445952 0.16811627
franchise 0.5406733 -0.24514526 -0.40326846 0.43620098 0.49535564 -0.037640464 -0.11135375 0.09439822 0.13335907 -0.32620686 -0.021380689 0.42478088 0.3982924 0.62453973 0.004896555
happen 0.5182827 -0.17589732 -0.30408132 0.5487195 0.464641 0.06868914 -0.15310596 0.21449274 0.17929088 -0.3417026 -0.09753375 0.3332099 0.35543212 0.57672673 0.13802701
flat 0.59346896 -0.18032852 -0.24168773 0.6392588 0.5394038 0.0923277 -0.21588455 0.17885362 0.2958469 -0.346745 -0.20382266 0.1149783 0.3305004 0.6375815 0.17556149
strategy 0.60430473 -0.13544987 -0.27828267 0.5339729 0.46102422 0.04059143 -0.080087125 0.03700463 0.085906565 -0.33091804 -0.03658636 0.33370072 0.33811375 0.6353674 0.010903005
hard 0.5177641 -0.18824567 -0.30859795 0.49467057 0.48145056 0.025587851 -0.17587197 0.13741872 0.16717684 -0.3280783 -0.055253185 0.32529795 0.38277563 0.61223125 0.15096736
job 0.53014785 -0.043878637 -0.34137544 0.5693601 0.37288925 -0.041848086 -0.09186485 0.043706134 0.047037564 -0.32604286 -0.091186255 0.5720881 0.26727834 0.66519725 -0.006249861
targets 0.523821 -0.18309462 -0.32214546 0.5026449 0.48735726 0.004842285 -0.09531391 0.114636585 0.1984976 -0.2631635 -0.02032417 0.35247076 0.45334274 0.5579442 0.19329573
tier 0.4740182 -0.16016032 -0.33446312 0.35683092 0.55396414 -0.023168484 -0.28223205 0.22025156 0.16947964 -0.62111914 -0.10035648 0.21478333 0.66069853 0.4557572 0.10557644
runoff 0.59670824 -0.21038117 -0.26857862 0.51600796 0.513827 -0.03293229 -0.18693192 0.09922435 0.20628208 -0.34085074 -0.06773273 0.22996391 0.32437298 0.6242272 0.05807414
far 0.5221555 -0.18491527 -0.29936096 0.5115193 0.41646066 -0.008646107 -0.16410296 0.1501269 0.12799864 -0.3575605 -0.09614583 0.3715877 0.39242855 0.60354114 0.13401854
mix 0.67479503 -0.14590195 -0.3187451 0.53796154 0.48088667 0.06574134 -0.18144095 -0.0006683434 0.18672578 -0.33103603 0.018557819 0.22822547 0.39261836 0.639913 0.071740225
areas 0.497649 -0.09886157 -0.37244582 0.50784177 0.45688877 0.0224948 -0.1478055 0.10549185 0.070511036 -0.29601482 -0.016140355 0.46844757 0.39195344 0.6117075 0.067876995
pressure 0.58782 -0.20818737 -0.22334768 0.61297745 0.5309652 0.04829618 -0.24088962 0.18009064 0.3009614 -0.4053045 -0.19709764 0.18722811 0.32523775 0.5282731 0.16646793
build 0.4939682 -0.2066005 -0.43045214 0.42406893 0.5324966 -0.039371267 -0.09867117 0.087943815 0.06301638 -0.32372558 0.06868897 0.39551145 0.44142365 0.63280445 0.059795864
nice 0.64823157 -0.13144939 -0.28330505 0.5831201 0.54450417 -0.05741216 -0.10823222 0.057639737 0.180292 -0.3118256 -0.03091805 0.29213125 0.36297998 0.5466865 0.042756468
auto 0.5692732 -0.18548979 -0.3363735 0.51804966 0.43685585 -0.01759235 -0.18736441 0.042569738 0.13649078 -0.26156524 -0.11286922 0.34684193 0.3969646 0.6212342 0.006693727
bankers 0.44403824 -0.16681118 -0.4326037 0.41762325 0.44718423 -0.084012896 -0.13231479 0.07207218 0.06613828 -0.2826866 0.058884792 0.5716063 0.505065 0.6351322 -0.020111257
relationship 0.49181134 -0.25352734 -0.360461 0.4821526 0.5171185 -0.08523162 -0.15710357 0.05046447 0.1341425 -0.30023065 0.02392546 0.44312948 0.3898505 0.6372 0.02423886
changed 0.47247306 -0.17297377 -0.2908512 0.56600547 0.4805057 0.055853225 -0.15225281 0.13260521 0.16932699 -0.32333308 -0.021817708 0.3154967 0.34413502 0.6261661 0.10334251
team 0.4860239 -0.17026646 -0.36549234 0.48408043 0.48445398 -0.05926489 -0.084171906 0.032264285 0.07383681 -0.30786088 0.04063997 0.48468137 0.41923076 0.58743525 0.010157787
gives 0.483002 -0.18444125 -0.3117467 0.47077212 0.53531104 0.047243703 -0.17485802 0.10924702 0.19918503 -0.3006043 -0.0006210158 0.3627507 0.39063722 0.6033609 0.079345055
experience 0.45602033 -0.2238484 -0.46628615 0.41696763 0.48981598 0.0036707877 -0.19793071 0.003874079 0.0706195 -0.25531077 0.043909058 0.5051084 0.4725492 0.6783855 -0.06369762
id 0.53209245 -0.15922932 -0.36478192 0.48792133 0.3998183 0.044135474 -0.11857427 0.10683421 0.12357013 -0.3949855 -0.011822066 0.40817773 0.3554936 0.65677136 0.09646498
dividend 0.43034288 -0.24427122 -0.2607267 0.5442343 0.53199416 0.0012637633 -0.16459215 0.1357597 0.2352111 -0.33613202 -0.006383544 0.31239456 0.416691 0.5750816 0.11812528
demand 0.73971933 -0.2923703 -0.33959606 0.46735507 0.7265909 -0.112833574 -0.25515383 0.049531505 0.14464678 -0.22804923 0.063609116 0.31542885 0.19105472 0.5498754 -0.28141728
group 0.494516 -0.22949289 -0.35089663 0.444082 0.41709974 -0.07134808 -0.06376147 0.048639942 0.06278594 -0.36002085 0.00648197 0.4332715 0.43314287 0.6299805 0.036096305
hey 0.4232659 -0.005457825 -0.099082924 0.7105998 0.20505726 0.07583888 -0.05806179 0.055541236 -0.1382192 -0.43784532 -0.14179449 0.67039126 0.16920385 0.5614958 -0.07788628
full 0.5795549 -0.16262853 -0.2456408 0.57564884 0.50145054 -0.0026101705 -0.18468925 0.13361658 0.24074763 -0.37163228 -0.12439451 0.2718792 0.3469293 0.61126685 0.1392037
color 0.53987646 -0.067388855 -0.13541904 0.6927254 0.48860243 0.064462006 -0.24484658 0.19254772 0.04013391 -0.3749268 -0.18937108 0.5162437 0.19703335 0.51328915 -0.050668642
count 0.56866354 -0.20279421 -0.31682232 0.56320393 0.41050124 0.04912085 -0.11207732 0.050443858 0.14400516 -0.38282728 -0.0670132 0.39135614 0.35052687 0.6012409 0.18379776
talking 0.4789722 -0.169728 -0.37305576 0.599189 0.47962746 0.0900473 -0.17055853 0.13564543 0.184289 -0.29374772 -0.02745232 0.3946703 0.4034334 0.57485783 0.108621016
many 0.50931054 -0.19736104 -0.38094768 0.48990563 0.44701242 0.044516783 -0.13787518 0.115864635 0.0788984 -0.29297772 -0.016012 0.4148572 0.35811052 0.6274763 0.07687734
particularly 0.593315 -0.22809766 -0.2764866 0.5381459 0.4682788 -0.0592396 -0.19393429 0.073497705 0.18817402 -0.3069911 0.047514666 0.3449721 0.31264302 0.6318761 0.03608811
pay 0.49782255 -0.17510523 -0.38141277 0.4741646 0.49465236 -0.046550184 -0.13083601 0.13604604 0.11723898 -0.27980745 -0.0045276964 0.3897018 0.4837631 0.6276644 0.05676759
service 0.49652892 -0.23809549 -0.38557762 0.46401158 0.47891238 -0.030494245 -0.16241767 -0.016240321 0.10225918 -0.27170697 0.049425565 0.44741055 0.3824908 0.66359806 -0.07470578
relatively 0.6136167 -0.24482247 -0.2876229 0.55171514 0.44782624 0.02005696 -0.16850832 0.140473 0.22071813 -0.3030524 -0.14112616 0.26234204 0.3431354 0.6221895 0.162595
insurance 0.53392047 -0.1865556 -0.3258387 0.5395411 0.41441476 0.004757423 -0.14417404 0.061758712 0.087706745 -0.34286773 -0.027212441 0.4219444 0.40855372 0.58815235 0.11276386
understand 0.48096663 -0.17242005 -0.35991096 0.54726136 0.46947142 0.043649 -0.12717392 0.11870925 0.13804553 -0.25355977 -0.029147152 0.42246976 0.41128093 0.59546155 0.1562134
teams 0.5249805 -0.12484968 -0.34290582 0.48832777 0.498836 -0.042139873 -0.10506461 0.07899815 0.090299055 -0.326016 -0.011902384 0.45200646 0.36033112 0.62907124 0.023042109
followup 0.5809994 -0.003753832 -0.19638787 0.64910525 0.28880587 0.08808117 -0.16642703 0.1554125 -0.08817111 -0.31060648 -0.13626194 0.68706214 0.23666753 0.5842655 -0.026167968
online 0.5102608 -0.14475499 -0.5301408 0.43705148 0.30241236 -0.039341815 -0.09894147 0.004559329 0.04422672 -0.2538146 0.039823394 0.6656983 0.35953763 0.7022611 0.011568839
close 0.5339123 -0.20716645 -0.26094082 0.49799976 0.46697798 0.06390245 -0.17774235 0.21221052 0.1964923 -0.36655328 -0.075699925 0.33173102 0.36489898 0.58830225 0.1586398
liquidity 0.510299 -0.19130307 -0.31988573 0.493286 0.46344817 0.085727274 -0.1592594 0.08571424 0.1266816 -0.25726753 -0.045088407 0.38329297 0.44965744 0.6329859 0.10704734
overall 0.57389426 -0.1786963 -0.27995974 0.50302184 0.43004373 0.0014465201 -0.09884501 -0.0004447747 0.12159558 -0.3136297 -0.050108813 0.2702219 0.4828967 0.68286717 0.088897064
certainly 0.54989386 -0.18486191 -0.3087923 0.5238967 0.47296682 0.09628562 -0.17063849 0.16097324 0.18771572 -0.26705563 -0.059857085 0.382577 0.32824057 0.6062543 0.0975538
anything 0.5565931 -0.16983792 -0.25527656 0.5282759 0.49925753 0.05188139 -0.15836728 0.17539681 0.22073041 -0.3324473 -0.063841656 0.3095264 0.34463924 0.6401128 0.09040645
company 0.5150082 -0.19885047 -0.34316385 0.5153211 0.43909478 0.020446796 -0.1384295 0.058538433 0.18094593 -0.32907438 -0.06809012 0.39000762 0.39447898 0.5949973 0.09580922
piece 0.4700428 -0.19912823 -0.3427167 0.434894 0.5429297 -0.040366575 -0.1746384 0.11271496 0.16872469 -0.34336874 0.0076437797 0.3348929 0.41688353 0.6306224 0.053842217
generate 0.54076535 -0.26276672 -0.36805674 0.49273008 0.45777324 -0.033735897 -0.144663 0.057390966 0.0970666 -0.2929721 0.043415103 0.30094793 0.4960821 0.63645464 0.13103412
hedging 0.56832004 -0.1555356 -0.2451947 0.63231605 0.4802183 0.041874006 -0.14082395 0.1493834 0.19254565 -0.36091664 -0.110153876 0.34932926 0.29438886 0.5466231 0.15974934
relationships 0.5046682 -0.27784947 -0.4164842 0.4545649 0.48199433 -0.091617025 -0.174108 0.038943917 0.10655242 -0.3004988 0.06386737 0.46024564 0.4559936 0.59667623 0.0052214125
sensitivity 0.5902537 -0.17733538 -0.24784602 0.53271353 0.44430357 0.0924471 -0.192136 0.15895084 0.1650976 -0.31067738 -0.14569336 0.3166568 0.39046168 0.61084384 0.15701102
initiative 0.64508814 -0.07800879 -0.2946988 0.51308835 0.42986304 -0.03942917 -0.069628246 0.0033737365 0.12882069 -0.31903425 0.114121884 0.3314027 0.45159984 0.692372 0.053916886
came 0.55276406 -0.16529757 -0.2487461 0.55574816 0.47206903 0.04142203 -0.1814366 0.13150564 0.18776268 -0.31559673 -0.06406653 0.38606706 0.3412027 0.57114476 0.13352284
set 0.49358618 -0.22953476 -0.25546956 0.5196229 0.50681967 0.06276739 -0.14272256 0.09449888 0.2417384 -0.36941135 -0.023089463 0.2991538 0.44538283 0.5837543 0.15027447
extent 0.50810367 -0.22551963 -0.26148942 0.5194204 0.42427105 0.03421794 -0.16040349 0.116441466 0.18146753 -0.35311282 -0.054954313 0.32033706 0.3756295 0.62234783 0.099539034
line 0.5716146 -0.10787178 -0.25514254 0.5555013 0.44620848 -0.018239114 -0.110728756 0.06672462 0.13046795 -0.356159 -0.03980488 0.34555566 0.34279794 0.622641 0.07000786
needs 0.48033503 -0.24812816 -0.39697388 0.43672755 0.49801382 0.012087886 -0.115802564 0.0028561316 0.06986138 -0.31223646 0.06354217 0.43452004 0.53142476 0.63335973 -0.019877674
levels 0.60356426 -0.14402147 -0.22595122 0.5813017 0.4626049 0.049000923 -0.16949953 0.05282862 0.18007942 -0.3349144 -0.09229115 0.22499579 0.40891084 0.5598679 0.13013428
corporate 0.5662615 -0.14102645 -0.37825578 0.50757414 0.47133705 -0.027677938 -0.05616802 -0.031438105 0.08767401 -0.2866499 0.14770262 0.5120367 0.3597499 0.6651525 -0.042962223
committed 0.5842965 -0.22885422 -0.29392856 0.54441893 0.39566168 0.017044267 -0.18416566 0.117415786 0.13323542 -0.31005162 -0.082195416 0.30215636 0.39616656 0.594845 0.21350928
reduce 0.5407919 -0.20374908 -0.3171227 0.50936514 0.4441776 0.008817728 -0.14947684 0.066792175 0.102223925 -0.3618326 -0.058259297 0.39350346 0.42041105 0.6755076 0.08131985
others 0.4853959 -0.21026814 -0.32027414 0.50660044 0.45204544 0.04777978 -0.12133262 0.06357509 0.18528931 -0.36101535 -0.04094999 0.38249502 0.38862482 0.64941907 0.13282397
deliver 0.5024409 -0.20284198 -0.3178659 0.4753001 0.49612314 0.008171739 -0.110378586 0.10928166 0.1420596 -0.29243046 -0.02177583 0.32020453 0.46581015 0.6099242 0.11855771
services 0.550263 -0.22744493 -0.38401526 0.4764136 0.4356229 -0.029065676 -0.14024785 0.004585442 0.12029551 -0.25928402 0.06050782 0.42190024 0.45307165 0.61866844 -0.001823766
factset 0.255034 -0.32410905 -0.21171874 0.62339365 0.19800232 0.03540151 0.045657944 0.0372085 0.1336374 -0.39734116 0.052395683 0.36306074 0.45814443 0.76086247 0.1595451
primarily 0.5626149 -0.17039849 -0.27699625 0.51510197 0.43195322 -0.030410837 -0.1057073 0.07271241 0.16884927 -0.32025313 -0.07486615 0.34510025 0.35338333 0.6251935 0.04999195
nonbank 0.52507013 -0.2166537 -0.33020666 0.521625 0.42507458 -0.04666329 -0.09474996 0.12931795 0.13996226 -0.33084717 0.103650555 0.415276 0.41122982 0.6396057 -0.01270659
become 0.49336427 -0.19068187 -0.28775162 0.48605403 0.45719013 0.05025559 -0.15788366 0.11319894 0.18009265 -0.28563777 -0.030648489 0.36156392 0.45213538 0.632605 0.13463089
betas 0.57487655 -0.30973575 -0.24377424 0.4812473 0.51247585 0.010096723 -0.1837552 0.10623591 0.22358894 -0.3423442 -0.13311252 0.3551028 0.30731544 0.6297101 0.035122156
head 0.59423697 -0.18334486 -0.25830624 0.5232496 0.4097249 0.059176218 -0.12735714 0.07537741 0.0891756 -0.3631197 -0.014741366 0.39355388 0.3592488 0.6044149 0.1984955
quarters 0.584987 -0.19593763 -0.28683394 0.5295544 0.45741826 0.06078962 -0.15480691 0.1436132 0.2847705 -0.37829667 -0.15718243 0.3930285 0.2656941 0.6046908 0.18659413
fee 0.66275424 -0.12838116 -0.28361908 0.567166 0.4854692 0.010243755 -0.15838885 0.08235483 0.1111943 -0.27124608 -0.02561519 0.3468966 0.3179846 0.5890634 0.04600817
type 0.51659614 -0.23113255 -0.32893127 0.5438959 0.500431 -0.018900096 -0.14372072 0.067624435 0.19854975 -0.3203772 -0.05898687 0.3722275 0.38762006 0.5929638 0.075856544
credits 0.48532918 -0.18971364 -0.32951465 0.4977637 0.35373598 0.03206964 -0.14974184 0.138952 0.20024325 -0.3629073 -0.099235825 0.36818644 0.33972493 0.6144051 0.1448434
matt 0.5028002 -0.14077197 -0.2215005 0.55846226 0.34953365 0.070814095 -0.05455551 0.04916005 0.044578537 -0.38052213 -0.031968873 0.4410738 0.2759242 0.57379216 0.07824608
certain 0.53427994 -0.13817136 -0.275519 0.5618554 0.47235835 0.021257952 -0.15874086 0.08283212 0.10642275 -0.33613533 -0.09062905 0.3711338 0.37241083 0.61739385 0.11175141
course 0.5636009 -0.1917135 -0.32970518 0.5260379 0.42371562 0.018436318 -0.18443447 0.12683928 0.15803243 -0.32908514 -0.07154781 0.31962588 0.36572814 0.5877682 0.08106373
largely 0.5490424 -0.21161972 -0.31219855 0.5080843 0.4536436 -0.042459738 -0.14101976 0.109364256 0.115155816 -0.28240556 -0.010836364 0.37784082 0.39407915 0.6116811 0.104447044
short 0.5064408 -0.18941237 -0.26919815 0.5109769 0.49085063 0.065854594 -0.17404206 0.12290372 0.2058553 -0.3543675 -0.13503215 0.26580554 0.4024908 0.5913922 0.169747
started 0.5159133 -0.17739868 -0.27079916 0.47558516 0.43833423 -0.005839005 -0.17883332 0.12407579 0.17286198 -0.37519926 -0.024048835 0.33923432 0.39218846 0.60054624 0.1550553
board 0.50871277 -0.11275883 -0.27964127 0.53512496 0.3783817 0.029525658 -0.14616907 0.13046575 0.10631428 -0.28856856 -0.033949323 0.42778212 0.36877427 0.612096 0.09278412
comes 0.605224 -0.15752745 -0.27752662 0.54748106 0.4118583 0.062473644 -0.13870719 0.045478802 0.13070662 -0.30023646 -0.0481188 0.34949297 0.39740822 0.63883054 0.13815825
since 0.50381064 -0.2331485 -0.2837062 0.55869454 0.46052128 0.03172026 -0.14974485 0.14456521 0.28334555 -0.3573056 -0.10133893 0.23565891 0.37126806 0.60887486 0.1759154
prepared 0.4929681 -0.13105564 -0.27882594 0.55273664 0.41515425 0.024256505 -0.1521911 0.1272254 0.12085106 -0.36694753 -0.05266537 0.34433678 0.40296867 0.6341241 0.08642827
wed 0.52589154 -0.21488446 -0.32745773 0.5441639 0.43738824 0.08267311 -0.14130755 0.10844238 0.14726683 -0.32461616 -0.020569317 0.3646577 0.42840096 0.63235784 0.08618901
key 0.5017165 -0.18940964 -0.26345313 0.50452507 0.47612226 0.051783796 -0.17293678 0.1175682 0.17670994 -0.32601586 -0.064829305 0.3989754 0.38238072 0.6104489 0.13334264
footprint 0.5247341 -0.17319545 -0.30678192 0.52846634 0.46215788 0.010976475 -0.1015617 0.07508525 0.09762781 -0.29010877 0.020193288 0.4454813 0.3731463 0.61281204 0.097937055
future 0.55983365 -0.15367197 -0.29180455 0.49901974 0.50431824 0.0026734788 -0.1544772 0.10371423 0.14710751 -0.28694436 -0.06488864 0.3418169 0.37921384 0.6321964 0.1038261
faster 0.5657833 -0.2109118 -0.3427824 0.514394 0.61463934 -0.013825407 -0.18065786 0.07331105 0.19387856 -0.32732213 0.026432004 0.3214308 0.40139374 0.592381 0.017002186
moving 0.50228924 -0.19895643 -0.27307245 0.57334906 0.4603497 0.104700774 -0.19031405 0.12958033 0.17117329 -0.30801734 -0.10357001 0.39169767 0.359646 0.6053948 0.12364934
lets 0.5516258 -0.11287946 -0.30393037 0.5856818 0.4735587 0.028013585 -0.18801554 0.13798623 0.14534053 -0.27155468 -0.048207592 0.4271842 0.3084798 0.65146106 0.07394066
fixed 0.57310265 -0.23698111 -0.2997853 0.5422789 0.49079904 0.05804949 -0.16638191 0.08782956 0.15960628 -0.31028357 -0.07163507 0.3066797 0.35014147 0.6141923 0.16442479
losses 0.5287079 -0.16116239 -0.28045657 0.5534261 0.48447257 0.02809332 -0.19062641 0.08898119 0.1948583 -0.28929898 -0.07118484 0.33204433 0.40422717 0.57385164 0.12880374
try 0.46832407 -0.22489552 -0.3002054 0.51301706 0.48245656 0.060071625 -0.17713651 0.12529805 0.14562702 -0.31056458 -0.02158247 0.34780443 0.37646684 0.5966193 0.16700695
either 0.52834046 -0.21529558 -0.32389015 0.47594708 0.4754337 0.045323186 -0.15342052 0.10508408 0.1803963 -0.28933746 -0.011879774 0.36648288 0.38663846 0.64345956 0.13778934
sense 0.55984944 -0.19803992 -0.26309735 0.5481901 0.4645384 0.06854581 -0.2135906 0.13647929 0.15802288 -0.37944916 -0.077784434 0.3327515 0.38606387 0.61271524 0.10258726
solid 0.5447449 -0.13455902 -0.34513792 0.47363803 0.54998446 -0.08966188 -0.14954641 0.04436091 0.08760845 -0.31130454 0.01912151 0.42442152 0.38646773 0.64027613 0.0122301495
though 0.52113986 -0.22336277 -0.29653075 0.48353207 0.46999985 0.01619118 -0.18235709 0.14413032 0.17390154 -0.36955655 -0.05809132 0.3050315 0.34389514 0.64411485 0.09141055
invest 0.45174295 -0.21230595 -0.41568407 0.45092002 0.46888602 -0.0002763907 -0.13867615 0.07415771 0.07799611 -0.2915801 0.026917502 0.44262233 0.49053195 0.6622837 0.06517573
meet 0.4749823 -0.23165524 -0.40623084 0.48302707 0.47495443 0.041285418 -0.12352061 0.024537005 0.10212143 -0.28857315 0.07132609 0.33173436 0.5215126 0.67865735 0.09205737
looks 0.518634 -0.1586271 -0.31097382 0.5783284 0.42059568 0.080251284 -0.15463519 0.216023 0.16046216 -0.35412127 -0.14415486 0.43212146 0.31151122 0.55804855 0.15215611
additional 0.4925478 -0.16973044 -0.30735683 0.46715513 0.42160434 0.0407029 -0.17701736 0.1471901 0.21922426 -0.38501537 0.0056133727 0.26907268 0.46724054 0.62027407 0.100219406
comments 0.55033803 -0.1316409 -0.26157442 0.57923025 0.35688683 0.00080251484 -0.09317161 0.107214935 0.09210938 -0.37590003 -0.036861997 0.46410042 0.35978428 0.6178325 0.086700946
ai 0.45421356 -0.14624631 -0.33463532 0.49462852 0.4068615 0.01397602 -0.17086333 0.0747404 0.0949983 -0.27718362 -0.04240468 0.4943972 0.39429817 0.5887485 0.082469255
continues 0.54869074 -0.21795195 -0.28637773 0.53754556 0.5646039 0.017508205 -0.15669975 0.11281582 0.22008337 -0.30385444 -0.042421788 0.28906858 0.35673115 0.6024981 0.04277768
loss 0.47256774 -0.24914205 -0.2548601 0.5198289 0.42932588 0.068021685 -0.22008364 0.108015954 0.26352683 -0.4257645 -0.14537935 0.20714162 0.38470507 0.6387629 0.19039619
earnings 0.52830225 -0.22961967 -0.22705063 0.58748704 0.48839656 0.023190215 -0.18393606 0.16301842 0.24327356 -0.3250623 -0.05664368 0.28051865 0.37610635 0.60725605 0.099273905
provide 0.46694204 -0.16632959 -0.35277393 0.50094724 0.4562765 0.03739652 -0.18232082 0.091850355 0.18517044 -0.3192619 -0.050723687 0.40498295 0.44268903 0.5880952 0.045560423
current 0.50891805 -0.20297216 -0.28933078 0.5296726 0.49869338 0.045929603 -0.15944527 0.17926827 0.21148522 -0.30867752 -0.10672516 0.32851815 0.39531797 0.61030453 0.13183098
smaller 0.51777166 -0.22608022 -0.3471792 0.4867415 0.48369947 0.012417594 -0.11991741 0.08653895 0.09603266 -0.2855347 0.008848368 0.48833308 0.4177925 0.59842265 0.064752586
llc 0.3152696 -0.23852059 -0.24172568 0.6441879 0.19350319 5.7698784e-05 0.037535224 0.09288444 0.10815973 -0.31591627 -0.018646533 0.51636493 0.42713034 0.65543216 0.18281545
economic 0.5074663 -0.17971702 -0.3048943 0.49139884 0.46732163 0.08217684 -0.15138505 0.1801959 0.17635876 -0.33336386 -0.072130606 0.33829066 0.36664137 0.62980264 0.11206188
commitment 0.5497636 -0.19521897 -0.36869162 0.51471204 0.4078685 0.033783387 -0.10064415 0.13150035 0.16329536 -0.28337905 -0.026568538 0.33007053 0.42663437 0.62455714 0.0847535
acquisitions 0.5114168 -0.20056866 -0.31043074 0.5320881 0.46577454 0.016975645 -0.12207793 0.17849137 0.18454272 -0.34296718 0.017815731 0.37282124 0.40396613 0.6217863 0.038046338
exactly 0.4980495 -0.159427 -0.27461356 0.51443255 0.4477729 0.04632915 -0.16700533 0.16269813 0.088920206 -0.32484373 -0.017671494 0.43054697 0.44510606 0.5996694 0.09366974
adjusted 0.50356925 -0.18263987 -0.24643286 0.5204801 0.52977693 0.028124828 -0.20291068 0.075306565 0.31999707 -0.3739945 -0.11251424 0.21716301 0.43596888 0.62964046 0.19875789
erika 0.48289168 -0.048367284 -0.17419897 0.59074813 0.28133133 0.04525878 -0.085966736 0.06157901 -0.001426453 -0.39888158 -0.045997676 0.5328027 0.20640613 0.6115249 0.022772495
perhaps 0.4902996 -0.15980081 -0.26450875 0.5477217 0.52031094 0.08191558 -0.19621405 0.1525812 0.17182612 -0.31424516 -0.09019723 0.34501338 0.38683376 0.6177261 0.12586273
hear 0.48156148 -0.1283492 -0.28451237 0.57565534 0.41080344 0.06506077 -0.11471464 0.17394468 0.13462916 -0.32574052 -0.048094988 0.4206973 0.29104197 0.6119963 0.09087417
continued 0.5924643 -0.17628281 -0.2658396 0.5029119 0.47038445 -0.020528171 -0.16924423 0.122140534 0.19937335 -0.32066175 -0.065337315 0.2965295 0.39564916 0.5982897 0.06453574
ken 0.50694174 -0.12396009 -0.2149936 0.5787505 0.34544238 0.07292713 -0.11389277 0.0830475 0.09302 -0.38349622 -0.13314734 0.4192329 0.2623121 0.6220362 0.066152036
saying 0.5649809 -0.1702992 -0.24035884 0.5572818 0.44397628 0.03565511 -0.15780088 0.16883697 0.18058598 -0.36364397 -0.0536756 0.30242544 0.40650982 0.61025053 0.17702052
percentage 0.5484129 -0.23709401 -0.30490264 0.47836933 0.39643618 0.07803001 -0.14863609 0.13377777 0.15688168 -0.34497452 -0.09072927 0.3445864 0.36167955 0.63272315 0.14385436
companies 0.4976582 -0.20191619 -0.31343135 0.47341588 0.4877629 -0.019538166 -0.15818717 0.08103731 0.12318678 -0.31598404 -0.089961626 0.35752428 0.37147972 0.6018191 0.0964503
results 0.49331093 -0.15190816 -0.32854953 0.5140613 0.43258828 0.011056168 -0.13941246 0.121111095 0.111230746 -0.30707815 -0.0417569 0.3664172 0.39845943 0.6225539 0.11417497
wont 0.5563985 -0.110070944 -0.2912751 0.56260854 0.4328966 0.05817842 -0.12948216 0.1787474 0.13782951 -0.2894597 -0.0069365 0.40252396 0.38803166 0.5658994 0.13111506
value 0.5111182 -0.19479296 -0.29773057 0.51812226 0.42297536 0.018771917 -0.1750196 0.100556836 0.077671416 -0.312132 -0.004931617 0.36790633 0.46509373 0.5866533 0.10674002
potential 0.53271747 -0.1957745 -0.31958178 0.5549142 0.44077843 0.054012883 -0.13020717 0.1551557 0.16496107 -0.28754503 -0.028580742 0.42346114 0.32617632 0.60259235 0.07700656
system 0.51909244 -0.18915097 -0.34419152 0.45314857 0.46430978 -0.012997122 -0.15572317 0.118754 0.13337512 -0.3492329 -0.063543744 0.4728643 0.38785487 0.6170685 0.08226228
gdp 0.60512894 -0.18330619 -0.21988977 0.5591429 0.5275326 0.05723254 -0.2442766 0.23992266 0.20632714 -0.35874155 -0.13486671 0.20872594 0.28968945 0.5908518 0.110948816
continuous 0.5684124 -0.14885043 -0.38308546 0.4812418 0.49949002 -0.044457987 -0.1399999 0.052610666 0.10145518 -0.3519794 0.0432994 0.2944052 0.44145533 0.65014744 0.082688265
least 0.5330036 -0.18226925 -0.3521859 0.4654882 0.4952802 0.025782363 -0.11899867 0.11609983 0.18961966 -0.29483742 -0.027855568 0.37912825 0.41776103 0.6430194 0.0843617
threeyear 0.5327291 -0.20898013 -0.32515308 0.5342788 0.45453742 0.08180647 -0.14854011 0.18618946 0.23466171 -0.34497833 -0.09973144 0.25164548 0.38356796 0.6157749 0.17939252
efficient 0.5377101 -0.14048618 -0.3492766 0.47938335 0.42518324 -0.0049446695 -0.11706644 0.06477864 0.045657255 -0.27877614 0.031537123 0.37551343 0.46727365 0.66182923 0.09179707
front 0.55032516 -0.17368211 -0.3289024 0.5742197 0.4383766 0.025691979 -0.15892126 0.113378085 0.08604259 -0.28856632 -0.08093546 0.41945374 0.33828214 0.63008535 0.037607882
reserve 0.52483404 -0.15882678 -0.30380607 0.5116786 0.41056758 0.073204964 -0.20053722 0.14817774 0.24240127 -0.30867592 -0.078714356 0.33597827 0.36861908 0.6340069 0.14560471
earning 0.7123964 -0.18444899 -0.30007675 0.56576574 0.45130897 0.055689752 -0.16250068 -0.015383413 0.07713195 -0.3001948 -0.069690734 0.18819234 0.3759579 0.6332789 0.17763679
cash 0.49949253 -0.19482471 -0.3136717 0.47480142 0.48761785 0.033929016 -0.19101627 0.07903836 0.16094418 -0.3057583 -0.029190361 0.40916416 0.45265377 0.6071289 0.09364056
beginning 0.57045305 -0.21646753 -0.28443828 0.575689 0.5517116 -0.020881673 -0.16282392 0.109421946 0.20270829 -0.35517368 -0.04178183 0.23871087 0.35812655 0.6197163 0.11669071
nim 0.54814976 -0.13293841 -0.21379054 0.6148351 0.47249013 0.06383161 -0.22978055 0.17976008 0.20203465 -0.3563075 -0.09538065 0.3185448 0.33263117 0.59157497 0.17200151
deal 0.44758832 -0.12390801 -0.3260909 0.52345747 0.4863032 0.028288998 -0.1877957 0.16524431 0.1761368 -0.33882302 -0.045823377 0.36901888 0.38339528 0.56794816 0.05055826
excess 0.48899627 -0.20930555 -0.346674 0.4752728 0.48703918 -0.020086698 -0.19504789 0.094979666 0.15936542 -0.32046 0.012440301 0.38719684 0.46957847 0.66037357 0.06428906
average 0.58878815 -0.20125477 -0.2103701 0.5577791 0.5155795 0.007907511 -0.18153264 0.07847256 0.20996653 -0.3233288 -0.115174815 0.2718235 0.3386045 0.6133143 0.13185988
chargeoffs 0.5462988 -0.24373563 -0.21067925 0.49507216 0.4374619 0.038892377 -0.26819906 0.18107396 0.38271657 -0.55274314 -0.15154332 0.14498934 0.3850873 0.61339 0.2176972
fast 0.5090618 -0.23523901 -0.30647784 0.4675844 0.41606772 0.019544333 -0.18236896 0.066877834 0.0867284 -0.3075478 -0.015248871 0.37917137 0.42436156 0.63135046 0.050630543
driver 0.57102525 -0.17756933 -0.27580568 0.53948015 0.5619509 0.0047145244 -0.19364977 0.12509449 0.16858225 -0.27938077 -0.10569051 0.31080914 0.36431828 0.5828203 0.09193601
update 0.536253 -0.1333961 -0.25092906 0.5701704 0.43142682 0.1046296 -0.17064652 0.1931693 0.19055308 -0.3027977 -0.09181658 0.38594386 0.34237707 0.5555977 0.09390613
tax 0.48675162 -0.25087318 -0.33405513 0.45572913 0.4732332 -0.014508693 -0.16468698 0.11459634 0.19323722 -0.39682022 -0.10584929 0.30619982 0.41907135 0.58086216 0.09167937
transaction 0.46883687 -0.14867787 -0.32593867 0.5247327 0.48411724 0.022028852 -0.11039203 0.1340544 0.17026362 -0.29087588 0.0007626674 0.39450753 0.40546262 0.5943812 0.050906528
mids 0.52982944 -0.14453454 -0.2467434 0.573125 0.5243516 0.04037197 -0.21251126 0.22058047 0.15886173 -0.34465453 -0.058414977 0.34039816 0.36649966 0.6119853 0.121639416
decision 0.44478738 -0.20875567 -0.3270436 0.48472086 0.45162827 -0.033224948 -0.13810523 0.103396185 0.17152767 -0.39251617 -0.052539982 0.3790866 0.4204067 0.66958714 0.08694979
scale 0.48776194 -0.16442694 -0.31960273 0.4891554 0.432782 0.05553243 -0.18940751 0.14202625 0.09180407 -0.31247994 -0.0030767694 0.4611394 0.43957102 0.656963 0.11542325
interested 0.57960963 -0.15677872 -0.3034298 0.56867224 0.44305867 0.0019645756 -0.16305892 0.13838598 0.16684231 -0.3452252 -0.04315732 0.40519798 0.36565942 0.61912906 0.089404285
baked 0.5277982 -0.16916063 -0.3092877 0.51624626 0.4667812 0.041871496 -0.17974225 0.17334092 0.19436671 -0.38986206 -0.13340716 0.32148916 0.3369045 0.5968605 0.10800431
incremental 0.57913697 -0.20987734 -0.20696835 0.5676645 0.50167906 0.086222425 -0.19378379 0.15982136 0.2192775 -0.34800777 -0.086731695 0.26265562 0.3789175 0.5964615 0.13840944
beyond 0.5187718 -0.15691073 -0.30446938 0.5617514 0.45016834 0.045637842 -0.18464078 0.15478234 0.16345246 -0.30813897 -0.04040555 0.3774425 0.39748436 0.57049453 0.096925214
heard 0.5118918 -0.08156117 -0.32280508 0.5200645 0.35343692 0.0653141 -0.11934866 0.12500611 0.12061055 -0.30682522 -0.011307677 0.47277385 0.38017014 0.62813365 0.105274655
debt 0.5744269 -0.13719757 -0.2942102 0.5299406 0.44217157 -0.017236387 -0.13249148 0.07575774 0.13036397 -0.29634082 -0.00462127 0.34261012 0.41417134 0.61509377 0.08518602
contact 0.4978538 -0.17160295 -0.40263087 0.4434368 0.3888266 -0.0074002156 -0.2648796 0.034069307 0.087703265 -0.25836748 0.04019361 0.5455273 0.44997978 0.65683806 0.061540402
recently 0.49501556 -0.18511404 -0.31310079 0.5030291 0.39377287 -0.010749041 -0.14446163 0.08701549 0.112866014 -0.3383926 -0.0682084 0.41219422 0.4040512 0.6056477 0.050784
ways 0.4957995 -0.17878473 -0.37230173 0.45097578 0.49645752 -0.015153602 -0.12676565 0.12183751 0.11024119 -0.338041 -0.008194479 0.4014777 0.39355212 0.67547286 0.11339746
larger 0.4855842 -0.17128955 -0.30636153 0.5192262 0.4612533 0.0072075007 -0.15821186 0.14181094 0.18175186 -0.342069 -0.03372266 0.37562773 0.34552807 0.64010584 0.084419735
card 0.52794164 -0.25454336 -0.3889509 0.47192398 0.55319726 -0.08776268 -0.22010206 0.054571886 0.18227792 -0.2783739 -0.025046233 0.3419524 0.27843446 0.6040078 -0.046586227
consistent 0.51049125 -0.18108085 -0.31833574 0.49510607 0.46766075 -0.0030329924 -0.12159782 0.1024776 0.11840417 -0.3194483 -0.011065327 0.32794982 0.4456317 0.64462596 0.111375004
profile 0.46701533 -0.21476507 -0.37804306 0.52542454 0.53409624 0.017188111 -0.13724777 0.078475185 0.22492553 -0.3758568 -0.046502184 0.3478448 0.46677175 0.60757947 0.1782108
easier 0.44651514 -0.2407716 -0.5494468 0.41671845 0.49738345 -0.12584895 -0.14537287 0.07582149 0.07354239 -0.3026867 0.13375044 0.6343147 0.49466538 0.65329117 0.033770476
yield 0.5004756 -0.24773489 -0.25965807 0.54034436 0.47415233 0.09415925 -0.19964227 0.14316292 0.19206718 -0.33071145 -0.13244815 0.31579277 0.32748163 0.64335966 0.16366264
strong 0.5655327 -0.12140487 -0.28826293 0.54345274 0.4850111 -0.008480848 -0.091189064 0.040610526 0.10370849 -0.3159478 -0.017727902 0.41796893 0.3744107 0.5843644 0.056218542
managing 0.51451045 -0.18308228 -0.3357037 0.5194926 0.48209965 -0.018839985 -0.13125119 0.05138209 0.139963 -0.31085235 -0.045903597 0.35251066 0.3865301 0.6362865 0.12551771
information 0.4475392 -0.21974915 -0.2817292 0.49336803 0.45830747 0.051287502 -0.16015925 0.075775914 0.13285089 -0.32028922 -0.0516181 0.30420786 0.4331092 0.6239014 0.101641335
starting 0.5346919 -0.16594636 -0.26277676 0.5287112 0.50403464 0.07097834 -0.15846525 0.13912646 0.18796037 -0.32068858 -0.10036983 0.3177127 0.35512677 0.6060777 0.1238392
buyback 0.57701653 -0.1422338 -0.24537906 0.5620059 0.47149438 0.01486486 -0.18934093 0.1418974 0.15460177 -0.36430722 -0.07811831 0.3610659 0.40262982 0.5946066 0.11959348
swaps 0.5164987 -0.20796964 -0.24566297 0.5768468 0.46483356 0.056035962 -0.232565 0.14357562 0.2206908 -0.29767627 -0.13889322 0.27070716 0.34948075 0.63128996 0.17682847
gone 0.50994295 -0.21551761 -0.3635908 0.48165733 0.46776676 -0.024613997 -0.12259342 0.08769026 0.11332006 -0.29939538 -0.068482496 0.4344837 0.39510065 0.61345536 0.068180226
clients 0.46812844 -0.12463431 -0.36585933 0.52287626 0.46971747 -0.0107688485 -0.12320938 0.065614864 0.11197672 -0.3532492 -0.035393313 0.4682215 0.4014043 0.62156 0.05192608
generally 0.5124602 -0.23230979 -0.30220187 0.5301516 0.4251111 0.044885524 -0.11057271 0.09718289 0.18815506 -0.3414554 -0.027505323 0.27749288 0.4218625 0.6386516 0.09425185
servicing 0.46815783 -0.182017 -0.3181641 0.51141596 0.49219579 -0.06718022 -0.09447186 0.07205486 0.16790487 -0.31513947 0.044923734 0.4101821 0.44681668 0.65201193 0.06623132
later 0.47863486 -0.14133643 -0.2984562 0.5627269 0.49799132 0.06489421 -0.20565027 0.13493066 0.16037408 -0.37388885 -0.056809794 0.37400758 0.35797268 0.57094485 0.13234806
gets 0.5563323 -0.17629464 -0.30568394 0.49853128 0.4281575 0.05497737 -0.17077719 0.124588 0.13432607 -0.2946565 -0.06530003 0.3866698 0.36941868 0.5619418 0.12956174
production 0.559799 -0.14160652 -0.22363198 0.6163052 0.46469787 0.00078606885 -0.1553734 0.06106511 0.241777 -0.2977982 -0.057348784 0.34519768 0.33470276 0.6009569 0.080583
comment 0.54301876 -0.14899188 -0.3153993 0.5250674 0.44708127 0.047872674 -0.12724793 0.105483994 0.101797715 -0.28206635 -0.056912567 0.38277462 0.3543055 0.6277438 0.1237736
systems 0.500296 -0.15748036 -0.4049287 0.48935184 0.46381798 0.007172937 -0.15933308 0.1298003 0.16668627 -0.3049851 -0.055824425 0.48850977 0.3206599 0.6607599 0.045619637
havent 0.5497743 -0.19548531 -0.27385047 0.5327126 0.4172632 0.04633177 -0.13010703 0.07990241 0.1263359 -0.35739398 -0.058178168 0.37161094 0.3324565 0.63857305 0.104381576
size 0.556216 -0.18355866 -0.3117326 0.58686346 0.4206738 0.07439747 -0.15353319 0.16887455 0.17386168 -0.30727416 -0.08226523 0.34015012 0.38892338 0.57417184 0.12307279
places 0.4880886 -0.14453024 -0.38499433 0.46272728 0.47998247 0.004024169 -0.1594446 0.077024944 0.15345207 -0.275417 0.01263271 0.43366647 0.37915343 0.65690154 0.09679046
together 0.5172329 -0.15310152 -0.30385396 0.5467798 0.4873221 0.04374442 -0.1259559 0.116076626 0.12941292 -0.28264502 -0.07641377 0.4021679 0.4493579 0.5624714 0.066203296
products 0.47428334 -0.16453932 -0.33200333 0.49565777 0.44327676 -0.04894559 -0.15912326 0.07054082 0.115500055 -0.28191093 -0.0027346623 0.4342775 0.47728547 0.6615504 0.043096866
metrics 0.52371114 -0.24929062 -0.29724956 0.49475005 0.49411562 0.016150715 -0.2096367 0.06599314 0.15523487 -0.34228602 -0.07873927 0.35883567 0.36112136 0.64226437 0.059609193
criticized 0.55826163 -0.18751457 -0.33041653 0.5461881 0.4287645 0.008109091 -0.21057895 0.079064526 0.19253427 -0.30907658 -0.11485516 0.32589918 0.3927427 0.58551747 0.10313075
duration 0.5716179 -0.16927391 -0.31495816 0.5495289 0.47862107 0.07905751 -0.19785567 0.08005704 0.15431708 -0.31459638 -0.05894117 0.34390092 0.35614404 0.59066224 0.10210873
pick 0.51274866 -0.1930254 -0.26910806 0.52192575 0.49273616 -0.0030286298 -0.19676915 0.1356219 0.22099915 -0.36471152 -0.09914879 0.2728863 0.38072884 0.6295981 0.160161
respect 0.5033032 -0.21571015 -0.27720234 0.51493925 0.45975155 0.042815126 -0.16063154 0.07855916 0.17770527 -0.354514 -0.019080525 0.31842268 0.4137858 0.6486814 0.0923465
activity 0.56060916 -0.19196486 -0.2774032 0.5280353 0.513989 0.03355465 -0.13511083 0.108898744 0.16401748 -0.33574817 -0.030832777 0.35644782 0.32296458 0.57737434 0.07834999
consistently 0.46390843 -0.21467586 -0.3153587 0.43343672 0.46600136 -0.0005032913 -0.17169778 0.062251788 0.122547686 -0.2818713 -0.0033018081 0.38853326 0.40038872 0.63872206 0.077315584
investing 0.50787836 -0.19856903 -0.40877366 0.46359023 0.44821042 -0.025858605 -0.1782575 0.10261867 0.13188952 -0.35391963 0.00918134 0.3855561 0.45420748 0.6397263 0.09637765
confidence 0.5135984 -0.17032322 -0.29794744 0.56129897 0.46264374 0.0022839443 -0.19323191 0.15982391 0.17877336 -0.37083185 -0.062303644 0.38504025 0.37296402 0.57048887 0.107060686
giving 0.5366212 -0.214261 -0.26748377 0.59086394 0.48776188 0.025693916 -0.20030074 0.1629136 0.1684979 -0.33970043 -0.052465186 0.32535365 0.38572162 0.61888605 0.14308536
grew 0.6483454 -0.19403748 -0.27844363 0.5242978 0.563202 -0.05661634 -0.1960334 0.07850718 0.24223332 -0.28972948 -0.04452727 0.3134971 0.27257407 0.60325325 -0.0009432389
enough 0.5240219 -0.17716278 -0.26474378 0.54049706 0.47012112 0.03591482 -0.17537445 0.12822714 0.09387099 -0.32929134 -0.08525396 0.39463577 0.3068016 0.5583945 0.048969794
five 0.58167243 -0.18820515 -0.34346125 0.5176214 0.41093877 0.013075862 -0.13473932 0.18739544 0.19642109 -0.32347453 -0.10830259 0.47719827 0.33609957 0.59910893 0.09995097
digit 0.5571318 -0.15826829 -0.23748776 0.53345865 0.51000184 0.06337112 -0.20513225 0.16640091 0.24555047 -0.294503 -0.1345313 0.27402422 0.3666305 0.59305376 0.12766741
challenge 0.56042415 -0.19134031 -0.30856442 0.51428 0.4670504 0.059002142 -0.14724128 0.10751993 0.16844629 -0.2972042 -0.020515298 0.27258068 0.42965603 0.6058561 0.107265435
deron 0.5597127 -0.109616704 -0.255656 0.64197975 0.46466094 0.10235831 -0.23496321 0.1615629 0.17982388 -0.33406177 -0.13489182 0.36235297 0.2439008 0.5683664 0.08384041
acquisition 0.46612918 -0.19248408 -0.36680716 0.5064107 0.4881854 -0.004726382 -0.13081387 0.08346753 0.18021928 -0.32163122 -0.037501663 0.3561291 0.41873902 0.61110425 0.067539245
corp 0.5518654 -0.1600601 -0.27376112 0.5702811 0.36164004 0.04787123 -0.03342736 -0.00605021 0.12220719 -0.35765603 -0.006523391 0.39459318 0.42232504 0.58687985 0.16854846
sustainable 0.46337584 -0.14619592 -0.290015 0.4826477 0.47840655 0.037477788 -0.153102 0.037517194 0.15075779 -0.3456435 -0.0471264 0.33689025 0.3885711 0.620361 0.054476734
running 0.4935947 -0.13174221 -0.24890183 0.55273026 0.47120938 0.0552759 -0.19555911 0.14399137 0.18765225 -0.34227848 -0.07683367 0.32602957 0.4062388 0.60164106 0.15437576
case 0.465441 -0.15492685 -0.2734433 0.5139883 0.4132165 0.005144125 -0.20041382 0.13378686 0.18312031 -0.38124794 -0.053850465 0.31841373 0.37573534 0.62340593 0.12041555
forecast 0.5269305 -0.1817036 -0.31359056 0.51187783 0.4758439 0.051351428 -0.14462005 0.19464837 0.20304465 -0.3291897 -0.090712614 0.32674992 0.3631359 0.6348357 0.118508734
putting 0.5591454 -0.10213536 -0.30961493 0.5222725 0.4517032 0.083328724 -0.14237063 0.11990321 0.10542681 -0.34699348 -0.019476105 0.41250324 0.40708455 0.5701047 0.087023295
benefits 0.5851067 -0.18516052 -0.2695193 0.53490555 0.5114463 -0.023949433 -0.1426195 0.121110044 0.17768495 -0.3118844 -0.011538447 0.33732378 0.34772077 0.62929434 0.12819089
betsy 0.47664586 -0.15057921 -0.22495587 0.56676185 0.3697561 0.08673313 -0.12144265 0.10520692 0.10924933 -0.31980443 -0.055270717 0.41222414 0.30882573 0.56893265 0.06478336
pace 0.57648516 -0.19239737 -0.25247982 0.5133615 0.52509856 0.03306706 -0.17593879 0.13360798 0.23863013 -0.34141016 -0.06989281 0.35132632 0.32667384 0.5941527 0.12967195
expected 0.57864165 -0.19360647 -0.25873494 0.5516686 0.49302846 0.04397149 -0.18924867 0.14891525 0.22110605 -0.36521658 -0.08678917 0.37357774 0.3016083 0.5848217 0.0654751
fair 0.5205747 -0.14667377 -0.27164903 0.52294844 0.44409752 0.045383066 -0.14107144 0.13171902 0.13910419 -0.27757558 -0.07776093 0.4007944 0.41056025 0.59748715 0.13146952
model 0.46954426 -0.16798203 -0.32821178 0.51242465 0.40300304 0.04657357 -0.16902128 0.10193404 0.19650064 -0.29434857 -0.10249964 0.3578841 0.38055578 0.6272837 0.07708257
seems 0.5625855 -0.1663745 -0.30019793 0.61754805 0.45855483 0.06910307 -0.16031714 0.14566012 0.17329411 -0.34171027 -0.13356264 0.35395473 0.32700127 0.61282295 0.1252099
makes 0.5534508 -0.22613834 -0.34333062 0.5041624 0.4497723 0.036179222 -0.17836754 0.105337545 0.15515284 -0.32350525 -0.07703413 0.34937876 0.3602397 0.6056295 0.10400734
preferred 0.47057354 -0.18164334 -0.34769595 0.4771881 0.4413786 0.0016850268 -0.13424815 0.13053851 0.1157859 -0.41132915 -0.036608767 0.35852972 0.51704746 0.5485663 0.080423556
expensive 0.50061136 -0.19061337 -0.3696545 0.4931702 0.52619857 0.028574323 -0.15422884 0.124029756 0.12183021 -0.36286446 -0.030585207 0.31763226 0.41754282 0.56895334 0.08497623
closer 0.4838131 -0.22461711 -0.21650818 0.48207974 0.47315654 0.057588458 -0.22055867 0.15088718 0.2946378 -0.44247532 -0.09345862 0.21371105 0.4553063 0.5938504 0.20503263
several 0.5176849 -0.21173982 -0.3649863 0.5148199 0.46005923 -0.036562614 -0.16494425 0.13385767 0.16979222 -0.30200636 -0.03601114 0.41104487 0.33347014 0.6263279 0.043114197
bigger 0.5488698 -0.17291503 -0.23254143 0.54122984 0.45492643 0.079188235 -0.1534982 0.15906894 0.12037284 -0.31196496 -0.057537068 0.3469365 0.3454083 0.6134735 0.10873899
shared 0.46557635 -0.15618593 -0.304765 0.5115622 0.43504414 0.015170551 -0.13414502 0.058669567 0.10523521 -0.3378115 -0.046317816 0.42210677 0.3962098 0.61272675 0.12264123
laid 0.54727215 -0.18518241 -0.31054768 0.5701968 0.4260653 0.026992561 -0.14283867 0.19299269 0.16502957 -0.3421443 -0.055156134 0.31159016 0.39240202 0.5749714 0.1758225
large 0.53527945 -0.19354051 -0.3338274 0.5301797 0.4831239 0.005032798 -0.12746388 0.108310856 0.14945742 -0.30737376 -0.035282902 0.394703 0.3681664 0.6407917 0.06832727
stock 0.5250047 -0.22303681 -0.3156121 0.47258547 0.5086181 0.010349212 -0.19955558 0.1460928 0.11013203 -0.31765613 -0.046720088 0.403035 0.43526232 0.6142101 0.1041385
client 0.42601717 -0.2214761 -0.34723726 0.49091774 0.5258081 -0.036884062 -0.12665673 0.05933794 0.11594937 -0.2755835 0.010245208 0.3890309 0.37795234 0.65312845 0.10432296
allow 0.5627343 -0.18961933 -0.333996 0.43741426 0.47468653 0.043305077 -0.12719116 0.042921018 0.17106354 -0.32081187 -0.01178665 0.2949566 0.4342222 0.7022638 0.100042
form 0.5407527 -0.18333472 -0.29110202 0.47413296 0.46866822 0.021347696 -0.15955141 0.08339292 0.15736301 -0.31670183 -0.069034226 0.32825577 0.44837788 0.6018558 0.11400005
callstreet 0.2921565 -0.3152405 -0.27917394 0.5711645 0.2462941 -0.042062994 0.057525363 0.022340054 0.1822649 -0.37672418 0.048048474 0.3475526 0.46752626 0.70801866 0.17936395
product 0.5101728 -0.24452281 -0.31845656 0.47986627 0.43072224 0.01591635 -0.16006958 0.07754148 0.19210686 -0.3600746 -0.0036794792 0.32872608 0.41089693 0.6489156 0.14195317
trade 0.5433489 -0.22732925 -0.30520615 0.52010685 0.48905563 -0.0011482928 -0.18977916 0.0966079 0.14042175 -0.36065614 -0.07069766 0.33333486 0.38199896 0.5630784 0.06110631
takes 0.5682115 -0.17248538 -0.2957344 0.5862967 0.4040026 0.02832637 -0.16669668 0.09841908 0.12346719 -0.32950765 -0.058154486 0.35610116 0.36991996 0.5971205 0.07283893
transactions 0.5465415 -0.22197737 -0.3164266 0.5445662 0.43704417 0.0155516965 -0.16641569 0.08041388 0.15929838 -0.29028854 0.001958849 0.3324704 0.44449335 0.6067739 0.07802662
open 0.5279728 -0.17690071 -0.27921262 0.53578866 0.4115253 0.057148512 -0.14450862 0.10265109 0.14625028 -0.334743 -0.08992335 0.45558646 0.40498838 0.5960662 0.09910094
channel 0.5118587 -0.11450115 -0.32422826 0.48513338 0.38881502 0.030534727 -0.17607489 0.052239485 0.10717778 -0.3019404 0.011993893 0.49793056 0.38627827 0.6823655 0.005669992
small 0.52446115 -0.20133826 -0.37377137 0.4676702 0.526965 -0.040109053 -0.13587141 0.059683695 0.13351128 -0.31986395 0.04255346 0.46159402 0.4211829 0.6134579 -0.0057492442
pipelines 0.5893722 -0.08891205 -0.23547386 0.5779577 0.51427275 -0.03551662 -0.15418713 0.05979418 0.20133436 -0.3225411 -0.09630019 0.36402106 0.26101598 0.5947891 0.07541698
happens 0.4941588 -0.18894044 -0.3239123 0.55317295 0.5270817 0.018169537 -0.1509753 0.13490611 0.1571929 -0.28982833 -0.047277797 0.35063902 0.41187844 0.611061 0.11672867
effectively 0.49427488 -0.17369062 -0.36562395 0.51252437 0.43311805 -0.009953246 -0.16627213 0.11576926 0.16596542 -0.30665976 -0.034992326 0.39974856 0.43177065 0.5738451 0.1216116
sector 0.54258776 -0.186188 -0.33119214 0.48600915 0.3987642 -0.0013504863 -0.15108234 0.062030137 0.10971113 -0.323911 -0.087118015 0.34414905 0.38527733 0.62452555 0.06280394
derisking 0.52811503 -0.16042158 -0.287259 0.5130696 0.45767638 -0.006708125 -0.1518404 0.08971844 0.120825514 -0.35535124 0.00060094905 0.37950292 0.41068792 0.5947497 0.08700892
balances 0.5570056 -0.23923649 -0.3128338 0.5207033 0.51356345 0.0016938541 -0.14232425 0.094365634 0.16961068 -0.30651328 -0.083224036 0.3301074 0.31903154 0.6020835 0.00041077923
fund 0.5339715 -0.19467026 -0.3212641 0.48847297 0.5630413 0.008778285 -0.1886948 0.08611531 0.18041244 -0.29256743 -0.044220082 0.3273221 0.33242452 0.6329337 0.06215725
funding 0.63436884 -0.243877 -0.23186767 0.4778534 0.5066552 0.029437212 -0.14798388 0.07541315 0.18189272 -0.34787568 -0.039008763 0.24818084 0.39441013 0.6635929 0.07888498
