2711 20
think -0.14159927 -0.44308317 0.17882805 -0.3270019 -0.004702611 0.3797356 0.30264232 -0.56759864 0.19646022 -0.24868953 0.17305078 -0.43790233 0.19595054 0.23180199 -0.088866055 0.4437832 -0.4199034 -0.42203164 -0.20241971 -0.57003254
us -0.07796421 -0.36719066 0.2728652 -0.33298758 0.13222922 0.21042654 0.33467504 -0.5257204 0.24605304 -0.26420766 0.09088722 -0.3634954 0.40669242 0.2163754 0.010926054 0.4140109 -0.30938005 -0.21888004 -0.36901608 -0.75964147
good 0.21364093 0.2067104 0.021769255 -0.7619846 -0.1707959 -0.10665115 0.38468271 -0.54100376 1.1806903 -0.20036788 0.39208558 -0.4134703 -0.24031413 0.41900092 -0.101151556 -0.21673326 -1.0180105 -0.2819184 -0.39529884 -0.88706744
going -0.059544437 -0.2855635 0.19485915 -0.18386167 -0.008956108 0.57722473 0.27615842 -0.6964257 0.30855408 -0.2510323 0.18157153 -0.52079046 0.25769037 0.2828984 -0.017891923 0.5376854 -0.25868985 -0.502513 -0.07802428 -0.45085526
weve -0.10655357 -0.32298252 0.15668903 -0.46351683 0.08932505 0.10086989 0.20999563 -0.5101738 0.17880102 -0.3892201 0.34200212 -0.5236872 0.25116757 0.27164453 -0.2846231 0.34634328 -0.41789234 -0.2800785 -0.08195092 -0.6238491
growth -0.1996734 -0.31142738 0.261232 -0.5020374 0.2821102 0.29825744 0.31493604 -0.5366605 0.5785079 -0.001497149 -0.14306527 -0.54916847 0.47545952 -0.016489312 0.14093822 0.45507094 0.00062214833 -0.24152485 -0.63777083 -0.6967414
well -0.15863878 -0.3399831 0.18823351 -0.35157984 0.02769766 0.28586945 0.28703544 -0.4994823 0.12879628 -0.29364687 0.24464919 -0.5541231 0.21905045 0.19991443 -0.14575228 0.4014517 -0.32234168 -0.36912742 -0.15983623 -0.6197737
year -0.08667265 -0.058969643 0.09196777 -0.26688388 0.22263505 0.7070675 0.23470204 -0.81177044 0.24745893 -0.3142972 0.28048772 -0.65201813 0.302387 0.09881316 -0.11410536 0.6664888 -0.111508965 -0.49827787 -0.19381179 -0.35111392
thats -0.060518734 -0.33714554 0.06512092 -0.21374872 0.107800476 0.30777085 0.24809901 -0.6163581 0.27370664 -0.4191177 0.2600245 -0.46210858 0.31185666 0.16997959 -0.21958944 0.44935137 -0.27979836 -0.30931613 -0.1862842 -0.5929734
would -0.020138536 -0.32522327 0.13255833 -0.3786686 0.038110293 0.30315816 0.18323341 -0.5722751 0.35893744 -0.40359908 0.21501453 -0.5739837 0.3661617 0.19693685 -0.042460904 0.29282078 -0.34816688 -0.49744523 0.015678342 -0.50405157
really -0.11799074 -0.4252577 0.18601869 -0.3812348 0.021393368 0.14974685 0.2038743 -0.31598756 0.31643486 -0.3433884 0.25769573 -0.5483308 0.31440836 0.15974292 -0.22688907 0.37704244 -0.39815056 -0.30783823 -0.18732132 -0.6811508
see -0.12926148 -0.26501134 0.2522474 -0.31038615 0.07992498 0.3464798 0.25553483 -0.55114585 0.2614115 -0.27435735 0.061059203 -0.5940359 0.40619224 0.14051515 -0.06995504 0.42782825 -0.2618085 -0.38260105 -0.2503871 -0.5764919
get -0.08229847 -0.24234757 0.056091778 -0.28529158 0.0833766 0.43076023 0.2639902 -0.6641115 0.113463014 -0.4114224 0.23004693 -0.55972457 0.33995065 0.2199048 -0.036942497 0.48636177 -0.36865324 -0.47410667 -0.09197066 -0.450443
business -0.12736453 -0.660994 0.35535955 -0.5181974 -0.028751012 -0.073155895 0.17975272 -0.11545275 0.10685488 -0.32401037 -0.031459115 -0.48237002 0.54221547 0.13617587 -0.23299283 0.26578346 -0.34914684 -0.13070351 -0.3667554 -0.9467634
yeah -0.09772777 -0.33510575 0.013637255 -0.39536378 -0.08087106 0.20879476 0.22314031 -0.4988469 0.48035258 -0.36397243 0.41478783 -0.48029825 0.002429635 0.18424898 -0.06556155 0.33392274 -0.41320878 -0.47139677 -0.088775344 -0.6099977
time -0.11333453 -0.47359037 0.18304779 -0.25859264 -0.04361413 0.3654138 0.1712997 -0.542549 0.25609097 -0.26353925 0.19105679 -0.5337923 0.27221525 0.1995048 -0.1649261 0.4196903 -0.3302444 -0.36968473 -0.21647699 -0.56708866
capital -0.119639784 -0.38691086 0.27122238 -0.44632164 0.05206773 0.11855107 0.41724852 -0.47093192 -0.032584555 -0.27047426 0.20329443 -0.36435732 0.18448159 0.18281983 -0.21686985 0.38730207 -0.609663 -0.26523077 -0.21593297 -0.78408784
quarter -0.46550128 0.016678913 0.16680875 -0.26185927 0.13287106 0.5379031 0.16072018 -0.8700353 0.16537498 -0.1855707 0.27300414 -0.89466876 0.09045632 0.120762415 -0.059863675 0.64170146 -0.08755643 -0.5614958 -0.08124983 -0.43810594
continue -0.02838651 -0.40367475 0.30282956 -0.49818844 -0.020530269 0.07925387 0.36115897 -0.3930809 0.122930616 -0.26510394 0.010436732 -0.40033346 0.4830607 0.20023258 -0.23813258 0.23732711 -0.46792015 -0.22108616 -0.27149218 -0.8477609
little -0.34547246 0.0980865 0.54038066 -0.19091044 0.3559975 0.5399108 0.36177734 -0.8749531 0.5994588 -0.063147254 0.054513387 -0.36041024 0.42200056 0.224173 0.044971492 0.46470955 -0.10776003 -0.5246008 -0.526885 -0.5164539
one -0.14993803 -0.37977502 0.042233784 -0.3916557 0.054193906 0.27355522 0.13897344 -0.4156932 0.26357964 -0.4506179 0.39574525 -0.62646884 0.046402227 0.17034869 -0.19148262 0.5270751 -0.34088856 -0.3580611 -0.043232348 -0.5666536
grow -0.022055533 -0.30963776 0.3379377 -0.6273754 -0.0037074774 0.036219273 0.2672933 -0.5159105 0.20542349 -0.23906173 -0.18101671 -0.17349368 0.6215119 0.22789726 -0.13269459 0.17837359 -0.29168445 -0.3497142 -0.5683894 -0.9930145
loan -0.30843204 -0.41163367 0.2952963 -0.5194536 0.29269007 0.199623 0.36302134 -0.59940463 0.45631304 -0.034129348 -0.1795642 -0.67460907 0.31399193 0.10920929 0.19090556 0.44915384 -0.027348755 -0.12757717 -0.40256736 -0.63147557
right -0.08057447 -0.36005548 0.055774435 -0.33534318 0.06920506 0.20686655 0.19520167 -0.47654217 0.224404 -0.39245328 0.3642702 -0.4903556 0.14246339 0.21165597 -0.19622268 0.42809296 -0.392501 -0.38334543 -0.18463378 -0.6002481
bit -0.14885813 -0.03488405 0.15877374 -0.3756871 0.05947154 0.5209071 0.08287685 -0.7127167 0.49080473 -0.1269841 0.4313379 -0.6256258 0.28640386 0.24555172 0.19212371 0.4199862 -0.1516358 -0.655242 -0.7328026 -0.32209405
dont -0.115007654 -0.4569294 0.20832442 -0.3082823 0.0033641835 0.27604643 0.33834425 -0.50388366 0.18461652 -0.23450363 0.09242035 -0.45724443 0.24579181 0.2421415 -0.064549856 0.37539232 -0.37919033 -0.3285931 -0.23856467 -0.685083
look -0.06906963 -0.38333365 0.021699538 -0.41430882 -0.026600998 0.1924864 0.28467107 -0.38436806 0.2687667 -0.35749865 0.2663472 -0.5181211 0.28814003 0.13393839 -0.19393688 0.38541576 -0.39502326 -0.31887552 -0.12574138 -0.6997416
youre -0.13829485 -0.45528597 0.07739048 -0.19926459 -0.03194662 0.3553784 0.20934509 -0.42745885 0.31927058 -0.23009071 0.23015276 -0.56994575 0.21625948 0.23351625 -0.041588414 0.46336618 -0.3144279 -0.412478 -0.20766562 -0.64289284
lot -0.19000533 -0.51852447 0.18086293 -0.3565841 -0.04391591 0.18213598 0.18017983 -0.33299646 0.2649099 -0.22740069 0.2588771 -0.50910676 0.14901146 0.28541648 -0.12348086 0.4150491 -0.37909293 -0.3146804 -0.20535778 -0.7569303
deposit -0.03020951 -0.2185824 0.20656228 -0.40075263 0.2233226 0.2145413 0.30750594 -0.520662 0.4802066 -0.43963832 0.10684617 -0.6837174 0.76120734 -0.23362514 -0.03373053 0.3480585 -0.046459142 -0.20374884 -0.30739182 -0.58792126
like -0.012433269 -0.3852162 0.07855561 -0.3417332 0.047866438 0.3311412 0.29921407 -0.47009656 0.2815688 -0.32033706 0.27339318 -0.55696225 0.2054127 0.19751284 -0.15814164 0.431637 -0.36095896 -0.41247812 -0.14611933 -0.53960806
morning -0.015925864 0.20760508 -0.15870245 -0.7108523 -0.036850177 0.007224698 0.38244623 -0.63603187 1.2070885 -0.054492045 0.61114186 -0.40335205 -0.30944845 0.18070549 -0.053859893 -0.16435692 -1.001766 -0.2923106 -0.15915383 -0.8177734
rate 0.123731464 -0.23378447 0.5246659 0.062009763 0.13675565 0.73172766 0.09090251 -0.953758 0.3602103 -0.41755956 0.2146903 -0.32996696 0.57209754 0.28257906 -0.013596591 0.54822326 -0.19396816 -0.40319178 -0.2746131 -0.36179668
consumer -0.005030685 -0.7016424 0.39532125 -0.8268859 0.18009281 -0.2715348 0.0374714 0.23795071 0.489245 -0.4007945 -0.1739251 -0.61211544 0.8862309 -0.25423354 -0.21425404 0.28668082 -0.15083015 0.022404417 -0.61572844 -1.1263576
want -0.056792054 -0.37306285 0.22834231 -0.41104373 0.025572063 0.19852933 0.31854644 -0.52083033 0.24254854 -0.23980173 0.07253622 -0.37814763 0.35405183 0.279552 -0.068119474 0.41468713 -0.4088387 -0.32674885 -0.28295192 -0.6556936
markets -0.25371298 -0.5800168 0.20575453 -0.51175094 -0.08095478 0.003739513 0.37399286 -0.18575366 0.13788219 -0.30365443 0.09800603 -0.36374664 0.24829645 0.15449297 -0.2655359 0.291542 -0.55699843 -0.18661594 -0.2069139 -0.95267177
question -0.076654196 -0.14699765 -0.14704631 -0.43424207 -0.10511552 0.23060146 0.18429255 -0.48740223 0.7013909 -0.29760545 0.5937205 -0.48162386 -0.19899787 0.28921795 -0.1238016 0.28802872 -0.51978755 -0.41518018 -0.19349514 -0.7377508
things -0.05939536 -0.4467768 0.055241138 -0.3129318 0.00657009 0.18844926 0.1715342 -0.42065325 0.14247881 -0.39224878 0.26945242 -0.5695358 0.21883935 0.25680134 -0.29542437 0.39156574 -0.41300365 -0.35451365 -0.11887747 -0.6397925
kind -0.09418589 -0.3398254 0.15474641 -0.3091377 0.11788537 0.43005186 0.2070591 -0.6173827 0.38783506 -0.17934915 0.12871021 -0.56022394 0.29031017 0.23295091 -0.017393291 0.5133974 -0.19124945 -0.382857 -0.31055996 -0.5433267
make 0.0127897365 -0.65715957 0.34058008 -0.4324405 -0.17697303 -0.0067425333 0.16296457 -0.17395261 0.0059324102 -0.22584856 0.0018558984 -0.48396814 0.3778345 0.32115218 -0.22526328 0.4794957 -0.50755244 -0.21166599 -0.36774248 -0.85789144
still 0.016913738 -0.34168103 0.22969235 -0.29480794 0.08230903 0.37269092 0.2574638 -0.5691074 0.23813649 -0.30758902 0.14751683 -0.53991693 0.4334275 0.2501189 -0.06349902 0.35240164 -0.36444494 -0.382047 -0.14791511 -0.5163766
customers -0.19994538 -0.7578896 0.1521577 -0.31657484 -0.1333182 -0.037745934 0.21631691 -0.056515526 0.12724751 -0.42314664 0.006233231 -0.4687318 0.36514354 0.19844793 -0.32990968 0.35493648 -0.523266 -0.09251861 -0.21541472 -0.98434424
could -0.07614872 -0.26049036 0.22914134 -0.23521164 0.16314676 0.4316996 0.23124336 -0.6664778 0.40305462 -0.30426237 0.23868407 -0.46104962 0.2694919 0.27986136 0.029725628 0.37817103 -0.28460592 -0.38665545 -0.3707817 -0.4921282
basis 0.25522712 0.616982 -0.56119454 -0.5023562 0.5444132 0.65508103 0.55650896 -1.2009417 -0.050215103 -0.68134683 0.5969643 -1.0815185 0.8355528 -0.27590987 -0.25461322 0.32515025 -0.24748373 -0.6163862 0.30426943 -0.26804632
got -0.02471585 -0.32247934 0.004067139 -0.3778848 -0.0071830503 0.10767666 0.08990405 -0.35741556 0.45474684 -0.37489218 0.47833937 -0.38490286 0.062367562 0.26973385 -0.3064252 0.4058444 -0.37443972 -0.35767788 -0.2266263 -0.765705
back -0.09767773 -0.35912967 0.17227556 -0.3259695 0.050831053 0.2964918 0.2934378 -0.47635135 0.27131733 -0.2955638 0.26146892 -0.5385475 0.19843887 0.23922965 -0.06843697 0.37764466 -0.32599163 -0.4636875 -0.21976157 -0.58525807
much -0.07811621 -0.3222051 0.14551724 -0.35241494 0.09142434 0.18572876 0.2127495 -0.45922127 0.38606104 -0.31913552 0.23114792 -0.44897258 0.270105 0.30176485 -0.11545198 0.38226673 -0.27890897 -0.36384216 -0.24105498 -0.6816655
go -0.062355056 -0.41346785 0.11343403 -0.20842265 0.0076839356 0.44154114 0.24062924 -0.4959116 0.22452283 -0.34547296 0.32241124 -0.5488516 0.24121292 0.21400747 -0.11722149 0.5051921 -0.27919993 -0.4204161 -0.13582096 -0.5587916
side 0.08150649 -0.571601 0.33262292 -0.5660928 0.12752722 -0.17561054 0.07414309 -0.15193775 0.4867228 -0.11290407 -0.14853172 -0.5837142 0.6249532 0.13328227 -0.19886474 0.39027664 0.008454316 -0.051108103 -0.7564154 -1.0532039
years -0.03966999 0.011016578 -0.061219826 -0.19512479 0.14237237 0.69440746 0.22470047 -0.8095734 0.29658446 -0.5112108 0.60800093 -0.78850716 0.08218146 0.1369411 -0.34711784 0.7265529 -0.32323498 -0.5301819 0.0399307 -0.18829463
okay 0.007269163 -0.25563166 -0.0053573786 -0.37420613 -0.012889808 0.13124128 0.15345782 -0.41429397 0.6479612 -0.35134453 0.5803173 -0.35652128 -0.09536296 0.28905088 -0.13841201 0.38429165 -0.3499651 -0.38332495 -0.25722826 -0.7024795
maybe -0.18936399 -0.2060733 0.09961186 -0.30740353 0.05827621 0.43541455 0.2318675 -0.61001205 0.5445198 -0.26438487 0.37782362 -0.53022856 0.11760588 0.236133 0.081204996 0.44374 -0.29098883 -0.45181462 -0.31138903 -0.5071837
point -0.022150218 -0.19625221 -0.055138513 -0.3663925 0.10943826 0.5000334 0.24329755 -0.61461 0.17365433 -0.4258805 0.26406544 -0.65733576 0.32805678 0.07312411 -0.06921819 0.4862153 -0.16989617 -0.47887808 -0.06188651 -0.5384493
last -0.031084415 -0.19953841 0.12387267 -0.22437778 0.09603691 0.42714545 0.1671436 -0.6496036 0.2998096 -0.39741704 0.5733747 -0.6203326 0.1489362 0.09726949 -0.27451944 0.44649014 -0.38771877 -0.4921095 -0.027676675 -0.4319968
thank -0.04632432 -0.20536056 -0.025582809 -0.3669627 -0.031499095 0.08966684 0.16672154 -0.5143225 0.6652021 -0.38283244 0.5849216 -0.29982427 -0.16605061 0.23444937 -0.1324013 0.3339666 -0.43482322 -0.39091176 -0.17870408 -0.79006755
first -0.2401335 -0.040302776 0.13002217 -0.3005187 0.08418375 0.43423602 0.24090216 -0.61882746 0.3581015 -0.261575 0.42213738 -0.65341544 0.10568999 0.1078581 -0.05634379 0.3651266 -0.3251697 -0.5980973 -0.053488612 -0.58147377
two -0.059235107 -0.1718907 0.0173221 -0.28440088 0.11317364 0.42527652 0.24204071 -0.64054596 0.27624395 -0.3718819 0.5659927 -0.6666178 0.116143666 0.13497876 -0.14484383 0.49988452 -0.4168766 -0.44394177 -0.03871692 -0.43767613
john -0.116750054 -0.13159283 -0.056350295 -0.5768014 -0.08095234 0.10994879 0.25779718 -0.47532636 0.64986 -0.28469637 0.44603893 -0.47644565 0.010856476 0.28027454 -0.057892848 0.15511489 -0.5857963 -0.48020378 -0.0420282 -0.69207203
portfolio -0.049153876 -0.47213668 0.24197106 -0.47880313 0.22724888 0.013970341 0.25788873 -0.3123561 0.35357872 -0.2322939 0.11410131 -0.6194226 0.43282673 0.19448116 -0.10016879 0.23740421 -0.25065267 -0.17624885 -0.45287853 -0.6937188
next 0.07819734 0.019953718 0.09568828 -0.13921748 0.2302139 0.7825931 0.22905484 -0.9231134 0.21926714 -0.3999705 0.615214 -0.6834748 0.24724586 0.19315732 -0.24758644 0.6376888 -0.2761776 -0.6493234 0.017043738 -0.16198258
also -0.0078124874 -0.41416174 0.17821051 -0.33209324 0.11093628 0.089834146 0.1826112 -0.42854893 0.16316755 -0.33076307 0.14301093 -0.55657697 0.4121028 0.3043042 -0.20114659 0.36448014 -0.3757281 -0.16388051 -0.26171985 -0.6598269
credit 0.12706548 -0.24659108 0.14091952 -0.48626155 0.07916275 0.040183656 0.26681134 -0.4233357 0.5047122 -0.26394033 0.22352235 -0.56635857 0.38865462 0.20081973 -0.21076599 0.22125693 -0.4959227 -0.069430895 -0.2686576 -0.6537978
loans 0.074032485 -0.34051973 0.16335583 -0.3355522 0.30199674 0.2277893 0.22401538 -0.52190226 0.32282558 -0.32884905 0.0608446 -0.47978616 0.508827 0.23935196 -0.25840738 0.38433424 -0.18666764 -0.14876412 -0.45021558 -0.6943965
need -0.031073665 -0.46940368 0.16652718 -0.32214972 0.049762037 0.28110102 0.36425522 -0.49963352 0.034140196 -0.28618848 0.13341978 -0.49501526 0.2791586 0.23139894 -0.15679245 0.36234275 -0.3868068 -0.32956895 -0.19884749 -0.67314506
terms 0.028383093 -0.2982202 0.14005187 -0.26705205 0.16253339 0.27437758 0.1964238 -0.5584299 0.3123928 -0.27732474 0.19034922 -0.5092567 0.3597481 0.28677616 -0.07805484 0.3771175 -0.26217988 -0.3515329 -0.39947364 -0.6067141
know -0.07404159 -0.36011416 0.11768241 -0.32358232 -0.0060624992 0.3028678 0.23753037 -0.46506295 0.23097686 -0.32582635 0.27319634 -0.58434945 0.14122964 0.25915954 -0.09660961 0.4961672 -0.40412372 -0.36539435 -0.1558493 -0.55819887
rates -0.031455606 -0.2737291 0.23816809 -0.13467959 0.18654922 0.59240943 0.19654363 -0.76543 0.30384618 -0.34528294 0.1991461 -0.5311942 0.44487926 0.28625712 -0.0554857 0.55939925 -0.18877493 -0.38314596 -0.22323142 -0.3300506
revenue -0.04496315 -0.24818465 0.3508452 -0.3669734 0.16452278 0.17950729 0.15730709 -0.6070793 0.21813878 -0.21063094 0.036162656 -0.44817656 0.51844966 0.35979393 0.022490101 0.41103703 -0.25078458 -0.15155724 -0.45628762 -0.73801464
said -0.12526433 -0.28052002 0.03712731 -0.4626959 0.00966308 0.3181897 0.2815861 -0.5172334 0.31446752 -0.26253125 0.2522656 -0.5615693 0.27569005 0.15032195 -0.16935013 0.3216717 -0.34126228 -0.51244247 -0.06440317 -0.5733683
theres -0.11764191 -0.4242409 0.16900139 -0.31140736 -0.012868258 0.28001842 0.19618076 -0.498582 0.23928267 -0.25554556 0.20609735 -0.58285326 0.2158529 0.22741282 -0.09879446 0.35826468 -0.31401435 -0.39073065 -0.16297577 -0.65508467
balance 0.43239385 -0.45584333 0.12723532 -0.25856864 0.47432542 0.24924448 0.047104806 -0.85946894 0.40130115 0.30593377 0.1501948 -0.32802626 0.5012197 0.6794817 -0.24360432 0.43579933 0.14053668 0.051830105 -1.2059803 -0.91998357
risk 0.024931097 -0.40913346 0.19210435 -0.34143418 0.19470273 0.11849955 0.23427846 -0.48645008 0.14833884 -0.31889525 0.09890389 -0.5828511 0.35922876 0.31502 -0.14315984 0.35149413 -0.41879058 -0.21070199 -0.3384822 -0.5990128
technology -0.18148866 -0.6691408 0.13253403 -0.3330787 -0.14919539 0.05496452 0.21231289 -0.25150484 0.03818005 -0.3174685 0.1551305 -0.49922723 0.21440595 0.32706323 -0.22380683 0.3601162 -0.4554017 -0.25300422 -0.19903268 -0.86053324
given -0.11517301 -0.27164504 0.13997602 -0.31448206 0.20037113 0.41440368 0.17254831 -0.61527675 0.22632149 -0.29333895 0.2335284 -0.64816976 0.3917627 0.18562822 -0.040633813 0.46970534 -0.20556664 -0.3892859 -0.1400805 -0.48329782
customer -0.17526267 -0.6509549 0.13787857 -0.39639255 -0.015383518 -0.07608258 0.22931087 -0.02723569 0.2128774 -0.42177647 0.07856826 -0.52905905 0.45975295 0.09755274 -0.26315984 0.3295513 -0.4860691 -0.1557643 -0.18542515 -0.9077936
talk -0.16494143 -0.23471372 0.14601418 -0.31605396 0.12685454 0.25549284 0.23832594 -0.528028 0.52047366 -0.2179059 0.18615353 -0.5280271 0.27960443 0.27192718 0.06516007 0.3736549 -0.33912754 -0.3707522 -0.45142254 -0.53613466
deposits -0.0787449 -0.5262732 0.27548406 -0.70631915 0.14892733 -0.15704514 0.07202921 0.03049173 0.41306546 -0.45812103 -0.06923077 -0.5420432 0.87224346 -0.24486664 -0.302965 0.37427914 -0.13773842 -0.115967385 -0.4481117 -0.973563
give -0.13078977 -0.18409698 0.14194626 -0.3119518 0.0893751 0.329477 0.28232038 -0.6519257 0.4196321 -0.24121836 0.28362674 -0.4795637 0.19812533 0.2515814 0.026938146 0.3709392 -0.33175358 -0.42667922 -0.35709903 -0.6008193
way -0.07909354 -0.40460482 0.116866246 -0.283863 0.033816148 0.27050823 0.2657301 -0.45731595 0.16928045 -0.32380942 0.15085773 -0.5085423 0.33299154 0.26163357 -0.16182487 0.35117358 -0.3588887 -0.32613343 -0.17910905 -0.6821598
today -0.13815759 -0.35025522 0.10849333 -0.2739497 0.06531248 0.38499162 0.21120986 -0.5685038 0.21016566 -0.3044838 0.2926802 -0.5691456 0.2685555 0.2473229 -0.13812198 0.44103122 -0.34832177 -0.38259 -0.15220079 -0.51191884
better -0.13103788 -0.31286848 0.14134622 -0.2991647 0.075567 0.26342276 0.24546428 -0.53241783 0.21281675 -0.28067976 0.15660879 -0.59743696 0.38271233 0.27578017 -0.081984974 0.4440096 -0.27501857 -0.35056067 -0.24418442 -0.5880716
points 0.047659524 0.6376532 -0.5986142 -0.66626906 0.46169975 0.9720565 0.5383746 -1.2894264 -0.17784174 -0.7762222 0.7320168 -1.0315896 0.6929266 -0.105315804 -0.19679621 0.49601048 -0.064365566 -0.5892785 0.4266582 -0.34232864
environment 0.1265657 -0.342947 0.47204223 -0.069349945 0.035644196 0.61382425 0.13842869 -0.7675815 0.37253034 -0.47978976 0.23550816 -0.32860416 0.7038615 0.33424765 0.023659376 0.63124824 -0.27063093 -0.3912265 -0.16348155 -0.24129294
change -0.0060208496 -0.32962686 0.12928276 -0.18160458 0.11941704 0.46178138 0.20997548 -0.6245078 0.094255626 -0.32196367 0.26878864 -0.6336999 0.2583346 0.28567383 -0.12238312 0.41325706 -0.3339561 -0.3143354 -0.17875218 -0.52592045
mentioned -0.10326665 -0.077971615 0.030213628 -0.5039541 0.09590608 0.28770423 0.25941092 -0.48084444 0.38629982 -0.32215688 0.3824441 -0.60966 0.1944682 0.086329766 -0.15853442 0.2972641 -0.3906071 -0.4458642 -0.097042084 -0.67021567
growing 0.03396649 -0.5917991 0.26527336 -0.7269038 0.07488985 -0.13232096 0.049337734 0.0715581 0.44705847 -0.524497 -0.13361831 -0.47023737 0.86360806 -0.19406787 -0.31021753 0.34838754 -0.32980365 -0.121104814 -0.39499336 -0.9638141
david -0.03247528 -0.110282674 -0.115774944 -0.47654036 -0.022309873 0.18591844 0.12904218 -0.50202495 0.5904802 -0.31334427 0.58524626 -0.4190578 -0.010523101 0.25234073 -0.11147925 0.2964357 -0.4140205 -0.4577106 -0.15987946 -0.71974033
number -0.14390871 -0.32231677 0.049364276 -0.29263365 0.052257232 0.26258066 0.20228031 -0.44579846 0.21099664 -0.35104072 0.32949835 -0.6039003 0.17640425 0.17381732 -0.1487699 0.48419413 -0.3208329 -0.34656647 -0.19061467 -0.6653704
market -0.09307235 -0.5068749 0.13511597 -0.27909082 0.0011250195 0.28960314 0.23133604 -0.4200077 0.23208192 -0.2760815 0.1500683 -0.55344045 0.28837028 0.2173826 -0.15337233 0.4552901 -0.27616256 -0.25126654 -0.20412436 -0.66930157
thanks -0.07536198 -0.12877798 -0.017541459 -0.41852587 -0.03489847 0.11088739 0.17167813 -0.5090447 0.7504552 -0.3434497 0.515296 -0.3811907 -0.13064118 0.26883468 -0.11300108 0.23305188 -0.5175154 -0.34725618 -0.20725326 -0.75186586
day -0.15121022 -0.42255527 0.23646215 -0.16950017 -0.06595568 0.54212403 0.08913076 -0.39290774 0.11748222 -0.35088274 0.24078497 -0.8479636 0.10983779 0.24008024 0.07766394 0.63053817 -0.37272224 -0.6203551 -0.012341178 -0.37788016
bank -0.13829334 -0.5041655 0.065330066 -0.36029348 0.049484268 0.15215902 0.20470224 -0.29284447 0.20659432 -0.33330777 0.14097282 -0.5183301 0.36973333 0.22892588 -0.19021744 0.41399178 -0.33132896 -0.21078472 -0.24932623 -0.7398497
say -0.051314022 -0.39721307 0.09612881 -0.34937763 -0.06059239 0.2899381 0.18163238 -0.4711796 0.31353164 -0.33193192 0.2575704 -0.5108873 0.24083515 0.21037582 -0.05365653 0.41287768 -0.39236787 -0.44346747 -0.0039857947 -0.60301155
pretty 0.02908836 -0.19863977 0.22505987 -0.40447158 0.08863017 0.26484647 0.20962444 -0.61879057 0.4896507 -0.22439435 0.22180183 -0.5008157 0.28216928 0.1938603 -0.08410449 0.24703383 -0.51992416 -0.3226382 -0.1469291 -0.612041
real -0.18378969 -0.89254963 0.67068815 -0.48655608 -0.001188312 -0.08053032 0.2021217 0.15056995 0.099358685 0.14359745 0.12734823 -1.053766 0.10991953 0.14532438 0.09006147 0.2181815 -0.4256354 -0.4624292 -0.18605089 -0.9299616
million -0.19606027 -0.35076553 -0.07046905 -0.17605136 0.1099036 0.44148704 0.15318084 -0.5889621 -0.091112554 -0.32754624 0.35009798 -0.5867686 0.17486458 0.09931993 -0.25949886 0.5721921 -0.36437583 -0.5665802 -0.25678515 -0.5938364
part -0.15877222 -0.34912744 0.16130714 -0.34706858 0.023188181 0.23544502 0.20296235 -0.4793428 0.23480476 -0.30891252 0.27703434 -0.5756271 0.29527125 0.19759992 -0.12515636 0.35534176 -0.3685396 -0.3765869 -0.16125932 -0.6336686
expect 0.01115928 -0.22595973 0.21146211 -0.41096336 0.12098229 0.3120697 0.25901815 -0.6068929 0.21130563 -0.30979863 0.15799773 -0.48979524 0.41888508 0.23809034 -0.05865738 0.38766316 -0.30228677 -0.3764703 -0.19657291 -0.57538474
help -0.074639276 -0.32927784 0.20869827 -0.37512612 0.12376121 0.23442185 0.29893667 -0.48893276 0.14762871 -0.31854865 0.144751 -0.43742657 0.46370614 0.2528139 -0.04678644 0.3234341 -0.37283105 -0.22395958 -0.26941618 -0.7048362
guys -0.0085809715 -0.10560217 -0.055788904 -0.45734724 -0.032240834 0.1581582 0.2001206 -0.52378327 0.775542 -0.18709637 0.41995975 -0.49731228 -0.0846225 0.34039217 -0.07226174 0.19729804 -0.56217223 -0.33166713 -0.3460849 -0.70944047
believe -0.0660412 -0.38459215 0.22144783 -0.39241305 0.024873896 0.16795589 0.24692647 -0.40960968 0.17146124 -0.348516 0.08875443 -0.55831236 0.46481192 0.18425597 -0.13498212 0.3288378 -0.42412168 -0.250987 -0.16351002 -0.6699787
opportunities -0.16823678 -0.53992105 0.22328058 -0.43495408 0.010605382 0.09603585 0.35582337 -0.302718 0.08419758 -0.24640006 -0.018207736 -0.48488298 0.3494118 0.18981123 -0.1909884 0.30846247 -0.46018228 -0.24181738 -0.26407966 -0.81105095
take -0.122638576 -0.42368355 0.11157931 -0.30516824 0.0454294 0.26030597 0.33105907 -0.43066004 0.2360955 -0.2960853 0.12362542 -0.5676373 0.2886668 0.22584864 -0.12938444 0.34528458 -0.4371985 -0.19702034 -0.18521377 -0.6574762
put -0.059730627 -0.39683783 0.10689499 -0.27736905 0.15463966 0.3239113 0.2083269 -0.47691232 0.2165336 -0.33440816 0.27173308 -0.57419556 0.33363548 0.2844402 -0.09775535 0.45360717 -0.28718862 -0.33038485 -0.26781654 -0.50691265
im -0.102531426 -0.28381923 0.10314188 -0.23745464 -0.054627277 0.3858542 0.17476343 -0.5307842 0.37860093 -0.25665343 0.35677284 -0.559465 0.12112877 0.21303941 -0.02714175 0.4526321 -0.3524812 -0.45763442 -0.18273652 -0.5564144
sure -0.07639305 -0.46156654 0.12190077 -0.3452152 -0.033381734 0.16612665 0.24575518 -0.37425548 0.16014653 -0.3157768 0.2538372 -0.43662387 0.20049535 0.2953212 -0.24287273 0.49918455 -0.5059871 -0.286616 -0.06556084 -0.71423084
end -0.091135494 -0.26836875 0.24197263 -0.20587152 0.1224638 0.45419118 0.1879036 -0.6280216 0.27084604 -0.28131017 0.23079622 -0.65032417 0.3643396 0.25787237 0.0039161392 0.46793118 -0.22760244 -0.5236893 -0.13629913 -0.43393365
margin 0.056048416 0.08190823 0.20300528 -0.16811912 0.27228564 0.66321474 0.25730634 -0.9850788 0.29263353 -0.33716646 0.27358142 -0.5049228 0.62639695 0.2237316 0.049187776 0.52593744 -0.1476702 -0.43447027 -0.27910456 -0.39816067
looking -0.06412967 -0.48045343 0.21540205 -0.34348994 0.0057512657 0.25752264 0.27385604 -0.3504482 0.21201588 -0.30246103 0.10352649 -0.51904684 0.3531439 0.2100813 -0.14726917 0.4163091 -0.35095516 -0.31578758 -0.22378938 -0.6934645
sheet 0.37047422 -0.33159837 -0.1192497 -0.1407199 0.41937193 0.31237596 -0.05203939 -0.98631567 0.65468985 0.013668371 -0.24986857 -0.5887296 0.52319676 0.646019 -0.23964992 0.5580989 0.22083879 -0.14236405 -1.1699208 -0.6603208
guess -0.069100745 -0.2907082 0.07378755 -0.35987076 0.029089533 0.24865256 0.18178612 -0.5022211 0.44714677 -0.34533295 0.37858126 -0.49294358 0.1068756 0.23121582 -0.09368074 0.37595257 -0.36911634 -0.3804108 -0.18769476 -0.61556
great -0.08902379 -0.3042258 0.002626808 -0.35391635 -0.025808461 0.12714043 0.17621723 -0.38319185 0.50790703 -0.33719304 0.47028944 -0.4103591 -0.021468215 0.23514548 -0.19072132 0.2930409 -0.41541547 -0.37867025 -0.2158265 -0.7711104
couple 0.033496656 -0.06743039 -0.06739701 -0.34567252 0.121567644 0.5179007 0.2758892 -0.74565756 0.3377071 -0.32836694 0.59448683 -0.64870656 0.12614991 0.11233161 -0.24140988 0.41874298 -0.34761888 -0.5092698 0.00085247745 -0.448204
investments -0.08148477 -0.6062431 0.3048747 -0.4436264 -0.08513145 0.049049985 0.2626838 -0.21441692 0.03145434 -0.2874366 -0.033000357 -0.36615643 0.3570639 0.26707977 -0.25140968 0.37291932 -0.58053154 -0.17602858 -0.24882884 -0.96274036
ph -0.065912895 -0.30252007 0.08004033 -0.31350636 0.09715709 0.24139498 0.18459171 -0.5016006 0.32654133 -0.34612206 0.2678054 -0.50140005 0.22506885 0.21434316 -0.098804496 0.36446813 -0.32802555 -0.35169995 -0.28479838 -0.6081029
book 0.025537705 -0.39817187 0.17589946 -0.41596067 0.24861746 0.10999936 0.23491774 -0.46020573 0.40774295 -0.25043693 0.13757133 -0.6043542 0.39585832 0.17671901 -0.13405257 0.2861094 -0.30100334 -0.2954787 -0.3004555 -0.63367087
obviously -0.03475338 -0.2843043 0.16620867 -0.2943876 0.14553736 0.37643412 0.17561637 -0.52326304 0.39499792 -0.3336392 0.26325652 -0.55681545 0.37491104 0.16790688 -0.11423842 0.41832367 -0.28814867 -0.34388813 -0.21638754 -0.5171329
commercial -0.21613313 -0.6613017 0.43324456 -0.527753 0.010241227 -0.08906879 0.20367776 -0.01689893 0.31777924 -0.15037993 -0.017981088 -0.7286378 0.38436377 0.13479806 -0.10631737 0.31493026 -0.27180472 -0.14748882 -0.28617474 -0.92795867
range -0.02721033 -0.113181315 0.0068171197 -0.27247146 0.15874472 0.63097256 0.21973695 -0.83306026 0.15124996 -0.4087839 0.28984556 -0.67302734 0.43690115 0.15826629 -0.07099529 0.53802425 -0.17146826 -0.47781858 -0.0931466 -0.36437854
talked -0.17352691 -0.2917227 0.101998635 -0.35454246 0.06333092 0.22692592 0.16432288 -0.49637893 0.2692361 -0.32622364 0.29255778 -0.5476911 0.1805361 0.25770608 -0.18442081 0.37074673 -0.40034214 -0.413531 -0.2306259 -0.6558266
come -0.059371516 -0.37958306 0.16948825 -0.29751688 0.10760082 0.28504747 0.21764317 -0.45384192 0.21137136 -0.33166826 0.21747056 -0.6047319 0.33244407 0.24981222 -0.16178688 0.407688 -0.3478579 -0.28665188 -0.16125761 -0.5870061
youve -0.036069978 -0.3138487 0.13135071 -0.3262274 0.028428087 0.23798035 0.14290838 -0.4979062 0.39219496 -0.31916246 0.31782097 -0.50686383 0.18894675 0.27942804 -0.17242914 0.36257 -0.38898674 -0.331229 -0.23760548 -0.62978476
opportunity -0.14075743 -0.54691863 0.23313898 -0.3855632 -0.0018790944 0.09843335 0.3141171 -0.3138396 0.22362725 -0.24555513 0.15031677 -0.5460575 0.2676319 0.20164919 -0.1388548 0.3018138 -0.42764825 -0.28147754 -0.259056 -0.7567127
whats -0.04420947 -0.32881877 0.041372843 -0.27119854 0.06730835 0.35944098 0.1522727 -0.58658004 0.2808167 -0.21649443 0.22028425 -0.5776617 0.30222183 0.29163358 -0.12057402 0.4950427 -0.17303729 -0.30103287 -0.36159074 -0.59254164
three 0.11726181 -0.11282879 0.021308785 -0.25881386 0.12939794 0.56798106 0.24669579 -0.7340323 0.22880027 -0.41573986 0.6025221 -0.67520005 0.24634735 0.12606332 -0.20599566 0.5167525 -0.3634714 -0.53918856 0.023327902 -0.3632832
banks -0.21385467 -0.525026 0.09381363 -0.26708385 0.006169064 0.15679665 0.1916356 -0.37474912 0.29629728 -0.31959876 0.24159513 -0.53833 0.16234797 0.27667502 -0.10517872 0.41852412 -0.36293012 -0.294329 -0.2174414 -0.6860955
add -0.04661939 -0.2600987 0.033178717 -0.43236378 0.018607805 0.2778634 0.2994099 -0.5473649 0.24249989 -0.36613083 0.29067418 -0.56094867 0.3437069 0.13434997 -0.1254788 0.34551945 -0.36523625 -0.35848066 -0.049086772 -0.60254633
impact -0.07114342 -0.2452741 0.18118365 -0.3116635 0.09988184 0.3117659 0.2356485 -0.5847551 0.16265653 -0.33897492 0.20866159 -0.6167361 0.38435915 0.20823202 -0.05693099 0.38090172 -0.29315343 -0.38842952 -0.15056013 -0.5752655
forward -0.061231036 -0.33842054 0.06558737 -0.19616117 0.060959272 0.4750913 0.24347232 -0.63208675 0.19410247 -0.33821994 0.24075663 -0.5802803 0.3353603 0.2687843 -0.15250103 0.5146085 -0.26787895 -0.4242182 -0.14657487 -0.4488402
billion -0.0875031 -0.40978965 0.011957461 -0.36955512 0.19280687 0.25324807 0.18393704 -0.5739718 0.3029391 -0.29668826 0.17376739 -0.5874358 0.3136691 0.2577533 -0.19306402 0.5310058 -0.19542605 -0.334173 -0.29329616 -0.5196202
economy -0.057792734 -0.3534475 0.21446061 -0.2962238 0.052257493 0.34408328 0.2515374 -0.46587926 0.28604174 -0.29416466 0.15384631 -0.4977407 0.35278526 0.17006701 -0.10239515 0.3967376 -0.33142674 -0.3916745 -0.21473114 -0.58709145
feel -0.039284926 -0.15022524 0.073022634 -0.5605634 0.12535161 0.12792383 0.29174012 -0.56858706 0.5989067 -0.21900824 0.21198714 -0.51381236 0.2945521 0.16039726 -0.12701568 0.18698776 -0.5759053 -0.22745739 -0.2083076 -0.6847425
banking -0.20051372 -0.76236326 0.3065993 -0.4146631 -0.0696761 -0.1143123 0.22799717 -0.0031387291 0.20812358 -0.33833835 -0.020553853 -0.65675455 0.38742137 0.16549006 -0.19319752 0.32329836 -0.41133553 -0.05308849 -0.22245415 -0.9567661
mortgage -0.12654679 -0.5082 0.31194735 -0.44991916 0.08091726 0.15531787 0.26096 -0.31898847 0.26341942 -0.2448345 0.112201065 -0.61424345 0.31274658 0.19024853 -0.17281072 0.32868436 -0.29193527 -0.21809569 -0.2527971 -0.6959993
might -0.04469203 -0.33313182 0.14891785 -0.25970802 0.10485084 0.31507027 0.24602899 -0.5389499 0.27233502 -0.33010423 0.19267438 -0.5807352 0.30889237 0.2589215 -0.07905899 0.40611556 -0.30334657 -0.33508742 -0.23323588 -0.57591206
second -0.24377854 -0.23216277 0.25342795 -0.33293274 0.13464074 0.35045967 0.2191792 -0.5240302 0.27033973 -0.16038795 0.27439547 -0.67936563 0.1691168 0.15485759 -0.09049841 0.43087944 -0.28459585 -0.47545353 -0.14347565 -0.630527
return -0.011131901 -0.24386501 0.16983286 -0.36421105 0.10700009 0.22236158 0.25239074 -0.6187218 0.13727018 -0.3606106 0.2028939 -0.5281464 0.39596832 0.28143865 -0.15314116 0.38014328 -0.46473977 -0.29858506 -0.13132662 -0.5284072
important -0.09767378 -0.46586677 0.2011526 -0.40594995 0.039614826 0.10065653 0.2622025 -0.3445917 0.21469699 -0.28020975 0.1437149 -0.46090052 0.36778775 0.2166577 -0.16159065 0.34196818 -0.37409317 -0.25683036 -0.27486113 -0.75508213
use -0.14068483 -0.46601456 0.117033005 -0.35506117 0.08290071 0.11182238 0.28373715 -0.40157655 0.16928762 -0.32711294 0.10490205 -0.5420752 0.3552078 0.23283914 -0.123838425 0.38190526 -0.3452603 -0.20395677 -0.18226844 -0.71406007
coming 0.0014153691 -0.23929518 0.16032489 -0.306262 0.18963441 0.4238009 0.18733208 -0.6786883 0.25521013 -0.28622103 0.20651624 -0.608063 0.40413126 0.1666519 -0.04032674 0.43272796 -0.18011524 -0.37678707 -0.2598677 -0.48513678
efficiency -0.037418876 -0.14661665 0.15805994 -0.28799102 0.107430495 0.35311538 0.14564371 -0.6925638 0.26371816 -0.3626376 0.22904943 -0.60312825 0.46029174 0.3518069 -0.11952683 0.41681418 -0.40915546 -0.4565213 -0.063474074 -0.43556732
actually -0.072256856 -0.29213345 0.064162485 -0.3406793 0.045437105 0.21629386 0.17856616 -0.46236026 0.34219968 -0.35099986 0.2755949 -0.5608429 0.24157244 0.23875597 -0.14023884 0.40533167 -0.37696767 -0.32307684 -0.24906698 -0.57974535
even -0.003970724 -0.23964107 0.17531718 -0.3301115 0.16138084 0.3621123 0.26696783 -0.6482545 0.2596343 -0.3839759 0.24366912 -0.5464876 0.43618134 0.24125274 -0.1102617 0.4093479 -0.26167935 -0.3525256 -0.19345963 -0.49892464
interest 0.13405626 -0.18794897 0.44705823 -0.079718865 0.18247811 0.6848729 0.21588676 -0.82236266 0.33385742 -0.36979502 0.20524594 -0.38358158 0.7592198 0.27478945 0.033912685 0.5808232 -0.108080655 -0.41829738 -0.368553 -0.38043597
regions -0.16865596 -0.5019555 0.22156595 -0.31349394 -0.008037573 0.19927241 0.26280627 -0.30679607 0.15326805 -0.2780997 0.1302206 -0.5665529 0.25946814 0.33276808 -0.061310958 0.42928484 -0.37177193 -0.20887846 -0.15875168 -0.7194358
different -0.09670292 -0.4289603 0.13660891 -0.29820618 0.013450353 0.24797507 0.21981744 -0.43862587 0.26259828 -0.36329123 0.22562079 -0.58053845 0.3065195 0.23912275 -0.14494509 0.4040437 -0.3489884 -0.3159504 -0.14615357 -0.63879323
businesses -0.065309726 -0.49611324 0.19877104 -0.40069574 0.062089987 0.10901337 0.18916565 -0.24062388 0.16442144 -0.34639332 0.10440865 -0.47343567 0.4742552 0.21353343 -0.21581535 0.32682246 -0.3723652 -0.22876695 -0.24345377 -0.77701956
start -0.1195619 -0.29585424 0.060487274 -0.30736026 0.016194636 0.31022587 0.24514909 -0.60322905 0.36933857 -0.27381906 0.36849037 -0.5975457 0.14095305 0.16191211 -0.0076681157 0.4194523 -0.30335993 -0.4503847 -0.09242704 -0.53460234
low -0.056929734 -0.24244337 0.26898196 -0.2793357 0.1704296 0.47038525 0.23567308 -0.68041795 0.30922154 -0.3700476 0.15488745 -0.54383487 0.5439909 0.101025544 -0.026158486 0.48913136 -0.21681835 -0.3279341 -0.24741797 -0.42296654
seeing -0.14117989 -0.47248805 0.18127763 -0.3452053 0.051139317 0.17349766 0.18369935 -0.32924217 0.35576242 -0.2833378 0.12783481 -0.5794165 0.3211961 0.15689963 -0.07169644 0.37269637 -0.35017475 -0.23172793 -0.25571543 -0.7110234
theyre -0.10163996 -0.52259856 0.08654241 -0.39049911 -0.018018749 0.16626619 0.21892628 -0.35156748 0.32422948 -0.2994289 0.18553114 -0.48388338 0.24300924 0.22093137 -0.19322315 0.3195095 -0.47650164 -0.2707388 -0.1597275 -0.74866945
level -0.046518352 -0.2045672 0.102043584 -0.3421131 0.1793174 0.35534227 0.29197153 -0.64657503 0.16997226 -0.35165238 0.22074619 -0.5905822 0.33835527 0.19187814 -0.052297544 0.4516439 -0.32485077 -0.3392751 -0.14754769 -0.51406115
higher -0.032459658 -0.2973627 0.24478655 -0.27531624 0.12083149 0.40518734 0.20195855 -0.5486822 0.25118646 -0.34876776 0.21507387 -0.5568373 0.45655537 0.20128456 -0.07878341 0.49502185 -0.25438315 -0.35018516 -0.25742155 -0.47256365
leverage 0.004453359 -0.3772604 0.2596947 -0.27141643 0.10058198 0.23342508 0.23610757 -0.44457436 0.25454593 -0.3256548 0.21655384 -0.4793506 0.45937094 0.32595205 -0.14105676 0.40662986 -0.4350243 -0.20454589 -0.22123453 -0.6299994
lending -0.042993035 -0.5776575 0.24391752 -0.46732333 0.06354786 -0.0036476385 0.19799985 -0.1492176 0.19643444 -0.2899918 0.062729724 -0.6551025 0.45453355 0.21614613 -0.20834343 0.31015077 -0.30842936 -0.20331211 -0.32492533 -0.75228727
done -0.09327164 -0.37347737 0.14280312 -0.37507984 -0.022209495 0.17154667 0.19356138 -0.4156094 0.4050664 -0.3144326 0.3416529 -0.48402473 0.18942624 0.26564938 -0.20770027 0.30903283 -0.4783376 -0.270508 -0.20048934 -0.6780992
peers -0.077423625 -0.36827114 0.16371407 -0.2996136 0.07909508 0.2724093 0.23759475 -0.49202195 0.26020077 -0.3260474 0.12250183 -0.60740423 0.38953754 0.13252668 -0.064118944 0.42035162 -0.30541822 -0.36731556 -0.22402339 -0.5848095
process -0.14731511 -0.32689604 0.17598443 -0.35552981 0.08147452 0.16664998 0.23970847 -0.4044238 0.2088072 -0.34752384 0.22934255 -0.5996344 0.2983525 0.27204534 -0.12712416 0.40328947 -0.34580955 -0.30777633 -0.16359085 -0.60535294
within -0.07892099 -0.39309573 0.19645517 -0.3682872 0.12267221 0.17167395 0.24891175 -0.34680736 0.17658715 -0.27098864 0.1441192 -0.6713838 0.42625767 0.19673565 -0.11505865 0.3107791 -0.3192847 -0.2474876 -0.23177515 -0.6946519
simplify -0.14223552 -0.22856426 0.2822678 -0.42648783 0.07902923 0.11663598 0.31015643 -0.5526035 0.2229319 -0.20055263 0.17380764 -0.34239602 0.3649624 0.25380057 -0.08199181 0.27076903 -0.37000808 -0.4339529 -0.32261577 -0.85282284
ratio -0.018171744 -0.17803603 0.09633086 -0.31065768 0.06871108 0.34690225 0.20487534 -0.76175433 0.21651526 -0.31340954 0.2751063 -0.6223227 0.37857905 0.31046867 -0.10637699 0.43993142 -0.29857272 -0.5024415 -0.028689351 -0.4972409
ill -0.13367492 -0.31335 -0.033007674 -0.3523641 -0.02085924 0.2600306 0.2435847 -0.4942972 0.4133968 -0.2903448 0.41987246 -0.5657756 0.08486216 0.21923426 0.008647455 0.33847374 -0.37272942 -0.46340495 -0.1046838 -0.6286933
something -0.1192031 -0.29584557 0.15470576 -0.23428804 0.06976139 0.33002663 0.23165509 -0.5674208 0.28575337 -0.3325113 0.21910106 -0.57281613 0.2612126 0.21889174 -0.11703934 0.39814678 -0.33496562 -0.4016554 -0.2024077 -0.5367657
around -0.112837635 -0.42196307 0.09909463 -0.35365337 0.049294334 0.19989371 0.18898483 -0.4043238 0.3125003 -0.27641907 0.2277452 -0.55294704 0.28130704 0.18510865 -0.1406614 0.4249475 -0.31475914 -0.34084082 -0.2696616 -0.6440267
cost 0.02857955 -0.17041329 0.027278503 -0.33460128 0.18435694 0.3271211 0.29126054 -0.65171 0.23041633 -0.42881706 0.20073295 -0.6783116 0.5753708 0.02656358 -0.13620542 0.39843214 -0.2330317 -0.37597162 -0.18710674 -0.50384194
increase -0.043098703 -0.2367124 0.2318757 -0.28874457 0.14861399 0.39159635 0.24641648 -0.5537046 0.20700581 -0.31134713 0.23262867 -0.57829493 0.4458463 0.19197959 -0.0854967 0.45160112 -0.24471426 -0.35341385 -0.22908692 -0.5134374
trying -0.07469631 -0.4156468 0.1420103 -0.30995306 0.059397064 0.2652951 0.1866136 -0.4651083 0.20130306 -0.28262857 0.22788168 -0.5086289 0.30452663 0.27222222 -0.12443704 0.40560472 -0.26852316 -0.28226572 -0.27347067 -0.6357033
people -0.07418604 -0.45092648 0.15569662 -0.34030962 -0.0069064815 0.19008458 0.25901368 -0.40314204 0.24536435 -0.2988793 0.15639961 -0.49647 0.30181012 0.2910435 -0.17206462 0.35346642 -0.39577577 -0.25055227 -0.1963887 -0.7219245
based -0.0195817 -0.25602677 0.038511652 -0.3805931 0.18014316 0.29191804 0.30711928 -0.57132506 0.13179007 -0.35404477 0.21601772 -0.5965537 0.30535305 0.21788365 -0.13700798 0.35471746 -0.34861794 -0.26972973 -0.15276478 -0.5820875
quality 0.019340264 -0.29611585 0.10258224 -0.523581 0.1349319 0.105708286 0.2317071 -0.45032835 0.47716063 -0.28276414 0.22334938 -0.55055916 0.40574825 0.16171733 -0.19903241 0.21303335 -0.5085311 -0.22262748 -0.20798625 -0.6529568
versus -0.10923731 -0.4397306 0.14509532 -0.31717107 0.10371978 0.26580474 0.19402981 -0.47325426 0.2298734 -0.29082415 0.10286155 -0.557212 0.3704027 0.23281574 -0.109422944 0.47369912 -0.22246997 -0.25109023 -0.35402724 -0.6559313
expense 0.009948887 -0.32012728 0.24737476 -0.36556754 0.1253862 0.15580739 0.22378531 -0.46338493 0.3316026 -0.2921274 0.12897901 -0.56255436 0.3874443 0.2170352 -0.08068294 0.38590077 -0.32266882 -0.20484136 -0.31753173 -0.6789224
thing -0.114357546 -0.42532775 0.10023891 -0.32887417 0.017019622 0.22117774 0.22874644 -0.3875437 0.25712493 -0.3468434 0.23914734 -0.5001919 0.2451768 0.19191517 -0.15963593 0.37531355 -0.36393192 -0.31568423 -0.15598156 -0.6925839
estate -0.3192448 -0.6842851 0.6536107 -0.5185696 -0.24899328 0.08244627 0.1834684 -0.03975673 0.3168587 -0.055455305 -0.15020262 -1.0226456 0.15294157 0.21799593 0.116774276 0.45353535 -0.30917603 -0.29337445 0.011465103 -0.8716037
focus -0.100323655 -0.47920716 0.20339634 -0.4644926 0.013639622 0.06734427 0.2030163 -0.32591265 0.21603623 -0.29804626 0.1272868 -0.52784294 0.40145418 0.2030231 -0.21915759 0.33663052 -0.38910425 -0.22128886 -0.21724325 -0.74829733
probably -0.13420132 -0.1959669 0.07379686 -0.30456173 0.1514851 0.39372528 0.23714752 -0.5759172 0.18492879 -0.36658934 0.26410678 -0.66427666 0.30929902 0.14984882 -0.13767183 0.42270407 -0.28814736 -0.43703783 -0.09555834 -0.5091061
share -0.09295439 -0.391524 0.12636574 -0.38610247 0.050811104 0.20246835 0.2866721 -0.41750944 0.25782755 -0.24751873 0.18980682 -0.5183207 0.25199434 0.24266133 -0.061392836 0.40484646 -0.3481863 -0.28242105 -0.21621452 -0.69251037
big -0.06705022 -0.37907526 0.13344195 -0.3306909 0.045228515 0.24173392 0.19015144 -0.40628323 0.27183923 -0.35877973 0.19768703 -0.5456031 0.36571804 0.21705219 -0.12922637 0.42870995 -0.33127117 -0.28000236 -0.27246672 -0.66260403
work -0.07837804 -0.38915607 0.12429748 -0.35792032 0.06122289 0.14847997 0.2585673 -0.44750404 0.2572893 -0.3152147 0.19762924 -0.51683366 0.25758466 0.30344963 -0.1893458 0.31584832 -0.4541788 -0.26118097 -0.21365085 -0.68595415
guidance -0.13178279 -0.13753635 0.09640277 -0.28951266 0.13165952 0.5198368 0.25466686 -0.70384556 0.26764032 -0.32870388 0.26627368 -0.6385662 0.37187514 0.15514065 -0.07436276 0.5351305 -0.21004559 -0.47226733 -0.13717125 -0.4166807
seen -0.071026914 -0.39085475 0.1160037 -0.38240415 0.049738538 0.22583818 0.16725443 -0.43455914 0.3250862 -0.30461484 0.21426286 -0.59901994 0.3364914 0.24950781 -0.15478519 0.3281986 -0.36105302 -0.25928956 -0.26554906 -0.60775197
able -0.08493048 -0.3988242 0.22102115 -0.2904167 0.12918793 0.25203902 0.26962715 -0.4971752 0.17757714 -0.34139147 0.14328597 -0.5249888 0.3945536 0.22549662 -0.1339981 0.4100825 -0.35867795 -0.25361684 -0.2601893 -0.645079
net 0.036610972 -0.04229544 0.27427688 -0.15370825 0.27134904 0.56515026 0.25645232 -0.96190464 0.33180308 -0.2441336 0.20122711 -0.44464594 0.6327674 0.21163447 0.0666057 0.62725574 -0.12007078 -0.320836 -0.43006286 -0.48879817
getting -0.054884028 -0.42775986 0.163284 -0.337545 0.044809017 0.18936849 0.20061308 -0.41959423 0.20826462 -0.32776734 0.22111478 -0.5542231 0.3121205 0.221167 -0.18538326 0.41305056 -0.39274386 -0.27513212 -0.2056686 -0.63215715
new -0.09474589 -0.4708325 0.13619386 -0.31104684 0.04302939 0.21241114 0.23241974 -0.37814918 0.1651478 -0.31129128 0.14546019 -0.50431055 0.3298943 0.30911213 -0.2150007 0.39011553 -0.39273244 -0.28335238 -0.23068759 -0.7085729
core -0.02528161 -0.4626614 0.27905646 -0.5694858 0.05402561 0.027841909 0.22319815 -0.1930349 0.359641 -0.3480946 0.0074147014 -0.48547143 0.601764 -0.022937523 -0.20328219 0.3629761 -0.32836848 -0.1950897 -0.32584053 -0.83601314
investor -0.17504364 -0.5008145 0.30496585 -0.41414964 -0.09952487 0.3713488 0.17132041 -0.31056774 0.09950629 -0.23233536 0.26314494 -0.86344856 0.1094085 0.31947014 0.1222814 0.5904448 -0.23885247 -0.56275225 0.08044265 -0.54519093
beta -0.046066698 -0.23677193 0.09231077 -0.31947306 0.082906775 0.338861 0.20023859 -0.5890555 0.35259983 -0.34282103 0.24053286 -0.650011 0.37549466 0.06864642 -0.086810194 0.39810726 -0.23826997 -0.4199965 -0.14327379 -0.54806566
third -0.20851456 -0.18521024 0.20988974 -0.30576226 0.15060948 0.33781764 0.17369047 -0.5508044 0.23441556 -0.19124888 0.26042464 -0.69116396 0.26162478 0.1504827 -0.092731185 0.36728346 -0.33270353 -0.45878804 -0.094799794 -0.6113487
income 0.097230025 -0.22022626 0.3569188 -0.25196442 0.18538292 0.4582166 0.24605027 -0.7658227 0.28613248 -0.24441306 0.11545341 -0.40346277 0.5880429 0.24551784 -0.026333954 0.4817268 -0.1927103 -0.2559192 -0.3929452 -0.52347934
making -0.08178137 -0.5246528 0.29403868 -0.38981524 -0.028655348 0.10871152 0.23970959 -0.29869565 0.16027126 -0.25479418 0.05151787 -0.5134932 0.36861402 0.2837911 -0.13323225 0.34491077 -0.46144697 -0.25976524 -0.34352377 -0.7887301
benefit -0.052630264 -0.28101853 0.17073524 -0.2892396 0.09997339 0.333474 0.21156171 -0.5511488 0.21659696 -0.33017203 0.20025568 -0.60372645 0.40898603 0.22689413 -0.10684657 0.38749638 -0.2919361 -0.324282 -0.19125679 -0.5619455
may -0.035856273 -0.31182832 0.13020845 -0.3239201 0.07125731 0.29056406 0.25324714 -0.48987043 0.26146388 -0.3099035 0.20455582 -0.557843 0.29310638 0.2633688 -0.1267365 0.36165923 -0.4160484 -0.3172465 -0.18952113 -0.57105803
mean -0.07400031 -0.37805513 0.17067695 -0.28108233 0.008927299 0.30359262 0.20889397 -0.483548 0.3130623 -0.3201805 0.29119045 -0.5339227 0.19559264 0.27316967 -0.07658649 0.34811023 -0.3676325 -0.33506703 -0.18888824 -0.5685009
indiscernible -0.07014018 -0.3384484 0.15171967 -0.33765453 0.08063902 0.27842927 0.23760878 -0.4874711 0.2692451 -0.31411576 0.2323148 -0.5447118 0.30270925 0.20694949 -0.12080854 0.3920302 -0.35001078 -0.36805943 -0.17378736 -0.5988155
standpoint -0.051284786 -0.37435758 0.19964328 -0.30702588 0.10083157 0.27782816 0.23935328 -0.4995761 0.27087048 -0.28742108 0.10666172 -0.54634845 0.39971116 0.18636265 -0.08948032 0.4013273 -0.3022345 -0.30584276 -0.2656311 -0.63478166
management 0.005871384 -0.30998352 0.10932772 -0.38070506 0.15580755 0.18644038 0.29380876 -0.45724496 0.14521906 -0.4259063 0.18281417 -0.5827526 0.40424728 0.21916077 -0.13611323 0.28941318 -0.36077693 -0.21628566 -0.11413565 -0.6659716
every -0.08517263 -0.38061768 0.15456499 -0.35469607 0.04180724 0.27279255 0.23364158 -0.4204046 0.24408364 -0.3541392 0.15868892 -0.60714644 0.28050828 0.25874892 -0.10886063 0.40063635 -0.32821652 -0.304439 -0.15470988 -0.60223234
whether -0.042363614 -0.4665236 0.2024724 -0.34535146 0.07540764 0.1572151 0.20457733 -0.28551129 0.18281852 -0.28164902 0.089744546 -0.5634421 0.36211598 0.19800721 -0.118682295 0.37440324 -0.41575724 -0.22909512 -0.2589549 -0.73995817
call -0.060625333 -0.32567042 -0.027438492 -0.29239872 0.066975854 0.2644984 0.21690255 -0.48866454 0.18875343 -0.4015764 0.30899996 -0.6422583 0.2911674 0.28593284 -0.1403756 0.40965363 -0.3446988 -0.31488588 -0.13188747 -0.5537008
across -0.1377584 -0.4588258 0.24246095 -0.39457268 0.026228877 0.10754427 0.24660647 -0.2915483 0.24999635 -0.25941592 0.11221948 -0.5861674 0.3489214 0.21153075 -0.14313221 0.33389434 -0.3930602 -0.22289617 -0.27482778 -0.72751844
indirect -0.13676229 -0.39163786 0.15614697 -0.44591054 0.15469491 0.06515571 0.1530193 -0.29702172 0.31422678 -0.38009143 0.23175775 -0.56663114 0.3738594 0.2017401 -0.18250619 0.33409056 -0.25174102 -0.21048008 -0.29362038 -0.68447524
wanted -0.039749857 -0.21573244 0.05665244 -0.3793301 0.06108772 0.1938289 0.25821754 -0.45509946 0.4438787 -0.2568256 0.31783885 -0.5026938 0.12547708 0.27791542 -0.047082055 0.2873558 -0.44930625 -0.33495042 -0.23343952 -0.619503
assets 0.027577175 -0.30841017 0.20645069 -0.2831962 0.22724508 0.27367404 0.20837899 -0.5948569 0.30426547 -0.2959864 0.08327381 -0.4864185 0.48859105 0.29677045 -0.1459396 0.47261423 -0.2116623 -0.26832357 -0.43023145 -0.589283
plan -0.086444326 -0.3281361 0.1472288 -0.34851637 0.03579194 0.2509729 0.24575438 -0.5051812 0.24618277 -0.2953894 0.24118045 -0.5508722 0.25786173 0.27419296 -0.16929033 0.39044973 -0.43781477 -0.32654122 -0.15190704 -0.56791246
equity -0.062676184 -0.27036312 0.14108443 -0.51507086 0.07438779 0.24603352 0.20070948 -0.71379566 0.08294453 -0.30330458 0.162956 -0.6272094 0.3836812 0.23767039 -0.068779245 0.37614116 -0.42032814 -0.3892212 -0.053338427 -0.39648658
securities 0.033797435 -0.36330563 0.16252165 -0.35922298 0.27133697 0.2594292 0.23016533 -0.5771997 0.3330866 -0.28830707 0.14913249 -0.51180136 0.37665606 0.31191438 -0.15387653 0.348459 -0.22919957 -0.27689737 -0.42578816 -0.5633331
base -0.046160273 -0.46462926 0.2327553 -0.42521852 0.1040158 0.10435577 0.23913686 -0.35901818 0.39591742 -0.31552836 0.05270154 -0.5341009 0.6226706 -0.018966708 -0.18261202 0.36892414 -0.30250913 -0.25325823 -0.32428512 -0.71895516
target -0.08786034 -0.2697898 0.12899867 -0.36321008 0.054061156 0.32414296 0.19123565 -0.56278545 0.18515225 -0.2968105 0.19738784 -0.6096184 0.29050615 0.24826665 -0.120181434 0.45741335 -0.37583053 -0.3948593 -0.085619636 -0.5413479
clearly 0.009716042 -0.3946148 0.23060027 -0.26049677 0.10420019 0.3235507 0.14665091 -0.5133884 0.34708208 -0.25628132 0.19660443 -0.5323471 0.39357266 0.32139903 -0.11588898 0.46153116 -0.2905789 -0.31963715 -0.30554187 -0.53391993
branches -0.084225625 -0.4233086 0.13350423 -0.34384173 0.041198924 0.18458885 0.19753884 -0.3929671 0.21023153 -0.33258185 0.20213185 -0.57860863 0.2534903 0.28308666 -0.192374 0.39352167 -0.402963 -0.24177036 -0.17223527 -0.65441144
digital -0.07358762 -0.53519624 0.14482237 -0.38889718 0.0529041 0.07620177 0.20180209 -0.24185015 0.25759435 -0.3369218 0.17258368 -0.5939506 0.36288175 0.18496999 -0.16124254 0.37997773 -0.38048148 -0.21324505 -0.20666383 -0.7558531
spend -0.1669266 -0.48483 0.065022476 -0.27357963 -0.04528988 0.27054325 0.15238076 -0.43409404 0.21842633 -0.25818446 0.22300926 -0.5487757 0.24363357 0.24837494 -0.19130485 0.45830974 -0.41973913 -0.39080048 -0.18315281 -0.6701251
earlier -0.08011893 -0.26627672 0.07883447 -0.42727488 0.07722681 0.22449754 0.21139829 -0.48512745 0.34160614 -0.3385356 0.3401508 -0.51562124 0.24411702 0.21390857 -0.18709926 0.3745273 -0.3496597 -0.44194475 -0.18053073 -0.6042053
made -0.055240523 -0.374755 0.18869755 -0.37416857 0.051840786 0.20146929 0.20225024 -0.4563738 0.2690282 -0.275757 0.15998542 -0.5051949 0.29724866 0.27223462 -0.1608499 0.37282562 -0.3643137 -0.2568762 -0.3048528 -0.65984106
another -0.06273308 -0.18747325 0.08931863 -0.36048657 0.15130998 0.34439927 0.25484934 -0.5875601 0.19800615 -0.3898909 0.278885 -0.5815649 0.40060523 0.1258167 -0.16390464 0.39861026 -0.3212479 -0.3804037 -0.13163665 -0.5897994
result -0.084065124 -0.39957115 0.17240594 -0.3682253 0.11699443 0.18446091 0.26006222 -0.40929934 0.18507981 -0.3203446 0.12679847 -0.6210552 0.38087526 0.21084745 -0.1255379 0.31052658 -0.352103 -0.22344325 -0.234102 -0.6177471
accounts -0.030438513 -0.62165743 0.22712474 -0.7350736 0.086170405 -0.13929585 0.090649806 0.09278359 0.42021906 -0.49594223 -0.055752307 -0.43275672 0.7901182 -0.10056448 -0.2959554 0.2879593 -0.4263218 -0.13020709 -0.33067966 -0.9588626
cycle -0.014225286 -0.37908605 0.14104538 -0.2618888 0.06667795 0.30272186 0.2510774 -0.5271277 0.26428413 -0.31901073 0.20280789 -0.5612897 0.30765122 0.18430871 -0.109136894 0.37582588 -0.35838902 -0.30316204 -0.18617296 -0.5725901
saw -0.15557006 -0.27487728 0.20064676 -0.3547189 0.11237167 0.29675025 0.2125579 -0.50613785 0.271982 -0.261248 0.17054288 -0.63364166 0.32391196 0.13820633 -0.085541494 0.39716658 -0.28885335 -0.3423778 -0.22117922 -0.6303366
expenses -0.029885551 -0.31890258 0.16318965 -0.38574368 0.023990622 0.19132857 0.20530914 -0.4682233 0.25122893 -0.34395394 0.19819626 -0.54328614 0.36052406 0.26402554 -0.058854304 0.337075 -0.36125112 -0.26420894 -0.23668939 -0.6567057
focused -0.09712606 -0.41067466 0.15792263 -0.37650707 0.006523998 0.17063688 0.20060547 -0.3568513 0.26373607 -0.27869844 0.17654888 -0.5505493 0.29435351 0.25000662 -0.1842897 0.3286884 -0.3770961 -0.2995078 -0.18231317 -0.69048935
returns -0.079725005 -0.3286096 0.10870172 -0.3726634 0.11729158 0.14553784 0.25924098 -0.44629517 0.19764206 -0.36633652 0.1822634 -0.54975736 0.39604682 0.28344384 -0.16230078 0.35930404 -0.38497964 -0.21746355 -0.22419834 -0.5948657
financial -0.18222374 -0.50599104 0.2100013 -0.37673718 0.013514143 0.19421569 0.20074552 -0.27059636 0.1586642 -0.25164253 0.0561499 -0.5722258 0.27938566 0.31140324 -0.050742637 0.37481096 -0.4212404 -0.27748403 -0.18723693 -0.66860133
improve -0.049735837 -0.45143178 0.20475584 -0.39208475 -0.031437587 0.1482468 0.22571982 -0.38996103 0.14990133 -0.31995636 0.092061415 -0.55940485 0.42033672 0.25215754 -0.18306436 0.355048 -0.40552267 -0.27550215 -0.18299977 -0.72107655
capabilities -0.11481695 -0.52851546 0.19795549 -0.3851665 0.043247372 0.08037987 0.24442641 -0.2583437 0.16973202 -0.32826942 0.09003034 -0.46652836 0.3920406 0.22988266 -0.16537896 0.31241873 -0.4656383 -0.2331252 -0.27386716 -0.8182306
improvement -0.12185379 -0.3244184 0.21249305 -0.3391367 0.035761993 0.18753709 0.25563073 -0.4437275 0.22074297 -0.30680117 0.17278501 -0.57683116 0.36164135 0.3353904 -0.08466232 0.36186588 -0.3907579 -0.3273607 -0.18431504 -0.68948436
investment -0.04337056 -0.3803248 0.16181709 -0.36733234 0.07176689 0.23682976 0.21156262 -0.42129079 0.23501177 -0.30559936 0.16881882 -0.5704394 0.3553455 0.22272277 -0.09492324 0.3262941 -0.36658856 -0.28727448 -0.265708 -0.69177425
questions -0.039985366 -0.20111376 0.036387227 -0.35355335 0.045798413 0.2538518 0.23620217 -0.5456364 0.39365882 -0.33716932 0.3410359 -0.5250009 0.0978976 0.22386321 -0.12262628 0.36391163 -0.40520838 -0.3695149 -0.16736862 -0.5902948
let -0.0927292 -0.32443076 0.035255853 -0.34628186 0.034302704 0.30298755 0.21648197 -0.5344232 0.372214 -0.28754205 0.28354022 -0.5799477 0.24272785 0.19224912 -0.036390804 0.41227043 -0.30977428 -0.37770316 -0.1613408 -0.5728391
outlook -0.061410025 -0.3015815 0.18222448 -0.26673853 0.11059896 0.3691452 0.17468548 -0.599451 0.33549207 -0.3244049 0.21302181 -0.5381701 0.32875583 0.23823866 -0.067331515 0.5077622 -0.2737085 -0.3765479 -0.24575841 -0.5039362
common 0.06914997 -0.17668036 0.09829703 -0.55297726 0.12638423 0.3313629 0.16885789 -0.7625827 -0.08181854 -0.4180292 0.16525833 -0.6285031 0.3991756 0.23733726 -0.17022008 0.41368294 -0.5106488 -0.36402473 0.011040345 -0.39491498
fourth -0.20760234 -0.19593836 0.22754003 -0.2915589 0.13471642 0.37160927 0.25522473 -0.5632895 0.2344915 -0.15820462 0.28226963 -0.7069718 0.2681678 0.12500371 -0.037098404 0.4219359 -0.2782255 -0.46492678 -0.1651999 -0.5868681
center -0.108064644 -0.4586984 0.039352864 -0.31458187 0.039862882 0.12323616 0.19512777 -0.3642341 0.22892283 -0.370161 0.26115593 -0.5898314 0.22414723 0.31107837 -0.16998208 0.41233107 -0.41982678 -0.19577898 -0.15743342 -0.71376383
didnt -0.072344005 -0.36440217 0.16619936 -0.3218812 0.06170926 0.3000236 0.21656072 -0.5101055 0.207149 -0.3049871 0.20656478 -0.5879948 0.3407212 0.2437848 -0.13080448 0.37201428 -0.3392069 -0.32652766 -0.17862546 -0.5696834
hi 0.042267565 -0.009844683 0.037380077 -0.44599792 -0.036989275 0.10633771 0.28848022 -0.4837335 0.6645875 -0.22607629 0.33509898 -0.46060324 -0.022686442 0.2929198 -0.063884266 0.11566255 -0.60005134 -0.25282794 -0.2310426 -0.6076797
long -0.06410748 -0.42055055 0.21503271 -0.33133814 0.099375285 0.3054912 0.16555086 -0.4244558 0.20899764 -0.3362773 0.18832514 -0.53779495 0.3975035 0.26065713 -0.16136308 0.40239644 -0.37525618 -0.33246782 -0.27097604 -0.55670726
term 0.0025160124 -0.4272472 0.19291863 -0.31902844 0.14553544 0.20793383 0.17845464 -0.3937164 0.24433878 -0.23250978 0.13066849 -0.5926329 0.3997234 0.27392384 -0.13545497 0.39686286 -0.268682 -0.3008671 -0.33291617 -0.66600907
exposure -0.028374394 -0.389326 0.12505837 -0.3412411 0.14650376 0.19515121 0.20104802 -0.4321275 0.28654084 -0.31444833 0.17578003 -0.596076 0.35146752 0.31760538 -0.1722248 0.37104726 -0.3193774 -0.24540341 -0.2853414 -0.58134764
curve 0.008159863 -0.31409198 0.1994164 -0.2300823 0.12326467 0.4395825 0.23554629 -0.58760357 0.2638945 -0.36569047 0.21206194 -0.5341569 0.4347776 0.29576343 -0.11936026 0.4569282 -0.2996666 -0.3714546 -0.18474507 -0.48438364
operating 0.03737835 -0.47047684 0.27883676 -0.4056237 0.026977167 0.11114143 0.21118392 -0.39867944 0.30405748 -0.39894217 0.082859464 -0.54809797 0.4401156 0.29430798 -0.15997131 0.3541474 -0.32946014 -0.17984827 -0.28470233 -0.6793867
asset -0.0021940048 -0.37095886 0.12324345 -0.3159882 0.115085855 0.23544526 0.21275994 -0.5506276 0.27455035 -0.29919004 0.20466481 -0.5334026 0.33640867 0.2574806 -0.13440453 0.37019038 -0.28461412 -0.2580665 -0.29306948 -0.5935044
particular -0.104575284 -0.38899133 0.18646587 -0.36081302 0.086148925 0.21583694 0.22249414 -0.41920608 0.21917617 -0.32584453 0.16701801 -0.5471066 0.35387596 0.24208367 -0.14017005 0.4007132 -0.34364268 -0.2747836 -0.26003477 -0.6571661
thought -0.04896071 -0.33810216 0.19951065 -0.22058232 0.106165886 0.3972721 0.1948337 -0.5555322 0.27004126 -0.2882431 0.21156864 -0.5715615 0.36060375 0.24337046 -0.083955295 0.46932513 -0.23278974 -0.396419 -0.21309525 -0.5206487
appropriate -0.04968374 -0.40304714 0.17372122 -0.34870437 0.05623932 0.16086197 0.2563906 -0.4923148 0.1800453 -0.30473965 0.1447076 -0.5248226 0.36696273 0.26666623 -0.15799133 0.44092903 -0.42967534 -0.26094887 -0.23631178 -0.65331405
youll -0.12607874 -0.2650412 0.21045719 -0.29720286 0.12539154 0.32670525 0.25844067 -0.53527564 0.20781043 -0.2958814 0.18045089 -0.5584805 0.33925122 0.1944064 -0.08263416 0.4084006 -0.3085347 -0.3964853 -0.25293192 -0.5680106
manage -0.0038929144 -0.4122846 0.19541784 -0.32591695 0.122239225 0.24716361 0.25755078 -0.5276347 0.2654768 -0.27422693 0.119519554 -0.5548041 0.40747175 0.27024186 -0.113551006 0.35343337 -0.31468585 -0.24657105 -0.31325763 -0.6151502
nii -0.043289937 -0.22884625 0.22447778 -0.31956628 0.20967318 0.347162 0.26323318 -0.6778032 0.31523222 -0.27824795 0.10972809 -0.51472145 0.48892084 0.20706743 -0.009979393 0.44223985 -0.23561831 -0.2975284 -0.34749708 -0.58938223
advantage -0.11418526 -0.49449363 0.19531842 -0.31905517 0.013056679 0.15318707 0.27648464 -0.36332604 0.16156702 -0.36058328 0.082023345 -0.57385755 0.4526765 0.18600224 -0.1303797 0.3653183 -0.40146676 -0.25609127 -0.26292947 -0.69936013
lower -0.033619776 -0.25849348 0.17062567 -0.23544645 0.1536299 0.47667992 0.19665395 -0.677249 0.2697652 -0.3831243 0.2688951 -0.59810996 0.39833614 0.23359652 -0.07368377 0.45417416 -0.2708154 -0.4234977 -0.20918417 -0.44570988
industry -0.15276888 -0.44972008 0.20917161 -0.3889697 0.03520179 0.17666873 0.2025615 -0.38037184 0.2533564 -0.24363026 0.13955835 -0.5828115 0.29217413 0.23135108 -0.12347004 0.3674176 -0.3766522 -0.26699898 -0.24099593 -0.6661113
cecl -0.1086308 -0.31884146 0.13917649 -0.33037728 0.044297792 0.2567325 0.18461473 -0.48674855 0.27342215 -0.34857813 0.25869727 -0.59680426 0.24807614 0.22060129 -0.12116124 0.3902347 -0.35106874 -0.35660875 -0.15663393 -0.571188
fed -0.05022094 -0.3381136 0.20181505 -0.27554473 0.078180194 0.33162987 0.19572933 -0.541507 0.23908527 -0.35690075 0.23982465 -0.52874184 0.41924882 0.24175173 -0.08300921 0.45290005 -0.26909527 -0.33892348 -0.2036117 -0.500798
expectations -0.06086452 -0.2660498 0.18684714 -0.31666434 0.11819333 0.34541705 0.23321475 -0.6066318 0.28501132 -0.3004002 0.18791299 -0.6113084 0.34801605 0.23988916 -0.063607484 0.44254607 -0.27396518 -0.37013978 -0.1578859 -0.5355014
past -0.13446917 -0.3169448 0.1440961 -0.31124377 0.10973775 0.31030315 0.21057913 -0.5334883 0.25282454 -0.293144 0.2709848 -0.5886185 0.30595523 0.23774983 -0.10251603 0.3745641 -0.37550446 -0.34510943 -0.17689164 -0.57940316
changes -0.08688267 -0.36416036 0.17692022 -0.30490357 0.05781818 0.22520888 0.25077972 -0.4606569 0.24050139 -0.32396287 0.15371451 -0.5362123 0.3450014 0.29107955 -0.09495468 0.38494727 -0.39549667 -0.29026252 -0.2189598 -0.59554213
yes -0.067158334 -0.39170468 0.12268555 -0.3412417 0.039268885 0.20510305 0.23515515 -0.4335034 0.29707813 -0.3092271 0.22098273 -0.52626246 0.27891463 0.21165283 -0.13017869 0.36672363 -0.38429382 -0.30579206 -0.20738022 -0.6415985
period -0.11902822 -0.34528014 0.14520356 -0.31848553 0.068510145 0.36780503 0.20811129 -0.56172615 0.2824003 -0.30028138 0.26910236 -0.59435683 0.27336013 0.23001672 -0.11501258 0.42478517 -0.3204957 -0.3796609 -0.22558728 -0.48621088
run -0.07078354 -0.36748785 0.13883154 -0.27379087 0.10747367 0.31062716 0.26562575 -0.5337514 0.2241194 -0.33972627 0.23632936 -0.5333284 0.29976732 0.24337977 -0.122177005 0.41293478 -0.36755162 -0.30960226 -0.21767128 -0.5587694
stable -0.04998713 -0.30362883 0.19540657 -0.34794438 0.15419583 0.3067706 0.21811736 -0.5712196 0.2959103 -0.38272017 0.19175683 -0.5310025 0.47850806 0.15981469 -0.089988075 0.40457767 -0.28382495 -0.30071336 -0.23852955 -0.58908415
stay -0.022177808 -0.31542236 0.13387503 -0.34969673 0.06518189 0.32294866 0.22876501 -0.5658086 0.25791895 -0.31649542 0.2302577 -0.5439479 0.34438834 0.2376296 -0.11222939 0.41742054 -0.3648786 -0.34951982 -0.1817998 -0.59547347
area -0.07179472 -0.4154026 0.16255912 -0.3517248 0.058675595 0.18486415 0.23763476 -0.40316412 0.26448494 -0.30579516 0.14806962 -0.566013 0.30157387 0.2490759 -0.12757243 0.36697552 -0.36617374 -0.26541576 -0.19480368 -0.6719836
keep -0.09634135 -0.3907737 0.16327712 -0.28854406 0.09127949 0.22834831 0.25485852 -0.4806908 0.17996189 -0.3274416 0.16081168 -0.5098806 0.35844222 0.24943143 -0.14388962 0.4170088 -0.3263826 -0.27992326 -0.21725729 -0.638597
fairly -0.09550805 -0.3498977 0.15423514 -0.29716778 0.10331544 0.31181693 0.19611344 -0.4972317 0.2040394 -0.3808595 0.22673017 -0.5849764 0.39348564 0.16537508 -0.09983987 0.40130976 -0.27136844 -0.3072416 -0.18854497 -0.5852921
continuing -0.10177697 -0.44757798 0.2490269 -0.40165862 0.07334476 0.1429432 0.2564793 -0.36341774 0.21917918 -0.304076 0.09694716 -0.49358445 0.4425268 0.16379331 -0.20082945 0.3475208 -0.38795355 -0.22048058 -0.29312217 -0.766658
ago -0.016113805 -0.22189632 0.109927416 -0.31273058 0.12576132 0.3563379 0.23867576 -0.5995767 0.23867455 -0.414951 0.38169456 -0.6239815 0.3012252 0.17913142 -0.15857045 0.40673345 -0.3853344 -0.41123858 -0.10542339 -0.4476553
data -0.09736258 -0.3750526 0.12297936 -0.33385265 0.08893525 0.17051388 0.1878832 -0.38529533 0.19745561 -0.36247808 0.18510756 -0.58130604 0.29903212 0.21921691 -0.14417973 0.35679045 -0.368524 -0.27121043 -0.21572086 -0.6404668
less -0.08099492 -0.35768712 0.1609995 -0.29629868 0.085078835 0.32804754 0.20973445 -0.4727428 0.22291192 -0.31531918 0.2159576 -0.6133766 0.2951687 0.22854337 -0.10459953 0.43205822 -0.36126462 -0.32899544 -0.19638693 -0.5912401
program -0.07272953 -0.3412366 0.19959646 -0.30252954 0.09106415 0.24294648 0.20825414 -0.5165694 0.19903457 -0.34064987 0.21198282 -0.50595874 0.35965255 0.2606549 -0.12606838 0.4112958 -0.35428888 -0.31424987 -0.20068341 -0.608095
ask -0.060726557 -0.24047832 0.021958353 -0.36249235 -0.0015735172 0.22224177 0.25043336 -0.49127758 0.48692894 -0.3194854 0.33835417 -0.5113714 0.07188702 0.26656428 -0.07557094 0.31978998 -0.42887852 -0.36671564 -0.19756001 -0.6215794
wealth -0.027327143 -0.48456317 0.24953559 -0.43819547 0.12282357 0.09750829 0.22739975 -0.2763449 0.18808492 -0.3403292 0.1250408 -0.51427317 0.42693985 0.20162326 -0.155498 0.2884091 -0.41254222 -0.16600147 -0.25246546 -0.79059124
initiatives -0.06145012 -0.34028992 0.14220461 -0.34396967 0.06809198 0.21626244 0.2387269 -0.4693185 0.2380502 -0.32619366 0.19466287 -0.54953814 0.27578664 0.27966014 -0.10886443 0.37554306 -0.356161 -0.36940697 -0.19668002 -0.67438847
space -0.09778889 -0.5085238 0.16337784 -0.33900714 0.062280897 0.103518866 0.21503475 -0.28540212 0.1862875 -0.29970938 0.15359123 -0.63509756 0.30933124 0.24120826 -0.17778212 0.40574473 -0.35674042 -0.21902359 -0.19664742 -0.6782565
ability -0.07672145 -0.3364844 0.23087728 -0.35034704 0.09430079 0.2341144 0.22812995 -0.48017564 0.30608615 -0.3056546 0.16662575 -0.56373763 0.38430128 0.21288724 -0.11769015 0.3508425 -0.3685151 -0.30953377 -0.23246971 -0.6036571
gerard -0.01679316 -0.19140369 0.08935401 -0.41177312 -0.0071940986 0.13582857 0.26878715 -0.4489462 0.43824401 -0.27389422 0.25298756 -0.474778 0.1330826 0.27493066 -0.12938584 0.196711 -0.506546 -0.2584213 -0.19908667 -0.61968
months -0.08842339 -0.32682857 0.10016779 -0.2891907 0.10057425 0.3603444 0.19269073 -0.52456945 0.273059 -0.36543423 0.2781922 -0.57700294 0.2779851 0.22294657 -0.11872672 0.4361634 -0.33044413 -0.35260192 -0.14704555 -0.532136
portfolios -0.05526618 -0.3953804 0.15184043 -0.40254226 0.14303392 0.16914122 0.18484382 -0.40829504 0.29966962 -0.33987013 0.17006627 -0.5724612 0.3693674 0.2063972 -0.1422583 0.39695492 -0.30115858 -0.25571606 -0.31236967 -0.64269793
sort -0.08392936 -0.33344945 0.17212273 -0.30851108 0.10946765 0.30032665 0.19193633 -0.5157457 0.24862856 -0.33587915 0.19773625 -0.5399063 0.39983678 0.23278676 -0.08617261 0.3916507 -0.34008893 -0.3192938 -0.2534469 -0.55707705
expectation -0.021270629 -0.18550514 0.09838012 -0.3555564 0.15837823 0.44383505 0.28073785 -0.65300244 0.25620255 -0.3382122 0.28464493 -0.60492855 0.3360398 0.19525748 -0.11773822 0.4388325 -0.2673578 -0.42732722 -0.11984626 -0.4891234
checking -0.07546963 -0.52242535 0.23780344 -0.7495178 0.051070295 -0.09193535 0.099725805 0.0032498678 0.42501858 -0.4851993 -0.049171183 -0.48981053 0.7762672 -0.1546791 -0.3008548 0.32839686 -0.33311102 -0.16702236 -0.34936967 -0.991851
positive -0.017687479 -0.3897375 0.26256955 -0.2750918 0.040240012 0.26296723 0.23626095 -0.44093597 0.27573895 -0.31819126 0.16740014 -0.53679925 0.39068326 0.29749212 -0.12592892 0.43146926 -0.40307313 -0.24046968 -0.23471782 -0.6248414
costs -0.05622059 -0.31133255 0.19135918 -0.33687088 0.15525736 0.22157261 0.2233411 -0.5149993 0.35427463 -0.3423005 0.14338946 -0.59282935 0.5299769 0.07551642 -0.07120997 0.37604514 -0.3046279 -0.32040083 -0.25558642 -0.5596896
money -0.14290847 -0.5237327 0.100554556 -0.3704465 -0.007869097 0.16413255 0.23608603 -0.35555086 0.19915242 -0.31146935 0.20912756 -0.56180245 0.31125182 0.28482223 -0.12130459 0.44557092 -0.41753578 -0.27313057 -0.20198159 -0.70108926
amount -0.07042946 -0.4400718 0.18955068 -0.34844348 0.030623142 0.15137921 0.25166354 -0.4354324 0.24275872 -0.3127284 0.17171551 -0.5107096 0.26491502 0.21651708 -0.1355013 0.36193514 -0.41708434 -0.29860875 -0.22005527 -0.68615913
half -0.13219696 -0.32460746 0.17693256 -0.34818017 0.0834669 0.3327615 0.17101097 -0.49514475 0.28284034 -0.28035983 0.2018875 -0.6469791 0.30563796 0.17662661 -0.11449698 0.42218435 -0.24734415 -0.41649288 -0.19676721 -0.5726043
shareholders -0.030217554 -0.34156057 0.16499296 -0.37371597 0.033966873 0.2258488 0.23040679 -0.5279674 0.15914667 -0.29820254 0.153669 -0.5370685 0.35661945 0.28539035 -0.12924938 0.37260023 -0.40949118 -0.295407 -0.16400962 -0.61996603
branch -0.091773786 -0.41942793 0.1547998 -0.32439852 0.06315459 0.17596945 0.2361169 -0.38110211 0.2329359 -0.32814234 0.20095095 -0.57815874 0.2883605 0.25495738 -0.16949585 0.397817 -0.40435648 -0.25297207 -0.1693154 -0.6461946
tell -0.08261351 -0.40014172 0.1800012 -0.30867705 0.033856545 0.24733591 0.21924342 -0.501614 0.23751654 -0.29447845 0.22381939 -0.5108202 0.27800095 0.24700634 -0.09720001 0.3993859 -0.3528106 -0.36761296 -0.1593018 -0.6241509
relative -0.059279706 -0.26282758 0.12084411 -0.33891815 0.13424255 0.32491523 0.24205987 -0.5376021 0.23755552 -0.3618663 0.21555425 -0.61212367 0.34464392 0.22601861 -0.12263545 0.43799627 -0.31442514 -0.323732 -0.19273925 -0.5338038
q -0.13344648 -0.33411 0.054458134 -0.31923634 0.019673249 0.2033177 0.20566107 -0.4345142 0.33911955 -0.34086996 0.3224904 -0.5300115 0.113798894 0.23678032 -0.101569675 0.45427468 -0.31232536 -0.3134271 -0.2239895 -0.6567038
place -0.074522324 -0.3763424 0.15507877 -0.34049273 0.07060094 0.21092764 0.20082964 -0.49142146 0.26482546 -0.32570884 0.19290279 -0.5390333 0.27643162 0.24463592 -0.1407822 0.38205484 -0.42522722 -0.28407294 -0.20194781 -0.6328976
early -0.12996578 -0.38273203 0.12148305 -0.30147037 0.035811927 0.21098281 0.21952695 -0.41916323 0.29006654 -0.30180287 0.24949613 -0.5749302 0.26103744 0.26809868 -0.14499931 0.35598415 -0.35827824 -0.30179593 -0.20802993 -0.63808525
always -0.07472126 -0.469982 0.16401695 -0.3203329 -0.002186164 0.20475642 0.24793512 -0.38208616 0.22438617 -0.32078153 0.17475319 -0.5314801 0.27374038 0.2410806 -0.18352358 0.4037311 -0.3923596 -0.2951076 -0.22153813 -0.7037804
move -0.041789845 -0.2507026 0.14721017 -0.3367038 0.09646807 0.38155347 0.22300553 -0.5730216 0.26221702 -0.33418125 0.2727727 -0.6239498 0.3317429 0.2374164 -0.06631298 0.4070877 -0.3472674 -0.43145785 -0.15398794 -0.5336768
energy -0.10232049 -0.34138373 0.15586318 -0.32742408 0.11541935 0.18797828 0.23839828 -0.39514765 0.23741406 -0.33124208 0.22171986 -0.58561707 0.2901821 0.28160697 -0.12403892 0.36180508 -0.38132036 -0.27528447 -0.22270618 -0.62045807
barb -0.07773695 -0.23438643 0.015598459 -0.3669843 0.055584416 0.26005375 0.2173909 -0.49789497 0.32879272 -0.34845418 0.34944493 -0.57080024 0.18039468 0.18133542 -0.1053937 0.32208622 -0.32141158 -0.36577883 -0.109504074 -0.59728533
best -0.08404903 -0.41027355 0.15012214 -0.34349236 0.057458416 0.22263631 0.26159704 -0.39687923 0.25380346 -0.31134805 0.21961893 -0.52583134 0.33212924 0.20217991 -0.16791888 0.4161172 -0.36381721 -0.31632802 -0.20659912 -0.6530099
helpful -0.100616924 -0.30637044 0.09906991 -0.3126357 0.09394881 0.17076495 0.15830179 -0.47102886 0.39427528 -0.36574858 0.34107122 -0.4384758 0.1976363 0.22121751 -0.15958136 0.42603683 -0.30623376 -0.33491912 -0.23556037 -0.6735956
thinking -0.041207314 -0.31578907 0.106916964 -0.2902571 0.081660286 0.3068376 0.23671632 -0.5200858 0.32679588 -0.31098115 0.21706437 -0.5388538 0.30920917 0.23758031 -0.11529223 0.36005956 -0.2971724 -0.34048244 -0.26157558 -0.59357065
times -0.08770836 -0.32278746 0.14321505 -0.3708282 0.06763112 0.21293882 0.19012517 -0.45425692 0.31382227 -0.32668522 0.23324342 -0.5101802 0.30323356 0.21247159 -0.10014834 0.40413952 -0.34564605 -0.36041495 -0.2605264 -0.62002164
using -0.11057096 -0.4377866 0.123221576 -0.32874295 0.05031556 0.17650628 0.22810633 -0.35330543 0.20928596 -0.35932732 0.18162702 -0.5461503 0.30954257 0.2969468 -0.19991328 0.37014824 -0.3960321 -0.22735336 -0.19959031 -0.69802374
top -0.10006717 -0.36756125 0.10333403 -0.3272879 0.08396993 0.22801416 0.1953783 -0.43722835 0.20640218 -0.34852478 0.20958361 -0.6067067 0.30092177 0.21308094 -0.128734 0.47470596 -0.35144922 -0.30877402 -0.17405349 -0.62481177
plus -0.0799195 -0.3652419 0.17230192 -0.39695147 0.08785363 0.21541798 0.24420787 -0.49457145 0.2976656 -0.31658968 0.17834081 -0.4975784 0.35011855 0.22170475 -0.079113185 0.38194248 -0.35624164 -0.3456212 -0.32770976 -0.6128257
competitive -0.09190473 -0.45410797 0.18030794 -0.33027923 0.061384622 0.20463935 0.27144635 -0.4166815 0.23893353 -0.30221096 0.089870095 -0.58588904 0.41361564 0.13203724 -0.10671808 0.40417638 -0.3453985 -0.2642511 -0.19875914 -0.67433137
example -0.062030647 -0.45430663 0.16266222 -0.39361852 0.05273189 0.13035789 0.21086362 -0.3827919 0.21129665 -0.32559532 0.17283098 -0.54247904 0.30085635 0.22620143 -0.15476689 0.37985277 -0.3711776 -0.27436063 -0.19377981 -0.686611
numbers -0.09935765 -0.3249085 0.16633023 -0.34634322 0.06634929 0.24901628 0.21551467 -0.492696 0.24501748 -0.3492095 0.19609688 -0.57533044 0.32378986 0.2451451 -0.15553965 0.41003078 -0.3364477 -0.324956 -0.22437963 -0.6168971
already -0.08058709 -0.33218712 0.11198276 -0.33581582 0.09497328 0.25768232 0.2225396 -0.4967142 0.26009074 -0.3302681 0.20311736 -0.5333059 0.3252805 0.23860313 -0.15784362 0.400183 -0.3695368 -0.2949471 -0.21234128 -0.6389451
challenging -0.020588849 -0.33970344 0.2280182 -0.26650754 0.050099194 0.3506983 0.2206086 -0.59401715 0.305701 -0.3308226 0.22694889 -0.5021364 0.3472519 0.29161525 -0.0837103 0.4452965 -0.36440507 -0.31856167 -0.23411621 -0.5635108
potentially -0.02941335 -0.3841818 0.1721355 -0.25277632 0.09295229 0.3148683 0.21310095 -0.46044075 0.23152429 -0.35008132 0.18374956 -0.54971886 0.38372576 0.25814876 -0.06673119 0.43125853 -0.3336183 -0.31918067 -0.2475435 -0.58523136
high -0.04563922 -0.3359179 0.19928072 -0.31310222 0.08974264 0.3013495 0.22412883 -0.5334035 0.25657475 -0.348152 0.18760622 -0.60931104 0.38126516 0.2399794 -0.114693046 0.40665856 -0.36827695 -0.30142525 -0.17380254 -0.59542865
fact -0.109949216 -0.4433047 0.14127587 -0.33952305 0.08721403 0.24266838 0.23231572 -0.41005138 0.25197306 -0.33052966 0.13560623 -0.58187026 0.38356733 0.23268934 -0.11679183 0.4081959 -0.32169616 -0.28659815 -0.19930436 -0.61802644
taking -0.027550453 -0.23412202 0.090405524 -0.37047175 0.027248854 0.18107086 0.20042348 -0.46867052 0.4198818 -0.28201777 0.3016834 -0.5005438 0.13285671 0.27759632 -0.10433325 0.34522247 -0.40883914 -0.3285393 -0.21583273 -0.64376056
wondering -0.096711844 -0.29314613 0.16494383 -0.3027629 0.072237484 0.26507577 0.1991329 -0.511356 0.37787348 -0.2713459 0.24860755 -0.5705761 0.20444115 0.3002445 -0.08063629 0.4093394 -0.32301262 -0.32085213 -0.21552841 -0.6099944
cant -0.075653955 -0.39294606 0.15583031 -0.35605732 0.045916904 0.26235056 0.21894374 -0.48026982 0.25137472 -0.33583686 0.2081849 -0.5166052 0.30637318 0.2457639 -0.11109192 0.39716524 -0.37262633 -0.29939955 -0.19881089 -0.6111525
quite -0.13447674 -0.3167074 0.22139415 -0.296553 0.092585884 0.3115028 0.22233884 -0.4948491 0.26932475 -0.2786488 0.18805908 -0.5756032 0.2749751 0.20827453 -0.10039516 0.3835829 -0.33145 -0.37549302 -0.19369575 -0.5663948
mobile -0.08393517 -0.5059152 0.12218487 -0.2829759 0.03756736 0.11133658 0.22580886 -0.3065416 0.22619578 -0.33615905 0.12958379 -0.600317 0.2998874 0.21917564 -0.17602663 0.41476613 -0.37923867 -0.26223075 -0.19227934 -0.6972503
answer -0.07348808 -0.30782416 0.088277176 -0.3519819 0.08156078 0.23374431 0.24156134 -0.4896757 0.31877327 -0.36063373 0.31838435 -0.5388399 0.24414076 0.18397065 -0.11994778 0.41638994 -0.34646994 -0.38479143 -0.16576304 -0.6199095
account -0.031172706 -0.4827256 0.21561907 -0.5278707 0.10045128 0.085612796 0.19195075 -0.24560888 0.31898716 -0.36562204 0.03788423 -0.4845537 0.4788232 0.09327904 -0.20052706 0.3305456 -0.38180852 -0.18815334 -0.30045545 -0.7888529
working -0.10480936 -0.350999 0.11652257 -0.36683837 0.07700792 0.21286719 0.24049589 -0.443757 0.24595226 -0.31778166 0.2092065 -0.57553315 0.30645058 0.25530756 -0.16431686 0.34646618 -0.38431358 -0.3088966 -0.19636522 -0.6406278
total -0.07014211 -0.3326129 0.14069082 -0.3701466 0.14853382 0.23118393 0.24362484 -0.47184166 0.27163666 -0.3222355 0.18619551 -0.6242634 0.3933182 0.20876233 -0.10102349 0.3792263 -0.27261814 -0.27371642 -0.2549697 -0.5958978
platform -0.051614985 -0.4394037 0.11955057 -0.32093576 0.081224956 0.1918103 0.17519678 -0.40370888 0.22514798 -0.3655598 0.20545903 -0.55287874 0.2744966 0.21575867 -0.20174734 0.3702312 -0.38452998 -0.23991235 -0.22286654 -0.7028353
roughly -0.02992701 -0.30886215 0.11789925 -0.30587214 0.1324898 0.33694708 0.2320274 -0.59093267 0.24037139 -0.3321685 0.26068497 -0.5793224 0.32344082 0.27526668 -0.17007162 0.44162214 -0.27466756 -0.3410322 -0.26651323 -0.5541868
significant -0.057112098 -0.38985026 0.2240621 -0.37732598 0.03831319 0.19079688 0.2517833 -0.41877818 0.23405482 -0.341753 0.1659794 -0.5464103 0.32405207 0.24565358 -0.14565846 0.348633 -0.41451317 -0.29376614 -0.23144837 -0.6731059
ccar -0.07619886 -0.3163785 0.13446118 -0.32947686 0.10904825 0.2955202 0.25663307 -0.5217432 0.22167642 -0.32916197 0.2367643 -0.55441535 0.2394207 0.23928529 -0.1131176 0.40626347 -0.38350457 -0.33432403 -0.16623026 -0.56129175
franchise -0.05265131 -0.48723528 0.21358901 -0.41385633 0.023580186 0.17475894 0.21298116 -0.3679041 0.26871282 -0.34201452 0.10592827 -0.5540286 0.42240232 0.15887012 -0.12992223 0.3550219 -0.38714147 -0.3043816 -0.20990993 -0.71205986
happen -0.06789532 -0.3131034 0.1407173 -0.36036426 0.06796928 0.2657537 0.23297037 -0.504291 0.2557609 -0.29813993 0.24734043 -0.5711481 0.31352776 0.20780014 -0.11131919 0.43002406 -0.33042276 -0.3575099 -0.17477244 -0.5809274
flat -0.026222475 -0.29422733 0.22180383 -0.29720783 0.12976302 0.42469978 0.19665134 -0.59052 0.31307605 -0.3841708 0.2646599 -0.5252148 0.43249232 0.25003365 -0.08567929 0.430124 -0.26166868 -0.34826952 -0.2657092 -0.5492009
strategy -0.05627244 -0.36235052 0.13363945 -0.3490629 0.030512286 0.19639547 0.20627056 -0.46344057 0.27986872 -0.31121576 0.20373666 -0.47195196 0.2998192 0.26582146 -0.113409616 0.34902006 -0.3662213 -0.3428623 -0.2685731 -0.69213516
hard -0.033712383 -0.37727642 0.1876999 -0.33803323 0.08298997 0.26136878 0.19078003 -0.47887272 0.22154623 -0.32400528 0.18729556 -0.5556618 0.3660603 0.25760347 -0.11567875 0.39550003 -0.36622712 -0.28405008 -0.19780092 -0.6583843
job -0.08560329 -0.29969704 0.14725956 -0.43812394 0.02557084 0.13841952 0.22023128 -0.4272767 0.41733867 -0.27531555 0.21307011 -0.51165813 0.2705564 0.1926273 -0.12598518 0.24378622 -0.48656014 -0.22763734 -0.17219839 -0.7362523
targets -0.059463397 -0.3569102 0.22875461 -0.29803798 0.05804403 0.23922394 0.20211408 -0.50169724 0.23303781 -0.32239458 0.19410384 -0.58898383 0.34642953 0.25845596 -0.09289115 0.4149309 -0.34456015 -0.3105436 -0.17849857 -0.60114247
tier -0.0075067305 -0.2634578 0.1188621 -0.48225558 0.10301336 0.274125 0.2101446 -0.64930356 0.025453253 -0.32069927 0.18557669 -0.6269169 0.3722329 0.22500087 -0.12708604 0.42682856 -0.45318505 -0.34568664 -0.010251584 -0.5031493
runoff -0.12593184 -0.32562077 0.1299397 -0.374945 0.13398874 0.21267821 0.2133581 -0.41861084 0.24346101 -0.33599222 0.18838288 -0.61790043 0.4145887 0.1948429 -0.11993948 0.37665784 -0.24494289 -0.24852374 -0.30000225 -0.6590048
far -0.08957189 -0.34043813 0.12655781 -0.30431333 0.07008568 0.28516567 0.17416146 -0.51359665 0.26274145 -0.30398214 0.21985945 -0.58516103 0.30796325 0.22915772 -0.1563784 0.4281873 -0.3591476 -0.3495318 -0.20107755 -0.5782615
mix 0.0017068516 -0.4375325 0.16746081 -0.34220964 0.12051964 0.22827005 0.21445379 -0.5062637 0.28918773 -0.27023813 0.11463611 -0.5688417 0.41063446 0.24172032 -0.11627432 0.4142478 -0.27179527 -0.30151233 -0.37118915 -0.68682885
areas -0.103804044 -0.4051685 0.120362364 -0.33953878 0.041664857 0.25797534 0.24328366 -0.4349856 0.2504004 -0.29679328 0.20908166 -0.5789863 0.2584529 0.20149484 -0.14026368 0.39157724 -0.37557143 -0.3021396 -0.22725816 -0.66456294
pressure -0.04273804 -0.24352941 0.22660354 -0.2644751 0.15578528 0.39767027 0.220766 -0.6035379 0.30358437 -0.3365148 0.19502829 -0.5780201 0.42891085 0.19532898 -0.06705917 0.46400908 -0.27485257 -0.36316285 -0.20226333 -0.5554807
build -0.048476383 -0.39987716 0.11709411 -0.3956433 0.015752938 0.17436604 0.2613393 -0.44224906 0.23236115 -0.33682367 0.16206752 -0.5465762 0.3334414 0.2509284 -0.1474809 0.35683674 -0.35193306 -0.28901023 -0.20593442 -0.7031337
nice -0.0904679 -0.302772 0.19537696 -0.39797226 0.09775932 0.23989372 0.21993227 -0.50278324 0.30804762 -0.28768864 0.15136811 -0.6090739 0.31166103 0.21635576 -0.08416312 0.38788655 -0.30443546 -0.31533784 -0.22806045 -0.6156165
auto -0.083727896 -0.4034313 0.16334532 -0.41016883 0.0883092 0.111387625 0.18961479 -0.35480773 0.22487985 -0.35380766 0.17626864 -0.59548736 0.38935664 0.20203818 -0.16854174 0.3900598 -0.30264676 -0.26712057 -0.29022086 -0.6406347
bankers -0.12103748 -0.46624345 0.15560022 -0.3586527 0.010910483 0.14071785 0.26281816 -0.33682454 0.22160864 -0.31052408 0.16227746 -0.5655819 0.3154235 0.22688718 -0.13495769 0.38204557 -0.39568335 -0.2574507 -0.23370922 -0.75130206
relationship -0.07950021 -0.44716448 0.16609174 -0.40829626 0.049273442 0.09386092 0.24346823 -0.34864113 0.27146938 -0.3552707 0.17606476 -0.58080345 0.41041666 0.19716065 -0.16632739 0.36308154 -0.34910408 -0.23966184 -0.2602773 -0.69969815
changed -0.07252958 -0.38087636 0.15864837 -0.27068147 0.06535273 0.30446807 0.2077117 -0.48867452 0.21304257 -0.32331696 0.20547806 -0.5754574 0.34538305 0.22349675 -0.1277106 0.37802622 -0.34564123 -0.29649502 -0.1741279 -0.5912519
team -0.10555942 -0.4261241 0.17564192 -0.34900704 0.02384468 0.15243843 0.23197988 -0.34980097 0.2562117 -0.33795118 0.17525822 -0.5307854 0.3480668 0.25104117 -0.15960339 0.34092382 -0.39906138 -0.24545372 -0.21677281 -0.6723873
gives -0.04585533 -0.35448828 0.16791733 -0.3576037 0.051693793 0.27948573 0.27668017 -0.5164708 0.25511405 -0.30473688 0.18250325 -0.5394 0.35592273 0.2362797 -0.08776103 0.3799848 -0.36392507 -0.27524972 -0.20097058 -0.638366
experience -0.105041206 -0.4599612 0.14436394 -0.35484454 0.058936622 0.15646693 0.2622008 -0.33253187 0.23889351 -0.31615648 0.14351013 -0.5726317 0.3691989 0.22917755 -0.19827957 0.34502023 -0.39865926 -0.2378297 -0.25388277 -0.76696354
id -0.042564545 -0.33853605 0.07767686 -0.36200035 0.016469818 0.24022904 0.22825429 -0.48109788 0.28139442 -0.35819697 0.23119234 -0.56443226 0.26809752 0.19137217 -0.13908346 0.3804299 -0.35246283 -0.35753107 -0.16210978 -0.65515167
dividend -0.11454332 -0.37452278 0.17384619 -0.36627585 0.03199459 0.23547412 0.22666152 -0.51960856 0.25466692 -0.34508887 0.17327382 -0.5801563 0.34093732 0.24397266 -0.089841865 0.39296937 -0.31918636 -0.31648564 -0.17840362 -0.57488483
demand -0.08931774 -0.48012793 0.20633966 -0.55261624 0.08308003 0.02561023 0.14563462 -0.16561656 0.36950567 -0.39161536 0.044618923 -0.56396866 0.58089453 -0.004818008 -0.20408121 0.3477509 -0.23505 -0.22184959 -0.31244436 -0.8710918
group -0.12970667 -0.38993755 0.15198316 -0.3496553 0.059258927 0.20584391 0.22197449 -0.38460815 0.18952057 -0.34094578 0.1439985 -0.61712337 0.35052958 0.2292013 -0.14703532 0.34441355 -0.3737821 -0.2742691 -0.15512793 -0.6721872
hey 0.011540444 -0.054299466 0.01805331 -0.44183865 -0.023611743 0.106892064 0.23719567 -0.48338962 0.5856654 -0.20011014 0.29825073 -0.48209572 0.062346295 0.24716243 -0.058657955 0.14476617 -0.5498512 -0.3000378 -0.20234597 -0.64157426
full -0.10092824 -0.2510807 0.14281362 -0.3184739 0.11554352 0.3725621 0.24396385 -0.55440164 0.25048968 -0.33750024 0.22589818 -0.60456866 0.38240805 0.24016431 -0.12044435 0.4292602 -0.313304 -0.35952234 -0.16740015 -0.58834296
color -0.14098766 -0.2600878 0.10413271 -0.38188836 0.03123114 0.23036478 0.22810747 -0.49750078 0.40158015 -0.25355437 0.3104304 -0.5117827 0.18170077 0.22363202 -0.072561994 0.38561776 -0.3405439 -0.34293845 -0.26836324 -0.65372443
count -0.07351556 -0.31288654 0.16457213 -0.350162 0.060309563 0.29165947 0.22354329 -0.48878184 0.22024877 -0.3534212 0.2729169 -0.6538634 0.27122447 0.2794938 -0.092020534 0.43412519 -0.3643044 -0.36569014 -0.0989311 -0.588017
talking -0.087171465 -0.43376803 0.15887025 -0.31171343 0.08097075 0.26414022 0.18314959 -0.45577613 0.2862981 -0.29903212 0.1858174 -0.6105364 0.33636716 0.24079774 -0.1344717 0.43515033 -0.34865192 -0.34760624 -0.23166423 -0.6073984
many -0.07107276 -0.42380196 0.16215947 -0.3373101 0.061916765 0.20915537 0.23306957 -0.4146408 0.24577652 -0.3277729 0.21348774 -0.53045493 0.32633832 0.22834432 -0.14856006 0.40151644 -0.38750514 -0.28905597 -0.21762003 -0.6217193
particularly -0.052491445 -0.44849783 0.22042437 -0.42390758 0.0776965 0.1597241 0.16849765 -0.31373754 0.23556472 -0.33174437 0.17377146 -0.6075583 0.38520935 0.17529182 -0.14355047 0.34580305 -0.32334024 -0.27175137 -0.2506902 -0.7292599
pay -0.052981295 -0.42634636 0.20641467 -0.33101943 0.034963273 0.1840769 0.23870066 -0.42749608 0.24171834 -0.30736858 0.16165894 -0.5456825 0.3435092 0.23899548 -0.14518927 0.37418544 -0.376499 -0.3031861 -0.2596032 -0.6547478
service -0.059658457 -0.42456645 0.1550056 -0.4060774 0.09171935 0.14432214 0.23372841 -0.31746602 0.2524484 -0.31023657 0.16083138 -0.57139945 0.36364976 0.22191992 -0.15066816 0.34453815 -0.3695417 -0.20291224 -0.28420794 -0.7133931
relatively -0.058267456 -0.31609884 0.20272438 -0.36140883 0.08430444 0.29045957 0.21122569 -0.5442981 0.28210765 -0.3561737 0.21792905 -0.5978944 0.4216593 0.20478028 -0.0660874 0.39124966 -0.2695475 -0.28353897 -0.23323882 -0.6112127
insurance -0.097323276 -0.40686813 0.22007263 -0.35425645 0.03196605 0.17555329 0.18983914 -0.3659561 0.22727416 -0.31905687 0.1473478 -0.5519624 0.35874295 0.24443129 -0.15645218 0.36824796 -0.39373374 -0.26125872 -0.22657199 -0.66399443
understand -0.04511626 -0.39474803 0.16749421 -0.30846077 0.068144366 0.23978554 0.23971821 -0.46926394 0.24138708 -0.32937104 0.21861652 -0.5464491 0.34055552 0.26963648 -0.095541276 0.38384652 -0.37018296 -0.29798847 -0.21251674 -0.63105386
teams -0.06330523 -0.36907727 0.16593349 -0.38859802 0.04226585 0.1923435 0.22079453 -0.43049008 0.3138308 -0.3427691 0.16886617 -0.5599277 0.31607974 0.20777348 -0.13009475 0.3027192 -0.396355 -0.25570533 -0.20237191 -0.68290937
followup -0.034994483 -0.21571693 0.06216958 -0.36259735 0.0487533 0.18244027 0.1821901 -0.5056081 0.5186992 -0.3216638 0.36901027 -0.44857797 0.13276456 0.23419257 -0.11729027 0.352859 -0.3814671 -0.35037163 -0.2583936 -0.6845767
online -0.10378255 -0.5133242 0.14750287 -0.35380638 0.05805979 0.0829875 0.21590923 -0.26737657 0.24719553 -0.36456046 0.14568247 -0.61262053 0.3018435 0.23621146 -0.21834746 0.41042465 -0.37098372 -0.22981146 -0.2017771 -0.68422365
close -0.050624706 -0.31025207 0.094257385 -0.30297256 0.08017153 0.32246593 0.20156161 -0.54422593 0.24521783 -0.3669271 0.23556775 -0.598765 0.3256509 0.24226792 -0.105095185 0.4241393 -0.31872126 -0.34284216 -0.17787075 -0.5525725
liquidity -0.094001934 -0.39273262 0.1844779 -0.32096332 0.059351746 0.19845024 0.24053241 -0.46185818 0.19397 -0.33637798 0.14550686 -0.5640492 0.34170815 0.23806556 -0.10776295 0.36607265 -0.34390935 -0.29934022 -0.24308042 -0.66396475
overall -0.027303396 -0.37797663 0.1094087 -0.3820079 0.16486949 0.22977786 0.2317164 -0.47192252 0.2628779 -0.27120167 0.17774907 -0.5768147 0.4228473 0.22439505 -0.14208896 0.3834438 -0.28666437 -0.27355352 -0.28631377 -0.64329565
certainly -0.106892645 -0.3498137 0.14825891 -0.33739194 0.08929594 0.29359812 0.20583409 -0.47773257 0.26933244 -0.30135214 0.21376377 -0.5489642 0.30987713 0.25231475 -0.115763456 0.4199925 -0.36453125 -0.35306 -0.20503807 -0.6065048
anything -0.086433426 -0.37329972 0.18627879 -0.31606188 0.054122254 0.23689556 0.22396006 -0.49167135 0.26993477 -0.30013543 0.21753728 -0.5395575 0.3267146 0.25434762 -0.11990674 0.43115687 -0.3347444 -0.34727702 -0.21983238 -0.6157273
company -0.080674075 -0.3513503 0.14347403 -0.3556689 0.10348832 0.22480425 0.25159612 -0.46081433 0.25945646 -0.3570958 0.17630212 -0.5518496 0.3226685 0.21018974 -0.10304223 0.37874666 -0.34456804 -0.25933272 -0.2570015 -0.6437839
piece -0.08458529 -0.39258793 0.17767763 -0.39264995 0.07713455 0.19297245 0.21694954 -0.4240884 0.21135958 -0.35220048 0.15247503 -0.5549754 0.40277788 0.19374515 -0.13888423 0.37807623 -0.30671468 -0.28444874 -0.21201457 -0.65441066
generate -0.036047403 -0.3969983 0.24532273 -0.35384518 0.09366994 0.19221313 0.24601346 -0.50645757 0.24568295 -0.3232323 0.11455701 -0.51403785 0.39347777 0.28122735 -0.1090747 0.3859935 -0.3977308 -0.26199093 -0.25887138 -0.7174713
hedging -0.080154635 -0.34082183 0.20704499 -0.25456405 0.10890413 0.3167944 0.20470019 -0.5428054 0.29351714 -0.3062401 0.22729261 -0.5390907 0.3269367 0.23657514 -0.11561129 0.38246596 -0.29520887 -0.34893763 -0.26298344 -0.5995672
relationships -0.10244106 -0.46520022 0.16636448 -0.37603247 0.07542315 0.08466044 0.22977455 -0.321194 0.24816585 -0.342957 0.13322957 -0.54887617 0.41177002 0.23066097 -0.17349964 0.38336527 -0.37542495 -0.22654541 -0.2558131 -0.6937071
sensitivity -0.039708186 -0.37788492 0.14416315 -0.26058492 0.08356326 0.30998775 0.22341119 -0.56022847 0.25841796 -0.30722427 0.21401377 -0.5429165 0.3338348 0.24423079 -0.105345525 0.41874844 -0.33490705 -0.29609406 -0.256702 -0.5847799
initiative -0.08886406 -0.34886774 0.18954279 -0.4528038 0.018956529 0.15873225 0.2687465 -0.4945076 0.2539404 -0.30930632 0.13365935 -0.46174046 0.34437424 0.25498083 -0.089711666 0.30329537 -0.3891918 -0.38562787 -0.2371863 -0.77124953
came -0.08836216 -0.364259 0.15156557 -0.32626957 0.10344301 0.23976485 0.19635221 -0.49404347 0.24677762 -0.31893042 0.20832145 -0.58001673 0.3289424 0.20939924 -0.09830003 0.42287678 -0.3065526 -0.35533208 -0.209853 -0.5899405
set -0.035609525 -0.34535238 0.15021999 -0.34794536 0.06326651 0.24500139 0.24851847 -0.49334112 0.21727777 -0.3548159 0.16784856 -0.5380258 0.38850015 0.25082105 -0.09325595 0.39499345 -0.35623807 -0.31173554 -0.18301633 -0.61796045
extent -0.08032221 -0.32469246 0.17911884 -0.2701758 0.08232709 0.2839291 0.23035209 -0.5100987 0.22010064 -0.33305725 0.2122983 -0.561739 0.3070804 0.26530132 -0.09454055 0.38978034 -0.34715468 -0.33859855 -0.20107836 -0.5415809
line -0.058657546 -0.34040278 0.11786045 -0.34931803 0.14097206 0.21348041 0.23539273 -0.5054604 0.27126887 -0.30034745 0.19099158 -0.5683269 0.3401507 0.18705776 -0.11498018 0.3543 -0.31049526 -0.29032314 -0.27857828 -0.6360156
needs -0.09705603 -0.5156193 0.1626039 -0.33962482 0.052878834 0.14497104 0.25605533 -0.3505697 0.21172662 -0.35785368 0.11694769 -0.54791474 0.41596404 0.21163549 -0.15148169 0.36556268 -0.42729354 -0.22697279 -0.23055789 -0.71992713
levels -0.060378328 -0.3329554 0.17235169 -0.3266229 0.12232942 0.2802124 0.21798953 -0.48509145 0.24469234 -0.2781684 0.22559798 -0.5831272 0.37391144 0.26753107 -0.10158612 0.4329464 -0.25048056 -0.27466115 -0.27617678 -0.60195297
corporate -0.11287526 -0.5147964 0.28462297 -0.35158616 0.04783083 0.11519065 0.24414086 -0.3306958 0.27223697 -0.25550696 0.069421075 -0.6435856 0.36228698 0.2240171 -0.086173005 0.35477042 -0.29366615 -0.2082535 -0.2711531 -0.77918154
committed -0.031897984 -0.3437183 0.14154921 -0.311964 0.063063376 0.2373731 0.21415566 -0.5546001 0.23757556 -0.315975 0.15432927 -0.59798545 0.3713961 0.26553288 -0.113849305 0.38860565 -0.36582342 -0.2886086 -0.22556101 -0.6077853
reduce -0.067291096 -0.33916232 0.19176228 -0.35441893 0.06869894 0.23294777 0.22285932 -0.4861634 0.27668923 -0.34811914 0.18657804 -0.59579045 0.37075388 0.2515873 -0.1201264 0.36040616 -0.35618973 -0.27678955 -0.23379335 -0.6240711
others -0.10681332 -0.39032578 0.177856 -0.36213627 0.055718854 0.23385695 0.19953558 -0.47253695 0.27749494 -0.3187323 0.18916366 -0.53306466 0.32918167 0.24860163 -0.108186886 0.39014333 -0.37191248 -0.30609462 -0.22367157 -0.64613175
deliver -0.075570896 -0.40398365 0.17986351 -0.3576287 0.050941914 0.18330826 0.21577305 -0.49002978 0.24847263 -0.31339964 0.11408482 -0.5730499 0.33605888 0.24637884 -0.11466539 0.36590236 -0.3426139 -0.27568513 -0.24622275 -0.63736475
services -0.07278994 -0.45161805 0.19145988 -0.3907909 0.09044741 0.10095269 0.24545059 -0.32254848 0.21592537 -0.32467824 0.098276034 -0.5969443 0.3857458 0.22686517 -0.10800481 0.34400836 -0.3432067 -0.23812395 -0.29835036 -0.72097427
factset -0.09810465 -0.36093432 0.07659095 -0.3349604 -0.020534007 0.1271872 0.21368778 -0.31067514 0.16416773 -0.32135943 0.12714018 -0.73897314 0.1930857 0.30995572 -0.054395653 0.43381098 -0.27120128 -0.20886746 -0.21116506 -0.66330045
primarily -0.077509865 -0.39340162 0.1917888 -0.3268219 0.08735035 0.20095757 0.21263784 -0.44808388 0.22714971 -0.31074157 0.18334085 -0.5909988 0.32770646 0.24043567 -0.10190987 0.39377442 -0.32630637 -0.25954628 -0.21150117 -0.60998034
nonbank -0.09728641 -0.3721918 0.13732816 -0.42792886 0.08428506 0.15400931 0.25595447 -0.40924066 0.2599426 -0.30648732 0.18260147 -0.55717 0.33683494 0.21283953 -0.1523728 0.33996117 -0.36428767 -0.2714716 -0.2647885 -0.698827
become -0.078282684 -0.38769785 0.17953046 -0.35003844 0.051980894 0.24259356 0.2295561 -0.4454432 0.20757322 -0.3017565 0.16641791 -0.5103407 0.36213955 0.26626185 -0.14601418 0.35759676 -0.3943432 -0.31488228 -0.21865664 -0.6433309
betas -0.077876866 -0.39402944 0.18815394 -0.3395824 0.08243675 0.22436658 0.21099856 -0.4782033 0.3197955 -0.3486468 0.14092098 -0.5735748 0.47333845 0.16201404 -0.10971725 0.4262239 -0.28766355 -0.3141198 -0.2057983 -0.58082247
head -0.12122909 -0.3305499 0.16152304 -0.3545828 0.06379693 0.24962737 0.22740173 -0.45035893 0.19941977 -0.3433232 0.19504634 -0.66325563 0.27687424 0.28086683 -0.12544543 0.38469714 -0.37217474 -0.36289534 -0.14051855 -0.5860889
quarters -0.059891712 -0.23918474 0.12700808 -0.31796438 0.13486904 0.35027835 0.20387086 -0.6030994 0.26672795 -0.35699308 0.31757173 -0.5974375 0.2695461 0.17988572 -0.16655844 0.43780732 -0.33695197 -0.4200173 -0.12088423 -0.5357699
fee -0.07673626 -0.32829112 0.21530695 -0.37841508 0.12594682 0.19795749 0.26262543 -0.50302243 0.28112996 -0.27755523 0.13910456 -0.5183175 0.35545906 0.20618199 -0.07070118 0.41685656 -0.3320561 -0.25663653 -0.2659743 -0.6863175
type -0.09903272 -0.42380503 0.2128966 -0.35075277 0.04410057 0.20258492 0.22524641 -0.4417415 0.23350666 -0.30522102 0.15931875 -0.6024096 0.36627254 0.23833448 -0.13176516 0.4039134 -0.32667956 -0.28178117 -0.264292 -0.6871746
credits -0.049669173 -0.31308857 0.111802734 -0.30483893 0.102498434 0.26655787 0.23121274 -0.46997285 0.23978737 -0.35285673 0.250324 -0.5679112 0.2633561 0.2512272 -0.14119367 0.3896025 -0.35127816 -0.28780994 -0.21138741 -0.55757004
matt -0.07233988 -0.2813568 0.111958675 -0.40444773 0.0072043547 0.17780901 0.22519602 -0.4609861 0.36504206 -0.28608188 0.2462292 -0.46713087 0.22333081 0.23072799 -0.11906493 0.28031293 -0.40185058 -0.300244 -0.16305783 -0.61078906
certain -0.037823368 -0.37432593 0.15743087 -0.3301449 0.103815764 0.21059127 0.2404877 -0.4396127 0.2778607 -0.30447608 0.18943112 -0.59619963 0.37508938 0.24428594 -0.11835437 0.37188277 -0.32015738 -0.27064672 -0.28652123 -0.61864126
course -0.06345431 -0.33657396 0.15009983 -0.30906478 0.089338906 0.30964994 0.20133936 -0.50195926 0.24746521 -0.29660648 0.20339076 -0.5930786 0.2942066 0.20259893 -0.07992732 0.43326446 -0.3502362 -0.3479882 -0.19016194 -0.6012575
largely -0.06523631 -0.3871598 0.18735096 -0.35997593 0.06909074 0.1755384 0.23233688 -0.39281404 0.21461861 -0.32452717 0.17722107 -0.5596685 0.37065747 0.26176876 -0.11830714 0.35924235 -0.33726272 -0.24324673 -0.25212938 -0.6673236
short -0.005105466 -0.3634244 0.1495467 -0.27061054 0.12346049 0.35572776 0.2067336 -0.5449048 0.22176562 -0.32717463 0.2538965 -0.5751216 0.34842762 0.25491098 -0.09780454 0.42487007 -0.2655995 -0.32007867 -0.23831555 -0.5234249
started -0.09659243 -0.32753602 0.123839624 -0.31547645 0.09261965 0.22232759 0.22288552 -0.4666212 0.273244 -0.354231 0.23054081 -0.57346624 0.30727312 0.24978586 -0.104193576 0.36144096 -0.3724903 -0.34027427 -0.18162823 -0.5591077
board -0.069116496 -0.351477 0.14257279 -0.32898593 0.076921634 0.22889517 0.22500154 -0.4295715 0.27286902 -0.31428668 0.21581462 -0.5537796 0.25784415 0.21619952 -0.0916781 0.3321646 -0.38462824 -0.3219586 -0.20541428 -0.60842335
comes -0.015124939 -0.35676882 0.13440523 -0.31636822 0.08117176 0.25377697 0.20612888 -0.45885092 0.2604761 -0.2958079 0.18410344 -0.57188576 0.32693517 0.25726157 -0.14549536 0.43933806 -0.32323164 -0.3287105 -0.2701912 -0.6190125
since -0.035100408 -0.34826094 0.12718949 -0.32194507 0.053805955 0.3373867 0.19454719 -0.4986886 0.2134462 -0.33903462 0.22954585 -0.62946033 0.32490247 0.24122849 -0.11700006 0.4244048 -0.32211307 -0.33971027 -0.15711987 -0.5530044
prepared -0.105361514 -0.31945994 0.16496521 -0.3143037 0.07912798 0.26296148 0.24595274 -0.46006107 0.27785662 -0.2765646 0.23428087 -0.60073286 0.29843983 0.20939802 -0.12015364 0.41070116 -0.3653837 -0.36309427 -0.22567922 -0.5942502
wed -0.05801316 -0.37509793 0.13944961 -0.35365582 0.06269135 0.3153992 0.22223902 -0.5194758 0.27670753 -0.3328215 0.24967456 -0.5516522 0.31965634 0.22588119 -0.107164666 0.40640533 -0.37278703 -0.35739708 -0.17213722 -0.6424382
key -0.10716569 -0.35844898 0.15979384 -0.34530836 0.08079268 0.22350833 0.2319322 -0.46069428 0.28401935 -0.30084616 0.15522084 -0.5431116 0.36590177 0.21493113 -0.11710236 0.39201465 -0.3338593 -0.2859648 -0.21979101 -0.66932046
footprint -0.110133454 -0.39440277 0.15196311 -0.34347948 0.0760185 0.19749044 0.24039996 -0.40857172 0.25887913 -0.28508195 0.14628832 -0.552677 0.32177988 0.25423676 -0.13549745 0.36507872 -0.3547329 -0.24744974 -0.2240988 -0.6650209
future -0.06436894 -0.3723181 0.15393439 -0.30436388 0.0794789 0.25248188 0.23846895 -0.5013347 0.24665725 -0.33792403 0.17830513 -0.57366616 0.3074871 0.23826995 -0.10199962 0.38436648 -0.3250197 -0.31320968 -0.2471653 -0.63079554
faster -0.10202956 -0.37029207 0.22085717 -0.41735882 0.06694539 0.18029183 0.26558203 -0.43487424 0.28656438 -0.34520996 0.113557816 -0.5408125 0.4229909 0.16536058 -0.11806403 0.3818761 -0.361172 -0.2849026 -0.2575327 -0.7175185
moving -0.06975735 -0.3896128 0.15157582 -0.33354506 0.07545129 0.3141013 0.21216556 -0.45867452 0.25082657 -0.31709826 0.18708177 -0.55451804 0.343475 0.24992055 -0.13258962 0.40659133 -0.3224029 -0.29725346 -0.22579934 -0.62846935
lets -0.041591022 -0.3784805 0.15254137 -0.3294467 0.0798445 0.244764 0.2338727 -0.5020605 0.35113797 -0.31179062 0.21211737 -0.5657371 0.34351292 0.22413036 -0.090514235 0.42126822 -0.34542975 -0.3237335 -0.22364354 -0.6470384
fixed -0.035431262 -0.38417166 0.23174667 -0.3003723 0.09726343 0.2784762 0.21818146 -0.46901637 0.25935647 -0.35720745 0.17297846 -0.53717 0.4275148 0.27521953 -0.14522475 0.42682022 -0.36102006 -0.31986484 -0.26582015 -0.59018934
losses -0.0717277 -0.394344 0.14197236 -0.33809102 0.11275444 0.28615183 0.23947951 -0.43443662 0.23147291 -0.28794944 0.21142074 -0.5774702 0.28560436 0.25870827 -0.060532406 0.42208248 -0.29017368 -0.31261495 -0.20892633 -0.5774435
try -0.04449172 -0.3150456 0.1314006 -0.32372037 0.059127446 0.26091096 0.24729311 -0.48760414 0.24341653 -0.33958837 0.17574738 -0.54580575 0.33919856 0.2478991 -0.103671014 0.3705018 -0.3263945 -0.31795228 -0.1936915 -0.592711
either -0.07289556 -0.3918771 0.12931189 -0.3169342 0.09433716 0.26026016 0.22069816 -0.47567114 0.21424088 -0.34533027 0.17156805 -0.579845 0.3153437 0.2643372 -0.104736365 0.38090026 -0.337884 -0.28958637 -0.21925117 -0.64982396
sense -0.09066108 -0.35489282 0.14994685 -0.31350696 0.08162311 0.27708614 0.22609496 -0.5574894 0.31649595 -0.33649665 0.21066582 -0.5655634 0.33095327 0.2551404 -0.099174835 0.4140005 -0.33847442 -0.31448135 -0.24661158 -0.61853176
solid -0.06919358 -0.39863575 0.23325808 -0.4016636 0.061860334 0.17590578 0.26732245 -0.44166866 0.27655643 -0.2744145 0.16479985 -0.59033287 0.36517185 0.19300316 -0.12381915 0.34168768 -0.36622518 -0.27006698 -0.21016707 -0.7207894
though -0.093534015 -0.30475694 0.119830854 -0.35136047 0.07751443 0.29022056 0.24871178 -0.5287094 0.24264832 -0.32101506 0.20959996 -0.54263395 0.32386565 0.20057142 -0.14065273 0.38805738 -0.35366598 -0.33598542 -0.16789128 -0.5991641
invest -0.09904768 -0.4359135 0.1593969 -0.36081362 0.035007365 0.20509975 0.24476779 -0.46385354 0.23463012 -0.283571 0.16629739 -0.55307585 0.3381765 0.2355609 -0.13809767 0.3539138 -0.38829646 -0.29241735 -0.2560039 -0.7041688
meet -0.11727167 -0.42994198 0.21263449 -0.32645452 0.055185888 0.21096909 0.2380765 -0.41654652 0.23587191 -0.33535266 0.14416602 -0.5715943 0.3917021 0.25847727 -0.11747673 0.3867008 -0.394236 -0.2493705 -0.2252503 -0.68237007
looks -0.09548339 -0.3307188 0.10340245 -0.3426136 0.07533834 0.2986064 0.2070678 -0.50663304 0.35588023 -0.32466727 0.28325716 -0.57700676 0.27006146 0.2533922 -0.11119217 0.41354412 -0.35633257 -0.3554727 -0.20569803 -0.57059264
additional -0.055473376 -0.27983168 0.07522268 -0.34004456 0.12368135 0.26215234 0.27953884 -0.5211105 0.17617135 -0.3508859 0.21240912 -0.58235055 0.36033455 0.19228843 -0.0980943 0.37381592 -0.3209174 -0.30891672 -0.16102822 -0.60673803
